#include "network_evaluate.h"

static const int structure [5][2] = {{8, 64},{64, 64},{64, 64},{64, 64},{64, 1}};
static float output_0[64];
static float output_1[64];
static float output_2[64];
static float output_3[64];
static float output_4[1];
static const float net_net_0_0_weight[8][64] = {{0.04735589027404785,0.06970091909170151,-0.08309417963027954,-0.07081744074821472,0.014788128435611725,-0.12375124543905258,-0.10737942904233932,0.04959015175700188,-0.044859059154987335,-0.1142357662320137,-0.02861478179693222,0.06553874909877777,-0.02185869589447975,-0.05884171649813652,0.042041633278131485,0.04559234902262688,-0.03392386436462402,0.07773193717002869,0.06027320399880409,0.006467300932854414,0.0472136065363884,-0.06620192527770996,0.1257915198802948,0.10743880271911621,0.10312484949827194,-0.022254664450883865,0.04623747989535332,-0.0054422286339104176,0.07283468544483185,0.050299108028411865,0.024565959349274635,0.027884749695658684,0.06280893087387085,0.11651592701673508,0.04981650039553642,0.032859399914741516,-0.018338218331336975,-0.05661723017692566,0.05474960431456566,0.10657024383544922,-0.05624232813715935,-0.01941058412194252,0.12191379070281982,-0.015085143968462944,0.08190657943487167,0.03418456390500069,-0.03510580211877823,0.04196735471487045,-0.08586742728948593,0.14483743906021118,0.11183670908212662,0.07482079416513443,-0.08835623413324356,0.08551359921693802,-0.059991504997015,-0.0984712690114975,-0.08676405996084213,-0.12905600666999817,-0.01913788914680481,0.035763271152973175,-0.04187522456049919,0.04436090216040611,0.05163101851940155,0.10990653187036514},{0.018360814079642296,-0.12914007902145386,-0.18100865185260773,0.14170877635478973,0.13397756218910217,0.09739013016223907,-0.08009671419858932,-0.08254244923591614,-0.1161157488822937,0.12089045345783234,-0.13340578973293304,-0.12941506505012512,-0.002062571235001087,0.05652482062578201,0.011054018512368202,0.0347147062420845,0.13379201292991638,-0.012848254293203354,0.13602468371391296,0.04544047638773918,0.10092873871326447,0.036790069192647934,-0.005868948996067047,0.09888134151697159,0.001328474492765963,-0.004945437423884869,-0.031689368188381195,0.018496347591280937,0.03854771703481674,-0.0011914529604837298,-0.13198760151863098,0.034031134098768234,0.004755500238388777,0.12934578955173492,-0.010129922069609165,-0.0549602136015892,-0.040155135095119476,-0.1332293450832367,0.03214510902762413,0.07896111905574799,-0.13141751289367676,-0.16273416578769684,0.13030217587947845,0.006171653047204018,0.01279364712536335,-0.0550338476896286,-0.13812805712223053,-0.07489798218011856,0.1274907886981964,0.06830310076475143,0.008153330534696579,-0.16173502802848816,0.1385752111673355,0.00048635201528668404,0.05917925015091896,-0.000801552552729845,0.0870303362607956,-0.1458548754453659,-0.121989905834198,-0.0041069146245718,0.01545778103172779,0.06655092537403107,0.008469677530229092,-0.004656628239899874},{0.04020518437027931,0.04773906245827675,0.15379825234413147,0.04501395672559738,0.060720186680555344,-0.08110380172729492,-0.11619501560926437,0.01348939724266529,-0.0009990920079872012,-0.1343967318534851,-0.018232103437185287,-0.015974925830960274,-0.06445314735174179,-0.11824732273817062,0.02273750677704811,0.053644824773073196,-0.14471057057380676,0.09305137395858765,-0.054717231541872025,0.02949933335185051,0.05767039954662323,-0.027207816019654274,-0.05772234499454498,0.03465292230248451,-0.08012562245130539,0.05908555909991264,-0.11172366887331009,0.08845067024230957,-0.11010265350341797,0.0064796931110322475,-0.014357006177306175,0.0534791573882103,-0.07317470014095306,0.08158475905656815,-0.016216538846492767,0.08914006501436234,-0.018020030111074448,-0.059212442487478256,0.12555958330631256,0.07251501828432083,0.10530727356672287,-0.1215118020772934,-0.06036696583032608,0.05752963200211525,-0.057842470705509186,0.005636871792376041,-0.02082379162311554,0.019515955820679665,0.1273299753665924,-0.003986973315477371,0.04403744637966156,0.003994198050349951,-0.018887676298618317,-0.09428274631500244,0.025610506534576416,-0.007175750564783812,0.014030298218131065,0.037543196231126785,0.028970375657081604,0.005333103705197573,0.018035462126135826,0.049940500408411026,-0.07666375488042831,0.06295331567525864},{6.573487189598382e-05,-4.1419396438868716e-05,-5.147318006493151e-05,8.427220018347725e-05,-0.00010296829714206979,0.0009257259662263095,-3.3421561965951696e-05,7.352847751462832e-05,8.2683029177133e-05,-1.0069197742268443e-05,-0.00014327687676995993,0.0007145003764890134,-0.0006587756215594709,-1.5452127627213486e-05,4.598768282448873e-05,-0.0010900762863457203,-3.2090967579279095e-05,7.511071089538746e-06,-0.0008060725522227585,0.00024841519189067185,7.677375106140971e-05,5.6548331485828385e-05,0.0008833537576720119,0.0010248639155179262,5.047137165092863e-06,-4.658171383198351e-05,5.102566137793474e-05,5.747842806158587e-05,8.238220470957458e-05,3.1056148145580664e-05,-0.0010329823708161712,-0.0011239978484809399,-0.0008450591703876853,-1.0751086847449187e-05,1.5292434909497388e-05,-1.4914014172973111e-05,-0.0009135970030911267,8.958290709415451e-05,4.1023613448487595e-05,6.420652789529413e-05,-3.678263965412043e-05,1.8708871721173637e-05,-2.268034040753264e-05,5.704700015485287e-05,0.0003673478204291314,1.732399505272042e-05,-0.0005724655347876251,-2.9098422601236962e-05,-0.0009723285911604762,5.5739685194566846e-05,9.02756983123254e-06,-2.677847442100756e-05,6.0754096921300516e-05,3.974118044425268e-06,0.001050537102855742,-1.8483684470993467e-05,-0.0007629214669577777,-8.932889613788575e-05,9.049665095517412e-05,1.2266520570847206e-05,-0.0009007525513879955,-2.44264865614241e-05,7.481866487069055e-05,0.0009163764188997447},{0.022238733246922493,0.0047676158137619495,-0.006006174720823765,0.007600653450936079,0.06630541384220123,0.014966615475714207,-0.013780255801975727,-0.007658473681658506,-0.046126727014780045,0.00211763265542686,-0.06077983230352402,-0.02636130154132843,0.04112514853477478,0.0027036303654313087,0.025752052664756775,-0.05529487505555153,0.0058255852200090885,-0.013829732313752174,-0.03248067945241928,-0.008005382493138313,-0.047837741672992706,0.00735878013074398,-0.00375596946105361,-0.03949554264545441,0.0031509397085756063,-0.0067907944321632385,0.01548399031162262,0.033649396151304245,-0.03184761479496956,-0.0065988837741315365,0.007982248440384865,-0.055537302047014236,0.00028825245681218803,-0.004982231184840202,-0.0854201689362526,0.013445083983242512,0.004209769889712334,-0.008802107535302639,0.05217031389474869,-0.02791905589401722,0.03686029464006424,0.0012699365615844727,0.009153279475867748,-0.0010081465588882565,-0.015087713487446308,0.054645977914333344,-0.027111534029245377,-0.039600152522325516,0.0072639635764062405,0.01611519791185856,0.007683717180043459,0.0029165814630687237,0.05227259546518326,0.0009555870201438665,0.0309994388371706,-0.008124537765979767,-0.0045914496295154095,0.006448072846978903,-0.008881269954144955,-0.023552339524030685,-0.0073251547291874886,0.014975707978010178,0.015147465281188488,-0.002195287961512804},{0.07280771434307098,0.09145452827215195,0.009155317209661007,-0.0422811433672905,0.04274093732237816,0.010233183391392231,-0.018937865272164345,-0.03259593993425369,-0.06765949726104736,-0.04602070897817612,-0.0023233089596033096,-0.022227557376027107,0.03398783132433891,-0.01969507895410061,0.05586078017950058,-0.08471459895372391,0.02875327877700329,-0.07053893059492111,-0.025108609348535538,-0.06154680624604225,0.06447095423936844,-0.0006056673591956496,0.0010819474700838327,0.011748552322387695,-0.04730172082781792,0.008694152347743511,0.019413743168115616,0.03443593531847,-0.037636898458004,0.07646705210208893,-0.029211310669779778,-0.08694678544998169,-0.004194486886262894,-0.0042619784362614155,-0.050669752061367035,-0.023190250620245934,-0.03334648162126541,-0.026510870084166527,-0.018973050639033318,0.024479612708091736,-0.031186698004603386,-0.013117257505655289,0.02748875506222248,0.0902719721198082,-0.05360661447048187,-0.013986289501190186,-0.021323321387171745,0.002124776365235448,0.03473534807562828,0.03899180144071579,0.0035791960544884205,0.04357011988759041,-0.01036349218338728,-0.005523467902094126,0.009003384970128536,-0.010368901304900646,0.041827164590358734,0.02274431101977825,-0.025320492684841156,-0.05966863036155701,0.03414643555879593,0.03253427892923355,0.046330228447914124,0.05374296009540558},{0.008856338448822498,6.0719274188159034e-05,-0.000585869129281491,-0.0005177132552489638,-0.0008965782471932471,0.07111027091741562,-3.434635800658725e-05,0.0067944610491395,0.0026890505105257034,-0.0007348814397118986,-8.896788494894281e-05,0.049341052770614624,-0.05570342764258385,-0.0003257383650634438,0.006994322873651981,-0.08001527190208435,-0.0008588059572502971,8.382069790968671e-05,-0.054375968873500824,0.012491898611187935,0.001289489446207881,-0.0005708343232981861,0.06711282581090927,0.07953057438135147,-0.00027680755010806024,0.00016231954214163125,0.001074313884600997,0.0007806106586940587,0.0006627255352213979,-0.00022445035574492067,-0.07156971096992493,-0.08054626733064651,-0.06682470440864563,-0.00011687020742101595,0.00012351767509244382,7.269773777807131e-05,-0.06309441477060318,0.005412401631474495,0.0007898366893641651,-0.00042916476377286017,-0.004300294443964958,-0.0006611011340282857,-4.564050686894916e-05,-0.0011429109144955873,0.027094043791294098,0.0020298438612371683,-0.0450180247426033,0.0008505842997692525,-0.07495148479938507,0.0004942273953929543,-0.00013426509394776076,-0.0001755061821313575,-0.0010763364844024181,0.0002738532202783972,0.07510466128587723,0.00010714587551774457,-0.06746471673250198,-0.004864808171987534,0.00533493934199214,0.001028828090056777,-0.06610435992479324,-0.003741870867088437,-0.00040550241828896105,0.06408292055130005},{-0.012173124589025974,-0.004109038505703211,0.0004796696302946657,0.0001283128949580714,-0.0009777819504961371,0.00128832901827991,-0.0004348375368863344,-0.0022211845498532057,0.00848739966750145,0.00031416898127645254,-0.02038552798330784,-0.0011006869608536363,-0.0015474538085982203,-0.000486380624352023,-0.011103808879852295,-0.009189042262732983,0.00026644879835657775,-0.007735644932836294,-0.00111079728230834,-0.002191173378378153,0.0006120562320575118,-0.00410533556714654,-0.0002437562943669036,0.0031565690878778696,-0.0020090830512344837,-0.0059103574603796005,0.0017968531465157866,-0.0006305651040747762,-0.001125520677305758,0.0016564675606787205,-0.002502109156921506,-0.009581733494997025,0.0014968401519581676,-0.0007017289171926677,-0.0014528523897752166,0.0008826276171021163,0.0002131102664861828,-0.0013093736488372087,-0.0021701836958527565,0.0011227541835978627,-0.00019449378305580467,0.0002782798546832055,0.0001096388659789227,0.019235827028751373,-0.0031045943032950163,0.0020057247020304203,-0.000905577908270061,0.0003522372280713171,2.425985803711228e-05,0.0011847032001242042,0.009883699007332325,-0.0021142675541341305,-0.0024018832482397556,7.497869955841452e-05,-0.0030335611663758755,0.016833756119012833,0.0032698195427656174,0.0017302536871284246,-0.001484582549892366,-0.004321603570133448,0.000522569811437279,0.017309173941612244,0.006951483897864819,0.0007148545701056719}};
static const float net_net_1_0_weight[64][64] = {{0.001013649278320372,0.0006456294213421643,1.2807022358174436e-05,0.0047960830852389336,-0.0004331215750426054,-0.00023282793699763715,0.0020805199164897203,-0.001764086540788412,0.0010796344140544534,0.0007993674953468144,-0.0008620457956567407,0.0030490050558000803,-0.0013818714069202542,5.684075222234242e-05,-0.0001678094413364306,0.002526970347389579,-0.004545709118247032,0.0003547358210198581,-0.0033070684876292944,0.0009495184058323503,-0.0018213314469903708,0.0019680603872984648,-0.004589672200381756,0.003028266364708543,-0.0024623707868158817,-0.003124037990346551,-0.0014952137134969234,0.000996653689071536,-0.0009212149889208376,0.00019710655033122748,0.002070988994091749,-0.0013482262147590518,-0.0013892765855416656,0.001610152772627771,0.00028345832834020257,0.0011680457973852754,8.592746598878875e-05,-0.00035284136538393795,-0.0007549006259068847,0.002055457327514887,-0.0019782190211117268,0.0010551171144470572,-0.00255780341103673,0.0007260041311383247,-0.0003768136666622013,-0.0011249624658375978,-0.00046225282130762935,0.0005004685954190791,-0.00014937733067199588,-0.001100695226341486,0.0025874727871268988,-0.0007432603160850704,0.0001263349549844861,-0.0003243433893658221,-0.000661570462398231,0.0021744563709944487,0.0008046940783970058,4.785567580256611e-05,0.006610493641346693,-0.0010429610265418887,-0.0002279790205648169,-3.084171112277545e-06,9.079233859665692e-05,-0.0017189392820000648},{-0.0022964864037930965,0.0006397744291462004,-0.00317578692920506,-0.002191893057897687,-0.00041915071778930724,-0.0001809843088267371,0.0009161054040305316,-0.001412483281455934,-0.0011010452872142196,0.003503561718389392,-0.00030123157193884254,-0.002047377172857523,-5.5184100347105414e-05,0.0025629615411162376,0.0017975468654185534,0.001798901124857366,0.0033680240157991648,0.0017275608843192458,0.0001608044985914603,-0.0028746759053319693,1.1825512956420425e-05,-0.0007430727710016072,0.0018314081244170666,0.003054826520383358,0.005357859190553427,-0.0015811065677553415,0.0009637196199037135,-0.0035909414291381836,0.0006426957552321255,0.0010478234617039561,0.0012480803998187184,-0.004321242216974497,-0.00116069451905787,-0.005382849369198084,-0.0004980025114491582,-0.0001338287111138925,-0.0006985984509810805,-0.0005174788529984653,0.0009876416297629476,0.0024304159451276064,0.00021818579989485443,-0.000706158229149878,-0.0022579128853976727,-0.0027993249241262674,-2.607173883006908e-05,0.0007062191143631935,0.0016706601018086076,-0.0004441436321940273,-0.001861726981587708,-0.002119193086400628,-0.0008618622086942196,0.002697004470974207,-0.00123691582120955,-0.0006114983698353171,-0.002235799329355359,-0.0024779117666184902,-0.0030072671361267567,-0.000950799323618412,0.004110028501600027,0.00041970881284214556,-0.00272038159891963,-0.001973105827346444,-0.004753203596919775,-0.0034126683603972197},{-0.001835683360695839,-0.001465254696086049,0.0070332796312868595,-0.003861855948343873,-0.00847579725086689,-0.0038214395754039288,-0.000728207582142204,0.00625874288380146,0.001009308616630733,-0.0064286538399755955,-0.0028571959119290113,-0.0027486057952046394,0.0011873921612277627,-0.005022757221013308,-0.0019705058075487614,0.0016182557446882129,0.0005073429783806205,3.461768210399896e-05,0.007568972650915384,0.0035612578503787518,-0.0015539071755483747,-0.001970488578081131,0.0033420277759432793,0.006987348198890686,-0.0013657273957505822,0.00604550214484334,-0.0018851740751415491,0.008664282038807869,0.0032098395749926567,-0.0017321986379101872,-0.004020785912871361,0.0002559234853833914,0.0012382162967696786,0.004842033609747887,-0.0023663011379539967,-0.002423487603664398,0.001907878671772778,0.0002086147287627682,0.0004047015099786222,-0.00690050795674324,-0.007838321849703789,0.006937233731150627,0.002569726202636957,0.013797380961477757,0.01011716015636921,0.001863471930846572,0.005318957380950451,0.007883142679929733,-0.0017327405512332916,0.0009660919895395637,0.007309309206902981,0.0056455680169165134,-0.007156535983085632,-0.0008550221682526171,-0.0019955087918788195,-0.0020130998454988003,-0.001567843253724277,0.001173884840682149,0.002944287611171603,-0.0036314979661256075,-0.002859066938981414,0.0019394278060644865,0.004468262195587158,-0.0013486476382240653},{0.0015280770603567362,-0.0005455556674860418,-0.0025267712771892548,0.0028201185632497072,-0.0016728286864235997,-0.0015449633356183767,0.002425616141408682,-0.00491096219047904,0.0010484365047886968,-0.0010920847998932004,0.0025845642667263746,-1.040779534378089e-05,-2.2464939320343547e-05,0.0009474962716922164,-0.003134325612336397,0.0006395961390808225,0.0004965626285411417,0.001188586000353098,-0.001427495270036161,0.00034852969110943377,-0.0002322403306607157,0.0036051571369171143,0.0026931753382086754,0.0017344447551295161,0.003022122895345092,-0.006900248117744923,0.0008831587038002908,0.002047883812338114,0.004577593877911568,-0.0029900590889155865,-0.0008315019076690078,0.002780969487503171,-0.00026562283164821565,0.004344480112195015,-0.0003146626695524901,-0.004064472392201424,-0.0006730314344167709,-0.003657403402030468,-0.0014681972097605467,-0.0007939084898680449,-0.0009206467075273395,0.00022068500402383506,0.0033485321328043938,-0.0030029872432351112,0.004403016995638609,0.00216805306263268,0.012280220165848732,0.0008050689939409494,0.00023819667694624513,0.00021011180069763213,0.001638026093132794,0.0010872388957068324,0.005358292255550623,-0.0036680938210338354,0.006469461601227522,-0.00381299271248281,-0.001031410414725542,0.001865122001618147,0.0010527410777285695,-0.0008016289793886244,-0.0015087302308529615,0.0053934757597744465,-0.001684890827164054,0.002324577420949936},{0.00013474006846081465,0.001284246682189405,1.2616098501894157e-05,0.00021077247220091522,-0.00046037117135711014,-0.0008037974475882947,-0.0012238111812621355,0.001072020037099719,-0.0006614664453081787,0.001300276955589652,-0.001448359340429306,-0.003268379485234618,-0.0014277104055508971,-0.0009080428862944245,0.00040115724550560117,-0.0004121430101804435,-0.0017892916221171618,-0.0007994111510924995,0.0012525689089670777,0.00089769292389974,0.0001378246524836868,0.0010783652542158961,0.0010451572015881538,-1.1534302757354453e-05,-0.0021317806094884872,0.0004905245150439441,-0.00013873979332856834,0.0014503522543236613,-9.583852079231292e-05,0.0009176510502584279,-9.06440254766494e-06,0.001611535670235753,-0.0018583175260573626,0.001947226352058351,-0.003384488867595792,-0.0015814534854143858,0.000694046902935952,-0.0009432854712940753,0.002046084962785244,0.0003095755819231272,0.0009679626673460007,0.0011469017481431365,-0.0022761786822229624,0.0015997053124010563,0.0008284329087473452,0.002358384430408478,0.0008525339071638882,-0.0012234270107001066,0.0006059907609596848,0.003873277921229601,0.00023438228527083993,-0.0007323191384784877,0.0008007169235497713,-0.0018891827203333378,-0.003730549244210124,0.002718346891924739,-0.0015345554566010833,0.002591117285192013,0.0015889095375314355,0.002361987018957734,-0.002692556707188487,0.0032972213812172413,-0.000642112921923399,0.0003657207707874477},{0.00048089612391777337,0.00025334852398373187,-8.76997655723244e-05,-0.0008852831088006496,-2.75870188488625e-05,-0.0009731384925544262,-0.00019100897770840675,-1.885908204712905e-05,-0.0004339049046393484,0.0010979901999235153,0.0008541173883713782,0.00021359014499466866,-0.000909519731067121,-0.00021031565847806633,0.0003900273877661675,0.0013180734822526574,-0.0017991837812587619,-0.0007078227354213595,-0.0010347097413614392,-4.791589162778109e-05,0.00019553292077034712,-0.0010357445571571589,0.00020750128896906972,0.0005565947503782809,0.0010082214139401913,-5.8643527154345065e-05,0.000619257683865726,-0.00013376249989960343,-0.0008192288223654032,-0.00025524612283334136,-0.00045138521818444133,0.000198399240616709,0.0005259178578853607,-0.0003896113485097885,0.0005406108684837818,-0.0002768371778074652,-0.0001819366152631119,-0.00010755023686215281,0.0006864442257210612,0.0003952356637455523,0.00037459362647496164,-0.00022335255926009268,-0.0002293724537594244,-0.0016015998553484678,3.685237606987357e-05,-0.0006408349727280438,0.00022032465494703501,-0.0010235999943688512,0.0003703862021211535,-0.0007482264190912247,-0.00020547826716210693,0.001293240929953754,0.0006363719003275037,-0.0007628737948834896,-0.0007586028659716249,-0.0006088708760216832,-0.0005960222333669662,0.0003163289511576295,0.001213897136040032,0.0002941355633083731,-0.0001001306445687078,-0.0015856529353186488,-0.0017622348386794329,-0.00032306459615938365},{0.004606792237609625,0.0007606911822222173,-0.0022537624463438988,-0.0018699686042964458,0.0005792251322418451,-0.0007775714038871229,0.001827423577196896,-0.0001355396379949525,0.0031958273611962795,0.007957314141094685,-0.0011121482821181417,0.0018747082212939858,0.004623049404472113,0.0006661069928668439,0.0008933510980568826,-0.0016069047851487994,-0.0027408949099481106,0.0003126398951280862,-0.002048279158771038,0.0012318372027948499,-0.003370419843122363,0.001597810536623001,0.007761746179312468,0.0013276583049446344,0.0038492337334901094,0.009421267546713352,-0.0018492302624508739,-0.0014366218820214272,0.0043348753824830055,0.0014226771891117096,-0.0012336897198110819,-0.0018394244834780693,-0.000975509115960449,-0.002472545951604843,0.0035730088129639626,-0.000315359968226403,0.0008829282014630735,0.0005855796043761075,0.004107069689780474,-0.004083950072526932,0.00330296135507524,-0.009039639495313168,0.004449007101356983,0.009521604515612125,0.0014218224678188562,-0.002309303032234311,0.00297731626778841,-0.0005616024718619883,0.003217156743630767,0.0013286821777001023,0.0023640054278075695,-0.0017665554769337177,0.0024023589212447405,7.469193224096671e-05,0.0019136646296828985,-0.003312601475045085,-0.0007707971381023526,-0.0012244200333952904,-0.00027784943813458085,-0.002523672766983509,-2.2816520868218504e-05,0.004665976855903864,0.0017821473302319646,-0.005945505574345589},{0.003398743225261569,-0.0020831108558923006,0.0002708739193622023,-0.00017328020476270467,-0.004000005312263966,-0.00016513833543285728,-0.002798879286274314,0.0027143124025315046,0.003471572417765856,0.0004334128461778164,0.0027075393591076136,-0.0006313121411949396,0.0011512261116877198,0.0009406963945366442,-0.000983756734058261,0.001539573073387146,-0.0011076501104980707,-0.0008444261620752513,0.001991329248994589,0.0028294227086007595,0.00014634068065788597,-0.00017010969168040901,0.00351122347638011,-0.0016545128310099244,-0.0018332238541916013,-0.001179822371341288,-0.006897070910781622,0.001660487032495439,0.0014621632872149348,-0.002044398570433259,-0.0011977553367614746,0.0014995873207226396,-0.001874573528766632,-3.504127016640268e-05,-0.0001482002408010885,0.000278207182418555,0.0009133288403972983,-0.0007770427619107068,0.001165470341220498,-0.0008049012394621968,-0.0017270243261009455,0.00031145630055107176,0.0008337431354448199,0.00015205901581794024,0.0008728594984859228,0.0006267584394663572,-0.0035326648503541946,-0.005324123427271843,-0.0031613758765161037,-0.00043628670391626656,-0.00416124053299427,-0.0008422917453572154,-0.0014434305485337973,-0.0013496121391654015,-0.0029692500829696655,-0.0019794446416199207,0.0003931510727852583,-0.000533914368133992,0.004595025908201933,-0.002187530742958188,-0.0002629363152664155,-0.001677648862823844,-0.0009868463966995478,-0.0012354294303804636},{-0.00026195848477073014,1.4018376532476395e-05,0.0008998956182040274,-0.001888003316707909,0.00037288450403138995,0.0027019334957003593,-0.001883967313915491,0.000864184636157006,-0.0014333173166960478,0.0001780558523023501,-0.0020546403247863054,-0.0005959588452242315,-0.001584141398780048,0.0006149527034722269,-2.0481898900470696e-05,0.0011055275099352002,-0.0009332575718872249,-0.0006278274231590331,-0.0005299706244841218,2.2383605028153397e-05,-0.0008841707021929324,0.001629442791454494,-8.014371269382536e-05,-0.001034488552249968,0.00093562196707353,-4.786036697623786e-06,-0.0003366353048477322,-0.0018631137209013104,-0.0011489603202790022,0.0002555804094299674,0.0005223776679486036,-0.00044271734077483416,-0.0013565088156610727,3.7726149457739666e-05,-0.0004766856727655977,-0.00010861358896363527,0.0017758456524461508,0.00012627015530597419,-0.0002054035576293245,0.00020398003107402474,-0.00014516193186864257,-0.000929680245462805,0.0003507166402414441,-0.00014475727220997214,0.0009139605099335313,0.0003166159731335938,-0.0004043700755573809,-0.0002239329623989761,0.0007385686622001231,-0.0006597344763576984,0.0001472046715207398,0.00114387774374336,0.0022975276224315166,2.1191277483012527e-05,-0.00044297854765318334,-0.0007689749472774565,-0.0016484966035932302,0.0005738174659200013,1.7465639757574536e-05,0.0006788395112380385,-0.00023879487707745284,0.0013719748239964247,-0.0004919258644804358,-0.00026023914688266814},{0.007150729652494192,-0.00016173228505067527,-0.0038688117638230324,-0.002297609345987439,-0.005613754037767649,-0.005983429495245218,0.0012030028738081455,0.0040780543349683285,0.002950758906081319,0.003171124728396535,0.002057920675724745,-0.0023637309204787016,-0.006359883584082127,-0.0019626726862043142,0.000796742329839617,0.0033330924343317747,0.001650921767577529,-0.0011673850240185857,-0.0036296313628554344,-0.004480492323637009,0.0018577880691736937,-0.004134805407375097,0.008301910944283009,0.0022446855437010527,0.004420008510351181,-0.004424779675900936,0.0029415336903184652,0.002994137816131115,-0.006314828526228666,0.003985559567809105,-0.007396749686449766,0.0002243204799015075,-0.0022865443024784327,0.001817234791815281,0.0012861046707257628,-0.0017502123955637217,-0.0027121056336909533,0.0016203332925215364,-0.004126722924411297,-0.002162936609238386,-0.0017232997342944145,0.002797861583530903,-0.0017734322464093566,0.005161160137504339,-0.0030959080904722214,-0.0037423118483275175,0.005718748085200787,-0.0016103734960779548,-0.002699802862480283,-0.007304782047867775,-0.00197932543233037,0.0009997833985835314,0.004948463756591082,-0.0007097870693542063,-0.003396908985450864,-0.005680174101144075,-0.00033087850897572935,-0.0007667833706364036,-0.008557136170566082,0.0005898262606933713,-0.002917705802246928,0.0022317038383334875,0.0009891041554510593,-0.0036515991669148207},{0.0009128470555879176,0.0006482913158833981,0.0005704922950826585,0.0004020717751700431,0.0002315919118700549,-0.00010061905049951747,0.00048361608060076833,0.0012968822848051786,-9.575090371072292e-05,0.001171025913208723,-0.0001815834839362651,-0.00048162322491407394,0.0001564918493386358,-0.0014089567121118307,0.0017683854093775153,0.0001923752570291981,-0.00016974247409962118,-7.320158329093829e-05,-0.0003456898557487875,-0.0006579338805750012,0.001479537459090352,0.00032345857471227646,0.00031620715162716806,0.0015872071962803602,0.0010437659220770001,-0.00020984259026590735,-6.568435492226854e-05,-0.0008513071807101369,-0.0015097542200237513,0.0004544165567494929,-0.0004125778505112976,9.893925744108856e-05,-0.0015250558499246836,0.000167021484230645,-0.0007938598864711821,0.0015391437336802483,0.001694005448371172,-0.0006608424591831863,-0.0017973274225369096,0.0005157948471605778,0.0005288275424391031,0.0008021944086067379,0.0007405208307318389,-0.0007522852392867208,-0.0010896987514570355,0.0008817996131256223,-7.252151408465579e-05,-0.00023967702873051167,-0.0007850111578591168,0.0014272802509367466,-0.0004474335291888565,-6.33032914265641e-06,0.0002083324216073379,0.0011582180159166455,-0.001291753025725484,-0.0001177496524178423,5.145092472957913e-06,-0.0009914092952385545,0.0005664277705363929,-0.0003950891550630331,0.001011514919809997,-0.00010456557356519625,-0.00119343725964427,0.00017245716298930347},{0.0013696985552087426,7.352118700509891e-05,0.00040503143100067973,-0.0012893601087853312,-0.0009659663191996515,8.777042239671573e-05,0.0008486656006425619,-0.0015800081891939044,-0.0005698916502296925,0.0027235406450927258,0.0005368130514398217,0.0011842878302559257,-0.0044029392302036285,-0.0006469474756158888,0.0009360417607240379,0.00184256408829242,-0.0014452749164775014,-0.0004290693032089621,-0.0017985274316743016,-0.0009486114140599966,0.0011111022904515266,0.0028544955421239138,-0.00024900303105823696,0.0047807516530156136,0.0005873576155863702,-0.00012176603195257485,0.0008071684860624373,-5.434984996099956e-05,-0.0011313909199088812,0.0009441330330446362,0.0007834397256374359,-0.0011090734042227268,0.0015879892744123936,-6.923555338289589e-05,-0.0002772504521999508,0.003114177379757166,0.0021450482308864594,0.0003119222819805145,7.460378401447088e-05,0.0019057149766013026,0.0003833204973489046,0.0028230699244886637,-0.0016243699938058853,-0.004258161876350641,0.0036747767589986324,0.000736719521228224,5.664461787091568e-05,-0.0011289368849247694,0.002561110071837902,0.0004899647319689393,0.0033601887989789248,0.0037729362957179546,-4.55341323686298e-05,0.0007623890996910632,-0.0013625595020130277,0.000518989225383848,0.0010756596457213163,-0.001440760213881731,-4.8118508857442066e-05,0.001349285594187677,-0.0017099874094128609,-0.0005321693606674671,0.0007705501047894359,-0.0016682829009369016},{0.0007898604380898178,-0.00066937948577106,-0.00024329927691724151,-0.0008722158963792026,2.3692949980613776e-05,-0.00031205202685669065,6.385320739354938e-05,0.00013811103417538106,9.934078116202727e-05,0.0005567760090343654,-0.0003630956052802503,-0.00020388554548844695,-0.0007104882970452309,-0.0010083740344271064,0.00036861374974250793,0.0002949183399323374,-2.4960896553238854e-05,0.00041857382166199386,0.000875296478625387,-0.0007813346455805004,-0.00021800397371407598,0.0015477114357054234,-0.0001045329263433814,6.64861363475211e-05,0.0005193979013711214,0.00047741865273565054,-0.0003497526340652257,-0.0002254056598758325,0.000165470308274962,-0.0004050765128340572,-0.0008837080677039921,-0.0013403909979388118,0.00040260457899421453,-7.083093078108504e-05,0.0005961870192550123,0.0004583251429721713,0.00015208615513984114,-0.00042780491639859974,-0.0005707031232304871,-0.0014034438645467162,-0.0001814309216570109,-0.0001265863684238866,-0.00038096701609902084,-0.00025623070541769266,0.0005925649311393499,-0.0006610176060348749,0.00044188977335579693,0.00010682544234441593,0.00037762909778393805,6.840916466899216e-05,0.00038218440022319555,-0.0015340815298259258,-0.0004052609147038311,0.0002305946545675397,-0.00035255285911262035,0.00025283158174715936,0.0014420975930988789,0.00015662284567952156,-0.0007660304545424879,-0.0002360852959100157,0.0001645732845645398,0.0008629889343865216,0.0009552834089845419,-0.0006853359518572688},{0.004112031776458025,-0.0055909836664795876,0.0011620637960731983,0.00441722059622407,-0.0038452171720564365,-0.00020628012134693563,0.012369686737656593,-0.005204111337661743,0.002927308902144432,0.0021979098673909903,0.0012508385116234422,0.00396908912807703,-0.0007557301432825625,-0.005523725412786007,0.00021257098705973476,0.003662892384454608,-0.004324519075453281,0.00018866138998419046,-0.0027196956798434258,0.0020207243505865335,0.006986412685364485,0.0017464675474911928,0.004115265794098377,-0.0030862162820994854,-0.002093890681862831,0.003107283031567931,0.0016803956823423505,0.006166242994368076,0.007122560869902372,0.0010039238259196281,-0.0014556285459548235,-0.0007425669464282691,0.0002197377907577902,-0.0023250088561326265,-0.00032994701177813113,-0.009475251659750938,0.003570328699424863,0.0003627133264672011,0.007051232270896435,0.006801622919738293,-0.0007601171964779496,0.006566775497049093,-0.0004032455035485327,-0.0015755604254081845,0.0029156659729778767,-0.007824201136827469,-0.001979504246264696,0.003678669920191169,-0.0018072640523314476,-0.00518662016838789,0.0032477350905537605,0.0052497498691082,0.002287786453962326,-9.776261140359566e-05,-0.0011554989032447338,-0.006226709112524986,0.0009388423641212285,0.009409677237272263,0.010142388753592968,0.002839314052835107,0.00816132128238678,-0.015673015266656876,-0.002765582175925374,0.0025824387557804585},{0.0007714699022471905,0.00245242053642869,-0.0007612977642565966,-0.004824733827263117,0.001229779445566237,-0.00019794820400420576,0.000531331286765635,0.0018836394883692265,-0.0011308890534564853,-0.0014043195405974984,0.0003196953912265599,-0.0015780393732711673,0.002135086804628372,-0.0008808214915916324,0.0015353140188381076,-0.005611564964056015,0.005772348493337631,-0.00041334039997309446,0.0009872348746284842,0.0037351599894464016,0.0028831956442445517,-0.00016406949725933373,0.0031132050789892673,-0.0018299357034265995,0.002679805736988783,0.0032066821586340666,0.00043750929762609303,-0.0005725377122871578,0.0020567821338772774,-0.0006786076701246202,-0.0025082293432205915,0.0016893690917640924,-0.00011279099271632731,-0.0007470592972822487,0.0003362983698025346,-0.00015137766604311764,-0.0017292972188442945,-0.0006126424414105713,0.0002550333156250417,-0.002663687337189913,0.0020856871269643307,-7.390037353616208e-05,0.00238646543584764,-0.0031646236311644316,-0.0008873421465978026,0.0011802272638306022,-0.0012858530972152948,-0.00022459034516941756,-0.0007248201873153448,0.002019067294895649,-0.0036370917223393917,-0.0005619316943921149,-0.0020381298381835222,0.0016156017081812024,-0.0012814142974093556,-0.00019282109860796481,0.0006449680076912045,3.723999179783277e-05,-0.007391393184661865,-0.00022667928715236485,0.00014681559696327895,0.002302025444805622,-0.0002806562988553196,0.0009522819891571999},{0.0016436531441286206,0.0032687524799257517,0.0013567691203206778,-0.006506546400487423,-0.003666736651211977,-0.0021907424088567495,-0.001781980856321752,0.0031477813608944416,-0.0014324149815365672,-0.003717329353094101,0.003362049115821719,-0.0075498903170228004,0.0007307407795451581,0.0007648543105460703,0.0013473927974700928,-0.004573534242808819,0.005291701294481754,0.0014597459230571985,0.000217741122469306,-0.002858528634533286,0.0040827482007443905,0.0002515060768928379,-0.0009463359601795673,0.007242691237479448,0.003048789454624057,-0.002602546475827694,-0.002301844535395503,-0.004145226441323757,0.004118090495467186,-0.0029308663215488195,-0.0021714388858526945,0.00024340591335203499,0.0005615030531771481,0.0020314021967351437,0.002409414853900671,0.0009076812420971692,-0.001224106759764254,0.0028653547633439302,0.00490735936909914,-0.001690056174993515,-0.0005720860208384693,-0.0025216659996658564,0.0004849465622100979,-0.00025823398027569056,0.0011476700892671943,0.00017422705423086882,0.0025007661897689104,3.3215354051208124e-05,2.907049929490313e-05,-0.004331002943217754,0.002406027866527438,0.001370905782096088,0.004137574229389429,-0.0028978707268834114,-0.0012129097012802958,-0.0002877777733374387,-0.000493523373734206,-0.0016163187101483345,-0.0003883745230268687,0.0020804761443287134,0.0010758882854133844,0.0002102395228575915,-0.001770895323716104,-0.001202551880851388},{0.003443524707108736,0.0003540877951309085,0.0009415560634806752,0.0016862647607922554,-0.006727719213813543,-0.0003587809333112091,-0.002631440060213208,0.0033169318921864033,0.002623793203383684,-0.0027169364038854837,0.0001938209607033059,0.004132917150855064,0.0025386458728462458,-0.0032683233730494976,0.004418695345520973,-0.003501622471958399,-0.002379919635131955,-0.003993305377662182,0.00790570117533207,0.0005743036163039505,-0.0018452975200489163,-0.0036154109984636307,-0.006374863907694817,-0.002224591327831149,-0.004445028956979513,0.019645024091005325,-0.0042444197461009026,0.0031227802392095327,0.0004915731260553002,-0.005698980297893286,-0.007744006346911192,0.004992818459868431,-0.00017939349345397204,-0.0020032022148370743,-0.0002137936098733917,-0.002452830085530877,3.8946604036027566e-05,-0.0030319439247250557,-0.0018239510245621204,-0.0030366345308721066,-0.005370765458792448,0.004815687891095877,0.0049078757874667645,-0.0017922164406627417,0.0007688544574193656,0.0016177211655303836,0.009969538077712059,0.002201669616624713,-0.002899386454373598,0.009624631144106388,0.00023818682529963553,3.1981726351659745e-05,0.0024318844079971313,0.0005100590642541647,-0.00016086384130176157,-2.7533410502655897e-06,0.0011344834929332137,-0.0031805611215531826,0.0008842064999043941,0.004559007007628679,0.004323865287005901,0.003087693126872182,0.006359684281051159,-0.002465001540258527},{-0.00039138359716162086,0.0030313974712044,-0.0021582418121397495,-0.0017690195236355066,0.0029025974217802286,-0.002064390340819955,0.002999240765348077,0.005925443489104509,-0.003206658409908414,0.0017950042383745313,0.0010497808689251542,-4.4046053517377004e-05,-0.0008964763255789876,-0.0010909336851909757,0.0024760847445577383,0.0029356039594858885,9.295841300627217e-05,0.002543654292821884,-0.0036626288201659918,0.0024151101242750883,0.0007277583936229348,0.0005784357199445367,0.001546527142636478,0.0035574568901211023,0.003774986369535327,-0.007759625092148781,-0.001989922020584345,-0.0021196864545345306,-0.0031564529053866863,0.002999751828610897,-0.0014927434967830777,0.0022664887364953756,0.003187913214787841,0.002858735155314207,0.004167471546679735,0.0014978917315602303,0.0003691235033329576,-0.00036162251490168273,0.0015299083897843957,-0.0006529271486215293,-0.001130082062445581,-0.00226094969548285,-0.0029874728061258793,0.001842695870436728,-0.0022468306124210358,-0.0027900529094040394,0.0009425713215023279,-0.003984238486737013,-0.0021694262977689505,-0.0017076010117307305,0.0005480090621858835,0.004782624077051878,-0.00048373942263424397,-3.1903371564112604e-05,-0.002340739592909813,-0.0032734470441937447,0.0007055175374262035,0.00019583087123464793,0.0024749787990003824,0.0005016334471292794,0.002759033814072609,-0.00038336709258146584,-0.00044268282363191247,0.0009553257841616869},{-0.00042549133650027215,-0.00014351618301589042,-0.00066354003502056,-0.00017448006838094443,-0.00032281430321745574,0.00011243140033911914,0.0011512493947520852,0.0012648075353354216,1.055885761047648e-07,-0.00040250338497571647,0.0008640163578093052,-0.00028347151237539947,6.810821651015431e-05,-0.0013488797703757882,0.0006531222607009113,-0.0005256335134617984,-7.533606549259275e-05,0.00011815851758001372,-0.00039165717316791415,-0.0005761836655437946,-0.0004092782037332654,-0.0012223008088767529,-0.0002573965466581285,0.0008597646956332028,-0.0003501367464195937,0.0006794288638047874,-0.00010219359683105722,-0.0007272198563441634,0.00018052755331154913,-0.0002081074344459921,-0.0003969510435126722,0.0010156879434362054,-0.0004008068353869021,0.0004423931532073766,0.001032251981087029,0.0006670451839454472,0.0006145894876681268,0.0012708246940746903,-0.0009818155085667968,-0.0006894159596413374,-0.0005169653450138867,-0.000229217839660123,-0.0003259895311202854,0.0005409251316450536,-0.00015676679322496057,0.0003314959758426994,-0.0005471953190863132,0.00012173106370028108,-4.653768701246008e-05,-0.0009468379430472851,0.0005375854088924825,0.0007598833763040602,0.00018031291256193072,-0.00013340722944121808,-0.00017974978254642338,-0.0001460705097997561,0.0010419853497296572,-0.0005396167398430407,-0.0011973014334216714,-0.00045374955516308546,0.00016283371951431036,0.00033945374889299273,0.0002574749814812094,0.00020058448717463762},{-0.0021573142148554325,0.0014829285209998488,0.0004467301187105477,0.0008549420163035393,0.00020872472668997943,-0.001014750567264855,-0.0019034616416320205,-0.0002775635803118348,-0.0009325128048658371,0.0008045182330533862,0.0010926075046882033,0.0013368054060265422,-0.0006931478274054825,0.0003829017805401236,0.0008098119869828224,0.0002889318857342005,0.0005496134399436414,0.004332286771386862,0.001988000934943557,0.000105434148281347,0.0011684197233989835,-0.0014879672089591622,-0.00023750305990688503,-0.0017598175909370184,-0.0013964331010356545,7.3454953962937e-05,-0.003028945764526725,0.0004996343050152063,-0.0001303775206906721,-8.447176514891908e-05,-0.001082331989891827,1.2480674740800168e-05,6.276910426095128e-05,-0.0019228787859901786,0.0013399876188486814,0.0020139317493885756,0.001516988966614008,-0.0014588769990950823,0.00039213441777974367,-0.0012727001449093223,-0.0009491783566772938,-0.0014406401896849275,-0.0026776622980833054,-0.001788916066288948,-7.136127533158287e-05,-0.0009807521710172296,-0.0015017257537692785,-0.0005416584899649024,-0.00011503916175570339,-0.00010774222027976066,0.00019998183415737003,0.004512046463787556,-0.0016549555584788322,-5.987427357467823e-05,-0.00270272558555007,0.0023414967581629753,-0.0009081083699129522,-0.0022260977420955896,-0.0035532303154468536,-0.001437457394786179,-0.0011235096026211977,3.735555219464004e-05,0.0011893511982634664,-0.004665579181164503},{0.00036526296753436327,-0.0005021037068217993,0.00018869643099606037,0.0026700468733906746,-0.00013883088831789792,0.00032065354753285646,0.001169828581623733,0.0001936148473760113,-0.0013336112024262547,-0.0014775892486795783,-0.0011546522146090865,-0.0012563959462568164,-0.0026436212938278913,-0.001293888664804399,-0.0007103277021087706,-0.0023404336534440517,-0.0005355277098715305,0.00250593782402575,-0.0024501634761691093,0.0013908423716202378,0.0020837513729929924,-0.0006834919331595302,-0.003308332059532404,0.00362623343244195,0.0006187023245729506,0.005052260123193264,2.3329310351982713e-05,-0.0013547061244025826,-0.001396798063069582,-0.0037302400451153517,-2.0669132936745882e-05,-0.0021559300366789103,-0.001619831658899784,0.002181593095883727,0.0026871375739574432,0.0029460068326443434,0.0014278520829975605,0.00038165226578712463,0.0006343677523545921,4.741091106552631e-05,-0.0033959215506911278,0.001384506467729807,-0.0019351044902577996,-0.0029541878029704094,-0.0015980436000972986,0.0020887251012027264,0.002550155157223344,0.00169252825435251,-0.0026770078111439943,0.00021317762730177492,0.00015253954916261137,0.001209014211781323,3.538950841175392e-05,0.0010480140335857868,0.000986439292319119,8.862164395395666e-05,0.0030194672290235758,0.0005327544058673084,0.0022349271457642317,0.0006234374595806003,0.0022990715224295855,-0.00019581057131290436,0.0017710045212879777,0.0009590606205165386},{-0.004924862179905176,-0.0033317694906145334,0.003007578896358609,-0.008035668171942234,0.0017000619554892182,0.004625209607183933,0.00046274755732156336,0.002047094749286771,0.001232684007845819,6.3757156567589846e-06,0.0074137793853878975,-0.006707935128360987,-0.004849237389862537,7.565469422843307e-05,0.001073823543265462,0.0008912065532058477,0.0003493287367746234,-0.001007762853987515,-0.003327572252601385,-0.0006663036183454096,0.00249546323902905,-0.0036605102941393852,-0.0025975892785936594,-0.0008501475094817579,-0.006722835823893547,4.758115392178297e-05,-0.0001244471495738253,0.0011060847900807858,0.0011037267977371812,-0.0030590409878641367,0.002623153617605567,-0.002895082114264369,0.0064645265229046345,-0.002140435390174389,0.0010093917371705174,-0.00022076372988522053,0.005057092290371656,0.00368010182864964,-0.0013624957064166665,0.0006070435047149658,0.0007428087410517037,0.0004723766178358346,0.0038213804364204407,-0.002418524818494916,-0.0037047264631837606,0.002905621426180005,-0.003527672030031681,0.002541942521929741,0.0002598153077997267,0.0031271351035684347,0.0018952812533825636,-0.005517547484487295,0.0038037681952118874,0.01064058393239975,-0.0023006724659353495,0.0033934053499251604,0.0018896582769230008,-0.0033320249058306217,0.001269035623408854,-0.0009251421433873475,-0.004578226245939732,-0.0005195918492972851,-0.0013559259241446853,-0.0014781224308535457},{-0.005007924046367407,-0.005385701544582844,-0.002513621235266328,-0.00317198084667325,-0.0027050580829381943,0.0018122291658073664,-0.0012026564218103886,-0.0009507907670922577,0.002991612534970045,-6.476761336671188e-05,-0.0004352959804236889,0.00019316778343636543,0.001731040538288653,0.0006491091917268932,0.00018736084166448563,0.0019206368597224355,0.003564323764294386,0.0024472936056554317,0.001267371466383338,-0.002941692480817437,-0.006479246541857719,0.0015616437885910273,0.005423137452453375,-0.0012291781604290009,-0.0015822222921997309,0.0008658278966322541,0.0012526328209787607,0.0034729326143860817,0.0036551004741340876,-0.004912294913083315,-0.0014920838875696063,0.0030359637457877398,-0.003788731060922146,0.002822541631758213,-0.0020614766981452703,0.0023596305400133133,-0.002625923603773117,-0.000814757077023387,-0.0003621893411036581,-0.007437922526150942,0.001062797149643302,-0.00027313901227898896,0.003943612799048424,0.00017756273155100644,0.0024082569871097803,0.0013980789808556437,0.0019178870134055614,0.0010616743238642812,8.081209671217948e-05,0.003155562561005354,-0.0010659296531230211,0.0066431122832000256,-0.0017839086940512061,-0.0001333411200903356,0.0005950355553068221,-0.001048342906869948,-0.0006039626314304769,2.1048563212389126e-05,-0.003578242613002658,-0.000604254484642297,-0.0015618187608197331,0.0025265358854085207,5.962064096820541e-05,0.00033071450889110565},{-0.0011371951550245285,0.00010886409290833399,-0.0005354245658963919,-0.0011311001144349575,-9.544083923174185e-07,0.00010973434109473601,-0.0007154009072110057,-0.001170427887700498,4.875341983279213e-05,-0.00033471835195086896,0.00034842020249925554,0.00018490997899789363,-1.0745865438366309e-05,-0.0003446414484642446,-0.0003581690543796867,7.023110811132938e-05,0.0007925208774395287,-4.655356678995304e-05,0.00023358756152447313,0.0005330852000042796,-0.0003563147911336273,-0.0007407738012261689,-0.0011326746316626668,-0.00016377192514482886,0.0006475881091319025,0.0005537678953260183,-0.0007102922536432743,-7.788445509504527e-05,0.0009212803561240435,-0.0007177743245847523,0.0006583196809515357,-0.00045026541920378804,0.0006490185623988509,-0.0007755268597975373,0.0010605622082948685,-0.00019698833057191223,3.57257122232113e-05,3.9918919355841354e-05,0.001394930761307478,0.00034522716305218637,-0.000638480531051755,-0.0010548998834565282,0.0011939294636249542,-0.00023402633087243885,-0.00016312467050738633,-0.0009686252451501787,0.0004268221964593977,0.0010140357771888375,-0.0006726017454639077,-0.00014944802387617528,0.0004808903322555125,0.0005147971678525209,-0.0004240175767336041,-0.00014788877160754055,-8.796244219411165e-05,-0.0008897416410036385,1.2763180166075472e-06,0.00037449959199875593,0.0007329600630328059,-0.0005875417846255004,-0.001068631187081337,-0.001066533150151372,-0.0009656411712057889,0.0002758102200459689},{0.0003197139303665608,-0.010921871289610863,0.0018846039893105626,-0.006431270390748978,0.0008789381245151162,-0.009327092207968235,-0.0030337844509631395,-6.688376743113622e-05,0.00829762127250433,-0.0008898999076336622,0.005709693767130375,-0.003926866687834263,0.006085198372602463,-0.0018058200366795063,-0.008004357106983662,-0.005491265095770359,0.004567284602671862,0.0037504967767745256,0.002362564904615283,-0.013071824796497822,0.014933386817574501,-0.0019115025643259287,0.01436386164277792,0.0035694604739546776,-0.0008434886112809181,-0.0027094122488051653,-0.0028606432024389505,0.00434740399941802,0.002703689504414797,0.00024442351423203945,-0.00034798149135895073,-0.00644258875399828,-0.007737128064036369,0.0031392662785947323,0.0014013058971613646,-0.0071069058030843735,0.004659698810428381,-0.00021955219563096762,-0.0046575628221035,-0.011570357717573643,-0.004722247365862131,0.0019028752576559782,-0.002670646645128727,0.0001548360160086304,0.003382487688213587,-0.005813262891024351,0.0024462281726300716,-0.005660154391080141,0.003364954609423876,0.0038159049581736326,0.0019050071714445949,0.008837996982038021,0.002272890182211995,0.00721147982403636,-0.0012883222661912441,0.003375046653673053,-0.0040530310943722725,-0.002894373843446374,0.0009991535916924477,-0.002356346230953932,0.0010729731293395162,0.0008126736502163112,0.003818741301074624,0.009235024452209473},{0.005624744109809399,0.009079820476472378,-0.01041368581354618,0.009211561642587185,0.0004542263923212886,-0.006031795870512724,-0.0013630820903927088,-0.004323598463088274,-0.009305519051849842,0.007186610251665115,0.0019419495947659016,0.0009373424109071493,0.0007346473284997046,-0.007777177728712559,-0.004674216266721487,-0.0057373992167413235,0.001565565005876124,-0.0032325300853699446,-0.006836012937128544,0.0070891110226511955,0.00580504909157753,0.004489274695515633,-0.003872050205245614,-0.006417334545403719,0.008848699741065502,-0.0002944849547930062,-0.00879132654517889,-0.0057129645720124245,-0.005647370591759682,0.0019474540604278445,-0.015025509521365166,-0.00134765834081918,0.011679220013320446,-0.006210505496710539,0.0038131684996187687,-0.0036136533599346876,0.0022864313796162605,-5.6412158301100135e-05,0.0010907909600064158,0.007112395484000444,0.0008060669060796499,-0.0051296125166118145,-0.0010917825857177377,0.0008783358498476446,0.0003874093818012625,-0.002956775948405266,0.0010239630937576294,0.005231728311628103,-0.005123067647218704,-0.006338969804346561,-0.007447062525898218,0.004508738871663809,-0.0067869266495108604,-0.005897317081689835,-0.009827948175370693,0.0026121437549591064,-0.000546915689483285,-0.0023381884675472975,-0.008205274119973183,-0.005946243181824684,0.004296560306102037,0.00379182118922472,-0.00026460597291588783,0.006307713221758604},{-0.001256191753782332,-0.0010732832597568631,0.0007000069017522037,-0.0016084321541711688,0.0005576563416980207,-0.0005502653657458723,-0.004169826861470938,-0.0027000599075108767,-0.0002767179685179144,-0.0019794998224824667,-0.0002607468341011554,0.0010753708193078637,-0.002589597599580884,-0.001681629684753716,-0.006151940207928419,0.004875272512435913,0.0009268349967896938,-0.00027469787164591253,0.00038133017369545996,0.00010187282896367833,-0.0008084850269369781,0.0024672953877598047,0.004069605376571417,-0.002645670436322689,-0.004067645408213139,-0.0017136585665866733,0.0001533670729259029,0.004132733680307865,-0.0031351151410490274,-0.0020681722089648247,0.0006327303708530962,0.002022534841671586,-0.003927300218492746,0.0009076481801457703,-0.007682603318244219,0.0011489901226013899,-0.0025396908167749643,0.002542161848396063,-0.002735356567427516,-0.001188522670418024,0.004573645535856485,0.0033259354531764984,0.003880636068060994,0.004108883440494537,-0.001971394522115588,-0.0006541881593875587,-0.004858134314417839,0.0010525777470320463,0.0021076046396046877,0.003006325103342533,-0.0010605407878756523,0.0027239411137998104,-0.004125963430851698,0.008172585628926754,-0.0003213332674931735,0.000532561622094363,-0.003182252636179328,0.0002704208018258214,0.001051001250743866,0.0006025260663591325,0.00047847480163909495,-0.0019635080825537443,0.0022858662996441126,-6.225229299161583e-05},{-0.005854327697306871,-0.0025546110700815916,0.0021152477711439133,0.0014413159806281328,0.0014120941050350666,-0.0036388959269970655,0.0031504740472882986,-0.0023386876564472914,-0.0001914503372972831,0.00527324341237545,0.007634335197508335,-0.0005700436886399984,0.00386667437851429,-0.0005522429710254073,0.0015971882967278361,-0.0010071373544633389,0.0001257110998267308,0.0010802329052239656,-0.00046141716302372515,0.0013860695762559772,-0.0028494379948824644,-0.006117050535976887,0.003350042039528489,-0.0008488879539072514,-0.0002618266735225916,0.003031830070540309,-0.0038204030133783817,2.6566167434793897e-05,0.002993344096466899,0.002623786684125662,0.0016838156152516603,-0.0030088508501648903,0.0063454690389335155,-0.0006159464246593416,-0.0005876889335922897,-0.001354601001366973,0.0022361285518854856,0.001142538501881063,-0.00129410601221025,-0.003750139381736517,0.0035882992669939995,-0.0009912324603646994,0.0012195482850074768,0.0008752719149924815,-0.002353252610191703,-0.005425577517598867,0.0035171271301805973,0.0017065450083464384,0.0041114566847682,0.0006601691129617393,0.0003603238728828728,0.002662855898961425,0.005222422536462545,-0.00021244375966489315,-0.0057236794382333755,0.0031085433438420296,-0.0015023198211565614,0.0006414428353309631,-0.008933451026678085,0.0007793444092385471,-0.0023865336552262306,-0.0012244509998708963,0.0016704289009794593,-0.001614759094081819},{0.0019700678531080484,0.0008934768848121166,0.0005642284522764385,-0.0027833168860524893,0.0011361745418980718,-0.0015904641477391124,0.001193125848658383,0.0013632872141897678,0.0003701092500705272,0.0006823184667155147,-0.0021155865397304296,-0.0015602607745677233,-0.001903737778775394,0.0039129117503762245,-0.00037980618071742356,0.0008533931104466319,-0.0009684406686574221,0.0004337094724178314,-0.002626345492899418,-0.00012755532225128263,-0.002263197908177972,-0.0020068560261279345,-0.002237803302705288,0.00047066263505257666,0.0035274086985737085,-0.0003804285079240799,0.0035591055639088154,0.0004290289944037795,0.0012926273047924042,-0.0008159648277796805,-0.00036185295903123915,-0.0072329360991716385,0.0037479300517588854,-0.003052646527066827,0.002696433337405324,0.0020189250353723764,0.00039387476863339543,-0.0022689022589474916,-0.0029237561393529177,9.89921172731556e-05,-0.002441942226141691,-0.0008823878597468138,-0.0010444204090163112,-0.007166380528360605,-0.004347134847193956,-0.0013733534142374992,-0.0003249553847126663,-0.0010261599672958255,0.0007043917430564761,0.0011392920278012753,-0.002014296595007181,0.0025742752477526665,0.002271084114909172,-0.004400184378027916,-0.0008956464589573443,0.00032309157541021705,0.001907095778733492,-0.0007589580491185188,0.0005034155328758061,-0.0006200011703185737,0.0006040517473593354,-0.0015115429414436221,-0.002697746967896819,-0.0014435304328799248},{-0.006999728735536337,0.010947395116090775,-0.006776686757802963,0.006260097026824951,0.003255567280575633,-0.005331298802047968,0.004922328516840935,0.0008861011010594666,-0.017864329740405083,-0.000510365585796535,-0.00046477935393340886,0.0034312380012124777,-0.001211231923662126,-0.00038272468373179436,-0.00026995313237421215,-0.001038105459883809,-0.0014572395011782646,-0.004377189092338085,-0.002304022666066885,0.005718063097447157,-0.0036232697311788797,-0.00016519299242645502,-0.009311940521001816,-0.0027829441241919994,-0.0006853926461189985,-0.002515719970688224,-0.002372300485149026,-0.0068922084756195545,0.0005325443344190717,0.0046247816644608974,-0.0006898687570355833,0.010215514339506626,-5.1106850150972605e-05,-0.004367319867014885,0.0016156162600964308,0.010808266699314117,0.0017887866124510765,0.0030406424775719643,-0.004263829439878464,-0.0020079349633306265,-0.0029783009085804224,0.005435117054730654,0.007766319904476404,0.007351633161306381,0.002068371744826436,0.006994254421442747,0.0013361312448978424,-0.0010610133176669478,-0.007308165077120066,-0.004434144590049982,-0.005972154438495636,0.00880559254437685,-0.003739830804988742,0.00166688475292176,-0.005013432819396257,-0.00514031108468771,-0.006191638298332691,0.0019061013590544462,-0.0025204592384397984,-0.0014496432850137353,-0.001153274322859943,-0.0021332462783902884,0.003393002087250352,0.0006877286941744387},{0.0013301392318680882,-0.0005871498724445701,0.00022618741786573082,0.0015942311147227883,0.00011679351155180484,-0.0006052019889466465,-0.0008628717041574419,0.0011205488117411733,0.00030085595790296793,0.0001311425876338035,-0.0017086782027035952,-0.0009932962711900473,-0.0011797371553257108,0.0014975889353081584,-0.0001747213100316003,-0.001053225714713335,0.00036782302777282894,-0.0006074091070331633,-0.00018965617346111685,-0.0016356047708541155,0.0019139249343425035,0.0022906623780727386,0.0010278507834300399,-0.001433559344150126,-0.0001688762567937374,-0.0009395023225806653,0.0005491586052812636,-3.7026152313046623e-06,0.0001252309448318556,0.0012917842250317335,-0.0012782150879502296,-0.0001562941470183432,-0.0010835279244929552,-0.0006435447721742094,-0.0013182646362110972,-0.0012313735205680132,0.00041154108475893736,0.0001549458538647741,-0.0011981268180534244,0.00019868953677359968,0.0024518261197954416,0.00269062421284616,-0.000927647459320724,7.00323871569708e-05,0.0009160186746157706,0.001119911321438849,7.301825826289132e-05,-0.00026560257538221776,0.0009090568055398762,-3.344289871165529e-05,-0.0008261458133347332,-0.0014503655256703496,0.0007833053823560476,0.0025841884780675173,6.112901610322297e-05,-0.00042128891800530255,-0.0007289598579518497,0.0010504767997190356,0.0011745498050004244,0.00016622607654426247,-0.0001959533547051251,-6.369368202285841e-05,8.092432108242065e-05,0.00011765963427023962},{0.0014756063465029001,0.002891134237870574,0.0015766252763569355,-0.0061958362348377705,-0.0036035480443388224,-0.0023168502375483513,-0.002265018178150058,0.0028060406912118196,-0.0012963233748450875,-0.003745992435142398,0.003182654967531562,-0.007444886025041342,0.0009032543166540563,0.0007671589846722782,0.0013391112443059683,-0.004182088188827038,0.005330784246325493,0.001255737035535276,0.00021757918875664473,-0.0025979450438171625,0.0035741357132792473,0.00012385600712150335,-0.0007357638096436858,0.006787512451410294,0.00304617453366518,-0.002626497531309724,-0.0022946663666516542,-0.004013396799564362,0.004046346060931683,-0.002578768180683255,-0.002020414685830474,0.0006620841450057924,0.00031845064950175583,0.0022763109300285578,0.002022809349000454,0.00026100463583134115,-0.0011885362910106778,0.0028000464662909508,0.004917711950838566,-0.002052500145509839,-0.0008593881502747536,-0.002615934470668435,0.0009502851753495634,-0.00016415522259194404,0.0012663616798818111,0.0002223494666395709,0.002343970350921154,5.86150736126001e-06,7.861450285417959e-05,-0.004463802557438612,0.002429461805149913,0.0009603573707863688,0.0036776482593268156,-0.003146742470562458,-0.0008728271932341158,-0.0005717572057619691,-0.0011580580612644553,-0.0013838920276612043,7.542546518379822e-05,0.001982802292332053,0.0006767874001525342,0.0007549138972535729,-0.002334718592464924,-0.0009249168215319514},{-0.00428266916424036,-0.004879747983068228,-0.0017492570914328098,-0.0032213989179581404,-0.0028174729086458683,0.002715741517022252,-0.0005768044502474368,-0.0010150085436180234,0.002199773909524083,-0.001132072415202856,-0.0013415293069556355,-0.000580440741032362,0.0025433306582272053,0.0020363249350339174,0.0003635409229900688,0.00044553191401064396,0.003981214947998524,0.00031699001556262374,0.001418225816451013,-0.002637792844325304,-0.005650192499160767,0.0012919417349621654,0.00518036400899291,-0.0024906047619879246,-0.0022082615178078413,0.00033406444708816707,0.001784841064363718,0.0030492818914353848,0.004202527459710836,-0.002989254891872406,-0.00016225060971919447,0.003666217438876629,-0.004062336403876543,0.002748353872448206,-0.0035230093635618687,0.002449621679261327,-0.0024717103224247694,-0.0006833217339590192,-0.0009781469125300646,-0.005699306260794401,0.0015525176422670484,0.00036620357423089445,0.004793178755789995,-0.00012955471174791455,0.0015223933150991797,0.0016132041346281767,0.0007840961334295571,2.101863174175378e-05,0.0015499374130740762,0.003316504880785942,-0.0017292485572397709,0.005487657152116299,-0.0013108813436701894,0.0016469063702970743,-0.00019327476911712438,-0.001131095108576119,-0.0017959385877475142,-1.5059847100928891e-05,-0.003043022472411394,-7.43303753552027e-05,-0.001155736856162548,0.0019785070326179266,0.0007076097535900772,8.91192612471059e-05},{-0.007124750409275293,-0.001429281895980239,-0.00015617029566783458,-0.004685137886554003,0.006516496185213327,-0.00527609558776021,0.00332792941480875,-0.010847627185285091,7.235127122839913e-05,0.003016652772203088,-0.005226804409176111,0.007329546846449375,0.0025896800216287374,0.0016074174782261252,-0.0060523878782987595,0.0052164895460009575,0.00028690401813946664,0.004225354176014662,0.010588587261736393,-0.004699780605733395,-0.009045196697115898,-0.001726620364934206,0.00449431361630559,0.002411078894510865,-0.00319213280454278,0.003812983399257064,-0.003992343321442604,-0.0001986702118301764,0.0025324164889752865,-0.009024661965668201,-0.007733548060059547,-0.0075919716618955135,0.004015940707176924,0.0034068766981363297,-0.0024226035457104445,0.0012570276157930493,-0.008774980902671814,-0.000201483242562972,0.006967943161725998,-0.00840434804558754,-0.0036637955345213413,0.00044018711196258664,-0.001314028282649815,-2.5160845325444825e-05,0.0011059649987146258,-0.0015907813794910908,0.01170941349118948,-0.000495332817081362,0.0033220055047422647,-1.017578506434802e-05,0.0066122389398515224,0.005850916728377342,0.0019756935071200132,-0.008038000203669071,-0.006525944918394089,0.004742252640426159,0.0016740993596613407,-0.002992630237713456,0.0013360354350879788,0.002160509116947651,-6.960535392863676e-05,0.005404357332736254,0.004891432821750641,0.001810723333619535},{-0.0012021611910313368,0.0016884095966815948,0.0010883978102356195,-0.005130893085151911,0.0005265281070023775,0.0010167811997234821,-0.0013541619991883636,-0.0005042344564571977,-0.0005244803032837808,0.00024191243574023247,-0.002267880365252495,-0.0028494743164628744,-0.0022281755227595568,6.306033174041659e-05,0.0001935991895152256,-0.0005949678597971797,0.0007279074052348733,-0.0021399506367743015,-0.00019874841382261366,0.0015750422608107328,0.0002705556689761579,0.0014263091143220663,0.0002936870150733739,-0.0017361812060698867,0.0023827198892831802,-7.304481550818309e-05,-0.0028992292936891317,0.0006746816798113286,-0.00022982190421316773,-0.004518808797001839,0.00042931429925374687,-0.0019260849803686142,-0.0009261252707801759,-0.0011387666454538703,-0.0008296212181448936,-0.00031631317688152194,-0.0008316528401337564,-0.00018238552729599178,0.0007476218743249774,0.0016197272343561053,0.0010892540449276567,-0.001405256916768849,0.0016309929778799415,0.0015921944286674261,-6.214775203261524e-05,0.00047749237273819745,-0.00037338375113904476,0.000428937841206789,0.0006077873986214399,-0.00010130352166015655,0.0001569693413330242,0.0007651719497516751,-0.002234341809526086,-0.001001245342195034,-0.0002677275624591857,0.0003621263604145497,0.0006877658306621015,0.0003933011903427541,0.00037274969508871436,0.0008755322196520865,0.0013791036326438189,-0.0002595093101263046,0.0006775127840228379,-0.00033494431409053504},{0.0025437739677727222,-0.0011843503452837467,-0.0006883421447128057,0.005031767766922712,-0.0017803519731387496,-0.003392067737877369,-0.0031111843418329954,0.0019070146372541785,-0.0007453201105818152,-5.211972165852785e-05,0.002939020749181509,-0.00020427651179488748,-0.0018571977270767093,-0.0034739708062261343,-0.005758203566074371,-0.002578015672042966,-0.0029228876810520887,-0.00276578520424664,0.0045530544593930244,0.0018578857416287065,-0.003573770634829998,0.0007964518154039979,-0.004651830997318029,0.002699860604479909,-0.001737023121677339,-0.00035810875124298036,-0.001349559286609292,0.0017975023947656155,0.001760627026669681,-0.0028963307850062847,-0.002000319305807352,0.0007478264742530882,0.0024244505912065506,-7.44191711419262e-05,-0.00018120379536412656,0.004415314178913832,0.002027809387072921,0.0014633027603849769,-0.003090065438300371,0.001960247987881303,0.001941531547345221,0.0029517358634620905,0.0006780281546525657,-0.002936610719189048,-0.0019409491214901209,-0.003664281452074647,0.001384963863529265,0.0025126468390226364,-0.0032075890339910984,0.0010719439014792442,0.0005848192959092557,-0.003899957286193967,0.0006921865860931575,0.0059755537658929825,0.002364635933190584,0.0006676018820144236,-0.00010671721247490495,-0.003706632647663355,-0.0017907998990267515,-0.005248940084129572,0.0006688399589620531,-0.00018875711248256266,-0.0009877891279757023,-0.0013823912013322115},{0.0011528653558343649,0.0008803019882179797,0.002652563387528062,0.0016380064189434052,-0.0006125835352577269,0.00041155426879413426,0.0004184714052826166,-0.00028774153906852007,0.0005847539287060499,0.0007306086481548846,0.001375720021314919,0.001525239902548492,0.0009040231234394014,-0.0011834122706204653,0.0011589196510612965,-0.0013610926689580083,-0.0009330548928119242,-0.00041802527266554534,-0.0006437781848944724,-3.111515616183169e-05,0.00442681647837162,-0.0021975829731673002,-0.0003326882142573595,0.0015249873977154493,0.0014278398593887687,0.0008816475165076554,-0.00137943378649652,-0.00028219452360644937,0.000534788123331964,0.0011030741734430194,-2.868584851967171e-05,-0.000536465784534812,0.0022346568293869495,0.0010468995897099376,0.0006246534176170826,-0.0008008525473996997,0.0013107118429616094,0.00029544945573434234,-0.0006114275893196464,-0.0005047772428952157,-0.0008141941507346928,-0.0015320058446377516,-0.000805008050519973,-0.001479370053857565,0.0002771839208435267,-0.0012838765978813171,0.00036916136741638184,-0.00028320029377937317,0.0008558164699934423,-0.002678324468433857,0.002089348156005144,-0.0017084690043702722,-0.00016167947615031153,-0.0006468563224188983,-0.001455223187804222,0.0006126082153059542,-0.0003295684000477195,-0.0014730374095961452,-0.0013580736704170704,-0.00023906026035547256,-0.0006861204747110605,0.0016287657199427485,0.0007909765117801726,-0.0005921939155086875},{-0.00017650751397013664,-0.00022313966474030167,0.005730052012950182,-0.0032913845498114824,-0.006213340442627668,-0.0019898060709238052,-0.0010593375191092491,-0.0035764130298048258,-0.0039033798966556787,0.002305396366864443,-0.0015851273201406002,-0.0014252992114052176,0.00043297672527842224,0.00032496172934770584,0.0018514591502025723,-0.0003156463208142668,-0.004367527551949024,-3.920687595382333e-05,0.004714846611022949,-0.0012380057014524937,-0.0014721928164362907,0.004777125082910061,0.00016621740360278636,0.0021188142709434032,0.006199926137924194,0.00886399857699871,-0.002378118922933936,-0.0011499709216877818,0.00031539902556687593,-0.0039847251027822495,-0.0052186367101967335,0.002639222890138626,-0.004000271670520306,-0.0029711781535297632,-0.0015109276864677668,0.0008829502039588988,0.0049280524253845215,0.013856750912964344,-0.0036551887169480324,0.0005769021227024496,0.006587876006960869,0.018885573372244835,0.0007975976914167404,-0.004612524062395096,0.0005702042835764587,0.0013329177163541317,0.003052750136703253,0.00531940720975399,0.006977435201406479,-0.00244614714756608,0.006630190182477236,0.002497215988114476,-0.0021568452939391136,-0.0010362825123593211,-0.007028215564787388,-0.003550442401319742,0.0007677876856178045,0.004621113184839487,-0.004637221340090036,-0.005052974447607994,0.0026670426595956087,-0.0022809449583292007,-0.0009397803223691881,-0.006137302611023188},{6.389438203768805e-05,-0.0013057547621428967,0.0024885160382837057,0.0026468075811862946,-6.391174247255549e-05,0.0026055367197841406,-0.00032646142062731087,-0.00310323853045702,-0.0008894291240721941,0.0015641899080947042,0.001319742645137012,0.000964414095506072,0.0027370345778763294,-0.0016628778539597988,-0.0007857355521991849,0.0008582371519878507,-0.002130076987668872,-0.0025802948512136936,0.0015045464970171452,-0.0007747495546936989,0.0013457831228151917,-0.0010517352493479848,0.0067159454338252544,6.214551103767008e-05,0.0007588797016069293,-0.0021030826028436422,0.002415069844573736,0.002766364486888051,0.0026716983411461115,0.001717173377983272,-0.0003977679880335927,7.695561362197623e-05,-0.0011650960659608245,0.0023169603664427996,-0.004060514271259308,-0.000538003456313163,-0.0002944529405795038,0.0012404648587107658,-0.00051276502199471,-0.0023246093187481165,0.0018367312150076032,-0.004487524274736643,0.0012014262611046433,0.0009453088860027492,-0.00035320132155902684,0.002764924895018339,0.0010853150160983205,-0.0014434680342674255,0.0027020855341106653,0.0014565595192834735,-0.002017216756939888,-0.001752610201947391,0.0014438873622566462,0.003803946077823639,-0.0005373069434426725,-0.0009418861009180546,-0.0012986200163140893,0.0005796408513560891,0.0012184930965304375,0.0008392837480641901,-0.0029933685436844826,-0.0003190329298377037,-0.0004996666684746742,0.0018376079387962818},{0.0010215811198577285,-7.092599116731435e-05,-0.0026321816258132458,0.004320464562624693,0.0006554266437888145,0.00027557980502024293,-0.00286003015935421,-0.0003989797842223197,-0.0026326554361730814,0.0012666912516579032,0.0016094509046524763,-0.0012688555289059877,-0.0019299951381981373,-0.001185665838420391,-0.0031487473752349615,-0.0017772795399650931,-0.0005810773582197726,0.0038544656708836555,-0.0006486730417236686,-0.003562584752216935,-0.00551571324467659,-0.0011912432964891195,0.003401516703888774,0.0028511302080005407,0.0005345054669305682,-0.000689754611812532,-0.002132085617631674,0.00019958546909037977,-0.0018237477634102106,-0.0015687323175370693,0.00415286747738719,-1.5072638234414626e-05,-0.000795261119492352,0.0032842708751559258,-0.0023400483187288046,-4.327558053773828e-05,-0.0019606465939432383,-0.0015861350111663342,0.0016167471185326576,0.00011487127630971372,0.0005171146476641297,-0.0012748754816129804,0.0009706784621812403,5.287668318487704e-05,0.0010958702769130468,-0.0012653183657675982,0.0002125609025824815,0.0011309204855933785,-0.0001236306707141921,-0.0027861178386956453,-0.0011484501883387566,0.0018327494617551565,0.0015170512488111854,-0.004149798769503832,-0.0012404924491420388,0.0020996949169784784,-0.0009487994248047471,0.001250276924110949,-0.005328308790922165,-0.00046469259541481733,0.0007091118022799492,0.0015223969239741564,0.00026242644526064396,-0.0032190398778766394},{5.9934092860203236e-05,0.001031773746944964,-0.0016783004393801093,0.0011600640136748552,0.0012704443652182817,-0.00016846782818902284,0.0008122033323161304,-0.0004938826896250248,0.0018704574322327971,0.0006095550488680601,0.0012397244572639465,0.0025951899588108063,0.0009550244431011379,-0.001338923117145896,0.0008172516827471554,0.0006266790442168713,-0.0007787094218656421,0.0007381953182630241,0.0032537796068936586,0.0007695529493503273,0.002759974915534258,-0.0004637892998289317,-0.0026291527319699526,-0.0008046277216635644,0.0008045756258070469,-0.0033364761620759964,0.0015885463217273355,-0.002173586515709758,0.0022910439874976873,0.0016296135727316141,0.000392457761336118,0.0012840115232393146,0.0004793033003807068,-0.003161458997055888,0.00012674805475398898,-0.0005264362553134561,-0.0012098548468202353,-0.0003113823477178812,-0.0029586763121187687,-0.0009665348916314542,0.00021875702077522874,0.001840885728597641,0.00013393061817623675,-0.0003003882884513587,0.0020528831519186497,0.0005056249792687595,-0.001998408231884241,0.002859220141544938,-0.0005005183629691601,0.0009282333194278181,0.0005067687598057091,-0.0037434485275298357,-0.0013875204604119062,-0.0012632085708901286,0.0012640041531994939,0.0018969369120895863,0.0015455958200618625,-0.0028609882574528456,-0.0023459161166101694,-0.005125443451106548,-0.0013741153525188565,0.0027504514437168837,0.0012300952803343534,0.0010825229110196233},{0.014431682415306568,0.006579665467143059,-0.0032668060157448053,-0.0037040910683572292,-0.008586726151406765,0.0035704716574400663,-0.008574462495744228,0.005828801542520523,0.0026677052956074476,0.0036577158607542515,-0.004473943263292313,0.004001406021416187,-0.003993278369307518,-0.0005586857441812754,0.0021677990444004536,0.0028331202920526266,-0.0006472852546721697,0.0014194012619554996,-0.0020637742709368467,0.0002725438680499792,-0.0016970267752185464,0.0026167172472923994,-0.0037079115863889456,-0.0026422757655382156,-0.006306197959929705,-0.007886695675551891,-0.004479452036321163,0.0006357269594445825,-0.002975201467052102,-0.004008985124528408,0.0004915294703096151,0.0037470434326678514,0.0026425374671816826,-0.0008400912629440427,-0.00015556460130028427,0.004894781857728958,-0.010002551600337029,0.0033346484415233135,-0.011719251982867718,-0.0016517098993062973,0.0026351131964474916,0.0033926693722605705,0.003154478734359145,0.008890350349247456,-0.000348090281477198,-0.006952978204935789,-0.017965473234653473,-0.003724807407706976,-0.009747152216732502,0.0009151267004199326,-0.016875505447387695,-0.005009830463677645,0.007672834675759077,-0.0033707113470882177,-0.0061079696752130985,0.010843769647181034,0.003053596941754222,-0.010037322528660297,-0.009624629281461239,0.00041754342964850366,0.009203193709254265,-0.002059701131656766,-0.0019510791171342134,0.003477854887023568},{7.718777487752959e-05,-0.003205040004104376,0.002306778449565172,-0.003999575041234493,0.004636684432625771,-0.0008144816383719444,0.0021733161993324757,-0.004341599997133017,-0.00241872132755816,0.0004882587236352265,0.005689968820661306,-0.002081917831674218,0.0004792646213900298,-0.0003277112264186144,0.0041817291639745235,-0.0002511277562007308,-0.0003021817246917635,0.0007754247635602951,-0.00010413598647573963,-0.0008761133067309856,-0.00809171050786972,-0.0011165279429405928,0.004573730286210775,-0.002401318633928895,-0.00029857669142074883,-0.002120000310242176,0.002949445741251111,6.575510633410886e-05,-0.0013341227313503623,-0.0007964079268276691,-0.001784454332664609,-0.002627058420330286,0.0005420678062364459,0.002045057248324156,0.003285149112343788,-0.0005200165323913097,-0.003963803872466087,-0.0005063071730546653,0.0006567288655787706,0.002692182082682848,-0.003227861598134041,-0.005055820569396019,-9.530334500595927e-05,-2.751447755144909e-05,0.00231242086738348,0.004888962954282761,-0.007853815332055092,0.0007346472702920437,0.0018388055032119155,-0.002508097095414996,0.0038734059780836105,-0.0016470475820824504,-0.0006516594439744949,0.0021201774943619967,0.001153846736997366,-0.0009189874399453402,-0.0006512984400615096,0.0009107779478654265,-0.002913437318056822,0.001272365334443748,0.0015871700597926974,-0.0009856068063527346,-0.004159086849540472,-0.000815283041447401},{0.0017022360116243362,-0.0022650188766419888,0.0007272220682352781,-0.002543403534218669,-0.0007944575627334416,0.001020542229525745,-0.000773200357798487,-0.0022491549607366323,0.00460806442424655,0.0007408245000988245,0.001555078662931919,-0.002956653479486704,-0.0009290549787692726,0.0007772127282805741,-0.0016696793027222157,-0.0007532230229116976,-0.0003319199022371322,0.0014486833242699504,0.001756119541823864,-0.000950249086599797,0.0032060404773801565,0.002718109404668212,0.0015338680241256952,0.0001309339131694287,-0.00039073589141480625,-0.0004205680452287197,0.0005582087324000895,0.0020830556750297546,0.0015413129003718495,-0.0005971103673800826,-0.0001175241923192516,-0.0006767942104488611,0.0012215001042932272,-0.0015734491171315312,-0.0019409151282161474,-0.0024794412311166525,9.862470324151218e-05,-0.00012092817632947117,-0.004333543591201305,-0.0010366177884861827,0.0009060894954018295,-0.0010555426124483347,0.0010643387213349342,0.0007044683443382382,0.00039026784361340106,-0.0015671966830268502,0.0005784709355793893,0.00019428753876127303,0.001439046929590404,0.0015730616869404912,0.0017319201724603772,-0.0005913720815442502,0.00016865759971551597,-0.0007515936740674078,-9.244423563359305e-05,0.0017146605532616377,0.0010453022550791502,-0.00032829560223035514,-0.0011474854545667768,-0.00018851378990802914,0.0014892416074872017,0.001849511405453086,7.298164564417675e-05,0.00021760773961432278},{0.00034660397795960307,-0.0005504756118170917,0.00012525184138212353,-0.005778647027909756,0.0005646694917231798,0.0029682370368391275,0.0034197326749563217,0.0020862382370978594,0.00026983744464814663,-0.0005109756020829082,-0.0007119575166143477,-0.0014478308148682117,0.002270239405333996,0.0006173048750497401,-0.00336658232845366,0.0004357715370133519,0.00026128708850592375,-0.001098860870115459,1.426077687938232e-05,0.0007022912031970918,-0.001434527919627726,-2.1380323232733645e-05,-0.0001752375392243266,0.0036582958418875933,-0.00038255646359175444,-0.0008879377855919302,0.0010816098656505346,0.0007449081749655306,-4.28914006533887e-07,0.0003187890397384763,0.00019672713824547827,0.001903727650642395,-0.0018534670816734433,0.0007694619707763195,-0.0034457282163202763,-0.004709678236395121,-0.0005894662463106215,0.0010693486547097564,-0.0004316879785619676,0.0002533271617721766,-0.001890180865302682,-0.0019973579328507185,0.0035606843885034323,-0.00043261077371425927,0.001985012087970972,0.003181922947987914,0.0004452846187632531,0.0017224239418283105,-3.460360676399432e-05,0.0024270163848996162,0.0005426573916338384,0.0033393260091543198,-8.983846782939509e-05,0.0005470081814564764,0.0038448022678494453,-0.0028358474373817444,-0.00026734554558061063,0.0009172691497951746,-0.002963596023619175,0.00229874299839139,0.00033105272450484335,0.003052255604416132,0.0031805778853595257,0.004485807381570339},{-0.0006058187573216856,-0.0004272332298569381,-0.00043252971954643726,-0.004642208106815815,-0.0011350397253409028,0.0012293830513954163,-5.577820957114454e-06,0.0008950131013989449,-0.0008897637599147856,-0.0022657590452581644,-0.0009316144278272986,-0.0011303115170449018,-0.0007588661974295974,0.0004530215519480407,-9.86507711786544e-06,-0.0014191251248121262,0.0018026258330792189,-0.0010307971388101578,-0.0001961082307389006,0.0011986005119979382,0.0013658686075359583,0.0016499500488862395,0.0005374757456593215,0.0008278475725091994,0.0011474742786958814,0.0015388776082545519,0.0021564755588769913,-0.0016504972008988261,0.0002867814037017524,-0.0019197151996195316,-0.000739397422876209,-0.0016179329250007868,-0.0007591603207401931,0.0017460451927036047,0.0011793505400419235,-0.00163642643019557,-0.003237178549170494,0.00043469207594171166,0.0013728451449424028,-0.0005493133794516325,0.0012442047009244561,-0.0029567228630185127,0.0026758660096675158,0.000775091873947531,-3.1577987101627514e-05,-0.0034178905189037323,0.0033968393690884113,0.00013310631038621068,0.0010454534785822034,0.0011639351723715663,0.0020351551938802004,0.00041188133764080703,0.0012044423492625356,-0.0024148256052285433,0.001703067566268146,-0.001347188837826252,-0.0004262799338903278,0.0004444102814886719,0.0007159978849813342,0.0022819412406533957,-0.002968565793707967,0.00028185799601487815,-0.002583934925496578,0.0012537598377093673},{-0.0015174042200669646,0.0002869603631552309,-0.0010143951512873173,0.00099492771551013,0.0008423827821388841,0.0006620537606067955,0.0002215888089267537,0.0011721899500116706,0.0008906705188564956,-0.0018481859005987644,2.0904217308270745e-05,0.0002315935562364757,0.003312600776553154,-0.00023177333059720695,-0.0010178072843700647,-0.0011100282426923513,0.00115518132224679,0.0013465846423059702,0.0009537928272038698,0.001491885632276535,-0.0023239459842443466,-0.003830827074125409,-0.0003676062624435872,-0.0034701533149927855,-0.001009608618915081,0.00015309620357584208,-0.00115801184438169,0.0012937987921759486,0.0014572658110409975,-0.0013193157501518726,0.0008105783490464091,0.0009918285068124533,0.0012086645001545548,-0.0003957728622481227,0.0019827953074127436,-0.0011445819400250912,-0.0020198598504066467,0.0005842317477799952,0.001075715059414506,-0.00020138350373599678,-0.0010440353071317077,-0.004009610507637262,0.0008760440396144986,0.005030773114413023,-0.003965374082326889,-0.0012560737086459994,9.097886504605412e-05,0.0017684756312519312,-0.0031042557675391436,-0.0005459935637190938,-0.0037556025199592113,-0.002397330245003104,0.00014905344869475812,-0.001326418248936534,0.0013448961544781923,0.0008995548123493791,0.0005755859310738742,0.0003922821779269725,0.0009506449569016695,-0.0009163160575553775,0.0012890519574284554,-0.00012882522423751652,0.0003717148501891643,0.0006370373885147274},{0.003757539438083768,0.000879553088452667,-0.003534904448315501,0.0037036777939647436,-0.0015078819124028087,0.0009869026252999902,-0.0023316391743719578,0.002603998174890876,-0.005043945740908384,-0.00349345407448709,-0.00031305773882195354,-3.07015361613594e-05,-0.004876706749200821,-0.0002520544803701341,8.782589429756626e-05,-0.0009678069036453962,-0.0037798979319632053,0.00026791918207891285,0.0023560915142297745,0.0020604999735951424,0.002232050057500601,0.002675463678315282,-0.0036793218459933996,0.0015878435224294662,0.0012042729649692774,0.0005947269964963198,0.000296998827252537,-0.0021211279090493917,0.00016150958254002035,0.0025487018283456564,0.00034467712976038456,-0.0006182061042636633,-0.005535758566111326,0.000713291869033128,-0.001104801776818931,-0.003203884931281209,-0.0007883651996962726,-0.000903576030395925,0.00015121289470698684,0.0012190842535346746,-0.0004097407800145447,0.00024893131921999156,-0.0029055436607450247,0.0012642225483432412,0.0010980386286973953,0.004588531795889139,0.00012336231884546578,-0.0001913318264996633,0.0013836234575137496,0.002178158611059189,0.0005821850500069559,0.001022662385366857,0.001392690814100206,-0.008833295665681362,0.0016877269372344017,-0.001089284080080688,-0.0032831127755343914,0.0015262388624250889,0.001833227463066578,-0.0008513191714882851,-0.00082073372323066,0.0018845052691176534,-0.001817369251511991,-0.003300214186310768},{-4.95140120619908e-05,0.0003294609487056732,-0.0006285426206886768,0.00028114530141465366,-0.00019113474991172552,-0.0009726262069307268,0.00033984743640758097,0.00025125962565653026,1.939062713063322e-05,-0.0004670327762141824,0.0012187917018309236,-0.0007050062995404005,-0.0006931970710866153,4.8258862079819664e-05,0.0005372022278606892,0.00010478274634806439,-0.00036270919372327626,-0.0008450825116597116,-0.0007925352547317743,0.00034985694219358265,0.0004098604549653828,0.0008453574846498668,-0.0006087480578571558,-0.0008576148538850248,0.0013293595984578133,-0.0006681244121864438,6.876127008581534e-05,0.0001910144492285326,-0.0005611166707240045,-0.0015202158829197288,2.1883812223677523e-05,-0.0004202265990898013,0.0003686093259602785,0.00047066513798199594,0.0005019218660891056,-0.0006760996184311807,6.75079136271961e-05,-0.00030707093537785113,0.00017511239275336266,0.000965775630902499,0.0009194324957206845,0.0004203213902655989,-3.682052920339629e-05,-0.00012379327381495386,-0.00025506457313895226,-0.00030951344524510205,0.0002676679869182408,0.000500728958286345,-0.000983071280643344,-3.9154379919636995e-05,-0.0006095615681260824,-0.0003546704538166523,0.0004612283955793828,-0.0016086361138150096,-0.00014217756688594818,0.00020568193576764315,-7.399593596346676e-05,0.00017657219723332673,-0.00011691730469465256,-0.0011569410562515259,-0.0001548521831864491,-0.0006688949069939554,-0.0018627250101417303,0.0002402459504082799},{0.003738017752766609,0.002450760919600725,-0.0019320541759952903,-0.006808078847825527,-0.0009297914803028107,0.0012725188862532377,-0.0022611997555941343,0.003565344726666808,0.002964860526844859,0.0007316155824810266,-0.0002276254672324285,-0.0007756685954518616,-0.0006024436443112791,0.0018934144172817469,0.0009668412385508418,-0.002052963012829423,-0.0007895688177086413,-0.0003287177823949605,0.0006539225578308105,-0.00449797697365284,-0.010783093050122261,-0.0035125226713716984,0.0033380165696144104,-0.0033104221802204847,-0.00015332677867263556,0.002033545169979334,-0.0008494448265992105,0.000331280316459015,9.511265670880675e-05,0.0008829581784084439,-0.0021007575560361147,2.339965976716485e-05,-0.00028592010494321585,-0.0011141722789034247,0.0023438597563654184,-0.0002962844737339765,-0.0025101839564740658,0.0003656840417534113,0.0027930208016186953,0.0006323379930108786,-0.0002581229782663286,-0.002792371902614832,-0.004428206942975521,0.0012846823083236814,0.0018628098769113421,0.00016789771325420588,-0.004342941101640463,-0.0028057615272700787,-0.0022041539195924997,-0.005523893516510725,-6.202780787134543e-05,0.0008610785589553416,0.0013662530109286308,-0.0003195333410985768,0.00032045357511378825,-0.0016726551111787558,-0.0005785651737824082,-0.0015376884257420897,0.0021184771321713924,0.0008082602289505303,0.0012684332905337214,-0.0004720181750599295,0.001370390527881682,0.00021665757230948657},{-0.006179407238960266,-0.0055693876929581165,0.006609069649130106,-0.0020499511156231165,0.0001038245391100645,-0.003171592717990279,-0.005195715464651585,-0.0003065518685616553,0.0046057444997131824,0.0013748585479333997,0.001023941906169057,0.000712864100933075,-0.005346203222870827,0.003077586879953742,0.006417154334485531,0.002593616023659706,-0.003972770180553198,-4.5137687266105786e-05,0.0051851035095751286,0.0012894736137241125,-0.003970490302890539,0.00015261268708854914,-0.0011064265854656696,-0.0007048930274322629,-0.002777429763227701,0.008624609559774399,-0.0011632912792265415,0.003435297403484583,0.003935487475246191,-0.002585177542641759,0.004906849469989538,-0.0010273392545059323,-0.0024429685436189175,-0.0033188716042786837,-0.0004619108512997627,-0.00011031862231902778,-0.0003486413916107267,-0.0016020889161154628,-0.00044449669076129794,-0.002111489186063409,0.0004457914037629962,0.0021436053793877363,0.003622242249548435,-3.5484017644193955e-06,-0.003840808989480138,-0.004824607167392969,0.0036298928316682577,0.001266096020117402,0.0027944406028836966,-0.0003665591939352453,-0.00011784341040765867,0.0020983126014471054,0.004105050582438707,-0.006073892116546631,0.004259802401065826,-0.005770091898739338,0.002380651654675603,0.0014703639317303896,0.004939154721796513,0.007029461208730936,0.0018312647007405758,-0.006148474756628275,0.00014842448581475765,-0.005608307663351297},{-0.001957480562850833,0.002142042852938175,-6.950461829546839e-05,0.001445086789317429,0.0021752750035375357,-0.00018102973990608007,0.00036959617864340544,-0.003761851927265525,-0.0017208970384672284,0.0009459931752644479,-2.5518482289044186e-05,0.0018095603445544839,0.00010454237781232223,-0.0006324385176412761,-0.0026780306361615658,0.0026953809428960085,-0.0017090935725718737,0.0021271442528814077,0.0025602104142308235,0.0017835671314969659,0.006286704447120428,0.0022469949908554554,-0.003071980783715844,-0.0013271105708554387,-0.005229063332080841,0.00423948559910059,-0.002675589406862855,-0.0019472775747999549,0.000853535661008209,0.0033104971516877413,0.001714628771878779,-0.0013271768111735582,0.0008380868239328265,-0.003981574438512325,-0.001438509556464851,-0.0018786726286634803,-0.003909005317837,-0.00011151067155878991,-1.0572570317890495e-05,7.048812403809279e-05,0.0015800700057297945,0.002841673092916608,-0.0025320900604128838,-0.0035743839107453823,0.0002980772405862808,0.000690919638145715,0.005550255533307791,0.0005168071365915239,-0.0002451920590829104,-0.0007292792433872819,0.0075807999819517136,-0.0010434755822643638,-0.001198696088977158,0.003182101994752884,0.004199822433292866,0.0012695167679339647,-0.0009506163187325001,0.0006766311707906425,-0.00013812455290462822,0.0014193060342222452,0.001259220065549016,-0.0003818780241999775,-0.00011107641330454499,0.002096461830660701},{0.006472195032984018,0.0007352579850703478,-0.001032287604175508,0.0035083559341728687,-0.0028302152641117573,-0.0017591944197192788,0.0012585417134687304,0.005176485516130924,0.0034137372858822346,-0.0006141880876384676,-0.0006708708242513239,-0.004945706110447645,0.0007185591966845095,-0.002249494194984436,0.0001279263524338603,-0.0030464089941233397,-8.639106454211287e-06,-0.0012955392012372613,-0.0006682459497824311,-0.0015319425147026777,0.0031399803701788187,0.0020437967032194138,0.0033894856460392475,0.002100494224578142,0.002595245372503996,-0.0021312423050403595,0.0001870047126431018,0.0022618076764047146,-0.0017620421713218093,-0.0005995736573822796,-0.0022821652237325907,-0.001218518358655274,-0.0038628692273050547,-0.00030274063465185463,-0.004516917280852795,0.002236508997157216,0.0015351606998592615,-0.00031182897510007024,-0.00562974251806736,0.0015937484567984939,0.000706004211679101,0.0025088530965149403,0.0001331284875050187,-0.005174970254302025,0.0020003572572022676,0.0005638075526803732,-0.001180189661681652,-0.0006397391553036869,-0.0027887022588402033,0.003924726974219084,-0.0015466922195628285,-0.0036238424945622683,-0.0020539567340165377,0.001766531728208065,-0.0030315620824694633,-0.00022128396085463464,0.0015387055464088917,-0.0009310021414421499,0.0033605655189603567,-0.0014111797790974379,0.003156202845275402,0.0011267971713095903,-0.000794954423326999,0.00015991224790923297},{0.005925138480961323,-0.004516134969890118,0.005769952666014433,0.004763083532452583,-0.01181324664503336,-0.010743054561316967,0.0010062422370538116,0.0032510117162019014,0.005387837067246437,0.013250607065856457,0.0049423398450016975,0.009327678009867668,-0.0076266624964773655,0.005572785157710314,-0.006063621956855059,-0.01337375771254301,0.004554323386400938,-0.0037426387425512075,0.01329033263027668,0.0053406041115522385,0.004487820900976658,0.0024289905559271574,-0.003004781436175108,-0.01126101054251194,0.017245598137378693,0.020339149981737137,-0.0018650310812518,-0.0010235420195385814,-0.0019674270879477262,-0.0017369019333273172,0.009091746062040329,-0.0022877531591802835,-0.011861822567880154,0.015072055160999298,-0.010205947794020176,-0.005534593015909195,0.00950224045664072,-0.0036512413062155247,0.0059509011916816235,-0.0034783268347382545,-0.0042845443822443485,0.0032442579977214336,0.0038922561798244715,-0.0010643753921613097,-0.005845447536557913,0.001831619767472148,-0.0014059520326554775,0.022712329402565956,-0.0007237105164676905,0.005980378016829491,0.002645880449563265,0.004812035243958235,0.0008863258408382535,0.008434039540588856,0.007169768679887056,-0.017719058319926262,0.01671670749783516,-0.007519553415477276,-0.019257644191384315,0.008601075038313866,-0.011767958290874958,0.017716776579618454,-0.006676139775663614,-0.009691892191767693},{0.00010769654909381643,0.0010472337016835809,0.00012723203690256923,1.0444134204590227e-05,-8.986134344013408e-05,-0.0006097102886997163,0.00032225498580373824,0.0003980516630690545,-0.00010854092397494242,-0.0007299193530343473,0.0007528745336458087,0.00019100430654361844,-0.00031562685035169125,0.000603361870162189,-0.0006376186502166092,-0.0008169260108843446,-0.0005372464074753225,-0.000493802537675947,-0.0005659597809426486,0.001001693308353424,0.0007586482679471374,6.176804163260385e-05,-0.00012012386287096888,0.0005044438876211643,-9.261184459319338e-05,-0.00011987542529823259,0.00015763712872285396,-1.0117859346792102e-05,5.058100214228034e-05,0.0006557059823535383,0.0006998887402005494,0.0005848658038303256,0.0012840942945331335,-0.0003577613679226488,0.00027430729824118316,0.00023290458193514496,-0.0004354834381956607,0.0006105051143094897,0.0011452644830569625,0.0015568421222269535,-0.00012855422392021865,0.0010750263463705778,-0.0002525355666875839,-0.0005867477739229798,-0.0005950717604719102,-0.00048440590035170317,-0.0014344897354021668,-0.000556928978767246,0.00016543184756301343,0.0009069142979569733,-0.00023837602930143476,0.0011014406336471438,0.0005775436875410378,-0.0004828015516977757,-0.0005277682794257998,-0.00012275662447791547,-0.0003705347189679742,-0.0005063205608166754,0.0007561403326690197,0.00013448565732687712,-0.0006610145792365074,-0.0001660599809838459,-7.164775161072612e-05,-0.0009123078198172152},{0.009820900857448578,0.010760553181171417,-0.003728122217580676,0.0052567580714821815,0.0008273940766230226,-0.0011695848079398274,0.004292832687497139,0.004386634100228548,-0.008542557246983051,-0.0025682589039206505,4.821302354685031e-05,0.010826178826391697,-0.002674618735909462,-0.003462112508714199,0.0026589485350996256,0.0003736881772056222,-0.002921673469245434,-0.0030592370312660933,-0.00037092677666805685,0.014667445793747902,0.0031157166231423616,0.0030458546243608,-0.005403595510870218,0.004373755306005478,0.002843984169885516,-0.002517189597710967,0.00046619382919743657,-0.006659400183707476,-0.0035940692760050297,0.008266286924481392,0.00032062767422758043,0.00017720041796565056,0.0022278788965195417,0.0032678854186087847,0.004995333030819893,0.002598830498754978,-8.24633170850575e-05,0.0017636868869885802,-0.00281532178632915,0.0031357735861092806,-0.0039011500775814056,0.0017406410770490766,-0.0031989284325391054,0.00019971042638644576,0.0023164188023656607,-0.0016971852164715528,-0.0030711537692695856,-0.001636238768696785,-0.0008968034526333213,-0.003586089937016368,0.004273791331797838,-0.007599342614412308,-0.0006548751262016594,-0.002458792645484209,0.004952126648277044,0.0021693718153983355,0.0028229779563844204,-0.0010774012189358473,-0.0017198927234858274,-0.0007979329093359411,-0.0051813144236803055,-0.0003432602097745985,-0.0015541024040430784,-0.000533103127963841},{0.0001664704323047772,-0.0005232482799328864,0.0001900611532619223,-0.0019834148697555065,-1.0289409146935213e-05,-0.0004089236899744719,-0.0007605215068906546,-0.0011065325234085321,0.00022574487957172096,0.00015375131624750793,0.0003558844036888331,-0.0017378886695951223,-0.0015584087232127786,0.0005196915590204298,0.00021254269813653082,0.00047126534627750516,0.0008130853530019522,-0.0007060543284751475,0.0005443179397843778,-0.0006282839458435774,-0.00012172562128398567,0.0014188035856932402,0.0008128194021992385,-0.0006957718287594616,-0.0007141317473724484,-0.0016146773705258965,8.37984225654509e-06,-0.00052318797679618,0.00037995705497451127,0.0003577213210519403,-0.0005764559609815478,0.00010243623546557501,-0.001616159686818719,-0.0010462190257385373,-0.0012642263900488615,-0.0007179203093983233,0.0012354104546830058,-0.0005289222463034093,-0.0009627079125493765,0.0005370896542444825,0.0016719979466870427,0.0017650430090725422,0.0008035071077756584,0.00019062860519625247,0.0014731964329257607,0.0027694301679730415,-0.0004937401390634477,0.0001781723549356684,-4.7823359636822715e-05,0.00040185987018048763,-0.001575227826833725,0.00048198888543993235,-0.0004845939402002841,0.0014059348031878471,-0.0004976280615665019,-0.0012299654772505164,-0.0011570826172828674,0.00134071905631572,0.0007682672003284097,-0.0006237459601834416,-0.0006166007369756699,-0.0005006153369322419,-0.0012419698759913445,-0.0005464443238452077},{-0.00039220007602125406,0.0018934333929792047,-0.0020106129813939333,0.0013372600078582764,-0.0005674835410900414,0.0008825359400361776,0.00364311202429235,0.005537723656743765,-0.004751360509544611,-0.0016702349530532956,-2.1263063899823464e-05,-0.004974304232746363,0.001860661432147026,0.0015518070431426167,-0.00010915180610027164,-0.0035703221801668406,0.0010825179051607847,-0.0032995331566780806,-7.258561527123675e-05,0.0003261711972299963,-0.004282647278159857,-0.0033985471818596125,0.006189639680087566,-0.0026070554740726948,0.01257238257676363,-0.005634312517940998,-0.0063043925911188126,0.0014076748630031943,-0.0034859986044466496,-0.0032539379317313433,9.761321416590363e-05,-0.00757787749171257,-0.005508397705852985,-0.0019799780566245317,0.0051904963329434395,-0.004731078632175922,0.0030161929316818714,0.02141817845404148,-0.0013889927649870515,-0.0005884200218133628,-0.009608238004148006,-0.03446783497929573,0.0009246043628081679,0.009684186428785324,-0.0050232261419296265,-0.004815379157662392,0.0020156698301434517,0.0051230983808636665,0.01086188293993473,0.0010094374883919954,-0.009173553436994553,0.005348706152290106,-0.003584114834666252,0.002348165726289153,-0.013720454648137093,-0.004137392155826092,-0.002291908720508218,-0.0037008472718298435,0.0018001286080107093,-0.0025214662309736013,0.006377206649631262,-0.006762180011719465,0.002158439951017499,-0.0025802236050367355},{-0.005099966190755367,-0.0020200717262923717,0.004127249121665955,-0.005016054958105087,0.0004112346505280584,-0.0017025381093844771,0.002545126946642995,-0.002535903360694647,-0.007966991513967514,-0.0010643262648954988,-0.0034183880779892206,-0.0032118381932377815,-0.002372896298766136,0.00259446376003325,-0.0010088711278513074,0.004089143592864275,0.004222313407808542,-0.0009622950456105173,9.596046584192663e-05,-0.0014226083876565099,-0.00168908282648772,0.004384486470371485,0.004189405124634504,0.004071210045367479,0.012049984186887741,-0.001264479709789157,0.0009637653711251915,-0.005099841859191656,-0.0032848548144102097,-0.003531122114509344,0.0012933564139530063,0.0003514951968099922,9.21283062780276e-05,4.698787961388007e-05,0.00019766835612244904,0.004196125082671642,0.0018715658225119114,0.018179966136813164,-0.0027516474947333336,0.0015000461135059595,0.012656300328671932,0.01986280456185341,-0.002111558336764574,-0.008087581023573875,0.00563583942130208,0.0023290994577109814,0.004235892090946436,0.006615928839892149,0.007552993018180132,-0.004611839074641466,0.010244444012641907,0.0002530937490519136,-0.0034839301370084286,0.00035963079426437616,-0.007046249229460955,-0.0011098469840362668,0.000996155897155404,0.007301486097276211,-0.005061731673777103,-0.0029772219713777304,0.0025205824058502913,-0.007190978154540062,0.003350366372615099,-0.0014503200072795153},{-0.007594007533043623,-0.00519164651632309,0.0027035875245928764,0.01259918324649334,-0.002353545743972063,-0.005650547333061695,0.0019917935132980347,-0.0007424174109473825,-0.00112111063208431,-0.007940412499010563,0.0055165900848805904,0.00136693031527102,0.003717859508469701,0.0025934106670320034,-0.005836611147969961,0.0010328144999220967,0.0035204763989895582,-0.0034981200005859137,0.004489793907850981,-0.0012626729439944029,0.003752439981326461,0.0005736884195357561,-0.0014099067775532603,-0.0019290074706077576,-0.0027454004157334566,-0.006347336806356907,0.0032742491457611322,-0.0009754548664204776,0.0006635197205469012,0.002951067639514804,0.0008143276791088283,0.0003014851827174425,0.0023281648755073547,0.011771063320338726,-0.0036218096502125263,-0.00320816389285028,-0.0017879478400573134,-0.0007527275593020022,0.00036680063931271434,-0.0009039173601195216,-0.0013325331965461373,0.004130586516112089,0.002267907839268446,-0.0003737777005881071,0.005869480315595865,-0.00015983553021214902,0.001315090456046164,-0.0009770795004442334,-0.0017893582116812468,0.0016882128547877073,0.00017195043619722128,-0.013648421503603458,-0.003300350857898593,-0.0008125179447233677,0.0038839925546199083,-0.0013402295298874378,0.00021232278959359974,0.0030059562996029854,-0.0013215882936492562,-0.0020960683468729258,-0.002016344340518117,-0.0031958583276718855,0.00041278338176198304,0.0055536567233502865},{0.0007750832592137158,0.0014221942983567715,0.001775017473846674,-0.0007643575663678348,-7.822669431334361e-05,0.00022066032397560775,0.0006154588190838695,0.0010290549835190177,0.00039250124245882034,4.572690886561759e-05,0.00013842762564308941,-6.878109707031399e-05,-0.0019143609097227454,-0.0011704061180353165,-6.586501694982871e-05,-0.0003843325248453766,-0.0007620958494953811,0.0003390785423107445,0.0014606683980673552,-0.0001318030699621886,0.00434093875810504,0.0003599772462621331,0.0001622628915356472,0.0007895641028881073,0.002211228245869279,-0.0016297516413033009,0.00023318329476751387,-0.00039057547110132873,0.0008870639721862972,0.0011535881785675883,-0.0019488492980599403,-0.0008526064921170473,-7.71813138271682e-05,0.0005344810779206455,-0.0011068409075960517,-0.0005971473874524236,-0.0006764446734450758,-0.0003874706744682044,-0.0025096891913563013,-0.0004288085037842393,0.00030641458579339087,-0.0001589428138686344,5.8947582147084177e-05,-0.001757395570166409,0.0008643667679280043,0.0007122174138203263,-0.0007070005522109568,0.0009515817509964108,-5.2397641411516815e-05,0.00039422852569259703,0.0012707927962765098,-0.00017946875595953315,-0.0008658092701807618,8.30581848276779e-05,-0.001996203325688839,0.0008944733417592943,0.0012729346053674817,-4.4324766349745914e-05,-0.002094745635986328,-0.0023655788972973824,-0.0007056184695102274,0.0016006806399673223,0.0010659086983650923,-0.0007792389951646328},{0.002094694646075368,0.001975016435608268,-0.0002588258939795196,0.0015556049766018987,0.0005283986101858318,0.0010125894332304597,-0.0006018225103616714,0.0014693000121042132,-0.00033869873732328415,0.0012394196819514036,-0.00027211662381887436,-0.002754306187853217,0.0004911154392175376,0.0015166981611400843,-2.8615504561457783e-05,-0.001036231406033039,-0.0008029366144910455,0.00014659605221822858,-0.001982211833819747,0.0010931979632005095,0.0028371959924697876,-1.4386419024958741e-05,0.001319939736276865,-0.000833597092423588,-0.00043997145257890224,-0.002027650363743305,-0.0008294801809825003,0.0012975279241800308,0.0003914979170076549,-0.0013259167317301035,-0.00034165900433436036,-0.0008872351609170437,-0.0009086628560908139,0.001477995770983398,-0.0013887728564441204,-0.0019054955337196589,-0.000581642147153616,-0.0006092445109970868,-0.0011749065015465021,-0.0011729872785508633,0.0022697406820952892,-0.00027403165586292744,-0.0025856688152998686,0.0005688935634680092,-0.0004946252447552979,0.0005366717814467847,-0.0005619233124889433,0.0001736913836793974,-0.0005400513182394207,0.0015218519838526845,-0.0009468423086218536,-0.0023644983302801847,-0.00020537259115371853,0.0016551912995055318,-0.0014826635597273707,0.001987480092793703,-0.000826452043838799,0.0002957504184450954,0.0003394903615117073,-0.0020545232109725475,0.0007586961146444082,0.0042563918977975845,-0.0004446323437150568,-0.0006499801529571414},{-0.0013412029948085546,0.003008513478562236,-0.00540172029286623,-0.0006856639520265162,0.002768593607470393,-0.0039109401404857635,-0.0004222318239044398,0.004226232413202524,