#include "network_evaluate.h"

static const int structure [3][2] = {{12, 256},{256, 256},{256, 2}};
static float output_0[256];
static float output_1[256];
static float output_2[2];
static const float mlp_0_weight[12][256] = {{0.24125005304813385,0.0002991174114868045,0.2676932215690613,0.06321810185909271,-0.000551265780813992,-0.35579195618629456,0.30857571959495544,0.20831625163555145,0.12014387547969818,-0.23059993982315063,-0.04332965984940529,-0.3475625514984131,0.12496717274188995,-0.10196879506111145,0.0290009044110775,0.3811625838279724,-0.15996572375297546,0.17882248759269714,0.22980251908302307,-0.23446038365364075,-0.08771947771310806,0.19812718033790588,-0.31695014238357544,0.057142723351716995,-0.3519795835018158,0.09531041979789734,-0.06244901940226555,-0.22457748651504517,0.17346309125423431,-0.0122833251953125,0.13756898045539856,0.10601171106100082,0.24861310422420502,-0.025406399741768837,-0.012987489812076092,-0.25313544273376465,0.2791498601436615,-0.0985644981265068,0.15071329474449158,0.0970463827252388,-0.2610451579093933,0.055521007627248764,0.00041384235373698175,0.009617810137569904,0.11586237698793411,0.12474358081817627,0.00795372948050499,-0.028355564922094345,-0.05002358555793762,0.24946126341819763,0.18826869130134583,0.026401953771710396,0.25852257013320923,0.16145789623260498,0.02297859452664852,0.026806490495800972,0.019844116643071175,0.22966183722019196,0.19165022671222687,0.25913864374160767,0.142294242978096,-0.11978031694889069,-0.09800204634666443,-0.015072702430188656,0.17887088656425476,-0.017749913036823273,-0.329321026802063,0.12654024362564087,-0.07204186916351318,-0.02291887253522873,-0.23708784580230713,-0.16184818744659424,0.07129058986902237,-0.11753417551517487,0.06962900608778,-0.4211191236972809,-0.1777123063802719,-0.06824754923582077,0.04316594451665878,-0.015658535063266754,-0.08400549739599228,-0.0077390288934111595,0.044749192893505096,0.22533540427684784,-0.08792586624622345,0.04361984133720398,-0.06425709277391434,-0.11556332558393478,-0.05773354694247246,-0.010147776454687119,-0.0531487837433815,-0.15784509479999542,0.25748002529144287,0.3033689558506012,-0.05594721809029579,-0.03397024795413017,0.13963089883327484,-0.1002020388841629,-0.1055525541305542,-0.06935865432024002,-0.030624469742178917,0.0494251549243927,-0.30188319087028503,0.02121329866349697,-0.11879875510931015,-0.02785295993089676,0.021907903254032135,-0.15835921466350555,-0.09962381422519684,0.03600667044520378,0.015759138390421867,0.3184228241443634,-0.011167104355990887,-0.06357120722532272,-0.00911103654652834,0.000595005345530808,-0.039642684161663055,-0.0021294523030519485,-0.04105868935585022,0.028004299849271774,-0.015227480791509151,0.33881324529647827,0.060248490422964096,-0.006870730314403772,0.13948597013950348,0.23102876543998718,-0.1837141215801239,-0.10262946039438248,0.02288310043513775,0.20237529277801514,-0.044348087161779404,-0.2507224977016449,-0.07226789742708206,0.03462369367480278,0.07050622254610062,-0.1538659632205963,-0.02295917645096779,0.20365776121616364,-0.0782739445567131,-0.12444470822811127,0.2932414412498474,0.18074120581150055,0.0866544246673584,-0.08641620725393295,0.2516184151172638,-0.20693181455135345,0.08299211412668228,-0.08605045080184937,-0.31270575523376465,-0.019650116562843323,0.0010808301158249378,-0.05560687929391861,0.0948229730129242,0.007449459750205278,0.22427202761173248,-0.06909187883138657,-0.014615747146308422,0.17114196717739105,-0.09522904455661774,-0.0016125774709507823,0.13701702654361725,0.23782789707183838,0.3511422872543335,-0.3332873582839966,-0.10841454565525055,-0.23248989880084991,-0.2074207365512848,-0.0576789416372776,-0.23973537981510162,-0.06335998326539993,0.2464258074760437,0.3544084131717682,-0.10242902487516403,0.0022624970879405737,0.0838000625371933,-0.09540925174951553,0.01455346867442131,0.3263126313686371,-0.250169962644577,0.04298099875450134,0.17229773104190826,0.042430099099874496,-0.009893292561173439,-0.17689745128154755,0.05345248803496361,0.16462315618991852,-0.25235113501548767,-0.16768144071102142,-0.3196130096912384,0.022600537165999413,-0.0332513265311718,-0.029446080327033997,0.22021865844726562,-0.0092001436278224,-0.07047564536333084,0.21130940318107605,-0.08072692900896072,0.22824451327323914,0.04576222971081734,-0.012264962308108807,0.04569806531071663,0.0659797340631485,0.23881122469902039,-0.14114634692668915,-0.11610210686922073,0.180689737200737,0.1601065993309021,-0.0570124015212059,-0.1541634351015091,-0.03861214593052864,0.016218075528740883,0.05764630809426308,0.14808644354343414,0.15325871109962463,-0.35180699825286865,0.003776361234486103,-0.23200549185276031,-0.11552184075117111,0.21956592798233032,0.1300099641084671,0.14046835899353027,0.16926032304763794,-0.09103178977966309,0.24077171087265015,-0.11910171061754227,-0.2796997129917145,-0.09185393154621124,-0.0505995973944664,0.04317247495055199,-0.2435220181941986,-0.3234102427959442,-0.06419094651937485,-0.10366236418485641,-0.21836575865745544,0.14737582206726074,-0.14494340121746063,0.031391266733407974,-0.1283140778541565,0.22870132327079773,0.07613018155097961,-0.17496532201766968,0.4331982135772705,0.028685014694929123,-0.23568224906921387,-0.04302073270082474,0.22138334810733795,0.17486722767353058,-0.04297177121043205,-0.04270998388528824,0.08140163868665695,-0.15058642625808716,-0.26066917181015015,0.03892029821872711,0.2682930827140808,-0.15152953565120697,-0.09397324919700623},{0.19419988989830017,-0.30753639340400696,0.2809891104698181,-0.16179318726062775,-0.33634644746780396,-0.13013707101345062,-0.503455400466919,-1.056126356124878,0.21551170945167542,-0.17677858471870422,-0.7019063234329224,0.02724664844572544,-0.29012930393218994,-0.43400266766548157,0.036787331104278564,-0.4791175425052643,0.14542073011398315,0.08389244228601456,0.016167789697647095,0.12396522611379623,0.05481194332242012,0.2655750811100006,-0.06562913954257965,0.1198330745100975,0.33031195402145386,0.31486770510673523,0.9565021395683289,-0.07969074696302414,0.12282948940992355,-0.1975587010383606,-0.4666309952735901,0.1386803835630417,-0.23451843857765198,0.7291268706321716,0.38506919145584106,-0.11182601749897003,-0.23212185502052307,0.21804949641227722,0.4121556580066681,-0.5303651690483093,-0.1373743712902069,0.08212215453386307,0.07088809460401535,-0.4071262776851654,0.09755652397871017,-0.32796934247016907,-0.24598398804664612,-0.04036279022693634,0.0614798478782177,-0.34777510166168213,-0.21984536945819855,-0.039420850574970245,0.14629636704921722,-0.0402224101126194,-0.7124137282371521,-0.07043017446994781,0.09316466003656387,-0.1626771241426468,0.20651651918888092,-0.3378833830356598,0.19316251575946808,0.10139597207307816,0.30283820629119873,0.17653325200080872,0.20056042075157166,-0.34607791900634766,0.3343685269355774,-0.05270469933748245,-0.24074070155620575,0.4702906906604767,0.04661622270941734,0.11866733431816101,0.4192502200603485,-0.10736081004142761,0.391714870929718,0.28884586691856384,0.1745419055223465,0.21232232451438904,-0.1308220624923706,-0.22237268090248108,-1.0102078914642334,-0.4904175102710724,-0.46712931990623474,0.1564301997423172,0.4653712809085846,-0.22198419272899628,-0.00426139822229743,0.5717760920524597,-0.15604281425476074,-0.16959457099437714,0.6579266786575317,0.08086150884628296,0.1710139364004135,-0.6420598030090332,-0.16861683130264282,0.523966372013092,0.19846056401729584,0.4631594717502594,-0.3827870190143585,0.16046707332134247,0.2587795853614807,0.05889270082116127,0.3798670768737793,-0.8675906658172607,-0.4214882552623749,0.07650518417358398,0.09535515308380127,0.18649469316005707,0.5657898783683777,0.1931913197040558,0.7935880422592163,-0.060748934745788574,0.7382757067680359,0.26220014691352844,-0.2373226135969162,-0.2737674415111542,-0.4090483486652374,0.2445681244134903,0.31261780858039856,-0.08142056316137314,-0.0028241376858204603,0.3446415364742279,0.5030178427696228,0.20177023112773895,-0.4735480844974518,-0.021647099405527115,0.10931993275880814,0.10279929637908936,0.6115477085113525,-0.3616635799407959,-0.09167150408029556,0.2807103991508484,-0.4798572361469269,0.21356260776519775,-0.2085462212562561,0.24348042905330658,-0.05145864188671112,-0.34017351269721985,-0.0998067706823349,0.6767231822013855,0.1273782104253769,-0.24131335318088531,-0.019564436748623848,0.04977825656533241,-0.2427823543548584,-0.08311661332845688,0.08801978826522827,0.6367337703704834,0.5053725242614746,-0.022830640897154808,0.2653398811817169,0.4193364083766937,-0.6084862351417542,0.03344587981700897,0.13560713827610016,-0.015801921486854553,0.5144460201263428,-0.02626955509185791,0.2768056094646454,0.26281076669692993,0.01589740626513958,0.3529592454433441,0.20041927695274353,0.7089971899986267,-0.5794704556465149,-0.009138636291027069,-0.03521878644824028,-0.26810991764068604,0.07596824318170547,-0.17492876946926117,0.3774537444114685,0.17383843660354614,-0.1807623952627182,0.09801843017339706,0.15844453871250153,-0.47515562176704407,0.3247602880001068,0.018590126186609268,0.0670417919754982,0.09938926994800568,0.1370142698287964,-0.015128230676054955,-0.028892911970615387,-0.002574304351583123,-0.40563133358955383,0.15325094759464264,0.042871519923210144,-0.08856512606143951,-0.11673204600811005,-0.4591594636440277,0.28168603777885437,0.43225374817848206,0.38609716296195984,1.1214596033096313,-0.23984989523887634,0.19809523224830627,0.4232003092765808,0.4741336703300476,-0.04307248443365097,0.012438653968274593,-0.6617169976234436,-0.23573996126651764,-0.5158108472824097,-0.1421147882938385,-0.26987558603286743,0.38744041323661804,0.15242859721183777,-0.014345620758831501,-0.30974066257476807,0.08300385624170303,-0.5045201778411865,0.062360480427742004,-0.4027146100997925,0.42149773240089417,0.5113407373428345,-0.0144724166020751,0.17641690373420715,0.3797423839569092,0.612853467464447,0.12444759160280228,-0.13918772339820862,0.14731846749782562,-0.16365283727645874,-0.42940062284469604,0.34030967950820923,-0.2936231195926666,0.07261601090431213,-0.004718821030110121,0.21832144260406494,0.17296305298805237,0.4568471908569336,-0.37494203448295593,0.05013355612754822,-0.3161379098892212,0.214199036359787,-0.08460813760757446,-0.5552892088890076,0.10364609211683273,0.4105992913246155,-0.20886440575122833,0.04204697534441948,0.3912487030029297,0.11098625510931015,-0.21913930773735046,-0.33386051654815674,-0.506622850894928,0.45123687386512756,0.8710439801216125,-0.05574716627597809,0.47007089853286743,0.20421111583709717,0.044813260436058044,-1.035546064376831,0.28450122475624084,-0.006165290717035532,0.37503480911254883},{0.1412419229745865,-0.31100478768348694,-0.10011381655931473,-0.008180580101907253,-0.07902657985687256,-0.08357764035463333,-0.3732558786869049,-0.017401184886693954,-0.052381012588739395,-0.14455026388168335,0.6997106075286865,0.15718905627727509,-0.3367578685283661,-0.39219072461128235,-0.5396578907966614,-0.18954576551914215,-0.2552008628845215,-0.0018730867886915803,0.3286823034286499,0.07451066374778748,0.7702525854110718,-0.07678597420454025,-0.15403220057487488,0.32068297266960144,0.016840996220707893,0.24055500328540802,0.13480013608932495,0.5895852446556091,0.1343030035495758,0.578432559967041,-0.10484129190444946,-0.34155282378196716,-0.05233999714255333,-0.11008644104003906,0.4190634787082672,-0.03736688941717148,0.15201953053474426,0.43480122089385986,-0.27539771795272827,0.3016226589679718,0.20565088093280792,-0.06947804987430573,0.003930642269551754,-0.50822913646698,0.3018224537372589,0.14280590415000916,0.03923001512885094,-0.020125646144151688,0.46623387932777405,0.48876723647117615,-0.01490204781293869,-0.07974903285503387,-0.029685717076063156,-0.058036595582962036,0.48457813262939453,-0.6098730564117432,0.49906983971595764,0.272820383310318,0.03387933969497681,-0.10880132019519806,0.09961666166782379,-0.36954113841056824,0.20013540983200073,0.13766765594482422,0.24575506150722504,-0.48206716775894165,0.11598045378923416,0.14739374816417694,-0.14801959693431854,0.4782198369503021,0.07689857482910156,0.45486003160476685,-0.4759657084941864,0.3486606180667877,-0.5332126021385193,0.18199756741523743,0.14457674324512482,-0.16694916784763336,0.4186311364173889,-0.29956114292144775,-0.5908085107803345,-0.18625508248806,-0.3857945203781128,0.2866749167442322,-0.36630627512931824,0.34501034021377563,-0.45334768295288086,-0.41783684492111206,0.32460087537765503,0.5420957803726196,-0.030670203268527985,-0.1926504522562027,-0.15486688911914825,0.06205209717154503,0.21145372092723846,0.1962769329547882,0.035595644265413284,0.015276957303285599,0.4404509365558624,-0.24399833381175995,0.035148508846759796,-0.7402016520500183,-0.16913118958473206,-0.011299694888293743,0.8952549695968628,0.16950960457324982,0.6613726615905762,-0.17310914397239685,-0.11347208172082901,0.2857966125011444,0.2957474887371063,-0.172507643699646,-0.030812358483672142,-0.1729477196931839,-0.23246856033802032,-0.18871350586414337,-0.5058606266975403,0.529667317867279,-0.08470740914344788,-0.2185683399438858,0.2923349440097809,-0.23422567546367645,0.07975483685731888,0.08428694307804108,0.0149229159578681,-0.11322037875652313,0.01342545822262764,-0.08601748943328857,0.23668262362480164,0.36207085847854614,-0.6467255353927612,0.13898029923439026,-0.42080366611480713,-0.34672319889068604,0.16517283022403717,0.11465024203062057,0.47714343667030334,-0.3144090473651886,0.06233615428209305,-0.2942541837692261,0.0404423289000988,-0.3236255347728729,-0.5910784006118774,0.47699257731437683,-0.05808236822485924,0.05427461490035057,-0.13409291207790375,-0.4510551393032074,-0.2999342381954193,0.2630949318408966,-0.49083763360977173,0.09605063498020172,-0.6154620051383972,0.08057516813278198,-0.18154127895832062,-0.015653789043426514,0.26883530616760254,-0.12011485546827316,0.5045129656791687,-0.5574866533279419,0.12176592648029327,0.20579923689365387,0.09083190560340881,0.19431523978710175,0.44028469920158386,-0.16495078802108765,-0.13774985074996948,-0.41867104172706604,-0.012842562980949879,0.4440872073173523,-0.007236536592245102,0.2453843355178833,0.2706233859062195,-0.44486576318740845,-0.8078773617744446,-0.4255172312259674,-0.3342142403125763,0.100113645195961,-0.0135817164555192,-0.3885514736175537,-0.02477804198861122,0.8214268684387207,0.5414036512374878,-0.08796891570091248,-0.43220072984695435,5.1174924010410905e-05,-0.06534674018621445,0.3395783305168152,0.22308950126171112,-0.22665761411190033,-0.16244658827781677,0.4890177249908447,-0.34346988797187805,-0.2470422238111496,0.5178206562995911,0.17579986155033112,-0.45601996779441833,0.1318569928407669,0.2578869163990021,0.13920144736766815,-0.3533366620540619,-0.04313487187027931,-0.032726943492889404,-0.2738053798675537,-0.4575543701648712,-0.11205624788999557,-0.010790321975946426,0.6516978144645691,0.05201418325304985,0.02147405408322811,-0.3706158399581909,-0.032338351011276245,0.23263555765151978,-0.04168565943837166,0.18162980675697327,-0.34238970279693604,-0.053190141916275024,0.24975955486297607,-0.5312321186065674,0.16751748323440552,-0.026965590193867683,-0.039033178240060806,-0.026196572929620743,0.011205067858099937,0.6456192135810852,0.1831074208021164,-0.6684499979019165,0.6589212417602539,-0.5747109055519104,-0.029850324615836143,-0.13725098967552185,-0.428101509809494,0.45762860774993896,-0.3524043560028076,0.23628196120262146,0.5654982924461365,0.6846811771392822,-0.4360896050930023,-0.19209778308868408,0.695966899394989,-0.414634108543396,-0.18947789072990417,0.26463088393211365,0.03896318003535271,-0.2948421537876129,-0.2670639455318451,-0.4820089638233185,-0.40747690200805664,0.19237910211086273,0.4507698118686676,0.10449070483446121,-0.01520947553217411,-0.25900375843048096,0.08132768422365189,0.056724924594163895,-0.028256338089704514},{-0.20241013169288635,0.14189933240413666,-0.40276649594306946,-0.10107526183128357,-0.21587815880775452,0.4425060749053955,-0.30270662903785706,0.23890385031700134,0.07240123301744461,0.32676443457603455,0.10762051492929459,0.29787540435791016,0.031742293387651443,0.36495956778526306,0.022680986672639847,-0.38456401228904724,0.10229884088039398,0.08101058751344681,-0.3700360655784607,0.05332950875163078,0.26109474897384644,0.08265936374664307,0.4040931761264801,-0.4448932111263275,0.33623185753822327,0.1353839784860611,-0.055958688259124756,0.40578117966651917,-0.10132208466529846,0.45860937237739563,-0.09376499056816101,-0.16102096438407898,-0.06788907945156097,-0.3215482234954834,0.3467192053794861,0.3406274914741516,-0.12929733097553253,0.21368540823459625,-0.35620805621147156,-0.20224392414093018,0.3044131398200989,0.3731871545314789,0.18213607370853424,0.11689650267362595,-0.337756872177124,0.32455992698669434,-0.16667614877223969,-0.08661612868309021,0.11768347024917603,0.10589094460010529,-0.06886889040470123,-0.48521044850349426,0.06830960512161255,-0.05523751303553581,0.24283872544765472,-0.49028846621513367,-0.4418432414531708,-0.25752243399620056,-0.29406774044036865,-0.1033177450299263,0.07594573497772217,-0.4388495683670044,-0.3503485321998596,0.39542272686958313,0.15723226964473724,0.31289294362068176,0.1540551632642746,-0.0857895091176033,-0.46438050270080566,-0.018391244113445282,-0.07740906625986099,0.04605363681912422,-0.25699442625045776,-0.44501349329948425,0.43307995796203613,0.27591943740844727,-0.08647134155035019,0.3562745749950409,-0.2872013449668884,0.3126627504825592,0.34990394115448,0.36732736229896545,0.34944239258766174,-0.32208189368247986,-0.4155585765838623,-0.2574017345905304,-0.11703673750162125,-0.1072281002998352,0.4115537405014038,-0.033632442355155945,0.036671001464128494,-0.40375587344169617,-0.30493196845054626,-0.1127142682671547,-0.4543534517288208,0.21273890137672424,0.017077330499887466,-0.07429838925600052,0.17847107350826263,-0.43471288681030273,0.07381772994995117,-0.20709264278411865,-0.04009675607085228,0.21314595639705658,0.21836617588996887,-0.36816129088401794,-0.09591278433799744,0.4054592251777649,-0.26085489988327026,0.11471343040466309,-0.12497834861278534,0.28587985038757324,0.13345761597156525,-0.4313315451145172,0.12318969517946243,-0.15876394510269165,0.2288062423467636,-0.4401698112487793,-0.2054826021194458,-0.16073556244373322,-0.2621914744377136,0.48092254996299744,-0.23887713253498077,0.39218318462371826,-0.0032318895682692528,0.6195238828659058,-0.08735731989145279,0.3627234399318695,-0.3067930042743683,0.5056788325309753,0.05021260678768158,0.032258618623018265,0.05000074952840805,-0.388261616230011,0.4286295175552368,0.3812824487686157,0.3364623486995697,-0.24553194642066956,-0.18810655176639557,-0.08898165076971054,-0.07287241518497467,-0.4115467369556427,0.31618040800094604,-0.1349336951971054,-0.1464490443468094,-0.39515921473503113,-0.28814753890037537,0.2574162781238556,-0.21315889060497284,0.4011645019054413,0.41806766390800476,-0.18112225830554962,0.18927034735679626,0.026547497138381004,-0.33400532603263855,-0.52638179063797,-0.0831441804766655,-0.42375150322914124,0.32035183906555176,0.18570271134376526,0.4722610414028168,-0.3077529966831207,-0.0360601507127285,0.16945405304431915,0.38259759545326233,0.029531467705965042,-0.10640173405408859,0.09270372241735458,0.03783687949180603,-0.2023181915283203,0.46426960825920105,-0.3930409550666809,0.5233680009841919,-0.10472013801336288,-0.07058179378509521,0.10391736775636673,-0.21093076467514038,0.21078351140022278,0.20730538666248322,0.16581355035305023,-0.05100402235984802,0.4653926491737366,-0.32669368386268616,-0.41518840193748474,-0.22698159515857697,-0.39403021335601807,0.1423969566822052,0.29266178607940674,0.3580820560455322,-0.017647530883550644,-0.4605339467525482,-0.15805600583553314,-0.36922651529312134,-0.1517792046070099,0.44970449805259705,0.04863979294896126,-0.459265798330307,-0.22090472280979156,0.36345726251602173,0.18378201127052307,0.21244077384471893,0.11638982594013214,-0.16509179770946503,0.3591803014278412,0.04007720202207565,-0.4490344226360321,0.008743011392652988,0.29743778705596924,-0.2114737629890442,-0.5438823103904724,0.0532132089138031,0.480718731880188,-0.027491871267557144,0.19478559494018555,0.29619264602661133,-0.5514413118362427,0.08582935482263565,-0.2749757170677185,0.5292069911956787,0.28008943796157837,0.007195343729108572,0.011548103764653206,-0.2613370716571808,-0.3843967020511627,0.09315080940723419,0.4236878454685211,0.12256591767072678,-0.07506869733333588,0.3483181297779083,-0.17598247528076172,0.1956765055656433,-0.31522509455680847,0.3700034022331238,0.2581305503845215,0.027814757078886032,0.018575116991996765,0.21769563853740692,0.2856484651565552,-0.5333679914474487,0.1517905294895172,-0.22105719149112701,0.8053386211395264,0.19180430471897125,-0.2109275460243225,0.39801958203315735,-0.3817519247531891,0.5073778629302979,-0.03810447081923485,-0.5738224983215332,0.14463169872760773,0.22537808120250702,0.06682334095239639,0.12434925138950348,-0.3094642460346222,-0.4335134029388428,0.18342234194278717},{0.09732784330844879,0.1776130050420761,-0.0662066712975502,-0.043072886765003204,-0.2645717263221741,-0.00808524526655674,0.05576285347342491,0.6191239356994629,-0.07318971306085587,-0.06898847222328186,-0.35741710662841797,-0.037763819098472595,0.296648234128952,0.020628424361348152,-0.05162448063492775,0.03244095295667648,-0.04473510757088661,0.040600161999464035,0.10938301682472229,-0.07006280869245529,0.047686900943517685,0.09001445770263672,-0.0020513117779046297,-0.13386456668376923,-0.07905938476324081,-0.008452871814370155,0.05911971628665924,-0.02109847404062748,0.043578196316957474,0.22747263312339783,0.010579333640635014,0.04851764068007469,0.10921332985162735,-0.27961358428001404,0.047657761722803116,0.025369785726070404,0.042602427303791046,0.07233811169862747,-0.06764581054449081,0.39804157614707947,-0.08722158521413803,0.5564956665039062,-0.016010673716664314,-0.017250025644898415,-0.03268397971987724,0.03956613689661026,0.017066672444343567,-0.03775117173790932,-0.0035757943987846375,0.1229579970240593,0.1264272779226303,-0.07623051851987839,0.03597819805145264,0.02737484872341156,0.26135316491127014,-0.09129360318183899,-0.00031417360878549516,0.044667840003967285,0.08307341486215591,0.04389102756977081,0.052621111273765564,0.04608442634344101,-0.726540207862854,-0.2689249515533447,0.024431584402918816,0.021567827090620995,-0.06284166127443314,0.04549718648195267,-0.24154944717884064,0.06964045017957687,-0.11293851584196091,-0.4025198519229889,-0.03175364434719086,-0.3170333802700043,0.37410885095596313,-0.09119544178247452,-0.16205544769763947,0.1292286515235901,-0.2532069981098175,0.04605381563305855,0.05252290517091751,0.06818269938230515,0.07046718895435333,0.08363425731658936,-0.14258068799972534,-0.10204862058162689,-0.10691048949956894,-0.2566412687301636,0.06119110435247421,0.025242149829864502,0.4861675798892975,-0.19068267941474915,0.08500505238771439,0.04455838352441788,-0.2413230687379837,-0.45603859424591064,0.0031441268511116505,0.016828937456011772,-0.03659955412149429,-0.03783172741532326,0.06799066066741943,0.17832601070404053,-0.35854023694992065,0.26655420660972595,0.12423765659332275,-0.14456035196781158,0.045727163553237915,-0.028146892786026,-0.03386104479432106,0.03224305063486099,-0.17620988190174103,0.2707013487815857,0.26400259137153625,-0.2388603538274765,-0.003541499376296997,-0.30167311429977417,0.02965610660612583,-0.18960005044937134,-0.24928781390190125,-0.09492432326078415,-0.01945561170578003,0.2595491409301758,-0.03545323759317398,0.09184306859970093,0.08128790557384491,0.25787514448165894,-0.017765065655112267,0.07791430503129959,-0.29705312848091125,0.42840009927749634,-0.576569139957428,-0.08622267842292786,-0.13791422545909882,-0.1073092371225357,-0.03855103999376297,-0.23439770936965942,-0.020439643412828445,0.09614653140306473,-0.037773195654153824,-0.22427423298358917,0.087650366127491,-0.06882987916469574,0.21050991117954254,-0.12570174038410187,0.06631755083799362,-0.232469841837883,0.22705817222595215,-0.473688542842865,-0.06114334985613823,0.12515200674533844,0.08396618068218231,-0.4798531234264374,0.12971150875091553,0.0334554947912693,0.019199127331376076,0.0028991159051656723,-0.10289261490106583,-0.006602463778108358,0.09257657825946808,-0.2122960239648819,0.07941102981567383,0.12122327834367752,0.18897107243537903,-0.10084822028875351,-0.2014075219631195,-0.02742401883006096,-0.1796143352985382,-0.03812890127301216,-0.03827338665723801,-0.19533279538154602,0.3363606035709381,0.030219601467251778,-8.794429595582187e-05,-0.02927303873002529,-0.4043067991733551,-0.03629153221845627,-0.05266295745968819,0.09491334855556488,-0.050638653337955475,0.09989088773727417,0.0888221487402916,0.07490317523479462,-0.28611230850219727,-0.16581009328365326,-0.038717254996299744,-0.02330760657787323,-0.0958939641714096,-0.016716621816158295,-0.04855832830071449,0.08653534203767776,-0.2587992548942566,-0.011864462867379189,-0.10219895094633102,-0.1925988346338272,-0.016508588567376137,0.07811534404754639,-0.18863226473331451,0.14610973000526428,0.08612433075904846,0.00016449252143502235,-0.16152618825435638,0.7753588557243347,0.008820743300020695,0.045356642454862595,-0.07358989119529724,-0.05273634195327759,-0.022330069914460182,-0.1238500252366066,-0.11047335714101791,0.061975426971912384,0.03066505305469036,0.08358842879533768,0.05720016360282898,0.062037259340286255,-0.06470904499292374,-0.10216733813285828,0.0014044217532500625,-0.5488223433494568,0.15060898661613464,0.05526347830891609,0.0020060832612216473,0.024586858227849007,-0.08024316281080246,0.05348817631602287,-0.051888708025217056,-0.050949886441230774,-0.5055006146430969,0.13589127361774445,-0.10035804659128189,-0.2642514705657959,-0.009484808892011642,-0.24927464127540588,0.03682867810130119,-0.04574618488550186,0.13307444751262665,-0.4159148335456848,0.017060402780771255,-0.33078891038894653,-0.12323156744241714,0.534550666809082,-0.20901866257190704,0.6478046774864197,-0.005502797197550535,-0.06512530148029327,0.12867090106010437,0.023714516311883926,0.16845016181468964,-0.045447152107954025,0.03556982800364494,0.10034393519163132,0.014734177850186825,-0.264255166053772,-0.06750888377428055,-0.044256336987018585,-0.06444232910871506,0.013565693981945515},{-0.001479174941778183,0.1369057297706604,0.0902509093284607,0.0015265101101249456,-0.1806407868862152,-0.11639411747455597,0.014740662649273872,0.5834382176399231,-0.03817688301205635,0.027888238430023193,-0.2808225452899933,-0.037945978343486786,0.2607842981815338,-0.0309200007468462,0.0613042414188385,-0.0779874175786972,0.019629299640655518,-0.03671996295452118,0.07116840779781342,-0.0020133373327553272,-0.01920253410935402,0.07177619636058807,-0.08530767261981964,-0.46783676743507385,-0.016760554164648056,-0.04522597789764404,0.026886437088251114,-0.10719592124223709,0.005698040593415499,0.07685129344463348,0.08717665821313858,0.07338791340589523,-0.014399989508092403,-0.1644933968782425,-0.03799022361636162,-0.0693332701921463,0.0017071403563022614,0.009547077119350433,0.09935041517019272,0.38465338945388794,-0.0919279158115387,0.6138029098510742,-0.021477004513144493,0.1464402675628662,0.056570928543806076,-0.05391925945878029,0.053200338035821915,-0.038106441497802734,-0.05928342044353485,0.15386414527893066,0.18926145136356354,0.014036937616765499,-0.03491857647895813,-0.013975662179291248,0.061176639050245285,-0.11753936111927032,-0.039212629199028015,0.0969642922282219,0.08460548520088196,0.011479351669549942,-0.05307885631918907,0.2530837953090668,-0.830629825592041,-0.26883411407470703,-0.0929393544793129,0.14893847703933716,0.06495397537946701,0.039498861879110336,-0.1321430504322052,-0.05027403309941292,-0.03761056438088417,-0.3515552878379822,0.02463158778846264,-0.2947734296321869,0.21934303641319275,0.008877592161297798,-0.14589054882526398,0.2659866213798523,-0.37766537070274353,-0.01742217130959034,-0.0353609099984169,-0.058165472000837326,-0.04769489914178848,0.01064999122172594,0.041180651634931564,-0.09337598085403442,0.018335659056901932,-0.17484968900680542,-0.01606454700231552,0.012683157809078693,0.6276476979255676,-0.025325819849967957,0.08560918271541595,0.10991095006465912,-0.2765345275402069,-0.6678644418716431,0.0013565914705395699,0.04270981624722481,-0.09328646957874298,0.027482381090521812,0.03682534769177437,0.18837404251098633,-0.4291633367538452,0.24250398576259613,0.15508104860782623,-0.22544825077056885,0.010902424342930317,0.0645579919219017,-0.021428504958748817,-0.03996657952666283,-0.3465069532394409,0.2229413539171219,0.27862685918807983,-0.15120305120944977,0.057593852281570435,-0.35414034128189087,0.048070576041936874,-0.1875356137752533,-0.2315089851617813,0.007836244069039822,0.13937751948833466,0.0927763506770134,0.05938006937503815,0.08705291152000427,0.005522162187844515,0.057114165276288986,0.013668844476342201,-0.00016684862202964723,-0.43244585394859314,0.24736031889915466,-0.44879692792892456,0.021982848644256592,0.01511269249022007,0.010846535675227642,-0.06187906116247177,-0.22683808207511902,-0.03352285549044609,0.04443945735692978,-0.02327808178961277,-0.1978895217180252,0.041638731956481934,-0.04510035365819931,0.2706822156906128,-0.10619186609983444,0.02040056698024273,-0.12340393662452698,0.30388036370277405,-0.5185661315917969,-0.08925765007734299,0.002450493397191167,-0.06371478736400604,-0.5529165267944336,0.16721387207508087,-0.0005420922534540296,0.042696237564086914,0.05322892963886261,-0.1455744206905365,0.05894627422094345,0.18563447892665863,-0.18618613481521606,0.03847547248005867,0.01497808750718832,0.20724821090698242,-0.10594819486141205,-0.20964550971984863,0.04384128004312515,-0.07451650500297546,0.03945937752723694,-0.011907457374036312,-0.0921175554394722,0.2084743082523346,0.1356840431690216,0.009387672878801823,0.09489031881093979,-0.41863852739334106,0.15892767906188965,0.05375397950410843,0.11556611210107803,-0.10220294445753098,0.15644052624702454,0.04779835045337677,0.09686212986707687,-0.45222049951553345,-0.052219029515981674,-0.0358184352517128,0.02185017801821232,-0.08525790274143219,-0.05281872674822807,-0.05393575504422188,0.10039804875850677,-0.19489163160324097,-0.07993372529745102,0.11339401453733444,-0.34526631236076355,-0.014150910079479218,0.010346034541726112,-0.010620788671076298,0.19114789366722107,0.03803214803338051,0.011698816902935505,-0.1540113240480423,0.9180673360824585,-0.020244887098670006,-0.009222576394677162,0.009449758566915989,0.12988266348838806,-0.10097678750753403,-0.20617979764938354,0.038863006979227066,0.061506547033786774,0.1321144551038742,0.0008904010755941272,0.0880298763513565,0.04141959175467491,0.1046513170003891,0.02252350002527237,0.03334367275238037,-0.5696440935134888,-0.09015120565891266,-0.10270722210407257,0.0014462574617937207,0.003942358307540417,-0.004147869069129229,0.007402931340038776,-0.15195904672145844,-0.11460505425930023,-0.39403918385505676,0.041473355144262314,-0.08724679797887802,-0.23621819913387299,-0.03355742245912552,-0.15570637583732605,-0.00974486768245697,-0.017165418714284897,0.025039995089173317,-0.3700590431690216,-0.027927899733185768,-0.30679094791412354,0.1431121528148651,0.3994600474834442,-0.10154057294130325,0.21437738835811615,-0.07609358429908752,0.020886393263936043,0.424947053194046,-0.0013279340928420424,0.012584456242620945,-0.07052721083164215,0.04066546633839607,-0.25756457448005676,-0.03665369749069214,-0.2650262713432312,-0.062446966767311096,0.10353150963783264,0.07777411490678787,0.0065729375928640366},{-0.023031076416373253,-0.011970889754593372,0.027597766369581223,0.07228738814592361,-0.17979329824447632,-0.056766610592603683,-0.06901274621486664,0.22794954478740692,0.01680595614016056,0.057082727551460266,-0.018028920516371727,0.02588408999145031,-0.07076801359653473,-0.036460332572460175,0.07977000623941422,-0.1502852588891983,0.03265346214175224,-0.04113289713859558,0.030668077990412712,0.041482727974653244,0.04045553505420685,0.05275515466928482,-0.01946437731385231,-0.30842357873916626,0.03727474808692932,0.007248320616781712,0.001567438943311572,0.04129103198647499,-0.00722706550732255,0.055021077394485474,0.02545253373682499,-0.020399022847414017,-0.08721131831407547,0.028193823993206024,-0.0012712825555354357,-0.018191654235124588,-0.011150808073580265,0.00744191138073802,0.024873750284314156,0.10429064929485321,-0.019194697961211205,0.29282909631729126,0.001149268471635878,0.1701732575893402,0.035332947969436646,0.024832885712385178,-0.015676625072956085,-0.03491830453276634,0.04647867754101753,0.17063570022583008,0.04177773371338844,-0.015694325789809227,-0.04617307335138321,-0.05888720601797104,0.00685159070417285,-0.11754386126995087,-0.028962109237909317,0.02716146595776081,0.05792805925011635,-0.06077910214662552,-0.06010200083255768,0.11884718388319016,-0.3611759543418884,-0.030833065509796143,-0.06647618860006332,0.032423533499240875,0.0966959148645401,-0.007819520309567451,0.006605004426091909,-0.0566704086959362,0.037253137677907944,0.03016090579330921,-0.04847850650548935,-0.11718728393316269,-0.08598601073026657,0.09055063128471375,0.015748649835586548,0.2169055938720703,-0.28469279408454895,-0.013943609781563282,-0.11379066109657288,-0.026305343955755234,-0.04612273350358009,-0.014099162071943283,-0.0031194775365293026,-0.10728593915700912,-0.018874235451221466,-0.10482697188854218,0.03902911767363548,0.009884330444037914,0.3922424018383026,0.028937017545104027,0.017713360488414764,0.057618528604507446,-0.1890958696603775,-0.25520727038383484,0.0025197293143719435,0.056101784110069275,0.015516569837927818,-0.023017432540655136,0.054126009345054626,-0.072260282933712,-0.25265684723854065,0.0503937192261219,0.14611397683620453,-0.23348240554332733,0.08598016202449799,0.1249365583062172,-0.07107850909233093,-0.013994257897138596,-0.20968809723854065,0.06187602877616882,0.22218531370162964,-0.07096969336271286,0.08071298897266388,-0.04613770544528961,0.04837847128510475,-0.061154477298259735,-0.16801817715168,0.04900336265563965,0.14047887921333313,-0.0016299564158543944,0.027309449389576912,0.12252340465784073,-0.07265020906925201,-0.042793791741132736,0.033545710146427155,0.01583801582455635,-0.19770418107509613,0.09920614957809448,-0.3713010251522064,0.0919940173625946,0.05751359090209007,-0.04494944214820862,0.06634899973869324,-0.09951175004243851,-0.007916329428553581,-0.04440087825059891,0.004360379185527563,-0.10348722338676453,0.02701621502637863,-0.050464946776628494,0.18376021087169647,0.04166192561388016,-0.07578092068433762,-0.03188973292708397,0.0838693231344223,-0.3074437379837036,-0.19860213994979858,0.04561213031411171,-0.12401559948921204,-0.32187825441360474,0.1017308235168457,-0.01645374298095703,-0.024597125127911568,-0.04784248024225235,-0.11986563354730606,0.00842572282999754,0.15551914274692535,-0.2766844630241394,0.05447232723236084,-0.03641979396343231,0.12843260169029236,-0.015139765106141567,-0.03891434893012047,0.0587628073990345,0.024603327736258507,0.06643398106098175,0.03065929375588894,0.1951931118965149,0.1021430492401123,0.11684804409742355,0.060398124158382416,0.09385735541582108,-0.2636890709400177,0.07491107285022736,-0.03489154949784279,0.11746345460414886,-0.09730429947376251,0.0809900313615799,-0.01831505075097084,0.2032005935907364,-0.24365468323230743,-0.05070710554718971,-0.10872241854667664,0.004893459379673004,0.0004403567290864885,0.04248373955488205,0.01470648217946291,0.04570600762963295,-0.1101430132985115,-0.09737241268157959,0.06251994520425797,-0.16425831615924835,0.11547691375017166,-0.007624227087944746,-0.05830073356628418,0.15050014853477478,0.09325192868709564,0.04974298179149628,0.027365073561668396,0.46080440282821655,-0.05158279836177826,-0.005506500136107206,0.010861055925488472,0.0373665988445282,-0.0856713056564331,0.06362494081258774,0.07540677487850189,-0.06317996978759766,0.1603543907403946,0.031833287328481674,0.024154143407940865,0.02172021195292473,0.15233613550662994,-0.0893682911992073,0.03654733672738075,-0.16913269460201263,-0.16018769145011902,-0.07577002048492432,-0.02815968729555607,0.004620019346475601,0.014947603456676006,-0.06815113872289658,-0.11223074793815613,-0.022411299869418144,-0.21142524480819702,-0.03799590468406677,-0.012079248204827309,-0.1080276370048523,-0.007959915325045586,-0.08955357223749161,0.04480939358472824,-0.025171630084514618,-0.03436628729104996,-0.08552874624729156,0.0746801421046257,-0.2396135926246643,0.08081890642642975,0.18948452174663544,-0.13111117482185364,0.006113216746598482,-0.03189361095428467,0.0315864160656929,0.29279208183288574,-0.06762934476137161,-0.06473808735609055,-0.08968299627304077,-0.04145805537700653,-0.02668110840022564,-0.0011902136029675603,-0.074360191822052,-0.08026587218046188,0.0699755996465683,0.06320125609636307,0.04401593282818794},{-0.04755634441971779,0.0005201480234973133,-0.04633411392569542,0.05308086425065994,-0.1135954037308693,0.10606461763381958,0.08518360555171967,0.04970141127705574,0.024621309712529182,0.04973096027970314,0.15977132320404053,0.029413888230919838,-0.06285036355257034,-0.003581046359613538,-0.012325611896812916,0.09010197222232819,0.07169017940759659,0.00732930563390255,0.017411988228559494,0.00275907339528203,0.08550402522087097,-0.08096147328615189,0.07024255394935608,-0.17550411820411682,-0.04504368081688881,-0.016459107398986816,-0.11706612259149551,0.08183088153600693,-0.012878657318651676,0.021946335211396217,0.16275493800640106,-0.04702305421233177,-0.030423760414123535,0.04240041971206665,-0.04530103877186775,0.01748921535909176,0.00981615949422121,0.02656587027013302,-0.07636863738298416,-0.01760733127593994,0.05330616608262062,0.07544125616550446,0.010113038122653961,0.11447255313396454,0.030200384557247162,-0.08813771605491638,-0.04574942961335182,0.040905412286520004,-0.03318818658590317,0.1061888039112091,-0.03581717982888222,-0.007351389620453119,-0.022335249930620193,-0.011559681966900826,-0.001828716485761106,-0.020957212895154953,0.07056836038827896,-0.055233344435691833,0.012696396559476852,0.003222646890208125,-0.014997054822742939,0.4414311945438385,-0.27670520544052124,-0.036790549755096436,-0.0859709084033966,0.0541568361222744,-0.036969900131225586,-0.02789681777358055,0.14720837771892548,-0.044439878314733505,0.05187623202800751,0.0745169147849083,-0.055233415216207504,0.021531332284212112,-0.36899733543395996,-0.007826569490134716,0.07599443942308426,0.12848341464996338,-0.23897233605384827,-0.03673134744167328,0.07304319739341736,-0.06636929512023926,-0.1090211272239685,-0.04203519970178604,0.24323758482933044,0.016141438856720924,0.07814131677150726,0.0053021772764623165,0.036993980407714844,0.024510454386472702,0.28372517228126526,-0.007022700738161802,-0.07064303755760193,0.10255733877420425,-0.1063915267586708,-0.19082339107990265,-0.010780923999845982,-0.044640205800533295,0.1135435625910759,-0.036485932767391205,-0.04470488056540489,-0.07906552404165268,-0.11301826685667038,0.07193609327077866,0.26167169213294983,-0.1485428810119629,0.012965789064764977,0.0501302108168602,-0.0637369155883789,0.01639804244041443,-0.19702059030532837,-0.0768483504652977,0.13547444343566895,-0.0315973274409771,0.025455811992287636,0.12687084078788757,0.054062917828559875,0.08241583406925201,-0.09469407796859741,0.05196595937013626,0.18951158225536346,-0.14171259105205536,0.05230063945055008,-0.031371358782052994,0.07211411744356155,-0.09624569863080978,-0.025839081034064293,-0.016622914001345634,-0.17076189815998077,0.09952070564031601,-0.3300783038139343,-0.008953431621193886,0.12728582322597504,-0.022903190925717354,0.04560965672135353,-0.05216933414340019,-0.053516849875450134,-0.044951774179935455,0.003319547511637211,-0.06496600061655045,-0.046501047909259796,0.10473963618278503,-0.0524006150662899,0.09138693660497665,0.030873311683535576,0.06010646000504494,0.10538483411073685,-0.2613016366958618,-0.08117255568504333,-0.04180319607257843,-0.24428001046180725,-0.21289142966270447,0.049970727413892746,0.00917831715196371,-0.0628499984741211,-0.045539677143096924,-0.12635008990764618,-0.06184569001197815,0.10691625624895096,-0.3744833767414093,0.006486206315457821,-0.06421055644750595,-0.01787545531988144,-0.06668224930763245,0.010300267487764359,0.028734983876347542,-0.011787697672843933,0.0481259748339653,0.04514596238732338,0.3302184045314789,-0.016295092180371284,-0.06426753103733063,0.06387420743703842,0.028667021542787552,-0.2760312557220459,0.20665498077869415,0.03142137825489044,-0.021564381197094917,-0.02952704206109047,-0.022951683029532433,-0.02301931008696556,-0.11632342636585236,-0.09947510808706284,0.03646501153707504,0.13553793728351593,-0.0669795349240303,0.008671627379953861,0.053312309086322784,0.05473852902650833,0.10697804391384125,-0.0672614723443985,-0.07550549507141113,-0.0965283215045929,-0.2497316598892212,0.11914331465959549,-0.054557088762521744,0.1353508085012436,0.07839313894510269,0.04735793173313141,0.05121633782982826,-0.046184174716472626,0.3864526152610779,0.09799337387084961,-0.015768755227327347,0.08247777819633484,-0.09756585210561752,-0.15266254544258118,0.03129738196730614,0.15433448553085327,-0.0772581472992897,0.18166419863700867,0.007641152944415808,-0.020142249763011932,-0.02803090587258339,-0.09161143749952316,-0.0401531346142292,-0.02451779507100582,-0.08050850033760071,-0.3243136405944824,-0.06115875393152237,0.0337778739631176,0.015732044354081154,0.022295402362942696,0.08237030357122421,0.02740035019814968,0.14373309910297394,-0.14856022596359253,0.041370540857315063,-0.10895613580942154,-0.055781666189432144,-0.07029697299003601,0.06678727269172668,0.06205638125538826,0.0410865880548954,-0.09616848826408386,0.09755746275186539,-0.01972632110118866,-0.23212087154388428,-0.06938736140727997,0.08890464901924133,0.017741654068231583,-0.08500554412603378,-0.006840328220278025,0.03614648059010506,0.1942472606897354,0.00934758223593235,-0.22585970163345337,-0.18815933167934418,-0.009540809318423271,-0.17731985449790955,-0.024721985682845116,-0.02998456172645092,0.06237896531820297,-0.046288181096315384,0.06092246621847153,-0.05032213032245636},{0.00402735685929656,0.11391319334506989,0.041876405477523804,-0.04594624042510986,-0.10697192698717117,0.032445091754198074,0.00960860401391983,0.180079847574234,-0.005393288563936949,-0.030172601342201233,-0.2295188158750534,-0.025756238028407097,0.22228014469146729,-0.012283122166991234,0.044465843588113785,-0.0009959943126887083,0.06269276142120361,0.007870707660913467,0.0342576764523983,-0.025424206629395485,-0.08386311680078506,-0.015682978555560112,-0.00681110005825758,-0.2260790914297104,0.02250628173351288,0.005866277497261763,0.0259979460388422,-0.2575831711292267,0.02225026860833168,-0.10716346651315689,0.11903921514749527,0.0932072103023529,-0.041948407888412476,-0.010916223749518394,-0.014458917081356049,-0.03720088675618172,-0.07023529708385468,-0.03847259283065796,0.07008315622806549,0.17364093661308289,-0.10283080488443375,0.3923424780368805,0.005817526951432228,0.12180387228727341,0.015430175699293613,-0.15137942135334015,-0.01348775252699852,0.014037801884114742,-0.0737379714846611,0.025463342666625977,0.10458949953317642,0.028388917446136475,-0.03496045246720314,0.015258179977536201,-0.1276330053806305,-0.07977066189050674,0.03658062219619751,-0.008016646839678288,0.07761374115943909,-0.030576422810554504,0.008862166665494442,0.4486325979232788,-0.4650638997554779,-0.07032317668199539,-0.09962088614702225,0.04324016720056534,-0.002355583244934678,-0.00047963354154489934,-0.06413967907428741,-0.03598417714238167,0.005168149247765541,-0.2610475718975067,0.0987728089094162,-0.16750574111938477,0.06128882244229317,-0.00802471674978733,-0.04778723046183586,0.18909627199172974,-0.23700936138629913,-0.03662630543112755,-0.006524155382066965,-0.06251209229230881,-0.05445926636457443,0.032668665051460266,0.13092876970767975,-0.08411344885826111,0.10484679788351059,-0.04641373082995415,-0.05102861672639847,-0.05989009514451027,0.5544947385787964,-0.012477749958634377,0.05769697576761246,-0.013494502753019333,-0.19156759977340698,-0.46657252311706543,0.028098806738853455,0.03176216036081314,-0.12000654637813568,0.08357574045658112,-0.006996091455221176,0.13427546620368958,-0.20089887082576752,0.11665771901607513,0.022916076704859734,-0.159303680062294,-0.0779532715678215,-0.0010527666890993714,0.024944968521595,0.017937008291482925,-0.20507921278476715,0.02306395210325718,0.2865409255027771,-0.016594165936112404,0.02275402843952179,-0.24952444434165955,0.04212857037782669,-0.03375531733036041,-0.11378267407417297,0.03035234659910202,0.16095057129859924,-0.07833859324455261,0.07877670228481293,0.0024996071588248014,-0.009710612706840038,-0.10932810604572296,0.00023859521024860442,-0.007620649877935648,-0.23704133927822113,-0.025729911401867867,-0.288210391998291,0.016103828325867653,0.06875134259462357,0.051928892731666565,-0.0682273879647255,-0.07271146029233932,-0.011293033137917519,-0.03194030374288559,-0.008538958616554737,-0.07041572034358978,-0.0327611118555069,-0.03160324692726135,0.07131942361593246,-0.0791240707039833,0.060437411069869995,0.01103762537240982,0.2814726233482361,-0.20106518268585205,0.1147727444767952,-0.0120225315913558,-0.04583006724715233,-0.4051719009876251,0.12068738043308258,0.030244268476963043,0.033349908888339996,-0.007005843333899975,-0.1125442162156105,0.018739085644483566,0.17569762468338013,-0.11019536107778549,0.0012891043443232775,0.06357552111148834,0.04397999495267868,-0.016644230112433434,-0.18527235090732574,0.02731553092598915,-0.06244231387972832,0.04962993413209915,0.04534380882978439,0.011611727066338062,0.047591179609298706,0.014783279038965702,-0.10372143238782883,0.07393762469291687,-0.15828831493854523,0.19480791687965393,0.06698513776063919,-0.05192473903298378,-0.03892010822892189,0.05158059671521187,0.04241037741303444,-0.0034229636657983065,-0.2748045325279236,0.03337209299206734,0.02724945731461048,0.02737579122185707,-0.06593815982341766,-0.06038320064544678,-0.059403982013463974,0.14713452756404877,-0.020267315208911896,-0.06417352706193924,0.02886551432311535,-0.05442751571536064,-0.011079734191298485,-0.06101320683956146,0.09861989319324493,0.11517318338155746,0.011799831874668598,0.03138457611203194,-0.05207657068967819,0.6660597324371338,-0.026858333498239517,0.02702731266617775,0.05680001527070999,0.1063607782125473,-0.07191089540719986,-0.21986067295074463,0.050670672208070755,0.015287652611732483,0.15680263936519623,0.03006826899945736,0.04373009502887726,0.04985221102833748,0.02247660607099533,0.06347998231649399,0.043199021369218826,-0.3156638443470001,-0.04080791398882866,-0.029346536844968796,0.0030925311148166656,0.054138779640197754,-0.0130128413438797,0.029793404042720795,-0.05703989788889885,-0.08976095914840698,-0.26287612318992615,-0.027573270723223686,-0.04408085718750954,-0.119228795170784,0.05388031527400017,-0.02906101755797863,-0.05009451135993004,0.0005432444741018116,0.008355113677680492,-0.17015637457370758,-0.12134313583374023,-0.153110072016716,0.020599128678441048,0.1250709593296051,0.040026236325502396,-0.09910881519317627,-0.03227797523140907,-0.006971461698412895,0.2140941619873047,-0.007056208793073893,0.029634058475494385,0.011115020141005516,-0.02197456546127796,-0.410946249961853,-0.011517942883074284,-0.16196435689926147,-0.01786179095506668,0.05028410255908966,0.08090110868215561,-0.006204240024089813},{-0.13825640082359314,0.1177157387137413,0.030587781220674515,0.07448629289865494,-0.5011603832244873,-0.008735092356801033,-0.11949915438890457,0.09970816969871521,0.013826577924191952,0.07582876831293106,-0.18261265754699707,0.01826373115181923,-0.03538721427321434,-0.023476500064134598,-0.06184273958206177,-0.061600469052791595,0.12239757925271988,-0.01623501442372799,-0.03419843688607216,0.032699503004550934,0.09667116403579712,0.006777835078537464,0.0001899225462693721,-0.004302589222788811,0.09137026220560074,0.008707995526492596,0.005325708072632551,0.3919159471988678,-0.03564571216702461,0.19568142294883728,-0.07381657510995865,-0.06991401314735413,-0.12546755373477936,-0.05397224798798561,-0.017570860683918,-0.043786659836769104,-0.1639806479215622,0.08370313793420792,0.04988934099674225,0.0067560612224042416,0.037312183529138565,0.20392152667045593,0.037638988345861435,0.10200945287942886,0.06168002262711525,-0.10882268100976944,-0.04122072830796242,0.055095769464969635,-0.05925041064620018,-0.03844069316983223,-0.16026340425014496,-0.09847947210073471,-0.0279073528945446,0.04566860571503639,0.1409643143415451,0.20986659824848175,0.12576612830162048,0.03192560002207756,0.03347884491086006,-0.03559822589159012,0.044021278619766235,0.6069549918174744,-0.3528701066970825,-0.06776592135429382,-0.09717947989702225,-0.15791095793247223,0.007301087491214275,0.003636132925748825,0.23609061539173126,0.04556871950626373,0.031034955754876137,0.08684512227773666,0.05913189426064491,0.04421910271048546,-0.30509087443351746,0.07598897814750671,0.10207325220108032,0.15210115909576416,-0.4356611371040344,-0.059174954891204834,-0.06290227174758911,-0.08681363612413406,-0.10561973601579666,-0.07347036153078079,0.332994669675827,-0.1561075747013092,-0.031100736930966377,0.054212767630815506,0.2169746309518814,0.0703606829047203,0.4611128568649292,-0.03041345626115799,-0.0210014246404171,-0.07595904171466827,-0.22960954904556274,-0.05085853114724159,0.030468732118606567,-0.027176368981599808,-0.09898509830236435,-0.1612197905778885,0.05566694587469101,-0.01426876150071621,0.028937332332134247,0.08825202286243439,0.25433462858200073,-0.2688204348087311,0.10348335653543472,0.18837565183639526,-0.0512092150747776,0.06532987952232361,-0.13285750150680542,-0.10861092060804367,0.31651222705841064,-0.16689357161521912,-0.020545531064271927,0.5395439267158508,-0.018688831478357315,0.04285092651844025,-0.24229849874973297,-0.06418800354003906,0.058803386986255646,-0.19471707940101624,0.07386774569749832,0.034368645399808884,0.04148106276988983,-0.09933313727378845,-0.0031548619735985994,-0.06124959886074066,-0.15075868368148804,0.17485913634300232,-0.8031591176986694,0.023006197065114975,0.04457250237464905,0.15236516296863556,0.14059285819530487,-0.09006752073764801,-0.41952571272850037,0.05895330384373665,-0.005597790703177452,-0.09936507791280746,-0.06595368683338165,-0.025159545242786407,0.046444110572338104,0.08595938980579376,-0.036480315029621124,0.05079904943704605,0.08284229785203934,-0.24380549788475037,0.17881354689598083,-0.11049947887659073,-0.2519592046737671,-0.47134527564048767,0.034465909004211426,0.06191951781511307,0.013157683424651623,-0.11884348094463348,-0.29108816385269165,-0.0016172548057511449,-0.16377678513526917,-0.7394972443580627,0.08018777519464493,-0.05493650585412979,-0.14656001329421997,0.021736614406108856,0.042634595185518265,-0.0006056843558326364,0.0848146602511406,-0.01941237412393093,0.021124010905623436,0.5165117383003235,-0.0012740296078845859,-0.028863636776804924,-0.14463597536087036,0.04867757484316826,-0.4245372712612152,0.08877138048410416,0.14453065395355225,-0.16986404359340668,0.027931690216064453,-0.0659138634800911,-0.013983150944113731,-0.24118401110172272,-0.11792106181383133,0.03603795915842056,-0.036937009543180466,0.051349952816963196,0.04059427231550217,-0.027661211788654327,0.06152447313070297,0.1450887769460678,-0.16067136824131012,0.01314313430339098,0.04899335280060768,0.34671345353126526,-0.24759382009506226,-0.053407635539770126,0.36480894684791565,-0.04273083433508873,0.14829935133457184,0.11971352249383926,0.05364299193024635,0.5772343277931213,-0.029134219512343407,0.006345764733850956,0.06806587427854538,0.09865641593933105,-0.2054101824760437,0.21083667874336243,0.13675443828105927,-0.11630762368440628,0.2519650459289551,0.08830523490905762,-0.2372298687696457,0.008628773503005505,0.06386145949363708,0.13877879083156586,0.0190567746758461,-0.164595827460289,-0.32560837268829346,0.028140749782323837,0.00590771296992898,0.051142193377017975,-0.045657504349946976,-0.021620003506541252,-0.06144632399082184,-0.059851016849279404,-0.2301202267408371,0.09619411826133728,-0.14481572806835175,0.07983628660440445,0.060206249356269836,-0.0009221351938322186,-0.056220944970846176,0.03655711188912392,-0.10607753694057465,-0.04762541875243187,-0.29362258315086365,-0.2521093785762787,0.016121698543429375,0.2601759731769562,0.05236697569489479,-0.0695897564291954,0.05055542662739754,0.008993580006062984,0.07690457254648209,-0.008653479628264904,-0.24602922797203064,-0.1438969224691391,-0.06544548273086548,0.4541073143482208,0.021861203014850616,0.04559050127863884,-0.04919887334108353,0.026928914710879326,0.014540599659085274,-0.026085516437888145},{-0.05957529693841934,0.015467171557247639,-0.03282113000750542,0.21193762123584747,-0.5176385641098022,0.0248243547976017,-0.04568012058734894,0.0743984580039978,0.015300888568162918,0.04731277748942375,-0.1091659665107727,0.021415354683995247,-0.2002587467432022,-0.0143622737377882,-0.023576797917485237,-0.02195044606924057,0.05395456403493881,-0.029463760554790497,0.04522125422954559,0.04215771704912186,0.12690098583698273,0.08007115870714188,0.01747203804552555,0.12942899763584137,0.00943287555128336,-0.03355292230844498,-0.07815475761890411,0.4907056391239166,-0.045681558549404144,0.2217063158750534,-0.10933640599250793,-0.0904284119606018,-0.08045067638158798,0.006794453598558903,-0.04816584661602974,0.013302699662744999,-0.04442065581679344,0.06914526969194412,0.016689365729689598,-0.08050797134637833,0.02379942499101162,0.046822745352983475,0.01144963875412941,0.11416899412870407,0.034578654915094376,0.0546901561319828,-0.028056103736162186,0.017345700412988663,0.0038374229334294796,0.06016451120376587,-0.1629525125026703,-0.08576977252960205,-0.008426325395703316,0.024213047698140144,0.21977704763412476,0.2655947208404541,0.13404925167560577,0.017256107181310654,0.07854905724525452,-0.011986428871750832,-0.03547542542219162,0.38243937492370605,-0.15461362898349762,-0.045368876308202744,-0.07076972723007202,-0.25107091665267944,0.0031435966957360506,0.00944088026881218,0.2941828668117523,0.006076923571527004,0.01653577759861946,0.25299760699272156,-0.01039321068674326,0.12352955341339111,-0.4543642997741699,0.021617671474814415,0.12697531282901764,0.07683145999908447,-0.391753613948822,-0.03281327709555626,-0.06280692666769028,-0.04887272045016289,-0.05570767819881439,-0.04544404521584511,0.2713513970375061,-0.16359469294548035,-0.11243246495723724,0.022948982194066048,0.20834118127822876,0.06834105402231216,0.22260011732578278,0.009432134218513966,0.01721387915313244,0.042891159653663635,-0.1531703770160675,0.23245051503181458,-0.017112962901592255,-0.043135181069374084,-0.025575168430805206,-0.2039547860622406,0.06870289891958237,-0.12633642554283142,-0.06357341259717941,-0.023178722709417343,0.28060218691825867,-0.25771018862724304,0.1950269639492035,0.17799502611160278,-0.1205383762717247,0.010983036831021309,-0.06360960751771927,0.006670273374766111,0.2257940024137497,-0.15302689373493195,-0.0017485966673120856,0.7815244793891907,0.01233198493719101,0.05186215788125992,-0.21935588121414185,-0.020728545263409615,-0.009044797159731388,-0.08767512440681458,0.028933243826031685,0.09804829210042953,0.05460748076438904,-0.017144348472356796,-0.0009670113795436919,-0.05142904445528984,-0.005769368726760149,0.2379661351442337,-0.8720444440841675,-0.002957932883873582,0.03903384134173393,0.09912601858377457,0.17709863185882568,-0.13378676772117615,-0.4574713408946991,0.15982036292552948,0.006500524468719959,-0.1072981134057045,0.014474194496870041,0.0494404099881649,0.0949668437242508,0.14094501733779907,-0.08008161932229996,-0.03339908644556999,-0.07024440914392471,-0.2260090559720993,-0.11770036816596985,-0.061491645872592926,-0.25971296429634094,-0.28171196579933167,0.006216568406671286,0.023595958948135376,0.012143959291279316,-0.1019873395562172,-0.3141056001186371,0.025279410183429718,-0.26705753803253174,-0.8331530094146729,0.06105000898241997,-0.044526148587465286,-0.007045102771371603,-0.0800265297293663,0.07461297512054443,0.013979487121105194,0.11571850627660751,0.002255623694509268,-0.022158198058605194,0.626089870929718,0.071621835231781,-0.008987214416265488,-0.10865668207406998,0.06265346705913544,-0.4601294696331024,-0.06430446356534958,0.07191523164510727,-0.01777929812669754,-0.06260865926742554,-0.03946917876601219,-0.022723151370882988,-0.2340921312570572,-0.01814291626214981,-0.047223322093486786,-0.07027246803045273,-0.007155661471188068,0.07787301391363144,-0.0020714998245239258,0.02210906706750393,0.08732674270868301,-0.17475561797618866,-0.03343409299850464,0.014936701394617558,0.38153502345085144,-0.19513322412967682,-0.039266590029001236,0.2971242070198059,0.04919246956706047,0.1602485030889511,0.08915677666664124,0.12319173663854599,0.25414812564849854,0.06977105885744095,-0.01042881142348051,0.049264147877693176,0.03656909987330437,-0.14561337232589722,0.35613998770713806,0.13110584020614624,-0.12957289814949036,0.24392184615135193,0.056058619171381,-0.21138794720172882,-0.021813170984387398,-0.005356463138014078,0.05082016810774803,-0.014920652844011784,0.003069506259635091,-0.3603319525718689,-0.03039189800620079,0.011737274006009102,0.017672697082161903,-0.000299787032417953,0.005187543109059334,-0.13417193293571472,-0.030342446640133858,-0.17667147517204285,0.05733155086636543,-0.12024988234043121,0.05111778900027275,-0.02796563133597374,-0.003793467069044709,-0.05586998909711838,0.0008311003912240267,-0.10820985585451126,0.010004911571741104,-0.2119636982679367,-0.3324071168899536,-0.04715602844953537,0.24615557491779327,-0.10740146040916443,0.03152633458375931,0.021155284717679024,0.022563332691788673,-0.03613821044564247,0.04432601481676102,-0.31083932518959045,-0.18563547730445862,-0.02957381308078766,0.7991400361061096,-0.029596582055091858,0.034305639564991,-0.028684640303254128,-0.03960852697491646,-0.02199747785925865,-0.015646761283278465},{0.006363579072058201,-0.033165883272886276,-0.05080109462141991,0.3331432640552521,-0.6795251965522766,-0.061861198395490646,-0.23826661705970764,0.009683925658464432,-0.0454181507229805,0.0005441897083073854,-0.3287232518196106,0.055734459310770035,-0.35422706604003906,-0.011807076632976532,0.09249969571828842,-0.20827652513980865,0.05605693906545639,-0.09051777422428131,0.12722012400627136,0.12014631181955338,0.05853433161973953,0.11148987710475922,-0.057860445231199265,0.4294111728668213,0.05023982375860214,-0.04594176635146141,-0.022905850782990456,0.5685620307922363,-0.07162444293498993,0.16124247014522552,-0.3067791163921356,-0.10627990961074829,-0.1867091804742813,0.13693436980247498,-0.08383031189441681,0.04587726667523384,-0.08355562388896942,-0.01219026930630207,0.048599060624837875,-0.1679346263408661,-0.06401671469211578,-0.09938506782054901,-0.06299474835395813,0.21823225915431976,0.035478413105010986,0.15978820621967316,0.021624499931931496,-0.05862636864185333,0.1070210188627243,0.02050063945353031,-0.2459116131067276,-0.027530739083886147,-0.08079811930656433,-0.059739600867033005,0.14700384438037872,0.39485740661621094,0.23684906959533691,0.007751004304736853,0.1670832484960556,-0.13741835951805115,-0.08850712329149246,0.3267694413661957,0.21485662460327148,-0.01681867614388466,-0.06962276250123978,-0.5767822861671448,0.09985356777906418,0.011272688396275043,0.3843517303466797,-0.0330357626080513,0.09095943719148636,0.45178863406181335,0.027965404093265533,0.28840866684913635,-0.6250784993171692,0.09008503705263138,0.26591017842292786,0.010694466531276703,-0.31953486800193787,-0.0038461023941636086,-0.17208853363990784,0.01531499158591032,0.03399648517370224,0.01569533720612526,0.08112999051809311,-0.34120526909828186,-0.16505026817321777,0.02329615131020546,0.19605368375778198,-0.045837122946977615,0.15966777503490448,0.09699828177690506,0.10060347616672516,-0.07400977611541748,-0.04965755343437195,0.4938051998615265,-0.04559712111949921,0.07728852331638336,-0.109615758061409,-0.168051078915596,0.15557588636875153,-0.25006282329559326,-0.0564703568816185,-0.2076835036277771,0.17074893414974213,-0.28393200039863586,0.23252342641353607,0.18815448880195618,-0.0985611081123352,-0.024244287982583046,0.008307315409183502,-0.06453446298837662,0.2744428217411041,-0.07778409123420715,0.05851389095187187,1.1286749839782715,0.03733377903699875,0.12863312661647797,-0.18131814897060394,0.03832850232720375,-0.13223670423030853,-0.1806846708059311,-0.019446928054094315,0.23430222272872925,-0.08501920849084854,-0.12733806669712067,0.057779449969530106,-0.013895351439714432,0.2474987804889679,0.14999522268772125,-1.0736500024795532,0.10344169288873672,0.017992544919252396,0.13166457414627075,0.1556958109140396,-0.20071743428707123,-0.6480006575584412,0.22600263357162476,0.06593084335327148,-0.03662846237421036,0.007289320230484009,-0.020119527354836464,0.03634122759103775,0.19771933555603027,-0.20423218607902527,0.014581066556274891,-0.2563236653804779,-0.09122644364833832,-0.11187825351953506,0.04106087610125542,-0.19857953488826752,-0.26056724786758423,0.0712103471159935,-0.06888528913259506,0.04747748374938965,-0.049888819456100464,-0.4048594534397125,0.10689786821603775,-0.4282156229019165,-0.9191790819168091,-0.0012278083013370633,0.055460721254348755,-0.015444284304976463,-0.02575998567044735,0.02004934661090374,0.06069176644086838,0.2483576238155365,0.05572092533111572,0.022813478484749794,0.8220434188842773,-0.023748915642499924,0.16092859208583832,-0.3067716062068939,0.1737898886203766,-0.45454955101013184,-0.2671564221382141,-0.009893864393234253,-0.054489701986312866,-0.0884154662489891,-0.05139869078993797,-0.06061935797333717,-0.16358698904514313,0.17172876000404358,0.004525515716522932,-0.23465213179588318,0.05049018934369087,0.13790155947208405,0.0011238870210945606,-0.05503296107053757,0.0955207571387291,-0.08871203660964966,-0.12127372622489929,0.027866318821907043,0.8825222849845886,-0.26584765315055847,-0.07188151776790619,0.20304812490940094,0.10526765137910843,0.16788433492183685,0.05712050199508667,0.3936094343662262,-0.10738881677389145,-0.0783262848854065,0.056471072137355804,0.03956420347094536,0.21006640791893005,-0.0856512039899826,0.5349403619766235,0.13960173726081848,-0.06117091327905655,0.3322322964668274,-0.0001307645143242553,-0.27581724524497986,-0.028392788022756577,0.19403569400310516,0.09740658849477768,0.06889768689870834,0.26223698258399963,-0.3872404396533966,-0.027059443295001984,-0.031117061153054237,-0.008337251842021942,0.07483278959989548,-0.09841148555278778,-0.2586619555950165,-0.2337394803762436,-0.11218460649251938,-0.06801264733076096,-0.09277895838022232,0.18118783831596375,0.13360175490379333,0.0215168297290802,-0.1626831740140915,-0.07609960436820984,-0.09933315962553024,0.069831483066082,-0.27168357372283936,-0.3664332628250122,-0.07348637282848358,0.14990270137786865,-0.15884359180927277,-0.12957818806171417,-0.01823153719305992,0.0497291274368763,-0.29469263553619385,0.054760247468948364,-0.3733771741390228,-0.0017354211304336786,0.030201200395822525,1.2190697193145752,-0.027485311031341553,0.10252635180950165,-0.07649441063404083,-0.014774959534406662,0.03343039005994797,0.07686938345432281}};
static const float mlp_2_weight[256][256] = {{0.0004594548954628408,0.00012072487879777327,4.553994131129002e-06,0.014207499101758003,0.014192976988852024,0.0015053576789796352,-0.029262399300932884,-0.022491613402962685,-0.06615828722715378,-0.004193219821900129,4.5590502850245684e-05,-1.331711609964259e-05,-0.07154950499534607,0.023256616666913033,-6.273393751143885e-07,-0.028156086802482605,-0.0012900675646960735,0.012005100958049297,-0.0026279378216713667,0.24811075627803802,1.2289987353142351e-05,0.07097937911748886,-0.003887094557285309,-0.00931028462946415,0.015182065777480602,0.013760501518845558,-0.002606887137517333,-3.935465883841971e-06,-0.008979396894574165,-0.05785568058490753,-0.11279183626174927,0.01014455035328865,-0.0994279533624649,2.6949104722007178e-05,-0.027856500819325447,-0.07517930120229721,0.03699011355638504,-0.0481516495347023,-0.049902766942977905,-0.00034065722138620913,-0.04662339389324188,0.016658086329698563,-0.06020697206258774,-0.01164446584880352,-2.783635318337474e-05,-0.0700749084353447,-0.02697008103132248,0.025234896689653397,0.015508819371461868,-0.07067522406578064,-0.07740791141986847,0.08241091668605804,-1.7093547285185196e-05,0.034127525985240936,-0.02134794369339943,0.052682165056467056,0.06872087717056274,-0.04897812381386757,-0.0010724631138145924,1.7639803218116867e-07,0.025021910667419434,-0.07974971830844879,-0.0207610335201025,-5.240383416094119e-06,0.028408940881490707,-3.4883305488619953e-05,-0.038351140916347504,0.022085214033722878,-0.002663843799382448,0.02787909097969532,0.02070404775440693,0.040188949555158615,-0.09723863005638123,1.7064463690985576e-06,-0.021284926682710648,0.010702945291996002,-0.006251442711800337,0.03616230562329292,-0.012645058333873749,-7.428314711432904e-05,0.02676304802298546,-0.018388262018561363,-0.017732085660099983,0.07463037967681885,-3.331859261379577e-05,-0.05157804489135742,0.00011848988651763648,0.02706700749695301,0.0026149952318519354,-4.663815343519673e-05,0.006905107758939266,0.02243247628211975,0.01681358367204666,-0.07116459310054779,0.014095540158450603,-0.12860843539237976,-5.8519788581179455e-05,0.00028727948665618896,-2.4592620320618153e-05,9.682330528448801e-07,-0.0005486393347382545,0.09603484719991684,-0.005015193484723568,-0.0066899084486067295,-1.3137770338289556e-06,-0.034034401178359985,-0.06785007566213608,0.012067005969583988,0.015371371991932392,-0.05543332174420357,0.015400862321257591,0.006934515666216612,1.832294037740212e-05,-5.944025360804517e-06,0.03271603211760521,-0.0027698588091880083,-0.0007004339713603258,0.005763061810284853,1.384810730087338e-05,0.008016781881451607,-0.06347377598285675,-0.02401341125369072,-2.455705612192105e-07,0.024083007127046585,-0.007059162948280573,0.000327031099004671,0.007056971080601215,0.1052505150437355,-0.0007556380587629974,-0.00036250805715098977,-0.04260662943124771,-1.6267034386174828e-09,0.0286233089864254,0.06344296038150787,6.962859178116787e-09,-0.13146650791168213,-0.11458872258663177,-0.007468165829777718,8.90964838617947e-06,-0.021910883486270905,0.027247367426753044,-0.010660756379365921,-0.015468282625079155,9.85348975746092e-08,-0.04677892103791237,0.034959085285663605,-0.024225886911153793,0.006663498934358358,0.026568438857793808,0.01638670265674591,0.004877170082181692,7.276010478562966e-07,-4.02557276402149e-07,-0.05238165333867073,-0.16788916289806366,0.060223739594221115,-0.055298443883657455,0.043457578867673874,-0.00170187430921942,-0.10131186246871948,-0.05154084786772728,-0.018609533086419106,-0.0427180640399456,0.04107606038451195,-0.01138860359787941,-0.007797895465046167,-0.04052366316318512,-0.043040648102760315,-0.05570656806230545,-0.012146804481744766,-6.830682082181738e-07,0.0018260704819113016,6.93799862006017e-08,-0.0003127560194116086,0.08154603093862534,3.4068037280121644e-08,0.024218257516622543,-0.027818111702799797,-0.005509677343070507,0.003432618919759989,0.0655672550201416,-0.0791182667016983,2.428091102046892e-05,0.014965933747589588,0.016439169645309448,0.07756531238555908,-2.1010169803048484e-05,5.889207841391908e-07,0.009471967816352844,0.011655530892312527,-0.0011045087594538927,0.04882710427045822,-0.0039303842931985855,7.064716191962361e-05,0.0025036572478711605,3.037131864402909e-05,-0.021887633949518204,-1.5703037206549197e-05,0.0022099707275629044,-2.2578985863219714e-06,-0.10688082128763199,-0.046442899852991104,0.05911579355597496,0.383774071931839,0.00828295573592186,-0.006277256179600954,-0.03393803536891937,2.3746147235215176e-06,0.00422544963657856,0.01750943809747696,0.053132086992263794,0.00194770866073668,-0.023585481569170952,0.009982596151530743,0.018205057829618454,0.0006661838269792497,0.0068907043896615505,0.003537348937243223,0.0007685847813263535,-0.017585327848792076,-0.02233858034014702,1.1650364006854375e-10,-0.0011315197916701436,0.09495685994625092,-0.1521577090024948,-0.0004808506928384304,1.8603019498186768e-06,-0.06752262264490128,1.0946171641990077e-05,-0.005464994348585606,9.976595902116969e-05,0.10265897214412689,-0.00014230285887606442,-5.2789073379244655e-06,0.07228928059339523,0.02935357578098774,-2.1663446148068033e-07,-0.01652081497013569,9.348196726932656e-06,0.0015936881536617875,-0.019686207175254822,-0.006489151157438755,-0.02510468289256096,0.04904168099164963,0.08476688712835312,-1.1476909094199073e-06,-0.0001698632986517623,-0.01015193946659565,-7.734546670690179e-06,-0.06834726780653,-0.03719675913453102,0.05041193217039108,-2.2717742353961512e-08,0.05621999502182007,1.5577699130631117e-08,0.010163625702261925},{-0.00017422306700609624,-6.229758582776412e-06,-1.7483507690485567e-06,-0.016266530379652977,-0.005809705704450607,-9.663987293606624e-05,-0.020936843007802963,0.019922304898500443,0.03558201715350151,0.025569144636392593,-2.2098005501902662e-05,6.099520760471933e-06,0.05336804687976837,-0.012402377091348171,4.332266314577282e-07,0.026019945740699768,0.0027141033206135035,-0.004233736544847488,-0.00482658576220274,0.01424854714423418,-5.104193860461237e-06,0.01538641843944788,-0.13673196732997894,0.005411581601947546,-0.015299411490559578,-0.011490125209093094,-0.006101875100284815,1.450906893296633e-06,0.01759260520339012,0.0486564077436924,0.027471987530589104,-0.0032821637578308582,0.1406068652868271,-1.2179323675809428e-05,0.01404148992151022,-0.014938171952962875,0.03982987254858017,0.013461148366332054,0.013347321189939976,-9.420420246897265e-05,0.06215521693229675,-0.014127479866147041,0.05202168971300125,-0.009238824248313904,1.3963035598862916e-05,0.10520117729902267,0.03659796714782715,0.0032699054572731256,-0.0018882050644606352,0.078425832092762,0.03989429399371147,-0.06917640566825867,7.268263743753778e-06,0.0010106242261826992,-0.0066271633841097355,-0.0240537840873003,-0.03588039427995682,0.016358982771635056,7.752321107545868e-05,-1.7626319959163084e-07,-0.04633565992116928,-0.0018535386770963669,0.03755723312497139,3.7716079077654285e-06,-0.020328475162386894,1.0330838449590374e-05,0.011822287924587727,-0.01049688458442688,0.00044335611164569855,-0.013048420660197735,-0.01883535087108612,-0.09682019054889679,0.08643529564142227,-6.973752988415072e-07,0.012451130896806717,-0.014050654135644436,0.005539804697036743,-0.13006509840488434,0.013373811729252338,4.135561903240159e-05,-0.027137119323015213,0.08442676067352295,0.013003849424421787,0.019379325211048126,1.4439193364523817e-05,0.08873219043016434,2.1948162611806765e-05,-0.013652906753122807,0.010792269371449947,1.2928847354487516e-05,0.03789222985506058,-0.014070200733840466,-0.06777817755937576,0.040811873972415924,-0.007817097939550877,0.02106657810509205,2.400962694082409e-05,3.86169740522746e-05,1.4927481970516965e-05,-9.275522643292788e-07,0.043302927166223526,-0.04834846779704094,0.0019939288031309843,0.008325240574777126,1.9331116618559463e-07,-0.052899230271577835,-0.00849678460508585,-0.005876832641661167,-0.011632646434009075,0.003068971447646618,-0.014215326867997646,0.006118074990808964,-8.209835868910886e-06,1.4654408914793748e-05,-0.1362736076116562,0.007675748318433762,-0.0001729750365484506,0.0016778563149273396,-1.7069056411855854e-05,-0.003912342246621847,-0.12378314882516861,0.01425232458859682,1.5144154019708367e-07,-0.016410956159234047,-0.04329207167029381,-4.974155672243796e-06,-0.07649236917495728,-0.033315740525722504,0.00017619496793486178,-7.980167720234022e-05,0.013038678094744682,1.0494849433939635e-09,-0.03037511557340622,-0.032639242708683014,-4.189294688927703e-09,0.16549141705036163,0.10349056124687195,0.007963426411151886,-6.140825007605599e-06,0.042315248399972916,-0.015279016457498074,-0.008267023600637913,0.04169625788927078,-4.598668468247524e-08,0.08537361025810242,-0.0006849747733213007,0.04152136668562889,-0.006190537475049496,-0.021468430757522583,0.0152095602825284,-0.0006947826477698982,-7.537910562405159e-08,4.6018399757485895e-07,0.025418978184461594,0.055389028042554855,-0.07180936634540558,0.044131625443696976,-0.03143208101391792,-0.009177573025226593,-0.0416361503303051,0.01701389253139496,0.1040743887424469,0.028735458850860596,-0.038040608167648315,0.0021368758752942085,0.006936235353350639,0.017670797184109688,0.02351401001214981,-0.01649472862482071,0.055714577436447144,2.1882978273879417e-07,0.015661774203181267,-4.1609776957329814e-08,-0.034696172922849655,-0.04378078132867813,-2.4250507379974806e-08,0.030345795676112175,-0.009676242247223854,0.013654311187565327,-0.01001210231333971,-0.11860217154026031,-0.0044783311896026134,2.5017381631187163e-05,-0.018813490867614746,0.00615124823525548,0.08957916498184204,9.376836715091486e-06,-2.8059369583388616e-07,-0.00693922583013773,0.10345642268657684,-4.647022069548257e-05,0.008948512375354767,0.016293004155158997,0.00010151098831556737,-0.007333695888519287,-2.024086143137538e-06,0.006554682273417711,6.648348517046543e-06,-0.04094355180859566,1.5739698255856638e-06,0.04462435841560364,-0.000819012988358736,-0.008523249998688698,-0.08286504447460175,0.002771743107587099,0.005238150246441364,0.016168814152479172,-9.734695822771755e-07,-0.021789565682411194,-0.031106580048799515,-0.06074245646595955,0.016903933137655258,0.029184918850660324,0.030085215345025063,-0.006170201580971479,3.7687474105041474e-05,-0.01948476955294609,-0.0010635941289365292,7.849169196560979e-05,0.016978058964014053,0.010061929002404213,-1.0282150131324386e-10,-0.05605300888419151,0.0070085907354950905,0.0006399283884093165,-0.0016622382681816816,3.0309557530472375e-08,0.08983879536390305,0.00015193744911812246,0.004239283502101898,2.4726661649765447e-05,-0.07112457603216171,0.00019899911421816796,-1.417284209992431e-07,-0.09687034785747528,-0.012389110401272774,9.298508274468986e-08,0.012259448878467083,-3.946902324969415e-06,-0.005904801655560732,0.011974832974374294,-0.002887698821723461,0.02304992824792862,-0.0017210388323292136,-0.012880407273769379,9.408218488715647e-07,-5.857358337379992e-05,0.011801302433013916,-3.211032162653282e-05,0.03851054608821869,-0.02720523625612259,-0.08172156661748886,1.0514566106678558e-08,-0.0023444390390068293,-7.122245015978024e-09,-0.012605598196387291},{-0.00323678576387465,-0.002913398901000619,1.4196903975971509e-05,0.010304202325642109,-0.02162252366542816,-0.002234275918453932,-9.569987741997465e-05,0.02928379364311695,-0.1008443832397461,0.02603415958583355,0.0006552505656145513,1.5348738088505343e-05,0.004070622380822897,-0.023167049512267113,5.888673513254616e-06,-0.07178962230682373,0.023368071764707565,0.0063988640904426575,-0.0022076352033764124,0.0012214124435558915,-0.00028452795231714845,0.033068347722291946,0.0478893518447876,0.012804153375327587,0.01844663918018341,0.006640653125941753,-0.0589943490922451,-0.00011091321357525885,0.026663871482014656,-0.0036546767223626375,-0.0006306340219452977,-0.011204359121620655,-0.026269394904375076,-0.0003532616246957332,0.026983708143234253,-0.049377452582120895,0.06577921658754349,0.057314079254865646,0.03343350812792778,0.0007381413597613573,-0.026874732226133347,-0.009163127280771732,-0.02387838251888752,0.01907472498714924,-0.00031937722815200686,-0.12483315169811249,-0.04819948971271515,-0.05695417523384094,0.03824208304286003,-0.019138379022479057,-0.09529297053813934,0.07480154931545258,-9.01848470675759e-05,-0.04366884380578995,0.03145642951130867,-0.007171420846134424,0.060312554240226746,-0.01820294000208378,0.0063553061336278915,2.8865261469945835e-07,0.013557312078773975,-0.0692158117890358,0.01425776258111,-0.0012199191842228174,-0.0016990473959594965,0.0009130416437983513,-0.029315344989299774,-0.009129753336310387,0.001129826414398849,0.02116507664322853,-0.0030086094047874212,-0.031720541417598724,-0.0849287286400795,-3.261198799009435e-06,-0.0048033311031758785,-0.045973338186740875,0.017566043883562088,0.02058575674891472,-0.010930954478681087,-0.0006551341502927244,-0.014076278544962406,-0.02180900052189827,0.03777642548084259,0.07027141004800797,0.00011222997272852808,0.01983189955353737,0.0036379999946802855,-0.004244197625666857,-0.01412767544388771,-0.0020658064167946577,-0.0557844303548336,0.009145393967628479,-0.03363312408328056,-0.02340654470026493,-0.021056318655610085,-0.050313469022512436,0.00043516288860701025,-0.0020425240509212017,0.0012292040046304464,-1.5822081422811607e-06,0.018070058897137642,-0.022106634452939034,0.012733553536236286,0.005516289733350277,-5.068952305009589e-06,-0.13837823271751404,-0.009391428902745247,-0.007274850271642208,-0.017084801569581032,-0.01746510900557041,-0.03826716169714928,0.00526857515797019,-0.0003243045066483319,1.1421246199461166e-05,-0.0707678273320198,-0.01807185634970665,-0.0057955337688326836,0.017365405336022377,0.0010215103393420577,-0.022137336432933807,-0.0841759592294693,0.027092332020401955,9.965353910956765e-07,0.05257450044155121,-0.014202889986336231,-0.005950782913714647,0.049854062497615814,-0.063029944896698,0.01803826354444027,0.004376533906906843,-0.01196072157472372,1.3215545102696069e-08,-0.000825472001451999,-0.045897647738456726,-2.4449754221222975e-08,-0.008605584502220154,0.040836893022060394,0.015623974613845348,-3.190082497894764e-05,0.04509410262107849,0.01799309253692627,-0.04634862765669823,-0.05967578664422035,-1.3538126495404867e-06,-0.10198048502206802,0.04845499247312546,-0.006783651653677225,0.002918764716014266,0.0053260549902915955,-0.03701937571167946,-0.007831974886357784,-0.00012180693011032417,8.036842700676061e-06,-0.02004062756896019,-0.004646447952836752,0.01621374487876892,0.01566910929977894,-0.009976237080991268,0.026914749294519424,-0.04350120201706886,-0.013815907761454582,-0.05546501651406288,0.030483495444059372,-0.031429871916770935,0.00020734572899527848,-0.015284443274140358,0.0026420997455716133,0.030746126547455788,-0.04791908711194992,-0.013150373473763466,-9.936175956681836e-06,0.03152260184288025,-1.322813147908164e-07,0.01878264918923378,0.0014826050028204918,1.1573237657103164e-07,-0.020096730440855026,-0.04447760805487633,-0.020626608282327652,-0.009062306024134159,0.24107322096824646,-0.024080272763967514,-0.0023528430610895157,0.003988892771303654,0.14283744990825653,0.08084715157747269,0.0001710931392153725,-8.540429803360894e-07,-0.004205002915114164,0.043847862631082535,0.011340704746544361,-0.038041796535253525,0.01968521811068058,-0.00012551296094898134,-0.03290955722332001,-0.0017194794490933418,0.0011466782307252288,-8.580183202866465e-05,-0.18112806975841522,-2.4924474928411655e-05,-0.15037068724632263,-0.023034347221255302,0.1267920434474945,-0.05792307108640671,-0.02500235289335251,0.016795573756098747,0.031040115281939507,-5.987910753901815e-06,-0.00701239425688982,0.050440724939107895,0.03241885453462601,-0.01711166650056839,0.035339199006557465,-0.07454144209623337,-0.011674757115542889,-0.015518296509981155,-0.01664908230304718,0.03689945861697197,-0.008840310387313366,0.002445047255605459,0.010628760792315006,-5.7181104295978e-10,-0.0960511863231659,0.016015972942113876,0.00863721501082182,-0.03141481801867485,-2.5361850930494256e-05,0.0640903115272522,-0.006581102032214403,0.007147801108658314,-0.0012329518795013428,0.03153249993920326,-0.00018010362691711634,0.00029796623857691884,-0.031235678121447563,0.06834578514099121,-5.857710675627459e-06,0.014676596038043499,-6.179282354423776e-05,0.0022562395315617323,0.007006167899817228,-0.035554297268390656,-0.0015847242902964354,0.008810585364699364,0.10408447682857513,6.997433956712484e-06,0.002495719585567713,0.01114112138748169,-0.0004669623449444771,0.010813722386956215,0.007322506979107857,0.08650632202625275,-4.0354476027459896e-07,-0.0030019283294677734,-5.618584282274242e-07,-0.01829608902335167},{-5.026886719861068e-05,4.21400864070165e-06,1.0271953243545795e-07,-0.009337523020803928,-0.000951091933529824,1.558362419018522e-05,-0.013067091815173626,0.003383839037269354,0.04843396693468094,0.012168949469923973,-1.099566179618705e-05,-6.599914854632516e-07,-0.028321772813796997,-0.0026638309936970472,-1.4191293473686528e-08,0.035185664892196655,-0.004914681892842054,-0.0008838309440761805,-0.005977656692266464,0.07282133400440216,1.1580527825572062e-06,-0.066925548017025,-0.03688572347164154,0.0012333121849223971,-0.010543003678321838,-0.00498954625800252,-0.054061174392700195,6.585219125554431e-07,-0.009227583184838295,0.05665368214249611,-0.005175488535314798,-0.0013029127148911357,-0.02527230605483055,2.26388442570169e-06,0.001869799685664475,-0.011768550612032413,0.039846137166023254,-0.12373537570238113,0.0035013118758797646,-2.9437147532007657e-05,0.02323264442384243,-0.002275825710967183,0.06605256348848343,0.011651151813566685,-1.1849745078507112e-06,0.014142148196697235,0.01691298745572567,0.034019649028778076,-0.011642753146588802,-0.04022005572915077,0.016380654647946358,0.050541989505290985,-3.0414489060603955e-07,0.0512620210647583,0.009076481685042381,0.00564195029437542,0.069270059466362,-0.0016749290516600013,9.289734589401633e-05,-3.889606858820116e-08,-0.03810800239443779,-0.08806762844324112,0.0157306008040905,-5.796906862087781e-06,0.009176396764814854,-5.728247288061539e-06,0.029054323211312294,-0.005457339808344841,0.0002703409700188786,-0.009023131802678108,-0.002472055610269308,0.07190737873315811,-0.04573957994580269,2.505697160870568e-08,-0.0036643818020820618,-0.0679321438074112,0.0013019643956795335,-0.033107172697782516,0.00825471431016922,1.4409710274776444e-05,-0.013706916011869907,0.0287624504417181,0.0001262375881196931,0.09106739610433578,-1.459713644180738e-06,0.02372409589588642,3.4379678254481405e-05,0.001949228229932487,0.022193271666765213,-4.871147325502534e-07,0.034928299486637115,-0.008754781447350979,0.006094686221331358,-0.0078217638656497,0.0026240304578095675,-0.05724192410707474,-4.469391114980681e-06,1.3087008483125828e-05,-4.767990049003856e-06,-1.08325048131519e-06,0.05179452523589134,0.013361875899136066,3.0030649213586003e-05,0.0033092908561229706,8.536657674085291e-07,-0.10784058272838593,-0.010091094300150871,-0.004167503677308559,-0.004098810255527496,-0.010407159104943275,0.005983341485261917,0.002165236510336399,3.8960155279710307e-07,8.681354302098043e-07,-0.07219306379556656,0.003056588349863887,-8.403490210184827e-05,0.009703508578240871,-5.30763190909056e-06,-0.0019064239459112287,0.1409904509782791,-0.0026777624152600765,8.065236301035839e-08,-0.006487412378191948,-0.03597050532698631,4.9913141992874444e-05,-0.025944413617253304,-0.032717179507017136,0.00011857837671414018,2.5005911084008403e-05,-0.0036931782960891724,-6.279000930309309e-11,0.0016809944063425064,0.007284125313162804,8.960190922557842e-11,-0.02082020416855812,0.04679754003882408,0.0021030728239566088,-6.188703309817356e-07,0.010818867944180965,-0.00733107328414917,-0.0026177323888987303,-0.023415997624397278,4.721975699339964e-09,0.005694640334695578,-0.05033447965979576,0.0153616638854146,-0.0021028381306678057,-0.012143749743700027,0.09100055694580078,-0.0009223876404576004,3.1406148792711974e-08,1.7562770437962172e-07,-0.0031440211459994316,0.01542719081044197,-0.032141104340553284,-0.024151867255568504,0.01548417191952467,0.006526829209178686,-0.05638007074594498,0.009613134898245335,-0.03839823231101036,-0.012381954118609428,0.017858248203992844,0.0013743280433118343,0.00031638809014111757,-0.018377820029854774,-0.024448083713650703,-0.01893240585923195,-0.02735254541039467,-1.284458335248928e-07,-0.07359160482883453,-4.62660243449875e-10,-0.029209597036242485,-0.0524289496243,-1.895974399701572e-08,0.010136749595403671,-0.012659614905714989,0.005676546134054661,-0.004904147237539291,-0.020295580849051476,-0.00010523790842853487,1.4507970263366587e-05,-0.0019739773124456406,0.0013912997674196959,0.08931860327720642,-1.3351674397199531e-06,4.1471128753300945e-09,-0.0014592362567782402,0.06216179206967354,-0.00011232122051296756,-0.09229780733585358,-4.7649932639615145e-06,9.21386163099669e-06,-0.0047022514045238495,1.037962192640407e-05,0.0018273580353707075,-4.826975441574177e-07,-0.10399716347455978,-1.368951245694916e-07,0.060652296990156174,0.008573838509619236,0.0820843055844307,-0.019234875217080116,-0.009655088186264038,0.005699162371456623,-0.006132596638053656,9.239796128213129e-08,-0.006705387029796839,-0.002533277962356806,0.043797217309474945,0.004274234641343355,0.0034451999235898256,0.030863454565405846,0.0018665095558390021,1.456852987757884e-05,-0.01019259449094534,0.009454966522753239,-1.6261743439827114e-05,0.010311796329915524,-0.0007263102452270687,-2.733824971956622e-11,0.010168616659939289,0.018379122018814087,-0.0015976501163095236,0.010203245095908642,-6.793856641706952e-07,0.1392403095960617,6.373856740538031e-05,0.001449917908757925,1.2266961675777566e-05,0.023372486233711243,-9.120484173763543e-05,-2.0069612673978554e-06,0.06092091277241707,0.009963239543139935,-2.5551164739567866e-08,0.010500865057110786,2.529082792079862e-07,-0.009821788407862186,7.041392382234335e-05,0.0101137924939394,-0.005029075779020786,0.007699226960539818,-0.012235033325850964,7.080672759229856e-08,-4.178917151875794e-05,0.004167376551777124,-5.989750206936151e-07,0.008850893005728722,0.01844067871570587,-0.013929703272879124,1.7197187007766956e-09,0.019486285746097565,1.3070731164077642e-09,-0.006038470659404993},{-5.022405821364373e-05,-1.2495323062466923e-05,-1.4318010244096513e-06,-0.019928380846977234,-0.005191759206354618,0.0007543850806541741,0.022198591381311417,0.014508082531392574,-0.09336289763450623,0.02944120764732361,-1.7700731405057013e-05,4.961320883012377e-06,0.002032750751823187,-0.012005317956209183,-3.8135397062433185e-09,-0.015643389895558357,-0.01134369894862175,-0.003595006186515093,-0.010735793970525265,-0.15102770924568176,-2.364601868976024e-06,0.22222675383090973,-0.021779121831059456,0.008912444114685059,-0.0177149660885334,-0.012631113640964031,0.002043110551312566,1.3130820661899634e-06,0.004639441147446632,0.11390403658151627,-0.1185721755027771,-0.004222032614052296,0.012942655943334103,-8.549541234970093e-06,0.016926389187574387,-0.10979615151882172,0.042583614587783813,-0.023983443155884743,0.015605908818542957,-5.552516995521728e-06,0.013408331200480461,-0.016033228486776352,0.007874323055148125,-0.0300743468105793,9.098016562347766e-06,-0.026142751798033714,0.000918328296393156,0.010515793226659298,-0.0058961124159395695,-0.02378091774880886,-0.2053142786026001,-0.034757476300001144,5.588260592048755e-06,-0.015460096299648285,0.02647879347205162,-0.022062528878450394,-0.1397327482700348,0.03853262588381767,0.0005719897453673184,-1.6428514015842666e-07,-0.03755531087517738,0.26482003927230835,0.024612149223685265,3.3144735880341614e-06,-0.016372544690966606,2.227619688710547e-06,-0.04278857260942459,-0.010970992967486382,0.0002791221486404538,-0.02229313738644123,-0.019317900761961937,-0.047502532601356506,0.06376520544290543,-5.988216003061098e-07,0.006138835102319717,-0.0396447516977787,0.005144354421645403,0.08241827040910721,0.018144384026527405,4.9752936320146546e-05,-0.028520582243800163,-0.0003846957115456462,0.014271433465182781,-0.19388706982135773,1.242538564838469e-05,-0.12524007260799408,2.855370803445112e-05,-0.00668448256328702,-0.045964520424604416,1.3203277376305778e-05,-0.29921063780784607,-0.01936887949705124,-0.02376348339021206,0.038477495312690735,-0.00037705767317675054,0.09036359190940857,1.6094207239802927e-05,5.93327458773274e-05,1.2268387763469946e-06,-7.82692677603336e-06,-0.027142252773046494,-0.05601278692483902,0.0029250415973365307,0.011903345584869385,1.8645123418536969e-06,-0.01176465954631567,-0.04652782902121544,-0.009494598954916,-0.011203449219465256,-0.010678516700863838,-0.004619738552719355,0.021536748856306076,-7.940186151245143e-06,-1.922506498885923e-06,0.25442981719970703,0.013115993700921535,-6.74476323183626e-05,0.011869893409311771,-2.155111542379018e-05,-0.005126858130097389,-0.09985926747322083,0.015086554922163486,2.4657859398757864e-07,0.013100973330438137,-0.03896501660346985,5.1135608373442665e-05,-0.13486626744270325,0.11481617391109467,0.0010216253576800227,-0.00011614035611273721,0.013332406058907509,4.5946368931737425e-10,-0.01616695523262024,-0.02147573232650757,-2.827731604426731e-09,0.05671900138258934,-0.13495959341526031,0.017691120505332947,-2.2762935714126797e-06,0.03522652015089989,-0.025144075974822044,-0.023787835612893105,0.07827433198690414,-3.9779600058409414e-08,-0.03616422042250633,0.26022008061408997,0.03989994898438454,-0.005110968369990587,-0.01835712417960167,0.01906169392168522,-0.0023067728616297245,2.1396552085661824e-08,4.822448431696102e-07,0.024835875257849693,0.0828138142824173,0.03970800340175629,0.04767798259854317,0.037908367812633514,0.010170881636440754,0.08854775875806808,0.028491854667663574,-0.005798419937491417,0.013194376602768898,-0.01132428552955389,0.002632898511365056,0.005019425414502621,0.01087183691561222,0.0018619670299813151,0.04647131636738777,-0.010611902922391891,1.752798368670483e-07,0.2841338813304901,-2.9046034910606977e-08,-0.03716473653912544,0.2824314534664154,-6.471486813097727e-08,0.03952629864215851,-0.04685491323471069,0.013846161775290966,-0.007590030785650015,0.021131834015250206,-0.05544291436672211,3.813215880654752e-05,-0.016697118058800697,0.05472773686051369,0.186648428440094,8.152093869284727e-06,-4.0555065083935915e-07,-0.006129723507910967,0.04930023476481438,-0.00016235974908340722,0.050862736999988556,0.018579376861453056,0.00011636418639682233,-0.018568363040685654,-1.60658635195432e-06,0.015942156314849854,6.431897418224253e-06,0.02553328312933445,1.4585446024284465e-06,-0.2011488378047943,0.16369417309761047,-0.13834476470947266,0.06656667590141296,-0.015891246497631073,0.0036911815404891968,0.009998572990298271,-9.873068620436243e-07,-0.027218837291002274,0.20566606521606445,-0.3905603289604187,0.029313204810023308,0.011442971415817738,0.11172257363796234,-0.0017753078136593103,-0.0005459444364532828,-0.026638494804501534,-0.010314332321286201,-1.605523721082136e-05,0.020718153566122055,0.0060797929763793945,-4.375934337108589e-11,-0.02356743812561035,0.14364288747310638,0.04035642370581627,-0.003042105119675398,-6.95311825893441e-07,-0.31336089968681335,0.00012460835569072515,0.00649694399908185,2.8203605324961245e-05,0.017417922616004944,0.00038011709693819284,-1.961818952622707e-06,-0.2959233224391937,0.005843421909958124,8.113815397337021e-08,0.024196507409214973,-3.1054430564836366e-06,-0.016299337148666382,0.013686464168131351,0.01094952505081892,0.015146241523325443,0.0038581546396017075,0.04043956473469734,7.300236006813066e-07,-8.889405580703169e-05,0.013218773528933525,-3.414259845158085e-05,0.022824646905064583,0.022106142714619637,0.07731033861637115,1.1354230444737823e-08,0.002614070661365986,-5.033679251198464e-09,-0.01543227769434452},{0.0014878249494358897,-0.0020109708420932293,-1.3624923667521216e-05,-0.011694717220962048,-0.014182125218212605,-0.007720400579273701,0.033141154795885086,0.030237670987844467,0.05026473104953766,0.008714428171515465,-0.001064092735759914,-5.093000072520226e-05,-0.0256144218146801,-0.017373094335198402,-4.490056653594365e-06,0.05807223170995712,-0.020261172205209732,0.016987701877951622,-0.021771153435111046,-0.14026395976543427,-0.0003162854118272662,-0.011300293728709221,0.007152494043111801,0.014257997274398804,0.04046287015080452,0.0216665081679821,0.06810326874256134,3.054603439522907e-05,-0.030666274949908257,0.03744775429368019,0.03284895420074463,-0.005700551904737949,0.029516344889998436,0.0004333743127062917,-0.009640425443649292,0.1070447787642479,-0.047605205327272415,0.018884876742959023,-0.014848968014121056,0.004166824743151665,0.03875087946653366,-0.013775382190942764,0.03658844903111458,-0.013704650104045868,-0.00021521127200685441,0.15961843729019165,0.029346715658903122,0.036562785506248474,-0.008716823533177376,-0.016496842727065086,0.04264023154973984,-0.1420745700597763,-2.902842425100971e-06,0.02945466712117195,0.027014050632715225,-0.01306419912725687,-0.11832268536090851,-0.010199173353612423,-0.006692752242088318,2.8823491149410074e-08,0.039399392902851105,0.05766158550977707,-0.01783403754234314,0.0007852038252167404,-0.003626270219683647,0.0014069032622501254,0.02015157975256443,0.031960636377334595,0.0018019555136561394,0.03141637146472931,-0.014666887000203133,-0.010649602860212326,0.1479165256023407,9.44761382015713e-07,-0.026970747858285904,0.02945907972753048,0.01214330643415451,-0.044710926711559296,-0.010251817293465137,0.0003466359048616141,0.005677878390997648,0.032142650336027145,-0.01996459625661373,-0.07566586881875992,-0.00011184868344571441,0.032913703471422195,-0.0013257579412311316,0.008016994222998619,-0.032027967274188995,-0.0013968268176540732,-0.04009987413883209,0.007719119545072317,-0.049386315047740936,0.04395793750882149,0.016200557351112366,0.19838690757751465,-0.0004855527076870203,0.00142224645242095,-0.00039806083077564836,2.2772608190280152e-06,0.011024871841073036,-0.032263461500406265,0.0008739927434362471,0.01159289013594389,5.24704773852136e-06,0.21662354469299316,0.046767786145210266,-0.01693050190806389,0.009377041831612587,0.02272808365523815,0.00836830772459507,0.017643118277192116,-0.0001441773638362065,-1.6028876416385174e-05,0.08352771401405334,-0.007006244733929634,0.0013592623872682452,-0.006688073743134737,-0.0004898739862255752,-0.012174166738986969,0.13148902356624603,-0.017012014985084534,1.8747921330941608e-06,-0.007443781476467848,0.02912920154631138,0.005186916328966618,-0.024271441623568535,-0.016566533595323563,0.01173833105713129,0.006159133277833462,0.02815956436097622,-1.2357074474778074e-08,0.03609802573919296,-0.0430457629263401,1.1602790728204582e-08,0.03282180055975914,0.030373485758900642,0.011722816154360771,-0.00018304484547115862,-0.04696274548768997,0.0009578866302035749,0.03271535784006119,0.014283424243330956,-6.625366921753084e-08,0.12296412885189056,-0.03912097588181496,-0.04362044110894203,0.0025156070478260517,-0.00027824038988910615,0.06012734770774841,-0.002435356844216585,4.0943181375041604e-05,-1.0296462278347462e-05,-0.0007380331517197192,-0.010645476169884205,0.014062350615859032,0.05370442941784859,0.0505816824734211,0.013958441093564034,0.08711174875497818,-0.024951951578259468,0.0636264830827713,-0.034229084849357605,0.04754941910505295,-0.003731632139533758,0.018938858062028885,-0.01488149631768465,0.0210934616625309,0.003558423602953553,0.008103965781629086,-3.369729029145674e-06,-0.018127797171473503,1.6236832323102135e-07,0.0378161258995533,-0.007131009828299284,-1.1269588640061556e-07,0.02623673714697361,-0.007404428906738758,-0.0015087081119418144,0.005833199713379145,-0.23309117555618286,0.04190778732299805,-0.0012232359731569886,-0.004199479706585407,-0.10973813384771347,-0.19943910837173462,-2.911425690399483e-05,1.5587283996865153e-07,-0.0056246425956487656,-0.08927083015441895,-0.002787179546430707,0.02753465063869953,-0.02252006344497204,5.034457353758626e-05,0.0171560849994421,-0.00034906453220173717,0.005169881507754326,-0.0001629890175536275,0.10815489292144775,-2.2472336240753066e-06,0.15774108469486237,-0.049805767834186554,-0.06130877137184143,-0.12191476672887802,-0.016842782497406006,0.0414268895983696,0.0017077915836125612,1.0187073712586425e-05,0.005933063104748726,-0.10387372225522995,-0.05559585243463516,-0.015932459384202957,-0.029011663049459457,0.05484718456864357,-0.014871458522975445,0.0029025026597082615,0.004833756946027279,0.017155632376670837,0.00045411509927362204,-0.022454893216490746,0.012282807379961014,3.121744529543946e-10,0.04709915444254875,-0.04940838739275932,0.09351041167974472,0.045037779957056046,1.0860528163902927e-05,-0.024950671941041946,-0.004466654267162085,-0.0005983184673823416,-0.0015572785632684827,-0.04514594003558159,0.00024379986280109733,-0.00025425158673897386,-0.03928730636835098,-0.07363546639680862,-1.1945768164878245e-05,-0.010178452357649803,5.2256440540077165e-05,0.029600169509649277,-7.475122401956469e-06,0.006991733331233263,-0.015919942408800125,-0.029002752155065536,-0.12785567343235016,-1.1801320397353265e-05,0.0050993203185498714,-0.022503137588500977,0.0011038543889299035,0.009909288957715034,-0.02767927199602127,-0.06673581898212433,2.1033214636645425e-07,0.02599993720650673,1.2231024015818548e-07,0.028771676123142242},{0.0010592950275167823,1.097391032089945e-05,3.0540018087776843e-06,-0.0023966848384588957,0.004010336473584175,0.00312654091976583,-0.08240113407373428,-0.015192580409348011,-0.010378134436905384,0.024501392617821693,9.128358215093613e-06,-5.563071681535803e-06,0.020026782527565956,0.013350608758628368,3.10344148601871e-07,0.029472623020410538,-0.014000953175127506,0.002578046405687928,-0.01481964997947216,0.2298128604888916,1.489864916948136e-05,0.24350544810295105,-0.2211841344833374,0.006663432810455561,0.0036170862149447203,0.009460215456783772,-0.038902245461940765,-1.956593223439995e-06,-0.01866515912115574,0.08725012838840485,-0.16463977098464966,-0.006640845909714699,-0.01807796023786068,2.2495574739878066e-05,-0.00042275970918126404,-0.08295124024152756,0.10274618864059448,-0.21597512066364288,-0.005476359743624926,-0.00015171246195677668,0.03854646906256676,0.0199085995554924,0.05870248004794121,0.009737332351505756,-1.1881176760653034e-05,0.10773425549268723,0.009950151666998863,0.06481938064098358,-0.02247355319559574,0.006779649760574102,-0.016090152785182,-0.038949448615312576,-8.280567271867767e-06,0.025070052593946457,0.007307230494916439,0.052769433706998825,-0.06183107942342758,-0.01905287615954876,0.0004876982420682907,-1.9728349798242562e-07,-0.010461868718266487,0.052137140184640884,-0.005946303252130747,-3.1872270483290777e-05,0.030530979856848717,3.7556204915745184e-05,0.02289629355072975,0.007872258313000202,-0.0012249797582626343,-0.015106960199773312,-0.012980956584215164,0.15553809702396393,0.04077383130788803,8.963318123278441e-07,-0.023902704939246178,-0.08803892135620117,0.0002719830081332475,-0.24592755734920502,-0.010392301715910435,0.0001078084169421345,-0.026995811611413956,0.09448600560426712,0.012283737771213055,0.04396402835845947,-1.431976579624461e-05,0.027156416326761246,-0.0001687148615019396,0.01454625278711319,0.10458380728960037,5.757734015787719e-06,-0.10539073497056961,-0.02639673836529255,-0.06749016046524048,-0.04820869863033295,0.01122772041708231,-0.049892183393239975,-4.73231339128688e-05,-0.00014230619126465172,3.540249235811643e-05,-3.239344550820533e-06,0.08595231920480728,-0.01966368779540062,-0.0012092164251953363,0.0020929821766912937,1.6771381297076005e-06,-0.1385810226202011,-0.1540556401014328,-0.01790626160800457,-0.000914492760784924,-0.07968299090862274,0.03229721635580063,0.014461984857916832,5.22224490850931e-06,1.2085731214028783e-05,-0.10380042344331741,0.006769835948944092,0.0006631774012930691,-0.015268299728631973,-3.329994069645181e-05,-0.0017521599074825644,-0.11675786972045898,-0.016083301976323128,3.2840100061548583e-07,-0.014745349995791912,-0.0878366008400917,0.00027920849970541894,-0.13231687247753143,0.14259491860866547,0.005716238170862198,-0.0003366054443176836,-0.028293978422880173,-1.1662474319606986e-09,-0.03008650615811348,0.035851527005434036,2.812939881025045e-09,0.02391016110777855,-0.023826392367482185,0.023581573739647865,-5.392104867496528e-06,-0.0017992963548749685,0.009846718050539494,0.0041261413134634495,0.016480248421430588,4.767614569800571e-08,0.09162233024835587,0.1331072449684143,0.0007617298979312181,-0.005308813881129026,0.0038414320442825556,0.16699928045272827,-0.004475592635571957,1.6963441566986148e-06,4.6497999051098304e-07,0.00582461804151535,-0.02831454575061798,0.001590247149579227,-0.00841002818197012,0.06837019324302673,-0.006492138374596834,-0.12707437574863434,-0.0146974241361022,0.016587011516094208,-0.024176158010959625,0.0610080361366272,0.010259161703288555,0.0010517763439565897,-0.04615868255496025,