#include "network_evaluate.h"

static const int structure [3][2] = {{12, 256},{256, 256},{256, 2}};
static float output_0[256];
static float output_1[256];
static float output_2[2];
static const float mlp_0_weight[12][256] = {{0.302259236574173,0.07555673271417618,-0.19718360900878906,-0.18581122159957886,0.16853418946266174,-0.11691386997699738,-0.23023705184459686,-0.22054104506969452,-0.1872704029083252,0.2309156060218811,0.06153715401887894,0.09450848400592804,-0.03959956020116806,0.0469258688390255,-0.08798322826623917,-0.14143262803554535,-0.035780005156993866,0.15793129801750183,-0.1874743551015854,-0.012382486835122108,0.11672059446573257,-0.1339053511619568,0.029796302318572998,-0.006246164441108704,0.25699782371520996,-0.16969063878059387,0.1595069169998169,-0.18772229552268982,-0.006202840246260166,0.1809762716293335,0.12228292226791382,-0.0943693146109581,0.17377381026744843,-0.3167741894721985,0.18316425383090973,-0.1308576464653015,0.009932860732078552,0.062350451946258545,-0.1236986294388771,0.14614056050777435,0.17909741401672363,0.20931395888328552,-0.12722687423229218,0.19256533682346344,-0.2534390687942505,0.09169189631938934,0.11870744824409485,-0.31932294368743896,0.1466798186302185,0.21986903250217438,-0.021648820489645004,0.10740862786769867,-0.24424761533737183,0.0328502357006073,0.12120655924081802,-0.24261613190174103,0.14315783977508545,0.26454922556877136,-0.0810415968298912,-0.22967566549777985,0.0704985037446022,-0.12831373512744904,0.21875499188899994,-0.1465369313955307,-0.19711916148662567,0.1752677708864212,-0.0028192501049488783,0.23379233479499817,0.06741208583116531,-0.2077772170305252,-0.13760687410831451,0.09942992776632309,0.10323259979486465,0.24429267644882202,-0.06030898168683052,0.01845262385904789,0.03534391522407532,0.1498415321111679,0.09461729973554611,0.14387328922748566,-0.1845870167016983,-0.04298463836312294,0.2049788385629654,-0.16389161348342896,-0.21048378944396973,0.1324300915002823,-0.03490149602293968,0.29509058594703674,0.24328452348709106,-0.24578289687633514,-0.0013257353566586971,0.02541845291852951,0.13474518060684204,-0.059664130210876465,0.24673053622245789,0.2577017843723297,0.0829034224152565,-0.160411536693573,-0.22229434549808502,-0.0917460173368454,-0.058179426938295364,0.15927866101264954,0.24540975689888,-0.21835510432720184,-0.15523375570774078,0.12692123651504517,-0.17922338843345642,0.025362802669405937,0.10817891359329224,-0.03800145536661148,0.05306071415543556,-0.31286561489105225,0.00534071633592248,0.06555505096912384,-0.0425276979804039,0.27162137627601624,0.16374988853931427,0.055432114750146866,0.10818871110677719,-0.057067062705755234,0.1429220288991928,0.24861237406730652,-0.25920984148979187,0.07934196293354034,-0.07997511327266693,0.229903444647789,0.20377381145954132,0.16593673825263977,-0.2141290307044983,-0.1755514293909073,-0.3533088266849518,-0.1166536957025528,-0.06874531507492065,-0.19576357305049896,0.25867971777915955,-0.1856045126914978,-0.15564627945423126,0.062563955783844,-0.006152693182229996,-0.23843225836753845,-0.08978643268346786,0.2256041169166565,0.04215960204601288,-0.15155644714832306,-0.031068308278918266,0.22143130004405975,0.05478730797767639,0.14679911732673645,-0.19217942655086517,0.03330393508076668,-0.2625587582588196,0.09158105403184891,-0.08825433999300003,0.1945217400789261,-0.26978781819343567,0.13017511367797852,-0.1309705227613449,-0.24670371413230896,0.09448885917663574,0.20832642912864685,-0.1939377635717392,0.2716427147388458,-0.011909867636859417,0.09140802919864655,-0.18574859201908112,0.2702108919620514,0.16578757762908936,0.10211560130119324,-0.16884522140026093,-0.19329485297203064,0.2276810258626938,-0.009141706861555576,0.10628075152635574,-0.12753282487392426,0.2175247222185135,-0.04961525276303291,0.024415288120508194,0.00470059784129262,0.10389748960733414,0.2040320336818695,-0.24455194175243378,0.02413005381822586,0.07701084762811661,-0.2956329882144928,-0.13921046257019043,0.05612127482891083,0.19722996652126312,0.0807289108633995,-0.10720578581094742,0.12445452064275742,0.05252654850482941,-0.06412821263074875,-0.03398100286722183,0.23788104951381683,-0.06357339024543762,-0.06375500559806824,0.26437437534332275,0.12735916674137115,0.21721452474594116,0.18050314486026764,-0.14597554504871368,-0.005346392747014761,-0.06715110689401627,-0.17950795590877533,-0.04922453686594963,-0.24674072861671448,0.1742585003376007,0.17247983813285828,-0.06793998926877975,0.03447220101952553,-0.21931640803813934,-0.25805437564849854,0.010245001874864101,0.03985633701086044,0.1888342797756195,-0.17650580406188965,-0.01062331534922123,0.10361260175704956,-0.2005983144044876,0.047489043325185776,-0.07564731687307358,0.22012238204479218,0.14303471148014069,0.02997063659131527,-0.009226804599165916,0.29387134313583374,-0.16972576081752777,-0.2256765216588974,0.020795973017811775,-0.17705632746219635,0.07172676175832748,0.10120747238397598,0.0161366555839777,0.17279605567455292,0.2070433497428894,-0.14809349179267883,-0.040125828236341476,0.10994812846183777,-0.07989504188299179,0.1925763338804245,0.04488193243741989,-0.10235234349966049,-0.18821260333061218,-0.15228648483753204,-0.1350991427898407,0.24250856041908264,-0.2741326093673706,0.2439434826374054,-0.12057308852672577,-0.24597874283790588,-0.0016123526729643345,0.16487650573253632,0.06004025787115097,-0.2594599425792694,-0.20688389241695404,0.014169263653457165},{-0.07420027256011963,-0.266472727060318,0.40966102480888367,-0.10953817516565323,0.18174226582050323,-0.028969937935471535,0.02016233280301094,-0.20526178181171417,-0.1852923333644867,-0.06713809072971344,0.15901370346546173,-0.21365463733673096,-0.2942716181278229,-0.186393603682518,0.09732178598642349,0.018572775647044182,0.19669315218925476,-0.34739920496940613,0.02899082563817501,-0.043156176805496216,-0.4477465748786926,-0.2490052431821823,0.11270885169506073,-0.5387318730354309,-0.11679947376251221,0.358045369386673,0.15806616842746735,-0.1246170923113823,-0.18760493397712708,-0.4203820526599884,0.10370784997940063,0.3236486613750458,0.24837137758731842,-0.07265988737344742,-0.22379213571548462,0.036696527153253555,-0.201224684715271,0.2571853697299957,0.4503319263458252,-0.2645203471183777,0.07639272511005402,-0.14872854948043823,-0.27907273173332214,-0.06870710849761963,0.16734850406646729,-0.43867385387420654,0.0203489251434803,-0.10545907914638519,-0.501367449760437,-0.2710259258747101,-0.2881450951099396,-0.2640465497970581,0.17491069436073303,0.15319080650806427,0.12946976721286774,0.37466195225715637,-0.15127408504486084,-0.27613815665245056,-0.006024772301316261,-0.22542570531368256,-0.3439297676086426,0.36555999517440796,0.09866975992918015,0.22665907442569733,-0.03544674068689346,0.22551169991493225,-0.19098694622516632,-0.151769757270813,-0.09575072675943375,0.05558734014630318,0.1521347016096115,0.2184945046901703,-0.004178192000836134,-0.013926728628575802,-0.3105677366256714,0.27596569061279297,-0.4193023443222046,0.0908864438533783,-0.3671390116214752,-0.1456250250339508,0.17489157617092133,0.1724933534860611,0.295877069234848,0.18369846045970917,0.27676600217819214,0.09827164560556412,0.4254586100578308,0.6462877988815308,-0.20901891589164734,0.12585100531578064,0.33884942531585693,0.3384177088737488,-0.24619998037815094,-0.12511777877807617,0.024978483095765114,0.1729355752468109,0.4022602438926697,-0.060375750064849854,-0.3768593668937683,-0.0887678787112236,0.405457466840744,0.20875485241413116,-0.20611843466758728,-0.3351803123950958,-0.21598507463932037,-0.08166179060935974,0.02598395198583603,0.019810538738965988,-0.17461709678173065,0.05793847143650055,-0.49441593885421753,-0.8016462326049805,0.20938090980052948,0.17669010162353516,-0.2023344486951828,0.06971327215433121,0.057445283979177475,-0.3503805100917816,-0.04366982355713844,-0.07342848926782608,-0.08960673213005066,-0.1503424197435379,-0.39037033915519714,-0.2408398687839508,-0.2971237897872925,0.23156847059726715,0.1327841877937317,-0.4773816168308258,-0.5492827296257019,0.07844749093055725,-0.05758731812238693,-0.04526248946785927,-0.25906893610954285,0.0661863386631012,0.05633062496781349,0.17891544103622437,-0.24262896180152893,0.12263799458742142,-0.29732295870780945,-0.21659696102142334,-0.3123261332511902,0.10366295278072357,-0.04668048396706581,0.324489027261734,0.5482518076896667,0.5009493231773376,0.22894565761089325,-0.2552100121974945,-0.0838945060968399,0.030475107952952385,-0.1928635686635971,-0.13901984691619873,0.22018156945705414,0.09873876720666885,0.23302993178367615,-0.2647005319595337,0.050707630813121796,0.08481435477733612,0.6056547164916992,-0.1151202842593193,0.061182040721178055,-0.3480507731437683,0.30752772092819214,-0.27860352396965027,0.37307876348495483,-0.4653909206390381,-0.3966399133205414,-0.06104454770684242,-0.21224386990070343,0.20743881165981293,-0.05686727538704872,0.2910770773887634,-0.2541818916797638,-0.08213290572166443,0.13871213793754578,0.10229475796222687,0.47578513622283936,-0.2176481932401657,-0.5448996424674988,0.3401189148426056,-0.04048946872353554,-0.0027748323045670986,0.09576816111803055,-0.14184807240962982,-0.10814578831195831,0.4238300621509552,-0.22199711203575134,0.392826110124588,-0.00014770457346457988,-0.2798149883747101,-0.34048542380332947,0.33208343386650085,0.18345186114311218,0.15341529250144958,0.3034508526325226,-0.3199812173843384,-0.1268807053565979,0.3114073574542999,-0.07142841070890427,-0.10984329879283905,-0.35097941756248474,-0.14732439815998077,-0.19961272180080414,0.33165907859802246,-0.09865397959947586,0.44696512818336487,-0.2014595866203308,0.11839570850133896,0.17010466754436493,0.15238580107688904,0.02343296818435192,0.4084262549877167,-0.047729071229696274,0.4191749393939972,-0.10122077912092209,0.1787116378545761,0.31117820739746094,-0.12130186706781387,0.3462136387825012,-0.004405063111335039,-0.23316118121147156,-0.30363762378692627,-0.25887537002563477,-0.3655480444431305,0.3231414258480072,-0.1547844260931015,0.023791110143065453,-0.11598047614097595,-0.24067175388336182,-0.19365784525871277,-0.25736045837402344,0.37505224347114563,-0.29240596294403076,0.17365537583827972,-0.19317775964736938,0.577377200126648,-0.046743378043174744,0.3301529884338379,0.4021962583065033,0.3025781810283661,-0.04455180838704109,0.24295204877853394,-0.2881501019001007,0.2045576125383377,-0.10300033539533615,0.127590149641037,-0.4549875259399414,0.2142183482646942,0.3950589597225189,-0.29510486125946045,0.17249087989330292,-0.32599472999572754,0.2172495573759079,-0.2268344759941101,0.15524601936340332,0.27293428778648376},{-0.17655795812606812,0.3475654125213623,0.19635877013206482,-0.21292872726917267,0.15421821177005768,0.08508218824863434,-0.2413455694913864,0.38832584023475647,0.1852971613407135,0.22213053703308105,-0.25953173637390137,-0.25700122117996216,-0.06140235811471939,0.17717747390270233,0.11882028728723526,0.19959135353565216,0.310746431350708,0.2703647315502167,-0.22534282505512238,-0.2894901931285858,-0.3300129175186157,0.3577878773212433,-0.24877017736434937,0.22725428640842438,0.06995721161365509,0.24839019775390625,0.13966964185237885,-0.14206095039844513,-0.08191430568695068,0.2475033849477768,-0.17411810159683228,-0.16076725721359253,-0.1702260673046112,-0.2112748920917511,0.05016791820526123,-0.22496233880519867,0.21029719710350037,0.1578110307455063,-0.11784124374389648,-0.05187315121293068,0.11118226498365402,0.0891379863023758,-0.2501762807369232,-0.34494200348854065,-0.11987028270959854,-0.0355326347053051,0.18360409140586853,0.11735864728689194,0.11720509827136993,-0.31777313351631165,-0.06733883172273636,0.1173061728477478,0.018045220524072647,-0.18445533514022827,-0.2722119987010956,-0.08027896285057068,0.3084299862384796,-0.4343375563621521,-0.22318430244922638,0.30825114250183105,-0.1306525617837906,-0.23089443147182465,0.20093515515327454,0.3811882436275482,0.2893906831741333,0.2054634541273117,-0.3592039942741394,-0.13060060143470764,-0.11958315968513489,0.28993162512779236,0.31719598174095154,0.19246500730514526,0.12169018387794495,-0.231404647231102,-0.20452430844306946,0.21729233860969543,0.25663015246391296,-0.14683204889297485,0.14020611345767975,-0.21864646673202515,-0.04857810214161873,-0.11730466783046722,0.13692869246006012,-0.23417697846889496,-0.12447530031204224,0.16174153983592987,0.15567472577095032,-0.7100915908813477,0.2585597038269043,0.28404977917671204,-0.0836174413561821,0.2609015107154846,-0.024763254448771477,0.2186909019947052,-0.029512619599699974,0.19945594668388367,-0.17001347243785858,-0.0197198037058115,0.20013739168643951,0.3056406080722809,-0.15569423139095306,-0.24128152430057526,0.2785354256629944,0.08971396088600159,-0.16014744341373444,0.2248435765504837,-0.22425329685211182,0.24530430138111115,0.27852797508239746,-0.18503212928771973,0.06734882295131683,0.5446534156799316,0.184803768992424,-0.19511349499225616,-0.058952655643224716,0.08604774624109268,0.06730986386537552,0.3109675943851471,-0.31333503127098083,0.10153213888406754,0.21986278891563416,-0.08332409709692001,0.5390626788139343,-0.06003231555223465,0.2676757574081421,-0.4496009349822998,-0.3652907609939575,0.16031882166862488,0.42053037881851196,0.032230183482170105,0.26408177614212036,0.28754642605781555,-0.19840693473815918,0.0026645034085959196,0.27343419194221497,-0.015920253470540047,0.05260934680700302,0.17908702790737152,-0.2982473075389862,0.15605765581130981,0.2909380793571472,0.11151176691055298,0.005201190244406462,0.27344393730163574,-0.17219221591949463,-0.30636683106422424,-0.1850806325674057,-0.30219554901123047,-0.2461463361978531,-0.21236981451511383,0.3636570870876312,0.2309613972902298,-0.013248106464743614,-0.2267674058675766,0.22183537483215332,-0.25802841782569885,-0.2731410562992096,0.36895087361335754,0.006584524642676115,-0.31026899814605713,0.08353974670171738,0.2639862895011902,0.2254110723733902,-0.12910965085029602,0.3222411870956421,-0.31221193075180054,-0.06424351036548615,0.010451479814946651,0.12788014113903046,-0.11426097899675369,-0.3265268802642822,0.0643077939748764,0.25472766160964966,0.3458363115787506,-0.3374863266944885,0.29751136898994446,-0.16686630249023438,-0.23235240578651428,0.009629011154174805,0.20386172831058502,0.29594844579696655,-0.30867505073547363,-0.17222104966640472,0.3344847857952118,-0.24528582394123077,-0.2855914533138275,0.15488694608211517,-0.22386744618415833,0.2415228635072708,0.28202271461486816,0.14050304889678955,-0.3381812572479248,0.2225586175918579,0.20599527657032013,-0.2756013572216034,0.27782168984413147,0.23698368668556213,-0.4331642985343933,-0.2536383867263794,0.07654108852148056,0.06016058847308159,-0.13984127342700958,0.03532462194561958,0.3477064371109009,-0.21833887696266174,0.02612275443971157,0.1929589956998825,0.1946963369846344,-0.22482335567474365,-0.06181006506085396,-0.25873541831970215,0.12579822540283203,0.18815745413303375,-0.0992802083492279,0.18312394618988037,0.20071788132190704,0.3062398135662079,0.060982223600149155,0.3661190867424011,-0.14903266727924347,-0.10772746801376343,-0.20823921263217926,-0.2667556405067444,-0.06425563991069794,-0.04703538119792938,-0.23691032826900482,0.24783267080783844,0.3593139052391052,0.18316327035427094,0.12678267061710358,-0.06261727958917618,-0.03374342992901802,0.1702653467655182,-0.297773152589798,-0.3205817639827728,-0.07799215614795685,-0.17268431186676025,-0.3313164710998535,0.16180261969566345,-0.22308020293712616,-0.03300069645047188,-0.2706334590911865,-0.12338867783546448,-0.04485296458005905,-0.282138466835022,0.1617230474948883,0.3161773979663849,-0.07334412634372711,-0.27405327558517456,0.32899677753448486,0.26331642270088196,0.20045173168182373,-0.1059781014919281,0.34099382162094116,0.25719285011291504,-0.11872820556163788},{-0.3129563629627228,-0.3423069715499878,-0.3772951662540436,0.08688963949680328,-0.09294091910123825,0.3676839768886566,-0.14164507389068604,-0.09107429534196854,-0.20931611955165863,-0.1543353945016861,0.3717162013053894,0.35929805040359497,-0.4817053973674774,-0.2876858413219452,-0.42329496145248413,0.4939969778060913,0.2729535400867462,-0.005339849274605513,0.08773314952850342,0.12221258878707886,0.4238516390323639,-0.3239871859550476,-0.3624582886695862,0.12399884313344955,0.30176979303359985,0.5771353244781494,0.1469271183013916,-0.11913327872753143,0.39691343903541565,-0.08131708204746246,0.4538390636444092,0.03950599953532219,-0.24472695589065552,0.04365663602948189,-0.05201702564954758,-0.020439354702830315,-0.2194315493106842,0.14145246148109436,0.2990644872188568,0.19836704432964325,0.1457177847623825,0.13461725413799286,-0.24169476330280304,0.3263770043849945,-0.03309343010187149,0.3488721549510956,0.09399352222681046,0.35111960768699646,0.012435070239007473,0.24329271912574768,-0.14927637577056885,0.5065019726753235,0.30116382241249084,-0.32456231117248535,0.06492538005113602,0.009269114583730698,-0.26817867159843445,-0.2453499585390091,0.3011639416217804,0.3767280876636505,0.26377519965171814,-0.23783273994922638,-0.0028115450404584408,-0.5259414911270142,-0.19786353409290314,0.16714155673980713,0.4814019203186035,0.38345271348953247,0.4709502160549164,-0.4833250045776367,-0.04252650961279869,-0.5106152296066284,-0.24193644523620605,0.17930114269256592,0.16059710085391998,0.22318245470523834,0.04958638921380043,0.02687106840312481,-0.13310934603214264,0.37674036622047424,0.23840124905109406,0.2465279996395111,0.07843124121427536,0.006061252672225237,0.09244418889284134,0.18739590048789978,-0.6547525525093079,0.3595876693725586,-0.03169574961066246,-0.1415923684835434,-0.14496079087257385,0.40195444226264954,0.015045564621686935,0.29720619320869446,-0.3009829521179199,-0.23649273812770844,0.3823557198047638,0.5683223009109497,-0.2046944946050644,-0.11007270216941833,-0.3608047664165497,0.30501604080200195,-0.06982884556055069,-0.3508898615837097,-0.04056597128510475,0.16786323487758636,-0.15281350910663605,0.22922320663928986,0.03373944014310837,-0.09574393928050995,0.05168480798602104,0.5893722772598267,0.4357855021953583,0.17412449419498444,0.210519939661026,-0.27757394313812256,0.0744815468788147,0.23724940419197083,0.4930010139942169,-0.4114961326122284,-0.09926191717386246,0.41151344776153564,-0.009006107226014137,0.42931514978408813,0.5040796399116516,0.2432107776403427,0.26915088295936584,0.34176987409591675,-0.09824952483177185,-0.3620172142982483,0.3729356527328491,-0.2738763391971588,-0.24237532913684845,0.24415521323680878,-0.03246792033314705,-0.014138255268335342,0.5878976583480835,0.026940464973449707,-0.1274162381887436,0.09245632588863373,-0.04954508692026138,0.17227409780025482,0.33382701873779297,-0.4348980784416199,-0.2363017350435257,0.3053881525993347,0.3799695670604706,-0.025976423174142838,-0.038135118782520294,-0.21565262973308563,0.030469639226794243,0.1840888410806656,-0.08558374643325806,-0.11248869448900223,-0.3325282037258148,0.3555945158004761,0.10313372313976288,-0.3503935635089874,-0.37600064277648926,0.38257575035095215,-0.42765557765960693,0.32204100489616394,-0.025584544986486435,-0.40952298045158386,-0.4125474989414215,0.13587686419487,0.3675132691860199,0.5029777884483337,0.1980902999639511,-0.23786966502666473,0.304104745388031,0.3545580208301544,0.15962669253349304,-0.23266683518886566,0.4058963656425476,0.25447672605514526,-0.27172428369522095,0.4456443786621094,0.3850180208683014,0.1573161482810974,-0.40890905261039734,-0.3728457987308502,0.3174285888671875,-0.01543189026415348,0.2864048480987549,0.010108746588230133,0.15709251165390015,0.5355202555656433,0.41125231981277466,-0.08700874447822571,-0.29464250802993774,-0.1176668331027031,-0.6879013776779175,0.2184152454137802,0.09986027330160141,0.26103323698043823,0.03931645303964615,-0.25595787167549133,0.33988672494888306,-0.32629090547561646,0.7071928381919861,-0.13051526248455048,-0.4330715239048004,-0.32561010122299194,-0.12056320905685425,0.020146824419498444,-0.031141310930252075,-0.1277245432138443,-0.04045000672340393,0.3637002408504486,0.018594399094581604,-0.3701443672180176,-0.0855221301317215,0.02405932918190956,0.07080992311239243,0.20648157596588135,-0.6559686064720154,0.0871567353606224,-0.021094083786010742,-0.36107951402664185,-0.27632761001586914,0.481859028339386,0.23185934126377106,-0.38848936557769775,-0.36850354075431824,-0.2954294979572296,0.16717706620693207,-0.14352788031101227,-0.01588398963212967,0.17117108404636383,0.1752251833677292,0.48888668417930603,-0.1834375560283661,-0.33846569061279297,-0.3554404675960541,0.21158367395401,-0.3352314233779907,0.2874290645122528,0.11152809858322144,0.3224553167819977,-0.4625251889228821,0.0661221444606781,-0.3745056092739105,-0.32285577058792114,-0.22596299648284912,-0.35768651962280273,-0.1986120492219925,0.26960280537605286,-0.16688860952854156,0.5586932897567749,0.08310120552778244,-0.033451683819293976,-0.33054131269454956,0.4954994320869446,-0.11835744976997375,-0.23278746008872986},{0.051320623606443405,-0.015491921454668045,0.08140748739242554,-0.01618313603103161,0.0725550502538681,-0.027929119765758514,0.017990369349718094,-0.03715186193585396,-0.03343365341424942,-0.00597793236374855,0.018575314432382584,0.07941010594367981,-0.04954201728105545,-0.006709876004606485,-0.009259448386728764,-0.006701685953885317,0.013741428963840008,-0.0024206864181905985,-0.017262475565075874,-0.004439651500433683,-0.019530486315488815,-0.034868963062763214,0.057803601026535034,-0.05270801857113838,-0.006106100045144558,0.022670933976769447,0.063991017639637,-0.036033425480127335,-0.1021651029586792,-0.04016483947634697,0.0452880822122097,0.11048545688390732,0.020009346306324005,-0.0021583447232842445,-0.012884424068033695,0.011815076693892479,-0.1680305004119873,0.03822962939739227,0.04136050119996071,0.017389560118317604,0.02244681492447853,0.01733255200088024,-0.07803618907928467,0.041658688336610794,-0.01669592410326004,-0.023763876408338547,0.0019662657286971807,-0.004727074410766363,-0.0843895897269249,-0.03673740103840828,-0.03612155467271805,0.0015907849883660674,-0.015526887960731983,0.08195449411869049,0.03521467745304108,0.016614941880106926,0.02440970204770565,0.021876871585845947,-0.02865538001060486,-0.04699086770415306,-0.027093634009361267,0.056911006569862366,0.024714868515729904,-0.006177701521664858,-0.03357177972793579,0.04418988153338432,0.02383778803050518,0.008879494853317738,-0.02333809807896614,0.010962643660604954,0.019345590844750404,0.03928494453430176,0.029110519215464592,0.08018798381090164,-0.04319300875067711,-0.030074143782258034,-0.05074488744139671,0.018255135044455528,-0.022511450573801994,-0.01876543089747429,-0.008521346375346184,0.030038833618164062,0.03569973260164261,0.0046785552985966206,0.012008988298475742,0.04590039700269699,0.06457291543483734,0.12219439446926117,-0.011619940400123596,-0.12953409552574158,0.06271439790725708,0.02579016238451004,0.001171534531749785,-0.22475601732730865,0.05886107683181763,0.013358920812606812,-0.1058734878897667,-0.05711153894662857,-0.11081276834011078,-0.03445299342274666,0.14095158874988556,0.06045176833868027,0.008242705836892128,-0.09546424448490143,-0.02554740197956562,0.012330482713878155,0.0026042398530989885,0.020314358174800873,-0.028208671137690544,0.013067186810076237,-0.08148398995399475,-0.18365173041820526,-0.015247688628733158,0.037648119032382965,-0.04486953467130661,0.012590005993843079,0.0014151324285194278,-0.0393282026052475,0.011180580593645573,-0.021326640620827675,0.015685221180319786,0.001192935393191874,-0.08298742771148682,-0.010599921457469463,-0.08119480311870575,0.050850462168455124,0.03257633373141289,-0.048379234969615936,-0.10277070850133896,-0.019201677292585373,0.00198662793263793,0.10400599986314774,-0.03894142061471939,-0.01362517662346363,0.0262579508125782,0.0016285475576296449,-0.037343814969062805,0.044436436146497726,-0.06821279227733612,-0.0038689454086124897,-0.04074561223387718,0.06906256824731827,-0.1289098709821701,-0.03597358986735344,0.07037079334259033,0.13402701914310455,-0.021429721266031265,-0.02896217629313469,0.0015652066795155406,-0.003848317079246044,-0.0284406915307045,0.0003987711970694363,0.019350968301296234,0.015089146792888641,-0.0725155770778656,-0.04044536128640175,-0.011928584426641464,0.004093713592737913,0.19133597612380981,0.1107516959309578,-0.0333905927836895,-0.03356871008872986,0.01633284240961075,-0.04332290589809418,0.009318110533058643,-0.025306375697255135,-0.06342220306396484,-0.05537634715437889,-0.06362950056791306,0.003125282470136881,-0.002469598315656185,-0.14933212101459503,0.006790027022361755,-0.04618788883090019,0.019949717447161674,-0.06768439710140228,0.038981176912784576,-0.04161076620221138,-0.18620893359184265,0.05665242299437523,0.034848276525735855,0.015424609184265137,0.01107645221054554,-0.06767743080854416,0.005562004167586565,0.13004454970359802,-0.0006196415633894503,0.01841254159808159,-0.08213631063699722,-0.005407509859651327,-0.036920979619026184,0.02953878603875637,0.061251699924468994,0.04436430707573891,-0.023023858666419983,-0.21608301997184753,-0.0062565794214606285,0.07934015989303589,0.004183664917945862,0.026289593428373337,-0.08477563410997391,-0.030684959143400192,-0.024605723097920418,-0.04674093425273895,-0.021731460466980934,0.017356226220726967,0.021482311189174652,0.03432789072394371,0.006145817693322897,0.05171649530529976,-0.009869284927845001,0.061915598809719086,0.0026258944999426603,0.06065645068883896,0.009938988834619522,-0.02548004500567913,0.012068724259734154,0.010427355766296387,0.05387995392084122,0.11604972928762436,-0.04519303888082504,-0.034641362726688385,0.052649158984422684,-0.02052397094666958,0.014059855602681637,0.045614004135131836,-0.11254440248012543,-0.07130782306194305,0.06486344337463379,-0.0687314048409462,-0.014457231387495995,0.07932907342910767,-0.00910036638379097,0.08651544898748398,0.004317304585129023,0.04835190251469612,0.12225138396024704,0.03450045362114906,0.04710423946380615,0.008319352753460407,0.02829183265566826,0.007431589532643557,-0.07932174950838089,0.011504840105772018,-0.037866659462451935,0.02862764336168766,-0.15060047805309296,0.07128623127937317,0.06838804483413696,-0.04271013289690018,-0.03129807114601135,-0.007755407597869635,0.02844521962106228,-0.07115671783685684,0.0030192432459443808,0.21713559329509735},{0.19491927325725555,0.06289072334766388,0.2780376672744751,-0.06326735764741898,0.2574980854988098,0.04399864748120308,0.00676332600414753,0.007027796935290098,-0.006721337791532278,0.047185782343149185,0.03341707959771156,0.28119322657585144,0.011015022173523903,-0.06460286676883698,-0.03199789300560951,0.061131637543439865,0.20350617170333862,0.11050098389387131,-0.12753243744373322,0.015243682079017162,0.04571780562400818,0.17704461514949799,-0.09809540212154388,0.32927289605140686,-0.02447676472365856,0.15012028813362122,0.044235896319150925,-0.08974099159240723,-0.36576902866363525,0.02448899671435356,0.26105213165283203,0.24907773733139038,0.03905963525176048,-0.02989056333899498,-0.02171078883111477,7.181616820162162e-05,-0.6023522019386292,0.017789674922823906,0.08625846356153488,0.21872234344482422,-0.004467593040317297,0.06178468465805054,-0.1094374731183052,0.12317156791687012,-0.013844301924109459,0.27516070008277893,0.011289858259260654,-0.08495008200407028,-0.16270528733730316,-0.14745208621025085,-0.23059193789958954,0.15313506126403809,-0.08103550225496292,0.1615123301744461,0.02050080895423889,0.0733865424990654,0.11357634514570236,-0.026264647021889687,-0.06492166966199875,-0.05965617671608925,0.05939329043030739,-0.07640746980905533,0.08021195977926254,-0.07260178029537201,0.06575796753168106,0.1285219043493271,-0.0848570466041565,-0.05232159420847893,-0.0018275834154337645,0.06369960308074951,0.2467527538537979,0.15782997012138367,0.00047996858484111726,0.24737723171710968,-0.07126957178115845,-0.05438101664185524,0.03438728675246239,-0.023004991933703423,-0.016798902302980423,0.024065904319286346,-0.18484343588352203,0.04648767039179802,0.12036450207233429,-0.038532570004463196,-0.008653264492750168,0.005227332003414631,0.07670527696609497,-0.3862941563129425,0.062406279146671295,-0.6786112785339355,0.05245758220553398,-0.1887883096933365,-0.0612136572599411,-0.5751050710678101,0.2554754316806793,0.03924618288874626,-0.607197642326355,-0.05894129350781441,-0.23003268241882324,-0.07798366248607635,0.17053034901618958,-0.04945634305477142,0.10304373502731323,-0.10873642563819885,-0.03369445353746414,0.030168261379003525,-0.04454675689339638,-0.00165603740606457,0.12689028680324554,0.048868294805288315,-0.12025097012519836,-0.4454399347305298,-0.1824415922164917,-0.07755380868911743,-0.07229767739772797,0.09429866075515747,0.02370975725352764,0.13423530757427216,0.02633574791252613,0.14211586117744446,0.09704902768135071,-0.0032850317656993866,0.1788923293352127,0.2280576229095459,-0.11819068342447281,-0.3924066126346588,-0.1760433167219162,0.31787100434303284,0.2866753041744232,-0.14598074555397034,-0.05207975208759308,0.5568041801452637,0.02104261890053749,0.00226207566447556,0.129859060049057,0.04888211935758591,-0.10897418111562729,-0.002008249517530203,-0.25509169697761536,-0.015536483377218246,0.16304662823677063,0.18559083342552185,-0.5008642673492432,-0.19248050451278687,-0.029537562280893326,-0.06906996667385101,-0.213588684797287,-0.23403513431549072,-0.018544543534517288,0.13250359892845154,0.05745295062661171,0.15979143977165222,-0.035224590450525284,-0.0172836035490036,-0.5499967932701111,0.07103383541107178,-0.09341207146644592,0.06547626107931137,0.28951314091682434,0.4680244028568268,0.007081323768943548,-0.012519607320427895,-0.02793087624013424,0.18475358188152313,0.014518697746098042,0.11174514144659042,-0.016880014911293983,0.006917898543179035,-0.046592701226472855,-0.05925998091697693,-0.07244382798671722,-0.5263813734054565,0.16792841255664825,-0.160482257604599,-0.08856526762247086,-0.2826712429523468,-0.25927332043647766,-0.07349248975515366,-0.32413700222969055,0.10549600422382355,0.27974388003349304,-0.027982383966445923,-0.15079951286315918,-0.10681718587875366,-0.05052720010280609,0.18955393135547638,0.11399330943822861,0.09239331632852554,-0.3427915573120117,0.01786240190267563,-0.09984775632619858,-0.08916834741830826,0.12469439208507538,0.10690353065729141,-0.4050852358341217,-0.5620908141136169,0.004540048539638519,-0.16076958179473877,-0.18282313644886017,-0.013760646805167198,-0.1005539745092392,-0.02698196843266487,-0.18416975438594818,-0.246519535779953,-0.021172085776925087,0.1360698789358139,0.12295319139957428,0.20893670618534088,-0.008125577121973038,0.23170286417007446,-0.0775054320693016,0.14561238884925842,-0.04017706587910652,0.04469267278909683,0.06380849331617355,-0.38725635409355164,-0.0016226526349782944,-0.011831427924335003,0.2128019630908966,0.5053940415382385,-0.08379159867763519,-0.008193382062017918,0.2924669086933136,-0.24432271718978882,-0.20421141386032104,0.20071090757846832,-0.5573080778121948,-0.18025663495063782,0.4961746633052826,-0.1694163680076599,0.06069055572152138,0.03085610270500183,-0.08823433518409729,-0.11363820731639862,-0.15522527694702148,0.1614806205034256,0.37268540263175964,-0.2575345039367676,-0.03937429189682007,-0.19979733228683472,-0.049482014030218124,-0.04571962356567383,-0.0578014962375164,-0.010984783060848713,-0.11581265181303024,0.047058239579200745,-0.3228399157524109,0.027697386220097542,-0.01653011329472065,-0.11975132673978806,-0.23247957229614258,0.11665236949920654,0.0034563650842756033,-0.15650945901870728,0.1872679442167282,0.7560468316078186},{-0.1836700588464737,-0.03253523260354996,0.1986076831817627,0.03361157327890396,0.07705791294574738,0.1196705549955368,0.03449162468314171,-0.037351299077272415,-0.07772664725780487,0.014571587555110455,-0.1224168986082077,0.12371726334095001,0.018703673034906387,0.027470625936985016,0.1384926289319992,0.08251111954450607,0.14157700538635254,-0.015123647637665272,0.06957228481769562,-0.038713544607162476,-0.13144893944263458,0.11904692649841309,-0.03662843257188797,0.18816618621349335,-0.08131280541419983,0.2390742003917694,-0.07235509157180786,-0.020466111600399017,0.013341398909687996,-0.08184593170881271,0.15237604081630707,0.2948593497276306,0.10079085826873779,0.05468454584479332,-0.006266440264880657,-0.011193384416401386,-0.33188438415527344,-0.028609996661543846,0.11418557912111282,0.025057002902030945,-0.0060804663226008415,-0.08488736301660538,-0.09489128738641739,-0.05202660709619522,0.06789816170930862,0.07388648390769958,0.04574354365468025,-0.10402577370405197,-0.26157358288764954,-0.1748429387807846,-0.035047873854637146,-0.01870059408247471,0.047612324357032776,0.01154128834605217,-0.024609262123703957,0.24268054962158203,-0.03287544474005699,-0.21651504933834076,-0.04651397839188576,0.059740666300058365,-0.021673887968063354,0.09343406558036804,-0.056114230304956436,0.05220789834856987,0.23803457617759705,0.0187902320176363,0.13021808862686157,-0.06208209693431854,-0.11310619860887527,0.10890962183475494,0.13139787316322327,0.03495122492313385,-0.06424811482429504,-0.04404357448220253,0.2297317385673523,-0.021030494943261147,-0.005297878757119179,-0.035057805478572845,-0.06909997016191483,-0.08246933668851852,0.25587132573127747,0.14798331260681152,0.004675484728068113,0.04337814077734947,0.05398150905966759,-0.2048739641904831,0.21260833740234375,-0.01205266360193491,-0.12647424638271332,-0.2023661583662033,0.19113777577877045,-0.03400534391403198,-0.1685592383146286,-0.28227269649505615,-0.050912946462631226,0.008772363886237144,-0.6518760919570923,0.12470850348472595,-0.007167065981775522,0.006238536909222603,0.27942752838134766,0.005113667342811823,-0.13181622326374054,0.12396731972694397,-0.036423806101083755,-0.0699782446026802,0.07302598655223846,0.12659162282943726,-0.1614977866411209,0.10589317232370377,-0.030492549762129784,0.09894312173128128,-0.17900167405605316,-0.006178978830575943,-0.10216836631298065,0.011101948097348213,0.0014581553405150771,0.024978460744023323,-0.1540422886610031,-0.023561786860227585,-0.10501419752836227,-0.10586687922477722,0.3059229552745819,-0.010949510149657726,0.055189408361911774,-0.6560784578323364,-0.21753916144371033,-0.11208167672157288,0.5609971880912781,0.08506228774785995,-0.11751136928796768,0.5397751927375793,0.096405528485775,0.031408682465553284,-0.11251969635486603,0.07181265950202942,-0.03264051675796509,-0.005417136941105127,-0.14030969142913818,-0.1255057007074356,0.2194376140832901,-0.06205952540040016,-0.5468077659606934,-0.11259227246046066,0.027601955458521843,-0.013776072300970554,-0.1517007052898407,-0.14872491359710693,0.016765741631388664,0.03417804092168808,0.004411863628774881,0.06500396877527237,0.04892262816429138,0.03699324280023575,0.014385625720024109,-0.23648257553577423,0.028071045875549316,0.12776069343090057,-0.04639603942632675,0.1141921803355217,0.054642174392938614,-0.09778299927711487,0.0037655802443623543,-0.006915066856890917,0.033020950853824615,-0.1920219212770462,-0.15158525109291077,-0.3695965111255646,0.005742881912738085,0.09876699000597,-0.14325594902038574,-0.2203255146741867,0.12079339474439621,-0.13102705776691437,-0.5170111656188965,-0.14002875983715057,-0.3725447952747345,-0.11578259617090225,-0.4115780293941498,-0.006079141981899738,0.6445862650871277,-0.061005014926195145,-0.14845412969589233,0.33869558572769165,-0.021874986588954926,0.20982477068901062,-0.11749964952468872,-0.15729860961437225,-0.03520519286394119,-0.027437523007392883,-0.08194362372159958,-0.052978381514549255,0.1044047623872757,-0.08642899245023727,-0.2590073347091675,-0.13373048603534698,-0.026726681739091873,0.011442103423178196,-0.1378621757030487,-0.10110441595315933,0.1243753433227539,-0.1115509569644928,-0.04664178937673569,-0.030431414023041725,-0.015220887959003448,0.33837759494781494,-0.18235783278942108,0.050790175795555115,-0.008707169443368912,0.08239347487688065,0.08817260712385178,0.1877085417509079,0.020174633711576462,0.03163236379623413,-0.0978485494852066,-0.1362660527229309,0.11587055772542953,0.00860286783427,0.29618000984191895,0.21197444200515747,-0.08943626284599304,-0.08792193979024887,0.09861405193805695,-0.044834721833467484,-0.19430828094482422,-0.11749134212732315,-0.02381734922528267,0.03178093209862709,0.42005839943885803,0.15860654413700104,-0.047449108213186264,0.10031326860189438,0.05489141494035721,-0.2708209455013275,-0.19413155317306519,0.12669047713279724,0.16382712125778198,-0.2507266700267792,0.004965559579432011,-0.3530999422073364,0.02676447294652462,-0.04993939772248268,0.027900585904717445,0.03529095649719238,-0.027878286316990852,-0.1419750154018402,0.07958865165710449,-0.3111363649368286,0.0890839546918869,-0.010915642604231834,-0.15471318364143372,-0.03970596566796303,0.036087434738874435,0.23064863681793213,0.1861249953508377,0.42048150300979614},{0.02718929573893547,0.12209151685237885,0.22895251214504242,0.06876660883426666,0.09598679095506668,0.11517373472452164,-0.022239355370402336,-0.0912838876247406,-0.1647154986858368,0.13413333892822266,-0.12703561782836914,0.014074213802814484,-0.018547145649790764,-0.02042565494775772,0.14479854702949524,0.16795699298381805,0.08466625213623047,-0.04514092579483986,-0.05678495764732361,-0.10574048012495041,-0.17131224274635315,0.06278114020824432,-0.254789263010025,0.39963608980178833,0.040514882653951645,0.32330793142318726,-0.12095394730567932,-0.05829031765460968,-0.2146061360836029,0.0358583889901638,0.31980597972869873,0.18572081625461578,0.1503748744726181,0.11252389848232269,0.016023945063352585,-0.08519317954778671,-0.17427468299865723,0.04609372094273567,0.044610168784856796,0.013482721522450447,0.02782352827489376,-0.08980946987867355,0.03262944892048836,-0.1949576586484909,0.15506097674369812,0.17642740905284882,0.04784050211310387,-0.23949775099754333,-0.1390375792980194,-0.04654383286833763,-0.11251036822795868,0.1081349328160286,-0.08172726631164551,-0.134794220328331,-0.03091108240187168,0.2947290241718292,-0.02753928117454052,-0.15676642954349518,-0.07174629718065262,0.0841297060251236,0.08113588392734528,-0.04884816333651543,-0.02655830606818199,0.11514080315828323,0.1367005705833435,0.059753693640232086,-0.06526397913694382,-0.07820563018321991,-0.0885053277015686,-0.09942634403705597,0.20654630661010742,0.11361812055110931,-0.10416171699762344,-0.10904119163751602,0.20156098902225494,-0.03802233189344406,0.07224872708320618,-0.03308114781975746,-0.0182255357503891,0.09264136105775833,0.03431611508131027,0.05860135331749916,0.10366766154766083,0.06355905532836914,-0.01852286234498024,-0.2929062247276306,0.23045124113559723,-0.5810465812683105,-0.08169794827699661,-0.2407132089138031,0.09588909149169922,-0.1337292641401291,-0.1611705720424652,-0.27153271436691284,0.12106619775295258,0.14496023952960968,-0.7555593252182007,0.27675384283065796,-0.12335558235645294,-0.060435451567173004,0.05528205633163452,-0.01198656763881445,-0.16434696316719055,0.0013028215616941452,-0.061025578528642654,-0.128228098154068,0.01887459307909012,-0.005946615245193243,0.04305235669016838,0.10562913119792938,-0.06692776829004288,0.1790052056312561,-0.18946059048175812,-0.05754977464675903,-0.12048620730638504,0.11742577701807022,0.031049862504005432,0.14447806775569916,-0.18236474692821503,0.036440834403038025,-0.12375757098197937,-0.047896720468997955,0.377229243516922,0.006828059908002615,0.02160082757472992,-0.6140037178993225,-0.13667219877243042,0.11607832461595535,0.5466843247413635,-0.1307038962841034,-0.31643491983413696,0.4185657203197479,0.02608569711446762,0.09123370051383972,-0.12444000691175461,0.1184929683804512,-0.12069912999868393,-0.032323967665433884,-0.08981692790985107,-0.24389834702014923,0.24818409979343414,-0.14801527559757233,-0.5054771304130554,-0.02402104064822197,-0.04834221303462982,-0.3231397867202759,-0.2471311241388321,-0.18036219477653503,-0.051531970500946045,-0.07592500746250153,0.018325358629226685,0.1538415402173996,0.004673602990806103,0.022731700912117958,-0.12529249489307404,-0.14532604813575745,0.01714274287223816,-0.01729857549071312,-0.23524107038974762,0.11842435598373413,-0.01528523862361908,0.00929504819214344,-0.005223918240517378,0.0375240296125412,0.0043205623514950275,-0.07309526205062866,0.013229744508862495,-0.15216036140918732,0.13579446077346802,0.09804430603981018,-0.07173602283000946,-0.31480836868286133,-0.0204910971224308,-0.1961870789527893,-0.27382200956344604,-0.06337050348520279,-0.3887845277786255,-0.2139563262462616,-0.33476385474205017,0.11419756710529327,0.36312538385391235,-0.1247495636343956,-0.055598676204681396,0.15270450711250305,-0.17218893766403198,-0.02337922900915146,-0.0929345041513443,0.08621526509523392,-0.08434134721755981,-0.06140635535120964,-0.17643971741199493,-0.09455900639295578,0.1496349275112152,-0.04241962358355522,-0.3591707646846771,-0.1895359456539154,-0.04204365983605385,-0.25703781843185425,-0.11497147381305695,-0.2483699917793274,0.2350570261478424,-0.06278149783611298,-0.12916283309459686,0.03173700347542763,-0.028285864740610123,0.3979993760585785,-0.09173116087913513,0.19164545834064484,-0.10872162133455276,0.11599121987819672,0.0872470885515213,0.04430907219648361,0.06618459522724152,-0.015120530501008034,-0.07795167714357376,-0.10832158476114273,0.06288141757249832,-0.018868647515773773,0.06943144649267197,0.29727739095687866,-0.03468700125813484,0.05030807852745056,0.19964033365249634,-0.1599050611257553,-0.20815837383270264,-0.009254120290279388,-0.15606142580509186,0.07909215241670609,0.4864758551120758,0.022315960377454758,-0.07279559969902039,-0.024080825969576836,-0.04427744075655937,-0.5605804920196533,-0.24137385189533234,0.1214379370212555,0.174830362200737,-0.24804382026195526,0.038166288286447525,-0.20895832777023315,-0.13501107692718506,0.017955336719751358,0.05818982422351837,-0.05423881858587265,-0.04110874980688095,-0.22945336997509003,-0.05470111966133118,-0.1931508630514145,-0.023180224001407623,-0.07985690236091614,-0.08519329130649567,-0.04047417268157005,-0.07237802445888519,0.12674066424369812,0.18854862451553345,0.5121067762374878},{0.08836285024881363,0.12225860357284546,0.15743042528629303,-0.038990069180727005,0.02943449094891548,0.2317383885383606,-0.08461132645606995,-0.08040475100278854,-0.13392874598503113,0.10959482192993164,0.0038108224980533123,0.21394580602645874,-0.15254589915275574,-0.09332380443811417,0.057026371359825134,0.3429194688796997,0.4054383337497711,-0.10210715234279633,-0.17307302355766296,-0.11653211712837219,-0.1315317153930664,-0.04941073805093765,-0.3060140609741211,0.3878462612628937,0.1392350047826767,0.5374467372894287,-0.09087628871202469,-0.09279391914606094,-0.3905197083950043,0.01833031326532364,0.4863704741001129,0.14921869337558746,0.06669603288173676,-0.017071131616830826,-0.0016946354880928993,-0.07440153509378433,-0.26331961154937744,0.17777910828590393,0.1794152706861496,-0.14266568422317505,0.04289396479725838,-0.209321528673172,0.08098572492599487,-0.27832022309303284,0.10443776845932007,0.30175870656967163,0.05307327210903168,-0.19647231698036194,-0.14472414553165436,-0.0033973560202866793,-0.20107077062129974,0.33596912026405334,-0.04707391932606697,-0.09440990537405014,0.01627916283905506,0.23316922783851624,-0.05269759148359299,-0.2178131490945816,-0.01565287634730339,0.1382506787776947,0.1620788872241974,-0.14454540610313416,0.06169414892792702,0.08507877588272095,-0.052237894386053085,0.03750823065638542,-0.1443859040737152,-0.013697627000510693,0.10282067209482193,-0.2915923297405243,0.2650216817855835,0.11133374273777008,-0.15630805492401123,-0.20412994921207428,-0.026039643213152885,-0.004030849318951368,0.11459438502788544,-0.0058488864451646805,-0.05377830192446709,0.27816537022590637,-0.11024101823568344,0.11790835112333298,0.16246825456619263,-0.004063071683049202,-0.004472628235816956,-0.2896694839000702,0.14893293380737305,-1.0241864919662476,0.06361405551433563,-0.2041682004928589,0.016602879390120506,-0.1962045431137085,-0.12024781852960587,-0.04853200167417526,0.071282297372818,0.2026582807302475,-0.5300119519233704,0.3703143894672394,-0.24341218173503876,-0.2706436216831207,-0.08901924639940262,0.016882166266441345,-0.04077886417508125,-0.1639857292175293,-0.04718431085348129,-0.0921131819486618,-0.06931959837675095,-0.1262112408876419,0.10597874224185944,0.09250932931900024,-0.1908182054758072,0.22280585765838623,0.03160886839032173,-0.010722072795033455,-0.04128669947385788,0.08163098245859146,0.04622089862823486,0.24571168422698975,-0.03253437578678131,0.06276372075080872,-0.047606758773326874,0.09471040219068527,0.34319940209388733,0.0583600178360939,0.0449402779340744,-0.33548101782798767,0.02154933661222458,0.37177973985671997,0.3547073304653168,-0.3256365656852722,-0.20422200858592987,0.19464479386806488,-0.13377508521080017,0.09616593271493912,0.035675495862960815,0.1720735877752304,-0.10690730065107346,-0.034611694514751434,-0.19185997545719147,-0.17170138657093048,0.1616869419813156,-0.12382963299751282,-0.2892599403858185,0.14290767908096313,-0.15565142035484314,-0.48282870650291443,-0.1641162931919098,-0.14598685503005981,-0.09409837424755096,-0.14129739999771118,0.074419304728508,0.17499884963035583,0.10389559715986252,-0.055189356207847595,-0.2981054484844208,0.11593674123287201,-0.015426798723638058,-0.1664063036441803,-0.3105159401893616,0.1904052346944809,-0.1618742048740387,0.13599589467048645,-0.04853889346122742,-0.0716901421546936,-0.010568935424089432,-0.07844091951847076,0.18807294964790344,0.23562578856945038,0.1069212555885315,0.01834617368876934,0.11665906012058258,-0.17758415639400482,-0.09054354578256607,-0.1746637523174286,0.15138228237628937,0.12958836555480957,-0.19708114862442017,-0.16886651515960693,-0.15638308227062225,0.14947910606861115,-0.06635085493326187,-0.1899680644273758,0.10382432490587234,-0.07007879763841629,-0.1808953583240509,-0.16538284718990326,-0.20587009191513062,0.5178306102752686,-0.06948041915893555,-0.06391052156686783,-0.41255438327789307,-0.12241091579198837,0.08567185699939728,0.10031028091907501,-0.23467732965946198,-0.31925612688064575,0.03941592201590538,-0.5694419145584106,-0.04971208795905113,-0.21932590007781982,0.3047862946987152,-0.014534673653542995,-0.20483645796775818,0.06766993552446365,-0.07698044925928116,0.3492017686367035,-0.10375412553548813,0.2341519445180893,-0.10371348261833191,0.262421190738678,-0.05307341367006302,-0.09388545900583267,0.050364360213279724,-0.025245865806937218,0.00039765844121575356,0.026511510834097862,-0.0516364686191082,-0.027605218812823296,-0.061069972813129425,0.3367416560649872,-0.05227773264050484,0.0957728922367096,0.2136414647102356,-0.39891836047172546,-0.16109418869018555,-0.09170813113451004,-0.3723679780960083,0.08801893889904022,0.3944302797317505,-0.16295036673545837,-0.12696132063865662,-0.020045869052410126,-0.2040872573852539,-0.6951084733009338,-0.3304394781589508,0.2874664068222046,-0.02070104144513607,0.008588703349232674,0.18513010442256927,-0.022514423355460167,-0.2907690703868866,0.15725845098495483,0.0769459530711174,-0.1541755199432373,-0.11235766857862473,-0.11739838123321533,-0.24459713697433472,-0.0412123017013073,-0.03263453021645546,-0.018647048622369766,-0.2996644377708435,-0.068480484187603,-0.08278971165418625,-0.01226259209215641,0.16507939994335175,0.5805747509002686},{0.021400131285190582,0.04778772220015526,0.12233726680278778,-0.03795592486858368,0.040078938007354736,0.12599000334739685,-0.023332275450229645,-0.0182093046605587,-0.07065917551517487,0.046855729073286057,0.04494040459394455,0.1597202867269516,-0.17831552028656006,-0.07302705198526382,0.027463246136903763,0.2659696042537689,0.14716586470603943,-0.056540586054325104,-0.12604708969593048,-0.08214658498764038,-0.1189141646027565,-0.0348699688911438,-0.2349836677312851,0.07103395462036133,0.0962173193693161,0.3692168593406677,0.0017391783185303211,-0.05954412370920181,-0.2654973268508911,-0.015711020678281784,0.24693861603736877,0.011417344212532043,0.014384717680513859,-0.0013284562155604362,-0.016923675313591957,-0.045248955488204956,0.005133087746798992,0.1558193862438202,0.1259409636259079,-0.1612786501646042,0.050744954496622086,-0.17903874814510345,0.023576591163873672,-0.25271207094192505,0.049903545528650284,0.06865567713975906,0.027426373213529587,-0.16134384274482727,-0.12095780670642853,-0.03999809920787811,-0.12273604422807693,0.16895610094070435,-0.0321618914604187,-0.061765868216753006,0.0062087406404316425,0.09705447405576706,-0.06557635217905045,-0.19041308760643005,0.01604454405605793,0.08436405658721924,0.02321908250451088,-0.03660769388079643,0.09840264916419983,0.08958842605352402,-0.07704674452543259,0.11910267174243927,-0.12550050020217896,-0.015231066383421421,0.05257473513484001,-0.19168813526630402,0.12102760374546051,0.07911580055952072,-0.07742881774902344,-0.19185011088848114,-0.018910560756921768,-0.09722305089235306,0.03843875601887703,0.011551418341696262,-0.07028774917125702,0.1476830244064331,-0.0737384483218193,0.07058151811361313,0.13987748324871063,0.009216265752911568,0.03297622874379158,-0.14112034440040588,0.14508938789367676,-0.5720781683921814,0.04787629842758179,0.08098915219306946,-0.02895381487905979,-0.017467912286520004,-0.04586213082075119,0.11819066852331161,0.03265859931707382,0.18412522971630096,-0.036972589790821075,0.15957817435264587,-0.16324351727962494,-0.08254233747720718,-0.10079733282327652,0.021194633096456528,0.0023779438342899084,-0.171897754073143,-0.04406370967626572,-0.008484016172587872,-0.05947282165288925,-0.030999645590782166,0.18627749383449554,-0.006814426276832819,-0.20322874188423157,0.1802159994840622,0.13694025576114655,0.011036297306418419,-0.03581147640943527,0.08967392891645432,0.043603166937828064,0.11441175639629364,0.00233626295812428,0.016808034852147102,0.01538170874118805,0.0367983877658844,0.11586197465658188,-0.012117943726480007,0.014604046009480953,-0.008762624114751816,0.025405172258615494,0.14824320375919342,0.0235950518399477,-0.1556720733642578,-0.09212412685155869,-0.040281135588884354,-0.16301003098487854,0.04497479647397995,0.08758840709924698,0.10336757451295853,-0.07109950482845306,0.020317204296588898,-0.17387041449546814,-0.10662585496902466,-0.020163042470812798,-0.036341167986392975,-0.05370356887578964,0.19079411029815674,-0.04321269318461418,-0.2787012457847595,-0.028463207185268402,-0.09607825428247452,-0.06949702650308609,-0.1696418970823288,0.03422354906797409,0.08016745001077652,0.09054028987884521,-0.05655021592974663,-0.022987723350524902,-0.007181893568485975,-0.03386635333299637,-0.06723655760288239,-0.07600203156471252,-0.030799703672528267,-0.12025998532772064,0.08454568684101105,-0.056356705725193024,-0.1751326024532318,-0.008113615214824677,-0.144489586353302,0.0595518983900547,0.14955046772956848,0.040776193141937256,0.011441272683441639,0.06961629539728165,-0.08300324529409409,-0.08942380547523499,-0.0565606914460659,0.21268221735954285,0.17667686939239502,0.14595915377140045,-0.11640883982181549,-0.05835624411702156,0.1889241337776184,-0.18356259167194366,-0.11252590268850327,0.10159076005220413,-0.09260565787553787,-0.14917711913585663,-0.12656265497207642,-0.11693653464317322,0.33363306522369385,0.01914617232978344,-0.049921613186597824,-0.2794136703014374,-0.0316990464925766,0.08863059431314468,0.14905551075935364,-0.08613204210996628,-0.14087828993797302,0.014293644577264786,-0.3667212724685669,-0.022672386839985847,-0.09591726213693619,0.09935738146305084,-0.007540212944149971,-0.022837206721305847,0.18701931834220886,-0.07496849447488785,0.17498816549777985,0.03396623581647873,0.1542823165655136,-0.05791662633419037,0.14666242897510529,-0.03246183320879936,-0.07244594395160675,0.011885721236467361,0.038406357169151306,0.015955723822116852,0.18708856403827667,-0.07491740584373474,-0.022818421944975853,-0.03324376791715622,0.1552058905363083,-0.0509815588593483,0.11846613138914108,-0.0018574601272121072,-0.24953067302703857,-0.03664147108793259,-0.09692040830850601,-0.12897656857967377,0.08233032375574112,0.030502507463097572,-0.16935579478740692,-0.12688562273979187,-0.0008856962085701525,-0.14151757955551147,-0.3620997369289398,-0.16453291475772858,0.2322915643453598,-0.11392052471637726,0.0380556583404541,0.22638988494873047,0.05645483359694481,-0.1992548555135727,0.15382100641727448,-0.05313220992684364,-0.09199147671461105,-0.055845148861408234,-0.022366590797901154,-0.15970177948474884,0.04350657761096954,-0.028462901711463928,-0.04572366550564766,-0.13297593593597412,0.021629516035318375,-0.04183266684412956,-0.0260581374168396,0.03515610471367836,0.2668173015117645},{0.02682175487279892,0.08144339919090271,0.0595104917883873,-0.07468421757221222,-0.02364380471408367,0.11238524317741394,-0.011750131845474243,0.08401426672935486,-0.03579089418053627,0.01119170244783163,0.07002011686563492,0.29007911682128906,-0.05007895454764366,-0.022778572514653206,-0.0027603283524513245,0.16234371066093445,0.14114654064178467,0.05672935023903847,-0.1131206825375557,0.12474220246076584,0.008521252311766148,0.13779306411743164,-0.022500913590192795,0.18417756259441376,0.01188672985881567,0.09616778045892715,-0.02217778190970421,0.002127764280885458,-0.2910524904727936,-0.027739297598600388,0.1636812686920166,0.11432980000972748,-0.014680950902402401,-0.00045550678623840213,-0.02892964705824852,-0.002374528208747506,-0.28656813502311707,0.058537840843200684,0.06205351650714874,0.07843435555696487,0.0019161656964570284,-0.10819949209690094,0.10802440345287323,-0.1020587831735611,0.0004863159265369177,0.1487743854522705,0.014311953447759151,-0.09674698114395142,0.013226383365690708,-0.03179332986474037,-0.030471861362457275,0.24055635929107666,0.014398235827684402,0.16921785473823547,0.06806781142950058,-0.05317027494311333,-0.02346133068203926,-0.06944454461336136,0.021409351378679276,0.1290244460105896,0.14496001601219177,-0.08593852072954178,0.1343829184770584,0.03858587145805359,-0.10391944646835327,-0.03250627592206001,-0.12136203050613403,0.031133007258176804,0.16066791117191315,-0.0781576931476593,0.11349786818027496,0.10240040719509125,-0.01999903842806816,-0.0805778056383133,-0.09212256968021393,-0.03684584051370621,0.07579384744167328,0.014266102574765682,-0.02417275309562683,0.14967218041419983,-0.21030181646347046,0.018327128142118454,0.08018376678228378,-0.06267138570547104,0.01273057609796524,0.06829343736171722,0.08347683399915695,-0.7064019441604614,0.08734899759292603,-0.09727710485458374,-0.09873765707015991,-0.16227911412715912,0.015661364421248436,0.10998950898647308,-0.024975107982754707,0.16181091964244843,-0.056843824684619904,-0.02292243391275406,-0.09659762680530548,-0.05388149619102478,-0.15263426303863525,-0.007130476180464029,0.1524960696697235,-0.08398262411355972,-0.0034315537195652723,0.056880004703998566,-0.03386269137263298,-0.17982569336891174,0.08165186643600464,-0.03633307293057442,-0.11436211317777634,-0.04034516215324402,0.06652402132749557,0.0053138029761612415,-0.02731296233832836,0.10932081192731857,0.003678377252072096,0.09661822021007538,0.056417569518089294,0.11528868973255157,0.1313919872045517,0.055621158331632614,0.11416815221309662,0.16199202835559845,0.08889429271221161,0.0702323392033577,-0.05962878838181496,0.3073279559612274,0.012995392084121704,-0.09032364189624786,0.03601881489157677,0.019420092925429344,-0.08286669850349426,0.029498383402824402,0.1933053880929947,0.10218199342489243,-0.09632191061973572,0.0005048185703344643,0.08678586781024933,0.025663107633590698,0.011916727758944035,-0.021582702174782753,-0.0013449976686388254,0.005966638680547476,-0.1304452270269394,-0.41646572947502136,-0.0890604630112648,-0.07039038091897964,-0.027141349390149117,-0.043040115386247635,0.04671717435121536,-0.07417059689760208,0.08474656939506531,-0.1064770296216011,-0.23438207805156708,0.2683842182159424,-0.10559653490781784,-0.12285065650939941,0.11184723675251007,0.011719620786607265,-0.11392029374837875,0.08688738197088242,-0.11650153994560242,-0.038620155304670334,-0.26237812638282776,0.0018541945610195398,0.14491786062717438,0.20957979559898376,-0.0338144451379776,-0.05521824583411217,0.03655647858977318,-0.2258443981409073,-0.03794819861650467,-0.03564438223838806,0.25391581654548645,0.015009479597210884,0.14999817311763763,-0.03942029923200607,0.05167286843061447,0.03391285985708237,-0.28250932693481445,0.010662618093192577,0.021185990422964096,-0.14868266880512238,-0.0760759487748146,-0.22800613939762115,0.008399441838264465,0.22084136307239532,-0.04223327338695526,-0.028172971680760384,-0.19180770218372345,-0.059958990663290024,0.08862124383449554,0.07013875991106033,0.021965675055980682,-0.21839836239814758,-0.014375649392604828,-0.28203755617141724,-0.06863630563020706,-0.008253305219113827,-0.06213473156094551,0.04231319576501846,0.0951906368136406,0.058429040014743805,-0.022948728874325752,-0.071456678211689,0.097073495388031,-0.026546375826001167,0.004669918678700924,0.16599410772323608,-0.08251819759607315,-0.027638252824544907,-0.035925593227148056,-0.03374410793185234,0.08496364206075668,-0.011984643526375294,-0.1838122308254242,-0.007316942792385817,-0.12820132076740265,0.29332295060157776,-0.00499918544664979,0.18685007095336914,0.1497465819120407,-0.12639838457107544,-0.07030089944601059,-0.04580240696668625,-0.2915990352630615,0.025950010865926743,0.025038689374923706,-0.22583213448524475,-0.06017301231622696,-0.07166334241628647,-0.0659918338060379,-0.21824069321155548,-0.05070827901363373,0.20219512283802032,0.19224044680595398,-0.13777919113636017,0.09339912980794907,-0.13103002309799194,-0.03222246840596199,0.15206372737884521,0.10325686633586884,-0.07058783620595932,0.012816738337278366,0.06599756330251694,-0.09792353212833405,0.09564141184091568,0.016910238191485405,0.01887354999780655,-0.030723677948117256,-0.053629662841558456,-0.07495713233947754,-0.12807218730449677,0.05838128179311752,0.3348180949687958},{-0.1204112246632576,0.1514064222574234,0.09002933651208878,-0.021275125443935394,-0.038176584988832474,0.07862358540296555,-0.02912095934152603,0.05009269341826439,-0.01576058566570282,0.03898455575108528,-0.03996513783931732,-0.021743711084127426,0.04195568338036537,-0.019068226218223572,0.03726880997419357,-0.05674068257212639,-0.17650653421878815,0.02639271505177021,-0.03595663979649544,0.030979178845882416,-0.07115893810987473,0.12034977972507477,0.07921940833330154,0.14003939926624298,-0.07787571102380753,-0.07191009074449539,-0.04884621500968933,0.027894072234630585,-0.03821716085076332,-0.09759633243083954,0.08402466773986816,0.042319849133491516,0.07330712676048279,0.011148430407047272,-0.052237026393413544,-0.01917249895632267,0.08828824013471603,0.040165312588214874,0.02809365652501583,0.048029910773038864,-0.07729433476924896,-0.044941678643226624,-0.0326235294342041,-0.04527760669589043,-0.028235340490937233,-0.03506682068109512,0.053615160286426544,-0.021230662241578102,-0.05009440705180168,-0.02855658158659935,-0.010430393740534782,0.09370794892311096,0.02750859409570694,0.06766974925994873,0.028103092685341835,-0.03846599534153938,0.04076665639877319,-0.13777925074100494,-0.044863104820251465,0.05557195097208023,-0.01125065516680479,0.004507134668529034,0.024001386016607285,0.13599807024002075,0.0459299311041832,0.060872022062540054,-0.1289525330066681,0.02842170000076294,0.04881558567285538,0.0979357361793518,0.13306312263011932,0.1502801477909088,0.044791437685489655,-0.09202243387699127,-0.025602279230952263,-0.0447094701230526,0.025278868153691292,-0.005917641334235668,0.007833764888346195,0.010293789207935333,-0.0595402829349041,0.058565910905599594,0.07692887634038925,-0.07433708012104034,0.04103030636906624,0.13651253283023834,0.22526445984840393,-0.20293675363063812,-0.01787000708281994,0.01648125611245632,0.07036913186311722,-0.072716623544693,-0.07107356190681458,0.10585269331932068,-0.09736991673707962,0.13077284395694733,-0.21734479069709778,-0.15361343324184418,0.023703429847955704,-0.131458580493927,0.046882513910532,0.008154395967721939,0.05892663821578026,0.0082451943308115,-0.05658486485481262,-0.020733466371893883,0.04600359871983528,-0.09086775034666061,0.16691946983337402,0.03957023099064827,-0.006406069733202457,-0.08292120695114136,-0.10149111598730087,-0.048153456300497055,-0.07567328214645386,0.062332186847925186,-0.05732207000255585,-0.002296718070283532,-0.08129698038101196,0.05826003849506378,0.06051640585064888,-0.0020274478010833263,0.12083062529563904,-0.06026677042245865,-0.059623878449201584,-0.1521695852279663,-0.06918840110301971,0.07187985628843307,0.18831446766853333,0.12425854057073593,0.1154070571064949,0.09297756105661392,0.0028236492071300745,0.043731775134801865,0.07518132776021957,0.038772229105234146,-0.10804266482591629,-0.0013820875901728868,-0.04342776536941528,0.04763932153582573,0.11856900900602341,0.1102304458618164,-0.1038225069642067,-0.04625488445162773,-0.06902016699314117,-0.12960480153560638,-0.07673710584640503,-0.09131554514169693,0.013869225978851318,0.013795740902423859,0.085970439016819,-0.22264248132705688,-0.022323234006762505,-0.033466972410678864,0.00019198533846065402,0.04105944558978081,-0.03302736580371857,-0.014865269884467125,0.19287146627902985,0.048244234174489975,-0.024766622111201286,0.028291547670960426,-0.0010206707520410419,-0.013551851734519005,-0.1412104219198227,-0.1251314878463745,0.05536051094532013,0.015714116394519806,-0.07079416513442993,-0.011368758976459503,-0.033923689275979996,-0.17396871745586395,0.0293356291949749,-0.007721615489572287,-0.07699268311262131,-0.058605216443538666,0.0046407305635511875,-0.10318563878536224,-0.1848939061164856,0.015887293964624405,0.05140543729066849,0.06533139944076538,-0.09202732890844345,0.1442086547613144,-0.034553371369838715,-0.03629041090607643,-0.023680763319134712,-0.07102552801370621,-0.03670160099864006,-0.014738091267645359,-0.0737321525812149,-0.07957904040813446,0.14724068343639374,0.03481120988726616,0.06137829273939133,-0.14464150369167328,0.008347160182893276,0.014024212025105953,-0.04280457645654678,0.02388421818614006,-0.17802292108535767,-0.003863937221467495,0.18127204477787018,0.09804560244083405,0.00240734638646245,-0.023106850683689117,0.0032404684461653233,-0.044164858758449554,0.03923320397734642,0.03998804837465286,-0.03147589787840843,0.027318904176354408,0.0071335830725729465,-0.03168538957834244,0.03256736695766449,-0.08141251653432846,-0.10580912977457047,0.08899741619825363,0.07109619677066803,0.18573322892189026,-0.01390225812792778,0.020828383043408394,-0.11495524644851685,0.040509939193725586,-0.11565348505973816,-0.10752470046281815,-0.0693134069442749,0.07834868133068085,-0.0010817351285368204,-0.031644415110349655,-0.010549142956733704,0.01586255431175232,0.09849288314580917,0.054346226155757904,-0.037205472588539124,0.1494387686252594,0.22237232327461243,-0.056941356509923935,-0.02677840180695057,-0.2764381766319275,0.11305569112300873,0.03127243369817734,0.013634479604661465,0.04225184768438339,-0.037710778415203094,8.860128582455218e-05,0.029722902923822403,0.06321225315332413,0.037297919392585754,0.09729210287332535,0.07899176329374313,-0.07273640483617783,-0.011059070937335491,0.04213620349764824,0.1067691221833229,0.3146825134754181}};
static const float mlp_2_weight[256][256] = {{-0.021317685022950172,0.020394090563058853,-0.003778049722313881,-0.0026889145374298096,-0.06874281913042068,0.0003612477448768914,-0.025739870965480804,-0.012569375336170197,-0.028403816744685173,0.010057893581688404,-0.0017284908099099994,-0.01837920770049095,0.014243059791624546,0.023048920556902885,0.005770820192992687,-0.019606050103902817,-0.024656008929014206,0.03959513455629349,0.02459346503019333,-0.022697381675243378,-0.033073216676712036,-0.023586096242070198,0.013942488469183445,-0.03324020281434059,0.04085861146450043,-0.14061865210533142,-0.0694783478975296,-0.0427386648952961,-0.006032922305166721,0.02713102102279663,0.015144970268011093,-0.024854693561792374,0.37962469458580017,0.00037850780063308775,0.03993765264749527,0.019616274163126945,0.1874561458826065,-0.00021454328089021146,0.01226383913308382,0.013785036280751228,0.026290811598300934,-0.026323240250349045,0.09601254761219025,0.051022812724113464,0.07741435617208481,0.016100026667118073,0.026343433186411858,-7.458587060682476e-05,0.03387533873319626,-0.00042853099876083434,0.007653478533029556,-0.03892811760306358,-0.4536620080471039,0.02014783024787903,0.0030840712133795023,0.0391935259103775,0.04120761901140213,0.10882095247507095,0.027858439832925797,-0.007674327585846186,0.006366363726556301,0.026577793061733246,-0.0811406821012497,-0.03179601952433586,-0.023553485050797462,-0.0406077578663826,0.019857721403241158,-0.0721992701292038,-0.08836264908313751,0.0011867288267239928,-7.074399763951078e-05,-0.009769669733941555,0.00043570203706622124,-0.016964707523584366,0.02859169989824295,-0.002271306235343218,0.027870696038007736,0.002938042161986232,-0.0016970501746982336,-0.005056742578744888,-0.008770907297730446,-0.00018001730495598167,-0.03465288504958153,-0.08546072989702225,-0.026969389989972115,0.08126019686460495,0.011088600382208824,-0.00021052572992630303,-0.03750080242753029,0.017152344807982445,0.02559308335185051,0.004607462789863348,-0.025976791977882385,-0.026213398203253746,0.18865099549293518,-0.03493911027908325,0.010676780715584755,-0.025343991816043854,0.0005229536909610033,-0.08038575947284698,0.005876254756003618,0.0462658554315567,0.21615853905677795,-0.04481520503759384,-0.022367125377058983,-0.07280249148607254,-0.05679388716816902,0.048231758177280426,0.017519474029541016,0.01034244429320097,0.061923157423734665,0.04115677252411842,-0.03464918211102486,-0.0028390083461999893,-0.03886554017663002,-0.0386013463139534,-1.663838338572532e-05,-0.036377374082803726,0.014834550209343433,-0.001201925682835281,-0.04437391087412834,0.006684401538223028,-0.056789372116327286,0.013157200068235397,-0.014031440950930119,0.015396852046251297,0.03328704833984375,0.023783568292856216,-0.00938504934310913,-0.008301399648189545,-0.04152597114443779,-0.00968381017446518,0.013840509578585625,-0.005725937429815531,0.03031207248568535,0.013994974084198475,-0.24255643784999847,-0.052391357719898224,-0.08076667040586472,0.006442410871386528,0.01150490716099739,0.003069173311814666,-0.001492006005719304,0.016847098246216774,0.05551774427294731,-0.01820211485028267,0.01024935394525528,0.02291864901781082,0.023825746029615402,-0.015968333929777145,0.014222566038370132,0.01067245751619339,-0.017313096672296524,0.04224088042974472,-0.008750375360250473,-0.11804686486721039,0.006224011071026325,0.020308641716837883,-0.016040053218603134,-0.00482867332175374,0.013137665577232838,-0.016257695853710175,-0.04608939215540886,-0.009997008368372917,0.005760402884334326,0.037515830248594284,0.0012715368065983057,-0.006192541215568781,-0.07973241806030273,0.0032582234125584364,0.006909376010298729,0.002797588938847184,0.010143361985683441,-0.011535371653735638,-0.035514600574970245,7.181029650382698e-05,-0.01594633236527443,0.05803930386900902,0.04380517825484276,-0.05072121322154999,-0.004483238328248262,-0.0002961326972581446,-0.037503648549318314,0.0053708734922111034,-0.004288290161639452,0.009119490161538124,0.00407753512263298,0.02310485765337944,-0.01401549857109785,0.009082065895199776,-0.02716311439871788,0.11299889534711838,-0.0060061062686145306,-0.010910200886428356,0.006133745424449444,-0.015922745689749718,-0.02519751340150833,-0.014597004279494286,-0.005694244522601366,0.008384647779166698,0.005443952511996031,-0.005305199883878231,-0.026944005861878395,-0.019529802724719048,0.004979110788553953,0.044026680290699005,-0.044364407658576965,0.009028260596096516,0.03712041303515434,-0.0376877598464489,-0.015841061249375343,-0.015141217969357967,-0.00016237341333180666,0.026182200759649277,-0.005036683287471533,0.00023367704125121236,-0.034165605902671814,0.28427374362945557,0.0007913440349511802,0.018129318952560425,-0.030710944905877113,-0.03243971988558769,0.0812898576259613,0.07065711915493011,0.012072565034031868,0.018015271052718163,-0.00043502572225406766,0.021757736802101135,0.032404329627752304,-0.0006955808494240046,0.00038139871321618557,0.10681009292602539,-0.0052194236777722836,-0.019179802387952805,0.00039840751560404897,0.009736471809446812,0.0015849880874156952,-0.011126217432320118,0.02544608898460865,0.02205532044172287,0.039555177092552185,0.04425542429089546,-0.001293623587116599,0.011912832036614418,-0.001991675468161702,0.06547696143388748,0.009373929351568222,0.015078751370310783,-0.015135811641812325,0.06087347865104675,0.021285993978381157,0.01214144378900528,-0.007315032184123993,-0.014265541918575764,-0.06082398071885109,-0.0016048032557591796},{-0.09016784280538559,-0.06351804733276367,-0.0020915339700877666,-0.021943019703030586,-0.05935802683234215,0.0012760543031618,-0.031075363978743553,0.02393648587167263,-0.07148050516843796,-0.003628976410254836,0.0010903942165896297,-0.013235583901405334,0.017170825973153114,-0.09104161709547043,-0.04555964469909668,0.01311404537409544,-0.030965415760874748,-0.021278807893395424,0.1179538369178772,0.07223691046237946,-0.03421957045793533,0.03685625642538071,0.008338822983205318,-0.00803238246589899,0.021375412121415138,-0.025699462741613388,-0.03150247409939766,-0.02332822047173977,0.01312943734228611,0.05614100769162178,0.0017074180068448186,0.0034545916132628918,-0.09729935973882675,-0.0012524599442258477,-0.06876391172409058,0.09853717684745789,0.1029757484793663,-0.010962039232254028,-0.009608279913663864,-0.01789356954395771,-0.16888527572155,-0.06333668529987335,0.1415320336818695,0.23532073199748993,-0.11922898888587952,-0.009662196040153503,-0.011085240170359612,0.009887287393212318,0.014702376909554005,-0.010016041807830334,-0.00817955657839775,-0.034934159368276596,0.05167778581380844,0.003485494526103139,-0.05325492098927498,0.032648660242557526,-0.07593467086553574,0.031423456966876984,0.06907837837934494,-0.031071290373802185,-0.11225203424692154,0.0196077823638916,0.0918525904417038,0.2906341850757599,-0.03706887364387512,-0.0115613779053092,0.0008643981418572366,-0.04023195430636406,-0.0560079850256443,0.06741537898778915,0.022196896374225616,-0.018035711720585823,0.0014123148284852505,-0.04756181687116623,-0.0001401651097694412,0.012470580637454987,-0.00026832500589080155,0.01913558878004551,0.0013797510182484984,0.050738606601953506,-0.028525568544864655,0.0008936958620324731,-0.1351865828037262,-0.14254659414291382,0.019950024783611298,0.1105080246925354,0.022189658135175705,-0.006753996945917606,0.0011419146321713924,0.02056976780295372,-0.017042603343725204,0.037892259657382965,0.002009808784350753,-0.016000298783183098,0.11873190104961395,-0.05651247128844261,0.012617595493793488,-0.0594668872654438,0.010657304897904396,-0.003971571568399668,0.007024495862424374,-0.006753013469278812,0.37258362770080566,0.02182259038090706,-0.023358529433608055,-0.01607269048690796,-0.031841155141592026,-0.02270057424902916,0.022544139996170998,-0.03613326698541641,0.018834011629223824,0.10175438970327377,-0.05053742229938507,0.005627110134810209,-0.03812876716256142,-0.013294992037117481,0.0020755878649652004,-0.0572693906724453,-0.008124207146465778,-0.06380162388086319,-0.023856762796640396,0.014288836158812046,-0.024936368688941002,-0.005396812688559294,-0.01597195863723755,-0.003517077537253499,0.037220679223537445,-0.17173580825328827,0.023874590173363686,-0.01219139527529478,-0.008911539800465107,-0.0029306074138730764,0.007158020976930857,-0.003108762204647064,0.0445396713912487,0.0006227778503671288,0.07851976901292801,-0.03908732160925865,-0.06799612939357758,-0.0008859413210302591,0.003920769784599543,0.010711818002164364,0.001345242140814662,0.07588779181241989,0.06399017572402954,-0.0009484515176154673,-0.006888182833790779,-0.02335180900990963,0.011781170032918453,-0.011535437777638435,0.019471675157546997,0.05037734657526016,0.01368730515241623,0.02057410404086113,-0.023365065455436707,-0.13449926674365997,0.010372220538556576,0.08078201860189438,0.0242762453854084,-0.018807686865329742,0.007184902206063271,-0.03065502643585205,-0.02666708454489708,0.01800435781478882,-0.017473367974162102,0.0010432808194309473,0.015028798952698708,0.00958538893610239,-0.0656110942363739,-0.004737531766295433,0.013382097706198692,-1.3966333426651545e-05,0.028905263170599937,-0.006189083214849234,-0.04058336839079857,0.0007802585023455322,-0.07576635479927063,0.14056356251239777,0.014199703931808472,-0.12182414531707764,-0.0005439217202365398,-0.00032542741973884404,-0.03782240301370621,0.008204726502299309,-0.009588361717760563,-0.003397528547793627,0.0017542938003316522,0.024120667949318886,0.024712828919291496,0.031077638268470764,0.08140385895967484,-0.1176924854516983,0.0010285077150911093,0.12616387009620667,-0.03447224199771881,0.025685591623187065,0.005917553324252367,-0.012971481308341026,0.00955287180840969,-0.06857744604349136,0.04059835895895958,0.021419718861579895,-0.06314089149236679,-0.00952707976102829,0.008303686045110226,0.02688264660537243,0.011354194022715092,0.003171128686517477,0.053375743329524994,-0.013867362402379513,-0.015374918468296528,0.010297701694071293,0.00015188328688964248,-0.006264079827815294,0.02818535640835762,-1.074454758054344e-05,-0.03993333503603935,-0.003921711351722479,0.04129577800631523,0.04403882473707199,-0.020446188747882843,-0.032398808747529984,0.09139610826969147,0.12169213593006134,0.06532344222068787,-0.03701219707727432,-0.010461477562785149,-0.013662878423929214,0.05020797252655029,-0.0009644912788644433,-0.015863943845033646,-0.19474266469478607,0.00845221895724535,-0.02634711004793644,-0.03773563355207443,0.010589874349534512,-0.009021039120852947,0.02094518579542637,0.01767430081963539,0.023163724690675735,0.03348476439714432,0.11703380942344666,-0.006299628876149654,-0.05447623133659363,-0.00428081164136529,0.05613620951771736,0.025189705193042755,-0.013251975178718567,0.005199562292546034,0.103770911693573,0.040609609335660934,0.02510998025536537,0.014044470153748989,-0.009254343807697296,-0.18799856305122375,-0.012533847242593765},{-0.04458754509687424,-0.027702027931809425,-0.005462720990180969,-0.03366882726550102,-0.034273408353328705,0.0003194578748662025,-0.018377529457211494,0.06783296167850494,-0.08900588750839233,6.949456292204559e-05,-0.0055319927632808685,0.0057218195870518684,-0.04774518683552742,-0.05091174319386482,0.013593166135251522,-0.01872006431221962,-0.04603838548064232,0.03806347772479057,0.17523156106472015,0.05038177967071533,-0.004385448060929775,-0.017883798107504845,-0.003020730335265398,-0.040109001100063324,-0.01852523908019066,0.09441564977169037,0.043895937502384186,0.013437097892165184,-0.006909502670168877,0.037069980055093765,0.051894329488277435,0.0005353705491870642,0.04850126802921295,-0.003074811538681388,0.006528226193040609,0.11094189435243607,0.009144819341599941,-0.022556396201252937,-0.01986854523420334,-0.04034314677119255,0.0004964391700923443,-0.018780827522277832,0.03643862158060074,0.22479508817195892,-0.07184433192014694,0.03473585471510887,-0.008302758447825909,-0.007166287396103144,-0.012744327075779438,-0.0031680306419730186,-0.019859174266457558,-0.04190618917346001,0.022166766226291656,0.016987483948469162,-0.021881746128201485,0.1308402568101883,-0.3042346239089966,-0.18024462461471558,-0.004608860705047846,-0.008521868847310543,-0.0655641257762909,0.03203720971941948,-0.020312665030360222,0.13124357163906097,0.008133232593536377,-0.05590199679136276,0.03638302534818649,0.03733934834599495,0.07075987011194229,0.018965963274240494,0.02967139147222042,-0.00618385337293148,-0.002929964568465948,-0.02229713834822178,-0.014425348490476608,-0.03187688812613487,0.004315325058996677,-0.012428220361471176,-0.0192191693931818,-0.016408292576670647,-0.02164090983569622,0.005496907979249954,-0.05864718556404114,0.04226034879684448,-0.03407911956310272,-0.008335385471582413,-0.009068800136446953,0.0694555789232254,-0.020469924435019493,-0.023211130872368813,-3.939848829759285e-05,0.035533495247364044,0.02128756418824196,0.03130634129047394,0.03321411833167076,-0.01574704237282276,-0.019366933032870293,-0.10776727646589279,-0.001076278043910861,0.024683989584445953,0.0002168936625821516,-0.2605782449245453,0.1561586558818817,-0.09090351313352585,-0.030614929273724556,0.015862982720136642,-0.012071632780134678,0.0033313992898911238,-0.02294657565653324,-0.020654946565628052,-0.0037167021073400974,0.10423319786787033,-0.05927332118153572,-0.004706520587205887,-0.02391790971159935,-0.019632983952760696,0.005303682293742895,-0.07936213910579681,-0.009450194425880909,-0.08862877637147903,0.012748753651976585,0.004076183307915926,-0.01740132085978985,-0.002031882992014289,-0.01795010082423687,0.013580579310655594,-0.042176298797130585,0.058985769748687744,0.015751004219055176,-0.007911964319646358,0.0035959065426141024,-0.009731578640639782,0.003586994018405676,0.002833210863173008,0.006575307808816433,0.009173592552542686,-0.004386330954730511,-0.0668468251824379,-0.029499538242816925,-0.013226580806076527,-0.0256328321993351,0.013811774551868439,-0.003640152746811509,0.06898436695337296,0.01622077263891697,0.0021356979850679636,-0.0018365983851253986,-0.029314812272787094,0.04418669268488884,0.01202915795147419,0.021701524034142494,0.04044903442263603,-0.017597757279872894,-0.007311937399208546,-0.026189515367150307,0.2932807207107544,-0.025234848260879517,0.04998543858528137,-0.015712836757302284,0.024591997265815735,-0.030577048659324646,-0.001957078231498599,-0.021381856873631477,-0.017674261704087257,0.03331410139799118,0.03744138777256012,-0.009520546533167362,-0.0008782703662291169,0.2312733680009842,0.017143653705716133,0.03131420165300369,0.013601184822618961,0.025776412338018417,0.0020206125918775797,-0.016758399084210396,-0.0003593423462007195,-0.10592655837535858,-0.021804407238960266,0.0334751158952713,0.009221803396940231,-0.0053739952854812145,0.0002072891074931249,0.02122766710817814,-0.006090591195970774,0.01114225760102272,-0.05865466222167015,0.02640238218009472,-0.013770196586847305,0.004262522328644991,0.04103534668684006,0.022280294448137283,-0.11402153968811035,-0.016603494063019753,-0.02350733056664467,0.029880894348025322,0.022627539932727814,-0.008391298353672028,0.01236660685390234,0.012655914761126041,0.04355725273489952,0.05255049467086792,0.0024153990671038628,0.0064422618597745895,-0.008794453926384449,0.013041263446211815,-0.03618891164660454,0.00147214625030756,-0.038018256425857544,-0.005693413782864809,-0.03234810382127762,-0.03157202526926994,-0.04738879203796387,-0.0012687278212979436,0.016465093940496445,-0.01320616714656353,-5.349305865820497e-05,-0.12189790606498718,0.01185010839253664,0.011798861436545849,0.00216852524317801,-0.0412607342004776,-0.026013584807515144,0.03581416234374046,-0.37842464447021484,0.020552899688482285,-0.014923397451639175,0.00022732929210178554,0.02084604650735855,0.0280742309987545,-0.0023374531883746386,-0.017301328480243683,-0.02800716646015644,0.004045771900564432,0.021474450826644897,-0.03902041167020798,0.0007658060640096664,0.0035724490880966187,-0.011811084114015102,-0.006698973942548037,0.033598098903894424,-0.0005799285718239844,-0.02219482697546482,0.003920120652765036,-0.016472015529870987,-0.005050117615610361,-0.0831485167145729,0.00939194392412901,-0.02137780748307705,0.0030753118917346,0.15672479569911957,-0.009799598716199398,-0.008624113164842129,0.016566498205065727,0.003132208716124296,0.0835181474685669,-0.00019367027562111616},{-0.008585910312831402,0.07728569954633713,0.019314540550112724,0.019458940252661705,-0.052993666380643845,-0.0011488825548440218,-0.03956809639930725,-0.04191521555185318,0.013588530011475086,-0.005357292480766773,-0.025384746491909027,0.043329350650310516,-0.0019178712973371148,0.003763574408367276,0.0032150724437087774,0.00622441153973341,-0.023780597373843193,0.043212443590164185,-0.04272913187742233,-0.02929169312119484,-0.042726755142211914,0.02510782703757286,-0.014948608353734016,0.04463079571723938,-0.04210522025823593,0.0033660484477877617,0.010225898586213589,-0.0220206156373024,0.03569180518388748,-0.033379655331373215,0.06615105271339417,-0.011035607196390629,-0.02299286052584648,0.012611419893801212,-0.003105281386524439,-0.03546403348445892,0.04155237600207329,0.015107113867998123,-0.029051754623651505,0.046092964708805084,0.044576603919267654,0.048236533999443054,0.00253207515925169,-0.08931998908519745,-0.019534168764948845,-0.03141023591160774,-0.002343969652429223,-0.0364021435379982,0.03789396211504936,-0.019230196252465248,0.022000720724463463,-0.007701566442847252,-0.03764602541923523,0.0011378859635442495,-0.031410880386829376,0.043769869953393936,0.06733427196741104,-0.03706816956400871,0.013295391574501991,-0.05355671048164368,0.02415582537651062,0.009572107344865799,-0.011010034009814262,-0.028627071529626846,-0.01772800274193287,0.03342742100358009,0.0032060330267995596,0.04214513301849365,-0.01754595711827278,0.039482589811086655,0.0412278026342392,0.014454961754381657,0.003166633890941739,0.02662748284637928,-0.03445618972182274,-0.030381668359041214,-0.02847815677523613,-0.043403126299381256,0.028482668101787567,0.05200079455971718,0.016849154606461525,0.027486195787787437,-0.03277687355875969,0.02643199823796749,-0.029046542942523956,0.0229188259691,-0.01240217313170433,-0.01868915744125843,-0.04254671186208725,-0.016576431691646576,-0.0320911779999733,0.03435549512505531,-0.04536332190036774,-0.03858853504061699,-0.04522503539919853,-0.01999160274863243,-0.027719425037503242,-0.024177996441721916,-0.043378688395023346,-0.005465932190418243,-0.0048857261426746845,0.07021971046924591,-0.05877180024981499,-0.0419132336974144,-0.04593547061085701,0.025263458490371704,-0.03424530848860741,0.010723680257797241,-0.0010098221246153116,-0.0035048420540988445,-0.012949748896062374,0.020972710102796555,0.0037046102806925774,0.019729498773813248,-0.043640121817588806,-0.05172155052423477,-0.004463573917746544,-0.04475480690598488,0.023350225761532784,-0.03776517137885094,-0.026577191427350044,0.05175566300749779,-0.04870666190981865,-0.04714425280690193,0.008180415257811546,-0.038308802992105484,0.019120069220662117,0.09214882552623749,0.021682951599359512,-0.024833019822835922,0.03251507133245468,-0.023711832240223885,0.02594570256769657,-0.03693024441599846,0.035475652664899826,0.015744881704449654,-0.08400340378284454,-0.009979763068258762,0.018355991691350937,0.03204931318759918,-0.03955846279859543,0.01023896411061287,-0.006154346279799938,-0.006218987517058849,-0.0316690132021904,-0.03412386402487755,-0.01790747232735157,0.02384108491241932,0.042332157492637634,-0.040303103625774384,-0.060720834881067276,0.04072250798344612,-0.025615068152546883,0.024863557890057564,0.026033462956547737,0.0819115936756134,0.021578291431069374,0.01344134472310543,0.005961060058325529,0.037334468215703964,0.03934136778116226,-0.01692790724337101,-0.007641995325684547,-0.0396462082862854,0.03962419554591179,-0.027262456715106964,-0.03672580420970917,-0.03691845387220383,0.05024236440658569,-0.022126028314232826,-0.026478424668312073,-0.029828263446688652,-0.016765573993325233,0.021149035543203354,0.02745518460869789,-0.0012928963406011462,0.02586507983505726,-0.04084773734211922,0.03184220567345619,0.03679323568940163,-0.013755491934716702,0.0236210860311985,-0.02891034446656704,-0.0046117291785776615,0.015350135043263435,-0.03522151708602905,-0.05109255015850067,0.03382539004087448,-0.024195192381739616,0.00020186077745165676,-0.04790554940700531,0.07735071331262589,0.01634066365659237,-0.07455938309431076,0.02629353664815426,0.03663283959031105,-0.02296731062233448,0.03971868008375168,-0.0028466933872550726,0.033543799072504044,0.03879338875412941,-0.0001563357509439811,0.04327671602368355,-0.008829308673739433,-0.0009688938735052943,0.04663873836398125,-0.010986624285578728,0.04486663267016411,0.015042734332382679,0.039873022586107254,-0.03784964606165886,0.040631964802742004,-0.007987313903868198,-0.020649081096053123,-0.040573637932538986,-0.0015552332624793053,0.05417509004473686,0.0025204310659319162,0.053256116807460785,0.011907540261745453,-0.04582954943180084,-0.025032583624124527,-0.013884933665394783,-0.07615961134433746,-0.00716316606849432,0.0569605827331543,-0.034820556640625,0.03570675849914551,0.05930064246058464,0.017324330285191536,-0.016998590901494026,0.060284461826086044,-0.03465152159333229,0.018600638955831528,-0.03688355162739754,0.004307876341044903,-0.046539079397916794,-0.05189305543899536,-0.029102284461259842,0.015995165333151817,0.053466781973838806,-0.029746700078248978,-0.018631398677825928,-0.0069439043290913105,0.004285043571144342,-0.04404712840914726,0.050502099096775055,-0.04125944525003433,-0.015064342878758907,-0.06735607981681824,-0.03265434876084328,-0.01042376458644867,0.004431300330907106,0.018874051049351692,0.035278208553791046,-0.028008706867694855},{-0.07939141988754272,-0.019970735535025597,-0.013586106710135937,-0.013557196594774723,-0.003390793688595295,0.0004931872244924307,0.016890589147806168,-0.0022130776196718216,-0.03498426824808121,0.02527577057480812,0.005172116681933403,-0.016599075868725777,0.03855111077427864,0.010638155974447727,0.0037168143317103386,0.01332148164510727,0.007960091345012188,0.04721326008439064,0.09230415523052216,0.014737161807715893,-0.030778972432017326,-0.02589707262814045,-0.007519444450736046,-0.02930501475930214,0.0864303708076477,-0.029223106801509857,-0.02785077877342701,0.024424759671092033,0.012361923232674599,0.02561323530972004,-0.0431850329041481,0.004240457434207201,0.17118747532367706,0.002212634775787592,0.011489843018352985,0.0714154988527298,0.00645263958722353,-0.0264362171292305,-0.02241719700396061,-0.009261119179427624,-0.01939072646200657,-0.06208193302154541,0.01237710751593113,0.07747851312160492,-0.07316059619188309,0.031811486929655075,0.033341653645038605,0.022312337532639503,0.04718419909477234,0.007588693406432867,-0.011554760858416557,0.010047301650047302,-0.25139376521110535,-0.011853533796966076,-0.09389430284500122,-0.04767502471804619,-0.14187800884246826,0.07140646874904633,0.00589819485321641,0.028752168640494347,-0.020992984995245934,-0.0035833469592034817,-0.06944002956151962,0.15173882246017456,-0.004591386299580336,-0.07219448685646057,-0.026678118854761124,-0.02940799854695797,-0.04973220452666283,-0.0013322815066203475,0.008598299697041512,-0.023760955780744553,0.018898509442806244,-0.01896589994430542,0.0003294716589152813,0.04169946536421776,0.13091325759887695,0.0033360731322318316,-0.006473582703620195,-0.011746948584914207,0.025254620239138603,-0.00801477674394846,0.08097835630178452,0.061144858598709106,-0.014310714788734913,0.025391219183802605,-0.003119582077488303,0.01795795187354088,-0.03689809888601303,0.03157617896795273,0.01387717667967081,0.05320023372769356,-0.0024937549605965614,0.006630335468798876,0.09031426161527634,0.026308469474315643,0.009855433367192745,-0.1171209067106247,0.0023865688126534224,-0.009308484382927418,0.0056897676549851894,-0.017038224264979362,0.24292464554309845,0.052417922765016556,0.013017477467656136,-0.011794950813055038,0.017495471984148026,0.001247543259523809,0.012353240512311459,-0.0022206255234777927,0.06430553644895554,0.07911428809165955,-0.07355279475450516,0.009641981683671474,-0.011715824715793133,0.044064272195100784,0.000592085241805762,0.009965895675122738,0.05640760064125061,-0.0348026379942894,-0.006794663146138191,-0.013819849118590355,0.018202396109700203,0.00207022437825799,0.0008515698718838394,-0.019924797117710114,0.028358468785881996,0.01195537019520998,0.011766715906560421,-0.0024386763107031584,-0.02933618053793907,0.0028990001883357763,-0.045184988528490067,-0.00956372544169426,0.07004562020301819,0.00024281484365928918,-0.21954669058322906,0.006647500675171614,-0.0012128205271437764,0.032120171934366226,0.002456687856465578,0.00661944504827261,-0.0028101543430238962,0.035108473151922226,0.0234086737036705,-0.030135884881019592,0.0210199486464262,0.0047615645453333855,0.033808182924985886,-0.01738240197300911,0.08452866226434708,0.00940177496522665,-0.005405333824455738,0.05158359929919243,-0.007512910757213831,-0.023488955572247505,0.010122815147042274,0.09221024811267853,0.017357967793941498,-0.006154043134301901,0.02206128090620041,-0.004556521773338318,0.014098359271883965,-0.0038547609001398087,0.03574206680059433,0.05647080019116402,0.0010862137423828244,0.007608078420162201,-0.11688324809074402,-0.017413008958101273,-0.015082290396094322,0.011329864151775837,0.025668855756521225,0.005732948426157236,-0.0503765232861042,0.00020804272207897156,-0.10225753486156464,0.018227923661470413,0.028619766235351562,0.020199840888381004,-0.008273609913885593,-0.006509463302791119,0.03399066999554634,0.009041343815624714,-0.01840556226670742,-0.0013978539500385523,0.06683722883462906,-0.009700567461550236,0.04891342297196388,0.01311638206243515,0.030718006193637848,-0.17765891551971436,0.009130425751209259,0.007883341982960701,-0.039433062076568604,0.007816437631845474,-0.02949037216603756,0.0179789736866951,-0.0029125865548849106,0.01397619117051363,0.0415663979947567,-0.030139893293380737,0.004659915808588266,-0.0012998796300962567,-0.007827341556549072,-0.02611667849123478,0.0068166484124958515,-0.008062362670898438,0.0286326352506876,0.006750256288796663,0.004351818468421698,-0.022039152681827545,6.38899437035434e-05,0.04623350873589516,-0.005578448995947838,3.707721407408826e-05,-0.10061471909284592,0.12112735956907272,-0.011109057813882828,0.008827747777104378,-0.01850738190114498,-0.059911083430051804,0.057980023324489594,-0.12117278575897217,-0.02617700584232807,-0.01569991745054722,-0.019354773685336113,0.020526306703686714,-0.024249453097581863,-0.004599638283252716,-0.0016382966423407197,0.06947612762451172,-0.02192067541182041,-0.001535068149678409,-0.027500348165631294,0.03178314492106438,-0.0027954322285950184,0.022587142884731293,0.025391357019543648,0.05583629384636879,0.0038203310687094927,0.041406650096178055,-0.013626637868583202,-0.05869989097118378,0.004047579597681761,-0.020852843299508095,-0.0094843665137887,0.019268997013568878,-0.010578521527349949,0.09280791133642197,-0.0122821731492877,-0.008701073937118053,0.0007717269472777843,-0.0002609346993267536,-0.008733813650906086,0.01805776171386242},{0.05945368483662605,-0.06303119659423828,0.0041653127409517765,0.016059085726737976,0.03959853574633598,0.00039339528302662075,0.026887647807598114,-0.02152063325047493,0.03135082498192787,-0.0016687032766640186,0.00391920143738389,0.014200340025126934,-0.006479058880358934,0.024615755304694176,0.027212977409362793,0.0022437656298279762,0.032453298568725586,0.012312241829931736,-0.007651880849152803,0.04732972010970116,0.002571091055870056,0.03038632497191429,-0.004066880792379379,0.007811389863491058,-0.06949704885482788,0.018308380618691444,0.03145332261919975,0.018780982121825218,-0.022417588159441948,-0.04039299860596657,-0.06666239351034164,0.007380393799394369,-0.15831947326660156,-0.0006355339428409934,-0.055243950337171555,-0.08465734869241714,-0.005817428696900606,0.0325891338288784,-0.009720353409647942,0.020253285765647888,-0.14171379804611206,-0.02404075674712658,-0.013434751890599728,0.23615071177482605,-0.026678036898374557,-0.05107741430401802,-0.01735243760049343,-0.0039008294697850943,-0.03791632875800133,0.0005664609489031136,0.009173712693154812,0.02611701935529709,0.2309635728597641,0.0017989730695262551,0.0379706434905529,-0.07230010628700256,-0.06905846297740936,-0.0509316585958004,-0.031634315848350525,-0.003921898081898689,0.02464359812438488,-0.026176102459430695,-0.0010265205055475235,-0.030935432761907578,0.04306226596236229,5.377936759032309e-05,-0.007218062877655029,0.03389966860413551,0.046617768704891205,-0.015118126757442951,0.01982235722243786,0.01880732923746109,0.025094561278820038,0.002561739180237055,-0.020561881363391876,-0.01285263616591692,-0.008120053447782993,0.011484340764582157,-0.009493203833699226,-0.005232253111898899,0.007408816367387772,-0.006074346601963043,0.1298527717590332,0.1275501847267151,-0.0048600793816149235,-0.07692136615514755,-0.004025964066386223,-0.029521530494093895,-0.011687221005558968,0.00015304677071981132,-0.010050333105027676,-0.013899041339755058,0.03817206621170044,-0.008328082971274853,-0.11370108276605606,0.03408537060022354,-0.011808515526354313,0.044997867196798325,-0.0063091665506362915,0.03483577072620392,-0.005009177606552839,0.019298626109957695,-0.10406316071748734,0.06471019238233566,-0.0023481056559830904,0.05100829899311066,0.040182240307331085,-0.021324189379811287,-0.009124132804572582,-0.006508055608719587,-0.09323778748512268,-0.034444380551576614,-0.014371992088854313,-0.0037067707162350416,0.04416485130786896,0.06569121032953262,-0.001402402645908296,-0.01779613457620144,-0.05189735069870949,0.010557171888649464,-0.0037325334269553423,0.010593714192509651,0.011060214601457119,0.011336980387568474,0.009438332170248032,-0.003721156157553196,-0.043701983988285065,-0.12685514986515045,-0.04357083886861801,0.010812904685735703,0.004107596818357706,0.0018354635685682297,0.013680082745850086,0.008792604319751263,-0.0191276203840971,-0.012270075269043446,0.18385998904705048,-0.004196775145828724,0.08496391773223877,-0.04416637495160103,0.005072352010756731,-0.003558484837412834,-0.0010651979828253388,-0.04825277253985405,-0.006490444764494896,0.00838842336088419,-0.015527204610407352,-0.02052273228764534,-0.023482082411646843,0.01400626078248024,-0.05529884248971939,-0.02227707952260971,0.010471876710653305,-0.048624418675899506,-0.025491289794445038,0.16233430802822113,0.0036806415300816298,-0.029752284288406372,0.002185683697462082,0.00783766433596611,-0.0023557301610708237,0.012965906411409378,0.017127258703112602,-0.00503937155008316,-0.01954982429742813,-0.0198524072766304,-0.016130292788147926,-0.005674256011843681,0.03273952007293701,0.0031741082202643156,-0.0027148257941007614,-0.0035151278134435415,-0.0033676910679787397,0.001401526853442192,0.028186645358800888,0.00028904099599458277,0.06973911821842194,-0.04993141070008278,-0.012380924075841904,0.07746026664972305,0.009907961823046207,-0.002420275704935193,0.024122731760144234,-0.0029197349213063717,-0.004556358326226473,-0.007464708294719458,-0.03636172041296959,0.004895362537354231,-0.04238259419798851,-0.007137772627174854,0.08187621086835861,-0.10627961158752441,0.000621359096840024,0.1048145741224289,-0.02302609197795391,-0.0485466830432415,0.0067535885609686375,0.0073358225636184216,0.00030461428104899824,0.02212502248585224,-0.051430005580186844,-0.016131017357110977,0.017653601244091988,0.004085229244083166,0.025291064754128456,-0.03456909582018852,0.006508833263069391,0.002424272708594799,-0.023511668667197227,-0.01708781160414219,-0.0051496597006917,0.005951256956905127,-5.3246079914970323e-05,0.003656174289062619,-0.01966959238052368,-0.00022026542865205556,0.06273753941059113,-0.13188998401165009,-0.014757126569747925,-0.005202961154282093,0.026922982186079025,-0.009589548222720623,-0.04212571680545807,-0.09958602488040924,-0.036555953323841095,-0.05046052113175392,-0.018384084105491638,-0.0003863435995299369,-0.045518048107624054,0.001787640037946403,-0.011839739046990871,-0.028893688693642616,0.02018529176712036,0.054298337548971176,0.049145590513944626,0.006153813097625971,-0.0014626762131229043,0.005328081082552671,-0.02348502352833748,0.0015887098852545023,-0.032832108438014984,-0.026695551350712776,0.01404474675655365,0.04116497561335564,0.0006012592930346727,0.013587464578449726,0.004345446825027466,-0.0018988691736012697,0.024697963148355484,-0.0715654119849205,-0.005593510344624519,-0.00885496474802494,-0.0014549619518220425,0.012629196979105473,0.10743631422519684,-0.0031793818343430758},{-0.009701110422611237,0.041481342166662216,0.009119119495153427,0.0013403788907453418,0.04654311016201973,0.005216553341597319,-0.03683701530098915,-0.012902750633656979,-0.06401576101779938,-0.0503605417907238,0.009375171735882759,-0.009110436774790287,-0.032998234033584595,0.016344266012310982,-0.01328895054757595,-0.014330901205539703,-0.05825376138091087,0.04071841388940811,-0.04217451065778732,-0.04770242050290108,0.011377840302884579,0.03573622554540634,0.02791679836809635,0.043819740414619446,0.01688656397163868,0.005028618033975363,0.049553919583559036,-0.026397457346320152,0.03220352530479431,-0.02464296855032444,0.06264910101890564,-0.02291577123105526,0.025879180058836937,-0.019626691937446594,0.08669289946556091,0.018536914139986038,0.034648556262254715,-0.01030388381332159,0.05044202879071236,-0.013872453942894936,0.097430519759655,0.007638122420758009,0.055849745869636536,-0.1274072527885437,-0.02008376084268093,-0.028284817934036255,0.02408255822956562,-0.0013062151847407222,0.017271870747208595,-0.055711254477500916,-0.01441219076514244,0.027683740481734276,-0.10526779294013977,0.009358429349958897,-0.004023176617920399,0.07358089089393616,0.03625421226024628,0.022444410249590874,0.05396737903356552,0.005145402159541845,0.04375746473670006,0.0487220399081707,0.02177244797348976,-0.011555459350347519,0.03875340148806572,-0.0027277623303234577,0.04792878031730652,0.016422348096966743,0.0290536992251873,0.03431329503655434,0.00266881356947124,0.013493109494447708,-0.012055727653205395,0.022385409101843834,-0.024437325075268745,-0.02286664955317974,-0.022704483941197395,-0.0017109023174270988,-0.02872835099697113,-0.013119900599122047,0.014991376549005508,-0.015172041021287441,-0.0996941328048706,0.016591258347034454,-0.029470564797520638,0.04163700342178345,0.04093662649393082,0.02629953622817993,0.01831950806081295,-0.01599166914820671,0.0019168519647791982,-0.004808851983398199,0.02292523719370365,0.024029789492487907,0.06797776371240616,-0.006757932715117931,0.02568502351641655,0.03115862049162388,0.029194485396146774,0.011503711342811584,-0.00047325421473942697,-0.05522245913743973,-0.006967137102037668,-0.035934191197156906,-0.0003268429427407682,0.03366430103778839,-0.010788214392960072,-0.008449267596006393,0.0027286934200674295,0.004716097842901945,0.035016000270843506,0.021097317337989807,0.04674570634961128,-0.00851222313940525,0.0039884839206933975,-0.01483970321714878,0.018005656078457832,-0.04741748049855232,-0.027614880353212357,0.011631907895207405,-0.04902051389217377,0.03931385651230812,-0.025928493589162827,-0.00836164690554142,0.01202786061912775,0.04077237844467163,-0.019944576546549797,0.12177442759275436,-0.0064551918767392635,-0.028647858649492264,-0.043783266097307205,-0.010433661751449108,0.03439932316541672,0.030503179877996445,-0.01623806729912758,0.0007429937249980867,-0.16794192790985107,0.009420983493328094,-0.059471406042575836,-0.0032437127083539963,0.011872735805809498,-0.003844598541036248,0.012998339720070362,0.046020545065402985,-0.013803309760987759,-0.01907341554760933,0.01875443384051323,-0.015722930431365967,-0.034774746745824814,-0.014675494283437729,0.042388349771499634,0.053773123770952225,-0.0031874070409685373,-0.021914387121796608,-0.04030018672347069,0.04817065969109535,-0.04793539270758629,0.06128539890050888,-0.031224271282553673,-0.003301470773294568,-0.009910551831126213,-0.008326996117830276,0.004227813798934221,-0.037022996693849564,-0.007238768972456455,0.034688789397478104,-0.006475759670138359,0.013120944611728191,0.09387017786502838,-0.007738303858786821,0.0013792404206469655,0.014997483231127262,0.03483271226286888,-0.0022919459734112024,-0.009817362762987614,0.014816283248364925,-0.047800347208976746,0.013810480944812298,0.017139982432127,-0.01911895163357258,-0.010208914056420326,0.02588052488863468,-0.030530888587236404,-0.021173160523176193,-0.022612227126955986,0.000880642153788358,-0.03809024393558502,-0.03446143865585327,0.0030120108276605606,0.029973315075039864,-0.05412717163562775,0.0543045699596405,0.023365994915366173,-0.08512929826974869,-0.025612052530050278,-0.02694227360188961,-0.0274973064661026,0.006758223753422499,0.027652304619550705,