#include "network_evaluate.h"

static const int structure [3][2] = {{12, 256},{256, 256},{256, 2}};
static float output_0[256];
static float output_1[256];
static float output_2[2];
static const float mlp_0_weight[12][256] = {{-0.28888052701950073,0.371180921792984,0.03523542732000351,-0.04908273369073868,-0.0730275958776474,-0.2529318630695343,-0.20621734857559204,0.47025245428085327,0.061918698251247406,-0.2261098474264145,-0.05799064412713051,-0.16425737738609314,0.1085660457611084,-0.16843989491462708,0.37017983198165894,0.03293566033244133,0.05134890228509903,-0.1452721506357193,-0.2145874798297882,-0.12940414249897003,-0.19169799983501434,0.09688954055309296,0.1963006556034088,-0.11985715478658676,0.10984783619642258,-0.04250016063451767,0.2481004297733307,0.0340142697095871,-0.015946971252560616,0.24792516231536865,-0.3094313144683838,0.001011630054563284,-0.3399340510368347,-0.19247877597808838,-0.05590379610657692,0.013680065982043743,-0.3572782874107361,-0.24719266593456268,0.026715457439422607,0.019159728661179543,0.22315745055675507,-0.11785959452390671,-0.0022185808047652245,-0.04176942631602287,-0.12812407314777374,-0.09210195392370224,-0.04793019965291023,-0.12782926857471466,0.27812740206718445,-0.1376025378704071,0.20418882369995117,-0.372895747423172,0.38931864500045776,-0.012836094945669174,0.11832193285226822,-0.14850789308547974,0.3125831186771393,0.07760491967201233,0.17156600952148438,0.29263171553611755,0.03232911229133606,-0.42567509412765503,0.14730653166770935,-0.16555461287498474,-0.034723564982414246,-0.09562565386295319,-0.12764142453670502,0.0016066920943558216,-0.04360715299844742,0.22764305770397186,0.27734217047691345,-0.14050082862377167,-0.37786784768104553,-0.0723060593008995,0.4368085563182831,0.019198885187506676,-0.08615900576114655,-0.39504075050354004,0.0006061287713237107,-0.1742403507232666,0.3115953207015991,-0.006119488272815943,-0.27790939807891846,-0.19037751853466034,0.17752696573734283,-0.015170356258749962,-0.022644007578492165,-0.0334525890648365,-0.029564552009105682,0.07765498012304306,0.06346001476049423,-0.026853196322917938,0.40278327465057373,-0.23667463660240173,-0.24689199030399323,-0.2906109690666199,0.20058907568454742,0.06276313215494156,0.13703835010528564,0.16938894987106323,0.22833052277565002,0.08425718545913696,-0.022916283458471298,0.03690186142921448,0.23781245946884155,-0.08354190737009048,-0.05307798460125923,0.03790096938610077,-0.02019893191754818,0.27611619234085083,0.10643254220485687,0.05864361673593521,0.13019199669361115,-0.1603861153125763,0.09567361325025558,0.05731060728430748,0.020253947004675865,-0.01081004273146391,0.34404706954956055,-0.12954401969909668,-0.003937713801860809,-0.16212287545204163,0.2897152900695801,-0.0392274409532547,-0.0068821716122329235,0.31145551800727844,0.0309920534491539,-0.2509239614009857,0.21889829635620117,0.027821987867355347,-0.13283492624759674,-0.029717151075601578,0.10014030337333679,-0.004254573956131935,0.21732482314109802,0.42352625727653503,0.16789115965366364,-0.04715440422296524,-0.09394840151071548,-0.2573168873786926,-0.4197004437446594,-0.2057052105665207,0.10357789695262909,-0.10823491215705872,0.15190738439559937,0.24542413651943207,0.029273299500346184,-0.1874529868364334,-0.2589316964149475,-0.06433333456516266,0.01673700287938118,-0.09260352700948715,-0.05258972942829132,-0.2911747097969055,-0.2322346270084381,0.2556149363517761,0.0730544924736023,-0.27664676308631897,-0.027183420956134796,0.17792919278144836,0.024466585367918015,0.20401881635189056,-0.0912487581372261,0.12978574633598328,0.06620225310325623,-0.1576545387506485,-0.2249484360218048,0.2728557586669922,0.08005301654338837,0.1426544040441513,-0.1052694171667099,0.08239942044019699,0.005430909804999828,-0.2430914342403412,0.07079523056745529,-0.26072582602500916,-0.12283092737197876,-0.26406919956207275,0.06599469482898712,0.09204469621181488,0.23614062368869781,0.07071837037801743,-0.24995315074920654,-0.04112827777862549,0.0449490062892437,-0.04329855367541313,0.11899346858263016,0.008173668757081032,0.3093893229961395,0.040277041494846344,0.22925372421741486,0.0023503098636865616,-0.005430079530924559,0.13668310642242432,0.12535864114761353,-0.29429954290390015,0.02645796723663807,-0.07709214091300964,0.11496438086032867,0.39345917105674744,0.060606468468904495,0.18089276552200317,0.057311806827783585,-0.35326722264289856,-0.22621846199035645,-0.004855921491980553,-0.004705038387328386,0.28109583258628845,-0.22221820056438446,0.18427270650863647,-0.11725431680679321,0.10648392885923386,0.23484618961811066,0.3226146697998047,-0.2370711863040924,-0.23967061936855316,0.1332518309354782,-0.15553447604179382,0.18991269171237946,-0.10297940671443939,-0.0854891911149025,0.138856440782547,0.11002212017774582,-0.04054313525557518,0.08849696815013885,0.0016622667899355292,-0.0020169182680547237,0.03132431581616402,0.29830753803253174,-0.04494696483016014,-0.09403931349515915,-0.14500099420547485,0.13171415030956268,0.163423553109169,0.08431362360715866,0.22497916221618652,-0.21881063282489777,-0.23800751566886902,0.23919151723384857,-0.1838739514350891,-0.3578917980194092,-0.14686258137226105,0.23606282472610474,-0.04946337267756462,-0.27758774161338806,-0.03502349555492401,-0.2041119635105133,0.15677407383918762,-0.1625455915927887,0.20957577228546143,-0.22890397906303406,0.043095141649246216,0.03663131594657898,-0.06344932317733765,0.06585217267274857,0.09639470279216766},{-0.36493954062461853,-0.50005704164505,0.3861234784126282,0.3280167281627655,-0.014746077358722687,-0.16053611040115356,0.09786415845155716,-0.35725241899490356,0.27730149030685425,-0.4144834280014038,0.7364566922187805,0.11216320097446442,0.0933779701590538,-0.17039823532104492,-0.3073466718196869,-0.15144672989845276,-0.3570617437362671,0.16274653375148773,0.6075929403305054,0.3404322564601898,0.37739038467407227,-0.05753568559885025,-0.16262416541576385,-0.13739462196826935,-0.14246176183223724,0.23948326706886292,0.49210894107818604,0.2873326241970062,-0.05604837089776993,-0.15456175804138184,0.2645121216773987,0.4838217496871948,0.5898100137710571,0.14464721083641052,0.19894658029079437,0.2386177033185959,0.3015666604042053,0.20789828896522522,0.1700177639722824,-0.12281890958547592,0.26206064224243164,-0.2658131718635559,-0.06629695743322372,-0.168244406580925,0.4565510153770447,-0.10112572461366653,-0.21207131445407867,-0.6704646348953247,-0.5342249870300293,-0.2947262227535248,-0.14116895198822021,0.5098442435264587,-0.5575752258300781,-0.35455670952796936,-0.15796895325183868,0.6081270575523376,-0.3044217526912689,-0.14861911535263062,0.3037775158882141,-0.7764033079147339,0.24958685040473938,0.6909821629524231,-0.8424418568611145,0.6054589152336121,0.011375333182513714,-0.2155754119157791,-0.0371667854487896,0.3404260575771332,0.28895607590675354,0.1111421287059784,-0.5514366030693054,0.28151410818099976,-0.17191602289676666,0.6068676114082336,-0.5034759640693665,0.2395334094762802,-0.7246236801147461,0.4326387941837311,-0.03403652459383011,0.7108808159828186,0.24577954411506653,0.0071799419820308685,0.07148890942335129,-0.2206983119249344,-0.025796085596084595,0.12406384944915771,0.14894476532936096,-0.21341653168201447,-0.15225879848003387,0.5148685574531555,0.3569324016571045,-0.8553622364997864,-0.557188093662262,-0.12257834523916245,0.29474249482154846,-0.028363965451717377,-0.4433310627937317,-0.06834450364112854,0.35984641313552856,-0.3663569986820221,-0.4405249059200287,-0.013576287776231766,0.23848006129264832,-0.37061333656311035,-0.4677787721157074,0.2843303680419922,0.03372810035943985,0.4499278664588928,-0.26243969798088074,-0.11498293280601501,-0.1068747267127037,-0.3613225817680359,-0.307563453912735,0.4573647379875183,0.17611287534236908,0.7637152075767517,1.1387660503387451,-0.11806651949882507,-0.19455885887145996,0.0029682929161936045,0.8669556379318237,0.1457626074552536,-0.055456824600696564,0.2292330414056778,0.025201503187417984,0.1496094912290573,-0.35163822770118713,-0.09454958140850067,0.4480736553668976,0.20443673431873322,-0.4838741719722748,-0.16838325560092926,-0.3413996994495392,0.02200697548687458,-0.05335250496864319,-0.21283821761608124,-0.0031769326888024807,0.605794370174408,0.28221234679222107,0.24151265621185303,-0.014359337277710438,-0.3825576603412628,0.44488266110420227,0.030824780464172363,-0.1690247803926468,0.15738807618618011,-0.6503387689590454,0.11599336564540863,-0.42964237928390503,-0.023053955286741257,-0.40590110421180725,-0.12160127609968185,0.37086352705955505,-0.38810741901397705,0.3641943335533142,-0.7064333558082581,0.35274070501327515,0.27986472845077515,0.5024756193161011,-0.08097844570875168,0.13769792020320892,0.393691748380661,-0.6275897026062012,-0.23491720855236053,0.6461904644966125,-0.5968718528747559,0.31729018688201904,-0.9971764087677002,-0.036090604960918427,0.11297623813152313,0.30848586559295654,-0.286580890417099,-0.1547759473323822,-0.29773804545402527,0.4516727030277252,-0.1234450489282608,0.3203897178173065,0.21420013904571533,0.585282564163208,0.13616639375686646,0.3436785936355591,0.6940214037895203,0.06787960231304169,0.10703039169311523,-0.3267645537853241,0.4132118821144104,-0.06066790968179703,0.008599497377872467,-0.47826504707336426,0.12026239186525345,0.1342153251171112,-0.5366649627685547,0.027842668816447258,-0.19872057437896729,0.4059547483921051,-0.14187093079090118,0.006964163854718208,0.31646448373794556,0.09366220235824585,0.06272457540035248,0.004732215311378241,0.4497329592704773,0.5110015273094177,0.16909103095531464,-0.2992004156112671,-0.09982626140117645,-0.4132421910762787,-0.39071375131607056,0.0482155866920948,0.22292961180210114,-0.42680129408836365,-0.4544145166873932,-0.4316132664680481,0.18425123393535614,0.15029290318489075,-0.4059091806411743,0.3538832664489746,-0.2451837658882141,-0.14041142165660858,-0.1426091343164444,-0.08800283819437027,0.16006746888160706,0.45450425148010254,0.47796905040740967,-0.6824368238449097,0.23450876772403717,-0.37660539150238037,-0.5583091974258423,-0.3201763331890106,-0.3705836534500122,-0.22144684195518494,0.19859512150287628,0.30665624141693115,0.4116269648075104,0.07461273670196533,0.36878064274787903,-0.1763545274734497,-0.06532659381628036,-0.43710780143737793,-0.2207554280757904,0.14276891946792603,0.2673177719116211,-0.4128248691558838,-0.6368923783302307,-0.3074210286140442,0.3243492841720581,0.6484097242355347,-0.5512616634368896,-0.17925912141799927,-0.7670690417289734,0.10112226754426956,0.2610340416431427,0.5130333304405212,-0.05866550654172897,0.4327324628829956,-0.33488860726356506},{0.21537749469280243,-0.03838440030813217,0.4343268871307373,-0.24733313918113708,-0.3072330057621002,-0.09047476202249527,-0.07887236028909683,-0.12164808809757233,-0.22079125046730042,0.15105397999286652,-0.5938754677772522,-0.10383616387844086,-0.237900048494339,-0.2875466048717499,-0.1812867522239685,-0.42795827984809875,-0.37606215476989746,-0.06138114631175995,0.19197818636894226,-0.05725280940532684,-0.11818557232618332,0.37611472606658936,-0.1256101131439209,-0.05019500106573105,0.0602644644677639,-0.04528209939599037,-0.2722660005092621,-0.6160911321640015,-0.17777836322784424,0.12679627537727356,-0.11286909133195877,-0.026505963876843452,0.27049094438552856,0.35798025131225586,0.13371583819389343,0.2675904333591461,0.08389122039079666,0.1048245057463646,0.326333612203598,0.15048547089099884,-0.02547607012093067,0.48705899715423584,-0.2223602533340454,-0.07387810945510864,0.3672805726528168,-0.7938305735588074,0.5960701704025269,0.20609942078590393,0.10842468589544296,-0.42184701561927795,-0.37876760959625244,-0.17436382174491882,-0.1077905148267746,-0.5897940397262573,-1.0123186111450195,0.17245760560035706,-0.16883940994739532,0.2774330973625183,0.31757083535194397,0.09778781980276108,-0.24935674667358398,0.24513079226016998,-0.01657932996749878,-0.010134334675967693,0.60796719789505,0.30475401878356934,-0.1169385239481926,0.6064016819000244,0.026733696460723877,0.017366822808980942,-0.08061391860246658,0.757854163646698,-0.12989072501659393,0.08517114818096161,-0.19994178414344788,-0.5739480257034302,-0.4857064187526703,-0.04445945471525192,-0.2207261323928833,-0.40095698833465576,-0.2572004497051239,0.25438761711120605,0.0010701968567445874,-0.09791313856840134,-0.03530309721827507,-0.3085015118122101,-0.4242071211338043,0.36228641867637634,0.3186200261116028,0.19594846665859222,0.5232205986976624,0.14669175446033478,-0.029546398669481277,-0.04974055290222168,-0.1907963901758194,-0.06601846218109131,-0.1527910977602005,0.22893938422203064,0.21445564925670624,0.05832931399345398,0.3826392889022827,-0.7017967104911804,-0.295960396528244,0.3188348710536957,-0.06453491002321243,-0.2697570323944092,-0.14929722249507904,0.5257545709609985,-0.16021087765693665,-0.022500833496451378,-0.4134494960308075,-0.11306021362543106,0.2567320466041565,-0.10160129517316818,0.10354325920343399,-0.6625946760177612,0.3956219553947449,-0.30272337794303894,-0.12425561994314194,-0.0867646113038063,-0.5062564611434937,-0.23327280580997467,0.01285224873572588,0.6857224106788635,-0.16227178275585175,-0.07979334890842438,-0.5063933730125427,-0.25914162397384644,-0.29112762212753296,0.15342484414577484,-0.3258402347564697,-0.4856172502040863,0.09551491588354111,-0.18156583607196808,-0.3990991413593292,-0.01654607057571411,0.09736126661300659,-0.26675161719322205,-0.038336314260959625,0.20493772625923157,0.10802712291479111,0.01708626002073288,-0.23342148959636688,0.6167846918106079,0.3360714614391327,0.2067737877368927,-0.056543461978435516,-0.335936576128006,0.08587364852428436,0.1818983256816864,0.3680185377597809,0.2084265500307083,-0.440886527299881,0.08928809314966202,0.2388630360364914,0.19182182848453522,0.62549889087677,-0.13104672729969025,-0.34923362731933594,0.055724628269672394,0.5769913792610168,-0.44403305649757385,0.38671913743019104,0.12850581109523773,-0.7144953012466431,0.3840655982494354,-0.06992300599813461,-0.19013433158397675,0.4667167663574219,0.07616785168647766,0.42098531126976013,-0.4745725095272064,-0.10769297927618027,0.12480873614549637,0.3257390856742859,-0.09495484828948975,0.5869377851486206,0.04503129422664642,0.1251361072063446,0.012408925220370293,-0.1998807191848755,-0.659040093421936,-0.09859254211187363,0.2572087049484253,0.409869521856308,-0.2725892663002014,0.24482819437980652,0.5166047215461731,-0.0643712654709816,0.4037442207336426,-0.6236069798469543,0.33400923013687134,-0.7459321022033691,-0.6149521470069885,0.35571640729904175,0.14449936151504517,0.22982247173786163,0.13006913661956787,0.3672758638858795,0.008722626604139805,-0.2826736569404602,-0.49507057666778564,-0.5789568424224854,0.05383441969752312,0.4502664804458618,-0.1440277099609375,0.35680004954338074,0.2156907469034195,0.03305654600262642,-0.04114655777812004,-0.15661753714084625,-0.29379692673683167,0.13476267457008362,-0.10814334452152252,-0.0012634617742151022,-0.06932742148637772,0.5067722201347351,-0.16772346198558807,-0.09755933284759521,-0.1746826022863388,0.12281566858291626,-0.08544688671827316,0.2839035987854004,-0.5630948543548584,-0.11961578577756882,-0.6609705090522766,0.43045786023139954,-0.10741104185581207,0.24075362086296082,-0.3798915445804596,-0.08275153487920761,-0.3180982172489166,-0.1851717084646225,-0.30971914529800415,-0.6399919986724854,0.053977880626916885,0.12882938981056213,-0.013071946799755096,-0.028326496481895447,-0.4424012005329132,0.2483198046684265,-0.15623870491981506,-0.34189581871032715,-0.41519632935523987,0.20219577848911285,0.36815062165260315,-0.0038119617383927107,-0.25714805722236633,0.09342727065086365,0.022019360214471817,-0.16896724700927734,-0.2712063491344452,-0.16460978984832764,0.47655922174453735,-0.0638432502746582,-0.09289111196994781},{0.13060708343982697,-0.22500284016132355,-0.18736806511878967,-0.2303491234779358,0.13956646621227264,0.08503392338752747,0.14816917479038239,-0.37031105160713196,0.5522286295890808,-0.4620624780654907,0.03644759580492973,0.057162806391716,0.24146103858947754,0.29985806345939636,-0.41827210783958435,0.020063042640686035,0.3441091477870941,-0.1721697449684143,0.17586012184619904,-0.3267773985862732,0.05808711051940918,0.49132615327835083,-0.07068037986755371,-0.08158249408006668,-0.21590429544448853,-0.468399316072464,0.38152414560317993,-0.18146653473377228,-0.05308085307478905,-0.19561636447906494,0.06023787334561348,-0.3102329671382904,0.07976449280977249,0.24862781167030334,-0.004273304715752602,-0.3595134913921356,-0.651351273059845,0.3930656909942627,-0.34565964341163635,0.26810887455940247,0.4002413749694824,0.24148666858673096,0.27702921628952026,-0.27250945568084717,0.44533321261405945,-0.34683242440223694,-0.0370272733271122,-0.5592278838157654,-0.23153503239154816,0.1922973394393921,0.19454659521579742,-0.1660546362400055,-0.08624064177274704,-0.515571653842926,-0.6551883220672607,-0.0316009558737278,-0.3581050634384155,-0.3275194466114044,0.2490527331829071,0.27804264426231384,-0.48180022835731506,0.4610028564929962,0.07052043825387955,0.1410060077905655,-0.14397364854812622,-0.47271156311035156,-0.16295020282268524,-0.237723708152771,0.059326231479644775,0.2358739972114563,-0.2340879738330841,0.5323115587234497,0.20479841530323029,-0.09423290938138962,-0.36582913994789124,0.15682914853096008,0.2474069893360138,0.16404184699058533,0.5090833306312561,-0.1538822203874588,-0.3806232810020447,-0.09637334197759628,0.041871413588523865,0.025135725736618042,0.10686160624027252,0.4628739058971405,-0.02344188652932644,0.2149152010679245,0.07729943841695786,0.1639154553413391,-0.371637225151062,0.30427709221839905,-0.0936366468667984,0.08854349702596664,-0.0363788940012455,-0.2726573944091797,-0.003161643398925662,-0.2886527478694916,-0.4624582827091217,-0.1391696184873581,0.2634528577327728,-0.16465772688388824,0.1396777629852295,0.2880524694919586,0.031300682574510574,-0.05167759954929352,0.10286393016576767,-0.2342071831226349,0.2535427212715149,-0.006300147157162428,0.36355194449424744,0.5261490345001221,-0.16706319153308868,-0.4524720311164856,0.01683959737420082,-0.10126705467700958,-0.2986578047275543,-0.07614651322364807,0.09035078436136246,-0.024550309404730797,0.24233214557170868,0.35128527879714966,-0.004535000771284103,-0.3118443191051483,0.028389783576130867,-0.1593407690525055,-0.43476420640945435,-0.07084881514310837,0.04892508685588837,-0.3334709405899048,0.14185690879821777,-0.4915390908718109,0.5149194598197937,0.5543788075447083,-0.20962241291999817,-0.17880874872207642,-0.10738292336463928,0.034249573945999146,-0.3452209532260895,-0.182224839925766,0.19219772517681122,0.48876848816871643,0.18753565847873688,0.5104483962059021,0.5001620650291443,-0.044102538377046585,0.39406460523605347,-0.11818784475326538,-0.4081040918827057,0.3493870198726654,0.11759313195943832,0.2930556833744049,0.22148112952709198,0.46413853764533997,-0.30588194727897644,0.5456956028938293,0.21880890429019928,0.07909620553255081,-0.4534125328063965,0.08817821741104126,-0.04425894841551781,-0.1096285730600357,0.4988858997821808,0.4195517897605896,-0.052594855427742004,-0.138825923204422,0.2791211009025574,0.07180815190076828,-0.5897930264472961,-0.04771938547492027,0.15939728915691376,-0.4236043095588684,-0.04875487834215164,0.3504459857940674,0.09524548053741455,-0.05212113633751869,0.17634005844593048,0.19935007393360138,-0.10686198621988297,-0.21808277070522308,0.4767530858516693,-0.3109067678451538,-0.21460682153701782,0.29428941011428833,0.357980877161026,-0.13130119442939758,-0.00379920587874949,-0.26139041781425476,-0.05834464728832245,-0.34648722410202026,-0.49251896142959595,-0.4833531081676483,-0.5012306571006775,-0.403227299451828,0.4082223176956177,0.4436948299407959,0.16463503241539001,-0.15541674196720123,-0.49880847334861755,-0.4361422657966614,0.38469526171684265,-0.3289862275123596,0.21949681639671326,0.26258325576782227,0.01890726014971733,-0.0829753428697586,0.20507889986038208,0.039018414914608,0.37585845589637756,-0.419440895318985,0.0023283581249415874,-0.41739070415496826,-0.0364895723760128,0.08334147185087204,-0.234344020485878,-0.5107746720314026,-0.5253215432167053,0.09388761967420578,-0.4755329191684723,-0.3407578468322754,0.30353108048439026,-0.40699008107185364,0.21933890879154205,-0.0865342989563942,0.09735015779733658,0.14643193781375885,-0.24256351590156555,0.18962959945201874,0.1999145746231079,0.40236490964889526,-0.324290007352829,-0.3546416759490967,0.5768367648124695,-0.30167335271835327,0.25790706276893616,0.1446983814239502,-0.1320158839225769,0.09706184267997742,0.24721896648406982,-0.2242833822965622,0.21555733680725098,0.29705876111984253,-0.1725987195968628,0.2771833539009094,0.4082900881767273,-0.15170280635356903,0.052469491958618164,0.03575676307082176,0.45270320773124695,-0.013343938626348972,-0.08726578950881958,-0.30780354142189026,-0.41465723514556885,-0.3892250955104828,-0.12316320836544037,0.44729799032211304},{-0.07638274133205414,0.13537074625492096,0.02326931431889534,0.10834711045026779,0.08445373922586441,-0.060902006924152374,-0.034760549664497375,0.10066331923007965,0.08212286978960037,-0.256794273853302,0.1115100160241127,0.038046855479478836,0.049288563430309296,-0.034614332020282745,0.09809986501932144,0.1539783477783203,0.4449840486049652,-0.014163588173687458,-0.08998070657253265,-0.24630583822727203,-0.06884582340717316,0.18104659020900726,0.007805960718542337,-0.030049102380871773,-0.003319377778097987,-0.07131822407245636,0.30557766556739807,-0.2716751992702484,-0.12335281074047089,0.05637730285525322,-0.11018209159374237,-0.0651683658361435,-0.14850707352161407,-0.12670978903770447,0.003950342535972595,0.032259516417980194,-0.5797448754310608,-0.04713497683405876,-0.30664417147636414,0.0074930936098098755,0.1874113529920578,-0.3504694402217865,0.04785872995853424,-0.12553507089614868,-0.14199887216091156,-0.3057272434234619,-0.0025047603994607925,-0.16250014305114746,0.09024526923894882,-0.026745693758130074,0.2833629250526428,-0.25968557596206665,0.13016889989376068,0.07207193970680237,0.006653384771198034,-0.04497608542442322,0.11449138820171356,0.06998292356729507,0.23855392634868622,0.02894398756325245,-0.034378815442323685,-0.1401197463274002,0.006457497365772724,-0.06714656203985214,-0.03845452144742012,-0.16974328458309174,-0.03763065114617348,0.018411334604024887,0.06245633587241173,0.04637649655342102,0.107028529047966,-0.1948288381099701,-0.07871342450380325,0.30421721935272217,0.11008553206920624,-0.022873084992170334,-0.10781122744083405,-0.09335252642631531,-0.002530252793803811,-0.23947426676750183,0.08597107231616974,0.003708925098180771,-0.030891479924321175,-0.08166858553886414,0.0461604930460453,0.13956277072429657,0.008108224719762802,0.010911686345934868,0.03836118429899216,0.1448446363210678,-0.020852187648415565,-0.07139183580875397,0.10860360413789749,0.0025301447603851557,-0.07554663717746735,-0.14263609051704407,0.08982695639133453,0.037309590727090836,-0.04842163249850273,0.04580920189619064,0.34330612421035767,0.07137300819158554,-0.10354594886302948,0.05879243090748787,0.029811294749379158,-0.054206039756536484,0.0043451618403196335,-0.0077255587093532085,-0.06603073328733444,0.03255368024110794,0.560391902923584,0.1955781877040863,0.011334724724292755,-0.0852658599615097,0.008857009001076221,-0.1442963033914566,0.16559648513793945,-0.10494650155305862,0.14285609126091003,-0.013701378367841244,-0.2281416803598404,-0.05111272260546684,0.057856541126966476,-0.014148314483463764,-0.020267225801944733,-0.04190549626946449,-0.08675531297922134,-0.0826006829738617,0.09169042110443115,0.04437544569373131,-0.06815788894891739,-0.08002308011054993,0.08874616026878357,0.06101340055465698,0.1621159464120865,0.12674647569656372,-0.0026809857226908207,-0.6853241920471191,0.0037271047476679087,-0.2577008903026581,-0.0784989595413208,0.0800301805138588,-0.43140891194343567,0.09421514719724655,0.2939848303794861,0.052716147154569626,-0.2449674755334854,-0.08153614401817322,-0.15278227627277374,-0.0016613657353445888,-0.047128625214099884,-0.0834992527961731,-0.02490013651549816,0.1016850471496582,-0.31109777092933655,0.4626254439353943,0.23602294921875,-0.07782876491546631,-0.02628215402364731,-0.01689179800450802,-0.13427817821502686,0.06972993165254593,0.053643759340047836,0.13675519824028015,-0.1848103553056717,-0.20862720906734467,-0.04211276397109032,0.04969159513711929,-0.08712763339281082,0.00016666779993101954,0.003922733943909407,0.04317093268036842,-0.03272363170981407,0.07224984467029572,0.26235127449035645,-0.03371048346161842,-0.036840204149484634,-0.050251152366399765,0.07034342736005783,0.13203153014183044,0.3437522053718567,0.0711454227566719,-0.20076791942119598,0.23247505724430084,0.024564994499087334,-0.015388517640531063,0.037697143852710724,-0.05897250398993492,0.09375378489494324,0.17654386162757874,0.1408265084028244,-0.16906341910362244,-0.014404172077775002,0.1533013880252838,0.14919577538967133,-0.0285162515938282,0.009079813957214355,-0.6093569993972778,-0.010722078382968903,0.11380403488874435,0.2743425965309143,-0.01913589797914028,-0.4873146116733551,-0.05303368717432022,-0.0590352825820446,-0.032971471548080444,0.0021856550592929125,0.051635175943374634,-0.003831444540992379,-0.02171754278242588,-0.13133016228675842,0.10818972438573837,0.09013096243143082,0.07653195410966873,-0.07469285279512405,-0.3161259889602661,0.005387105513364077,-0.008678446523845196,0.03672430291771889,-0.014799925498664379,0.033128589391708374,-0.04629135876893997,0.20037208497524261,0.11703196167945862,-0.06943506002426147,-0.40675005316734314,-0.12398295104503632,-0.00961868092417717,0.07848618179559708,-0.03298105299472809,-0.025258317589759827,-0.09163136780261993,0.06416036188602448,-0.028652522712945938,0.23328866064548492,0.18136073648929596,-0.07368659228086472,0.009811666794121265,0.1634884923696518,-0.4670924246311188,-0.11544685065746307,0.04100186750292778,0.20574216544628143,-0.008473789319396019,0.10274200886487961,-0.009513196535408497,0.0077370391227304935,0.05285338684916496,0.06595033407211304,0.1308053433895111,-0.21680639684200287,0.022639451548457146,0.053030163049697876,-0.396480530500412,-0.12240837514400482,0.07856964319944382},{-0.06567928194999695,-0.049076199531555176,-0.01960434578359127,0.17888593673706055,0.0890338346362114,0.009500390850007534,0.02889159321784973,0.0016585169360041618,0.024731043726205826,-0.17559383809566498,0.19627951085567474,0.15508338809013367,0.04021214321255684,-0.03161773830652237,0.038947079330682755,0.17559906840324402,0.5670452117919922,0.07120946049690247,0.0823500007390976,-0.1458967924118042,0.062411583960056305,0.11892813444137573,-0.04760884866118431,0.028386127203702927,0.03301602602005005,0.08168458938598633,0.15402314066886902,-0.2246919721364975,-0.04421169310808182,0.018013687804341316,0.040762949734926224,-0.11794373393058777,0.03734410181641579,-0.07434265315532684,0.03223159536719322,0.013493471778929234,-0.39078786969184875,0.015355686657130718,-0.540229082107544,-0.07181975245475769,0.14470025897026062,-0.32053524255752563,0.078313909471035,-0.08421240746974945,-0.14779365062713623,-0.2098560631275177,-0.10155773907899857,-0.20980194211006165,-0.10523508489131927,0.09537184238433838,0.20681245625019073,-0.25073039531707764,-0.08319953829050064,-0.003204669803380966,0.07942937314510345,-0.006221413612365723,0.03362042456865311,0.04775630310177803,0.031940191984176636,-0.1754613071680069,0.09721691906452179,0.10897926986217499,-0.04793357476592064,0.08821725100278854,-0.11043820530176163,-0.11212678998708725,0.030610976740717888,-0.022845078259706497,0.04025651887059212,-0.006126994267106056,-0.11366059631109238,-0.1776905655860901,-0.05201241001486778,0.26128217577934265,-0.05873585119843483,-0.05396486446261406,0.007127762772142887,0.04332345724105835,-0.04245295375585556,-0.15209120512008667,0.11231868714094162,-0.006683213636279106,0.035024113953113556,-0.09160803258419037,-0.031895436346530914,0.17056840658187866,0.05639898031949997,-0.11583852022886276,0.05271947756409645,-0.031577084213495255,-0.002372501650825143,-0.1915392279624939,-0.02645074389874935,-0.00957516860216856,-0.05581601709127426,-0.04969841614365578,-0.029156940057873726,-0.01200956292450428,0.04270041733980179,-0.07091245800256729,0.3012799620628357,0.11045944690704346,-0.27518388628959656,-0.001591917360201478,-0.015474277548491955,0.10667979717254639,0.06851416081190109,-0.03943536803126335,-0.062364235520362854,-0.03785519301891327,0.6636122465133667,0.010812213644385338,-0.12528568506240845,0.0733841136097908,-0.05805742368102074,-0.02808503620326519,0.32726502418518066,-0.08810896426439285,0.06949158012866974,0.014411275275051594,-0.3511635661125183,-0.0645889937877655,-0.0018839858239516616,-0.0476096011698246,0.013947658240795135,0.05229377746582031,0.0255215372890234,-0.03541276231408119,-0.017189158126711845,0.10635636001825333,-0.013326856307685375,-0.0340997688472271,-0.07558144629001617,0.019219262525439262,0.11701194941997528,0.05342283844947815,0.0026171267963945866,-0.6900797486305237,0.13385087251663208,-0.12739422917366028,-0.023272212594747543,-0.1046757847070694,-0.6188629269599915,0.0070382277481257915,0.17902345955371857,0.03694093972444534,-0.42094653844833374,-0.05768163502216339,-0.043568868190050125,0.06155078485608101,-0.1036800965666771,-0.13077802956104279,0.1008230447769165,-0.1106158196926117,-0.17989203333854675,0.19140976667404175,0.1947224736213684,0.08764034509658813,0.10461769253015518,-0.07094086706638336,-0.2694670855998993,0.056343331933021545,-0.02054525725543499,-0.0081374142318964,-0.11089340597391129,-0.19721737504005432,0.06902887672185898,-0.13042272627353668,-0.15291650593280792,-0.04508285969495773,-0.003591129556298256,0.0010877414606511593,-0.01894671469926834,-0.1158047690987587,0.23600250482559204,0.03267384320497513,-0.1281922161579132,-0.009726645424962044,0.05644022673368454,0.10174763202667236,0.204163059592247,0.2215929478406906,-0.15159383416175842,0.14898748695850372,-0.1063232272863388,0.03831877559423447,-0.016346080228686333,-0.18907861411571503,-0.05649957060813904,0.2733362317085266,0.11257370561361313,-0.2347179502248764,-0.007302657701075077,0.05230141058564186,0.12054216116666794,-0.07728935033082962,-0.09396208822727203,-0.6768576502799988,0.06411964446306229,0.07162490487098694,0.3075371980667114,0.07923109829425812,-0.6159554123878479,0.062819704413414,-0.033301930874586105,-0.018871566280722618,-0.06417857110500336,-0.00023570074699819088,0.12892229855060577,0.09690575301647186,-0.08054309338331223,0.06194091960787773,-0.12036846578121185,0.022020328789949417,-0.02585698664188385,-0.19548827409744263,-0.04617302492260933,0.07181352376937866,0.07200796157121658,0.06841965764760971,-0.015628691762685776,0.07973016053438187,0.02144651487469673,0.18554526567459106,-0.11544309556484222,-0.5037323832511902,-0.2286052107810974,-0.022814113646745682,0.13507285714149475,-0.057339858263731,-0.025318143889307976,-0.006235190667212009,0.014917447231709957,0.07903515547513962,0.3298344612121582,0.13992692530155182,0.025123033672571182,-0.005970207042992115,0.09376801550388336,-0.41775113344192505,-0.09551131725311279,0.15509481728076935,0.04020053893327713,0.09163137525320053,-0.10973426699638367,-0.14461912214756012,0.18297530710697174,0.04089714214205742,-0.06712260842323303,-0.06528616696596146,-0.25693461298942566,0.12775500118732452,0.1432720422744751,-0.504584789276123,-0.3932531774044037,-0.05762283504009247},{-0.05203773453831673,-0.05154843255877495,-0.029778534546494484,0.049676455557346344,-0.035467591136693954,-0.004144496284425259,0.016171958297491074,0.006952490657567978,0.021788470447063446,-0.11033248901367188,-0.11181455850601196,0.08812578022480011,-0.00837852992117405,0.025071727111935616,0.01427383441478014,0.012546978890895844,0.3002552092075348,0.027781788259744644,0.09986239671707153,-0.11546977609395981,0.030570171773433685,0.14714650809764862,-0.029361041262745857,0.039632540196180344,-0.004406320862472057,0.018076419830322266,0.027899039909243584,-0.14927206933498383,-0.010697617195546627,0.03932676464319229,0.03757301717996597,-0.13202299177646637,0.08872964978218079,-0.017652247101068497,0.03488851338624954,-0.023159602656960487,-0.3567768633365631,0.019802328199148178,-0.26156631112098694,-0.03310222551226616,0.12223054468631744,-0.13451620936393738,0.05716319754719734,-0.04896773397922516,-0.09920863807201385,-0.17571404576301575,-0.07480575889348984,-0.12536148726940155,-0.09125152230262756,0.018681351095438004,0.14460788667201996,-0.30906376242637634,-0.09234296530485153,-0.10658688098192215,0.02789396233856678,-0.043370820581912994,0.025981446728110313,0.04789629578590393,0.031532928347587585,-0.022421253845095634,-0.0868050828576088,0.10005529969930649,0.04038368910551071,0.08450178802013397,-0.07594956457614899,-0.03807726874947548,0.034925736486911774,-0.015637535601854324,0.005687197204679251,-0.007199224550276995,-0.09707815945148468,-0.1085592731833458,-0.05857165902853012,0.009897795505821705,-0.08865518867969513,-0.09220355749130249,-0.023140456527471542,0.07553086429834366,0.008356916718184948,-0.2427200824022293,0.008731174282729626,0.006268639117479324,0.04529854655265808,-0.10892806202173233,-0.03697860613465309,0.11073821038007736,0.00450994074344635,-0.07526812702417374,0.060737915337085724,0.11599559336900711,-0.01237485371530056,-0.09446366876363754,0.015124097466468811,0.030486922711133957,-0.1679273247718811,-0.07408227026462555,-0.057788554579019547,-0.040248941630125046,-0.01984904333949089,-0.06794044375419617,0.3137248754501343,-0.002144003286957741,-0.10280132293701172,0.041041381657123566,0.0431736521422863,0.08251161128282547,0.07975782454013824,-0.06526970863342285,-0.045096855610609055,-0.06636107712984085,0.3714264929294586,0.020243238657712936,-0.04862601310014725,0.017759809270501137,-0.05170965567231178,-0.07307608425617218,0.2055881768465042,-0.08563768863677979,0.06758501380681992,0.046551499515771866,-0.25091075897216797,-0.061035871505737305,-0.013416030444204807,-0.09367936849594116,0.03854621574282646,-0.026074843481183052,0.0015116073191165924,-0.10192468017339706,-0.0033425434958189726,0.09303072094917297,0.02676921710371971,-0.1519215703010559,-0.014465352520346642,-0.008400644175708294,0.0622134767472744,0.07807758450508118,-0.02499588578939438,-0.565643310546875,0.051104191690683365,-0.08265272527933121,-0.0511186420917511,-0.016271043568849564,-0.3541617691516876,0.011950825341045856,0.2058134227991104,0.033863235265016556,-0.13405416905879974,-0.11357012391090393,-0.020711751654744148,0.0882868692278862,0.009065735153853893,-0.016395902261137962,0.030846334993839264,-0.019940471276640892,-0.1508939564228058,0.28142914175987244,0.166091188788414,0.0696713998913765,-0.0737047865986824,-0.012858466245234013,-0.19232691824436188,-0.003044859506189823,0.04868006333708763,0.054708320647478104,-0.12880952656269073,-0.045872606337070465,0.08839626610279083,-0.03362947329878807,-0.03211439028382301,-0.07023520767688751,0.00835310760885477,-0.042298585176467896,-0.040064793080091476,-0.019001848995685577,0.15792880952358246,0.030817432329058647,-0.11271703243255615,-0.08272118121385574,-0.005275150295346975,0.008013932034373283,0.10886050015687943,0.07882925868034363,-0.14389394223690033,0.12996815145015717,0.009782855398952961,-0.006293443962931633,-0.05060295760631561,-0.13904757797718048,-0.033049147576093674,0.17442330718040466,0.08663710951805115,-0.09510992467403412,-0.1070781722664833,0.02048974111676216,0.14161896705627441,-0.0056361607275903225,-0.05601216107606888,-0.228743314743042,0.040043968707323074,0.054564058780670166,0.17442850768566132,0.013813607394695282,-0.2974565923213959,0.060287825763225555,-0.024274233728647232,0.001661829650402069,0.026818478479981422,0.12392399460077286,0.0767306238412857,0.01315256766974926,-0.0788271427154541,-0.036945890635252,-0.0691736489534378,0.06248882785439491,-0.15770073235034943,-0.1325971931219101,-0.01159721054136753,0.04423648864030838,-0.02084050513803959,0.014749960973858833,0.032569680362939835,-0.028719251975417137,0.037106070667505264,0.022479524835944176,-0.029667329043149948,-0.4215914309024811,-0.09714993089437485,0.038876745849847794,0.24483151733875275,-0.05525560677051544,-0.09865594655275345,-0.09921570867300034,0.039250340312719345,-0.018187081441283226,0.1825619339942932,0.09167253226041794,0.023584121838212013,0.022034192457795143,0.1375141143798828,-0.25325340032577515,-0.04040057957172394,0.08153575658798218,-0.0017996192909777164,0.0408317930996418,-0.010350299067795277,-0.17557379603385925,0.0633554607629776,0.14767108857631683,0.009628711268305779,-0.04334521293640137,-0.23166732490062714,0.061627618968486786,-0.013914893381297588,-0.2741098999977112,-0.2736981213092804,0.0026975993532687426},{0.14444075524806976,0.0017936932854354382,-0.019849427044391632,0.00732642225921154,0.0346122570335865,0.06309296190738678,-0.07003460824489594,-0.029860928654670715,0.014213765040040016,0.09981071949005127,-0.13561005890369415,0.10150322318077087,-0.12745317816734314,0.0824107900261879,-0.08573884516954422,-0.05177310109138489,0.2594611644744873,0.04599175602197647,-0.05688684433698654,0.08778152614831924,-0.0535418838262558,-0.10855290293693542,-0.102585569024086,-0.00033954731770791113,0.06111159548163414,-0.06870736181735992,-0.2107236534357071,-0.17318230867385864,0.037962596863508224,0.010922808200120926,-0.04337828978896141,-0.21004757285118103,0.002517636399716139,0.03828202560544014,0.023862328380346298,-0.09274699538946152,-0.18205071985721588,0.021720362827181816,-0.17851784825325012,-0.010973768308758736,-0.13956530392169952,-0.04778878018260002,0.03533068299293518,-0.020240742713212967,-0.02305414341390133,0.05888201668858528,0.05244626849889755,0.17397843301296234,0.061118900775909424,0.16447770595550537,-0.06050974503159523,-0.13819511234760284,-0.02862442471086979,0.07586203515529633,-0.035931993275880814,0.002928362926468253,-0.01176662091165781,0.12360117584466934,-0.10465840250253677,0.024868354201316833,-0.05309847369790077,-0.055462226271629333,-0.06642552465200424,-0.09472116827964783,0.019876593723893166,0.13327692449092865,0.03603341430425644,0.022534914314746857,0.07255381345748901,-0.046243514865636826,0.06209880858659744,-0.0017452656757086515,0.0731130912899971,0.03167332708835602,-0.019311528652906418,-0.1276525855064392,0.23645243048667908,0.005320792552083731,0.051482874900102615,-0.1396399885416031,-0.20044003427028656,-0.02890367992222309,0.0030749246943742037,0.05901210755109787,-0.017172640189528465,0.07858079671859741,-0.04348781704902649,0.030759701505303383,0.1286909580230713,0.011735479347407818,0.04140158370137215,0.02648603916168213,-0.0020517425145953894,0.017454441636800766,0.0343402698636055,0.04368419572710991,-0.016636056825518608,0.03076738491654396,-0.04909404739737511,-0.004744989797472954,0.2107509821653366,-0.04228649288415909,-0.038447294384241104,0.060161031782627106,-0.06756982207298279,0.014079219661653042,-0.027509290724992752,-0.040084537118673325,-0.07509211450815201,-0.01181882806122303,0.2402997761964798,0.05128813907504082,0.05031650513410568,0.004452339373528957,-0.039626918733119965,-0.15867683291435242,0.011268137954175472,-0.07732439041137695,-0.06348378211259842,0.004678560886532068,-0.2204643338918686,0.017440147697925568,-0.023227103054523468,0.04255140572786331,-0.058741673827171326,-0.03622770309448242,-0.012042888440191746,0.12618151307106018,-0.13956941664218903,0.07187288999557495,0.12297045439481735,0.005101681686937809,0.050424978137016296,-0.02461114525794983,-0.08202790468931198,-0.01563636213541031,-0.018690137192606926,-0.4705538749694824,0.04232153296470642,0.03975344076752663,0.11407630890607834,0.08224642276763916,-0.39286327362060547,0.11724532395601273,0.0471387580037117,-0.07383358478546143,-0.32979536056518555,0.07647642493247986,0.1630343198776245,0.022007599472999573,-0.11845345795154572,-0.04971206188201904,-0.09507432579994202,0.0647382140159607,0.0698012188076973,0.15976417064666748,-0.08897535502910614,0.011286068707704544,0.0546351820230484,0.007578974589705467,-0.0961843878030777,-0.18309418857097626,0.12429007887840271,-0.03311426192522049,-0.2465197890996933,0.18243609368801117,-0.03833502531051636,-0.02043706737458706,0.08711159974336624,-0.0490756593644619,0.06867266446352005,-0.06744323670864105,0.004879751708358526,0.07828537374734879,0.02217484451830387,0.04636695981025696,0.010044347494840622,0.0469827838242054,-0.09441624581813812,0.025707922875881195,-0.16319477558135986,-0.06481396406888962,0.030922360718250275,0.10284283757209778,0.016963668167591095,0.12546904385089874,0.016920821741223335,-0.07622065395116806,-0.0027194044087082148,0.1064329668879509,-0.07706841826438904,0.10935796797275543,-0.002484356053173542,-0.02435757778584957,-0.16815185546875,0.14971491694450378,-0.05191497132182121,-0.07153015583753586,-0.026353877037763596,-0.12754227221012115,0.051748842000961304,-0.17041955888271332,-0.45848479866981506,0.01200107578188181,0.12644077837467194,0.015247375704348087,-0.1168469712138176,-0.027948683127760887,0.1316855102777481,-0.15181249380111694,0.15143778920173645,-0.04650432989001274,0.040713343769311905,-0.09223446995019913,0.08367924392223358,0.16300471127033234,-0.07712985575199127,0.06375256925821304,-0.0778554156422615,0.009649105370044708,-0.010429457761347294,-0.08082211017608643,-0.09893903136253357,0.008662753738462925,-0.1382807344198227,-0.48535606265068054,0.008422303944826126,-0.07922636717557907,0.04365957900881767,-0.029808655381202698,0.022583788260817528,-0.019780101254582405,-0.0794941857457161,-0.09964345395565033,0.06690096110105515,-0.13162896037101746,0.09512986987829208,0.003781137289479375,0.05504799261689186,0.05636423081159592,0.08447785675525665,0.07827946543693542,0.06410827487707138,0.1390242725610733,0.08326974511146545,-0.07315261662006378,-0.0247966181486845,-0.05916113406419754,0.05120149999856949,0.021983426064252853,-0.07057467848062515,-0.033984579145908356,0.07538207620382309,-0.0646681860089302,-0.42878279089927673,0.025401445105671883},{-0.024786515161395073,-0.06834547966718674,-0.058680031448602676,0.15634818375110626,0.12733009457588196,0.04242103546857834,0.025192901492118835,-0.09917289763689041,0.0380144938826561,-0.15362820029258728,0.3699215352535248,0.0972960963845253,0.03186638653278351,0.008458956144750118,-0.09189129620790482,0.21008138358592987,0.45094436407089233,0.08308406174182892,0.09657326340675354,-0.11330235749483109,0.08381323516368866,0.15559446811676025,-0.05853953957557678,0.01725354976952076,-0.0019314547535032034,0.0687132477760315,0.08594689518213272,-0.32265400886535645,0.013420747593045235,-0.03582153096795082,-0.017276141792535782,-0.1494143158197403,0.02689862996339798,-0.034989338368177414,0.011607225984334946,-0.03779495134949684,-0.12864501774311066,0.08422207832336426,-0.4736770987510681,-0.046532053500413895,0.12141774594783783,-0.12367084622383118,0.08552981913089752,-0.062326617538928986,0.06294737011194229,-0.12512557208538055,-0.06173289939761162,-0.13160216808319092,-0.15527750551700592,0.1301051378250122,0.12625275552272797,-0.11925076693296432,-0.1083889976143837,-0.10218601673841476,0.04651536047458649,-0.021155426278710365,-0.0157169122248888,0.03488348796963692,-0.06920970231294632,-0.23197296261787415,0.102799192070961,0.16717827320098877,-0.0365215465426445,0.0830351859331131,-0.12907172739505768,-0.09436868131160736,0.026938555762171745,-0.06579109281301498,0.006262891925871372,0.03657755255699158,-0.1097245067358017,0.031220590695738792,0.049861494451761246,0.004521925002336502,-0.08175140619277954,0.06085855886340141,0.1577949821949005,0.08770477026700974,-0.020703935995697975,0.018269289284944534,0.11691781133413315,-0.06966276466846466,0.05197026580572128,0.0038020131178200245,-5.813310417579487e-05,0.07636384665966034,0.06302434951066971,-0.050864458084106445,0.08150653541088104,-0.23378247022628784,-0.00938425213098526,-0.13463206589221954,-0.15313032269477844,0.00712525425478816,3.289183950982988e-06,-0.029576102271676064,0.04357510060071945,0.0177802462130785,0.025740185752511024,-0.12070105224847794,0.21002233028411865,0.15630260109901428,-0.3244200348854065,-0.05896339938044548,-0.025405364111065865,0.10123763978481293,0.03975483402609825,-0.0761832594871521,-0.053085487335920334,-0.017334429547190666,0.4686141312122345,-0.06226298585534096,-0.0912354588508606,0.10541868954896927,-0.06770096719264984,0.01706364005804062,0.12369699031114578,-0.041020605713129044,0.03290284797549248,0.008148929104208946,-0.25169697403907776,0.017186684533953667,-0.0060775140300393105,-0.060400139540433884,-0.018717022612690926,0.012535670772194862,0.015768032521009445,0.024121245369315147,-0.0616874173283577,0.026550734415650368,0.006864464376121759,-0.025756245478987694,-0.09013719856739044,0.06317117810249329,0.07013600319623947,-0.03367707133293152,-0.01771334558725357,-0.432788223028183,0.13177050650119781,-0.1338271051645279,0.05273467302322388,-0.057388871908187866,-0.5259295105934143,0.010479530319571495,0.10769115388393402,-0.010744557715952396,-0.24240708351135254,-0.051351260393857956,0.04210207611322403,0.06631358712911606,-0.04564324766397476,-0.12647917866706848,0.1737629920244217,-0.014188059605658054,-0.06610274314880371,0.06694737821817398,0.08856751024723053,0.09692277759313583,0.15700924396514893,-0.048934899270534515,-0.20365287363529205,0.026163948699831963,-0.099563367664814,-0.04585762694478035,-0.1428922712802887,-0.1364719420671463,0.08759552240371704,-0.17584000527858734,-0.06275765597820282,-0.04943779110908508,-0.01612740196287632,-0.10128717124462128,0.0035509145818650723,-0.03638770803809166,0.13785216212272644,0.04325411841273308,-0.04742319509387016,0.0544857420027256,-0.0005946125602349639,0.09215648472309113,0.0942118838429451,0.13886579871177673,-0.14802272617816925,0.09332247823476791,-0.12008977681398392,-0.0029807486571371555,-0.031744420528411865,-0.14883609116077423,-0.020922835916280746,0.144185870885849,0.05773540213704109,-0.1967085301876068,-0.13211800158023834,-0.14613015949726105,0.07018088549375534,-0.054295770823955536,-0.10295895487070084,-0.6307302713394165,0.011307776905596256,-0.010171245783567429,0.250985324382782,0.10270384699106216,-0.5950969457626343,0.053457941859960556,0.020742304623126984,-0.03029630146920681,-0.04124896600842476,-0.12546034157276154,0.11437968909740448,0.08869457244873047,0.04657048359513283,0.017154255881905556,-0.16811838746070862,0.005547788459807634,0.009005073457956314,-0.12018512934446335,-0.06466364860534668,0.04538363218307495,0.029037905856966972,-0.016535116359591484,-0.0631815567612648,0.05735311284661293,-0.054165467619895935,0.11911512911319733,-0.03869086131453514,-0.27250152826309204,-0.25456565618515015,0.020751768723130226,0.08631136268377304,-0.003794271033257246,0.007261037360876799,0.04182374104857445,0.0501868911087513,0.09059727191925049,0.22449904680252075,0.059760335832834244,0.01197867188602686,0.0016337166307494044,0.06567135453224182,-0.3043002784252167,-0.10553886741399765,0.15050175786018372,0.042531173676252365,0.18254975974559784,-0.03367431089282036,-0.11126673966646194,0.27087026834487915,0.0061835250817239285,-0.04000493511557579,-0.06989401578903198,-0.1347605437040329,0.014625770039856434,0.12824329733848572,-0.3115284740924835,-0.6107099056243896,-0.06248031556606293},{0.09417896717786789,-0.09555598348379135,-0.017946457490324974,-0.05546383187174797,0.03959156200289726,0.11541880667209625,0.07201278954744339,-0.12227244675159454,0.038550980389118195,0.004971094895154238,-0.001171761890873313,0.09694761782884598,-0.004309229552745819,0.0073875365778803825,-0.1193259209394455,0.17644736170768738,0.27147766947746277,-0.01219230517745018,0.01703595370054245,0.17191585898399353,0.03493218868970871,-0.06551147997379303,-0.05821891129016876,-0.011390137486159801,-0.014264535158872604,-0.133296400308609,-0.09646870195865631,0.22244487702846527,0.3675990104675293,-0.05602636560797691,0.003744191024452448,-0.28102704882621765,0.04330485314130783,0.030733678489923477,0.0038505287375301123,-0.15340466797351837,-0.04151572287082672,0.06218157336115837,-0.12935210764408112,0.09743454307317734,-0.048823997378349304,-0.006172062363475561,0.16827678680419922,-0.02274102158844471,-0.025164492428302765,-0.32075440883636475,0.10053475201129913,0.387652724981308,-0.055898312479257584,0.15984785556793213,-0.0023806141689419746,0.05768032744526863,-0.05952173098921776,0.3228543698787689,-0.29986438155174255,-0.0240623839199543,-0.10651496797800064,-0.007691030390560627,-0.17471744120121002,-0.021765736863017082,0.12782110273838043,0.10303883999586105,-0.040749792009592056,0.05070847272872925,-0.004964740946888924,0.04203656688332558,-0.009708666242659092,-0.001915597589686513,0.05097663775086403,0.018301131203770638,-0.08177321404218674,0.0326983705163002,0.12410513311624527,-0.22366954386234283,-0.04406960308551788,-0.11294429004192352,0.045487772673368454,0.045824356377124786,0.09688431769609451,-0.033339835703372955,0.00828648079186678,-0.39448752999305725,0.04713284596800804,-0.05891977250576019,-0.00015644083032384515,0.16067008674144745,0.01158195547759533,0.07613931596279144,0.1334429532289505,0.3781217336654663,-0.025884542614221573,-0.3692875802516937,-0.12351209670305252,0.02316737174987793,0.05143294483423233,0.04103139415383339,-0.025612948462367058,-0.03854918107390404,0.03147013857960701,-0.011997551657259464,0.13953985273838043,-0.192495658993721,0.4272270202636719,0.18043020367622375,-0.08686280995607376,-0.05216837674379349,0.008087360300123692,-0.036657724529504776,-0.3336750268936157,0.005735490471124649,0.13120022416114807,0.1116274893283844,-0.10525479912757874,-0.10293789207935333,-0.031859949231147766,-0.24029386043548584,0.14235854148864746,-0.05465756729245186,-0.0903085395693779,-0.01975529082119465,-0.11194082349538803,0.011185986921191216,0.007449637167155743,-0.03137334808707237,-0.04268379136919975,-0.0019266686867922544,-0.0014388521667569876,0.055965300649404526,-0.046401672065258026,-0.14066649973392487,0.01564941368997097,0.3457229733467102,0.14396843314170837,0.09755460172891617,-0.11757402867078781,-0.1469767689704895,0.003999411128461361,-0.6222949624061584,-0.020577913150191307,0.0875949040055275,0.10956478863954544,-0.04558529332280159,-0.6494934558868408,0.13415619730949402,0.1850026249885559,-0.1087115928530693,-0.12689262628555298,0.05339393392205238,0.09747423231601715,-0.08226363360881805,-0.09142542630434036,-0.0549544021487236,0.0617094486951828,0.0178652536123991,0.005655166693031788,0.04398132115602493,0.20979461073875427,0.015308977104723454,0.22778260707855225,-0.03833587467670441,-0.34501150250434875,-0.020282844081521034,-0.18219324946403503,0.14012674987316132,-0.36138954758644104,0.005249045789241791,0.03078274615108967,-0.05810592323541641,0.06156570836901665,-0.03492856025695801,-0.06519635766744614,0.1856413632631302,0.04232798144221306,-0.004657772835344076,0.11785553395748138,0.04747672751545906,0.009243981912732124,-0.018173635005950928,0.014494434930384159,0.09620190411806107,-0.013310485519468784,-0.26413971185684204,-0.006148978136479855,0.289933979511261,0.13065502047538757,-0.0024628702085465193,0.028404679149389267,-0.15186509490013123,-0.03311888501048088,0.021390173584222794,-0.1510971039533615,0.10863997787237167,0.00459431204944849,0.05098627880215645,-0.2072068601846695,-0.034097570925951004,-0.012398031540215015,-0.05750659853219986,0.03903010115027428,-0.10449825972318649,0.14701762795448303,0.12249553948640823,-0.3351064622402191,0.041825056076049805,0.06319229304790497,-0.05962614715099335,-0.034982625395059586,-0.0994587168097496,0.17325948178768158,0.10955961048603058,0.048820286989212036,0.060189295560121536,-0.11279252171516418,-0.10524114966392517,0.1034628376364708,0.04824751242995262,-0.04936595633625984,0.05971531942486763,0.0063623483292758465,-0.025251831859350204,-0.03416663408279419,0.05098975449800491,-0.018376778811216354,0.032059524208307266,-0.04999910295009613,-0.7561243176460266,-0.09314589947462082,-0.005225935950875282,-0.015973854809999466,-0.05332179367542267,-0.18957401812076569,-0.08197306841611862,-0.03946349024772644,0.031820062547922134,-0.043464675545692444,0.024695686995983124,0.04120555520057678,0.0157826766371727,-0.0289432592689991,-0.290195107460022,0.114900603890419,0.18645498156547546,-0.12229708582162857,0.05558183416724205,-0.004134352318942547,-0.05410491302609444,0.05450024455785751,0.035372816026210785,-0.01956094801425934,0.009398780763149261,-0.03951503336429596,-0.17506995797157288,0.1395454853773117,-0.11934640258550644,-0.6391014456748962,0.13319173455238342},{0.00042955076787620783,-0.10637736320495605,0.059523217380046844,-0.1333143264055252,-0.09265661984682083,0.06582988798618317,0.03586741164326668,-0.028458163142204285,0.03132472187280655,0.053169894963502884,-0.3419628143310547,0.0858081579208374,0.0005628175567835569,0.0008345678215846419,-0.041712600737810135,0.03719070553779602,-0.0019464576616883278,-0.043601930141448975,0.02176710218191147,0.3208872079849243,0.0009451776277273893,-0.14963939785957336,-0.003939824178814888,-0.00920449011027813,0.0028930632397532463,-0.15677323937416077,-0.12994982302188873,0.5124112963676453,0.4342845380306244,-0.03079242818057537,0.02174832671880722,-0.2158406525850296,0.06561492383480072,0.029158111661672592,0.024789737537503242,-0.15796451270580292,-0.10605590790510178,0.009712688624858856,0.17122480273246765,0.12074395269155502,-0.07662098109722137,0.01642751134932041,0.14425578713417053,-0.023757008835673332,-0.069064199924469,-0.28530874848365784,0.08005034923553467,0.4701671898365021,-0.046126239001750946,0.03651680797338486,-0.02321653626859188,0.004437838215380907,-0.027962176129221916,0.37758323550224304,-0.3521747887134552,-0.024789312854409218,-0.1024312898516655,-0.028086815029382706,-0.14114736020565033,0.15089939534664154,0.06787484884262085,0.06671356409788132,-0.07359696924686432,0.10102527588605881,0.049491461366415024,0.10775328427553177,-0.02248183637857437,0.0872574970126152,0.07478858530521393,-0.013800367712974548,-0.08987691253423691,0.001800405327230692,0.034237250685691833,-0.20093907415866852,-0.02059057168662548,-0.18038946390151978,-0.18179506063461304,0.0333075076341629,0.10852646082639694,-0.101865254342556,0.010608646087348461,-0.4156997501850128,0.028618082404136658,-0.1836123913526535,0.01592596061527729,0.17284457385540009,-0.020290959626436234,0.07907430827617645,0.12375493347644806,0.734558641910553,0.0026429402641952038,-0.5564558506011963,-0.02253817580640316,0.02999001555144787,-0.057182591408491135,0.006034364923834801,-0.07614988088607788,-0.08628862351179123,0.0575471930205822,0.0016899456968531013,0.11540170013904572,-0.3000512421131134,0.7322940826416016,0.23941409587860107,-0.06883382797241211,-0.041984084993600845,0.004279824905097485,0.03727290406823158,-0.4265427887439728,-0.022177264094352722,-0.09584814310073853,0.11819814890623093,-0.11193124949932098,-0.1331842988729477,0.00040398022974841297,-0.24180211126804352,0.4266918897628784,-0.08500154316425323,-0.053440600633621216,-1.5293735486920923e-06,0.09452161937952042,-0.034590743482112885,-0.045677296817302704,-0.012083069421350956,-0.017063837498426437,-0.02986525371670723,-0.01738707907497883,-0.03511451557278633,0.03974713385105133,-0.11376647651195526,-0.002108090789988637,0.3476370871067047,0.20080654323101044,0.011661874130368233,-0.11487472057342529,-0.031242871657013893,0.007187854032963514,-0.5499818325042725,-0.07928347587585449,0.14979740977287292,-0.0014205757761374116,-0.04210745915770531,-0.4202219247817993,0.13338395953178406,0.1715976446866989,-0.04312106966972351,-0.10191980004310608,0.02446417696774006,0.018906140699982643,-0.0921872928738594,-0.1082218587398529,-0.011235819198191166,0.011079222895205021,-0.001826232997700572,-0.05350382253527641,0.0009697485947981477,0.24712596833705902,0.004357506521046162,0.19733218848705292,0.027659323066473007,-0.370043009519577,0.028518961742520332,-0.20792770385742188,0.1769728660583496,-0.25768786668777466,0.024508122354745865,0.04576733335852623,-0.00031947941170074046,0.14738263189792633,-0.001184755703434348,-0.08298090100288391,0.2534716725349426,0.04492279142141342,0.00793528463691473,0.1188480406999588,0.045118995010852814,0.009415355511009693,-0.1720600426197052,0.05211890488862991,0.052136655896902084,-0.0078026955015957355,-0.302231103181839,0.029757758602499962,0.32912296056747437,0.19062457978725433,0.022069910541176796,0.00997270829975605,-0.1373290866613388,-0.05460728704929352,-0.01009979099035263,-0.12546980381011963,0.19150876998901367,0.08811306208372116,0.15542227029800415,-0.221650630235672,-0.011103392578661442,0.0558561310172081,0.4635464549064636,0.06478150933980942,-0.02713009901344776,0.03602388873696327,0.2128869891166687,0.07464119046926498,0.00946288462728262,-0.05539269745349884,-0.033589232712984085,-0.050628662109375,0.04422009363770485,0.1094396710395813,0.060005079954862595,-0.06518144905567169,-0.010124308988451958,-0.0375659316778183,-0.028207628056406975,-0.006148896180093288,0.09858518838882446,0.0451480895280838,0.027130503207445145,-0.02825319394469261,-0.014699379913508892,-0.0043274578638374805,0.014919976703822613,0.038753919303417206,-0.0021741590462625027,-0.13782304525375366,-0.8874984979629517,-0.00225618458352983,-0.09096579253673553,0.056121282279491425,-0.15500634908676147,-0.29361292719841003,-0.13155654072761536,-0.04456669092178345,0.0527198426425457,-0.08685309439897537,0.08321693539619446,-0.006701202597469091,0.002924968721345067,-0.026900138705968857,-0.21593908965587616,0.11205964535474777,0.13925273716449738,-0.17749416828155518,-0.16471903026103973,0.008757058531045914,-0.009269886650145054,-0.09843765944242477,0.05029278248548508,-0.002804019721224904,-0.008141451515257359,-0.08324835449457169,-0.16029278934001923,0.12630975246429443,-0.019450990483164787,-0.3652707040309906,0.18627148866653442},{-0.07470406591892242,-0.22789418697357178,0.10511233657598495,-0.1221456378698349,-0.18846288323402405,0.044526148587465286,0.09100113809108734,-0.005289968568831682,-0.04308674484491348,0.08290128409862518,-0.4146226644515991,0.09794381260871887,0.008586332201957703,-0.051343467086553574,0.03602757304906845,0.010416965000331402,-0.1942010372877121,-0.020296137779951096,0.18652503192424774,0.354806512594223,0.04054992273449898,-0.09442944824695587,-0.009768025949597359,0.001610692241229117,-0.04264280945062637,-0.10312560945749283,-0.22475390136241913,0.6130224466323853,0.5145136713981628,0.010835593566298485,0.11702265590429306,-0.1570732146501541,0.25971725583076477,0.053071871399879456,0.038204554468393326,-0.11856959760189056,-0.10202658176422119,-0.06172798201441765,0.3182746171951294,0.14507953822612762,-0.02246597222983837,0.03371058404445648,0.17128485441207886,-0.01901826076209545,-0.10798981785774231,-0.34699180722236633,0.016118958592414856,0.5372850298881531,-0.22126124799251556,-0.12740400433540344,-0.0326884426176548,-0.07335813343524933,-0.19719034433364868,0.3809223175048828,-0.34768348932266235,-0.08273890614509583,-0.11510223895311356,-0.058848120272159576,-0.1603328436613083,0.11692919582128525,0.0870576947927475,0.1680774837732315,0.0015523169422522187,0.270192950963974,0.04217631742358208,0.15901634097099304,-0.037922997027635574,0.17304009199142456,0.05103899538516998,0.0033969352953135967,-0.2939581274986267,-0.03322495520114899,-0.02532648853957653,-0.30613207817077637,-0.13495610654354095,-0.2728595435619354,-0.5532225370407104,0.15467698872089386,0.029136719182133675,-0.17057760059833527,0.09379635751247406,-0.4169366955757141,0.05449611693620682,-0.30327773094177246,0.005857356823980808,0.1264275312423706,-0.010383417829871178,0.020736929029226303,0.132685124874115,0.8539561033248901,0.06032256409525871,-0.8560131788253784,-0.09740486741065979,0.0455295704305172,-0.21173757314682007,0.03698599338531494,-0.17739231884479523,-0.12279995530843735,0.1422218531370163,-0.06414724141359329,0.15952003002166748,-0.35092175006866455,0.8222274780273438,0.23877477645874023,-0.03364556282758713,0.017093593254685402,0.05664893239736557,0.04882297292351723,-0.5502150654792786,-0.07821951061487198,-0.26604148745536804,0.06221691146492958,-0.16296717524528503,-0.0565759614109993,0.02417449839413166,-0.15156641602516174,0.705011248588562,-0.1196218878030777,-0.09290523827075958,0.059906408190727234,0.010926887392997742,-0.19140657782554626,-0.08082684129476547,-0.029560862109065056,0.0389803946018219,-0.08715613186359406,0.030332287773489952,-0.11717621982097626,0.002398309065029025,-0.10078265517950058,-0.09482535719871521,0.38473817706108093,0.1650192141532898,-0.028743673115968704,-0.09686239063739777,0.01135850790888071,0.01606244407594204,-0.6367728114128113,-0.06794754415750504,0.24814122915267944,-0.04590441286563873,-0.11074157804250717,-0.47037750482559204,0.004025927744805813,0.1957518458366394,-0.030104629695415497,0.08247346431016922,-0.02923726849257946,0.052805304527282715,-0.08427000045776367,-0.04312299191951752,-0.0056406534276902676,0.08574463427066803,0.06266326457262039,-0.1729673594236374,0.08586129546165466,0.37095510959625244,0.10436531156301498,0.2225898653268814,0.010903432033956051,-0.4851602613925934,0.06894806772470474,-0.45322495698928833,0.18814411759376526,-0.23794230818748474,0.036072198301553726,0.14614054560661316,0.01844492182135582,0.22407054901123047,-0.024163231253623962,-0.1283968985080719,0.34558913111686707,0.06222014129161835,0.002032653894275427,0.14972729980945587,0.031555790454149246,0.004302971065044403,-0.3094068765640259,0.11747846752405167,0.004870531614869833,-0.02711060456931591,-0.1659241020679474,0.06009295582771301,0.3734213709831238,0.14632844924926758,-0.03592528775334358,-0.04154827445745468,-0.047534432262182236,-0.15207745134830475,0.07193350791931152,-0.029816605150699615,0.21969306468963623,0.11098336428403854,0.15395155549049377,-0.13147759437561035,-0.10863997787237167,0.07050938904285431,0.6543356776237488,0.2427249252796173,0.15677715837955475,0.003850802779197693,0.37076401710510254,0.15973474085330963,0.07998574525117874,-0.03642214462161064,-0.020164260640740395,-0.002727700863033533,0.10516729205846786,0.08071905374526978,0.21766528487205505,-0.22645710408687592,0.010889669880270958,-0.13100183010101318,-0.06332442164421082,-0.14089348912239075,0.11144933104515076,0.2823180854320526,0.03417697548866272,0.06301956623792648,-0.020597228780388832,-0.026671214029192924,0.08670184016227722,0.04235973581671715,0.045105941593647,-0.07972149550914764,-1.0919567346572876,0.010387474671006203,-0.052968163043260574,0.18616148829460144,-0.30463677644729614,-0.3477047383785248,-0.16229017078876495,-0.0871313065290451,0.12367389351129532,-0.2761325240135193,0.12184927612543106,0.029798870906233788,0.01803716830909252,-0.03777629882097244,-0.33068299293518066,0.07251249998807907,0.14696848392486572,-0.3571579158306122,-0.3656991422176361,0.03674451634287834,-0.03922061622142792,-0.03633900731801987,0.1634037345647812,-0.05568757280707359,-0.08822458982467651,-0.09163791686296463,-0.09150929749011993,0.11975717544555664,0.06108684092760086,-0.2532634735107422,0.17002356052398682}};
static const float mlp_2_weight[256][256] = {{0.0521785244345665,0.002277170307934284,6.656545883743092e-05,-0.00773991784080863,0.011156857945024967,0.004891476593911648,3.4985723686986603e-06,-0.008760284632444382,0.009731603786349297,-0.060039207339286804,-0.007088599726557732,-0.05067775398492813,7.47101125853078e-07,-8.339168562088162e-05,0.0006827730685472488,0.03825177997350693,0.05906479433178902,-0.003381201298907399,0.020389355719089508,-0.0355498343706131,-0.10997428745031357,0.0494714081287384,1.0364374247728847e-06,-0.005234584212303162,0.033659037202596664,-0.10438507795333862,-0.023197226226329803,0.031071914359927177,-1.0594690138532314e-06,-0.002379793208092451,0.04107765853404999,0.049450479447841644,-0.02416260726749897,-0.07894594222307205,-0.012995056807994843,-1.2164980944362469e-05,-1.6789563233032823e-06,-2.4525974367861636e-05,0.13726039230823517,-0.0013249333715066314,1.3364876849664142e-06,-0.01853833720088005,0.026501044631004333,-0.03625330701470375,-0.034371405839920044,-2.433155543712928e-07,0.06769754737615585,0.0019035289296880364,-0.05865956470370293,0.0038506994023919106,-0.05145474895834923,0.0036952549125999212,0.14898774027824402,0.0033891138155013323,-6.961373628655565e-07,-0.2014147788286209,0.14050200581550598,-0.060954708606004715,-1.7249014661047113e-08,-0.039979238063097,1.8375549188931473e-05,-0.06113116815686226,0.004525322467088699,-0.1225586012005806,0.009642778895795345,0.06914423406124115,0.00013655358634423465,-0.03933305665850639,4.7792749683139846e-05,0.032404109835624695,-0.00507502444088459,-0.0035785199142992496,6.2467565840051975e-06,0.011466550640761852,0.02096771076321602,0.001366856275126338,-0.02875729463994503,4.138005067488848e-07,0.0009092576219700277,0.0002904348657466471,0.0006111512775532901,-0.0051473407074809074,-0.005546957720071077,0.05559123307466507,-0.14075708389282227,-0.0005577743286266923,-0.017366819083690643,0.047017648816108704,0.08759023249149323,-3.6141384043730795e-05,-0.09455915540456772,-0.09017901867628098,-0.038312312215566635,0.002201080322265625,0.010683536529541016,-3.0141949537210166e-05,0.03189878538250923,0.05871090665459633,-3.5919576475862414e-05,-0.018680691719055176,0.009351023472845554,0.04428330808877945,-0.09046178311109543,0.10838678479194641,-0.04482722282409668,0.02936839871108532,-0.09727351367473602,0.0148861613124609,-0.0006999708130024374,-0.002133812289685011,-0.00918505247682333,-0.0076445541344583035,-0.012321249581873417,4.913193265565496e-07,-0.01874692365527153,0.06723921746015549,0.0008836984052322805,0.03591072931885719,0.0018334980122745037,0.00843050517141819,1.446070569954827e-07,0.000520478468388319,-0.0001693610829534009,9.405640071236121e-07,0.028747910633683205,-0.005825154483318329,0.011120328679680824,0.0022302106954157352,0.014716953970491886,1.1373675079084933e-05,1.0257673821456592e-08,-0.09968239814043045,-5.80353935220046e-06,-3.179250995799521e-08,-0.009870749898254871,-9.412439112566062e-07,-0.002707813400775194,-4.865289042754739e-07,0.007256269454956055,0.0021776873618364334,0.17656287550926208,-0.0926978662610054,-0.009267686866223812,-6.753375458856681e-08,0.002216384978964925,0.015812790021300316,7.094436149657213e-09,-0.057729583233594894,9.06847674286837e-07,0.0022231852635741234,0.019033115357160568,0.06889580190181732,0.004000075627118349,-0.048732906579971313,-2.944949119410012e-05,-0.009694915264844894,-0.1548774093389511,-0.0008291185367852449,0.03906526789069176,0.027747254818677902,-0.001981271430850029,-0.0003768010064959526,0.019007517024874687,-1.6761416645749705e-06,0.004809797741472721,0.0027284936513751745,-0.04219530150294304,-0.03129927068948746,-5.435435377876274e-05,6.155366918392247e-07,0.0019510649144649506,-0.011647493578493595,-0.062323182821273804,-0.0035020981449633837,-0.01742604933679104,-0.10098093748092651,-0.07856146991252899,-0.016147494316101074,-0.007113441359251738,1.0454382248781258e-07,-0.006327028851956129,-0.00014107358583714813,0.143151193857193,-0.0018468400230631232,0.009686489589512348,-1.517388409411069e-05,-0.04414892569184303,-0.023511990904808044,0.00528887752443552,0.07385514676570892,2.2837675714981742e-06,-0.006963684689253569,1.590411557117477e-05,2.982782687510621e-09,0.00867072120308876,-1.4482044434771524e-06,0.16906441748142242,0.07270029932260513,0.0010839535389095545,-0.0002550495264586061,-3.84515851692413e-06,-0.028050703927874565,-0.0041287001222372055,-0.041183460503816605,0.0064519173465669155,0.036736104637384415,-0.0008867697324603796,-0.02784944325685501,-0.0009224092937074602,0.035538408905267715,0.032434552907943726,0.009635258466005325,-0.0054712677374482155,-0.014575647190213203,-1.4291861134552164e-06,0.00015089940279722214,-1.490311802854194e-07,-4.881891868535604e-07,0.013759027235209942,0.014541439712047577,0.09304264187812805,0.08994438499212265,-1.9541391793609364e-06,0.134108766913414,-3.702601134136785e-06,0.30291426181793213,-0.034881170839071274,0.08193441480398178,-0.007633786182850599,4.4985688418819336e-07,0.016669142991304398,0.11679516732692719,0.008592893369495869,0.04063025861978531,3.2844408082155496e-08,0.009347865357995033,0.1994774043560028,-0.00016829566447995603,0.0012299108784645796,0.067926786839962,0.009603258222341537,-0.006530728191137314,-0.04969732090830803,-0.008093089796602726,-9.307427717430983e-07,1.422066588929738e-07,-0.006214984692633152,-0.04828064143657684,5.434070317278383e-06,0.027384167537093163,-0.0002453440392855555,0.004550904501229525,-0.007034709677100182,0.00710077490657568,-0.1364334672689438,-0.04454876855015755},{0.10372040420770645,0.00458618113771081,-0.00022531271679326892,-0.0008253228152170777,-0.018698494881391525,-0.05182003602385521,-1.2258202559678466e-06,-0.006826532073318958,-0.012758898548781872,-0.00806127768009901,-0.004197551403194666,0.06267362833023071,2.2238492647375097e-07,8.11057398095727e-05,0.003775404067710042,0.023576021194458008,0.22355495393276215,0.04234948381781578,-0.0008426161948591471,0.03909388557076454,-0.10606595873832703,-0.08150729537010193,-7.847970664442983e-07,-0.0042069777846336365,-0.013091519474983215,-0.00863885972648859,0.03163401782512665,-0.06642729789018631,1.211450353366672e-06,-0.00730972969904542,-0.1373426616191864,-0.06724268943071365,-0.04550079256296158,0.15169267356395721,-0.0026304947677999735,-1.2985768989892676e-05,1.0445246516610496e-06,-3.730892058229074e-05,-0.03989188000559807,0.00614667683839798,-1.1931813332921593e-06,0.022960839793086052,-0.004457485396414995,-0.025253798812627792,0.0038039181381464005,-1.253662276212708e-06,-0.018282221630215645,0.004870939999818802,0.0076703703962266445,0.0946100503206253,-0.004190441220998764,-0.008588418364524841,0.05212102830410004,0.0033583524636924267,7.33936431629445e-08,0.16892489790916443,-0.07477850466966629,0.03469129651784897,-2.9725541139669076e-08,-0.00396456103771925,-2.1706448023905978e-05,0.08455903828144073,-0.01353087741881609,0.1489892601966858,-0.02739768475294113,-0.057079948484897614,-0.0005741604836657643,0.05945492908358574,-2.5931629352271557e-05,0.031657733023166656,0.012826560996472836,0.016370689496397972,-3.4318550206080545e-06,0.024427272379398346,-0.028118669986724854,0.010550816543400288,0.0019127989653497934,5.333901853532552e-08,0.0009297915967181325,0.021420380100607872,-0.0007962713716551661,0.0427175797522068,0.011937045492231846,-0.08865536004304886,-0.020472364500164986,0.0005094882217235863,-0.012036550790071487,-0.08386414498090744,-0.03666846826672554,1.9387700376682915e-05,-0.060180287808179855,0.31233152747154236,0.0055095599964261055,-0.03193406015634537,-0.00025232438929378986,3.144966467516497e-05,0.05768701061606407,0.008119168691337109,1.8315648048883304e-05,0.011396292597055435,-0.0011554089142009616,-0.002311495365574956,-0.019004488363862038,-0.09060567617416382,0.009863616898655891,0.007274426985532045,0.040987301617860794,-0.0016183526022359729,-0.004592682234942913,-0.04053138568997383,0.00720967585220933,0.008499599993228912,-0.00843798741698265,-6.317760039564746e-07,0.00958851259201765,-0.027743272483348846,0.001635348191484809,0.08455877006053925,0.005988912656903267,-0.011916451156139374,-2.0587864923982124e-07,-0.005031882785260677,0.0004942914238199592,-1.779175249794207e-06,-0.041112832725048065,0.005595434457063675,-0.01735265739262104,-0.006686352659016848,-0.041641779243946075,-4.277471452951431e-05,-1.0154204588275206e-08,0.0418408066034317,2.8444983399822377e-06,5.0840291976328444e-09,0.002758987480774522,1.3430848184725619e-06,0.002662144834175706,-8.659706622893282e-07,0.004074724856764078,-0.006638763006776571,-0.18134474754333496,0.0016995819751173258,0.013304001651704311,-3.159868366964247e-09,0.022124286741018295,-0.017533790320158005,-4.136005760102535e-09,0.17227447032928467,5.995931218194528e-08,-0.03407802805304527,0.011433269828557968,-0.07722096145153046,-0.005935681518167257,0.05964728817343712,2.436184558973764e-06,0.019891884177923203,-0.08430904150009155,-7.93206345406361e-06,-0.05679381638765335,0.018246185034513474,-0.0061874426901340485,-0.0012726453132927418,-0.028303880244493484,5.2271188906161115e-06,-0.0094351377338171,-0.021899960935115814,-0.061846185475587845,-0.0868380218744278,0.0004894680459983647,3.043456331397465e-08,0.00623350590467453,0.009929726831614971,-0.1876162588596344,-0.018021956086158752,0.03746255114674568,-0.0597863607108593,-0.032834868878126144,0.015349511988461018,0.08226283639669418,-3.9833548015622e-08,0.005776256788522005,0.0003773604694288224,-0.07455841451883316,0.003877149662002921,0.006138971541076899,5.861178578925319e-06,0.09097406268119812,0.022979533299803734,0.02557046338915825,0.015360184013843536,1.3427921658148989e-05,-0.029813561588525772,0.00034285668516531587,-7.494416198738918e-10,-0.021763421595096588,1.7791986692827777e-06,0.05227455869317055,-0.02271174266934395,-0.0038774393033236265,0.0010087735718116164,7.995671694516204e-06,0.026302771642804146,0.005328782834112644,0.17285771667957306,-0.02684793435037136,-0.016056878492236137,-0.01198081485927105,-0.0048447479493916035,0.032816436141729355,0.01682969182729721,-0.007522773463279009,-0.026349030435085297,0.015316484495997429,-0.014725557528436184,5.60675005090161e-07,0.0005627423524856567,2.162945520467474e-07,1.288453518100141e-06,0.03137099742889404,0.01763601414859295,-0.012877829372882843,-0.026107612997293472,1.7463489712099545e-06,-0.014247779734432697,1.3678323966814787e-06,-0.18589195609092712,-0.018532516434788704,-0.041606683284044266,-0.005089672282338142,-8.032880032260437e-07,0.011694171465933323,-0.041792742908000946,0.1046990156173706,-0.053798843175172806,-4.505517736674847e-08,0.010672096163034439,-0.25325772166252136,-0.0015734677435830235,-0.03355410695075989,0.08094942569732666,-0.011101747862994671,0.015487084165215492,0.06836099177598953,0.01794482208788395,1.0095132552123687e-07,-7.014733682808583e-08,0.01940322294831276,0.0623030886054039,6.146141822682694e-05,0.0031736111268401146,0.38539308309555054,0.008143173530697823,0.003806089051067829,-0.011625603772699833,0.04745033383369446,0.10308652371168137},{-0.055616363883018494,0.0023922084365040064,1.55949510372011e-05,-0.01545731071382761,-0.02858663909137249,-0.0004501352086663246,-2.3493238643368386e-07,0.04046813026070595,-0.0074167400598526,-0.057883575558662415,-0.01948339305818081,0.014128859154880047,7.428353683280875e-07,-0.003360920585691929,-0.004356702324002981,-0.029311249032616615,-0.03467230498790741,-0.016434531658887863,0.025785673409700394,0.036683689802885056,0.005516658071428537,0.05489629879593849,2.2537727772942162e-07,-0.03366244584321976,0.07500763237476349,0.07151740044355392,0.012534013949334621,-0.005457893013954163,-6.36672325526888e-07,-0.01327278558164835,0.06835438311100006,0.017032494768500328,0.0060735056176781654,0.07078322768211365,0.014655875973403454,-4.966968845110387e-06,1.557640985083708e-07,-2.6051689928863198e-05,0.1932878941297531,-0.02865666151046753,6.337309059745166e-07,-0.008806305006146431,-0.04392291605472565,-0.131246417760849,-0.002265254035592079,-9.708576271805214e-07,-0.164872944355011,-0.060226768255233765,0.06524667888879776,0.018507633358240128,0.04615527391433716,-0.010132333263754845,-0.11996838450431824,-0.0018870665226131678,-3.8476457575598033e-07,-0.021170055493712425,-0.054419949650764465,-0.007683723699301481,1.2944875038556347e-07,0.05656246840953827,1.643956420593895e-05,0.027129219844937325,0.004076212644577026,-0.005042264703661203,-0.10436592251062393,-0.06514699012041092,0.0006874196114949882,-0.014922169968485832,1.3739567293669097e-05,0.08561379462480545,0.005286993458867073,0.01579253189265728,1.798168682398682e-06,-0.02072356827557087,0.012715019285678864,-0.021552525460720062,0.015650302171707153,-7.062610052344098e-08,-0.03360737860202789,0.03328917920589447,-4.232439459883608e-05,-0.012422889471054077,0.061709485948085785,-0.02225218527019024,0.009240128099918365,0.017078634351491928,0.027336375787854195,0.03404851630330086,0.02635459043085575,-2.1078417375974823e-06,0.057887040078639984,-0.07055335491895676,0.0011161686852574348,-0.021535605192184448,-0.02862793207168579,4.722828634839971e-06,-0.027980482205748558,-0.01515960693359375,-1.5915564290480688e-05,0.052606794983148575,-0.004783314187079668,-0.01671467162668705,0.16378192603588104,0.024889759719371796,0.045596107840538025,0.016332609578967094,-0.01448624674230814,-0.023959234356880188,-0.0020674157422035933,0.006078028120100498,-0.009448783472180367,0.015569513663649559,-0.030180923640727997,-6.056563250922409e-08,0.03079850971698761,-0.06236792355775833,0.0071641202084720135,-0.0056331162340939045,0.03998303785920143,-0.007939230650663376,1.634328299360277e-07,-0.019880428910255432,4.1542287362972274e-05,5.324615131030441e-07,-0.0229374747723341,-0.010730528272688389,-0.015468663536012173,-0.006086223758757114,-0.042453985661268234,-4.644932118935685e-07,6.116325224070351e-09,0.12584252655506134,3.497691523079993e-06,2.0041387216451767e-08,0.03744186460971832,-9.436239452043083e-07,0.013722996227443218,-5.842171617587155e-07,-0.016642220318317413,-0.00042185981874354184,0.010013381950557232,0.15325599908828735,0.036376696079969406,-8.386165006868396e-08,-0.03282202035188675,-0.027539264410734177,2.4058783854030708e-09,-0.042915891855955124,6.688966323054046e-07,-0.023922927677631378,-0.022397439926862717,0.04156862571835518,-0.0006046632188372314,0.01633526012301445,-2.302665052411612e-05,0.01979515329003334,0.10030432790517807,0.00018618778267409652,-0.0036713285371661186,-0.02600373700261116,0.010352500714361668,0.0003493630210869014,-0.0016606408171355724,6.395529794644972e-07,0.01898123510181904,0.002240492030978203,0.020736556500196457,-0.01778244599699974,8.052858902374282e-05,-2.6620793391884945e-07,-0.013056855648756027,0.024035871028900146,-0.07384070008993149,-0.028274042531847954,0.0421428456902504,0.1316881775856018,0.045550309121608734,0.03160489350557327,-0.002937538083642721,6.682439845917543e-08,0.0169071052223444,2.489495454938151e-05,0.014995713718235493,-0.01834959164261818,0.014009750448167324,6.406037300621392e-07,-0.036168646067380905,0.008794301189482212,0.0031562955118715763,0.05261775106191635,3.4261126984347356e-06,-0.027863526716828346,0.00010917716281255707,-1.2185130682240697e-10,-0.02213858999311924,-1.1174422809290263e-07,-0.10062046349048615,0.04231534153223038,0.0011837293859571218,-0.00021838644170202315,8.958754449395201e-08,-0.013257401995360851,0.009817667305469513,-0.07819543778896332,-0.03923308104276657,-0.008348810486495495,-0.011228415183722973,-0.010449224151670933,0.013569319620728493,-0.1622624695301056,0.1439945250749588,-0.0330769382417202,0.017576567828655243,0.05914324149489403,-7.276308338077797e-07,-1.1009452464350034e-05,-1.6413278558502498e-07,-4.0629979025652574e-07,-0.031102143228054047,-0.01923842914402485,-0.024347007274627686,-0.03923073038458824,-1.0137697472600848e-06,-0.043450988829135895,-8.816931540422956e-07,0.027224693447351456,-0.01942351646721363,0.010945314541459084,0.002047634217888117,7.603098879371828e-07,-0.009303776547312737,0.005545854568481445,-0.10523480921983719,0.010133890435099602,4.1917829207704926e-08,0.013374893926084042,0.008189902640879154,-9.326382860308513e-05,-0.04935092106461525,-0.06694433093070984,-0.01928970217704773,0.06656401604413986,-0.03598061203956604,0.013142654672265053,-6.096610150052584e-07,4.691225896635842e-08,0.02207373082637787,0.013457450084388256,-1.2434951713657938e-05,0.0168321430683136,-0.06806545704603195,-0.01166723296046257,0.016497846692800522,-0.015795107930898666,-0.04192926362156868,-0.044579941779375076},{-0.08571379631757736,0.002199082402512431,0.00017231614037882537,-0.018508484587073326,0.005558207631111145,-0.0422690324485302,-1.4249853848014027e-06,-0.015172833576798439,-0.017936592921614647,-0.03430403396487236,-0.004007529467344284,0.011888165958225727,-1.152413574345701e-06,-0.0036498685367405415,-0.0031153291929513216,-0.050983961671590805,-0.09127429872751236,0.03462856635451317,0.015780702233314514,-0.002870615804567933,0.08336260914802551,-0.0006096697761677206,-1.3874044668682473e-07,0.03096235916018486,0.09760411083698273,0.06110338494181633,-0.0025610527954995632,-0.0010509390849620104,1.7945942545338767e-06,-0.0024488307535648346,-0.09821160137653351,0.0004577470535878092,0.032352495938539505,0.055301956832408905,0.01726529747247696,9.935329217114486e-06,1.1081614275099128e-06,3.319324605399743e-05,-0.10733582824468613,-0.009001566097140312,-6.253494575503282e-07,0.057582780718803406,-0.028454069048166275,0.14925868809223175,0.05661633610725403,2.5639681666689285e-07,0.036657560616731644,0.016724122688174248,0.059942252933979034,-0.01458751317113638,0.0018059909343719482,-0.009890886023640633,-0.04926871508359909,0.0038219785783439875,6.021520562171645e-07,0.02774587646126747,-0.014700816944241524,0.012046382762491703,-6.362119364666796e-08,0.052012909203767776,1.3658440366270952e-05,0.009073050692677498,-0.026753338053822517,0.03390713781118393,0.09631511569023132,0.012658664025366306,0.0001808511296985671,-0.03188202157616615,-4.3259624362690374e-05,-0.10493101179599762,0.0028818915598094463,0.0015905002364888787,-3.2168597954296274e-06,-0.022026486694812775,-0.028038062155246735,-0.02052866481244564,-0.009988314472138882,-1.429409621778177e-07,-0.004630403593182564,-0.01896001026034355,-6.41777369310148e-05,0.015130617655813694,0.0008471704786643386,-0.019522562623023987,-0.03486251458525658,0.007639691699296236,0.012382562272250652,0.0007204397115856409,-0.027423180639743805,4.3556876335060224e-05,0.027438396587967873,-0.11134625971317291,0.08477143198251724,0.10433173924684525,-0.017893608659505844,8.35375703900354e-06,0.07945270091295242,-0.09417770802974701,6.952162220841274e-05,-0.03660931810736656,0.006131337955594063,0.003304507117718458,-0.0023316785227507353,-0.08245310932397842,0.03108365088701248,-0.04046207666397095,0.07654453814029694,-0.01344220619648695,-0.0022379665169864893,-0.02886820025742054,-0.0042073470540344715,0.013009241782128811,-0.02509877271950245,-3.083529236391769e-07,0.017800774425268173,0.010588119737803936,0.004460733849555254,-0.1450963020324707,-0.029585888609290123,-0.008672688156366348,-1.8081581742990238e-07,-0.014546357095241547,0.00034525530645623803,-1.5974200096025015e-06,0.0028636076021939516,-0.029704684391617775,-0.0067023783922195435,-0.0043329112231731415,-0.014030651189386845,0.00013117564958520234,-7.1562000769631595e-09,0.0285528302192688,-9.160125046037138e-06,-3.603783937933258e-12,-0.018489304929971695,7.425511512337835e-07,0.0013945404207333922,4.97738540161663e-07,-0.015850428491830826,-0.0021828697063028812,-0.04075244814157486,0.006593043450266123,0.02917478047311306,8.66660911924555e-08,-0.0049842121079564095,0.08747468143701553,-4.958070842775442e-09,-0.05071521922945976,-8.304614880216832e-07,-0.00467334408313036,-0.01496287900954485,-0.06824404746294022,-0.00279911863617599,0.013241946697235107,2.8443930204957724e-05,0.051259249448776245,0.0009067109785974026,0.00014171020302455872,-0.007942575961351395,0.01602555438876152,-0.035480860620737076,9.898573625832796e-05,0.01613704115152359,2.527776814531535e-06,-0.006820498500019312,0.002490062965080142,-0.07662608474493027,0.09030020236968994,-2.4005350496736355e-05,-1.8802523982230923e-07,-0.013645406812429428,0.008855553343892097,0.06921404600143433,0.005456879734992981,-0.03600507602095604,-0.020541034638881683,0.018242422491312027,0.03025556169450283,-0.0556764118373394,-8.106258064799476e-08,0.004533317405730486,-0.0001278472482226789,0.02453864924609661,-0.009592858143150806,0.014954451471567154,6.058664439478889e-06,-0.0016517330659553409,0.030650710687041283,-0.040824826806783676,-0.06210627779364586,1.1359110430930741e-05,-0.0029034034814685583,0.0009656751062721014,-4.521605312390875e-12,-0.0077258567325770855,5.090783474770433e-07,-0.08010287582874298,-0.12280476093292236,0.0023218654096126556,-0.00021882407600060105,1.615819428479881e-06,-0.027481483295559883,0.004080509301275015,0.07296022027730942,0.02491004578769207,-0.014377634972333908,-0.009918020106852055,0.06593203544616699,0.021781614050269127,0.03438746556639671,-0.05272070690989494,0.015609055757522583,0.017721151933073997,-0.0031428569927811623,9.59937665356847e-07,0.00012457964476197958,1.9462549971649423e-07,9.774093996384181e-07,0.010169331915676594,-0.014517698436975479,-0.06114546209573746,-0.031081922352313995,1.5527305095019983e-06,0.013714808970689774,2.200822564191185e-06,-0.09210608899593353,0.023309433832764626,0.008068387396633625,0.0025941517669707537,-1.288481712435896e-06,-0.01226512249559164,-0.09549132734537125,-0.003870768239721656,-0.015663720667362213,-4.9811529123644505e-08,0.004777515307068825,-0.07018738985061646,4.586757131619379e-05,-0.033511605113744736,0.02226153388619423,-0.010977009311318398,0.026982281357049942,0.04547854885458946,-0.027056338265538216,7.950714575599704e-07,-9.452229221551534e-08,0.011993408203125,0.009482781402766705,1.3716170542465989e-05,-0.03554046154022217,-0.10345876216888428,-0.0033941403962671757,0.029569867998361588,-0.01888512447476387,0.010237581096589565,-0.0021655757445842028},{-0.020145274698734283,-0.000921323022339493,4.0828621422406286e-05,-0.005673394538462162,0.010602694936096668,0.0642828568816185,1.921567218232667e-06,-0.009522362612187862,0.00247553875669837,-0.006665381137281656,-0.00046845307224430144,-0.001381667796522379,7.998349360605062e-07,0.0012889872305095196,0.000433658977271989,-0.08116656541824341,0.024592656642198563,-0.04405347630381584,0.01730995438992977,-0.05140820890665054,-0.005338113289326429,0.01960848644375801,-8.313785428981646e-07,0.015140844509005547,-0.0030138795264065266,0.06169081851840019,-0.005487638060003519,-0.010075312107801437,-1.1205379450984765e-06,-0.013209538534283638,-0.07913020998239517,0.0016344493487849832,0.06700597703456879,-0.004653048235923052,-0.0008943770080804825,-1.0418625606689602e-05,-7.192944622147479e-07,-3.5895758628612384e-05,-0.0014462096150964499,-0.0059249005280435085,3.4259579706485965e-07,-0.06083144247531891,-0.014000040479004383,0.1453704684972763,0.14286071062088013,-4.833858611164032e-07,0.06073768436908722,0.017425023019313812,0.0003344249853398651,-0.04120202735066414,-0.012455242685973644,0.0025978756602853537,0.051746342331171036,0.004969210363924503,-5.567487733060261e-07,-0.04674571752548218,0.11577147245407104,0.011395993642508984,2.503020368749276e-07,-0.011089627631008625,3.127655872958712e-05,-0.0008935659425333142,0.01310665812343359,-0.041064195334911346,0.14194852113723755,0.034148309379816055,0.0001822824269765988,0.07687675207853317,3.233578900108114e-05,-0.08295966684818268,-0.00158279063180089,-0.0021853139623999596,5.085431894258363e-06,-0.011540127918124199,0.02958369068801403,-0.002552164951339364,0.010315784253180027,2.008798531960565e-07,-0.01214037835597992,-0.011126378551125526,-2.770188757494907e-06,-0.05422808229923248,-0.012476585805416107,0.03607998415827751,0.03316451236605644,-0.0012904676841571927,0.015591351315379143,0.00408463878557086,-0.03727834299206734,-2.713232061068993e-05,-0.03534131124615669,-0.006750534288585186,-0.012793893925845623,-0.03485599532723427,-0.000893225718755275,-7.964696123963222e-06,-0.00736492034047842,0.023104578256607056,-3.0262788641266525e-05,-0.02701825276017189,-0.02976425550878048,-0.024435153231024742,-0.0532512404024601,0.03119083307683468,-0.118449367582798,-0.027253026142716408,0.015966875478625298,-0.002877378836274147,-3.534862844389863e-05,0.035113219171762466,0.0008999346755445004,-0.002043259795755148,-0.012153786607086658,2.1418424012153991e-07,0.025803059339523315,0.06961186230182648,-0.002234874991700053,-0.07566344738006592,-0.018034178763628006,0.0022185584530234337,3.2527475468668854e-07,0.0014895725762471557,-5.429735756479204e-05,9.861439593805699e-07,0.017502160742878914,0.01929343305528164,0.0027250293642282486,0.0015736481873318553,0.015379011631011963,1.0209013453277294e-05,5.522537982471931e-09,-0.0668623074889183,3.698682849062607e-05,6.296497190305672e-08,-0.009566656313836575,-1.4047604963707272e-06,-0.0019878773018717766,-5.748958642470825e-07,-3.3750649890862405e-05,0.00014786288375034928,0.06052880734205246,-0.08235078305006027,-0.0006654635653831065,-9.313900761753757e-08,-0.008317645639181137,0.07326028496026993,6.997849855139293e-09,-0.01288073230534792,8.226331260630104e-07,0.0043508801609277725,-0.0004341446328908205,0.0010928231058642268,8.564264862798154e-05,-0.002595866797491908,-3.084667696384713e-05,-0.038932036608457565,-0.03267592191696167,1.1046921827073675e-05,-0.0018670702120289207,-0.05126023292541504,0.040925465524196625,0.0001353783591184765,-0.007538253907114267,-9.913502481140313e-07,0.004312923178076744,0.001986586255952716,0.08487552404403687,0.019451133906841278,4.168310988461599e-05,1.6280505121812894e-07,0.01024287473410368,0.005344157572835684,0.09928558021783829,0.0004760687588714063,-0.032733671367168427,-0.08698837459087372,-0.0067493971437215805,0.0037274593487381935,0.00620499299839139,9.532737976769567e-08,0.0016832019900903106,8.888233423931524e-05,0.06899955868721008,0.0010370096424594522,0.006437812000513077,-7.015490609774133e-06,-0.005080635193735361,-0.010525115765631199,-0.03674282133579254,-0.02530047483742237,4.939828386341105e-07,-0.012190362438559532,-2.702197161852382e-05,-4.421401911258727e-09,-0.003211340866982937,-9.874104307527887e-07,0.04242415353655815,0.05406332015991211,-0.0003362396382726729,-0.00019831614918075502,-3.4555794172774768e-06,-0.02521803230047226,-0.001179274171590805,0.07315310090780258,0.0136107811704278,0.00383904785849154,0.002393648261204362,-0.07419198006391525,-0.003408612683415413,0.012734116986393929,-0.10144581645727158,0.008408176712691784,0.015608112327754498,-0.010709737427532673,-1.2963339486304903e-06,-2.683727871044539e-05,-4.3600181243164116e-07,-7.62885065341834e-07,0.10244125127792358,-0.003674629144370556,-0.015273499302566051,0.10890737920999527,-2.921141231126967e-06,-0.030041197314858437,-2.2909525796421804e-06,0.05102585628628731,0.06831087917089462,-0.054465919733047485,-0.0005733483121730387,4.341347903391579e-06,0.001410079188644886,0.046441394835710526,0.10185857862234116,-0.00801762379705906,1.41483226911987e-07,-0.002046686364337802,0.06867380440235138,-8.90462160896277e-06,0.027040649205446243,0.00036816095234826207,0.0017593385418877006,-0.03705248981714249,0.018651241436600685,-0.010868377983570099,-7.997285820238176e-07,8.222584568784441e-08,0.00268598273396492,-0.002370184985920787,-6.219831448106561e-06,0.033903107047080994,-0.0493934340775013,0.002327759051695466,0.0008697881130501628,0.0016745699103921652,-0.07571163028478622,-0.002927160356193781},{-0.04502822458744049,-0.00038795231375843287,0.0009735965286381543,0.030298762023448944,0.03424741327762604,-0.007701445836573839,-1.6336374528691522e-06,-0.02588043361902237,-0.005399215966463089,-0.028930794447660446,0.008810611441731453,-0.04225786402821541,-5.981304980196001e-07,-0.003589097410440445,0.0028021277394145727,0.04201200604438782,-0.025297917425632477,0.01930892840027809,-0.0024965971242636442,-0.053239863365888596,0.003564488608390093,0.05422508716583252,7.796178920216335e-07,0.0030857655219733715,0.011728967539966106,-0.04945601150393486,-0.02182595431804657,0.042265892028808594,3.633568212535465e-06,0.02977258898317814,0.0163271501660347,0.0319216288626194,-0.05147501453757286,-0.0943993553519249,-0.01296207681298256,-1.8297522501597996e-06,-3.870082309731515e-06,8.234829874709249e-05,0.020400002598762512,0.020468242466449738,5.66750088637491e-07,-0.016684358939528465,0.03465588763356209,0.026660431176424026,-0.03366626054048538,1.4748646890438977e-06,0.10560446232557297,0.030115090310573578,-0.045838795602321625,-0.005583524238318205,-0.01640409417450428,0.011268455535173416,0.06989812105894089,-0.01683465763926506,2.827018192874675e-07,-0.115787073969841,0.09322232753038406,-0.006727330852299929,-7.29243225805476e-08,-0.06166927516460419,-5.958613837719895e-05,-0.06390827149152756,-0.0013364177430048585,-0.08638595044612885,0.05810050293803215,0.07050894945859909,-0.001664521754719317,-0.01953505352139473,3.7389319913927466e-05,-0.00921174418181181,-0.014964242465794086,0.008025011979043484,-1.105350065699895e-06,-0.002434000838547945,0.0182957760989666,-0.0009679524227976799,-0.03960791602730751,-7.443712206622877e-07,-0.0001793212431948632,-0.03784521296620369,0.000800256384536624,0.02009648270905018,-0.05117693915963173,0.06235535070300102,-0.10490752011537552,0.0033022265415638685,0.001896066591143608,0.02583412453532219,0.017196156084537506,-8.725079533178359e-05,-0.05363878235220909,-0.06903836131095886,-0.009426696226000786,0.0396919883787632,0.002122359350323677,-5.492558193509467e-05,0.06883857399225235,-0.010910466313362122,7.762216409901157e-05,-0.04144204035401344,0.026572110131382942,0.016715718433260918,-0.13605695962905884,0.08844588696956635,-0.015932774171233177,0.0035963491536676884,-0.07327749580144882,0.0043244208209216595,-0.00010127377754542977,-0.016437740996479988,0.018233949318528175,-0.002302060602232814,-0.012111861258745193,-3.9183561284517054e-07,-0.022008944302797318,0.00532913813367486,-0.0015178924659267068,0.006205245386809111,-0.02140309475362301,0.006182343233376741,8.025949682632927e-09,0.010242756456136703,-0.001502507133409381,-3.1900185604172293e-06,0.029645349830389023,-0.010705133900046349,0.005666407756507397,0.006210229825228453,0.03770288825035095,0.00014319783076643944,2.413306443571628e-09,-0.07008665055036545,-7.983941031852737e-06,-1.8511640220708614e-08,-0.027817677706480026,-7.683172498218482e-08,-0.010798931121826172,2.207454599556513e-06,0.01759549416601658,0.004140051547437906,0.11360341310501099,-0.09009423851966858,-0.01000094786286354,4.558473420956943e-08,0.0016644014976918697,0.02522192895412445,1.7601270441147676e-09,-0.0507623627781868,-1.9793546357504965e-07,0.0410478413105011,0.0013493879232555628,-0.010699385777115822,0.006156120914965868,-0.04496083781123161,-1.0895524610532448e-05,-0.016188615933060646,-0.04222334176301956,-0.0015245003160089254,0.02871035784482956,0.04363466799259186,0.026294216513633728,0.0003073242260143161,0.02167803980410099,-8.108395377348643e-06,0.006327423267066479,-0.009619822725653648,-0.031105931848287582,0.0341600626707077,-0.0005373016465455294,2.4764810291344475e-07,-0.01400015689432621,-0.005377636291086674,-0.011441557668149471,0.020823797211050987,-0.04319462180137634,-0.02610325627028942,-0.01252414658665657,-0.02945052646100521,-0.03614857792854309,-1.1941311051089087e-08,-0.013244285248219967,-0.0003893128305207938,0.043752897530794144,0.016472995281219482,0.012301463633775711,-4.426144187164027e-06,-0.025998922064900398,-0.008788276463747025,-0.022627245634794235,-0.028574785217642784,-4.432247078511864e-05,-0.005720869638025761,-0.0011837101774290204,1.5049071988570972e-09,0.012162021361291409,2.5344988898723386e-06,0.06384112685918808,0.022541359066963196,-0.0022227908484637737,0.0010520047508180141,-1.074023384717293e-05,0.020684482529759407,-0.003088337369263172,-0.04220225289463997,0.02091735601425171,0.04584711417555809,0.016202306374907494,0.02682730183005333,-0.009962956421077251,0.049322325736284256,-0.06030728295445442,0.00887012854218483,0.003908577375113964,-0.00772444810718298,-5.182212703402911e-07,8.491717744618654e-05,-1.1699427204803214e-08,2.8687938993243733e-06,0.031224433332681656,0.011967110447585583,0.051423825323581696,0.059391070157289505,-5.965555942566425e-07,0.0415654331445694,-1.0047982641481212e-06,0.15028367936611176,-0.004997710697352886,-0.023055300116539,0.0039781383238732815,-2.875980271710432e-07,0.017241764813661575,0.04517688602209091,-0.019269216805696487,0.0068792798556387424,8.290967912216729e-11,-0.010586176067590714,0.14116403460502625,-0.0005246453802101314,0.01532928366214037,0.06452611833810806,-0.008377674967050552,-0.05104293301701546,-0.04352633282542229,-0.02922724187374115,2.2198096871761663e-07,1.230821311537511e-08,-0.0009250881848856807,-0.045144207775592804,0.00015122524928301573,0.007763471454381943,-0.11123297363519669,-0.00628739083185792,-0.029309161007404327,0.02876529097557068,-0.03476357087492943,-0.021837394684553146},{-0.0530349500477314,-0.0028991298750042915,-8.715508738532662e-05,0.00266708480194211,0.012285969220101833,0.017872057855129242,-3.2843934150150744e-06,-0.013559778220951557,0.019948242232203484,0.019480688497424126,-0.0009952266700565815,-0.04128052294254303,-8.958602961683937e-07,0.006556541193276644,-0.0010509606217965484,-0.0330391451716423,-0.0968259796500206,-0.0020301511976867914,-0.021381797268986702,0.011246590875089169,0.01460789330303669,0.0092651741579175,6.443083293561358e-07,-0.005283485632389784,0.008942135609686375,-0.04410955682396889,-0.0198068730533123,0.0471067801117897,1.294995399803156e-06,-0.0014585086610168219,0.037677668035030365,0.034528620541095734,0.04368901252746582,-0.10281932353973389,0.005564916413277388,-7.039875981718069e-06,-1.507641627540579e-06,-1.851542401709594e-05,-0.02236351929605007,0.02222856692969799,6.110013828219962e-07,0.023148806765675545,-0.0031307151075452566,0.03488389030098915,-0.017083069309592247,1.2609726809387212e-06,0.05324970930814743,0.012018533423542976,-0.048000652343034744,-0.05216957628726959,-0.01641332358121872,0.013179998844861984,0.04084910452365875,-0.011381609365344048,4.4767421059077606e-07,-0.06336584687232971,0.03566812351346016,0.009924261830747128,-7.62525047548479e-08,-0.052759766578674316,1.0084739187732339e-05,-0.050953321158885956,-0.013900180347263813,-0.05920333042740822,0.04652145132422447,0.04841109737753868,-0.002091748174279928,-0.04134342074394226,2.8460532121243887e-05,-0.030175888910889626,0.004894637037068605,-0.007214109413325787,-3.820546680799453e-06,0.0038142658304423094,0.0006999914767220616,0.020864369347691536,0.01569734327495098,-9.44386897572258e-08,0.009408491663634777,-0.03146619349718094,0.0001096107589546591,0.0014704655623063445,-0.04097437858581543,0.049187999218702316,-0.01159252505749464,-0.007003262173384428,0.009021281264722347,0.03658320754766464,0.015558011829853058,-7.296671537915245e-05,0.012257378548383713,-0.10188010334968567,-0.010912866331636906,0.009376408532261848,-0.007910470478236675,1.8835302398656495e-05,0.006151712965220213,-0.015972204506397247,8.183259342331439e-05,-0.013546709902584553,0.02636672370135784,0.04620802775025368,-0.08169806003570557,0.028083661571145058,-0.0029322754126042128,-0.023555496707558632,-0.02870981954038143,-0.009215123020112514,0.0010575879132375121,-0.005327312275767326,0.009489833377301693,-0.001331924693658948,0.02755694091320038,1.1579233216707507e-07,-0.03565399348735809,0.048838429152965546,-0.005874366499483585,-0.04204689338803291,-0.0007005581283010542,-0.0009767751907929778,3.857761043946084e-08,0.014160897582769394,-0.00025031217955984175,-1.2501941455411725e-06,0.039735980331897736,0.014535683207213879,-0.004331299569457769,0.0016164422268047929,0.03826461359858513,-2.280975786561612e-05,3.6452143525878e-09,-0.052863843739032745,-7.114395884855185e-06,-1.0209133094463141e-08,-0.021417096257209778,-3.119677103313734e-07,-0.009415200911462307,1.3605691719931201e-06,-0.00895651988685131,-0.006648889742791653,0.07096885144710541,-0.030646083876490593,0.005981124006211758,1.1139940170323825e-07,0.027222387492656708,0.01781671866774559,-1.2373293500900218e-09,-0.06431549787521362,-6.676918360426498e-07,-0.009058685041964054,0.01229777466505766,0.02309424802660942,-0.00037371215876191854,-0.04072707146406174,-1.356861957901856e-05,-0.00425567664206028,0.0065867360681295395,0.0006505749188363552,0.04039696231484413,0.0010238193208351731,0.0054205311462283134,-0.0005605682381428778,0.015720410272479057,-2.0733382370963227e-06,-0.023598244413733482,0.011295842938125134,