#include "network_evaluate.h"

static const int structure [3][2] = {{12, 256},{256, 256},{256, 2}};
static float output_0[256];
static float output_1[256];
static float output_2[2];
static const float mlp_0_weight[12][256] = {{-0.004298809915781021,-0.09545916318893433,-0.14579986035823822,-0.137629434466362,0.33182618021965027,-0.13458974659442902,0.16728325188159943,-0.00746262539178133,0.11085931211709976,0.10914123058319092,-0.24492515623569489,0.09441395103931427,0.020696250721812248,0.0036975378170609474,0.03211960569024086,-0.18402312695980072,0.2718970775604248,-0.06978872418403625,0.08235793560743332,-0.026738081127405167,-0.008249174803495407,0.14229455590248108,-0.07635755836963654,0.0019375556148588657,0.13614125549793243,-0.01797749288380146,0.14777854084968567,-0.07560190558433533,-0.016924448311328888,-0.01683214120566845,0.08459561318159103,-0.10598518699407578,-0.15245619416236877,0.17046700417995453,-0.15794767439365387,-0.23733194172382355,0.08978092670440674,-0.230993390083313,0.0374487042427063,0.08928875625133514,-0.06432498246431351,-0.013731003738939762,-0.06956762075424194,0.0335317924618721,0.01329998578876257,0.15854211151599884,0.09771145135164261,-0.1746007204055786,-0.0031892897095531225,-0.045628856867551804,0.2666260302066803,0.20580285787582397,0.2060878723859787,0.6158736348152161,-0.09411374479532242,0.12028533220291138,0.07604580372571945,0.40673813223838806,-0.021806418895721436,-0.06588221341371536,-0.31139451265335083,0.003999203443527222,0.27589622139930725,-0.00817717332392931,0.07035969942808151,0.06977811455726624,0.0857861116528511,-0.0893276110291481,0.1031525731086731,-0.12868978083133698,0.25702691078186035,-0.14502856135368347,-0.038586635142564774,-0.1219838559627533,-0.11344726383686066,0.2901540696620941,-0.03226339444518089,0.01054891012609005,-0.24540679156780243,0.029598833993077278,0.27572134137153625,0.053314223885536194,-0.11489657312631607,0.07427371293306351,-0.14153723418712616,0.8994207978248596,-0.048366013914346695,-0.03728374093770981,-0.10458885133266449,-0.2935447692871094,-0.3243640959262848,0.4047822058200836,-0.14513254165649414,0.039250925183296204,-0.25459548830986023,-0.0037362035363912582,-0.3132545053958893,-0.12335927784442902,-0.1817677617073059,0.13934579491615295,0.11994390934705734,0.03353377804160118,0.029503708705306053,0.06780584901571274,0.043692007660865784,-0.03335574269294739,-0.10339858382940292,0.000588403083384037,-0.06602016091346741,0.2580359876155853,0.01756872981786728,0.025594588369131088,-0.0774131640791893,-0.05289073288440704,-0.0939827561378479,0.016729600727558136,-0.12976448237895966,-0.06335944682359695,0.06054257974028587,0.05838751420378685,-0.0576680563390255,-0.06190706789493561,-0.2786487340927124,-0.039859339594841,-0.09952818602323532,0.2399381548166275,-0.23706330358982086,-0.07030530273914337,0.07325650006532669,-0.20675459504127502,-0.09092498570680618,0.03651900216937065,-0.09202386438846588,0.02116485685110092,-0.06489749252796173,-0.12721095979213715,-0.1744893193244934,-0.16393287479877472,-0.015002191998064518,0.49197816848754883,0.0010961797088384628,-0.005179517902433872,0.026510830968618393,-0.15677034854888916,-0.07465546578168869,-0.0877162516117096,0.026786433532834053,0.2335040420293808,0.2639766037464142,0.20008136332035065,0.4102138876914978,0.06708016246557236,-0.16979826986789703,0.1397029310464859,-0.05499383807182312,-0.0316440612077713,0.22231310606002808,-0.2694387137889862,-0.15995952486991882,-0.21925655007362366,0.10061454027891159,0.045613884925842285,0.051441483199596405,-0.05269965901970863,0.09679774940013885,-0.4625917375087738,0.07983162254095078,-0.17890462279319763,-0.09718431532382965,-0.10615510493516922,-0.5470301508903503,-0.08493471145629883,-0.118254154920578,-0.0401889942586422,0.03409561887383461,0.03357372060418129,-0.07879418879747391,-0.10849861800670624,-0.020441841334104538,-0.005192125681787729,0.033022601157426834,0.1866818219423294,-0.1336422860622406,0.0578748881816864,0.1442919373512268,0.1684136986732483,-0.13461603224277496,0.02185501530766487,0.013007468543946743,-0.42305272817611694,0.004767414182424545,0.15935082733631134,-0.1600329726934433,0.36742159724235535,-0.13828787207603455,-0.09831783920526505,0.14999054372310638,0.026685530319809914,-0.13433724641799927,-0.05975743755698204,-0.2560076415538788,0.11687921732664108,0.02278529480099678,0.2501557171344757,-0.1615990549325943,-0.11552237719297409,0.026397664099931717,-0.24963994324207306,-0.0830756351351738,-0.1350691020488739,-0.062314461916685104,-0.04389854520559311,0.03028235211968422,0.20900480449199677,0.03413054719567299,0.01747949980199337,0.04035787656903267,0.24093183875083923,0.16845805943012238,-0.1368047595024109,0.13459739089012146,-0.02861027792096138,0.017491448670625687,0.1684475839138031,-0.09792822599411011,-0.037715066224336624,0.03936586156487465,0.005556865595281124,-0.04182764142751694,0.6036241054534912,0.021450260654091835,-0.27049270272254944,0.02944241277873516,0.07838770747184753,-0.18905484676361084,-0.1506955772638321,0.2747649848461151,-0.03352486342191696,0.020782578736543655,-0.21538007259368896,-0.211029514670372,-0.0028237358201295137,0.13125331699848175,0.1435658037662506,-0.040013812482357025,-0.23939213156700134,0.3936958909034729,0.03666447848081589,-0.08522894978523254,-0.45877209305763245,-0.10964793711900711,0.07438736408948898,0.21195371448993683,0.1311669647693634,0.07883935421705246,0.02846066653728485},{0.26699694991111755,-0.2992102801799774,-0.39208704233169556,-0.12642303109169006,-0.08077016472816467,0.17716404795646667,0.039108939468860626,-0.2524378299713135,-0.41061848402023315,0.18170474469661713,-0.5933541059494019,0.16770333051681519,-0.12600164115428925,0.25474846363067627,0.09760598838329315,-0.3288531005382538,-0.2563976049423218,0.5995932817459106,-0.3796129524707794,-0.29800909757614136,-0.3893750011920929,-0.30172839760780334,-0.0708320364356041,0.12406691908836365,0.17742212116718292,0.045984599739313126,-0.3206348717212677,-0.0592336468398571,0.23293852806091309,0.24885651469230652,0.3192785382270813,-0.19886884093284607,0.6581648588180542,-0.1894553005695343,-0.40480148792266846,-0.10615019500255585,-0.38415470719337463,0.024761918932199478,-0.0007227332680486143,0.10246416181325912,-0.6157360672950745,-0.435135155916214,0.17213407158851624,0.0946756899356842,0.20106889307498932,-0.0943370908498764,0.11901986598968506,0.13136731088161469,0.5084847807884216,-0.057653531432151794,-0.25988101959228516,-0.30991625785827637,-0.735931932926178,-0.26073673367500305,-0.27888351678848267,-0.28349950909614563,-0.33534902334213257,0.06498036533594131,0.2733858823776245,-0.2451358586549759,0.05050167068839073,-0.3056196868419647,0.3453286588191986,-0.011879565194249153,-0.1575036495923996,0.4595584571361542,-0.20003996789455414,-0.41674792766571045,-0.398781418800354,0.03785385191440582,-0.06406592577695847,-0.12668080627918243,-0.1851213276386261,0.023024041205644608,-0.016793284565210342,-0.2462315559387207,0.34157976508140564,0.5441794395446777,0.06205648556351662,0.147130087018013,0.39793330430984497,0.09460407495498657,-0.11518202722072601,0.46062642335891724,-0.10731032490730286,-0.4767947793006897,0.11648291349411011,0.2773752808570862,0.39884719252586365,-0.11225675791501999,0.9939724802970886,0.012275717221200466,-0.30954450368881226,-1.0574113130569458,-0.3700728416442871,-0.11229708045721054,-0.40281692147254944,0.15537963807582855,0.2937222421169281,-0.08769325911998749,0.3283715546131134,0.3560013175010681,0.08156324177980423,0.35523244738578796,0.29006242752075195,-0.2682466506958008,-0.001466978807002306,-0.21499082446098328,-0.23962077498435974,0.5662502646446228,-0.2474483847618103,0.39157333970069885,-0.03888003155589104,-0.1460009217262268,0.06552527099847794,-0.3258199095726013,0.21667706966400146,-0.6067702770233154,-0.04569247364997864,0.1551436334848404,-0.10851483792066574,-0.015382515266537666,-0.07828681170940399,-0.2707642912864685,0.054550450295209885,-0.16758190095424652,-0.34782713651657104,0.3319520950317383,0.13887888193130493,-0.30963006615638733,0.52918940782547,0.015743546187877655,-0.06213606521487236,-0.13162171840667725,0.05896393954753876,-0.0841626301407814,0.35757941007614136,-0.18218563497066498,-0.23924711346626282,-0.2618534564971924,0.020819542929530144,-0.007224299944937229,0.21484242379665375,0.4836268424987793,0.13020630180835724,-0.07290305942296982,0.09376931935548782,-0.06964641809463501,-0.20209695398807526,-0.2478032261133194,0.046726565808057785,-0.34344911575317383,0.15152542293071747,-0.07245662063360214,0.3810237944126129,-0.41454270482063293,0.9405344724655151,0.2100452184677124,-0.12734206020832062,-0.059819452464580536,0.03215375170111656,-0.3672987222671509,0.3707955777645111,-0.16344031691551208,0.16539232432842255,0.15974554419517517,0.18450947105884552,0.3254682421684265,-0.7105923891067505,-0.12539465725421906,0.020432760939002037,0.06828876584768295,-0.1887807995080948,0.2539861500263214,0.30170318484306335,-0.4485580027103424,-0.47579994797706604,-0.09732729196548462,0.22208860516548157,0.02252860926091671,0.2776516079902649,0.03931484371423721,0.2727452516555786,-0.20696216821670532,0.1589071899652481,-0.21127644181251526,-0.2970278263092041,0.12099994719028473,-0.0721953958272934,0.03867633268237114,-0.012943829409778118,-0.3525829315185547,0.32997843623161316,-0.1312328279018402,0.36569854617118835,-0.13722486793994904,-0.06696366518735886,-0.630151629447937,0.14968372881412506,0.24775496125221252,0.05404512584209442,0.09231223911046982,0.4906419515609741,0.16079917550086975,-0.22884218394756317,0.10703925043344498,0.3641567528247833,-0.06311438977718353,0.35985106229782104,-0.2805969715118408,-0.2865040898323059,-0.18931572139263153,0.15959711372852325,0.0023001916706562042,-0.11763729155063629,-0.026842018589377403,0.3236696720123291,0.4429938495159149,0.5396298766136169,0.2137281596660614,-0.25511497259140015,-0.24072062969207764,0.2796514332294464,-0.20104290544986725,-0.10337850451469421,0.11693340539932251,-0.26986220479011536,0.23000182211399078,-0.027523867785930634,-0.21391960978507996,-0.013258175924420357,-0.21760469675064087,-0.25286203622817993,0.06488142162561417,0.16850313544273376,-0.013508985750377178,-0.03621702268719673,-0.26843246817588806,0.43799906969070435,0.3141530454158783,0.2771245837211609,0.08327865600585938,0.18430118262767792,-0.03439340367913246,-0.23694531619548798,0.03463834151625633,0.02546333707869053,-0.1432766169309616,0.060469191521406174,-0.02344776876270771,0.3745148181915283,0.09766943007707596,-0.23608294129371643,0.1803721934556961,-0.040515389293432236,-0.2411821037530899},{0.366425096988678,0.23436298966407776,0.32391706109046936,0.03851157799363136,-0.7111285328865051,0.3921976387500763,0.15050792694091797,0.0824248269200325,0.2930237650871277,-0.391764372587204,0.3723905682563782,0.2684638798236847,0.2432122677564621,0.1382223218679428,-0.24459123611450195,0.3406084477901459,-0.24669674038887024,0.34217169880867004,-0.2626314163208008,0.28466734290122986,-0.4181394577026367,0.22888141870498657,-0.0558115616440773,-0.2624737024307251,-0.32245171070098877,-0.3801290690898895,0.10503623634576797,0.23080506920814514,-0.31317138671875,-0.25766220688819885,0.04304925724864006,-0.015356048941612244,0.5918512940406799,0.0014703685883432627,0.34157487750053406,0.43236762285232544,-0.15528127551078796,0.37559884786605835,-0.27710089087486267,-0.3932703137397766,0.043297067284584045,-0.2705025374889374,0.3254735469818115,-0.06665313988924026,-0.010563505813479424,0.15070705115795135,0.20001213252544403,-0.2546793520450592,-0.22914166748523712,-0.11353941261768341,-0.2987576127052307,0.30211013555526733,-0.9096561074256897,0.011721734888851643,0.37900304794311523,0.19503377377986908,-0.3946734368801117,-0.4185768961906433,-0.2690795063972473,-0.08866389095783234,-0.20851823687553406,-0.1219007819890976,-0.35136035084724426,-0.20209245383739471,0.11500391364097595,-0.2194271981716156,0.3708602488040924,0.3686022460460663,-0.33011165261268616,-0.3149937093257904,-0.4316316843032837,0.37389859557151794,0.18837620317935944,-0.1905220001935959,-0.015513843856751919,-0.15114960074424744,0.4667305648326874,-0.16345152258872986,0.2661614716053009,-0.18258750438690186,-0.26841315627098083,0.1768970638513565,0.06760156899690628,-0.2718619406223297,0.3581262528896332,-0.5590770244598389,-0.13290169835090637,0.253477543592453,0.12261062860488892,0.1257379651069641,1.3065571784973145,0.5270715355873108,0.3620825707912445,-0.4340096116065979,0.20656800270080566,0.015500298701226711,0.5907841324806213,0.3611812889575958,0.14702562987804413,0.3326621353626251,0.1188056692481041,0.26010650396347046,0.16002970933914185,-0.37808680534362793,0.1487804651260376,-0.16524605453014374,-0.1445176750421524,-0.33685925602912903,-0.009517124854028225,-0.4769180417060852,0.3344474732875824,0.0016759246354922652,-0.2476508617401123,-0.20322836935520172,-0.25852081179618835,-0.12335596978664398,0.4119665324687958,0.36965709924697876,0.2447769045829773,-0.24362507462501526,-0.014763643965125084,-0.2778577506542206,0.1792655885219574,0.2348664104938507,-0.2635127902030945,0.1750570833683014,0.3007826805114746,-0.320988267660141,-0.2627897560596466,0.22310470044612885,0.2050740122795105,0.34007835388183594,-0.08356950432062149,-0.25703975558280945,-0.11934008449316025,0.2265743762254715,-0.04400359466671944,-0.18267138302326202,-0.11231576651334763,-0.13140299916267395,-0.2995401918888092,0.38539525866508484,0.22437340021133423,0.029980715364217758,0.33733731508255005,-0.2268250733613968,0.31935593485832214,-0.36887720227241516,-0.4848783612251282,-0.41090309619903564,-0.4522322714328766,-0.04177486523985863,0.001022597891278565,-0.3538319766521454,-0.05797318369150162,-0.19865509867668152,-0.4025702178478241,0.597973108291626,0.00913090631365776,0.34261152148246765,-0.2869236469268799,-0.15021346509456635,0.17146515846252441,-0.15483753383159637,-0.3453253209590912,-0.3639211654663086,-0.31330907344818115,-0.06279046088457108,0.16053906083106995,0.348671019077301,0.4533660113811493,-0.23109382390975952,-0.1043996810913086,-0.30322664976119995,-0.05529752001166344,0.043332312256097794,-0.11992648243904114,-0.25430357456207275,0.28899574279785156,-0.3284074664115906,0.33823713660240173,-0.2553747296333313,0.29344916343688965,0.28563937544822693,-0.015318471938371658,-0.021353961899876595,-0.1877506673336029,0.05346215143799782,0.18531657755374908,0.22874519228935242,-0.20004679262638092,0.07145734876394272,-0.10206902772188187,-0.2253434807062149,0.6544215679168701,0.3957102596759796,-0.3811416029930115,-0.5334846377372742,0.2958458662033081,0.06683036684989929,-0.24418510496616364,0.48024800419807434,-0.09541422873735428,-0.14243032038211823,0.06046374514698982,0.2053135633468628,-0.3847891390323639,0.5517590641975403,-0.21077871322631836,-0.1457945704460144,-0.02945699542760849,-0.03556045889854431,-0.11087600141763687,-0.4005305767059326,-0.23975707590579987,0.2370413988828659,0.00010953689343295991,-0.4232131540775299,-0.08069227635860443,-0.1638614684343338,0.23221483826637268,0.48374640941619873,-0.20716580748558044,-0.27864912152290344,0.3173484206199646,-0.20232568681240082,-0.2964295446872711,-0.17851808667182922,-0.26187458634376526,-0.7682120203971863,-0.1560581773519516,0.466399610042572,-0.3309178054332733,-0.4005226790904999,0.3841225504875183,-0.34619176387786865,0.24818462133407593,0.0042449915781617165,0.12342827767133713,0.3851447105407715,0.3347027003765106,-0.1544860154390335,0.09254741668701172,0.2877921164035797,-0.11119884997606277,-0.02840081974864006,-0.558305025100708,-0.0006895330152474344,-0.29045650362968445,0.17881383001804352,0.24641774594783783,0.17352129518985748,0.13971960544586182,-0.06465351581573486,0.06778280436992645,0.31059423089027405},{0.3039468228816986,0.19858984649181366,0.5739915370941162,0.27514246106147766,0.11523046344518661,-0.2840445041656494,-0.011016006581485271,-0.11261992901563644,0.02686813287436962,-0.47607070207595825,-0.3077555298805237,-0.05329694226384163,-0.20733428001403809,-0.34300342202186584,-0.11475364863872528,0.749154269695282,-0.10311999171972275,-0.013014113530516624,0.2138722687959671,0.061409782618284225,-0.4945080280303955,0.1280081421136856,-0.2279781848192215,0.015391332097351551,-0.023127295076847076,-0.07430730760097504,0.007681004703044891,-0.13332007825374603,-0.1613556444644928,0.22039958834648132,-0.1109214499592781,0.2441648691892624,-0.2947533130645752,0.2337605506181717,-0.030372053384780884,-0.14050093293190002,0.21236273646354675,1.0161625146865845,-0.06445080041885376,0.23900127410888672,-0.08359227329492569,0.44033610820770264,-0.30420467257499695,-0.2572782635688782,-0.04640432074666023,0.17216172814369202,-0.06516436487436295,0.009521100670099258,0.04680471867322922,-0.0941489189863205,0.07561065256595612,-0.05658337101340294,0.34305721521377563,-0.2577526867389679,-0.12757663428783417,0.16794908046722412,0.05824686586856842,-1.7317805290222168,-0.07323074340820312,0.3241131603717804,-0.15167804062366486,0.2255304604768753,-1.1898430585861206,0.34914541244506836,0.04125996306538582,0.20391270518302917,0.212315633893013,0.3825024962425232,0.33597490191459656,0.11860400438308716,0.18665792047977448,0.07819902151823044,-0.14036144316196442,0.03833787888288498,0.2753978371620178,-0.10393871366977692,0.5657369494438171,0.04664481431245804,0.9342943429946899,0.1745598465204239,0.027168933302164078,-0.20561830699443817,0.11468281596899033,0.11613141000270844,-0.14079569280147552,-1.1682286262512207,-0.10033651441335678,-0.1471048891544342,-0.19813962280750275,-0.062820203602314,-0.14039163291454315,0.48995885252952576,-0.14911092817783356,-0.2738860249519348,-0.020090879872441292,0.4024313986301422,-0.1427135020494461,-0.21556252241134644,0.05729029327630997,-0.07129564881324768,-0.6869015097618103,0.43699032068252563,0.28686878085136414,-0.4163503050804138,-0.056755658239126205,-0.08408430963754654,-0.046114712953567505,0.5729782581329346,-0.3432932496070862,0.27631738781929016,0.09452075511217117,-0.1603100448846817,-0.2083989977836609,-0.0941692590713501,0.08105591684579849,0.07190144807100296,-0.07389751076698303,-0.07269544899463654,-0.021218977868556976,-0.5142057538032532,0.30601656436920166,0.16525621712207794,-0.05690980330109596,0.19237564504146576,-0.11353450268507004,0.44948291778564453,-0.08928592503070831,-0.22304320335388184,0.3631247878074646,-0.04323422908782959,-0.17664243280887604,-0.2961353659629822,0.0928468182682991,-0.32702261209487915,0.016064396128058434,-0.29214155673980713,0.10397712141275406,0.16150350868701935,0.6269084215164185,0.49802273511886597,-0.4942989945411682,-0.2088436335325241,0.0977763757109642,0.25501927733421326,-0.052795059978961945,0.01357474084943533,0.14510111510753632,0.16792038083076477,-0.11184706538915634,-0.1389741152524948,0.15408183634281158,0.18644928932189941,0.10841362923383713,0.2893075942993164,-0.21073512732982635,-0.4459013342857361,0.2932339608669281,-0.08078145980834961,-0.19057875871658325,-0.21918074786663055,-0.009293931536376476,-0.033601708710193634,0.26594603061676025,0.5253978967666626,0.10204150527715683,-0.2809693515300751,-0.23342682421207428,0.07892581820487976,0.07559730112552643,-0.10705363005399704,0.11086530238389969,0.14936181902885437,-0.08983175456523895,-0.08919714391231537,0.06183527410030365,-0.14943496882915497,0.45195549726486206,-0.11199958622455597,-0.2332625538110733,-0.17167024314403534,0.22095131874084473,-0.5548353791236877,-0.15494665503501892,0.24948525428771973,0.1734071969985962,0.3473311960697174,-0.047825559973716736,0.04561549425125122,0.0955551266670227,0.12146928906440735,-0.31755444407463074,-0.08064897358417511,-0.03541312739253044,0.1385449767112732,-0.30685490369796753,-0.25430554151535034,-0.2675071954727173,-0.67249596118927,-0.25518807768821716,-0.3733363151550293,-0.1975868195295334,0.29772570729255676,0.4774695932865143,-0.04370182007551193,-0.060442302376031876,-0.4197445809841156,-0.2957288920879364,-0.057771697640419006,-0.2296077013015747,0.23275472223758698,-0.30642691254615784,0.1761167049407959,0.11594115942716599,-0.26083996891975403,0.22149714827537537,-0.04604890197515488,-0.036374904215335846,0.1616031974554062,0.35878124833106995,-0.13323770463466644,-0.010144684463739395,0.4107245206832886,-0.4265412986278534,-0.25406691431999207,0.23684796690940857,-0.16209571063518524,0.44172483682632446,-0.34725144505500793,0.2172442227602005,-0.37590599060058594,0.12968005239963531,-0.1295248568058014,-0.30870622396469116,-0.3168874680995941,0.24486422538757324,-0.18363593518733978,0.25593268871307373,0.211419939994812,0.29033374786376953,-0.1330615133047104,-0.29858914017677307,-0.035197194665670395,0.1608121246099472,-0.0769156664609909,-0.09431745857000351,0.14888736605644226,-0.2724267244338989,0.15778426826000214,-0.13045355677604675,0.080763079226017,0.17220114171504974,0.17701368033885956,-0.09666603803634644,0.10248302668333054,0.34976422786712646,0.11330943554639816},{0.003907015547156334,0.03951176255941391,0.1243596225976944,-0.05247528851032257,0.13895010948181152,-0.08986618369817734,0.003977067302912474,-0.004747732542455196,0.07832285016775131,-0.055147234350442886,-0.13375206291675568,0.035733021795749664,-0.03779885917901993,-0.07083822041749954,-0.06961379945278168,0.08895688503980637,0.042351752519607544,-0.060138870030641556,0.1163763552904129,-0.09730923175811768,-0.04950222000479698,0.08029952645301819,0.2210134118795395,0.25199639797210693,0.0245354063808918,-0.042640648782253265,0.0703519806265831,-0.0526108480989933,0.282073438167572,-0.041208211332559586,-0.15984833240509033,-0.0014140629209578037,-0.06943980604410172,0.0554116815328598,-0.013409673236310482,-0.026655137538909912,0.16258005797863007,0.05965450033545494,0.0027933858800679445,-0.03264560177922249,-0.016903895884752274,0.012398271821439266,-0.1088624969124794,0.00485600670799613,-0.007516791578382254,0.09930836409330368,0.019859030842781067,-0.0618792288005352,0.07461844384670258,0.02860395237803459,0.12826572358608246,0.05617564916610718,0.007276774849742651,0.013132813386619091,0.10304993391036987,0.05557815730571747,0.0377589650452137,-0.04275595769286156,-0.03666424751281738,0.007564037572592497,0.006331568118184805,0.012388455681502819,-0.058574821799993515,-0.02917957492172718,0.013752124272286892,0.091082364320755,0.01150982454419136,0.1855773627758026,-0.0003447830968070775,-0.04582520201802254,0.10908925533294678,0.005127681419253349,0.0560624897480011,-0.03138190135359764,-0.008800425566732883,0.03688573092222214,-0.040156587958335876,-0.1055915579199791,0.014445063658058643,-0.02993641421198845,0.015419576317071915,-0.0738137736916542,0.03523683920502663,-0.32592639327049255,-0.0016908994875848293,-0.004135822877287865,-0.06216913461685181,-0.02990536205470562,-0.09343443065881729,-0.029644150286912918,0.010033242404460907,-0.03887584060430527,0.100183866918087,0.04875154793262482,-0.012204296886920929,0.014011949300765991,-0.09144717454910278,-0.08928753435611725,-0.03602329269051552,0.08509323745965958,-0.03002278134226799,0.07271937280893326,0.021889399737119675,-0.10771985352039337,-0.15804068744182587,0.0010878146858885884,0.0018117837607860565,-0.011092038825154305,0.03732800483703613,0.10718595236539841,0.08367041498422623,-0.0365048348903656,-0.06285600364208221,-0.009153379127383232,-0.023911748081445694,0.12667766213417053,-0.14458827674388885,0.03215336054563522,0.020524874329566956,0.0023996387608349323,0.05572935938835144,-0.03743823990225792,-0.030369501560926437,0.023555010557174683,-0.050969623029232025,-0.002913384698331356,-0.0819423571228981,-0.30527472496032715,0.0674857348203659,-0.030491260811686516,0.22149743139743805,0.036379553377628326,0.03133063390851021,-0.031297728419303894,-0.0062529537826776505,-0.09439272433519363,-0.11986871808767319,-0.014728284440934658,-0.028951218351721764,0.19652384519577026,-0.104673832654953,-0.0003127705422230065,-0.16966912150382996,0.02582562528550625,0.04133249819278717,-0.02690471149981022,0.026297086849808693,-0.09309078007936478,0.22369706630706787,0.2623837888240814,0.08119866997003555,0.028609156608581543,-0.003713869722560048,0.05945289134979248,-0.2073807418346405,-0.012881339527666569,0.24832406640052795,-0.17057731747627258,0.004089632537215948,0.0016618379158899188,-0.12694136798381805,0.06027283892035484,0.016429509967565536,-0.011385063640773296,0.008744568563997746,0.022978322580456734,-0.009326147846877575,-0.042527273297309875,0.1981285810470581,-0.01570822298526764,-0.0009946866193786263,-0.016723355278372765,-0.0331556499004364,-0.09353034943342209,-0.02263587713241577,0.046543706208467484,0.036110613495111465,-0.05047236382961273,-0.07077418267726898,-0.0725381076335907,0.09109515696763992,0.0042594000697135925,-0.053872354328632355,0.16292345523834229,-0.007233253214508295,0.16674911975860596,-0.06051291152834892,0.022826554253697395,-0.20205794274806976,-0.005994021892547607,-0.004632104653865099,0.020384961739182472,-0.04941987246274948,0.026212258264422417,0.0007516833138652146,-0.05818355083465576,-0.013214326463639736,-0.00035302896867506206,0.01815210096538067,-0.17195016145706177,-0.002403502818197012,0.012003950774669647,-0.03887211158871651,0.0011305107036605477,0.07335767149925232,-0.06146543473005295,-0.156280517578125,0.0880209356546402,-0.33868613839149475,0.013729254715144634,0.04133589565753937,0.05953941494226456,-0.011207487434148788,-0.017128024250268936,0.13059870898723602,0.07791481912136078,-0.05366705358028412,-0.0525849312543869,0.0933409109711647,-0.04501928761601448,0.08671379834413528,0.15511386096477509,-0.013072984293103218,0.01365134958177805,0.014951200224459171,-0.03661935776472092,0.033517058938741684,0.057744238525629044,-0.022604413330554962,-0.03484319895505905,-0.045985739678144455,-0.058686934411525726,0.013113297522068024,-0.06239308789372444,-0.09231545031070709,-0.0020066197030246258,-0.009603782556951046,0.07126545161008835,-0.007325357291847467,-0.10494630038738251,-0.0939188078045845,0.17674192786216736,-0.006036069709807634,0.04386220499873161,-0.0027668324764817953,0.014428341761231422,-0.04401655122637749,0.0381540022790432,-0.05448282137513161,-0.006615274120122194,0.00417634192854166,-0.14843042194843292,0.03510921075940132,0.024802369996905327,0.003199844155460596,0.07217951118946075},{0.011283475905656815,0.051977597177028656,0.10896602272987366,-0.10132568329572678,0.10235821455717087,-0.17963020503520966,0.018678946420550346,-0.04233582690358162,0.05092106759548187,-0.08819617331027985,-0.12709030508995056,0.06590399146080017,-0.12234894931316376,-0.03363819420337677,-0.057872574776411057,0.05937793105840683,0.05384206026792526,-0.03683366999030113,0.12360426783561707,-0.25045859813690186,-0.05980496108531952,0.08367142081260681,0.34186992049217224,0.5564063787460327,0.05702579393982887,-0.06625378876924515,0.03656164929270744,-0.05730028823018074,0.4452425539493561,-0.007461853791028261,-0.2052873969078064,-0.06051686406135559,-0.02984793297946453,0.10909653455018997,-0.03179777041077614,0.00229429523460567,0.13465557992458344,0.08457574993371964,-0.08084532618522644,-0.05204480141401291,-0.15861542522907257,-0.050534091889858246,-0.20980867743492126,0.01608959212899208,0.019300974905490875,0.1065945029258728,0.06161123141646385,-0.05543655529618263,0.32323354482650757,0.016296086832880974,0.14181724190711975,0.04305914044380188,-0.012354670092463493,0.0025152205489575863,0.21557597815990448,0.09179295599460602,0.13688886165618896,-0.1470905840396881,-0.06019558385014534,-0.03612230718135834,-0.040003929287195206,-0.05540982633829117,-0.05116983875632286,-0.02962924912571907,0.04275037720799446,0.312753289937973,0.07318783551454544,0.20470869541168213,-0.012028748169541359,-0.03250732645392418,0.09883502125740051,-0.029099950566887856,0.04131406918168068,-0.06824793666601181,-0.017492495477199554,0.05922723561525345,-0.005220217164605856,-0.0870741754770279,0.03703242912888527,-0.02408267930150032,0.047801267355680466,-0.15355314314365387,0.04430890083312988,-0.6662953495979309,-0.0648360624909401,-0.14360658824443817,-0.10309164971113205,-0.0039872280322015285,-0.06315775960683823,-0.08653084188699722,0.03739769756793976,0.04270199313759804,0.18197427690029144,0.10385740548372269,-0.02433365397155285,0.018002625554800034,-0.06131107360124588,-0.11012229323387146,-0.028536681085824966,0.05284426733851433,0.03368261083960533,0.06524232029914856,0.050881270319223404,-0.10995414853096008,-0.32319802045822144,-0.02860187366604805,-0.03996647149324417,-0.026488393545150757,-0.04577256366610527,0.06702779233455658,0.023951517418026924,0.02626415342092514,-0.06064830720424652,-0.05839121714234352,-0.04070524126291275,0.14891794323921204,-0.19184362888336182,0.024719420820474625,0.04709954187273979,0.0038710744120180607,0.08096478134393692,-0.052610237151384354,-0.06828467547893524,-0.02236938290297985,-0.0800742655992508,0.08025385439395905,-0.13418778777122498,-0.3371634781360626,0.14276252686977386,-0.09291781485080719,0.639897346496582,0.030861610546708107,-0.00592445395886898,-0.13427972793579102,-0.027027085423469543,-0.1432647854089737,-0.13775014877319336,-0.04797244817018509,-0.055875808000564575,0.2807023823261261,-0.16063378751277924,-0.010061988607048988,-0.23029682040214539,0.05527912825345993,0.00607511680573225,-0.06120147928595543,-0.005634279455989599,-0.13419534265995026,0.19563961029052734,0.25147074460983276,0.12042639404535294,-0.028003135696053505,-0.006300920620560646,0.146725133061409,-0.32560548186302185,-0.035347457975149155,0.31197214126586914,-0.16881807148456573,0.014184441417455673,0.005508632864803076,-0.18489870429039001,-0.014990006573498249,0.020164992660284042,-0.05034337937831879,0.04220450669527054,-0.04024278745055199,0.010706037282943726,-0.037972673773765564,0.20755690336227417,-0.03734747692942619,0.0016204697312787175,-0.03022967278957367,-0.07671244442462921,-0.061772700399160385,0.011879769153892994,-0.05041387677192688,-0.03951311111450195,-0.09408032149076462,-0.1281898468732834,-0.04353896155953407,0.07080431282520294,0.014512745663523674,-0.08205535262823105,0.26014837622642517,-0.019197622314095497,0.22665365040302277,-0.06273918598890305,0.068158820271492,-0.3835422098636627,0.015933269634842873,-0.01639452949166298,-0.014489681459963322,-0.04741557314991951,0.07882995903491974,0.02276941016316414,-0.10896077007055283,-0.023274363949894905,0.012970860116183758,0.019258815795183182,-0.23564499616622925,-0.04354666545987129,0.06995534151792526,-0.07325945049524307,0.05329763889312744,0.07685767114162445,-0.1505098044872284,-0.1925252377986908,0.13103064894676208,-0.41386544704437256,-0.03904136270284653,0.0282239131629467,0.06344970315694809,-0.012758242897689342,-0.015222682617604733,0.2106507420539856,0.08708296716213226,-0.03108525648713112,-0.11027626693248749,0.20506079494953156,0.053230296820402145,0.05249885842204094,0.2270963490009308,0.01594018191099167,0.018408555537462234,0.007642364129424095,-0.02245938591659069,0.008526870980858803,0.09029870480298996,-0.011523321270942688,-0.10254970192909241,-0.104623943567276,-0.07277444005012512,-0.05918043479323387,-0.10640867799520493,-0.07451401650905609,-0.04610474035143852,0.04201236367225647,0.08274093270301819,-0.0002426618739264086,-0.08871781826019287,-0.15953201055526733,0.3634946644306183,-0.027182646095752716,0.041751861572265625,-0.052253492176532745,0.007766282185912132,-0.04836991801857948,0.051251329481601715,-0.006131368223577738,0.03730492293834686,0.04840492457151413,-0.2237519919872284,0.04202400520443916,0.09861978888511658,0.037445127964019775,0.09145035594701767},{-0.10983677208423615,-0.03202397748827934,-0.04087498039007187,-0.10340933501720428,0.16951629519462585,-0.05247776582837105,0.044905129820108414,-0.08209285885095596,-0.15855833888053894,0.04642801359295845,0.0013733989326283336,-0.025448771193623543,-0.21550115942955017,0.0158903356641531,0.05052204430103302,-0.12634803354740143,-0.04386678710579872,-0.08969742804765701,0.016472913324832916,-0.16478276252746582,0.12268606573343277,-0.0719914585351944,0.46352332830429077,0.8057979941368103,0.1122792512178421,0.12699976563453674,-0.1296805739402771,-0.03617270290851593,0.44173404574394226,0.19011574983596802,-0.23739971220493317,-0.04599534720182419,-0.11575071513652802,0.02649187296628952,-0.09719813615083694,0.05727498605847359,-0.05696089565753937,-0.1546049863100052,-0.19628669321537018,0.02573760226368904,-0.18177317082881927,0.012459330260753632,-0.14516720175743103,-0.015880832448601723,0.009283174760639668,0.01048179343342781,0.04101686552166939,0.05825730040669441,0.5469119548797607,0.05179772153496742,0.10091827809810638,-0.02060401812195778,0.14761056005954742,0.06168331950902939,0.2421818971633911,-0.018542196601629257,0.16034671664237976,0.38537994027137756,0.10740824788808823,0.03292850777506828,0.05707402154803276,-0.07879190891981125,0.2720228433609009,0.11477260291576385,-0.07812606543302536,0.4702639877796173,-0.11670566350221634,0.019696662202477455,0.03388797491788864,-0.009812471456825733,0.08529932051897049,-0.09305307269096375,-0.09079952538013458,0.03753482550382614,0.013987349346280098,-0.04214419052004814,-0.17521746456623077,0.08566533029079437,-0.12435819953680038,0.1160861924290657,0.027439657598733902,-0.17208941280841827,0.02341294288635254,-0.9172263145446777,-0.08136099576950073,0.38683417439460754,-0.05498305335640907,0.0351020023226738,0.01461229007691145,-0.16954320669174194,-0.20375089347362518,-0.18528123199939728,0.21376699209213257,0.2891756296157837,0.012565729208290577,0.014550394378602505,-0.050853632390499115,-0.10906355082988739,0.10560611635446548,-0.0466909222304821,0.022873274981975555,-0.10102538019418716,-0.030234524980187416,0.004116178024560213,-0.39233043789863586,0.02638181485235691,0.043157484382390976,0.026352589949965477,-0.12338189035654068,-0.020852725952863693,-0.15594030916690826,0.044439658522605896,0.06023704633116722,-0.008811092004179955,0.05145672336220741,0.030132349580526352,-0.215549036860466,-0.13430722057819366,-0.07525592297315598,-0.013406805694103241,0.048395611345767975,0.05265910178422928,-0.0038067540153861046,-0.08307260274887085,0.04095374420285225,-0.09231352806091309,-0.13222117722034454,-0.2360750138759613,0.16978242993354797,-0.12510184943675995,0.8900740742683411,-0.13227714598178864,0.013907263986766338,-0.35253167152404785,0.06300239264965057,-0.11995632201433182,-0.0049779643304646015,-0.0844559296965599,0.02121858298778534,0.2154383808374405,0.050337765365839005,-0.015333924442529678,-0.1260170191526413,0.18044985830783844,0.04343663528561592,0.04303225129842758,-0.16559259593486786,-0.12035291641950607,0.1686622053384781,0.22477899491786957,0.16211536526679993,-0.10396432131528854,0.06988769769668579,0.10943189263343811,-0.36108702421188354,0.11148691922426224,0.3014671802520752,-0.2111877053976059,0.016601858660578728,0.05110739544034004,-0.2438642829656601,-0.20677663385868073,-0.09347107261419296,0.028208883479237556,0.06942915916442871,0.15746694803237915,-0.015594931319355965,0.08462223410606384,0.1245221495628357,-0.08413815498352051,-0.2535144090652466,0.0600605271756649,-0.034742943942546844,0.12016864866018295,0.041392065584659576,-0.22613564133644104,-0.15177761018276215,0.022374169901013374,-0.052171990275382996,0.08363405615091324,-0.09972803294658661,0.07948219031095505,0.05107956379652023,0.055070750415325165,-0.10290560871362686,0.02880268171429634,-0.04884272441267967,0.015249362215399742,-0.3983688950538635,-0.1738000214099884,0.03167612850666046,-0.20311421155929565,0.10381802916526794,0.006705123465508223,-0.08345383405685425,-0.10742922872304916,0.02340741828083992,0.20513980090618134,-0.034504085779190063,-0.10706055164337158,0.06777176260948181,-0.11317828297615051,-0.10242722928524017,0.15622128546237946,0.06110513210296631,0.006124130915850401,0.06147044524550438,0.0652245581150055,-0.3636285960674286,-0.10246754437685013,0.10321129858493805,0.039668429642915726,0.02191941626369953,0.07738016545772552,0.1944652497768402,-0.014911435544490814,0.02663389965891838,-0.09977957606315613,0.09865438938140869,0.1722155660390854,-0.03454913571476936,-0.03133999556303024,0.05353125184774399,-0.04158314689993858,-0.06287795305252075,-0.02289140783250332,-0.015901746228337288,0.16829358041286469,0.11560346931219101,0.3551921844482422,0.005050634033977985,-0.08720564097166061,-0.10745514929294586,0.07760787755250931,-0.11480941623449326,0.07815740257501602,-0.08592550456523895,-0.009872769005596638,-0.09133084863424301,0.1130669116973877,-0.10093800723552704,0.43334710597991943,-0.10861063748598099,-0.016676506027579308,-0.041303157806396484,-0.13390742242336273,0.17610584199428558,-0.03803233802318573,0.003718544030562043,-0.24125239253044128,0.11257340759038925,-0.33259662985801697,-0.02738858573138714,0.09764415770769119,0.13211345672607422,-0.11684174090623856},{-0.14619281888008118,0.02815863862633705,-0.00034621107624843717,-0.03451746329665184,0.04894598200917244,0.0662260428071022,0.014125099405646324,-0.0319010354578495,-0.1914227157831192,0.01396237500011921,0.2069293111562729,-0.10450411587953568,-0.169229656457901,-0.006491112522780895,0.05164260417222977,-0.05663405731320381,-0.10322553664445877,-0.14273811876773834,-0.02740904875099659,0.03429342806339264,0.1688484400510788,-0.13113819062709808,0.38264352083206177,0.6854228973388672,0.03851299732923508,0.1493481546640396,-0.15395726263523102,0.023801574483513832,0.28625252842903137,0.1916772723197937,-0.25879719853401184,0.028788961470127106,-0.11784125864505768,-0.030842091888189316,0.02162136882543564,0.17976905405521393,-0.11111900955438614,-0.142056405544281,-0.21872977912425995,0.0021599391475319862,-0.037348031997680664,0.09647788107395172,-0.0585278645157814,-0.05022676661610603,-0.030013268813490868,-0.09020403027534485,-0.027689248323440552,0.13638342916965485,0.4191429316997528,0.04696279764175415,0.02236228808760643,-0.06270265579223633,0.15561869740486145,0.004063287749886513,0.2756735682487488,-0.07464922219514847,0.1564733386039734,0.3769686222076416,0.12132762372493744,0.1076667383313179,0.04561565816402435,-0.021286267787218094,0.19232451915740967,0.17707692086696625,-0.08014129102230072,0.2422802895307541,-0.13576309382915497,0.04687178134918213,0.06214025989174843,0.0454685352742672,-0.023803751915693283,-0.027358008548617363,-0.07798825204372406,0.10754018276929855,0.052396439015865326,-0.10067775845527649,-0.193745955824852,-0.007359578274190426,-0.09424470365047455,0.11281871050596237,-0.14287473261356354,-0.15735894441604614,0.039070975035429,-0.9377503395080566,-0.012304069474339485,0.4063485264778137,-0.012988832779228687,0.023825785145163536,0.019371094182133675,-0.06377466022968292,-0.2247466892004013,-0.1387230008840561,0.3143996000289917,0.3685532212257385,0.15598228573799133,0.03711680322885513,0.15308399498462677,-0.04355834051966667,0.14429552853107452,-0.11278167366981506,-0.07077477127313614,-0.18498514592647552,-0.06930750608444214,-0.02456507831811905,-0.3775237202644348,0.08819925040006638,0.059488438069820404,0.08638054132461548,-0.09071436524391174,-0.21396207809448242,-0.16395142674446106,-0.018620342016220093,0.14565277099609375,0.036424070596694946,0.10642723739147186,-0.018279992043972015,-0.12782946228981018,-0.020662469789385796,-0.12970811128616333,-0.07057933509349823,0.03330058231949806,0.10875336825847626,0.1259317398071289,-0.037991248071193695,0.1204405277967453,-0.0923336073756218,0.03671049699187279,-0.12955372035503387,0.08873502910137177,0.007857420481741428,0.6381844878196716,-0.18816278874874115,0.04798617586493492,-0.3255842924118042,0.07824113965034485,-0.021136831492185593,0.036278702318668365,0.00944249052554369,0.09928952902555466,-0.023270383477211,0.1272173672914505,-0.004084305372089148,-0.11289715021848679,0.141545370221138,0.0666607990860939,0.10942953079938889,-0.21052855253219604,-0.14279431104660034,0.05642843246459961,0.10229591280221939,-0.011011187918484211,-0.08149036020040512,0.11380332708358765,-0.00022929042461328208,-0.2852129340171814,0.1805638074874878,-0.04046948626637459,-0.09072040021419525,0.06967708468437195,0.13327394425868988,-0.26642918586730957,-0.19629666209220886,-0.1860806792974472,0.10495146363973618,-0.005082579329609871,0.15269158780574799,-0.06517449021339417,0.10854488611221313,0.19730013608932495,-0.030663784593343735,-0.1578029990196228,0.09891100972890854,0.06811452656984329,0.1363479644060135,-0.02101195603609085,-0.18072481453418732,-0.05413332208991051,0.11451348662376404,-0.0064003439620137215,0.12258132547140121,-0.19009606540203094,0.025337496772408485,0.10682444274425507,-0.06929483264684677,-0.15977361798286438,-0.13225694000720978,0.08139427751302719,-0.02883666567504406,-0.261712908744812,-0.13564784824848175,0.004001995082944632,-0.2009301632642746,0.14450624585151672,-0.13475535809993744,-0.09642298519611359,-0.020647069439291954,0.003896761452779174,0.24166040122509003,-0.024465259164571762,-0.020516688004136086,0.090484619140625,-0.11490732431411743,-0.1687009483575821,0.07087704539299011,0.09076380729675293,0.11582716554403305,0.08847733587026596,0.12545356154441833,-0.3084789216518402,-0.015996569767594337,0.14743052423000336,0.03664814680814743,-0.012993027456104755,0.03526630997657776,0.13761666417121887,-0.043106917291879654,-0.00791035033762455,-0.20999084413051605,-0.10339952260255814,0.18309924006462097,-0.06175393611192703,-0.07339645177125931,-0.007147936150431633,-0.06074029207229614,-0.0317532904446125,-0.043264202773571014,0.006017977371811867,0.06415171921253204,0.16488881409168243,0.2852974534034729,0.022212348878383636,0.06483244895935059,-0.08539514988660812,0.10022923350334167,-0.061265695840120316,0.08522044867277145,-0.09342698752880096,-0.02777351438999176,-0.15545041859149933,0.2142425775527954,0.01866975426673889,0.2738325595855713,-0.20208506286144257,-0.07592839747667313,0.041324593126773834,-0.08966293931007385,0.10661647468805313,-0.06828311830759048,0.03613239526748657,-0.19261667132377625,0.12345636636018753,-0.3808090090751648,-0.07573253661394119,0.003027398604899645,0.17066262662410736,-0.14781498908996582},{-0.07509878277778625,0.0654180496931076,0.12007919698953629,-0.026099903509020805,-0.17694033682346344,-0.07473983615636826,0.0064129214733839035,0.01866387389600277,-0.0033826895523816347,-0.12346167117357254,0.21755661070346832,-0.0015930815134197474,-0.046700458973646164,0.026469357311725616,0.012962295673787594,0.0836012065410614,-0.03094492293894291,-0.0902077928185463,0.020233646035194397,-0.17629565298557281,0.07720691710710526,-0.00392742408439517,0.1986498385667801,0.2905571758747101,-0.06237230822443962,-0.0066536529920995235,-0.06463940441608429,0.04778098315000534,0.19283229112625122,-0.02957168221473694,-0.11610499769449234,-0.01931809075176716,0.02430116757750511,0.017589146271348,0.12564106285572052,0.16305719316005707,0.01720597967505455,0.11084707081317902,-0.11069069057703018,-0.12871475517749786,-0.0713338777422905,-0.07019592821598053,-0.09956866502761841,-0.013476705178618431,0.0308920256793499,-0.04916539043188095,0.02132769301533699,0.012802821584045887,0.2313767373561859,0.008141904138028622,-0.04814653471112251,0.04777351766824722,-0.05385303869843483,-0.03357822448015213,0.2561750113964081,0.03900095447897911,0.17560787498950958,-0.021586542949080467,-0.04333369806408882,-0.04720933362841606,-0.030455011874437332,-0.065670445561409,-0.04251836612820625,-0.07242663204669952,0.023876484483480453,0.10605169832706451,0.08021780103445053,0.11155419051647186,-0.04168809950351715,0.005054424982517958,-0.12890119850635529,0.04251471161842346,0.07547300308942795,-0.004215567372739315,-0.0161153431981802,-0.012878688983619213,-0.03930862620472908,-0.11158978939056396,0.07268627732992172,-0.061849843710660934,-0.17979639768600464,-0.15386685729026794,0.04508513957262039,-0.45518648624420166,0.031843699514865875,-0.16836263239383698,-0.019316010177135468,0.032121527940034866,0.03775682672858238,0.007632800843566656,0.01931636407971382,0.08770930767059326,0.25196605920791626,0.268551230430603,0.18827439844608307,-0.02228902094066143,0.2503119707107544,0.036165520548820496,0.04671749472618103,-0.027497034519910812,0.04415452480316162,-0.13729612529277802,-0.03993741422891617,-0.12397989630699158,-0.2624860405921936,0.052825648337602615,-0.0032673836685717106,-0.09161248803138733,0.006322759203612804,-0.2803290784358978,-0.04543638601899147,0.060412582010030746,0.07191834598779678,0.007311341818422079,-0.01446315087378025,0.08349019289016724,-0.043632715940475464,0.1728591024875641,0.01893918588757515,-0.03467098996043205,0.02291123941540718,-0.021207481622695923,0.08816197514533997,0.006143735256046057,-0.0071768686175346375,0.11068370193243027,0.10611407458782196,-0.09375442564487457,-0.006779987830668688,0.08388464152812958,0.514823317527771,0.04761158674955368,0.027578527107834816,-0.09354563057422638,-0.0034512486308813095,0.025998463854193687,-0.07600173354148865,-0.01246508676558733,-0.04168769717216492,0.0839434415102005,-0.024493983015418053,0.07086807489395142,-0.1710151880979538,0.07957661896944046,-0.058013271540403366,-0.0039474572986364365,-0.08282773196697235,-0.16424982249736786,-0.069548100233078,-0.03182339668273926,-0.08187886327505112,-0.07321824133396149,0.05503258481621742,0.05007902905344963,-0.08460517972707748,0.11444472521543503,-0.24612507224082947,0.07186433672904968,0.18097081780433655,0.11446171253919601,-0.09636703878641129,-0.0620853416621685,-0.13788114488124847,-0.03480023890733719,-0.0710415467619896,-0.07092398405075073,-0.042384691536426544,0.031636033207178116,0.13523977994918823,0.07952539622783661,0.08795608580112457,-0.0036453260108828545,0.04503506049513817,0.03506278246641159,-0.0341678261756897,-0.06252874433994293,-0.0476289726793766,-0.0033283305820077658,-0.07081078737974167,0.07793288677930832,-0.11699913442134857,-0.04619907960295677,-0.0006777719827368855,0.13025183975696564,-0.13449180126190186,0.07972776144742966,0.11397474259138107,0.03622441366314888,-0.2500912547111511,0.057327497750520706,0.04249226301908493,-0.07633192092180252,0.014589240774512291,-0.019920634105801582,0.10120869427919388,0.05426250025629997,-0.09865926206111908,0.13583800196647644,0.05634349212050438,-0.08262399584054947,-0.04087839275598526,0.049783412367105484,-0.24298864603042603,-0.016903024166822433,0.14362776279449463,-0.06202493607997894,-0.10866954922676086,0.19825531542301178,-0.10029388219118118,-0.01393821183592081,0.12944480776786804,0.009236539714038372,-0.0725216194987297,-0.1027340292930603,0.09701209515333176,0.06325998157262802,-0.03497609496116638,-0.3038216829299927,-0.0402459055185318,0.17842330038547516,-0.035751327872276306,0.13144829869270325,0.017375903204083443,-0.0690954327583313,0.07038045674562454,0.03413679078221321,-0.06091341748833656,-0.0020582096185535192,0.004470207262784243,-0.20334312319755554,-0.17227721214294434,0.14661486446857452,-0.08745116740465164,-0.038526855409145355,0.0006339314859360456,-0.03450138494372368,0.04359252378344536,0.03186162933707237,-0.14634506404399872,0.05054768547415733,-0.0862920880317688,0.19576308131217957,-0.15218327939510345,0.00282878871075809,0.04506680369377136,0.028067857027053833,-0.14328864216804504,-0.012251028791069984,0.09663818031549454,0.05403916910290718,0.005416168365627527,-0.15722934901714325,0.0010638906387612224,-0.01091783493757248,-0.06112007424235344,0.04568825289607048},{-0.0290390532463789,0.0358886681497097,0.14110919833183289,-0.022090932354331017,-0.2190365195274353,-0.12803825736045837,-0.007444828748703003,0.021920541301369667,0.005724396090954542,-0.14650879800319672,0.14515915513038635,0.016598820686340332,-0.024784624576568604,0.03645661473274231,0.018460601568222046,0.12530678510665894,-0.022468961775302887,-0.033984798938035965,0.0225942675024271,-0.24966025352478027,0.032103680074214935,-0.005364811979234219,0.08873235434293747,0.15542879700660706,-0.06082053482532501,-0.0457955002784729,-0.05122052878141403,0.030072737485170364,0.13330143690109253,-0.06408002972602844,-0.03296611085534096,-0.0379585325717926,0.07120226323604584,0.02476631850004196,0.11356833577156067,0.1164378821849823,0.05687756836414337,0.19973254203796387,-0.0605061873793602,-0.14217549562454224,-0.12517862021923065,-0.12222599238157272,-0.11379791051149368,0.021244842559099197,0.06685831397771835,-0.04549514502286911,0.03148283436894417,0.015002180822193623,0.20355813205242157,-0.016360817477107048,-0.06413767486810684,0.042392000555992126,-0.09895920008420944,-0.06779433786869049,0.1911960393190384,0.04601700231432915,0.17502951622009277,-0.16934534907341003,-0.06086895987391472,-0.10274010896682739,-0.055457621812820435,-0.0910581573843956,-0.12726350128650665,-0.1325608342885971,0.05422874167561531,0.08421235531568527,0.10699135810136795,0.08883195370435715,-0.0900546982884407,0.004491905216127634,-0.13935795426368713,0.026829292997717857,0.09771917015314102,-0.020344087854027748,-0.02359306812286377,-0.014775917865335941,0.012722332961857319,-0.09767188131809235,0.13964203000068665,-0.09371760487556458,-0.15585695207118988,-0.15491846203804016,0.03742925822734833,-0.20247046649456024,-0.008914599195122719,-0.3762894868850708,0.0013333025854080915,0.04361326992511749,0.06443724036216736,0.03489862382411957,0.057830892503261566,0.1489601880311966,0.17590555548667908,0.1645098626613617,0.15260067582130432,-0.04622640460729599,0.23115220665931702,0.06751404702663422,0.03639001399278641,-0.019174331799149513,0.036067184060811996,-0.09673234820365906,-0.03331267833709717,-0.13445158302783966,-0.18448321521282196,0.02222152054309845,-0.02333545684814453,-0.12054399400949478,0.0183038879185915,-0.2274821251630783,-0.04233615845441818,0.11708863079547882,0.06237782537937164,-0.008527074009180069,-0.02254912070930004,0.0912422388792038,-0.016508620232343674,0.18324482440948486,0.04002475365996361,-0.01923270709812641,0.02203349955379963,-0.03716416284441948,0.06694086641073227,-0.027045706287026405,-0.011329320259392262,0.14563168585300446,0.09935887157917023,-0.03572109341621399,0.002039498183876276,0.086319699883461,0.4536493122577667,0.09841448813676834,0.012931020930409431,-0.017563924193382263,-0.0328691340982914,0.0176541805267334,-0.08361819386482239,-0.021030226722359657,-0.09752151370048523,0.05895299091935158,-0.04812062904238701,0.09503711760044098,-0.16168899834156036,0.09573299437761307,-0.11186747997999191,-0.027034273371100426,-0.04757952690124512,-0.13865484297275543,-0.09785398095846176,-0.0920272171497345,-0.1157035157084465,-0.09077021479606628,0.057493049651384354,0.08627407252788544,0.048635438084602356,0.05876767635345459,-0.24401642382144928,0.11405319720506668,0.18713143467903137,0.062157973647117615,-0.003879151539877057,-0.0284806489944458,-0.09217855334281921,-0.05917273461818695,-0.03990381211042404,-0.12098591774702072,0.0044659958221018314,0.04173436388373375,0.017408162355422974,0.08099519461393356,0.200395867228508,-0.008955794386565685,0.0324263833463192,0.04336661845445633,-0.019756432622671127,-0.04629286378622055,-0.06837324798107147,-0.02393747866153717,-0.07953668385744095,0.09101749211549759,-0.10436117649078369,-0.059558991342782974,-0.05238670855760574,0.13154587149620056,-0.09609340131282806,0.13470207154750824,0.10143455862998962,0.056355707347393036,-0.22344033420085907,0.12006867676973343,0.05788210779428482,-0.052370309829711914,0.0008093174546957016,0.004961801692843437,0.1426897943019867,0.04784728214144707,-0.11619347333908081,0.07553569972515106,0.08568451553583145,-0.09332909435033798,-0.05180773511528969,0.07761567831039429,-0.16296035051345825,-0.04409728944301605,0.11758746951818466,-0.13750363886356354,-0.12318495661020279,0.17444083094596863,0.009129701182246208,-0.022665120661258698,0.08413614332675934,-0.00355317909270525,-0.07557174563407898,-0.12634702026844025,0.08416322618722916,0.09732206910848618,-0.02660868875682354,-0.275043249130249,0.01434696838259697,0.14983388781547546,-0.043029747903347015,0.14926815032958984,0.04636119306087494,-0.07517032325267792,0.07941844314336777,0.0787869468331337,-0.07022468745708466,-0.016565978527069092,-0.023628050461411476,-0.37829649448394775,-0.22689636051654816,0.13494442403316498,-0.10024375468492508,-0.04429708421230316,0.024293728172779083,-0.05980376899242401,0.06443139165639877,0.030832333490252495,-0.08641314506530762,-0.015247063711285591,-0.13468484580516815,0.14582782983779907,-0.11083418875932693,-0.0018379346001893282,0.03947773203253746,0.1034325361251831,-0.23569554090499878,0.017847836017608643,0.1037960946559906,0.12968449294567108,-0.02712710201740265,-0.06210620701313019,-0.00801053736358881,-0.0010095331817865372,-0.1314731240272522,0.061548203229904175},{-0.0509365014731884,-0.0557677336037159,0.05020954832434654,-0.027284473180770874,-0.11965709924697876,-0.21815939247608185,0.0042502302676439285,0.016404148191213608,0.05287788808345795,-0.015685228630900383,0.17683395743370056,0.040874406695365906,-0.019217729568481445,0.07050367444753647,0.07271251827478409,0.014140783809125423,-0.05586252361536026,-0.033140864223241806,0.0584598071873188,-0.4975835680961609,0.0726613774895668,0.05986541509628296,0.2010149359703064,0.08240232616662979,-0.021084874868392944,-0.03465750813484192,-0.040226973593235016,0.006557442247867584,0.11747632175683975,-0.08505327999591827,0.05293377488851547,-0.06890278309583664,-0.006143426522612572,0.004960210993885994,0.03161311522126198,0.032621629536151886,0.032996539026498795,0.11503191292285919,-0.017751291394233704,-0.08960948884487152,-0.09450319409370422,-0.09102687239646912,-0.13547585904598236,0.017619982361793518,0.05736592411994934,0.07506044954061508,0.07445314526557922,-0.04499491676688194,0.11397945880889893,0.05919501930475235,0.0057037025690078735,0.08264487981796265,0.014138704165816307,-0.053712148219347,0.12933892011642456,0.1525007039308548,0.15690116584300995,0.015014590695500374,-0.10929866135120392,-0.12283885478973389,-0.011553457006812096,-0.10115174204111099,0.0020412560552358627,-0.23416337370872498,0.03323573246598244,0.30928829312324524,0.12016600370407104,-0.08355846256017685,-0.03838850185275078,-0.10654792934656143,-0.0936998724937439,-0.009969259612262249,0.05696731433272362,-0.06060544401407242,-0.10107597708702087,-0.055069610476493835,-0.08261428773403168,0.1261814534664154,0.08756185322999954,-0.06502016633749008,-0.05434495210647583,-0.07857251912355423,0.024638807401061058,0.07057726383209229,-0.00976505596190691,-0.17828433215618134,-0.06726516783237457,0.026799827814102173,0.07667648792266846,-0.013177449814975262,-0.07706180214881897,0.08653558045625687,-0.06034661829471588,0.15347813069820404,0.08057674765586853,-0.05158909410238266,0.11596401780843735,-0.00942214485257864,0.021655181422829628,0.032203759998083115,0.031242847442626953,-0.08262218534946442,-0.07756011933088303,-0.05067914351820946,-0.110718734562397,0.009541661478579044,-0.004706691950559616,-0.05756525322794914,0.05269544944167137,-0.22687113285064697,-0.012751475907862186,0.11559788137674332,-0.000518730201292783,-0.021897129714488983,-0.08179155737161636,0.15924206376075745,-0.0899822860956192,0.07023772597312927,0.11005359888076782,0.021673649549484253,0.01745561510324478,-0.05416332557797432,-0.019515270367264748,-0.04077192395925522,-0.07419761270284653,0.14886374771595,0.011629166081547737,-0.07453074306249619,-0.03409882262349129,0.011568017303943634,0.6147213578224182,0.11207633465528488,-0.030174830928444862,0.002159684896469116,-0.020996712148189545,0.0026155347004532814,-0.07249677926301956,-0.09448695182800293,-0.04162932187318802,0.10302369296550751,-0.10830473899841309,0.09559797495603561,-0.02338404953479767,0.10480140149593353,-0.1635534167289734,-0.0640096589922905,-0.06203927844762802,-0.14386428892612457,0.10840069502592087,0.13609783351421356,-0.006253115367144346,-0.07663280516862869,-0.046407513320446014,0.14991562068462372,-0.07556256651878357,0.10304385423660278,-0.009697346948087215,-0.035663899034261703,0.1520521342754364,0.04187016934156418,0.14495688676834106,-0.003272815141826868,-0.05233701318502426,-0.036410361528396606,0.02037573978304863,-0.09210659563541412,0.010672703385353088,0.01680268533527851,-0.07532897591590881,0.07381715625524521,0.14173348248004913,-0.05965645611286163,-0.022635409608483315,0.037125468254089355,0.01357426680624485,-0.008811168372631073,-0.13492515683174133,-0.05438418686389923,-0.1181734949350357,0.04737604036927223,-0.08428163081407547,-0.06789311021566391,-0.06002767011523247,0.31242725253105164,-0.130007803440094,0.25220486521720886,-0.021813305094838142,0.02955828420817852,-0.2708200216293335,0.09520226716995239,0.22264568507671356,-0.10195627808570862,-0.06562577933073044,0.1587064564228058,0.058076269924640656,0.05011741816997528,-0.06563502550125122,0.12067461013793945,0.01502437237650156,-0.11140305548906326,-0.0219070203602314,0.01285525318235159,-0.22794021666049957,0.004997295793145895,0.15448801219463348,-0.2337997406721115,-0.12397816777229309,0.08784709870815277,0.18442168831825256,-0.10926280915737152,0.1174568235874176,0.023162055760622025,-0.039513714611530304,-0.0988621935248375,0.04933087155222893,0.007875090464949608,-0.02239709161221981,-0.22691504657268524,0.03497963771224022,0.18265031278133392,-0.027150392532348633,0.16447734832763672,0.07186264544725418,-0.0837034285068512,0.030655350536108017,0.10806918889284134,-0.07486747950315475,0.1595439463853836,-0.06528409570455551,-0.31512609124183655,-0.1111353412270546,0.06126761436462402,0.07231876999139786,-0.023266619071364403,-0.12700001895427704,-0.022888781502842903,0.03125980496406555,0.09707006067037582,-0.10071589797735214,0.004108620807528496,-0.16682656109333038,0.33615633845329285,0.0010296223917976022,0.03257960453629494,-0.046084143221378326,0.05208247900009155,-0.1352950632572174,0.06300190836191177,0.04986926540732384,0.06473270058631897,-0.21172039210796356,0.16627953946590424,0.061097677797079086,0.03534776344895363,-0.23279079794883728,0.10838866978883743},{0.03601103276014328,-0.10492848604917526,-0.04964064434170723,0.02769910916686058,-0.14510004222393036,-0.2249739170074463,0.03706370294094086,-0.0005800671060569584,0.07294658571481705,0.16835802793502808,0.37782689929008484,0.04702035337686539,-0.039617862552404404,0.10217755287885666,0.0785975381731987,-0.07629900425672531,-0.09430000931024551,0.06942485272884369,0.04053378850221634,-0.6958367824554443,0.03723040223121643,0.09862210601568222,0.40953952074050903,0.0808069184422493,0.005930593237280846,-0.07313614338636398,-0.05653051286935806,0.013561904430389404,0.1605250984430313,-0.05803735926747322,0.09182489663362503,-0.05415942519903183,0.029584374278783798,-0.12009555846452713,0.010419012978672981,0.07828440517187119,-0.10118222236633301,0.04950251057744026,-0.001713153556920588,-0.028103474527597427,0.033979855477809906,-0.010652816854417324,-0.11161479353904724,0.01808863878250122,0.014440707862377167,0.15339140594005585,0.11132248491048813,-0.07796721905469894,-0.011042329482734203,0.17776164412498474,-0.05439749360084534,0.05842023715376854,0.02935122326016426,-0.07565215975046158,0.1008022353053093,0.21638037264347076,0.07417529076337814,0.09280376881361008,-0.17123980820178986,-0.06615456938743591,0.020087093114852905,-0.09264329820871353,0.06095479428768158,-0.2527022361755371,0.03579678013920784,0.5200753211975098,0.1572236567735672,-0.281849205493927,-0.029451416805386543,-0.18515236675739288,-0.13108094036579132,-0.04430501535534859,-0.014813797548413277,-0.08935777842998505,-0.12693709135055542,-0.09610594809055328,-0.13828039169311523,0.399273157119751,0.08383174985647202,0.00901643093675375,-0.07092377543449402,0.026807881891727448,0.06253785640001297,0.23470915853977203,0.007985016331076622,0.00341362995095551,-0.15109191834926605,0.018275119364261627,0.1317111700773239,-0.03732162341475487,-0.025326842442154884,0.001654968480579555,-0.24898985028266907,-0.006394755095243454,0.11651678383350372,-0.009074841625988483,0.1467311978340149,-0.051636919379234314,0.025133337825536728,0.06140341982245445,-0.04214835166931152,0.02385196089744568,-0.12249910086393356,0.12109079211950302,-0.04925918206572533,-0.017949208617210388,-0.013075542636215687,0.07706450670957565,0.08057773113250732,-0.3768383860588074,0.02781444787979126,0.06614995002746582,-0.05001183599233627,-0.05625883862376213,-0.11147794127464294,0.19472850859165192,-0.07333606481552124,-0.06165686622262001,0.1689215451478958,0.047530025243759155,0.02792341448366642,-0.050006262958049774,-0.00014862482203170657,-0.04888308420777321,-0.14311683177947998,0.12913766503334045,0.009698133915662766,-0.06768273562192917,-0.09733506292104721,0.0008305429946631193,0.7979129552841187,0.047134120017290115,-0.06854482740163803,-0.015157039277255535,-0.029053598642349243,0.03630901873111725,0.08203978091478348,-0.12091952562332153,0.0935060977935791,-0.048120006918907166,-0.2052021324634552,0.05811567232012749,0.14831660687923431,0.12882409989833832,-0.11625157296657562,-0.09347215294837952,-0.08062935620546341,-0.2758917808532715,0.19374863803386688,0.2831023335456848,0.0008386377594433725,-0.07380117475986481,-0.1194344088435173,0.12725730240345,-0.32455822825431824,0.12801426649093628,0.1369984745979309,-0.05951647460460663,0.12310270965099335,0.15696440637111664,0.20361165702342987,-0.023967327550053596,0.021520229056477547,0.0644097775220871,0.07400039583444595,0.02392362803220749,-0.004233306739479303,0.010760252363979816,-0.07480119168758392,0.08386269211769104,0.044760122895240784,-0.10690217465162277,-0.07387355715036392,0.0030087141785770655,0.047276537865400314,0.006300880573689938,-0.14329582452774048,-0.09457339346408844,-0.13133588433265686,-0.04462340101599693,0.0033375604543834925,-0.08267263323068619,0.009340169839560986,0.47055649757385254,-0.2191396951675415,0.25134536623954773,-0.13190874457359314,-0.017707668244838715,-0.30654528737068176,-0.004562997724860907,0.3670249581336975,-0.20000801980495453,-0.09258563071489334,0.17505522072315216,0.02567666955292225,0.07202349603176117,-0.0010493408190086484,0.06893019378185272,-0.0007908452535048127,-0.10831677168607712,-0.028695279732346535,0.011969971470534801,-0.25715410709381104,0.04755980521440506,0.24828176200389862,-0.25703340768814087,-0.1561272293329239,0.1261986345052719,0.3804328143596649,-0.1573846936225891,0.1511153131723404,0.07682669907808304,0.006168527994304895,-0.07873333990573883,-0.014028827659785748,-0.16781826317310333,-0.021153459325432777,-0.2777460217475891,-0.06811371445655823,0.2920510470867157,-0.040917567908763885,0.2121334820985794,0.08174433559179306,-0.09139635413885117,-0.024420173838734627,0.12234654277563095,-0.06604155898094177,0.38297492265701294,-0.06786888837814331,-0.201002836227417,0.09848881512880325,0.09718658030033112,0.3389888107776642,-0.08796735107898712,-0.1427614837884903,-0.02922612614929676,0.028082437813282013,0.1835460066795349,-0.06302734464406967,0.1578090637922287,-0.031734440475702286,0.5566220283508301,0.06762969493865967,0.05496970936655998,-0.1513378918170929,-0.026676516979932785,-0.028372542932629585,0.11492359638214111,0.0024469811469316483,-0.043342094868421555,-0.3244220018386841,0.3284841477870941,0.07749788463115692,0.04081429913640022,-0.2851114273071289,0.18088914453983307}};
static const float mlp_2_weight[256][256] = {{0.020051218569278717,5.488280407917046e-07,6.842346778057617e-08,2.2306299740648683e-07,-8.218694347306155e-07,-0.046393394470214844,-2.8743128765995607e-08,5.617403530777665e-06,-2.1087687684939738e-07,0.05810590088367462,-0.0009419181733392179,-4.604099376592785e-05,0.028348086401820183,-0.00013580710219684988,9.67802691320685e-08,4.333020569902146e-06,-1.9368694665899966e-06,-1.668687019673598e-07,-0.10654483735561371,-0.014197831973433495,-1.764818051697148e-07,-6.718859140164568e-07,-0.03468264266848564,-9.439456334803253e-06,-4.816930072593095e-07,-1.7031126844813116e-05,1.4856158259135555e-07,-0.01194654032588005,0.14502567052841187,0.015766503289341927,-1.6276703718176577e-06,-6.4458669513101086e-09,4.791250466951169e-05,8.583219823776744e-06,0.013988407328724861,0.029453163966536522,0.0009126941440626979,-0.003409563098102808,8.750151891945279e-08,-3.016118398591061e-06,-0.0766509473323822,1.267557036044309e-05,0.017654968425631523,0.15422587096691132,-4.383832390431053e-07,-1.474831492487283e-06,1.652515129535459e-05,0.057967398315668106,-4.283514954295242e-06,0.03319498524069786,6.275575969993952e-08,8.163297593455354e-08,-6.373325049935374e-06,5.599928954325151e-06,0.06627597659826279,-9.346190665837639e-08,1.5347784938057885e-05,-0.0351155549287796,-3.799736441578716e-05,-0.026791589334607124,-0.03213844820857048,3.318057792967011e-07,5.880916731371144e-08,-2.948588075923908e-07,-0.29672372341156006,-1.1482786277383639e-07,-0.003964264411479235,-9.92442528513493e-06,-2.1794187432533363e-06,-5.473939879152567e-08,-0.035541635006666183,-0.02547738142311573,-0.040514346212148666,-2.1920379822404357e-06,0.05095406621694565,8.288088429253548e-05,2.3866328774602152e-05,-2.0172637960058637e-06,2.812680293118319e-07,1.119602984545054e-06,0.09869017452001572,0.032140761613845825,-1.045020962919807e-05,-0.056835025548934937,-0.01319524273276329,0.0007204730063676834,-0.02827596850693226,-0.012097514234483242,-0.1897810846567154,2.1815878881170647e-06,4.0067272493615746e-05,-0.052946411073207855,8.993648953037336e-05,-6.551408205268672e-06,-0.051392536610364914,5.28493728779722e-06,6.2749500102654565e-06,-8.611641533207148e-05,1.6392914403695613e-06,0.12068115919828415,7.076822328144772e-08,0.0008342918590642512,9.712366590974852e-06,-0.09265479445457458,3.845329832330435e-09,1.3705650871997932e-06,-3.721304165082984e-05,-0.009794645011425018,-4.7142646053544013e-07,1.220109061250696e-05,-0.027643246576189995,6.367058631440159e-07,-3.819702598661934e-08,-1.4261268006521277e-06,8.273602816188941e-07,-1.5270379094545206e-07,-0.11429870873689651,-7.145438729594389e-08,0.021088605746626854,-1.7806234609452076e-05,-2.624941225803923e-05,1.5094965277739902e-08,-8.765036341173982e-08,0.008807634934782982,-1.0251544154016301e-05,-8.368517114831775e-07,-4.880404844698205e-07,0.049950119107961655,1.2974292076251004e-05,0.018897827714681625,-7.02931401974638e-08,-1.9462829925487313e-07,0.035880304872989655,-8.491035714541795e-07,2.500810978744994e-06,0.08858129382133484,1.2379182408039924e-05,0.2862810492515564,-0.03661513328552246,-0.04180997237563133,6.1571295191242825e-06,3.197098703822121e-05,-6.299817414401332e-06,0.19754764437675476,-0.058156818151474,0.03808831423521042,-1.2728132787742652e-06,3.268715090598562e-06,5.666565527917555e-08,0.0054074544459581375,1.114347369934876e-08,0.01843395084142685,-1.989808652069769e-06,-5.6636540648469236e-06,0.032438624650239944,-2.9453682159896744e-08,0.030056266114115715,0.0028770670760422945,0.011375745758414268,-0.07872529327869415,-0.044766392558813095,7.88527003692252e-08,-4.0586911609352683e-07,-0.0013597827637568116,-1.3300557839102112e-05,0.0050803800113499165,0.033557094633579254,-0.0001782799226930365,-8.177563358913176e-06,0.016294442117214203,1.374745352222817e-06,0.006232794374227524,-5.108936420583632e-06,6.64581311866641e-05,-3.820290195299947e-10,-7.920701818875386e-07,1.0115873294580524e-07,5.012684596295003e-07,-0.08207567036151886,1.2656120816245675e-05,2.4574092094553635e-06,-7.692245844737045e-07,0.09843376278877258,0.02494318038225174,-0.010059037245810032,-1.3307796962180873e-06,0.021689072251319885,0.004134253598749638,-0.1867871731519699,-1.4593582818633877e-05,-0.008003982715308666,1.8169718885019392e-07,0.0016831154935061932,-7.630240475009487e-07,3.5643342926050536e-06,-6.469938540476505e-08,-3.6813710835303937e-07,6.713491274012995e-08,-5.2755472097487655e-06,0.008554155007004738,-1.38223140311311e-05,-0.12352803349494934,4.083320618519792e-06,5.916774625802645e-07,-9.819733350013848e-06,-5.3477751862374134e-06,-1.4145859950076556e-07,0.021779751405119896,-2.137782303179847e-06,-6.265895535761956e-07,-2.1951054804958403e-06,-2.586325990705518e-06,0.006214606110006571,3.991200703268305e-09,-4.8160568439925555e-06,0.001334314001724124,-3.9508071495220065e-05,4.71467683382798e-05,1.0270257178035536e-07,-0.04729588329792023,9.674073098153713e-09,7.378911050182069e-06,0.04724140837788582,-0.025205468758940697,-2.06218118137258e-07,-2.6241364636803155e-09,4.940996404911857e-06,-7.78935554990312e-06,0.04223598167300224,2.3561669877381064e-06,0.017021868377923965,0.020907137542963028,-0.04549446329474449,1.7016263882396743e-05,-0.00614877650514245,2.44314914965571e-08,1.0598300548281259e-07,-0.007287563290446997,-0.04369407892227173,-0.08340554684400558,-1.0735957403085195e-06,-0.0384865365922451,1.0998683563911982e-07,1.947990313055925e-05,-0.09626490622758865,-0.013994076289236546,-2.4561781174270436e-05,-2.9597393222502433e-05,-1.0918436601059511e-05,-2.3262170145699201e-07,-0.024520445615053177,-0.0601101852953434,1.1876046301040333e-05,-0.014978136867284775,-0.020926794037222862,-3.097431545029394e-05},{0.02156212367117405,2.269372423313598e-08,3.327623332438634e-08,1.2636422574985318e-08,2.095575473504141e-05,0.00979560986161232,-8.996627443025318e-09,1.2885401190487755e-07,-3.699920014810232e-08,0.009859689511358738,-0.007827461697161198,0.00010715873213484883,0.005350193940103054,7.725212526565883e-06,4.404404840840925e-09,-4.966025244357297e-06,-7.370696408770527e-08,-2.2550782574626282e-08,-0.05729705095291138,-0.012750321067869663,-1.9300374631825434e-08,-7.257624723422396e-09,-0.011997238732874393,2.4931409825512674e-08,-3.206174170600207e-08,-0.0001785435015335679,2.4933155984285804e-08,-0.0023371886927634478,0.060896553099155426,0.005447071511298418,-9.282300794666298e-08,-4.3469983168620274e-09,8.044713467825204e-05,0.0005787181435152888,0.023105235770344734,-0.0024270995054394007,-0.00019208986486773938,-0.016640810295939445,8.399034356898483e-08,2.257928510829288e-09,-0.09846112877130508,-4.1117405658042117e-07,0.006092609837651253,0.004581266548484564,2.645530798872642e-07,-7.616754515993307e-08,2.9319307870423472e-08,-0.043141353875398636,5.786108658867306e-07,-0.026548486202955246,7.826535153299119e-08,1.4248501045699413e-08,0.00012982389307580888,-0.0002827119024004787,0.07812485098838806,5.808109904137382e-08,3.872467289056658e-07,-0.03106064349412918,-7.818587619112805e-05,-0.02005554363131523,-0.0015572530683130026,-2.237394491899636e-09,5.891890531017907e-09,-6.922963535771487e-08,0.054955217987298965,-7.760953657509617e-09,-0.014777764678001404,-2.4799146558507346e-07,-1.4200482212345378e-07,-6.725265233598066e-09,-0.055201102048158646,0.01747150532901287,0.01916748657822609,-7.542377034042147e-07,0.005112314596772194,-3.071909668506123e-05,7.632968481630087e-05,-9.560178568790434e-07,2.5330127328970775e-08,1.050287750103962e-07,0.013158214278519154,-0.0036333787720650434,-4.589878699334804e-07,-0.059256453067064285,0.022486727684736252,-0.032095108181238174,-0.021913917735219002,0.030406244099140167,-0.05935470014810562,4.833727871300653e-07,3.735917175617942e-07,-0.061200276017189026,-2.922080057032872e-05,3.2757108670011803e-07,0.04973053187131882,8.96563597052591e-06,4.902153705188539e-08,0.000366059597581625,8.08639697424951e-07,0.18278402090072632,7.168177518224184e-08,-2.9844179152860306e-05,-0.00012476870324462652,-0.011599978432059288,2.9423437908349115e-08,6.777811734082206e-08,-9.01740713743493e-06,0.09391430020332336,6.422671049222117e-06,6.793437478336273e-06,-0.019083920866250992,4.566559397289893e-08,-5.000865854754011e-08,-2.4916789698181674e-06,3.074572774153239e-08,-8.51029611226295e-08,-0.0778660923242569,-1.3090695460959978e-07,0.009733336977660656,-2.9286269409567467e-07,8.575531865062658e-06,-3.869713438575673e-09,1.8229187844553962e-05,-0.004313862882554531,1.4311719098714093e-07,-4.938165147905238e-07,-2.8735041013305818e-08,-0.03163931891322136,7.555568686257175e-07,0.00343127828091383,5.437168937305614e-08,-1.3747821014931105e-07,-0.036088064312934875,1.0294887715645018e-06,-4.737454730729951e-07,-0.0075309607200324535,-6.700319499941543e-05,0.03991750627756119,-0.011155257001519203,0.06622767448425293,3.188945356669137e-07,6.927912181708962e-05,4.010529153219977e-08,0.0950937271118164,-0.0044853538274765015,-0.03285784646868706,1.5068974335008534e-07,2.0044359416715452e-07,7.672642254874518e-08,0.0028988346457481384,1.755746481535425e-08,-0.010053320787847042,-1.630356365467378e-07,-1.3291745517562958e-06,-0.018127746880054474,8.008993468422432e-09,-0.004802047740668058,-0.03605518117547035,0.08892523497343063,-0.08092436194419861,-0.004189957864582539,2.5144453275061096e-07,-1.578193575824116e-08,0.04172414913773537,1.8566706216915918e-07,-0.011373557150363922,-0.00020614417735487223,0.0004077246121596545,7.829370588297024e-06,-0.008473440073430538,6.46638653734044e-08,-0.0016535139875486493,1.7488954995314998e-07,-4.532211096375249e-05,3.296760642257368e-10,3.3280963407378295e-07,2.6232827465832997e-08,1.8347513730532228e-08,-0.08661439269781113,1.0925878086709417e-06,-4.853654331782309e-07,-4.834765263694862e-07,0.007254454307258129,-0.004458797164261341,0.01628858596086502,-4.1046070009542746e-07,-0.006390669383108616,0.02062125690281391,-0.052423715591430664,-1.209927972922742e-06,-0.032071471214294434,3.3809106980697834e-07,-0.003893553512170911,-5.910750999760239e-08,-3.4332513223489514e-06,-7.721987493880533e-09,7.620888808901327e-09,5.2506141656749605e-09,-3.237547829826326e-08,-0.08807599544525146,-1.0791671201104691e-07,0.05513879656791687,6.508887508971384e-07,-2.3272191356227268e-06,-1.5685891696648468e-07,-5.902079465158749e-07,5.159278657629329e-07,-0.14091074466705322,-2.53198086284101e-05,6.01310603087768e-07,-6.014006885379786e-06,3.195773956576886e-07,-0.00545174814760685,-6.088437309870187e-09,5.222810614213813e-06,-0.041442155838012695,-5.033227353123948e-06,7.642089258297347e-06,-5.578209538725787e-07,0.002795273205265403,2.0874859618658093e-09,-3.8126775052660378e-06,-0.03349572420120239,0.003323181299492717,-1.3612152294228963e-08,-1.4631598332925932e-07,-1.5785026334924623e-05,-2.2204974357009633e-06,0.008716661483049393,1.0210191447868056e-07,-0.08219590783119202,9.401573333889246e-05,-0.08198164403438568,1.141863776865648e-06,-0.13081671297550201,1.6078793407814373e-08,4.311345946916845e-08,0.06063541769981384,0.0433175154030323,0.04427255690097809,-5.952762904826159e-08,0.08465517312288284,8.735790757441464e-09,2.4547992438783695e-07,0.029888320714235306,-0.029192790389060974,8.873722094904224e-07,-1.4469806956185494e-05,-1.0982977016738005e-07,-4.065551451049032e-09,0.03467238321900368,-0.08770400285720825,-5.65240225114394e-05,-0.024715378880500793,-0.005148705560714006,2.6124575015273876e-05},{0.029269104823470116,4.9499227827709547e-08,-8.60145554781866e-09,1.446490127676725e-08,-6.587171083083376e-05,0.009279458783566952,-2.992420178316024e-08,-1.2689781669905642e-07,-3.2227074342472406e-08,0.002772284671664238,-0.03764192387461662,-0.0002180506708100438,0.004509696736931801,2.6598875138006406e-06,-3.0058902034113544e-09,4.358695150585845e-06,-2.643605867547194e-08,-1.839131336112132e-08,-0.1282815933227539,-0.036871399730443954,-3.281024874013383e-08,1.7031515753274107e-08,0.034944500774145126,1.6013854065022315e-06,-4.369091755052068e-08,-0.00020387062977533787,4.406829567926707e-09,-0.00019037460151594132,0.1898936629295349,0.01212741993367672,-1.6753197940033715e-07,-1.9422392583123838e-09,0.00013124183169566095,2.0188923372188583e-05,0.07899089902639389,-0.015121478587388992,-0.0005181637825444341,-0.03287331759929657,-2.3743014310184662e-07,-1.7942247154678626e-07,-0.1414094716310501,-2.058232894341927e-06,0.011646798811852932,0.03195691481232643,-2.4944668552961957e-07,-1.1344468475726899e-07,-1.0471313771631685e-06,-0.06324338912963867,9.318706588601344e-07,-0.05797411873936653,2.083319117218707e-07,2.281116806557293e-08,-0.00048349282587878406,0.0003430141950957477,0.13557468354701996,-1.7857590250969224e-07,-2.0283616208871535e-07,-0.07515718042850494,2.994071110151708e-05,-0.04231409728527069,0.0007931250729598105,-8.845387533540361e-09,6.537252961180684e-09,-7.050331873870164e-08,0.17526009678840637,-1.3814814181500878e-08,-0.029787270352244377,1.2019385167150176e-06,4.618407700718308e-08,-8.22148216172991e-09,-0.12290061265230179,0.05024037882685661,0.018753577023744583,-4.327737883613736e-07,-0.002631403738632798,-3.241993454139447e-06,2.9279100999701768e-05,-2.7711387247109087e-06,3.760948885656035e-08,1.49319561160155e-07,0.024478906765580177,-0.0048050060868263245,-4.6037226297812595e-07,-0.17625418305397034,-0.03389669209718704,-0.0682448223233223,-0.040447015315294266,0.03248271346092224,-0.2978208363056183,9.337782671536843e-07,-3.3078151773224818e-06,-0.12256710976362228,0.0002493481442797929,1.2604223229573108e-06,0.12489330023527145,1.2720359336526599e-05,-3.684876901388634e-07,-0.00017604768800083548,1.3149806363799144e-06,0.2814636528491974,-2.531806053696073e-08,-9.029618377098814e-05,0.00027401160332374275,0.005867024417966604,-7.442354643671933e-08,1.1147568557134946e-07,-0.00010205657599726692,0.14375196397304535,-1.3469616533257067e-09,7.414636911562411e-06,-0.028585895895957947,7.203471596994859e-08,4.955391474936732e-08,3.3347891985613387e-06,-8.720006050566553e-09,6.478189362724152e-08,-0.17784446477890015,-3.789656233266214e-08,0.01774158701300621,1.3756683756582788e-06,-7.139512490539346e-06,-1.4976663464949524e-08,-4.348282800492598e-07,-0.00693777808919549,1.0143223789782496e-06,-7.719113455095794e-07,-4.883192161742045e-08,-0.036987438797950745,1.5866308444856259e-07,0.003856527851894498,-1.643496005954148e-07,-4.044279222625846e-08,-0.053780678659677505,-2.1063310668978374e-06,-1.337446292382083e-06,-0.040331050753593445,3.28095666191075e-05,0.08077169954776764,-0.003996444400399923,0.11484621465206146,3.287765792947539e-08,-0.00027762222453020513,6.132955832072184e-07,0.12817326188087463,-0.019050883129239082,0.00020902232790831476,4.698216571341618e-07,-2.7592260920528133e-08,-7.930016465707013e-08,0.004520225338637829,1.2621988787486771e-08,-0.005211394280195236,-2.134030978595547e-07,-3.5391663004702423e-06,-0.03706881403923035,-8.590729017043941e-09,-0.005376995075494051,-0.06074974313378334,0.11484070122241974,-0.14605122804641724,-0.010657022707164288,3.709512839122908e-07,-3.783692292813612e-08,0.020641133189201355,1.3348862921702676e-06,-0.015334632247686386,-0.012494181282818317,0.00045958106056787074,1.4938696949684527e-05,-0.01982576586306095,9.248788046534173e-08,-0.00413565244525671,3.004781774507137e-07,9.363453500554897e-06,-6.014000963894262e-10,-5.624626453482051e-08,3.975260653987789e-08,1.3628593364956032e-08,-0.15369395911693573,1.8196035398432286e-06,-6.026572236805805e-07,-1.1329937024129322e-06,0.007204150315374136,-0.01402202807366848,0.031483910977840424,-1.084746372725931e-06,-0.013804176822304726,0.062122732400894165,-0.18104378879070282,-2.0791117094631772e-06,-0.049877364188432693,9.024370797305892e-07,-0.008621606975793839,-2.096691487096791e-09,-3.691730398713844e-06,-1.684944272994926e-08,2.776669028037304e-08,1.2699729268206283e-08,1.4957370808588166e-07,-0.16215331852436066,1.0543755024627899e-06,0.06977951526641846,8.52112293614482e-07,-0.0005335888126865029,6.832912049503648e-07,-1.0256358109472785e-06,-1.3563912943936884e-06,-0.21273112297058105,4.106376309209736e-06,8.749346420700022e-07,-9.989289537770674e-06,1.407530248798139e-06,-0.010108736343681812,2.71654676531341e-09,-6.059827228455106e-06,-0.029851160943508148,6.0590355133172125e-06,-1.5930312656564638e-05,-2.007073362619849e-06,0.0026583876460790634,2.258976783409139e-09,4.913842985843075e-07,-0.06278251111507416,0.016721678897738457,-2.3213445388137188e-08,2.7318705519974174e-07,6.5930516939261e-06,-4.548730430542491e-06,0.08463045209646225,9.229286490608501e-08,-0.11554235219955444,-0.026053227484226227,-0.12369892001152039,-7.057693096612638e-07,-0.06245744228363037,-1.2608687427473342e-08,-1.2138076499468298e-07,0.15554113686084747,0.08278308808803558,0.08459405601024628,2.569013020092825e-07,0.10498671978712082,1.5109684170511173e-08,-1.6856880620252923e-06,0.062410153448581696,-0.02919280156493187,4.992238245904446e-06,0.000478521193144843,4.828054329664155e-07,8.459231537472078e-09,0.044129662215709686,-0.22598576545715332,6.198170012794435e-07,0.05109794810414314,-0.040720656514167786,-1.416956729372032e-05},{-0.005175033118575811,1.4759478972337092e-07,9.027421477014741e-09,7.473955321302128e-08,2.775477696559392e-05,-0.008121758699417114,-2.7720448159129774e-08,7.908384986876626e-07,-6.355815429515133e-08,0.012855655513703823,0.020128028467297554,-0.0001841319171944633,0.005579645279794931,1.0303122508048546e-05,1.738236576898089e-08,-9.287174179917201e-06,-2.4015267285903974e-07,-4.4632525231236286e-08,-0.055810216814279556,-0.05948977917432785,-8.874301471450963e-08,9.199665029768767e-09,-0.02789980359375477,-1.5507677062487346e-06,-1.6339735964265856e-07,-0.0001135302591137588,3.6189206298331555e-08,-0.013211355544626713,0.13833463191986084,0.00039914489025250077,-5.084431222712738e-07,-4.168476230859142e-09,0.00019516625616233796,0.00010474493319634348,-0.01329404953867197,-0.001152527634985745,-0.0002501974522601813,-0.014062201604247093,-1.5340985726197687e-07,-4.292020037155453e-07,-0.055494483560323715,-1.4979586921981536e-06,0.0013283167500048876,0.04641072079539299,4.2370908204247826e-07,-3.28941837324237e-07,-9.744302360559232e-07,0.03353729099035263,2.018754408084078e-08,-0.027266791090369225,4.4171261492920166e-07,5.3496634677685506e-08,-0.0003346252487972379,0.00019155637710355222,0.07850250601768494,-5.036958583559681e-08,4.907418542643427e-07,0.015363088808953762,-5.122305447002873e-05,-0.02283703163266182,-0.0076740519143640995,1.762230716906288e-08,1.1106262576277004e-08,-2.3025278039767727e-07,0.13304448127746582,-3.515397395403852e-08,-0.005364550743252039,-1.64824371040595e-06,-3.9551218833366875e-07,-1.5646605788788293e-08,-0.029065372422337532,0.021860308945178986,0.0032480100635439157,4.026119881928025e-09,0.00803496316075325,-6.086062057875097e-06,8.77745624165982e-05,-1.4220496495909174e-06,8.71943512947837e-08,4.4746442995347024e-07,0.03017990104854107,0.004399083089083433,1.2683247518907592e-07,-0.028632767498493195,0.026899559423327446,-0.05368509888648987,0.005813525523990393,-0.010727542452514172,-0.04284000024199486,5.957915050203155e-07,-3.154364549118327e-06,-0.036067403852939606,0.00020592221699189395,1.134514604927972e-06,0.0005989978672005236,9.977454283216503e-06,2.0518103838185198e-07,-0.0001365353527944535,1.5018239309938508e-06,0.04353824630379677,2.976660873343917e-08,-0.0001270714565180242,0.0002263997885165736,-0.011829996481537819,-2.028750678562119e-08,-1.3618947036775353e-07,-0.0001537418575026095,0.021641792729496956,6.536456112371525e-06,-1.5073684153321665e-05,0.0007573534967377782,1.8626147380018665e-07,-2.451412584036916e-08,-1.6734569499021745e-06,7.621019904036075e-08,-2.0076167395188804e-09,-0.045955557376146317,-1.1720107551127512e-07,-0.001573330839164555,7.51832203604863e-07,-4.274268121662317e-06,-2.201875304308487e-08,1.2073569450876676e-05,-0.0017922442639246583,9.342609814666503e-07,-6.828377081546932e-07,-1.2593370968261297e-07,0.013513149693608284,3.0791062499702093e-07,0.003369035664945841,-4.2213748940866935e-08,-3.8875711538821633e-07,-0.0036975624971091747,-1.4964714978304983e-07,-6.554155618232471e-08,-0.0333772748708725,-6.34979223832488e-05,0.2156154364347458,-0.027105364948511124,0.02492218278348446,2.0009740637760842e-06,-0.00024575466522946954,4.951687628818036e-07,0.07911860942840576,-0.022013090550899506,0.08531644940376282,1.13208716356894e-06,1.5160999566887767e-07,6.870532587299749e-08,0.0011656208662316203,1.678600014543008e-08,0.06475112587213516,-7.958985293043952e-07,-1.5301943676604424e-06,-0.014741421677172184,3.0550264540352146e-09,0.006241195369511843,0.002253148006275296,0.028124773874878883,-0.16159984469413757,0.0008550284546799958,2.851668625680759e-07,-9.583951765534948e-08,0.016421575099229813,1.4038373592484277e-06,-0.001056063105352223,0.0021584006026387215,-9.893460082821548e-05,4.279308996046893e-05,0.011236493475735188,2.4855467017914634e-07,-0.00044560219976119697,-1.5849207102291984e-07,-5.621108130071661e-07,-2.334222815036924e-10,3.4450624752935255e-07,4.012546028775432e-08,6.374576599910142e-08,-0.04866836220026016,1.2138989404775202e-06,-1.4985317875471083e-07,-1.2368377610982861e-06,-0.007762459572404623,-0.002381744561716914,-0.017432669177651405,-1.7218578705069376e-06,-0.003925846423953772,-0.009579566307365894,-0.11471767723560333,-3.264093720645178e-06,0.03432454168796539,1.1098901495643076e-06,0.007131975144147873,-1.3775539287053107e-07,5.1058059398201294e-06,-3.31720357849008e-08,-1.9798878980736845e-08,2.6616296722181687e-08,-6.565143166881171e-07,-0.04850132763385773,7.483154149667826e-07,-0.01224171556532383,4.004895686193777e-07,-0.00037123056245036423,-1.064210195522719e-07,-1.029090071824612e-06,3.3045890290850366e-07,-0.022604618221521378,-2.7810217943624593e-05,1.135826323661604e-06,-1.1618975804594811e-05,-3.5479334314914013e-07,-0.002710412023589015,4.0853738170198994e-09,-3.178732185915578e-06,0.018365416675806046,-0.0001368136436212808,-8.167759006028064e-06,-9.270104897041165e-07,-0.010268389247357845,1.946080629977587e-09,-6.986704192968318e-06,0.003697045613080263,0.0008498525712639093,-5.8028895466577524e-08,-9.337347961491105e-08,-3.0130064260447398e-05,-3.5239870612713275e-06,-0.005062217824161053,3.445720153649745e-07,-0.0012135691940784454,-0.008451016619801521,-0.1579747051000595,1.6102718518595793e-06,-0.11578155308961868,-6.030413501889598e-09,9.520550570130126e-09,0.07993923872709274,0.045079272240400314,0.05273338779807091,8.831625564198475e-07,0.02933323197066784,3.431304662626644e-08,-1.1265701687079854e-06,0.030108382925391197,-0.09355369955301285,3.8485482036776375e-06,0.0003569236723706126,1.0820133411471033e-06,5.097343880322569e-09,0.012666195631027222,-0.09854436665773392,-8.054669888224453e-05,0.013214602135121822,-0.013628597371280193,-7.776128768455237e-05},{-0.0036201488692313433,-2.3640485125042687e-08,-3.863753761379485e-09,-7.030540416508302e-08,-7.28685063222656e-06,0.013663521967828274,-5.8352469523015316e-08,2.2511133010993944e-06,8.699561959701896e-09,0.02347792126238346,0.16917358338832855,0.00014298195310402662,-0.0023191007785499096,-0.00013412487169262022,-8.264112949518676e-08,1.0722548722696956e-05,2.585593676940334e-07,8.563537434724822e-09,0.06411232799291611,0.05102203041315079,3.249686386652684e-08,4.17606891289779e-08,-0.006873713806271553,-5.302951535668399e-07,-4.462369140867395e-09,0.00035353595740161836,1.5842964273815596e-08,-0.042192183434963226,0.006140261422842741,-0.00950989592820406,1.4473097564859927e-07,-7.996493467388177e-10,-0.00023794602020643651,-3.0400497053051367e-06,0.2254037857055664,-0.010275088250637054,0.0005437299842014909,-0.016080865636467934,-1.6605964958671393e-07,1.0979414355460904e-07,0.034069862216711044,-1.1094864476035582e-06,-0.018633611500263214,0.05553239583969116,-4.0628054875924136e-07,9.230561204276455e-08,-1.9272970348538365e-06,-0.06521721929311752,-9.357806334264751e-07,-0.0072632115334272385,1.4686986560263904e-07,-1.2614850497527641e-08,0.0007705680327489972,-0.0006686330307275057,-0.10719269514083862,4.6910297868407724e-08,9.992856575991027e-06,-0.10329503566026688,-0.00015924836043268442,0.06857789307832718,0.012727797031402588,5.665613400651637e-08,1.2836217422318441e-08,4.987107331544394e-07,0.3505735993385315,1.2004798932707672e-08,0.00010124497930519283,1.783242737474211e-06,1.665300942477188e-06,2.373495844310014e-09,-0.014957820996642113,0.009241891093552113,0.020009508356451988,-5.001817271477194e-07,-0.0004675787640735507,5.5058495490811765e-05,-5.16967847943306e-05,2.1870468458473624e-07,-1.8472888996257097e-08,-3.0793671612627804e-07,0.011234999634325504,-0.009282711893320084,-7.92048808762047e-07,0.1443362832069397,0.01477271318435669,0.0013495219172909856,-0.06860332936048508,-0.014983328059315681,0.23954983055591583,-2.159453970307368e-06,-1.314641394856153e-05,-0.008978333324193954,-0.0005247262306511402,-1.8110948758476297e-06,-0.0020244235638529062,-7.827821718819905e-06,6.815356528022676e-07,8.543701551388949e-05,1.958256490297572e-07,-0.11375802755355835,3.266671910751029e-08,0.0004060470964759588,-0.00044693524250760674,0.17799034714698792,4.946827392160458e-10,-7.087125482030388e-07,0.00012127462832722813,-0.22127169370651245,-5.35210801899666e-07,2.021218097070232e-05,-0.05118916183710098,-5.7461527092073084e-08,-1.7686284436990718e-08,2.675931909834617e-06,-2.439968227463396e-07,-1.7313043443323295e-08,0.02025732211768627,1.4590712282824825e-07,-0.008692466653883457,6.897264029248618e-06,5.814948963234201e-06,-2.9269308754464873e-08,-2.1572018340521026e-06,-0.0009241221705451608,1.3575281627709046e-06,9.431412877347611e-07,6.715308842331069e-08,-0.06098990514874458,-6.145432507764781e-06,-0.002841816982254386,2.7108796984975925e-08,1.1966665169893531e-06,0.031747955828905106,9.721843525767326e-07,4.01370152758318e-06,-0.21630418300628662,-5.566580512095243e-05,-0.12523536384105682,0.0740615576505661,-0.05418932065367699,-1.7745369405020028e-06,0.0007503936649300158,1.68489430052432e-06,-0.18091870844364166,0.059758953750133514,0.014102757908403873,6.98787971487036e-07,-1.7987194951274432e-06,2.5469329756333536e-08,0.004152936395257711,3.298179152011471e-08,-0.05091442912817001,3.171093112541712e-07,2.8504659894679207e-06,-0.005705498158931732,-1.687050144028035e-07,-0.012727068737149239,0.013276899233460426,0.0007663284195587039,0.19124439358711243,0.030687130987644196,-2.454266905260738e-07,2.9143489399530154e-08,-0.2027682214975357,-1.0949335091936518e-06,0.002305368660017848,-0.013196880929172039,0.0006091524846851826,-5.076087836641818e-05,0.007981217466294765,-5.239231271048084e-08,-0.0022537107579410076,3.1080816143003176e-07,1.710154720058199e-05,7.78238445908741e-11,1.4362960882863263e-06,2.660642905993882e-08,-1.385344745585826e-07,0.1953856647014618,-5.733280886488501e-06,8.214002491513384e-07,-1.1332062967994716e-06,-0.08413208276033401,-0.008323311805725098,-0.03490529954433441,8.885621696208545e-07,-0.004906048532575369,-0.07129120081663132,0.2267754226922989,-2.334957116545411e-06,-0.021115461364388466,-1.0402660564068356e-06,-0.021160146221518517,-2.9433945059054167e-08,-2.3768492610543035e-05,-1.4768897216299592e-08,-4.719900559280177e-08,1.3112880559162932e-08,3.1221651930479766e-09,0.3331676423549652,3.531974016368622e-06,0.020768476650118828,2.054554215646931e-06,0.0007657886599190533,2.290515794811654e-06,9.570259607016851e-08,1.3320982361619826e-07,-0.1556881070137024,-4.335528501542285e-05,4.273415754596499e-07,-5.286316081765108e-06,2.590310941741336e-06,0.005812169052660465,7.749885355678998e-08,1.3760676438323571e-06,0.015853825956583023,0.00012047160998918116,4.7094061301322654e-05,3.053003865716164e-06,0.013565588742494583,6.666797114363021e-10,9.58644704951439e-06,0.03819984570145607,0.011011621914803982,2.047712399644297e-08,-1.2543853245006176e-07,-1.787918336049188e-05,2.5774411369638983e-06,0.049734167754650116,-2.0027805192057713e-07,0.0361076183617115,-0.011273338459432125,-0.01171042863279581,-2.1522710085264407e-05,0.1865258663892746,1.7584191880359867e-08,6.237622329763326e-08,-0.18934758007526398,0.007385093718767166,0.08378326147794724,3.8987832340353634e-07,-0.0848831757903099,-3.6764862265670217e-09,-8.365698704437818e-06,0.10105893015861511,-0.022835036739706993,-2.8182481401017867e-05,-0.0004964515101164579,-1.1393851195862226e-07,6.177598521617256e-08,-0.04049317538738251,-0.09938134253025055,-8.109872578643262e-05,0.08991030603647232,0.052964698523283005,0.0001437381433788687},{0.04781871289014816,-2.501823246348067e-07,2.3076953681311352e-08,-7.438170968043778e-08,-0.00014252596884034574,0.006359908729791641,-2.165415935451165e-08,-2.3600205167895183e-06,6.702536836655781e-08,0.009668668732047081,-0.1311987191438675,0.00018729869043454528,0.004065299406647682,6.656784535152838e-06,1.4828446026626807e-08,1.7978567484533414e-05,3.300005175788101e-07,5.1947154133813456e-08,-0.06711119413375854,0.003839795244857669,1.1726243798193536e-07,1.290010764876115e-08,0.13242769241333008,6.851994839962572e-06,2.526743969610834e-07,0.0001968186115846038,-3.9905952320395954e-08,0.06747862696647644,-0.13286016881465912,0.020631548017263412,8.367860573343933e-07,2.4217639005286173e-10,-9.72900161286816e-05,0.00033159961458295584,-0.2562108337879181,-0.0029542786069214344,0.000295169505989179,0.010957240127027035,3.402166726118594e-08,9.958201871995698e-07,0.031251996755599976,1.8903654108726187e-06,0.036487188190221786,-0.03869654983282089,-4.905771788799029e-07,5.190877345739864e-07,1.0139469850400928e-06,0.11379345506429672,1.1692827683873475e-06,0.0013892559800297022,-7.206770646916993e-07,-6.851414724451388e-08,-0.00011663430632324889,0.00011013873154297471,0.015790648758411407,-4.0887002228373603e-08,-5.3206549637252465e-06,0.07667019963264465,0.00014162638399284333,-0.03170384094119072,0.002467779442667961,-6.592330237253918e-08,-2.3570352780666326e-08,5.526545265865934e-08,-0.13569369912147522,5.1193513428415827e-08,-0.038509123027324677,2.818655502778711e-06,1.331217873712376e-07,2.0719351567777267e-08,0.04356323555111885,-0.0035058490466326475,-0.0017045721178874373,-3.58951950829578e-07,0.004214300308376551,-3.724614725797437e-05,-4.294557584216818e-05,4.258479293639539e-06,-1.314923565587378e-07,-5.252876462691347e-07,-0.02439826726913452,-0.0034153005108237267,9.312453244092467e-07,0.17853891849517822,-0.07852109521627426,0.025938954204320908,0.037752095609903336,0.0789593979716301,0.2086617350578308,-2.95794535531968e-07,6.596099865419092e-06,0.05529797077178955,8.007143333088607e-05,-8.180331860785373e-07,-0.038904521614313126,9.12616087589413e-06,-8.206951633837889e-07,0.0004207653983030468,-2.4768808088992955e-06,0.1298576295375824,4.855000668158027e-08,0.0001340136514045298,7.88943434599787e-05,-0.1772531270980835,2.1354676249529803e-08,1.0269651085081932e-07,0.0001531429443275556,0.06659574061632156,-4.653694304579403e-06,2.7100288207293488e-05,0.016855569556355476,-2.7978808248008136e-07,-1.5334389757981626e-08,6.075997134757927e-06,-2.6826555199477298e-08,-4.1356088331667706e-08,0.07411875575780869,6.013925712977652e-08,0.023046500980854034,-1.7135755570052424e-06,9.044367288879585e-06,4.500173389487827e-08,-6.115728410804877e-06,-0.0029580420814454556,-1.0903315796895185e-06,9.715380144825758e-08,1.7892973858124606e-07,-0.06039854511618614,1.030605631058279e-06,0.004574734717607498,4.580161672151917e-08,-5.26750341123261e-08,-0.06428129971027374,-2.6815855562745128e-06,-1.913606183734373e-06,0.1489190012216568,0.00016805768245831132,0.06720899045467377,-0.009432056918740273,0.006276959553360939,-3.2904881663853303e-06,-0.0002005367714446038,-1.0781311630125856e-06,0.04371136426925659,-0.04065951704978943,-0.0747775137424469,-1.8767960909826797e-06,3.748926928892615e-07,-6.106545669126717e-08,0.00482957623898983,-2.6167120026343582e-08,-0.012023656629025936,1.2532042319435277e-06,5.070774477644591e-06,-0.0027050042990595102,9.336802975212777e-08,-0.003005513222888112,-0.07870935648679733,0.008878619410097599,0.030614694580435753,0.008873085491359234,-5.660206170432502e-07,1.528408830608896e-07,0.10651608556509018,-1.0125562539542443e-06,-0.025135667994618416,-0.0027005679439753294,-9.810479241423309e-05,-5.360513387131505e-05,-0.06214269623160362,-4.3643638036883203e-07,0.001472560572437942,3.224627391773538e-07,-4.372585317469202e-05,1.8559251357963547e-10,-8.457126909888757e-07,-4.726806324129029e-08,-5.154821280939359e-08,0.015199678018689156,-2.6111010811291635e-06,-7.085671995810117e-07,2.5161286885122536e-06,0.015289179049432278,-0.0034941283520311117,0.09092269837856293,2.7476949071569834e-06,-0.003445973386988044,0.09742871671915054,0.0824325904250145,7.520239250879968e-06,-0.043120987713336945,-1.3437201005217503e-06,-0.0022814006078988314,3.086991853251675e-07,6.826363460277207e-06,5.8561397509038216e-08,1.1111001896324524e-07,-4.890311799954361e-08,1.0107147545568296e-06,-0.09990011900663376,-1.1491576970001915e-06,-0.055258963257074356,-1.6954779766820138e-06,-3.5722208849620074e-05,-3.772995782469479e-08,1.6579936072957935e-06,-2.2134156552056083e-06,0.06854414939880371,7.66916127759032e-05,-1.698653477433254e-06,1.541465098853223e-05,4.014971182186855e-07,-0.012694017961621284,-5.060131869072393e-08,8.164915925590321e-06,-0.1306525319814682,0.00017153142835013568,-1.7241256500710733e-05,3.3283740208389645e-07,0.00609519612044096,-1.0765792701761256e-09,3.4740098726615543e-06,-0.19440199434757233,0.003358348272740841,8.528760986337147e-08,1.8103450827311462e-07,4.781046663993038e-05,3.7408747175504686e-06,-0.07058519124984741,-5.504769546860189e-07,-0.08826281130313873,-0.007465548813343048,0.055198103189468384,6.380247441484244e-07,-0.1501711905002594,1.4156681160670814e-08,-3.666909265120921e-08,-0.1513366550207138,0.0010717910481616855,-0.044419143348932266,-1.7917471950568142e-06,0.05999479815363884,-4.435428735405367e-08,2.247798192911432e-06,-0.04451601952314377,0.21117298305034637,1.4648145452156314e-06,-1.8653117876965553e-06,-1.149875060946215e-06,-2.584709690722775e-08,0.05265364050865173,0.128703773021698,0.00020121425040997565,-0.11826924234628677,-0.048446305096149445,2.8469688913901336e-05},{0.000646391708869487,1.3023370115661237e-07,2.3376589552981386e-08,5.678618908433464e-09,7.481143256882206e-05,-0.01223477628082037,-2.566710577411868e-08,1.4163126706989715e-06,-3.4789621849995456e-08,0.044336214661598206,0.002156031783670187,0.00010798966832226142,0.023404905572533607,-5.8002664445666596e-05,-1.9706668297203578e-08,2.4471869437547866e-06,-5.021979063712934e-07,-3.104689838551167e-08,-0.011180507950484753,0.013231678865849972,-7.136702784293902e-09,-1.7573589161656855e-07,0.016010707244277,-3.6805613490287215e-06,-1.0996811283803254e-07,-2.5567862394382246e-05,2.5135355130601056e-08,-0.012799923308193684,-0.013816602528095245,0.019595429301261902,-3.905276173554739e-07,-6.244795236476364e-10,-9.775019134394825e-05,-2.976074756588787e-05,0.036795515567064285,0.024496853351593018,-0.0010027351090684533,0.011800483800470829,4.7493224997197103e-07,-8.93926880962681e-07,0.0005522783030755818,2.5062565782718593e-06,0.008437316864728928,0.017259780317544937,-3.3060530313377967e-07,-3.6119760693509306e-07,4.357957095635356e-06,-0.023357300087809563,-1.5994187378964853e-06,0.0353967621922493,3.079370287650818e-07,-2.7424311710433358e-09,4.989888475392945e-05,-7.336298585869372e-05,-0.03297728672623634,6.12833801483248e-08,2.637419356688042e-06,-0.08420377969741821,-4.550794983515516e-05,0.011206726543605328,-0.01818148046731949,5.619591902927823e-08,2.0583103221838428e-08,-1.3994059600008768e-07,-0.09645476937294006,-1.891632450679026e-08,-0.032307762652635574,-3.284185368102044e-06,-9.783523182704812e-07,-9.346672769083852e-09,0.014234930276870728,-0.04358988255262375,-0.01478889025747776,-1.031506485560385e-06,0.03906369209289551,1.991359567909967e-05,-9.381312702316791e-05,-1.6057905440902687e-06,5.541723169244506e-08,2.5290503913311113e-07,0.01903192326426506,0.010142137296497822,-1.830733822316688e-06,-0.1216428205370903,-0.027705945074558258,0.03188835829496384,-0.05304967239499092,0.02322235144674778,-0.09221845865249634,-8.46512193675153e-07,4.608002655004384e-06,-0.06883274018764496,2.840338129317388e-05,8.318410209540161e-07,0.0002703288628254086,-1.4243849363992922e-05,6.543655217683408e-07,9.58081436692737e-05,7.464415148206172e-07,0.03856634348630905,4.4705924295840305e-08,-0.000589233182836324,-9.2756308731623e-05,-0.04723786562681198,3.3840269253460065e-08,2.2370061287801946e-06,0.00010824837227119133,-0.007972734048962593,-1.0129930160474032e-05,5.612003860733239e-06,-0.03142087161540985,1.3937463450020005e-07,-3.0543159112994545e-08,-5.610862444882514e-06,1.409854348821682e-07,-7.964161596873964e-08,-0.06512507051229477,