#include "network_evaluate.h"

static const int structure [3][2] = {{12, 256},{256, 256},{256, 2}};
static float output_0[256];
static float output_1[256];
static float output_2[2];
static const float mlp_0_weight[12][256] = {{-0.026641162112355232,-0.06503984332084656,-0.005304964259266853,0.39777305722236633,0.18326684832572937,-0.019602254033088684,0.07803745567798615,-0.238931342959404,0.11921614408493042,0.06717737764120102,0.12275508046150208,0.015257452614605427,-0.04888786002993584,-0.06240992993116379,0.0867777094244957,0.055370427668094635,-0.13685953617095947,-0.07605136930942535,-0.09223663061857224,0.2285429686307907,-0.15936101973056793,-0.08228199183940887,-0.0397392138838768,0.01954563334584236,-0.007911540567874908,-0.04630112648010254,0.18340589106082916,0.03109445609152317,-0.11780447512865067,0.11622294038534164,-0.04826778918504715,-0.18325863778591156,-0.04295245185494423,-0.12100059539079666,-0.06660386174917221,-0.1683562844991684,0.10428118705749512,0.08078653365373611,-0.29630351066589355,0.21963439881801605,0.2514362633228302,0.01088431105017662,-0.18448863923549652,0.11158309131860733,0.01614157110452652,-0.0996546521782875,0.02836824394762516,0.21984225511550903,0.9991352558135986,-0.05804222449660301,-0.1086985394358635,0.1234121173620224,0.3989507257938385,-0.14630600810050964,-0.4192062020301819,-0.11467978358268738,-0.5307437777519226,0.006214737426489592,-0.09383320063352585,-0.027777455747127533,-0.12030044198036194,0.002093252958729863,0.19699518382549286,-0.2043166607618332,-0.14218613505363464,0.00044307863572612405,0.11706032603979111,-0.11993367969989777,0.21181677281856537,0.10630276054143906,-0.080744169652462,0.050946373492479324,-0.21667857468128204,-0.10517781227827072,0.0519711971282959,-0.006650637835264206,-0.054810602217912674,-0.14684131741523743,-0.10181602090597153,-0.12873336672782898,-0.098129041492939,0.02907388098537922,-0.13048894703388214,-0.06843453645706177,-0.09356817603111267,0.041342590004205704,-0.14211781322956085,0.17748506367206573,0.01927797868847847,0.08467920869588852,-0.20531262457370758,-0.0670701339840889,-0.16338962316513062,-0.19355233013629913,0.17464256286621094,-0.9710041284561157,-0.21030505001544952,-0.024705126881599426,0.10887689143419266,-0.28210392594337463,-0.19654427468776703,0.19205494225025177,-0.18108706176280975,0.17404557764530182,0.021969618275761604,-0.09171272069215775,0.07108872383832932,-0.00823542196303606,-0.301724910736084,-0.007191140670329332,0.0006920131854712963,0.1439950317144394,0.09732533991336823,0.08928918838500977,0.10685429722070694,-0.08996150642633438,0.18425482511520386,0.09232279658317566,0.07822737842798233,-0.023825213313102722,0.24139632284641266,-0.11038343608379364,-0.5336165428161621,0.06280070543289185,-0.21075278520584106,0.18214823305606842,-0.00329241412691772,0.31798306107521057,0.050304170697927475,0.06825095415115356,0.22034624218940735,0.2457946538925171,-0.0774555504322052,0.044377390295267105,0.1204468235373497,0.06548448652029037,0.08190107345581055,0.1122635006904602,0.11619682610034943,0.034594785422086716,-0.17957043647766113,-0.3742748200893402,-0.007962974719703197,-0.12294041365385056,-0.05222107470035553,0.026990430429577827,0.16586536169052124,-0.02026691846549511,-0.18585310876369476,0.02235843427479267,0.03209144249558449,-0.01591929979622364,0.07714658975601196,-0.3388523757457733,-0.23600120842456818,-0.22025302052497864,-0.015411056578159332,0.09711427241563797,-0.052688177675008774,-0.06538815051317215,-0.20659139752388,0.026352735236287117,-0.16705207526683807,-0.0477367527782917,-0.22654330730438232,-0.018014341592788696,0.4503925144672394,-0.04183531552553177,0.037020426243543625,0.32611170411109924,0.13034899532794952,0.07904122769832611,0.12134939432144165,0.15900826454162598,0.01874580606818199,0.013144205324351788,-0.29543012380599976,0.026800483465194702,0.1616298407316208,0.06839856505393982,0.30496329069137573,0.26022306084632874,-0.14146371185779572,-0.0805947333574295,-0.2058515101671219,0.1521000862121582,0.16170458495616913,-0.15572868287563324,0.022129934281110764,-0.06697525829076767,-0.061044562608003616,0.061586540192365646,0.19188378751277924,0.015524649061262608,0.10518494993448257,0.28909212350845337,0.18768595159053802,-0.18245749175548553,-0.08296959847211838,0.006740421522408724,-0.005325651727616787,0.05927790328860283,0.01368353795260191,-0.02505509927868843,0.056935667991638184,0.1727827936410904,0.1249067559838295,-0.00010656712402123958,0.07626482099294662,0.1913408488035202,-0.2088717520236969,-0.08241356164216995,-0.11556500941514969,-0.015421988442540169,0.008738185279071331,0.08206356316804886,-0.03710678219795227,-0.3018014430999756,-0.13520176708698273,-0.022411217913031578,0.014717957004904747,0.1039419025182724,-0.061112526804208755,-0.011296289972960949,-0.013506520539522171,-0.13340991735458374,0.13214111328125,0.19202479720115662,0.0609842985868454,0.2977299988269806,-0.07224671542644501,-0.40077465772628784,-0.1564868688583374,-0.20499329268932343,-0.07065904140472412,0.17524930834770203,0.25125783681869507,-0.09917942434549332,0.0427810475230217,-0.032624129205942154,-0.13879099488258362,0.05351719260215759,0.09718446433544159,-0.04448270797729492,0.11107923835515976,-0.16240575909614563,0.140341117978096,0.06255479902029037,0.01716952584683895,-0.3097294569015503,0.20462021231651306,0.24287304282188416,0.28734707832336426,0.46738436818122864,0.2772917151451111,-0.2238726168870926},{0.5041394829750061,-0.3072628080844879,-0.0938444659113884,0.0380074679851532,0.6360408663749695,0.08427263051271439,0.3779526650905609,0.17168213427066803,-0.05111100524663925,0.00812725443392992,0.42492637038230896,0.04146338626742363,-0.36930781602859497,-0.33444610238075256,0.031405430287122726,0.056561537086963654,-0.21264992654323578,0.9023030996322632,-0.3776782751083374,-0.15577276051044464,-0.2052672654390335,-0.3549911677837372,0.12364464998245239,-0.13001255691051483,-0.7166420221328735,-0.2607273459434509,-0.04056740552186966,0.02759574167430401,-0.42160406708717346,0.29829829931259155,0.3228885531425476,0.4175710082054138,0.5802988409996033,-0.03889079391956329,0.4466286301612854,-0.19365715980529785,-0.10163112729787827,-0.03903624415397644,0.21027816832065582,-0.006960033439099789,0.34109795093536377,-0.4007418751716614,-0.02364816516637802,-0.12237515300512314,0.06130417808890343,0.2267802506685257,-0.2634395956993103,-0.2565535604953766,-0.575255274772644,-0.7430078983306885,0.6109650135040283,-0.3352622389793396,0.18891523778438568,-0.14830675721168518,0.8955766558647156,0.5568169355392456,0.32247206568717957,-0.13044893741607666,0.40619808435440063,-0.004946563858538866,-0.5036605000495911,0.08634911477565765,0.5884093642234802,-0.27055707573890686,0.3291858434677124,0.03904544562101364,0.046535786241292953,0.3467138409614563,-0.1614447981119156,0.24501155316829681,-0.4385758340358734,0.2291184663772583,0.11037314683198929,0.22607038915157318,0.1548333764076233,-0.2887957990169525,0.10129982233047485,0.5469806790351868,0.1158849373459816,0.12772512435913086,-0.23450498282909393,0.085645392537117,0.5173181891441345,-0.7946495413780212,0.21468070149421692,0.11556647717952728,0.12131933867931366,0.4375087022781372,-0.1826343536376953,0.1820944994688034,-0.022971048951148987,-0.2563221752643585,0.2086583822965622,0.3650827705860138,0.2664719521999359,-0.2635684311389923,-0.21789370477199554,0.22877554595470428,0.1454915851354599,-0.013757292181253433,0.0027938298881053925,-0.015713736414909363,-0.3507293164730072,0.2034159153699875,0.6456669569015503,0.3562721908092499,0.4180881679058075,-0.40781763195991516,0.12567494809627533,-0.08534921705722809,-0.29625990986824036,-0.7841917872428894,-0.2326800674200058,0.048317957669496536,-0.31992775201797485,0.2540171146392822,-0.21902655065059662,0.3217860758304596,-0.022081222385168076,0.24512983858585358,-0.24528972804546356,0.4229319095611572,0.10192804783582687,0.5675003528594971,0.19945044815540314,0.13672670722007751,-0.2757009267807007,-0.44015341997146606,-0.3326023519039154,0.17732957005500793,0.32481926679611206,-0.33644887804985046,-0.1854238659143448,0.349595308303833,-0.23500026762485504,-0.04185532033443451,-0.35971662402153015,0.08316207677125931,-0.15156862139701843,0.05496463552117348,0.22785697877407074,-0.10097117722034454,0.5788193345069885,-0.28784576058387756,0.6238231658935547,-0.292577862739563,0.14130733907222748,0.15790732204914093,0.05665379762649536,0.3562840521335602,-0.0808277577161789,-0.9743571877479553,0.1775950938463211,0.635400652885437,0.4846934676170349,0.29675108194351196,0.17781825363636017,0.11343685537576675,-0.004443407990038395,-0.3508334159851074,-0.3498792350292206,-0.2992173731327057,-0.05294886976480484,0.42878326773643494,0.22234800457954407,-0.33154019713401794,-0.43410617113113403,0.5681726932525635,0.04119402915239334,0.24918797612190247,-0.3178572654724121,-0.1562194526195526,-0.4160507321357727,0.19680941104888916,0.08961440622806549,-0.042008064687252045,0.4406440556049347,-0.4269160330295563,0.04748576134443283,-0.3905179798603058,0.5950813889503479,0.2482064664363861,0.19022440910339355,0.23118525743484497,0.1456776261329651,-0.3427616059780121,0.5551562309265137,0.3751232922077179,-0.23675774037837982,0.13948792219161987,-0.2422790229320526,0.14886273443698883,-0.504933774471283,0.03665696084499359,-0.13080483675003052,-0.08604159951210022,-0.11711727827787399,0.2846046984195709,-0.049345869570970535,0.01382472924888134,-0.018963295966386795,-0.09977724403142929,0.36626318097114563,0.23412279784679413,0.3739270865917206,0.0915914997458458,0.508418619632721,0.11750860512256622,0.006490946281701326,0.1290706992149353,0.290115624666214,0.316520094871521,-0.4452936053276062,-0.30150413513183594,0.05941799655556679,0.11816999316215515,-0.5926862955093384,-0.090036541223526,-0.10218089073896408,-0.7695971131324768,0.4883202612400055,-0.3256491422653198,0.030984533950686455,0.05866483598947525,-0.0363474041223526,0.3075792193412781,-0.40277618169784546,-0.5290241241455078,0.12254327535629272,0.6113136410713196,0.3427610993385315,0.3876657783985138,0.44127190113067627,0.2979934513568878,-0.700951099395752,-0.3567371964454651,-0.1302434802055359,0.19298720359802246,0.05858806520700455,0.055454038083553314,-0.16405588388442993,-0.20134739577770233,-0.3917425572872162,-0.3269329071044922,-0.3757382929325104,-0.3638855218887329,-0.4541454613208771,0.41306430101394653,0.10374222695827484,0.3260557949542999,0.04339605197310448,-0.22868458926677704,-0.5278288722038269,-0.17428924143314362,-0.302868127822876,0.3749098479747772},{-0.21066327393054962,0.33724740147590637,0.2351984828710556,0.2887483537197113,-0.1218479722738266,0.15074414014816284,-0.29228976368904114,0.023339679464697838,-0.3201436698436737,-0.31342756748199463,-0.14946779608726501,-0.02155371755361557,-0.07582523673772812,0.3488921523094177,0.1419745683670044,0.08704115450382233,0.4233998954296112,-0.2656190097332001,0.309040904045105,-0.09599445015192032,-0.23898945748806,0.036480095237493515,0.18655700981616974,-0.2546064555644989,-0.45079705119132996,-0.03249138593673706,0.13637468218803406,-0.146384134888649,-0.08148238807916641,-0.42800241708755493,0.3355558216571808,-0.19873830676078796,0.5096704959869385,-0.3311847746372223,-0.4605496823787689,-0.22917219996452332,0.1653135120868683,0.1564570516347885,0.3509453535079956,-0.49865931272506714,-0.05562909319996834,0.23737399280071259,-0.26694703102111816,0.14894375205039978,0.06449054926633835,0.21595904231071472,0.33973026275634766,-0.4048141837120056,-0.4652448892593384,0.2149267941713333,0.49968981742858887,0.16546019911766052,-0.49046558141708374,-0.1071072593331337,-0.10049015283584595,0.09045565873384476,0.5482573509216309,0.3123645484447479,-0.2757396697998047,-0.17571797966957092,0.4934885799884796,-0.3770470917224884,-0.5379093289375305,-0.00449470104649663,0.6140981316566467,-0.12813453376293182,0.17788173258304596,0.40447038412094116,0.002493988024070859,0.015555490739643574,0.361202597618103,0.2143496572971344,0.1506618708372116,0.17506279051303864,-0.4159082770347595,-0.38256731629371643,-0.2032640427350998,-0.3792043924331665,-0.12149018049240112,0.4657457768917084,-0.015735747292637825,-0.4085754454135895,-0.2564391493797302,0.6437309980392456,-0.31872308254241943,0.09078062325716019,0.2792968451976776,-0.4397300183773041,-0.3663262128829956,-0.3161538243293762,-0.2613520622253418,-0.017926841974258423,0.3369770348072052,0.29506200551986694,0.04628163203597069,-0.271626740694046,-0.06927136331796646,-0.13145385682582855,-0.2935163676738739,-0.022278500720858574,0.3675704896450043,-0.4618323743343353,0.4728093445301056,-0.28212758898735046,-0.4112052321434021,0.5309028625488281,-0.4244470000267029,-0.20681554079055786,0.14922918379306793,-0.13470032811164856,0.24188371002674103,-0.07002578675746918,0.17856772243976593,0.08259402215480804,0.28507378697395325,-0.160154789686203,0.17653650045394897,-0.019635356962680817,0.3099709153175354,-0.3010815382003784,0.0690702274441719,0.40677347779273987,0.00902325939387083,0.23938754200935364,-0.1664317101240158,-0.5189484357833862,-0.34685149788856506,-0.06145288422703743,0.3639328181743622,0.1669415384531021,-0.24670831859111786,-0.37594422698020935,0.017371440306305885,-0.38840240240097046,0.18758738040924072,-0.17438122630119324,-0.33344903588294983,0.1944349706172943,-0.5144392848014832,0.08696255832910538,-0.18198129534721375,0.16087332367897034,0.017865657806396484,0.06100034341216087,0.2015661895275116,0.4289490282535553,-0.09958836436271667,-0.23816794157028198,-0.12177401036024094,-0.386741578578949,0.3903782367706299,-0.14512842893600464,0.20333124697208405,-0.22161059081554413,0.020930219441652298,-0.2080119550228119,-0.35348600149154663,-0.411598801612854,0.010965936817228794,0.5438617467880249,0.4720061719417572,0.1235630065202713,0.3789861500263214,0.259926974773407,0.3831349313259125,0.2707730829715729,-0.35651206970214844,-0.05503366142511368,-0.33304718136787415,-0.009223002940416336,-0.1082034632563591,-0.2731555998325348,-0.43555977940559387,0.017798202112317085,-0.2928054928779602,-0.006288956385105848,0.11242701858282089,0.3538685441017151,0.11755223572254181,-0.20906196534633636,0.18718406558036804,0.2227698713541031,-0.2715921700000763,-0.039900120347738266,-0.09747987985610962,-0.5366833806037903,-0.15451499819755554,-0.022528408095240593,0.2061406821012497,-0.1073816642165184,-0.20973625779151917,-0.45202532410621643,-0.05281344801187515,0.28586700558662415,-0.4543980658054352,0.06903603672981262,0.07744836807250977,0.15726430714130402,-0.1187882050871849,-0.03586249426007271,0.07300648093223572,0.2142373025417328,-0.09359506517648697,-0.148753821849823,0.07442177087068558,-0.5519311428070068,-0.1914048194885254,-0.21271072328090668,0.1697690784931183,0.11313603818416595,-0.01706479862332344,0.4004380404949188,0.4854818880558014,0.4052519202232361,0.35331934690475464,0.3282739222049713,-0.06204105168581009,-0.23928982019424438,0.4250836968421936,0.2986612319946289,0.19553659856319427,-0.4974769651889801,0.27208828926086426,0.21214401721954346,-0.13756462931632996,0.06508862227201462,-0.400693416595459,-0.2592328190803528,-0.4002467691898346,-0.5860662460327148,-0.27251383662223816,-0.009127113036811352,0.3814772069454193,-0.21658560633659363,-0.07119006663560867,-0.33112064003944397,-0.25119367241859436,-0.3005034327507019,-0.32736217975616455,-0.44094228744506836,0.06106400862336159,-0.18316422402858734,-0.1989625096321106,-0.1637279987335205,-0.32368168234825134,0.4829888641834259,-0.4501326382160187,-0.20489749312400818,0.33697375655174255,0.31985241174697876,0.14320853352546692,0.0025177830830216408,-0.1279423087835312,0.12446873635053635,-0.0194050632417202,-0.13580945134162903},{-0.03923660144209862,0.012918123044073582,-0.15271377563476562,0.1911994218826294,0.15384143590927124,-0.04364825412631035,-0.586286723613739,-0.3727221190929413,-0.31939786672592163,0.1059705913066864,-0.49221816658973694,0.043494999408721924,-0.431607186794281,0.43700844049453735,0.21163178980350494,0.1788610816001892,-0.18640899658203125,0.4343031644821167,-0.5025667548179626,0.33310505747795105,-0.261233925819397,0.5738038420677185,-0.2893308997154236,0.485427588224411,0.5481581687927246,0.47786155343055725,-0.281627357006073,0.08995041996240616,-0.2324036955833435,-0.0476999469101429,0.16843967139720917,0.0950237512588501,-0.4148150086402893,-0.24390412867069244,0.11922401189804077,-0.28733542561531067,0.38491418957710266,0.09710345417261124,0.19249381124973297,0.25932279229164124,0.1345745474100113,0.31578993797302246,-0.013790431432425976,0.41902822256088257,-0.05947212502360344,0.46731147170066833,0.1929372102022171,0.4229224622249603,-0.04587435722351074,-0.01310622226446867,-0.38233742117881775,0.3864220380783081,0.8013429045677185,0.28068816661834717,0.44807565212249756,-0.02146662399172783,2.0667967796325684,0.3018224239349365,0.10642704367637634,0.12512347102165222,0.26886457204818726,-0.5295724868774414,0.12129294872283936,0.13719850778579712,-0.4416653513908386,-0.1243588775396347,0.10536756366491318,-0.23753534257411957,-0.24827982485294342,0.26294371485710144,0.05980828404426575,-0.43124473094940186,-0.5988624095916748,-0.04833415895700455,-0.20856495201587677,0.14819541573524475,0.2362118363380432,0.14390894770622253,-0.2868063449859619,-0.007464178372174501,-0.42582157254219055,-0.5125085711479187,0.2452298402786255,-0.29428818821907043,0.1965360939502716,-0.08920974284410477,0.1370055228471756,0.6627936363220215,-0.022438110783696175,0.39092984795570374,-0.08366794139146805,-0.4105525016784668,-0.3865985870361328,-0.22967109084129333,0.31895139813423157,-0.15868544578552246,-0.19401198625564575,-0.6066234111785889,0.14651763439178467,-0.49836650490760803,-0.2626059949398041,0.19739052653312683,-0.15888674557209015,0.40751025080680847,0.2503182590007782,0.45014533400535583,-0.17579925060272217,-0.41737642884254456,0.556406557559967,0.07943300157785416,0.39643949270248413,-0.1256067007780075,0.41357481479644775,0.46316686272621155,0.20843355357646942,0.1681283563375473,-0.1771320104598999,0.3720841705799103,0.3509208559989929,0.20986351370811462,-0.29473376274108887,-0.3633916974067688,-0.24014820158481598,-0.8179811239242554,0.2364070862531662,0.16945968568325043,-0.34338799118995667,0.3470314145088196,-0.15768428146839142,-0.3918909430503845,-0.9514212012290955,0.26225557923316956,-0.12393321096897125,0.26223570108413696,-0.29924118518829346,-0.11090007424354553,0.18420250713825226,0.04750242829322815,0.12435547262430191,-0.5133388638496399,1.2143093044869602e-05,1.0271896123886108,-0.30077269673347473,-0.27272966504096985,-0.09166961908340454,0.12143158167600632,-0.4705639183521271,0.3535744845867157,0.06040234863758087,-0.2187013477087021,-0.13779282569885254,0.01630466617643833,0.15821577608585358,0.41891130805015564,-0.21425068378448486,0.06192987412214279,-0.02377154678106308,0.01781819388270378,-0.49743953347206116,-0.05378276854753494,-0.6127147078514099,0.3477964699268341,-0.43249934911727905,0.09527832269668579,0.08234318345785141,0.26020005345344543,0.6079594492912292,0.4970760941505432,0.4649718403816223,0.6948584318161011,-0.006854749284684658,0.24726887047290802,-0.004658204037696123,0.4598073661327362,-0.4084416329860687,-0.10423504561185837,-0.6891602873802185,0.21821092069149017,0.37236881256103516,0.0243604127317667,-1.1886961460113525,0.47034990787506104,0.2177940160036087,-0.446694016456604,0.24347423017024994,0.467875599861145,0.1967480480670929,-0.19653400778770447,0.2525554597377777,0.7348684072494507,0.47966468334198,-0.23395748436450958,0.3393007516860962,-0.1529349684715271,-0.6730834245681763,0.166713684797287,0.2617301940917969,0.5247843861579895,-0.3689526915550232,0.0015650785062462091,-0.06070410832762718,-0.1337350606918335,-0.07983791083097458,-0.5281373262405396,-0.11529448628425598,0.17706702649593353,0.09141159802675247,0.0193406380712986,-0.18284094333648682,-0.35627803206443787,0.27140235900878906,-0.347777396440506,-0.342972069978714,0.31103649735450745,0.18184523284435272,0.1738482117652893,-0.31164664030075073,-0.22408539056777954,-0.2623346149921417,0.2652566134929657,-0.4868934154510498,-0.3220762610435486,-0.23885522782802582,-0.007312658708542585,0.5395320057868958,0.3420201539993286,0.10508792847394943,0.13537397980690002,-0.43559643626213074,-0.3111613392829895,-0.32618334889411926,-0.6883082985877991,0.5235733985900879,0.23146922886371613,0.011106922291219234,0.18138021230697632,-1.450247883796692,0.22673963010311127,0.2455500066280365,-0.15660761296749115,-0.40883365273475647,0.3009110689163208,0.30690091848373413,0.05296853557229042,0.04658281430602074,-0.901727020740509,-0.2723853588104248,0.4692928194999695,0.1656336933374405,-0.7667304277420044,0.32318317890167236,0.3347012400627136,-0.9640783667564392,0.30056166648864746,-0.2947201728820801,0.42718803882598877},{-0.007736561354249716,0.13654981553554535,-0.011343665421009064,0.004526867996901274,-0.023786257952451706,0.012912161648273468,0.08972151577472687,0.09999335557222366,0.04263482242822647,-0.010262252762913704,0.07877428084611893,0.024303270503878593,0.040127042680978775,-0.1047864481806755,0.018893985077738762,0.015945743769407272,0.0031809380743652582,0.10750338435173035,-0.06987808644771576,-0.05526275187730789,0.039426375180482864,-0.06792092323303223,0.024584954604506493,-0.044391945004463196,-0.07511769980192184,-0.08387666940689087,0.018121352419257164,-0.0215170718729496,0.15101264417171478,0.030872656032443047,-0.019154639914631844,0.017946844920516014,0.048535868525505066,0.01403287798166275,-0.001641109585762024,0.03372115641832352,-0.029727861285209656,0.00833130069077015,-0.08668209612369537,-0.03413816913962364,0.007933083921670914,-0.010372404009103775,-0.001081216847524047,-0.11223963648080826,-0.012904915027320385,0.021332498639822006,0.006647300906479359,0.004438614007085562,0.052234914153814316,0.03188652917742729,0.01906099170446396,-0.038419242948293686,-0.1093316301703453,-0.04634908214211464,0.057529427111148834,0.10172298550605774,0.07556385546922684,-0.08763289451599121,0.0041675446555018425,-0.012280965223908424,-0.10252469778060913,0.11834842711687088,0.045844610780477524,-0.049445319920778275,0.02385714277625084,-0.011959081515669823,0.0004086641129106283,0.0299344714730978,0.05726027488708496,-0.018404562026262283,-0.015502716414630413,0.06773222237825394,0.11882785707712173,-0.004656507633626461,0.0018057579873129725,0.002856081584468484,0.00025676272343844175,0.031703174114227295,0.04888324812054634,-0.0471097007393837,0.03227919340133667,0.1822894960641861,0.027356967329978943,-0.1391221135854721,0.01711881533265114,0.03981925919651985,0.006178331095725298,-0.0054579912684857845,-0.006405853200703859,-0.029664956033229828,0.004737167153507471,0.28684815764427185,0.1451161801815033,-0.02942291460931301,-0.057999834418296814,-0.05061928555369377,0.04602718725800514,-0.061740316450595856,-0.027558008208870888,0.058189138770103455,-0.012631608173251152,-0.03634209930896759,-0.053113874047994614,-0.13773617148399353,0.19408145546913147,0.024538446217775345,0.01751117594540119,0.0628068819642067,-0.057858869433403015,-0.04544069990515709,0.028322553262114525,-0.049670565873384476,-0.11943890899419785,0.08250141888856888,-0.03367914259433746,0.01489765103906393,0.0007452702848240733,0.06891355663537979,-0.004299230873584747,-0.011197887361049652,0.03166408836841583,0.009845715016126633,0.009981355629861355,0.06459958106279373,-0.029412297531962395,-0.005679294466972351,0.0627434104681015,-0.06717155128717422,0.027537263929843903,0.05448807403445244,0.06699084490537643,-0.014851966872811317,0.009364798665046692,0.024497533217072487,0.029349081218242645,-0.014659243635833263,-0.05369947850704193,0.03669372946023941,0.05929144471883774,0.054642561823129654,-0.0253321323543787,-0.011883348226547241,0.022164760157465935,0.0020095882937312126,0.02191777713596821,-0.006641301326453686,0.05770792439579964,-0.020527487620711327,-0.013787633739411831,0.031060144305229187,-0.11591958999633789,0.08282098919153214,0.01081268209964037,0.02803068794310093,0.10376764833927155,-0.028116649016737938,-0.006908923853188753,0.002290596952661872,0.0443720705807209,-0.05626388266682625,0.09324697405099869,-0.07498881965875626,-0.014779362827539444,-0.001768149551935494,-0.09387791901826859,-0.03591461479663849,-0.15976139903068542,0.07807963341474533,0.0004171125765424222,-0.10541731864213943,0.021091371774673462,-0.037338122725486755,0.023598376661539078,-0.0054269651882350445,0.004111429210752249,0.002840779023244977,0.1594909131526947,-0.09149067848920822,-0.10340041667222977,-0.035892654210329056,0.06834036856889725,-0.07682260125875473,-0.04329317435622215,0.006261621601879597,-0.056845661252737045,-0.019445711746811867,0.10333704948425293,-0.006219248287379742,-0.04056909307837486,-0.013118253089487553,-0.06653936952352524,0.10421254485845566,-0.0558679923415184,0.24606044590473175,-0.04753493517637253,-0.014778019860386848,-0.052946537733078,-0.062193408608436584,0.0381314679980278,0.026835966855287552,0.031003426760435104,0.0013162210816517472,0.027211572974920273,-0.015816425904631615,0.04068656638264656,0.040779732167720795,0.026213135570287704,-0.027251288294792175,0.021072618663311005,0.053694650530815125,-0.013961181044578552,0.028531985357403755,-0.07658304274082184,-0.1934550702571869,-0.0024382940027862787,-0.008686622604727745,-0.11511959135532379,0.0014456923818215728,0.03173547983169556,-0.21251031756401062,0.05032056197524071,0.0931781530380249,0.11184220016002655,0.05138975381851196,-0.06175543740391731,0.01251824852079153,-0.03151280805468559,-0.0497465655207634,0.13849960267543793,0.11792883276939392,0.10761778801679611,0.15288221836090088,-0.031299225986003876,-0.0354502871632576,0.025259200483560562,0.010535851120948792,-0.05908070132136345,0.00027562433388084173,0.04145576432347298,0.03494098410010338,-0.086179718375206,-0.026002608239650726,-0.0778336152434349,-0.15651653707027435,-0.021908622235059738,0.015392547473311424,0.09232238680124283,0.05144787207245827,-0.008259208872914314,0.2003062218427658,-0.05031030625104904,-0.053636129945516586,-0.046381544321775436,-0.0051786573603749275,0.015583290718495846,-0.0032413355074822903},{0.007628022227436304,0.42044320702552795,-0.018703287467360497,0.02358468621969223,-0.13422711193561554,0.034450218081474304,-0.026664022356271744,-0.0016063920920714736,0.06888417899608612,-0.014040479436516762,0.007478300016373396,0.033042989671230316,0.13525208830833435,-0.041577380150556564,0.05709393694996834,0.011689419858157635,0.04254192113876343,0.06631409376859665,-0.06968928128480911,0.022219480946660042,-0.01673775166273117,-0.003687795717269182,0.05209701880812645,0.0969158411026001,0.03547549247741699,-0.054757535457611084,0.01183398999273777,-0.04681013897061348,0.39802271127700806,0.060170289129018784,-0.04698694124817848,-0.021931760013103485,-0.05484212189912796,0.004947201814502478,-0.0006449270294979215,-0.015483693219721317,-0.02756599150598049,-0.005400696769356728,-0.2943841516971588,0.01594119891524315,0.08214496076107025,0.03455295413732529,-0.03940986096858978,-0.09377714991569519,0.004774582106620073,0.027240123599767685,0.01272191945463419,0.1785898208618164,0.02260647714138031,0.03932856023311615,-0.06534165889024734,0.0922781303524971,-0.015821926295757294,-0.04212575405836105,-0.04866699129343033,0.01904888078570366,-0.027022765949368477,0.04676122963428497,-0.0007238961406983435,-0.019983571022748947,0.0025830271188169718,0.1735970675945282,0.07520861178636551,-0.13776400685310364,-0.049971163272857666,-0.0034332266077399254,0.01993163861334324,-0.055822085589170456,0.06938812881708145,0.03498918563127518,0.14872178435325623,-0.11639668792486191,0.01345042698085308,-0.004199571907520294,-0.03215491399168968,0.07716763764619827,0.03364182263612747,0.0020097040105611086,0.04971529170870781,-0.06362535059452057,0.046938639134168625,0.29674428701400757,-0.0048375967890024185,-0.08695923537015915,0.038976650685071945,0.03498582914471626,0.019302405416965485,0.04613122344017029,0.02293814718723297,-0.06032892316579819,-0.0300347488373518,0.5761467218399048,0.0532485693693161,-0.21855822205543518,0.013400865718722343,-0.002702975645661354,-0.04541098698973656,-0.15768666565418243,-0.036348436027765274,-0.01825683005154133,-0.021788006648421288,0.02075808122754097,-0.1451706439256668,-0.2878991365432739,0.15024740993976593,0.02163965441286564,-0.0017860735533758998,0.19723723828792572,-0.12769469618797302,-0.0808856412768364,0.09697632491588593,-0.0603492297232151,-0.08286822587251663,0.20435306429862976,0.032946065068244934,0.019888414070010185,0.024867616593837738,0.12209193408489227,0.050875741988420486,-0.03820507973432541,0.0896841287612915,-0.13426139950752258,-0.005709221586585045,0.01783858612179756,-0.06182098761200905,0.0298840943723917,0.15191490948200226,0.04894200339913368,0.04722124710679054,0.05164908990263939,-0.0030496350955218077,0.15177370607852936,-0.03155861422419548,0.05050904303789139,0.027370410040020943,-0.03936733677983284,0.020812155678868294,0.03418419510126114,0.059815116226673126,0.0472249761223793,-0.05926719307899475,-0.04478481784462929,-0.016680845990777016,-0.03590497374534607,0.06606358289718628,0.0037975111044943333,0.025043051689863205,-0.019365541636943817,-0.06355661153793335,-0.051010388880968094,-0.22316928207874298,0.28747841715812683,0.05309223756194115,-0.01144007034599781,0.009022749960422516,-0.09399281442165375,-0.03577498346567154,-0.0276494063436985,0.07187801599502563,-0.1160476878285408,0.04077267646789551,-0.07289949059486389,-0.04302186891436577,-0.02255520597100258,-0.254329115152359,-0.018439972773194313,0.029937345534563065,0.08563531190156937,0.039254531264305115,0.026180393993854523,-0.002283731708303094,-0.049751993268728256,0.0875730887055397,-0.04624233394861221,-0.06258644163608551,0.005217947065830231,0.024786442518234253,-0.12855619192123413,-0.07188247889280319,-0.027646340429782867,0.05490130931138992,0.03588277846574783,-0.055462781339883804,0.012102979235351086,-0.07622084766626358,0.11070545017719269,0.10557634383440018,-0.11312927305698395,-0.06539862602949142,0.054554641246795654,0.06252134591341019,0.048337895423173904,0.07720862329006195,0.44320085644721985,-0.08375575393438339,0.08553536236286163,-0.0016012624837458134,-0.16083195805549622,0.07061319053173065,0.03354765847325325,0.033272575587034225,0.01738678477704525,0.0642547756433487,-0.05678009241819382,0.0733853355050087,0.11416750401258469,0.08671260625123978,-0.02150632254779339,0.029724353924393654,0.04244813323020935,-0.042146604508161545,-0.04288870096206665,-0.13249917328357697,-0.22756429016590118,-0.005405557341873646,0.011660351417958736,-0.1875271201133728,-0.012231673114001751,0.04139787703752518,-0.4169589877128601,-0.1003819927573204,0.1799525022506714,0.20816519856452942,0.07997661828994751,0.03700018301606178,0.04842290282249451,-0.06519768387079239,0.04357028380036354,0.20766183733940125,0.15026050806045532,0.019900908693671227,0.04599108174443245,-0.12977582216262817,-0.05248652771115303,0.10135766118764877,0.11793529242277145,-0.06994221359491348,0.015830272808670998,0.07946322113275528,0.06661804020404816,-0.12285314500331879,-0.04814818501472473,-0.030676307156682014,-0.2402147501707077,-0.05041366443037987,-0.19058866798877716,0.17335349321365356,0.03822454810142517,-0.03963320702314377,0.02529890090227127,0.009829174727201462,0.0270227137953043,-0.019372127950191498,0.027477340772747993,0.10020728409290314,-0.017643537372350693},{0.027048315852880478,0.894886314868927,-0.036333903670310974,0.13420915603637695,-0.4335870146751404,-0.023575326427817345,-0.01558475848287344,0.008546010591089725,0.07141698896884918,-0.024004872888326645,0.08456497639417648,0.014288448728621006,0.3080829679965973,-0.08099379390478134,0.07303852587938309,-0.009234543889760971,0.17668277025222778,0.07710257172584534,-0.0976950079202652,0.05273190885782242,-0.009327726438641548,-0.09741010516881943,0.06526760011911392,0.1346433162689209,-0.09523835778236389,-0.0974363386631012,0.025486379861831665,-0.0881681814789772,0.7708098292350769,0.0436839796602726,-0.059822920709848404,-0.025917530059814453,0.06526388972997665,-0.02718321606516838,-0.0852918028831482,-0.04101407527923584,-0.09884669631719589,0.0400252565741539,-0.3713856637477875,0.014000048860907555,-0.047052547335624695,-0.07058168202638626,-0.1293610781431198,-0.14834535121917725,-0.07244837284088135,-0.08162013441324234,0.015868375077843666,0.242039754986763,0.49283143877983093,0.08725272864103317,-0.02248966135084629,0.109716035425663,0.29856306314468384,-0.04295874759554863,0.01293198112398386,-0.08503355085849762,-0.18238204717636108,0.15705353021621704,0.0049379621632397175,-0.06756570190191269,0.0999513640999794,0.3092516362667084,-0.005806004162877798,-0.029239444062113762,-0.0024847830645740032,0.01894642785191536,0.0023006286937743425,-0.10584253817796707,0.15780235826969147,0.03551336005330086,0.4507429003715515,-0.2238946259021759,0.06761693209409714,-0.037332676351070404,-0.021385855972766876,0.07424167543649673,0.013215925544500351,-0.046385299414396286,0.04634470120072365,-0.1317249983549118,0.0628703311085701,0.4999009966850281,-0.061787188053131104,-0.14197266101837158,0.03940112888813019,0.05035813897848129,-0.05351698026061058,0.28752514719963074,0.014966198243200779,-0.09077098220586777,-0.07682646065950394,1.0649412870407104,0.10773570090532303,-0.3038298189640045,0.0740220695734024,-0.37650150060653687,-0.012280695140361786,-0.02901547960937023,-0.08760879933834076,-0.010376137681305408,0.04276726767420769,0.08604991436004639,-0.20998968183994293,-0.49665459990501404,0.09631626307964325,-0.10577046871185303,-0.006622764747589827,0.4109451174736023,-0.15159234404563904,0.0016330080106854439,-0.04801740497350693,-0.03607575595378876,-0.10660198330879211,0.34029722213745117,0.003209478920325637,0.010942712426185608,0.007120702415704727,0.11539848148822784,0.08943109959363937,-0.06668885797262192,0.06407937407493591,-0.16627970337867737,-0.14609570801258087,0.08015426248311996,-0.15331891179084778,0.12637053430080414,0.21383348107337952,0.09772123396396637,0.2081785649061203,0.0785621926188469,0.0567471981048584,0.19887879490852356,0.04562016576528549,0.04502269998192787,0.09741757065057755,-0.03823854401707649,0.0631800964474678,0.0425763763487339,0.10499002039432526,0.08280724287033081,-0.08050214499235153,-0.1507018506526947,0.03612980991601944,-0.012026630342006683,0.05417264625430107,0.03463882952928543,0.08490358293056488,-0.0506775863468647,-0.06322003901004791,-0.2629939913749695,-0.28387755155563354,0.6091084480285645,0.04010576009750366,0.03927505761384964,0.018946804106235504,-0.15829987823963165,-0.053848255425691605,-0.14579592645168304,0.2217046469449997,-0.1486671417951584,-0.1429615169763565,-0.0614762008190155,-0.032063547521829605,-0.12390890717506409,-0.29924315214157104,-0.160003662109375,0.08668842166662216,0.08902128040790558,0.041077595204114914,0.006216781679540873,0.010881133377552032,-0.09689109772443771,0.19984641671180725,-0.12407135963439941,0.034099776297807693,-0.014406328089535236,0.030316278338432312,-0.21112661063671112,-0.06802872568368912,-0.015040015801787376,0.1635173112154007,0.11306358128786087,-0.10800624638795853,0.14854270219802856,-0.21454820036888123,0.11751191318035126,-0.08107034116983414,-0.15501511096954346,-0.1074388325214386,0.059466227889060974,0.08295872807502747,-0.029005102813243866,0.06585726886987686,0.7734700441360474,0.016536224633455276,0.16958101093769073,-0.036923158913850784,-0.2330683022737503,0.12228706479072571,0.040178604423999786,0.04259481281042099,0.04473981261253357,0.08619575947523117,0.15407657623291016,0.00717672286555171,0.12127435207366943,0.0475962832570076,0.025149909779429436,0.08286121487617493,0.027802180498838425,-0.09149131178855896,-0.02439345046877861,-0.19749581813812256,-0.2609465718269348,-0.01793055236339569,0.050801753997802734,-0.19957637786865234,-0.043296921998262405,0.06785497814416885,-0.6615878939628601,-0.09980404376983643,0.3926953971385956,0.3974222242832184,0.08136887103319168,0.06863310188055038,0.009060701355338097,-0.05180732533335686,0.08558742702007294,0.4136066436767578,0.033156637102365494,-0.07012231647968292,0.005145892035216093,-0.35755035281181335,-0.15375399589538574,0.31607410311698914,0.18640197813510895,-0.014763809740543365,-0.01335486676543951,0.11538892984390259,0.05393614619970322,-0.1603633314371109,-0.06352084130048752,-0.06915410608053207,-0.2713789939880371,-0.0056948550045490265,-0.680919885635376,0.39420971274375916,0.046067919582128525,0.0034563904628157616,-0.08910557627677917,0.03411140665411949,0.0007473443984054029,0.13916029036045074,0.17316226661205292,0.13971483707427979,-0.21307027339935303},{0.056589264422655106,0.12485785037279129,-0.02203073538839817,-0.05657380074262619,-0.1965324878692627,-0.012997059151530266,0.05877622216939926,0.02179674804210663,0.018225982785224915,-0.008254251442849636,0.010450774803757668,-0.02171398140490055,0.1086239144206047,-0.02558487467467785,0.006772244349122047,-0.04068870469927788,0.17377260327339172,-0.1080297976732254,0.07239078730344772,0.007351202890276909,0.006581380032002926,-0.007824202999472618,0.06204334273934364,0.01645631343126297,0.040730420500040054,-0.09141816198825836,-0.04209600016474724,0.02014153078198433,0.2714000344276428,0.011547775007784367,-0.07522591948509216,0.08051014691591263,0.02138528786599636,0.038536436855793,0.1087832897901535,-0.0009493929101154208,-0.09413855522871017,-0.004135596565902233,-0.06578442454338074,-0.03928978368639946,-0.05578907951712608,-0.09543167054653168,0.08339111506938934,-0.0941588506102562,0.008222479373216629,-0.03423517569899559,-0.06921511888504028,-0.024175694212317467,-0.10572340339422226,0.010554512031376362,0.037828486412763596,0.01575738936662674,0.04162701219320297,0.0046409619972109795,0.06433922797441483,-0.10455397516489029,-0.08554049581289291,0.2678394317626953,0.0974443256855011,0.057184070348739624,0.2088465839624405,0.004832798615098,-0.06765779107809067,0.04384859278798103,0.04787400737404823,0.06194067746400833,-0.04487718269228935,0.06833256036043167,-0.04405965656042099,-0.008802555501461029,0.2714591920375824,-0.024014338850975037,-0.029901746660470963,0.03699178248643875,0.08263437449932098,-0.00875511672347784,0.015444573014974594,0.06839273124933243,0.03143796697258949,0.012265486642718315,0.04980413243174553,0.08869528770446777,0.032995834946632385,0.015120202675461769,0.060236234217882156,-0.007569057401269674,-0.021040501073002815,0.06554774194955826,0.0338626503944397,-0.041057586669921875,0.033597514033317566,0.12953832745552063,0.043287813663482666,-0.06719949841499329,-0.013133946806192398,0.12730994820594788,-0.019129257649183273,0.0960746482014656,0.03375190123915672,-0.01531611941754818,0.04134690389037132,0.045695118606090546,-0.046247389167547226,-0.15050402283668518,-0.1435132920742035,-0.15260091423988342,0.012974659912288189,0.159456267952919,0.02121923677623272,0.05052424222230911,-0.15896984934806824,-0.0995376780629158,-0.056651484221220016,-0.055259544402360916,-0.014328552410006523,-0.0007974309846758842,-0.07362193614244461,0.0016402811743319035,-0.056655582040548325,0.04957345128059387,-0.04220007732510567,0.049391940236091614,-0.023664062842726707,0.0012110075913369656,0.039380740374326706,0.08866579085588455,0.08967850357294083,0.017353516072034836,-0.024625878781080246,0.005939838942140341,0.014538224786520004,0.0265523511916399,0.050731804221868515,-0.02738834172487259,-0.054050177335739136,-0.004245920106768608,0.007456484250724316,-0.036860208958387375,-0.17899097502231598,0.12598749995231628,0.029478099197149277,0.021678246557712555,0.03678223490715027,0.00028787407791242003,0.09248783439397812,-0.011351650580763817,0.003975973464548588,0.028577368706464767,0.04161422327160835,-0.09125655144453049,-0.012318016029894352,0.16742154955863953,-0.06057552993297577,0.07726561278104782,0.05971815809607506,0.0853184387087822,0.04189487174153328,-0.038695327937603,0.09406470507383347,-0.0021845605224370956,-0.10827865451574326,-0.044481825083494186,0.06246638298034668,-0.05911380797624588,-0.09441205114126205,-0.06019236147403717,-0.023999786004424095,-0.07387512177228928,-0.108528271317482,0.06926779448986053,-0.08373018354177475,-0.022402752190828323,-0.04396168142557144,-0.06687679886817932,0.16117897629737854,0.005679138470441103,0.010375527665019035,-0.1839984506368637,-0.08947224169969559,-0.01809896156191826,-0.033048249781131744,-0.005511606112122536,0.06955388188362122,0.14737196266651154,0.05501129478216171,-0.06540501117706299,-0.1377887725830078,0.03669121488928795,-0.016823194921016693,-0.16458062827587128,0.003890248714014888,-0.3893297016620636,-0.04192996025085449,0.41750839352607727,0.05390685796737671,-0.02277316339313984,-0.008762368932366371,-0.11538682132959366,0.13063424825668335,-0.008982869796454906,-0.0189764816313982,-0.09245175868272781,0.05404822900891304,0.1693904995918274,-0.021427366882562637,-0.053584031760692596,0.007819927297532558,0.05562610179185867,-0.024174125865101814,-0.0471460185945034,0.03354319557547569,0.08764065057039261,0.019452502951025963,-0.02218804694712162,-0.04673315957188606,-0.05647137016057968,0.011894718743860722,-0.001938983448781073,0.02743910253047943,-0.4472622275352478,0.0790766105055809,0.1440042108297348,0.1273629367351532,-0.012425662949681282,0.11077050864696503,-0.009158837608993053,-0.05488990247249603,-0.031379811465740204,-0.05918757617473602,-0.11704452335834503,-0.07208939641714096,0.028378985822200775,-0.03665795177221298,0.02117011323571205,0.09791824966669083,0.000311277894070372,0.15568694472312927,0.06886861473321915,-0.06968449801206589,0.055295828729867935,0.12253967672586441,-0.05262724310159683,-0.05425696074962616,-0.10789695382118225,-0.016211384907364845,0.020546171814203262,0.06466703116893768,-0.023990601301193237,0.01929982751607895,0.007024541962891817,-0.01740676909685135,0.007026570849120617,0.0011140013812109828,-0.03849170356988907,-0.017481015995144844,0.07946135848760605},{0.011748196557164192,-0.09535858035087585,-0.05326538160443306,-0.14439263939857483,-0.06001805514097214,-0.04040994495153427,-0.1379919946193695,-0.12393393367528915,0.018097618594765663,0.005056384950876236,-0.0026863780803978443,-0.0455479621887207,-0.09808271378278732,0.1679256111383438,-0.06571415811777115,-0.09640350192785263,0.1504497081041336,-0.2579338252544403,-0.01708959974348545,-0.1269611120223999,0.15968744456768036,0.02192698046565056,0.05540439113974571,0.356612890958786,0.003767749760299921,0.04330044984817505,-0.1586165875196457,0.08130162954330444,0.016574649140238762,-0.01739485189318657,-0.15952517092227936,0.11932218819856644,0.016917342320084572,0.159165158867836,0.09568384289741516,0.10560449212789536,-0.003437064355239272,-0.11139137297868729,-0.09441684186458588,0.010869070887565613,-0.027641819790005684,-0.03189311549067497,0.14379960298538208,0.1537001132965088,0.05073550343513489,0.18387071788311005,-0.0761466771364212,0.08238457888364792,-0.3285541534423828,0.014639151282608509,0.05941031500697136,0.1951402872800827,-0.15008381009101868,0.10805876553058624,-0.10195871442556381,-0.5474823713302612,0.29269227385520935,0.74942547082901,0.10345536470413208,0.10816037654876709,0.5027891993522644,-0.41540104150772095,-0.14992913603782654,0.07281619310379028,-0.012203078716993332,0.08385723829269409,-0.16453701257705688,-0.003748079063370824,-0.11840144544839859,-0.06526505947113037,0.32348090410232544,-0.24115607142448425,0.11374173313379288,0.0703619047999382,0.08235311508178711,0.052823420614004135,0.12945865094661713,-0.05590228736400604,0.1030442863702774,0.052672043442726135,-0.032026197761297226,-0.2806571424007416,-0.00497983256354928,0.23050163686275482,0.06942689418792725,-0.09318762272596359,0.042758338153362274,0.20491205155849457,0.1185300350189209,0.020245442166924477,0.16895943880081177,-0.2837594747543335,-0.05414525792002678,-0.1848607063293457,-0.06196106597781181,0.20743165910243988,0.1158066913485527,-0.10990165919065475,0.22410039603710175,0.10794520378112793,-0.03054838813841343,-0.0897531807422638,0.030465541407465935,0.04145529866218567,-0.4740406572818756,0.06289571523666382,-0.05190153419971466,0.03907609358429909,0.09986885637044907,0.1109708771109581,-0.0595492385327816,-0.07849184423685074,0.15723638236522675,-0.05455093830823898,-0.020191006362438202,0.044373080134391785,-0.12739825248718262,0.047898128628730774,0.012278387323021889,0.13379716873168945,-0.06534010171890259,-0.04422697052359581,0.20161551237106323,-0.02448861487209797,0.19855593144893646,-0.013392760418355465,0.052765849977731705,-0.1985778510570526,-0.2987232208251953,-0.09244951605796814,-0.2019193321466446,0.08550377935171127,0.027139002457261086,-0.013976430520415306,-0.21932333707809448,0.009681190364062786,0.24246683716773987,-0.12310720235109329,-0.34013453125953674,0.029701005667448044,0.15506114065647125,0.11777313798666,-0.027463486418128014,0.062348708510398865,0.09304381161928177,-0.09032703936100006,-0.13179661333560944,0.10525716841220856,0.1416824907064438,-0.04178972542285919,0.055586013942956924,0.1258719116449356,-0.10971280932426453,0.028875131160020828,-0.06846630573272705,0.1589559018611908,0.07570460438728333,-0.0073239002376794815,-0.07953646779060364,0.057614583522081375,-0.23399867117404938,-0.010861885733902454,0.0006068968796171248,-0.10575239360332489,-0.1272314041852951,0.0668928250670433,0.022086765617132187,0.05377282202243805,-0.03993171453475952,-0.2490995079278946,-0.14944684505462646,0.04224978759884834,-0.146495059132576,0.13478709757328033,0.002500936621800065,0.06392808258533478,0.1633952260017395,-0.2203367054462433,0.019199544563889503,-0.04188663139939308,-0.04736126586794853,-0.2147940695285797,0.22488175332546234,0.13173140585422516,0.14059442281723022,0.04290582984685898,-0.21642088890075684,0.017186716198921204,-0.0032688649371266365,0.07718405872583389,0.22621792554855347,-0.8170472979545593,0.08770918101072311,0.183072030544281,-0.4416297674179077,-0.19176170229911804,-0.09672527760267258,-0.07225191593170166,0.07179828733205795,-0.031636156141757965,-0.07800719141960144,-0.14524859189987183,0.033751390874385834,0.05252176523208618,-0.09306672215461731,-0.05598900094628334,-0.02366543933749199,0.1390477865934372,-0.11290041357278824,-0.16340035200119019,0.10623297095298767,0.05659475177526474,0.011830156669020653,0.22008644044399261,-0.1054694801568985,-0.13009583950042725,-0.11421895027160645,0.12576431035995483,0.037221718579530716,-0.5090751647949219,0.08744034171104431,0.030482353642582893,-0.1281006783246994,-0.08141761273145676,0.6171287894248962,0.0455770269036293,0.010308438912034035,0.09938951581716537,-0.42209044098854065,-0.20537158846855164,-0.3076178729534149,0.17726795375347137,0.20842674374580383,0.2188282459974289,0.08029218763113022,0.09923644363880157,-0.3622381389141083,0.12168720364570618,0.024505462497472763,0.02658686973154545,0.23311999440193176,-0.006194333080202341,-0.05240441486239433,0.14266835153102875,0.03965931385755539,-0.21271133422851562,-0.03702293708920479,0.15068775415420532,0.04000875726342201,0.2708517014980316,-0.16477517783641815,-0.1053764820098877,-0.33638638257980347,-0.23323456943035126,-0.03417035937309265,0.2826439142227173},{-0.0168739166110754,-0.2564032971858978,-0.06463911384344101,-0.003555896459147334,-0.02857067622244358,-0.011991546489298344,-0.02235334739089012,-0.14978164434432983,0.06345661729574203,0.08520136028528214,0.03530867025256157,-0.05241187661886215,-0.05852489545941353,0.07356239855289459,-0.013397729955613613,-0.05377623811364174,0.18034790456295013,-0.510464608669281,0.14512251317501068,0.03853132203221321,-0.004861899185925722,-0.05137219280004501,0.11953091621398926,0.23377837240695953,0.037671931087970734,-0.009639912284910679,0.02204887568950653,0.034937407821416855,-0.07401859015226364,-0.08031679689884186,-0.20055735111236572,-0.06786836683750153,0.022381944581866264,0.06397116184234619,-0.033917054533958435,-0.0015272628515958786,-0.03293079137802124,-0.006230446044355631,-0.17694713175296783,0.018131572753190994,0.02523566223680973,-0.016444550827145576,-0.001592036453075707,0.13702280819416046,0.04222250357270241,0.0666712298989296,0.008416494354605675,0.08783594518899918,-0.1521308571100235,-0.04626961797475815,0.010094711557030678,0.20133669674396515,-0.13910867273807526,-0.035279951989650726,-0.33514565229415894,-0.5713635683059692,0.1563112437725067,0.7000094056129456,-0.06727663427591324,0.002806604141369462,0.49937716126441956,-0.3689863085746765,-0.1917155385017395,-0.03963755816221237,0.03297415375709534,0.02025684155523777,-0.030921630561351776,-0.12021452188491821,-0.03399360552430153,-0.047675151377916336,0.2494235336780548,-0.14253175258636475,-0.09369941800832748,0.03515030816197395,0.07104235142469406,-0.01305176317691803,-0.018874717876315117,-0.18978077173233032,-0.00957575161010027,-0.004306246060878038,0.04980893060564995,-0.2629552483558655,-0.16821812093257904,0.46469753980636597,-0.07239895313978195,-0.04632661119103432,-0.05501457676291466,0.01907559670507908,0.08425769954919815,-0.039370860904455185,-0.025226103141903877,-0.35765206813812256,-0.2561485767364502,-0.21373924612998962,-0.06509022414684296,0.10573787987232208,-0.015744799748063087,-0.050079792737960815,0.2552992105484009,-0.03461427241563797,0.0010546413250267506,-0.009728713892400265,0.06726071238517761,0.029451854526996613,-0.7032679319381714,0.011450454592704773,-0.08899491280317307,0.08802133798599243,-0.06876860558986664,0.1027793139219284,-0.10435334593057632,0.058940205723047256,0.14199484884738922,-0.18838822841644287,0.1134621724486351,-0.03838255628943443,0.05644504353404045,-0.014217797666788101,0.03438978269696236,-0.014808956533670425,0.10615069419145584,-0.030233189463615417,0.05510358139872551,-0.010816442780196667,-0.028744198381900787,0.033508963882923126,0.09051109105348587,0.09673857688903809,-0.3139421045780182,0.014504065737128258,-0.07659664750099182,0.1685190200805664,0.034930892288684845,-0.14212222397327423,-0.09826879948377609,-0.009533883072435856,0.3191315233707428,0.023887595161795616,-0.3295251131057739,0.09119419008493423,-0.001380156958475709,0.03430381417274475,0.04708518460392952,0.04388803616166115,0.0979028195142746,0.04943374916911125,-0.019613444805145264,-0.03603585436940193,0.015412208624184132,0.09327315539121628,0.1087404415011406,-0.00599230732768774,-0.07036689668893814,-0.22022101283073425,-0.22155702114105225,-0.030696582049131393,-0.04153822734951973,0.11988956481218338,-0.044879138469696045,0.17044579982757568,-0.13418973982334137,0.06295457482337952,0.058483343571424484,-0.1044669821858406,-0.19175736606121063,0.0565769337117672,0.22578555345535278,-0.13342632353305817,-0.1764068752527237,-0.0375717431306839,-0.0794069692492485,-0.009734238497912884,-0.08148973435163498,0.08270914852619171,0.07321596890687943,0.06341952830553055,-0.11169853806495667,-0.12342825531959534,-0.020240332931280136,0.044213004410266876,0.017960062250494957,-0.04913605377078056,0.008596009574830532,0.14469069242477417,0.039512477815151215,0.006307080388069153,-0.25791192054748535,-0.03369540348649025,0.09795045107603073,-0.11585696041584015,0.07566314190626144,-0.7615519762039185,0.19477654993534088,0.013354524970054626,-0.3260779082775116,-0.013919859193265438,0.06025473028421402,-0.22635118663311005,0.1457439810037613,-0.053928013890981674,-0.05788004398345947,0.012621741741895676,0.0433027446269989,0.08900070190429688,-0.05565040558576584,-0.07657326012849808,0.007561187259852886,0.13181671500205994,-0.019919391721487045,-0.0018093541730195284,-0.05294187366962433,0.10440820455551147,0.1642865687608719,0.208733469247818,-0.02869781292974949,-0.014034556224942207,-0.01889828033745289,-0.015712343156337738,-0.04509438946843147,-0.49860653281211853,0.1591292768716812,0.06501786410808563,-0.20443324744701385,-0.04574360325932503,0.444812148809433,-0.07593634724617004,0.00024959800066426396,0.17600764334201813,-0.4315798878669739,-0.1962355077266693,-0.25954470038414,-0.0638837069272995,0.08243735879659653,-0.02456979639828205,-0.018885353580117226,0.11723528802394867,-0.13147754967212677,0.03935203701257706,0.01933671534061432,-0.03366934135556221,0.3642299175262451,-0.04388575255870819,0.12041694670915604,0.23248758912086487,0.011550326831638813,0.1265484094619751,0.0065490491688251495,-0.024095861241221428,-0.04536474496126175,0.027907174080610275,-0.017079634591937065,0.09473847597837448,-0.17903859913349152,-0.023834921419620514,0.11863262206315994,0.09940338134765625},{0.05298207327723503,-0.1692640334367752,-0.030656037852168083,-0.02933622896671295,-0.10325507819652557,-0.05319075286388397,0.020252764225006104,-0.11356481909751892,0.023318324238061905,0.03579629212617874,0.04045579582452774,-0.058059196919202805,-0.0560893714427948,0.056488096714019775,-0.03382353112101555,-0.08585593104362488,0.17422199249267578,-0.38496193289756775,0.13091550767421722,0.049410928040742874,0.06143409386277199,-0.09809335321187973,0.047897450625896454,0.12996529042720795,-0.020617427304387093,0.0045254649594426155,-0.09580877423286438,0.06899581849575043,-0.10813155770301819,-0.044695381075143814,-0.1252012550830841,0.07190191745758057,0.07051249593496323,0.05655641853809357,0.03364478796720505,0.04454823210835457,-0.010808784514665604,-0.012168793939054012,0.021779736503958702,0.007176784332841635,-0.08433153480291367,-0.10454657673835754,0.076822429895401,0.13152296841144562,0.004681096877902746,-0.02113400772213936,-0.08133965730667114,-0.009203406982123852,0.19829486310482025,-0.08839106559753418,0.03615150600671768,0.10613186657428741,0.08093521744012833,0.04511155188083649,-0.08452791720628738,-0.42928171157836914,0.17464351654052734,0.5267285704612732,0.025706904008984566,0.04853261262178421,0.33192476630210876,-0.29542630910873413,-0.18819770216941833,0.10244859009981155,0.04706982150673866,0.032759495079517365,-0.09813914448022842,0.013590806163847446,-0.05253086984157562,-0.07281693071126938,0.2210826724767685,-0.05915014073252678,-0.12862886488437653,0.006499490700662136,0.10497548431158066,-0.018488183617591858,0.027019407600164413,-0.07033399492502213,0.002057867357507348,0.06155449151992798,0.01670006848871708,-0.22691166400909424,-0.08418858051300049,0.36131998896598816,-0.0007496277103200555,-0.09789007902145386,-0.08177172392606735,0.03412863612174988,0.08942722529172897,0.021673837676644325,0.06603901833295822,-0.3935290277004242,-0.25278156995773315,-0.07756374031305313,-0.06657233089208603,0.05385078862309456,0.09492416679859161,0.10407472401857376,0.16592395305633545,-0.0321047343313694,0.03306886553764343,0.06085639074444771,0.06791884452104568,0.09674697369337082,-0.6328292489051819,-0.06951452046632767,0.010414686053991318,0.027162734419107437,0.033448610454797745,0.16460219025611877,-0.21174180507659912,0.049874164164066315,0.16809457540512085,-0.19062969088554382,0.03174057975411415,-0.03662026673555374,-0.07492053508758545,-0.05901247635483742,-0.05882207304239273,0.08814077824354172,-0.06153809651732445,0.022926529869437218,-0.013926271349191666,0.015552157536149025,0.10267341136932373,0.06022035330533981,0.0065748500637710094,0.1365336775779724,-0.16224542260169983,-0.031928688287734985,-0.05686090141534805,0.0756358951330185,0.05208827927708626,-0.07644767314195633,-0.11825146526098251,0.024338770657777786,0.12397008389234543,-0.06338228285312653,-0.34541887044906616,0.05324409529566765,0.07642199844121933,0.08906776458024979,0.07075631618499756,0.06653416901826859,0.0701102539896965,-0.011828066781163216,-0.0063161649741232395,0.02908250316977501,0.12234262377023697,-0.05961531773209572,0.21674418449401855,-0.03298448771238327,-0.13860619068145752,-0.022927017882466316,-0.17040684819221497,0.07291113585233688,0.020365290343761444,0.008378751575946808,-0.032960060983896255,0.12335608899593353,-0.19587397575378418,0.09008292108774185,0.05466562882065773,-0.06358237564563751,-0.002887090900912881,-0.028188595548272133,0.22485117614269257,-0.14762723445892334,-0.13504137098789215,0.01739063858985901,-0.06180552393198013,0.037774913012981415,-0.12619617581367493,0.07043376564979553,0.11635372042655945,0.026416979730129242,-0.20572738349437714,-0.07313825190067291,0.025945642963051796,0.05939749255776405,-0.00364785548299551,-0.06277632713317871,0.13931892812252045,0.16698428988456726,0.09543637931346893,-0.05749760940670967,-0.33110108971595764,0.05169837549328804,0.05944530665874481,-0.13886992633342743,0.041175439953804016,-0.6659514307975769,0.10212712734937668,-0.026963021606206894,-0.1498524695634842,-0.07297790050506592,0.02104911394417286,-0.08497816324234009,0.06770084798336029,-0.061735108494758606,-0.074543297290802,-0.06644455343484879,0.04180799052119255,0.19458191096782684,-0.08611118048429489,-0.10016439855098724,-0.02483312226831913,0.15412285923957825,-0.06449045985937119,-0.0748569518327713,0.020314833149313927,0.07832028716802597,0.1533888876438141,0.3044792413711548,-0.10168670862913132,-0.08981906622648239,0.03703777864575386,0.012839074246585369,-0.06503110378980637,-0.28643599152565,0.16006967425346375,-0.0022963103838264942,-0.12616650760173798,-0.11744735389947891,0.318128377199173,-0.06947629153728485,0.04521014913916588,0.12883706390857697,-0.34716007113456726,-0.1975077986717224,-0.2485232949256897,-0.17974191904067993,0.03987688943743706,0.0489608570933342,-0.027014344930648804,0.04826786369085312,-0.059436678886413574,0.10155511647462845,-0.0849849134683609,-0.015522916801273823,0.3120516240596771,0.011323424987494946,0.12192379683256149,0.15118135511875153,0.049553293734788895,0.12428682297468185,-0.04302942380309105,-0.0025974891614168882,0.10375446826219559,-0.19980254769325256,-0.03760819509625435,0.06887122243642807,-0.034026507288217545,0.004165881313383579,-0.02737983502447605,0.04677427187561989},{-0.07403536885976791,0.032672133296728134,-0.036811135709285736,0.07287335395812988,-0.16615216434001923,0.0014128079637885094,0.03964338079094887,-0.05891714245080948,-0.06926387548446655,0.056719955056905746,0.0852026417851448,-0.027660030871629715,0.012872710824012756,-0.028228648006916046,0.025875024497509003,0.013871286995708942,0.1482529640197754,-0.257441908121109,0.12034978717565536,0.0531807504594326,-0.012421002611517906,-0.07575618475675583,0.04842692241072655,0.01896275393664837,-0.04047539457678795,0.026780784130096436,0.04797542095184326,-0.03011719323694706,0.055856648832559586,-0.12473303824663162,-0.003574639093130827,-0.10906203091144562,0.04891054704785347,-0.02332698181271553,-0.17069615423679352,-0.015593834221363068,-0.025781430304050446,0.06264714896678925,-0.00869890209287405,-0.06284733861684799,-0.06858084350824356,0.036436501890420914,-0.056502655148506165,0.05822958052158356,-0.03369055315852165,-0.02371099963784218,0.06350259482860565,-0.024592295289039612,0.12931041419506073,0.07230370491743088,0.02755817025899887,0.06996379792690277,-0.06070137768983841,-0.013514555059373379,-0.25883617997169495,-0.18237616121768951,0.014687645249068737,0.17400433123111725,-0.13202176988124847,-0.04206814989447594,0.1953054517507553,-0.08861750364303589,-0.2023206502199173,0.02996867336332798,0.061256978660821915,-0.04127518832683563,0.00017281854525208473,-0.12595416605472565,0.04973531886935234,-0.04373304918408394,0.07991016656160355,-0.08299894630908966,-0.01592002436518669,-0.010717061348259449,-0.057801369577646255,0.01268481370061636,-0.04640960320830345,-0.1644284725189209,-0.03298351168632507,-0.019710175693035126,0.049464792013168335,-0.09836088865995407,-0.1672918200492859,0.3203541040420532,-0.07136140018701553,-0.0252415481954813,-0.0350196547806263,-0.09258908033370972,-0.010224893689155579,-0.07433276623487473,-0.051384326070547104,-0.002004409907385707,-0.1300705373287201,-0.03927943482995033,-0.028965840116143227,-0.037616778165102005,0.042581427842378616,0.039145734161138535,0.005955045577138662,-0.014052904210984707,0.057800453156232834,-0.010565590113401413,0.10900897532701492,-0.09484238922595978,-0.34673944115638733,0.08537996560335159,-0.12260906398296356,0.028649332001805305,-0.029458139091730118,0.06500324606895447,-0.015414183959364891,0.11093145608901978,0.04190898686647415,-0.052784718573093414,0.11649684607982635,-0.022731902077794075,0.058450695127248764,-0.04873992130160332,0.06075899302959442,-0.07051526755094528,0.06366528570652008,0.0013399606104940176,-0.054564423859119415,0.031732287257909775,-0.08433285355567932,-0.03088904358446598,-0.016497081145644188,0.14066249132156372,-0.03827876225113869,0.031006550416350365,0.020914603024721146,0.027618302032351494,0.06798045337200165,-0.12757951021194458,-0.00221316353417933,-0.03139949217438698,0.13729017972946167,0.04023561254143715,-0.059508275240659714,0.009334277361631393,-0.058883145451545715,-0.030206721276044846,0.01752915047109127,0.06414023786783218,-0.045567139983177185,0.12611229717731476,0.0471833236515522,-0.087335504591465,0.0028550843708217144,0.07601561397314072,-0.023757226765155792,0.11250469088554382,-0.010773725807666779,-0.214447483420372,-0.13946281373500824,-0.10481861233711243,-0.09446239471435547,0.043504368513822556,0.016443360596895218,0.15170930325984955,0.06417976319789886,0.07781194895505905,0.09760671108961105,-0.03442579507827759,0.016781136393547058,0.028043970465660095,0.11391850560903549,-0.10424188524484634,-0.0809796079993248,-0.06784161180257797,0.038068559020757675,-0.03997186943888664,0.035094182938337326,-0.03292945772409439,-0.005286947824060917,0.007142828777432442,-0.11421522498130798,0.051091231405735016,-0.029070032760500908,0.07620394974946976,-0.08293940126895905,0.0004829028039239347,-0.0757238045334816,0.03522992506623268,-0.08093030750751495,-0.045084916055202484,-0.1974504292011261,-0.030020281672477722,0.10474323481321335,-0.06890018284320831,0.005309033207595348,-0.14413109421730042,0.10273688286542892,-0.1043834388256073,-0.10234849154949188,0.0673547089099884,0.06813531368970871,-0.026982789859175682,0.056786417961120605,-0.024538492783904076,0.0040686000138521194,0.07585536688566208,-0.040486253798007965,0.06015726551413536,-0.08271151036024094,-0.10429968684911728,-0.08862826973199844,0.007784639950841665,0.046558547765016556,0.029799623414874077,-0.08857865631580353,0.041775818914175034,0.16231967508792877,0.05301439389586449,0.025823144242167473,0.049695540219545364,0.02682570368051529,-0.009609806351363659,-0.007617330178618431,0.021941902115941048,0.021100226789712906,-0.05928221717476845,-0.07096947729587555,0.013280417770147324,0.03101407364010811,-0.056082941591739655,-0.00640975683927536,0.08193826675415039,-0.09601164609193802,-0.16904574632644653,-0.05290811136364937,-0.1075088307261467,0.020460188388824463,-0.09001858532428741,0.09419620782136917,0.03530168905854225,0.02149452641606331,0.013972906395792961,0.049861956387758255,-0.07417719811201096,0.12878243625164032,-0.0103942034766078,0.12756991386413574,0.1834203153848648,0.011352380737662315,0.12696006894111633,4.605834692483768e-05,-0.0810549259185791,-0.03304034471511841,-0.07268079370260239,0.028917552903294563,0.07540852576494217,0.03927060216665268,0.09711159020662308,0.08049629628658295,-0.0818338468670845}};
static const float mlp_2_weight[256][256] = {{0.0784493163228035,0.0033657208550721407,-6.519732664855837e-08,-5.333118906492018e-07,-0.12513303756713867,1.7046177447355149e-07,5.987409679164557e-08,0.014778148382902145,0.08672484010457993,-3.266254964273685e-07,-0.00014880724484100938,-3.7526103824347956e-07,-0.014695336110889912,2.3309376047109254e-06,-9.666422329246416e-09,-0.00945907924324274,-0.016336888074874878,6.152056926111982e-07,-7.015818482614122e-06,0.010393698699772358,0.010693388059735298,-0.010394277051091194,0.009458618238568306,1.0063251920655603e-06,0.009932488203048706,9.328471151093254e-08,0.031569041311740875,-0.02000071108341217,1.8475738272627495e-07,4.915287021844961e-08,-0.0018274273024871945,0.011383752338588238,-0.02282138727605343,0.002099868841469288,0.0057861655950546265,-0.008997248485684395,8.799177919627255e-08,-3.7915324355708435e-06,0.024775464087724686,1.1271450262029248e-07,-0.10188189148902893,0.04908193647861481,0.03883901238441467,-0.002862352877855301,6.265248089221132e-07,-1.7514662431494799e-07,4.6116374505800195e-06,1.9830579844892782e-07,0.005541709251701832,-0.07136724144220352,-0.0004545379779301584,0.023871319368481636,0.006390583701431751,-1.8599846995925873e-08,0.009371204301714897,-5.565898391068913e-07,0.020785832777619362,2.918766028869868e-08,-0.012772724963724613,0.010740312747657299,-0.06910863518714905,5.133300874149427e-06,-0.0076352981850504875,0.07123978435993195,0.009845321998000145,0.012121922336518764,0.06546797603368759,-0.042859017848968506,-2.389943176694942e-07,-1.7643102182773873e-05,-0.00889828335493803,-1.2599725778272841e-06,-0.008588633500039577,0.010305354371666908,-8.990876381176349e-07,1.5703486496931873e-05,-0.013657261617481709,2.1828049057148746e-07,-0.013924763537943363,0.04644265025854111,-0.00971197709441185,3.463950406512595e-07,-0.015666354447603226,0.02279178984463215,0.025496480986475945,-2.6428429578118084e-07,0.06535428017377853,-2.0332479834905826e-05,-2.041761462123759e-07,0.05289117619395256,0.0046048820950090885,-0.11374509334564209,0.017495255917310715,-3.923627446056344e-06,0.012509405612945557,0.014775781892240047,0.010566657409071922,3.021457587237819e-06,-0.007623421493917704,-0.05434393137693405,0.002581952139735222,0.005411283578723669,0.0005364211974665523,3.994672681528755e-07,-1.910531182147679e-07,-1.2236574775670306e-07,0.006994862575083971,6.927559752512025e-07,-0.004709464963525534,0.03648620471358299,3.1953117286320776e-05,0.010708115994930267,-3.141176563303816e-08,0.01864798553287983,0.0011525783920660615,0.002230501500889659,8.678342055645771e-06,0.004398744087666273,-0.011371871456503868,-0.025650078430771828,3.7390068428067025e-06,-2.2221675521905127e-07,0.08501063287258148,0.016871821135282516,1.0096049436469912e-06,-7.701604545218288e-07,-1.591010629908851e-07,-0.022178012877702713,5.173569661565125e-07,4.677309846101707e-07,-0.038489703088998795,1.423599798044961e-07,1.6307693329054018e-07,-0.023671086877584457,-0.02458021230995655,-0.006120476871728897,0.011828595772385597,0.009120955131947994,0.009800057858228683,2.944233074231306e-06,-1.4383908819581848e-06,-6.192021260176261e-07,-0.029952343553304672,-0.006360790692269802,2.266373485326767e-06,-0.0054038772359490395,0.026371868327260017,0.03027399443089962,0.004319792613387108,0.11105900257825851,-0.015235482715070248,-3.477459387113413e-08,0.12732811272144318,0.028263244777917862,-1.4971203654567944e-07,4.3881220790353836e-07,4.3420584461273393e-07,0.02097468264400959,-3.81974496121984e-06,-0.004429360385984182,-0.02242039516568184,1.6762024870331516e-06,0.009174753911793232,-0.08607907593250275,-0.012896859087049961,9.871728252619505e-07,1.3798297615608135e-08,0.00010631362965796143,-0.13515162467956543,-0.09384531527757645,0.03312768414616585,0.021979045122861862,1.893548187581473e-06,-0.05043777823448181,0.0035596934612840414,-0.03411807864904404,-5.8043871831614524e-05,-1.8926243683381472e-07,0.007227432914078236,-0.04490015655755997,4.4582097871170845e-06,0.09714759886264801,-0.006502171512693167,-2.2698479540395056e-08,-0.0008785164682194591,7.079420902300626e-05,2.0256163679732708e-07,0.018331170082092285,0.005512713920325041,0.03305627405643463,-0.12008851766586304,4.9856425903271884e-05,6.620950330216147e-07,0.010795963928103447,0.1873425841331482,1.1244673032706487e-06,0.04504159837961197,0.03768352419137955,0.0733194649219513,9.954151209967677e-07,2.309857904947421e-07,4.6424077027040767e-08,-1.3142554053047206e-05,3.3864532156258065e-07,0.019626257941126823,-0.04555845260620117,-0.11896071583032608,-3.0483019486382545e-07,0.14430956542491913,0.022666938602924347,-0.0016805549385026097,-0.1020444929599762,-0.005225907079875469,0.06280267238616943,9.890255796562997e-07,-1.6817449477457558e-07,-0.013392658904194832,1.7842042154825322e-07,3.804250070515991e-08,0.05965986102819443,-1.0881463197165431e-07,-0.023458639159798622,-0.011731899343430996,-0.037086792290210724,7.079040642565815e-08,-3.467673934665072e-07,0.014191152527928352,-2.820268036884954e-07,4.623157323635496e-08,0.16250461339950562,-5.703663532585779e-07,-0.009752558544278145,-1.2764351353666825e-08,-0.08875866234302521,-9.405511036675307e-09,-7.509077477152459e-06,2.197074877585692e-08,-1.5829350559215527e-06,0.09472307562828064,9.841847713687457e-06,0.03593096882104874,0.06191832199692726,0.007879341952502728,-4.903305139691838e-08,-0.00923144444823265,-0.011452804319560528,-5.0496034020852676e-08,-1.0909072443610057e-05,0.017040813341736794,0.017249614000320435,2.3332420369115425e-06,0.01911531202495098,0.024489428848028183,-0.010250341147184372,0.004844606854021549,0.015433265827596188},{-0.17445482313632965,-0.06883400678634644,2.2644684349870658e-07,-6.499538471871347e-07,-0.06789115071296692,4.535653772563819e-07,9.729506018629763e-07,-0.044018086045980453,-0.10199623554944992,3.547631308720156e-07,6.721274985466152e-05,-1.6944039771260577e-06,0.05830278620123863,-9.151513324923144e-09,1.779747975660939e-07,0.011001024395227432,0.08633158355951309,-8.23069456146186e-07,1.0548123100306839e-05,0.0025739138945937157,-0.08039602637290955,0.049785513430833817,-0.0008983800653368235,5.557507165576681e-07,-0.08488554507493973,1.2373899380691e-06,0.13437247276306152,0.30914899706840515,1.6020037492125994e-06,-4.0566274606135266e-07,0.016071071848273277,-0.04702392593026161,0.02637922391295433,0.09490679949522018,0.00347870378755033,-0.11886974424123764,1.697528233535195e-07,1.027977305056993e-05,-0.08035652339458466,-6.262695819714281e-07,0.25493761897087097,-0.05344296991825104,0.04988577961921692,0.01304307859390974,5.025001428293763e-07,1.4983451990246976e-07,0.00025642054970376194,-1.3058635204288294e-06,-0.030528970062732697,0.1176011711359024,-0.00045012167538516223,0.009841409511864185,-0.13788685202598572,6.394250107177868e-08,-0.0013176897773519158,-1.9946293150496786e-07,-0.0552360936999321,3.0045623589103343e-07,-0.00231905747205019,-0.027095094323158264,0.1312144249677658,-1.9100383724435233e-05,0.04208853468298912,0.044168755412101746,0.03193359449505806,0.02305622212588787,-0.0009357045637443662,-0.030987542122602463,7.137616364616406e-08,-0.0003026844933629036,-0.0006745916325598955,-3.7063580293761333e-07,-0.07778535783290863,-0.007574177347123623,-9.281019401896629e-07,-0.00018781075777951628,0.07933975756168365,2.314825451321667e-06,-0.026924390345811844,-0.22462837398052216,0.017912063747644424,-7.498749710066477e-07,0.055939022451639175,-0.08011912554502487,-0.13979189097881317,-1.130333544097084e-06,-0.018717845901846886,1.247839827556163e-05,4.5672514659145236e-08,-0.07005658000707626,-0.05441673845052719,-0.0643271952867508,0.01333729550242424,2.1989759261487052e-05,0.0061570690013468266,-0.04638921096920967,-0.04244380444288254,1.3654331496582017e-06,-0.004647776484489441,-0.0289501640945673,0.06227604299783707,-0.04778313264250755,0.020023858174681664,-5.520754257304361e-06,2.988421954341902e-07,-7.094888019310019e-07,-0.04003884270787239,1.8894465370067337e-07,0.02032756805419922,-0.0698990747332573,-8.991072718345094e-06,-0.07623600959777832,7.107876172085525e-07,-0.04433467611670494,0.0006616701721213758,-0.01484373863786459,-1.0179246601182967e-05,-0.10346197336912155,0.02760816179215908,0.05184262990951538,-5.648656951962039e-06,6.310883691185154e-07,-0.03461697697639465,0.014688573777675629,7.952142482281488e-07,1.950529622263275e-06,1.3409814414444554e-07,-0.3803572654724121,-2.582241052095924e-07,9.088673209589615e-07,-0.022265324369072914,5.472828661368112e-07,3.2303302077707485e-07,-0.022278837859630585,-0.11492058634757996,0.03050616942346096,-0.016909215599298477,-0.0073753846809268,-0.023840410634875298,-1.0048123840533663e-05,-3.568264332898252e-07,-1.6067143633335945e-06,0.02661052532494068,-0.028979891911149025,-7.569980198240955e-08,-0.003162842011079192,-0.053100842982530594,-0.06038995459675789,-0.15676692128181458,-0.09447185695171356,-0.011143815703690052,-1.5492994975829788e-07,-0.003996272571384907,-0.011723659932613373,3.8508527921976565e-08,-2.0923207557643764e-06,-5.271488134894753e-06,0.006797096226364374,-1.3395331279753009e-06,0.026881521567702293,0.12725800275802612,-1.5260093277902342e-06,-0.008098350837826729,-0.04013347625732422,0.042365219444036484,1.1212824801987153e-06,2.7107620326205506e-07,-0.0002078749967040494,0.19582881033420563,0.12738075852394104,0.0644955188035965,-0.17733806371688843,1.924715036238922e-07,-0.08887415379285812,0.02867630124092102,0.06603369861841202,0.01049412228167057,1.3651595054398058e-06,-0.03455771505832672,-0.2542493939399719,-1.387419797538314e-05,-0.16421736776828766,0.08773842453956604,-1.5966751476526042e-08,-0.009208180010318756,-3.6513214581646025e-05,-5.4545665761907e-07,-0.08374032378196716,-0.04305994510650635,-0.0845561996102333,0.1362764984369278,-0.0004160444368608296,1.6301057712553302e-06,0.044003620743751526,-0.1676873117685318,-1.3917966725784936e-06,0.15840984880924225,0.04369094967842102,-0.21361643075942993,-4.976849936610961e-07,-4.938864321957226e-07,-1.0609620630930294e-06,3.0236760721891187e-06,2.688113056592556e-07,-0.042309124022722244,0.1391066461801529,-0.004162887576967478,-1.6056742424552795e-06,-0.06798705458641052,-0.032607901841402054,0.050175413489341736,0.20984236896038055,-0.010323545895516872,-0.20563192665576935,-7.232865755213425e-07,2.3023621906759217e-06,0.015583419241011143,-1.6647329630359309e-06,2.384438175795367e-07,0.05968096852302551,3.892080258083297e-07,-0.015524630434811115,-0.003940784838050604,0.04870084300637245,3.752029158476944e-07,1.8054066686090664e-06,0.3831865191459656,1.6170635035450687e-06,4.5871036036260193e-07,-0.020353656262159348,3.087668574153213e-06,0.06921913474798203,1.0099885230374639e-06,0.08970388770103455,5.874286443940946e-07,4.3809945054817945e-05,2.048484475380974e-06,6.099530764913652e-07,0.06026105210185051,-1.737926504574716e-05,0.0889076292514801,-0.2743240296840668,-0.010675684548914433,-1.1037043634587462e-07,0.0013501462526619434,0.009803310967981815,2.5125009983639757e-07,6.603610381716862e-05,-0.011445628479123116,-0.023177286610007286,-1.9316491943754954e-06,0.009602551348507404,0.22836682200431824,-0.04625663533806801,-0.044414106756448746,-0.07988253980875015},{-0.04109713062644005,-0.0062216706573963165,2.1263211635869084e-08,-1.4380381685441535e-07,0.004186941776424646,-4.222261651420922e-09,-1.512434835149179e-07,-0.017006075009703636,-0.016314314678311348,-5.955119490863581e-07,-2.7337935534887947e-05,-6.101831786509138e-07,0.025191493332386017,5.712944357583183e-07,-8.702255804848846e-09,-0.003372908802703023,-0.04352458193898201,9.984864846046548e-07,-1.7379668861394748e-05,0.0009249706636182964,0.041514646261930466,0.019411472603678703,0.00043651775922626257,-1.0409248716314323e-06,-0.034661099314689636,2.880045713027357e-07,0.014487599954009056,-0.03800312057137489,5.414071324594261e-07,1.5555680477064016e-07,0.009085648693144321,-0.007095369044691324,0.019551362842321396,0.06765888631343842,0.00312713161110878,-0.0020385594107210636,1.3499901285740634e-07,7.412017566821305e-06,-0.0009570105466991663,2.127625720049764e-07,0.132842555642128,0.05977733060717583,-0.014063777402043343,0.003058706410229206,8.491010561328949e-08,-8.382996696809641e-08,5.519665501196869e-05,-4.128882551412971e-07,0.00922077801078558,0.00347333331592381,-0.00023089001479092985,-0.0016169219743460417,-0.06401128321886063,-7.534504575801293e-09,-0.0007561857928521931,1.0685669167287415e-06,-0.08125195652246475,1.2418161077221157e-07,-0.001368969795294106,-0.003965998068451881,0.05459865182638168,-2.624181070132181e-05,0.015043669380247593,-0.025085678324103355,0.018191741779446602,0.07197962701320648,-0.02976180799305439,-0.013637383468449116,2.3334706611422007e-07,6.872497033327818e-05,-0.0019451506668701768,-1.947492478393542e-07,-0.003213181160390377,-0.028636636212468147,-9.791922366275685e-07,-0.00030606368090957403,0.034746963530778885,1.2640514057693508e-07,-0.0048629287630319595,-0.08226624876260757,-0.004901152104139328,-2.314460800789675e-07,0.012831403873860836,-0.00776221277192235,-0.05227595195174217,-3.051245300866867e-08,0.030777879059314728,-2.6795569283422083e-05,-2.1285029561113333e-07,0.014210228808224201,-0.004730575252324343,0.05122150853276253,-0.014977732673287392,1.138685274781892e-05,0.002396032679826021,0.03659301623702049,-0.019216053187847137,3.7960010104143294e-06,-0.004198857117444277,-0.027040764689445496,0.001339676440693438,-0.020163988694548607,0.0086104990914464,-6.122148533904692e-06,-7.639151533567201e-08,8.559762676441096e-08,-0.010074634104967117,-2.834722863553907e-06,-0.009495547041296959,0.009666644968092442,2.9949007512186654e-05,-0.031195951625704765,-5.552105619699432e-08,-0.08011636883020401,0.0009877700358629227,-0.02563941478729248,-7.902031029516365e-06,-0.04253855720162392,-0.0026531184557825327,0.056092578917741776,3.5473219668347156e-06,-1.2681140049153328e-07,-0.03384993597865105,0.008417736738920212,-4.0365380300499965e-06,6.446034603868611e-07,5.2177320242208225e-08,-0.015410899184644222,-1.6536773728148546e-07,3.007454552061972e-07,-0.023595789447426796,4.490242488941476e-08,2.000415264546973e-07,0.002032980788499117,0.027538442984223366,0.01516165304929018,0.0036288679111748934,0.00245049805380404,0.0028579358477145433,-4.271270881872624e-06,2.08857073857871e-07,-1.1130775874335086e-06,0.023571709170937538,0.06654224544763565,4.2091954810530297e-07,-0.002806955948472023,-0.03351258486509323,0.004614629782736301,-0.014285976998507977,0.012743135914206505,-0.007080298848450184,6.621665420425416e-07,-0.0166439451277256,-0.059229228645563126,-1.6193010310416867e-07,-2.581964054115815e-06,-4.065268512931652e-06,0.013739317655563354,-1.8074305785376055e-07,0.01050648745149374,-0.05427560210227966,-9.760572083905572e-08,0.002667332999408245,0.013827805407345295,-0.0073086172342300415,-5.2645205528278893e-08,-2.644722485456441e-08,-7.353517867159098e-05,0.00353460805490613,0.06526952981948853,-0.010914260521531105,-0.11825352907180786,2.5203502218573703e-07,0.06267385929822922,0.03973881155252457,-0.01758544147014618,0.007596582639962435,-2.79740646647042e-07,-0.01987255923449993,0.04783996194601059,-1.9544702809071168e-05,-0.021357284858822823,0.033423975110054016,5.688169579798341e-08,-0.00869214627891779,-6.297626532614231e-05,5.61268791443581e-08,-0.0398743562400341,-0.0150265758857131,-0.010974650271236897,0.029585784301161766,-0.0004759258881676942,6.443826805480057e-06,0.020263224840164185,-0.07338285446166992,4.7287431925724377e-07,-0.029404334723949432,-0.012935294769704342,0.02391502447426319,2.7502917419042205e-06,7.340062779803702e-08,1.1386284768377664e-06,-2.2969859855948016e-05,4.1112139115284663e-07,-0.0006939839222468436,0.14323100447654724,0.09742417186498642,2.1440115460791276e-07,-0.017253771424293518,-0.01939910091459751,-0.008301868103444576,0.058311138302087784,0.035881929099559784,-0.021394874900579453,-2.34402114074328e-06,1.4995076753621106e-06,0.0004841350018978119,-8.763265100242279e-07,4.5640234702659654e-08,-0.07425234466791153,-1.433534748684906e-07,0.0020218959543854,-0.0014298814348876476,0.011484366841614246,8.258290051799122e-08,7.313360015359649e-07,-0.01761234737932682,3.289179915100249e-07,5.028932150707988e-07,-0.07635648548603058,1.2367642057142803e-06,0.00923219695687294,5.187098395253997e-07,-0.00031391545780934393,-1.6344174014193413e-07,2.1045765606686473e-05,-8.707702363608405e-07,-7.538403110629588e-07,0.03024650178849697,-3.3244173209823202e-06,0.04026750102639198,-0.06157699599862099,-0.0015223566442728043,-1.844316415144931e-07,-5.494965989782941e-06,-0.005930014420300722,1.0220112756087474e-08,-1.5314806660171598e-05,-0.0016718740807846189,-0.1317688524723053,-3.896482212439878e-07,0.00025594490580260754,0.062023092061281204,0.0046485490165650845,0.013108271174132824,-0.03437089920043945},{0.045980002731084824,-0.05644217133522034,-2.7488496812111407e-07,-7.41633448342327e-06,-0.09631205350160599,6.808078978792764e-06,2.267455329274526e-06,0.02942713163793087,0.07298420369625092,-7.513200671382947e-06,-0.0038904675748199224,3.047336940653622e-05,0.05792060121893883,8.986821740109008e-06,-5.882285222469363e-06,0.05477768927812576,0.0017096980009227991,-8.880560926627368e-06,-0.00019951093418058008,-0.029853882268071175,-0.07123174518346786,0.06330250203609467,-0.03056703880429268,7.167473995650653e-06,-0.10292647778987885,-2.6445542971487157e-05,0.04901865869760513,0.051206283271312714,4.018699473817833e-05,-3.894543624483049e-06,0.04455992951989174,-0.050293926149606705,-0.0008587752236053348,-0.020285144448280334,0.009879650548100471,-0.05621230974793434,4.223699761496391e-06,-1.7471236787969247e-05,-0.06062883883714676,-1.2536593203549273e-05,0.007008873391896486,-0.054624564945697784,0.025212932378053665,0.01556974183768034,8.84956716618035e-06,6.132951966719702e-06,0.004244444891810417,1.5034094758448191e-05,-0.03778626769781113,-0.017693765461444855,-0.00047777456347830594,0.014605403877794743,0.007007246371358633,-2.7767450774263125e-06,0.014064828865230083,-2.287899587827269e-05,0.046112000942230225,-1.854584525062819e-06,0.022740015760064125,0.013980290852487087,0.12199830263853073,9.987681551137939e-06,0.04106845706701279,-0.07349235564470291,-0.09372769296169281,0.002353256568312645,-0.009014706127345562,-0.01307846698909998,-1.614148641237989e-05,-4.92863982799463e-05,0.009339124895632267,-7.472638117178576e-06,-0.021206028759479523,0.03629413992166519,-4.5173291596256604e-07,2.7582636903389357e-05,0.08737409114837646,-2.9205439204815775e-05,-0.016589928418397903,-0.04113290086388588,0.011925168335437775,-2.3561176476505352e-06,0.06760060042142868,-0.04632110521197319,0.054067462682724,-1.869222614914179e-05,-0.08193141222000122,0.002520511858165264,5.249361038295319e-06,0.08870093524456024,-0.07298567146062851,0.1467268019914627,-0.12018625438213348,-2.2490376068162732e-05,-0.010083438828587532,-0.030064363032579422,-0.041231218725442886,6.099985694163479e-05,-0.0028163904789835215,0.022446969524025917,0.0878945142030716,-0.017228469252586365,0.04202483221888542,-1.1167341654072516e-05,-8.405991138715763e-06,-6.808561920479406e-06,-0.03427963703870773,4.241485657985322e-05,0.01955651491880417,-0.16926072537899017,-0.001752657350152731,-0.08330393582582474,4.891976914223051e-06,0.004466994199901819,-0.006115516647696495,0.03328109160065651,-5.732777026423719e-06,-0.13074547052383423,-0.01580863632261753,-0.012455710209906101,0.0002954125520773232,-1.5164289379754337e-06,0.020784659311175346,-0.013990184292197227,-3.1100509545467503e-07,-8.202167919080239e-06,5.3958152420818806e-05,0.09821392595767975,-3.0793209589319304e-05,-7.139768422348425e-05,0.09876057505607605,3.259710638303659e-06,-6.104472163315222e-07,0.06068608537316322,0.0520557276904583,0.039705220609903336,-0.024118734523653984,-0.0011018654331564903,-0.058041516691446304,7.635095244040713e-06,9.602017962606624e-05,-9.751586730999406e-06,0.019209042191505432,-0.006323171779513359,2.627966932777781e-05,-0.009133557789027691,0.020695753395557404,-0.022741951048374176,-0.1348353922367096,-0.045590419322252274,-0.005351289175450802,1.0159254998143297e-05,-0.08820851147174835,-0.02017880417406559,2.2825190626463154e-06,1.7656466297921725e-05,-3.732730647243443e-06,0.08752819895744324,0.00018195474694948643,0.05960925668478012,0.023165658116340637,4.7690202336525545e-05,-0.027075618505477905,-0.03271733224391937,0.04847251996397972,1.2072331628587563e-05,5.411319037307294e-08,-3.162528810207732e-05,0.004176887217909098,0.23016101121902466,0.025035658851265907,-0.014911788515746593,1.685691677266732e-05,-0.06271418929100037,-0.04505985975265503,0.038995739072561264,0.026540344581007957,3.639348869910464e-05,-0.062087301164865494,-0.011654691770672798,-5.05186544614844e-05,-0.07429071515798569,0.11041281372308731,-2.850241435226053e-05,-0.03890853002667427,0.004754987079650164,-2.6353043267590692e-06,-0.10205008089542389,-0.04573097452521324,0.0001647291355766356,0.15202881395816803,7.263603038154542e-05,5.155523103894666e-05,-0.11232056468725204,-0.015942828729748726,-4.696222094935365e-05,0.06448199599981308,0.02565442956984043,-0.12122325599193573,-0.00011812734010163695,-1.0687146641430445e-05,-3.442436718614772e-05,4.0890754462452605e-05,2.710076660150662e-05,-0.031131088733673096,-0.05088261142373085,-0.038558878004550934,3.4023303214780753e-06,-0.02722950279712677,-0.031265467405319214,-0.04688340425491333,0.04461423307657242,-0.03458838164806366,-0.11008341610431671,6.808002581237815e-06,-1.2613876606337726e-05,0.0038300163578242064,-6.336655587801943e-06,-1.1851691397168906e-06,0.06785333901643753,-2.2433364392782096e-06,-0.01366947777569294,-0.013188912533223629,0.1369621902704239,1.987094492506003e-06,1.5470980088139186e-06,0.012014239095151424,-4.060966239194386e-05,1.1231333701289259e-05,0.01921929232776165,-1.893300395749975e-05,0.06599996984004974,-1.9172937754774466e-05,0.05693374201655388,2.107450200128369e-05,-9.651153959566727e-05,-7.926202670205384e-06,-3.4005559427896515e-05,0.03179923817515373,-7.939083843666594e-06,-0.0342695415019989,0.04057770222425461,-0.01685807853937149,-5.6965341173054185e-06,-0.006533630192279816,0.032576218247413635,-3.391912287042942e-06,7.261083374032751e-05,-0.021067317575216293,-0.20227381587028503,5.101761780679226e-05,0.0006058241706341505,0.06628216058015823,-0.0748516321182251,-0.012367350049316883,-0.09522052854299545},{0.07861404120922089,-0.005640990566462278,-1.2229971844135434e-06,1.3346050309337443e-06,-0.01607651077210903,-8.789275511844608e-07,7.561770871689077e-07,0.1262401044368744,0.038309913128614426,-1.857250481407391e-06,-1.4898176232236437e-05,2.759836661425652e-06,-0.040332723408937454,1.4339069593916065e-06,-1.1927858167837257e-07,0.02245531789958477,-0.15936370193958282,2.1447588096634718e-06,-6.40472280792892e-05,-0.0012886527692899108,0.037835825234651566,-0.034394148737192154,-0.009078693576157093,-2.3488785245717736e-06,0.043393008410930634,-1.127616400253828e-07,-0.043544262647628784,-0.2702729403972626,-4.332168828113936e-06,9.874555644273642e-07,-0.011809137649834156,0.024348905310034752,-0.14471971988677979,-0.0858830139040947,-0.004993868991732597,-0.07218413054943085,-2.8069354129911517e-07,-6.4337568801420275e-06,0.051652055233716965,2.4765643047430785e-06,-0.028162682428956032,0.2172156125307083,-0.023320171982049942,-0.07246764004230499,-1.3032148444835912e-06,-1.6840095895531704e-06,0.00045533699449151754,1.0398667882327572e-06,-0.005751790478825569,-0.08217290788888931,-0.00039390992606058717,0.005669525358825922,0.00996521394699812,5.171945982596071e-09,-0.007349737454205751,1.4615596910516615e-06,-0.05284998193383217,-2.1555112539317633e-07,-0.008199168369174004,0.018690310418605804,-0.07107609510421753,2.345251959923189e-05,-0.028267858549952507,-0.10938334465026855,0.024749916046857834,0.06739339977502823,0.15708643198013306,-0.08235213905572891,2.376838210693677e-06,-0.00024437037063762546,-0.005286424420773983,2.4913665583881084e-06,0.07615441083908081,-0.004723783116787672,-1.2914134117636422e-07,-0.00014160698628984392,-0.043238960206508636,-3.786948127526557e-06,0.022119374945759773,0.16779328882694244,0.021422522142529488,-4.690830621711939e-07,-0.008171740919351578,0.057803925126791,0.07509966194629669,3.93405980503303e-06,0.04742056876420975,-0.00012070850789314136,-1.2326268006290775e-06,0.11561703681945801,-0.003963083028793335,-0.007050694897770882,-0.1650955080986023,1.7547733932588017e-06,0.0018143969355151057,0.024038176983594894,0.03260340541601181,1.266180697712116e-05,0.013833715580403805,-0.08334463089704514,0.01551835797727108,0.031503189355134964,-0.005958589259535074,8.162066365002829e-07,-1.6307719761243789e-06,1.239776111106039e-06,0.02584272436797619,-6.650549948972184e-06,0.029891474172472954,0.06981094181537628,8.429830631939694e-05,0.041625987738370895,-1.3180147107050288e-06,-0.24040250480175018,0.0010177385993301868,-0.015566211193799973,-1.0301017027813941e-05,0.0423266775906086,-0.02664298750460148,-0.002755769295617938,1.1596404874580912e-05,-2.3762311229802435e-06,0.030519964173436165,0.008841678500175476,-1.4114892110228539e-05,1.954552544702892e-06,-3.1533179480902618e-06,0.22659839689731598,3.428509671721258e-06,5.829885139974067e-06,0.0760238990187645,-6.993359420448542e-07,5.682202868229069e-07,0.023422982543706894,-0.049641359597444534,-0.027179589495062828,-0.024760084226727486,-0.014217296615242958,-0.0195318590849638,-1.208248249895405e-06,-6.549461431859527e-06,1.6263828683804604e-06,-0.010450980626046658,0.032177917659282684,-4.824502184419543e-07,0.00289547978900373,0.023920100182294846,0.09700950980186462,0.10889089107513428,0.16164211928844452,0.004625413566827774,1.901185328279098e-06,0.18100884556770325,-0.02170524187386036,-7.239507340273121e-07,-1.9002245608135127e-06,2.658292260093731e-06,-0.18608498573303223,-1.0814956112881191e-05,-0.019095735624432564,-0.15655837953090668,7.007190561125753e-07,-0.020922724157571793,-0.1184052973985672,0.020846350118517876,-3.4166562272730516e-06,-1.0726573691499652e-06,-0.00014570102212019265,-0.2823377549648285,0.024887563660740852,-0.04343017190694809,0.00824382808059454,-5.795573656541819e-07,0.10647798329591751,0.008580771274864674,-0.26079317927360535,-0.007896654307842255,-4.4381272346072365e-06,0.03489590436220169,0.04179486259818077,9.322813639300875e-06,0.15830376744270325,-0.04264116659760475,1.3798829741062946e-06,0.009804465807974339,-9.594707807991654e-05,1.3550331345868472e-07,0.0454779714345932,0.02534397691488266,0.04109383374452591,-0.23070110380649567,0.00013763413880951703,-1.9897001038771123e-05,0.0251961350440979,0.12750916182994843,7.69862253946485e-06,0.0007270040223374963,-0.017738772556185722,0.09091707319021225,1.3745228898187634e-05,2.3586544557474554e-06,5.509012225957122e-06,0.00010399123857496306,-1.1039633136533666e-06,-0.015104521065950394,0.07625564187765121,0.0027357626240700483,1.4380884749698453e-06,0.11076480895280838,-0.052300941199064255,-0.1029154434800148,-0.09796148538589478,0.08201552927494049,-0.042808424681425095,-4.513253770710435e-06,6.095811500017589e-07,-0.014720898121595383,-3.762357039249764e-07,-1.340676192285173e-07,0.06239340081810951,-1.9701953988260357e-06,0.0005381159135140479,-0.004296523984521627,-0.08033976703882217,-3.5118745245199534e-07,1.1235480315008317e-06,-0.26479989290237427,7.122467877707095e-07,-1.355038875772152e-06,0.03425915166735649,-2.7855048756464384e-06,-0.0037138473708182573,2.446500388941786e-07,-0.2501274049282074,-9.754359098224086e-07,2.8404804197634803e-07,-2.813791525113629e-06,-1.2875694892500178e-06,-0.19017556309700012,-4.019046173198149e-06,0.10059231519699097,0.035636384040117264,0.007287523243576288,4.769391637182707e-08,0.012823755852878094,0.026451358571648598,-8.014353056751133e-07,0.00012811392662115395,0.01773054152727127,-0.0745927020907402,9.285017767979298e-07,0.0006240123184397817,0.11974059045314789,-0.03281204029917717,-0.020809756591916084,0.046266041696071625},{0.00029791551060043275,-0.00999293103814125,-2.1137678629656875e-07,2.0437907721770898e-07,-0.03648446872830391,-2.64293618101874e-07,4.3287798234814545e-08,0.048075903207063675,0.014436054974794388,-1.5458107327503967e-07,-4.05740829592105e-05,5.628129997603537e-07,0.016076266765594482,7.42640793305327e-07,-2.830290313227124e-08,-0.003783544059842825,-0.010483757592737675,-3.1354178986475745e-07,-5.205848992773099e-06,0.005222386680543423,0.037674400955438614,0.012430910021066666,0.004656102042645216,4.4100306695327163e-07,-0.025506019592285156,2.565465990755911e-07,0.03401993587613106,-0.01392581406980753,-2.2260316256961232e-07,3.855605257285788e-07,0.00423218822106719,-0.0020218086428940296,-0.010301643051207066,0.014697900973260403,0.0033638125751167536,-0.010671032592654228,6.47144275944811e-08,-3.668591034511337e-06,0.0038864905945956707,4.5170487794621295e-08,0.05448262020945549,0.04481416195631027,0.007567203138023615,0.0022182506509125233,-1.6603610220045084e-07,-3.5644598028738983e-07,-8.11185691418359e-06,5.121620461068233e-07,0.007156489882618189,-0.018543710932135582,-0.00017367006512358785,0.008676656521856785,-0.0333847776055336,3.277541571478082e-09,0.004385906271636486,-1.5500910421906156e-07,-0.024858077988028526,3.594004027718256e-08,-0.005491265561431646,-0.0026570691261440516,0.024354537948966026,1.9394152332097292e-05,0.009457842446863651,-0.006686483044177294,0.003537312615662813,0.029892001301050186,-0.0009390865452587605,-0.01296341884881258,5.432452212517092e-07,-9.426572432857938e-06,-0.004091549664735794,1.0596033916954184e-07,0.007250350434333086,-0.0017217622371390462,-5.321039679984096e-07,9.539892198517919e-05,0.02407161518931389,-9.098636155613349e-07,-0.007468125782907009,-0.03401527553796768,-0.003892750246450305,-1.2610725264039502e-07,0.012087449431419373,-0.0024502878077328205,-0.009775243699550629,1.117241708925576e-06,0.027567150071263313,-1.2927615898661315e-05,-4.5853431629439e-07,0.0064992401748895645,-0.006062170024961233,-0.007097094785422087,-0.01015025656670332,-1.1852060197270475e-05,0.005011433735489845,-0.009699665009975433,-0.011933444067835808,1.2289428923395462e-05,-0.004380348604172468,-0.024636058136820793,0.009413313120603561,-0.006725024897605181,0.0027710692957043648,2.835776740539586e-06,-3.89602803352318e-07,4.262628863216378e-07,-0.005848835688084364,-6.886636469971563e-07,-0.004787536803632975,0.01820121891796589,1.536407035018783e-05,-0.02219853736460209,-4.907692527922336e-07,-0.06267435848712921,0.0005620616138912737,-0.006165103055536747,-4.38531151303323e-06,-0.03330611065030098,-0.00014294186257757246,0.007098259869962931,8.541535407857737e-07,-5.975566637062002e-07,0.006798859219998121,0.008654475212097168,-1.788019176274247e-06,6.819003601776785e-07,9.606354467450728e-08,0.0006686471751891077,-4.972285978510627e-07,5.624270897897077e-07,-0.003063216572627425,-2.7021718551623053e-07,3.376168820068415e-07,0.04052251949906349,-0.02250451035797596,0.009309227578341961,0.003813887480646372,0.004726950544863939,0.0025264518335461617,2.1180791009101085e-05,4.2971683456016763e-07,5.33744696440408e-07,1.2886466720374301e-05,-0.001954074949026108,7.074587529132259e-07,-0.003231215523555875,0.006899131461977959,0.003117798827588558,-0.005438796244561672,0.043781787157058716,-0.006417933851480484,7.406340500892838e-07,0.00820161309093237,-0.04234524071216583,-5.473394821819966e-07,-2.844246580480103e-07,1.6409408090112265e-06,0.017786864191293716,4.5216189903385384e-08,0.005659755785018206,-0.012423427775502205,1.458558699596324e-06,0.004027710761874914,-0.027299607172608376,-0.004996040370315313,6.629691995385656e-08,-2.98582136792902e-07,-8.8655469880905e-06,-0.030043378472328186,0.06415270268917084,0.006281975191086531,-0.05945806950330734,6.140188020253845e-07,-0.006506572477519512,0.010967968963086605,-0.018010910600423813,0.0030424955766648054,-3.615936066125869e-07,-0.012941399589180946,0.022729860618710518,9.562573723087553e-06,0.00939161516726017,0.025800108909606934,5.117443180324699e-08,-0.003918946720659733,-1.3155558917787857e-05,8.176426291583994e-08,-0.026446649804711342,-0.009671886451542377,-0.0023280512541532516,0.015997199341654778,-0.0001054106469382532,1.6721248812245904e-06,0.0036889975890517235,0.03286617621779442,1.7519988659842056e-06,-0.008479761891067028,0.007986425422132015,0.008756362833082676,1.3025130556343356e-06,5.235340836406976e-07,2.3824102868275077e-07,-5.379998401622288e-05,6.120642410678556e-07,0.001881405827589333,0.05904239043593407,0.03526657447218895,-1.053035134646052e-06,0.044695671647787094,-0.028070688247680664,-0.007528088521212339,0.010512958280742168,0.011298904195427895,-0.010480494238436222,-7.070560172905971e-07,-7.236913006636314e-07,-0.0044329906813800335,-6.111678203524207e-07,-2.4279056987097647e-08,-0.03108542412519455,-6.067057825021038e-07,-0.0076794130727648735,-0.005509999115020037,0.011398148722946644,-1.352006933075245e-07,6.546550253005989e-07,-0.02372726984322071,-5.88817883340198e-08,7.856977646270025e-08,-0.012623192742466927,-7.69064286032517e-07,0.010798466391861439,1.1782217512745774e-07,-0.023436831310391426,3.5249418033345137e-06,-1.7238271539099514e-05,1.0859384929062799e-06,-1.901626433209458e-06,0.003927525598555803,-1.667684273343184e-06,-0.006558840163052082,-0.04017532989382744,0.00240308721549809,-2.4934254838626657e-07,-0.004536953754723072,-0.0047286031767725945,-1.1638402241942458e-07,-4.589601303450763e-07,0.005822629667818546,-0.09256956726312637,3.1125966870604316e-06,0.006666970904916525,0.06647256016731262,-0.012072937563061714,0.006036779843270779,-0.023496830835938454},{0.12164352834224701,0.028749557211995125,1.141271042115477e-07,-1.262654450329137e-06,-0.1461559683084488,6.624513275710342e-07,-4.744984494209348e-07,-0.06976555287837982,0.06070752069354057,-1.3592604375389783e-08,-7.280854333657771e-05,-1.0069009448443467e-07,0.0017573174554854631,2.9055693175905617e-06,-1.0370266423365138e-08,-0.033932752907276154,-0.05812070518732071,-3.1395725130778374e-08,-2.9819220799254254e-05,0.011010346934199333,-0.041605524718761444,0.003758490551263094,0.014164897613227367,2.3887187126092613e-06,-0.007927969098091125,-2.917063852692081e-07,-0.04794636741280556,0.003633748274296522,2.3328547626988438e-07,-2.979003852487949e-07,0.006461271550506353,0.0044916230253875256,0.04044537991285324,0.20286938548088074,0.007185925263911486,0.0708974078297615,-1.4276036353066957e-08,-1.342006271443097e-06,0.017312582582235336,2.7389097567720455e-07,-0.06530773639678955,-0.030970504507422447,-0.0008304828079417348,0.03514398634433746,1.3846982938048313e-06,3.3905362784025783e-07,0.0002823086688295007,2.599568631467264e-07,0.035333968698978424,0.015985889360308647,-0.00014161530998535454,0.007641541305929422,0.11385659128427505,-5.209454911891953e-08,0.014911971054971218,-1.8117289073416032e-06,0.03012336976826191,8.41173104504378e-08,-0.009035348892211914,0.027014000341296196,-0.04058925434947014,-9.487595889368095e-06,0.004577097948640585,0.10762518644332886,-0.003688359633088112,0.010333706624805927,0.15330363810062408,-0.15649709105491638,-1.9131148292217404e-06,0.00010214278154307976,-0.010571867227554321,-3.572178002286819e-06,-0.1349804401397705,0.024274591356515884,-1.2349757980700815e-06,-0.00014676054706797004,0.0017186221666634083,-1.9809788227576064e-06,0.0009099550079554319,0.1696774661540985,-0.040592316538095474,2.2807091681897873e-07,-0.05313681811094284,0.019482910633087158,0.0874997079372406,-2.0971535832359223e-06,0.07589162141084671,-2.5791350708459504e-05,-4.2784228071468533e-07,0.15436077117919922,0.030260995030403137,-0.10181839764118195,0.06116604059934616,1.9122669527860126e-06,0.005613008979707956,0.11664339900016785,-0.00447485689073801,2.2911604901310056e-05,-0.009540353901684284,-0.003085519652813673,-0.02532297559082508,0.038706231862306595,0.0017683474579825997,-3.506252141960431e-06,3.479767656244803e-07,-5.764709953837155e-07,-0.0015663722297176719,1.368735638607177e-06,-0.039456892758607864,-0.043151725083589554,9.45014544413425e-05,-0.006501609925180674,2.87545645960563e-07,0.034614041447639465,0.0024873109068721533,0.029801728203892708,1.5267627304638154e-06,-0.01211299654096365,-0.02626427449285984,0.04431312903761864,1.6432990378234535e-05,-1.2950941652434267e-07,0.011261675506830215,0.010836624540388584,1.408511593581352e-06,-9.787665931071388e-07,3.4997164277683623e-08,-0.04507191851735115,1.4738567415406578e-06,-4.6793761043772975e-07,-0.05726123973727226,7.036522902126308e-07,-3.594088866520906e-07,-0.09245020151138306,0.05997011810541153,0.007928093895316124,0.04619993269443512,0.022084584459662437,0.04639009013772011,1.251281992153963e-05,-1.303689828091592e-06,-2.481075171090197e-06,-0.04432721808552742,0.11812923848628998,3.524095063767163e-06,-0.00713737215846777,