#include "network_evaluate.h"

static const int structure [3][2] = {{12, 256},{256, 256},{256, 2}};
static float output_0[256];
static float output_1[256];
static float output_2[2];
static const float mlp_0_weight[12][256] = {{-0.13618578016757965,0.17642109096050262,0.2060406506061554,0.024410907179117203,0.09350868314504623,-0.03479476273059845,0.2593000829219818,-0.2106608748435974,-0.20720963180065155,-0.10699937492609024,-0.24369776248931885,-0.23397356271743774,-0.0433802604675293,0.11454164981842041,0.08623357117176056,0.09588893502950668,-0.0929524376988411,-0.022163424640893936,-0.08312825113534927,-0.31305599212646484,0.22233283519744873,-0.19233930110931396,0.14858785271644592,-0.20888520777225494,0.19579602777957916,-0.07181860506534576,0.011502353474497795,0.044747188687324524,0.1310114711523056,0.19654367864131927,0.23640960454940796,0.16011971235275269,-0.011066972278058529,0.05653541907668114,0.04341263696551323,0.02290780283510685,-0.15832562744617462,-0.1308198869228363,0.03618837893009186,0.02441743016242981,-0.1598040908575058,0.043223753571510315,0.1324205845594406,0.026068367063999176,-0.24420709908008575,-0.21563628315925598,-0.013598939403891563,-0.1402139961719513,0.2168622761964798,0.24535639584064484,0.04090316593647003,-0.05101468414068222,-0.16704267263412476,-0.034504566341638565,0.2711864709854126,0.07337214797735214,0.003952230326831341,0.20649240911006927,-0.1484091430902481,-0.19408699870109558,0.1489010453224182,-0.26572495698928833,-0.09697762876749039,-0.2311006635427475,-0.07237868756055832,-0.29679396748542786,-0.07539991289377213,0.05809178948402405,-0.034499481320381165,-0.08235099166631699,-0.024306250736117363,-0.0751311182975769,0.17660880088806152,0.08108494430780411,-0.2783515155315399,0.16272318363189697,0.028880324214696884,-0.16676509380340576,-0.11286764591932297,-0.1485843062400818,0.2100263088941574,-0.17130890488624573,-0.1015738993883133,-0.11935938149690628,-0.17002224922180176,-0.020157696679234505,0.0006503824261017144,-0.0008661574102006853,0.2548166811466217,0.026849009096622467,0.1768404096364975,-0.31826964020729065,0.06686143577098846,0.18362125754356384,0.15257689356803894,0.29039573669433594,0.23304510116577148,0.24317219853401184,0.15329064428806305,-0.13622666895389557,0.0589306578040123,-0.07936956733465195,-0.24308986961841583,0.09000595659017563,0.15097364783287048,-0.030332956463098526,0.09246201813220978,0.012530295178294182,0.17244791984558105,0.04151168838143349,0.023631233721971512,0.12330648303031921,0.11939883232116699,-0.1805608719587326,-0.18552620708942413,0.14903104305267334,0.16479328274726868,-0.23853006958961487,0.25196683406829834,-0.08420327305793762,0.24357782304286957,0.07841672003269196,0.15682105720043182,-0.1597265899181366,-0.20223118364810944,-0.11823328584432602,-0.08009695261716843,0.16603901982307434,-0.2296036332845688,0.1958380490541458,0.07173492014408112,-0.14347410202026367,-0.011285140179097652,0.008333349600434303,0.018723078072071075,0.052759937942028046,-0.04683689773082733,0.12190257012844086,0.19087861478328705,-0.06836947053670883,0.00011192071542609483,-0.11717130988836288,0.032718557864427567,-0.13513615727424622,-0.30241212248802185,-0.08640733361244202,-0.19480925798416138,-0.11050469428300858,0.22348378598690033,-0.08472587913274765,0.11619119346141815,-0.0990786999464035,0.06280611455440521,0.037298429757356644,0.07914163172245026,0.2876155376434326,-0.047185640782117844,-0.21536663174629211,-0.2043810933828354,0.06167290732264519,0.17427587509155273,0.17321839928627014,-0.08430846035480499,0.12677474319934845,0.2067471593618393,-0.076876699924469,0.11613411456346512,-0.15226176381111145,-0.1098761036992073,-0.16255499422550201,-0.18699175119400024,0.08216738700866699,-0.029979467391967773,0.05464623123407364,0.11376262456178665,-0.16877016425132751,-0.19756698608398438,-0.23821184039115906,-0.15383517742156982,0.09298985451459885,0.21293993294239044,-0.00016650673933327198,0.32499629259109497,-0.18580955266952515,0.25438427925109863,-0.03583227097988129,0.13688337802886963,0.2687118351459503,0.1157306581735611,0.1880471259355545,0.31293120980262756,-0.26859530806541443,0.22629238665103912,0.022891171276569366,0.12171009182929993,0.16789430379867554,-0.25033897161483765,0.05894020199775696,-0.1958310306072235,0.13939343392848969,0.05504687875509262,0.003015089314430952,-0.12887820601463318,-0.23272602260112762,-0.09791689366102219,0.0728430226445198,0.20070333778858185,-0.018138140439987183,0.04159679636359215,-0.1732371300458908,0.08088041841983795,-0.1518164426088333,-0.15033376216888428,-0.06115291640162468,0.10662298649549484,0.22815099358558655,-0.1646992713212967,-0.0853625237941742,0.0770590677857399,0.02598476968705654,-0.12080863118171692,0.04958175867795944,-0.0011325820814818144,0.24853193759918213,0.10727597773075104,0.15222075581550598,-0.14473800361156464,-0.1401115506887436,0.001451569958589971,-0.19431065022945404,0.019013453274965286,0.13432127237319946,0.11587930470705032,-0.12557260692119598,-0.18254122138023376,-0.1441468745470047,-0.4038994014263153,0.01636420749127865,0.045002009719610214,-0.12377545237541199,0.059880152344703674,-0.0011873961193487048,-0.21955302357673645,-0.15297646820545197,0.22103294730186462,0.19045692682266235,0.1223289892077446,0.13050420582294464,0.15125153958797455,0.09572362154722214,0.027727486565709114,0.12473517656326294,0.015314923599362373,-0.11707031726837158,0.014852698892354965,0.1768784373998642},{-0.1752244383096695,0.6693624258041382,-0.292758971452713,0.30192849040031433,0.15375563502311707,-0.4856577217578888,-0.4079681634902954,-0.030469750985503197,0.11210719496011734,0.25996026396751404,-0.004161299206316471,-0.27536407113075256,-0.2013806849718094,0.1955496221780777,0.019189370796084404,-0.229916512966156,0.05304810032248497,0.8110934495925903,0.08209960162639618,0.23284171521663666,0.2885216474533081,0.16838091611862183,-0.09892302006483078,-0.21508653461933136,-0.01766662858426571,-0.4299837052822113,-0.15439221262931824,0.2855165898799896,-0.015644097700715065,0.15639697015285492,-0.40345144271850586,0.06770168244838715,-0.08596033602952957,-0.49538835883140564,-0.23745882511138916,-0.21039631962776184,-0.1342334747314453,0.2403002381324768,0.12994347512722015,-0.48606884479522705,-0.6351833343505859,0.6903454661369324,-0.29005131125450134,-0.17612406611442566,0.211068794131279,0.3354349732398987,-0.13912218809127808,-0.048975326120853424,-0.2965518534183502,-0.2523006498813629,-0.4611899256706238,-0.32833290100097656,0.30452650785446167,0.4875725507736206,-0.3852887749671936,0.1608760803937912,0.5591881275177002,-0.07591844350099564,-0.5682342648506165,0.479068785905838,0.2818252146244049,-0.20770186185836792,0.332502543926239,-0.06989405304193497,0.5758128762245178,-0.0018492246745154262,0.35111770033836365,-0.3827084004878998,0.45376116037368774,1.1205538511276245,-0.15565894544124603,0.3118370473384857,-0.28037214279174805,0.2763610780239105,-0.07982508838176727,0.5004015564918518,0.5639732480049133,0.11609780043363571,-0.384330153465271,-0.035753730684518814,-0.3424118757247925,0.02328474260866642,0.6230663657188416,-0.539843738079071,-0.933121383190155,0.064542755484581,-0.29142388701438904,0.17087462544441223,0.6335638761520386,0.6076133251190186,0.3558051288127899,0.15498171746730804,-0.38067540526390076,-0.41125282645225525,0.27640965580940247,-0.2252618670463562,0.8008370399475098,0.2601981461048126,0.3134296238422394,-0.09095944464206696,0.2964077293872833,-0.12524095177650452,-0.2680095434188843,-0.16889584064483643,-0.16008110344409943,-0.045062996447086334,0.1495516449213028,-0.0045807803981006145,0.3741379678249359,-0.06123771518468857,0.1055515706539154,-0.09727650880813599,-0.03833543881773949,-0.12089155614376068,0.49782028794288635,0.7078871130943298,0.449858158826828,-0.11167492717504501,-0.2430586963891983,0.42193177342414856,-0.2011837363243103,0.0963994562625885,-0.12245777994394302,-0.07218679040670395,0.2468673437833786,-0.4490232467651367,-0.22135379910469055,-0.2274874746799469,0.21995864808559418,-0.08687266707420349,0.24681802093982697,0.11255434900522232,0.47404131293296814,0.7512601613998413,1.33289635181427,0.04075106605887413,-0.24539628624916077,-0.33612969517707825,0.11078035086393356,-0.3001270592212677,0.13844197988510132,0.06062127277255058,-0.6065008044242859,0.19423814117908478,-0.7313664555549622,0.01250416785478592,-1.0204983949661255,0.19028334319591522,0.30750197172164917,0.05794886127114296,-0.6083893179893494,-0.0011514192447066307,0.562590479850769,0.2145395576953888,0.8321039080619812,0.029650483280420303,0.1612815260887146,0.26068878173828125,0.41754254698753357,0.16638138890266418,-0.3418130874633789,-0.20475253462791443,0.16911959648132324,0.15855999290943146,0.686432957649231,-0.20374789834022522,0.11423447728157043,0.3711621165275574,-0.43319109082221985,0.16046084463596344,0.11739321798086166,0.16697517037391663,-0.3179563581943512,-0.11823289841413498,-0.4622151553630829,-0.8118093609809875,-0.7682836055755615,-0.12838059663772583,-0.3212878108024597,-0.3081114590167999,0.7527390122413635,-0.2927560806274414,-0.01626618206501007,0.12681372463703156,0.1602480113506317,-0.3495999872684479,0.14544445276260376,-0.37775370478630066,0.271305650472641,-0.219837486743927,-0.21288879215717316,0.1466255635023117,-0.08569573611021042,0.1255442351102829,0.061743877828121185,0.043515127152204514,0.1620623767375946,-0.23312608897686005,-0.03577117621898651,0.38767898082733154,0.3141503930091858,0.5468946695327759,0.2915783226490021,0.3466727137565613,-0.44095638394355774,-0.5696096420288086,0.2132079303264618,0.28129422664642334,-0.21762004494667053,-0.11119873076677322,-0.27609074115753174,-0.12335388362407684,0.3594054579734802,-0.5774236917495728,-0.0242252666503191,-0.36226657032966614,-0.6122132539749146,0.34653428196907043,0.19622310996055603,0.25513577461242676,0.1525159478187561,-0.23742246627807617,-0.19930316507816315,-0.20940455794334412,-0.12644381821155548,-0.2750871777534485,-0.1462489366531372,0.06442949175834656,0.22479821741580963,0.28773555159568787,-0.2492285519838333,-0.34641191363334656,0.25399959087371826,-0.4457099139690399,0.16440483927726746,0.3014109134674072,-0.6790671348571777,-0.33242321014404297,-0.2822759449481964,-0.05498163774609566,0.269467830657959,0.376167356967926,0.4261593520641327,-0.9224057793617249,-0.21368375420570374,0.15525691211223602,-0.4506610333919525,0.1883089393377304,-0.444021075963974,-0.5044543743133545,-0.26228174567222595,-0.9917043447494507,-0.3426523804664612,0.1421317607164383,-0.42132970690727234,-0.007021715398877859},{0.07274413108825684,-0.5756991505622864,0.035882189869880676,-0.22266972064971924,0.10158251225948334,-0.3012806475162506,-0.3789936602115631,-0.20017647743225098,0.32010576128959656,-0.27237656712532043,0.31163424253463745,0.048299502581357956,-0.2628585994243622,-0.16036567091941833,-0.3236932158470154,-0.10753171145915985,0.3571229577064514,0.2056860774755478,-0.13255253434181213,0.16287334263324738,0.28163203597068787,0.05094784125685692,0.30660802125930786,0.405211478471756,-0.38058561086654663,-0.22161760926246643,0.286680668592453,0.25001060962677,0.06797505170106888,-0.29396486282348633,-0.14655724167823792,0.19462519884109497,-0.00030001846607774496,-0.198334738612175,0.10593658685684204,0.22077332437038422,0.3342297077178955,-0.20481683313846588,-0.04518422484397888,-0.29082968831062317,0.3895987272262573,-0.27393561601638794,0.12898506224155426,-0.13536427915096283,-0.04059677571058273,-0.16012042760849,-0.04183915629982948,-0.1013740822672844,0.013662084005773067,0.26794081926345825,-0.24303698539733887,0.001990963239222765,-0.2927359640598297,0.2690047025680542,-0.33567163348197937,0.05740835890173912,0.03252983093261719,0.062020402401685715,0.28395915031433105,0.23072242736816406,-0.33919405937194824,0.12836752831935883,0.0027110876981168985,-0.020786993205547333,0.2995253801345825,0.27849677205085754,0.3718979060649872,-0.256730854511261,0.28355130553245544,0.015520087443292141,0.09473229199647903,0.2828405499458313,-0.2860369086265564,-0.09877841174602509,0.3237961232662201,-0.23537954688072205,0.17416787147521973,0.14710170030593872,0.32360875606536865,0.0029357855673879385,0.1910533756017685,-0.1369468718767166,0.15545672178268433,0.37932294607162476,0.5596907734870911,0.28318411111831665,-0.11379094421863556,-0.24432002007961273,-0.41425612568855286,-0.3566517233848572,-0.44128158688545227,0.2405359297990799,-0.4090292453765869,-0.28205424547195435,-0.0003695827617775649,0.2892715632915497,-0.5502036213874817,-0.12242647260427475,0.10164943337440491,0.13002648949623108,-0.13391493260860443,-0.2234182059764862,0.18480989336967468,0.18222501873970032,-0.4861069917678833,0.352576345205307,-0.39791038632392883,-0.045836132019758224,-0.3067227303981781,0.12073895335197449,-0.3022999167442322,0.02212832123041153,-0.07033130526542664,-0.04418092221021652,0.3872412145137787,-0.31596723198890686,-0.1247512623667717,0.26485922932624817,-0.23077474534511566,0.03688553348183632,-0.003694283775985241,0.27281808853149414,-0.20828528702259064,0.3294178247451782,0.3554965853691101,0.36523401737213135,-0.20076972246170044,0.2828792929649353,0.13141125440597534,-0.1722871959209442,-0.14565536379814148,-0.19668562710285187,0.0183974951505661,0.056976959109306335,-0.2962915599346161,-0.2791476547718048,-0.007142107933759689,0.3245723247528076,0.13322477042675018,-0.09521971642971039,-0.30504220724105835,-0.2831425070762634,0.10123495012521744,0.35881125926971436,0.5543645024299622,-0.15816214680671692,0.4413608908653259,0.28762656450271606,-0.2769312560558319,0.11117645353078842,-0.17704111337661743,-0.20741918683052063,-0.3022478222846985,-0.18354512751102448,0.09669988602399826,-0.047249019145965576,-0.18998482823371887,0.08573832362890244,0.3204362392425537,-0.3264702260494232,0.2947355806827545,-0.011217046529054642,-0.17796620726585388,0.2030899077653885,-0.04955046623945236,0.014555531553924084,-0.20985879004001617,-0.332713782787323,0.14522646367549896,-0.1842362880706787,0.31210649013519287,0.10858811438083649,-0.20317760109901428,-0.28266894817352295,0.24459119141101837,0.3748070001602173,0.449210524559021,0.04782247543334961,0.08461479097604752,-0.2407671958208084,-0.44925180077552795,0.23903943598270416,-0.08364056795835495,-0.09552499651908875,0.27140989899635315,0.3313683569431305,0.18133829534053802,-0.20336997509002686,-0.1540401428937912,-0.27879950404167175,0.14538462460041046,0.29653021693229675,0.14437627792358398,0.10317093133926392,-0.12074286490678787,0.19487600028514862,0.06654909998178482,-0.006532351486384869,-0.15015313029289246,0.04351382330060005,-0.30443745851516724,0.4166371822357178,0.38298583030700684,-0.263245165348053,0.35484060645103455,-0.3235769271850586,0.18122336268424988,0.28658223152160645,-0.09504170715808868,0.1879243105649948,0.23411089181900024,-0.2834228277206421,0.3442228436470032,0.41548359394073486,0.13347075879573822,0.20057153701782227,0.31831222772598267,-0.1375354677438736,-0.15807802975177765,-0.152502179145813,0.0017194405663758516,-0.0938728079199791,0.22967128455638885,0.11139032989740372,0.1724873185157776,-0.3864022493362427,-0.23576198518276215,0.2969839572906494,-0.16486480832099915,-0.18962688744068146,0.270291268825531,0.29537418484687805,0.2542792558670044,0.15633973479270935,-0.2732730209827423,0.45654428005218506,0.5666993260383606,-0.263714075088501,-0.19162116944789886,-0.15404564142227173,-0.2408498376607895,-0.3819091320037842,0.34447047114372253,0.6363818049430847,-0.30645960569381714,0.19341892004013062,0.13982295989990234,0.23186899721622467,-0.33150777220726013,-0.2588912844657898,0.1187189370393753,-0.07965466380119324,0.3034847676753998,-0.21867862343788147,0.04012217000126839,0.05664127692580223},{-0.5381863117218018,0.47342079877853394,-0.6478028893470764,0.04210539534687996,0.17398254573345184,0.45093977451324463,0.07936421036720276,0.1989559680223465,-0.20924684405326843,-0.08398892730474472,-0.005533415358513594,0.6720737814903259,0.5550237894058228,-0.17902007699012756,-0.2683050334453583,-0.2119864672422409,-0.19042392075061798,-0.09745393693447113,-0.5057764053344727,-0.26389703154563904,0.3978446125984192,-0.18990212678909302,-0.15285825729370117,0.18903230130672455,-0.40754300355911255,-0.07908883690834045,0.1974731683731079,0.08328155428171158,0.15865589678287506,0.13111963868141174,0.2939773499965668,0.016781454905867577,-0.5021097660064697,-0.16494245827198029,0.06199377030134201,0.20460784435272217,0.08739292621612549,-0.20451003313064575,-0.5386157035827637,-0.1836097240447998,-0.46666768193244934,0.01037837378680706,-0.5885998606681824,0.14604531228542328,-0.26562291383743286,0.04841994494199753,-0.24052074551582336,0.5644971132278442,0.2807011306285858,0.34558138251304626,0.33058860898017883,0.8312281966209412,0.040517859160900116,-0.3494006097316742,-0.2084178477525711,0.182112455368042,0.16999036073684692,0.08271737396717072,-0.08238238841295242,0.34950652718544006,-0.2090449035167694,0.06984200328588486,-0.007963370531797409,-0.18434321880340576,-0.0820746198296547,0.5357401967048645,-0.45334744453430176,0.5895402431488037,0.179507777094841,0.1190602108836174,-0.8157142996788025,-0.2980038523674011,0.1597089320421219,-0.4559409022331238,-0.08167917281389236,0.16391043365001678,0.21855756640434265,-0.29584771394729614,-0.58064866065979,-0.16416777670383453,-0.5717126131057739,0.4829429090023041,0.10234726220369339,0.18697908520698547,0.07771483808755875,0.2987089157104492,-0.4869377911090851,0.0574948750436306,0.2312304973602295,0.29850488901138306,-0.6457147002220154,-0.35096830129623413,-0.1766912043094635,-0.3223564922809601,0.43659499287605286,0.36437857151031494,-0.28694674372673035,-0.5781230330467224,0.42365771532058716,0.5210224986076355,-0.4301614463329315,0.050541285425424576,-0.3895285427570343,0.08815713971853256,-0.08314947038888931,0.19619682431221008,0.14617131650447845,0.1956942230463028,0.5426633358001709,0.4239582121372223,0.08267834782600403,-0.39422422647476196,-0.45091110467910767,-0.10042136162519455,-0.25461697578430176,0.48910751938819885,0.4858758747577667,-0.4580880105495453,0.3881657123565674,0.29589974880218506,-0.6422205567359924,-0.383998841047287,0.10148276388645172,-0.16869723796844482,-0.034536369144916534,0.44471415877342224,-0.21474702656269073,-0.27219313383102417,0.68169105052948,0.3146216869354248,-0.4318764805793762,-0.010113765485584736,-0.45584914088249207,-0.25392454862594604,0.1691875159740448,-0.16243036091327667,-0.2949571907520294,0.35267335176467896,0.2867712676525116,-0.38304880261421204,-0.1506602168083191,-0.3230865001678467,-0.4542278051376343,-0.10823175311088562,0.49484366178512573,0.4899081587791443,0.22092753648757935,-0.08906759321689606,-0.20747901499271393,-0.3743066191673279,0.20530566573143005,-0.21221892535686493,0.04927431046962738,-0.4949727952480316,-0.5843534469604492,0.1775883138179779,-0.2757238745689392,0.6714181303977966,-0.317653089761734,0.013151243329048157,-0.5702452063560486,-0.5333155989646912,0.023598529398441315,-0.18309080600738525,-0.709346354007721,0.10561981797218323,-0.11098727583885193,-0.09512770175933838,0.5712344646453857,0.06867188960313797,-0.21781201660633087,-0.13787691295146942,0.8328045606613159,-0.2820341885089874,0.08385803550481796,-0.2936128079891205,0.11320781707763672,-0.348647803068161,-0.3139819800853729,0.35708218812942505,0.12920674681663513,0.3130420446395874,0.23844268918037415,0.23336684703826904,0.38988345861434937,0.40909168124198914,0.24474099278450012,-0.7898521423339844,-0.7076038718223572,0.06334128975868225,0.23101454973220825,-0.30202385783195496,-0.08280012011528015,-0.8925895690917969,0.26597219705581665,0.16816966235637665,0.2387334108352661,0.0015277409693226218,-0.1761854887008667,-0.2170548439025879,-0.29352280497550964,-0.8914273381233215,0.1483326107263565,-0.38517844676971436,0.4018153250217438,0.4427028298377991,0.18726564943790436,-0.40719279646873474,-0.027474254369735718,0.13420617580413818,0.26222050189971924,0.11811383068561554,-0.06471454352140427,-0.4731043577194214,-0.2603684365749359,-0.42109760642051697,0.12387479096651077,0.44891759753227234,-0.6581459641456604,-0.22982922196388245,0.16390065848827362,-0.10952815413475037,0.4878598749637604,0.34998807311058044,0.06862466037273407,0.042757172137498856,-0.020358378067612648,-0.54206383228302,0.09212286025285721,0.5379146337509155,-0.6713948249816895,0.08435110002756119,0.3240850567817688,-0.43164777755737305,0.45455119013786316,0.3393673002719879,0.9566906690597534,0.05786144733428955,0.35041511058807373,0.08176862448453903,0.10249734669923782,0.07747086137533188,-0.2548620104789734,-0.3658811151981354,0.02458624355494976,0.19806008040905,0.11190435290336609,-0.5130085349082947,0.2970976233482361,-0.302364319562912,0.01756458543241024,-0.1441800445318222,0.059634026139974594,0.10868391394615173,0.13664741814136505,0.2428550124168396},{0.07868169993162155,0.05531710013747215,0.08386961370706558,-0.0005154159152880311,0.0085494015365839,-0.04601779580116272,-0.02686486765742302,-0.03423943743109703,0.06636093556880951,0.01704569160938263,0.060296595096588135,-0.09992742538452148,-0.07521651685237885,-0.002088104607537389,0.010308966040611267,-0.028773857280611992,0.02932397834956646,0.0009384125005453825,0.14971329271793365,0.0467514768242836,-0.02446356788277626,0.04935280978679657,0.05417438969016075,0.017603319138288498,0.04995860904455185,0.03185625001788139,-0.019486606121063232,0.015446169301867485,-0.058564890176057816,-0.034345220774412155,-0.10758097469806671,-0.033745892345905304,0.042844876646995544,-0.017851348966360092,-0.0696428194642067,-0.04266057163476944,0.04899727925658226,0.03140765428543091,0.06196387857198715,0.045922838151454926,0.009267766959965229,0.10957486182451248,0.0489305816590786,-0.0818336084485054,0.07815781980752945,0.04592232406139374,0.2670694589614868,-0.07936525344848633,-0.05363646149635315,-0.06381762027740479,-0.12086859345436096,-0.1048431247472763,0.015915684401988983,0.06814280897378922,-0.01950855553150177,-0.03455837070941925,0.037852246314287186,-0.04558124393224716,0.0038905050605535507,-0.020009314641356468,-0.029926426708698273,0.03571328520774841,0.034531399607658386,0.03377661854028702,0.00736507261171937,0.0012383204884827137,0.03265804424881935,-0.03634228929877281,-0.0454254075884819,0.03141423314809799,0.140309676527977,0.053187377750873566,-0.031077701598405838,0.047641023993492126,0.017194218933582306,-0.005417393054813147,-0.12245155870914459,0.062304724007844925,0.00871580932289362,0.05190441384911537,0.08863213658332825,-0.05853075161576271,-0.03124808892607689,-0.04499063268303871,-0.057393502444028854,-0.048563018441200256,0.07773226499557495,0.041756290942430496,-0.03981588035821915,0.004730456043034792,0.18835705518722534,0.10570453852415085,0.15831542015075684,0.04826606065034866,-0.01921982876956463,-0.07769312709569931,0.04578587785363197,0.09337029606103897,-0.029725858941674232,-0.04647022485733032,0.015029611065983772,0.0030686580576002598,0.0715281218290329,-0.020046865567564964,0.10953240096569061,-0.08544574677944183,0.030812090262770653,-0.030883722007274628,-0.06729964911937714,-0.1069074273109436,-0.06117849051952362,-0.008913002908229828,0.012434529140591621,0.06720560789108276,-0.01133820228278637,-0.0794307067990303,-0.1102309376001358,0.07012754678726196,-0.0818544551730156,0.040672607719898224,0.06351155787706375,0.05843489617109299,-0.08069420605897903,0.019607290625572205,0.0648980587720871,-0.07862818241119385,0.06055222451686859,0.0702054351568222,-0.0704127699136734,-0.0618157722055912,0.014030585996806622,0.037965934723615646,-4.1677507397253066e-05,0.07935871183872223,0.04824741184711456,0.022346127778291702,0.03277762979269028,-0.10581560432910919,0.030390216037631035,0.03612400218844414,0.08195964246988297,0.03822056204080582,-0.008414845913648605,0.05892985314130783,-0.07508561760187149,-0.044027701020240784,-0.057507436722517014,0.054042499512434006,0.02085847221314907,0.11477042734622955,-0.002727857092395425,0.03731440380215645,-0.0582662969827652,0.019226333126425743,0.06183170527219772,-0.05769861489534378,0.1083025261759758,-0.1438903957605362,0.0417247898876667,0.10357891023159027,0.0898839607834816,0.04350379854440689,0.009483538568019867,-0.0011215771082788706,0.10494625568389893,-0.005373009946197271,-0.027297738939523697,0.0574927031993866,-0.026618681848049164,-0.022910265251994133,0.02007273957133293,-0.005410296842455864,-0.044385530054569244,0.07577446848154068,-0.04578794166445732,0.054231204092502594,-0.009533983655273914,0.07641953974962234,0.05262141674757004,-0.039895471185445786,-0.002241138368844986,0.00045361032243818045,-0.07938089966773987,0.015656663104891777,-0.0395684577524662,-0.10236789286136627,-0.020957306027412415,0.11883603781461716,0.07803213596343994,-0.046096399426460266,-0.0847216546535492,0.12511321902275085,0.02655765600502491,0.07683344185352325,0.00467782374471426,-0.011416886001825333,0.05328507348895073,-0.024968937039375305,0.05474482476711273,0.06332992762327194,0.18736137449741364,0.057336267083883286,-0.02913203276693821,0.06043921411037445,-0.09793902188539505,-0.026606842875480652,0.02600759081542492,0.039720434695482254,0.010451492853462696,0.03996028006076813,-0.04945636913180351,-0.03594553470611572,0.02540823258459568,-0.07420723140239716,-0.02218995988368988,0.07244873046875,-0.037207454442977905,-0.01668686605989933,0.12530094385147095,0.030762329697608948,-0.008968206122517586,0.0020278978627175093,-0.12157858163118362,-0.03666314110159874,-0.01571984775364399,0.01458686962723732,0.04955679550766945,0.029318923130631447,-0.020470118150115013,-0.09658276289701462,0.03292029723525047,-0.059143032878637314,-0.06201167777180672,0.10098806768655777,-0.09692241996526718,-0.08934536576271057,-0.10689321905374527,0.01777031645178795,-0.0823759213089943,-0.017207277938723564,0.036868687719106674,0.0487547293305397,0.01664094813168049,-0.04306136071681976,0.006515089422464371,-0.007527163252234459,-0.08071152120828629,0.06874402612447739,-0.02492762915790081,0.051153380423784256,0.005176754202693701,-0.04666641354560852,0.05679453909397125,0.003508042311295867,0.012304836884140968,-0.06826911121606827},{-0.017472874373197556,0.1063152328133583,0.05432501062750816,0.01634928211569786,0.09808635711669922,0.03972646966576576,0.2063465118408203,-0.07901003956794739,-0.028105080127716064,-0.05887248367071152,-0.05906662344932556,-0.13918302953243256,0.012120392173528671,0.05009060353040695,0.035563819110393524,0.035980723798274994,-0.022877931594848633,-0.10758118331432343,0.15905606746673584,-0.08965571224689484,0.10522571206092834,-0.03892584517598152,0.07429660856723785,-0.04200296103954315,0.23640076816082,0.0369199700653553,-0.07952690869569778,-0.015392760746181011,0.006152350455522537,0.04324881732463837,0.02441631257534027,0.051823802292346954,-0.045932337641716,0.10498881340026855,-0.014237440191209316,0.04537816345691681,-0.07373460382223129,-0.03184298425912857,0.03393398970365524,0.11083973199129105,-0.12148775905370712,0.28435492515563965,0.036292143166065216,-0.022102409973740578,-0.03547735884785652,-0.024364639073610306,0.5209091305732727,-0.058003608137369156,0.04010526463389397,-0.013130071572959423,-0.03702486306428909,0.04122529551386833,-0.013485770672559738,0.03879948705434799,0.28786328434944153,0.03623118996620178,-0.09631387144327164,0.07755017280578613,0.004228226840496063,-0.26997822523117065,0.03218651935458183,-0.11864857375621796,-0.028550751507282257,-0.09618315100669861,-0.13155996799468994,-0.10788187384605408,-0.10142961144447327,0.0281567070633173,-0.15424518287181854,-0.04340950772166252,-0.0602327436208725,-0.052488211542367935,0.06023498624563217,0.11545656621456146,-0.033257946372032166,-0.0643298327922821,-0.1779337227344513,-0.08813308924436569,-0.0633249580860138,-0.06894858181476593,0.038913339376449585,-0.07574160397052765,-0.0784856304526329,-0.06821876019239426,-0.044300295412540436,-0.0711696669459343,0.13486407697200775,0.021375425159931183,0.10814142227172852,-0.0004248486366122961,0.18539279699325562,-0.09149832278490067,0.2854475975036621,0.3369441330432892,0.06848930567502975,0.0012865825556218624,0.05738094821572304,0.1762554943561554,0.09785037487745285,-0.09337534755468369,-0.00047193103819154203,-0.05645677447319031,-0.20100070536136627,0.04558440297842026,0.2689530849456787,-0.09945683181285858,0.0011226534843444824,-0.015560314990580082,0.21806679666042328,-0.02727043814957142,-0.205855593085289,0.028225421905517578,0.024663526564836502,-0.0509527325630188,-0.27475684881210327,-0.01374285388737917,0.11015662550926208,-0.13278821110725403,0.05790909379720688,-0.014995837584137917,0.04802749678492546,0.015954958274960518,0.012215197086334229,-0.04828687384724617,-0.05378169193863869,-0.051561251282691956,0.006777452304959297,0.04978906735777855,-0.09479324519634247,0.07258474826812744,-0.01994885876774788,-0.041329894214868546,-0.06392703205347061,0.0031137275509536266,0.02810593508183956,-0.007660338189452887,-0.05929180607199669,-0.005816183984279633,0.17426323890686035,-1.6056823369581252e-05,0.10575933009386063,-0.006218074820935726,-0.0061305309645831585,0.019698409363627434,-0.14939716458320618,-0.028646888211369514,-0.05953572317957878,-0.13255399465560913,0.35854431986808777,0.05074106901884079,0.24566107988357544,-0.027578407898545265,-0.3350811302661896,-0.009110759943723679,-0.04304808750748634,0.02178144082427025,0.111121267080307,-0.12113703042268753,-0.13634838163852692,0.3137408494949341,0.051728490740060806,0.05817624554038048,-0.1244175061583519,0.03574362024664879,0.006085339467972517,-0.04251239821314812,0.01334372442215681,-0.029438072815537453,0.047043077647686005,-0.046305298805236816,-0.2212134748697281,0.050586920231580734,0.023313524201512337,0.12438705563545227,0.047767456620931625,-0.0005605372134596109,0.021473044529557228,-0.14006298780441284,-0.14355432987213135,0.06595992296934128,-0.05262273922562599,0.005993331782519817,0.04633347690105438,-0.05123089998960495,0.08222821354866028,0.05309733748435974,0.0691097304224968,0.08531857281923294,0.04266892746090889,0.0514952689409256,0.07930319011211395,-0.02869340404868126,0.054428160190582275,-0.05124177411198616,0.39799031615257263,0.08546176552772522,-0.11775609850883484,0.0576498806476593,-0.029214002192020416,0.14967884123325348,0.06873586028814316,-0.07023541629314423,-0.1498195081949234,-0.04075457900762558,-0.03301021084189415,0.10523568093776703,0.11355432122945786,0.011572047136723995,-0.01015402190387249,-0.0485883504152298,0.03584609553217888,-0.02628008835017681,-0.09195037931203842,-0.10943914204835892,0.018155569210648537,0.055202025920152664,-0.06973567605018616,-0.034666385501623154,0.12094585597515106,-0.014347733929753304,-0.0827602669596672,0.03849441930651665,-0.07665456831455231,0.023030798882246017,0.06268434971570969,0.2140733003616333,-0.031282223761081696,-0.05276446044445038,-0.005073667503893375,-0.03939716890454292,0.029936257749795914,0.012399584986269474,-0.023495931178331375,0.011736317537724972,-0.03374597430229187,-0.18281923234462738,-0.25940385460853577,0.06129582226276398,0.013357714749872684,-0.08031691610813141,-0.01402310561388731,0.133738711476326,-0.2751101553440094,-0.06067968159914017,0.13519065082073212,0.06782442331314087,0.08507132530212402,0.061147574335336685,0.07957073301076889,0.15256045758724213,0.03930933400988579,0.003800523467361927,0.05255278944969177,-0.08382450044155121,-0.0029425742104649544,0.08095236867666245},{-0.015269892290234566,0.35148105025291443,0.2894149422645569,0.046205922961235046,0.11680644005537033,-0.02133500762283802,0.21710824966430664,-0.09350645542144775,0.05789202079176903,-0.05147211626172066,0.048698216676712036,-0.025398021563887596,0.34366869926452637,0.05810883641242981,0.2049618810415268,0.15674374997615814,-0.11828822642564774,-0.10854461044073105,0.17822980880737305,-0.024391720071434975,0.05350545793771744,0.04998929426074028,0.05943995341658592,-0.08468843251466751,0.3150675892829895,0.09155581891536713,-0.07092445343732834,0.08881111443042755,-0.09959365427494049,-0.007101226598024368,-0.09310516715049744,0.06149934604763985,-0.1757308542728424,0.035793744027614594,0.010616544634103775,-0.037799250334501266,-0.14573992788791656,0.03805753216147423,-0.017771616578102112,0.12227489799261093,-0.28289705514907837,0.4240981936454773,0.24483151733875275,-0.06838566064834595,0.08420143276453018,0.04235237464308739,1.3035563230514526,-0.23884736001491547,-0.13366179168224335,-0.08091245591640472,0.22141361236572266,0.21422679722309113,-0.07970193028450012,0.09962385892868042,0.266609251499176,0.048558808863162994,-0.07250380516052246,-0.013443422503769398,-0.02919265255331993,-0.3705211281776428,-0.04707629606127739,-0.08687997609376907,-0.05033493787050247,-0.0044747344218194485,-0.13000334799289703,-0.04954584687948227,-0.07220383733510971,-0.047956567257642746,-0.30103611946105957,-0.18049512803554535,-0.006375977769494057,-0.12729835510253906,0.09620948135852814,0.1218000203371048,0.05954901501536369,-0.04636020585894585,-0.3288334906101227,0.042955219745635986,-0.07847234606742859,-0.054763372987508774,0.34362420439720154,-0.11527945101261139,-0.09092647582292557,-0.06465160101652145,-0.15784524381160736,-0.1194317415356636,0.1994713544845581,0.016054430976510048,0.17859677970409393,0.11869543045759201,0.31880560517311096,0.038640763610601425,0.5715613961219788,0.4879540503025055,0.12929286062717438,-0.09670083224773407,0.09339877963066101,0.08600036799907684,0.15114599466323853,-0.022063659504055977,0.06441175192594528,-0.04423552379012108,-0.1942678838968277,0.029222397133708,0.7266221642494202,-0.21574321389198303,0.12713076174259186,0.000860608764924109,0.2822866141796112,0.0428483672440052,-0.362102210521698,0.06470438092947006,0.043990083038806915,-0.0284818597137928,-0.2483896017074585,0.0425640270113945,0.06340053677558899,-0.13165631890296936,-0.04007679596543312,-0.07964372634887695,0.25086119771003723,0.0895850881934166,-0.008957888931035995,-0.03433575481176376,-0.13332122564315796,-0.020495962351560593,-0.0268623698502779,0.29164525866508484,-0.186249777674675,-0.0390225425362587,0.0037712501361966133,0.05360499396920204,-0.01783025451004505,-0.14026238024234772,-0.12009764462709427,-0.004161967895925045,-0.1422671526670456,-0.1482006162405014,0.19511935114860535,-0.1152891218662262,0.1937795728445053,-0.09397109597921371,0.08574922382831573,0.018305638805031776,-0.17871952056884766,0.19357053935527802,-0.10771047323942184,-0.29476144909858704,0.32790637016296387,0.47729504108428955,0.25771695375442505,-0.1131109818816185,-0.7339016795158386,-0.02670811489224434,0.08619644492864609,-0.020763475447893143,0.42285558581352234,-0.32687368988990784,-0.12265906482934952,0.8309194445610046,0.34334948658943176,0.2363545149564743,-0.14131440222263336,0.03092087060213089,-0.1685076504945755,-0.06095706298947334,-0.020619183778762817,-0.0079431077465415,-0.06270988285541534,-0.20899011194705963,-0.2519952654838562,0.03478281572461128,-0.1468009650707245,0.1636618971824646,0.004245559684932232,0.10490472614765167,-0.043201569467782974,-0.07284314185380936,-0.20665094256401062,0.12956759333610535,-0.018533390015363693,0.10057907551527023,-0.10667145997285843,-0.07564810663461685,0.028000440448522568,0.12187512964010239,0.021659836173057556,0.390999972820282,0.07391901314258575,0.13083887100219727,-0.10519550740718842,0.16512233018875122,0.13609781861305237,-0.06573914736509323,0.49136701226234436,0.09232334047555923,-0.00234358012676239,0.11712979525327682,0.03486465662717819,0.12034966051578522,-0.007594808470457792,0.1935662478208542,-0.4582849144935608,0.10003956407308578,0.12286445498466492,0.009137587621808052,0.09628389030694962,-0.23845931887626648,-0.0260503888130188,-0.08073601126670837,-0.060229234397411346,-0.044726647436618805,-0.27543875575065613,-0.5567187666893005,0.059286657720804214,0.24646762013435364,-0.0820106491446495,-0.14515893161296844,0.2205478996038437,-0.006582718342542648,-0.20578129589557648,0.07819124311208725,0.1156601831316948,-0.09574069827795029,0.04473159834742546,0.3348638117313385,-0.0878981277346611,-0.14964747428894043,0.02395014651119709,-0.33254310488700867,-0.15353436768054962,-0.04669201374053955,0.022411907091736794,-0.03242528438568115,-0.27273133397102356,-0.47824952006340027,-0.17309723794460297,0.015582507476210594,0.10200078040361404,-0.10003931820392609,0.011278563179075718,0.12317925691604614,-0.24632813036441803,-0.22569648921489716,0.11581166088581085,0.03831956163048744,0.025972716510295868,0.09570453315973282,0.11183979362249374,0.09186272323131561,0.03870197385549545,0.09369140863418579,0.05051177740097046,-0.0712917223572731,-0.010147124528884888,0.020098861306905746},{0.05727346986532211,-0.07058330625295639,0.044020120054483414,0.059187598526477814,0.054864950478076935,-0.03895163908600807,0.1279572993516922,-0.04097364470362663,0.009557291865348816,-0.10115931183099747,0.018994323909282684,0.03764691948890686,0.10570640861988068,-0.0001392150588799268,0.1076422929763794,0.09823084622621536,-0.02472238428890705,-0.0539814718067646,0.1455250233411789,-0.03834468126296997,0.0014096556697040796,-0.022008903324604034,0.018776237964630127,-0.008596399798989296,0.10063175112009048,0.050680357962846756,-0.06370861083269119,0.0027279583737254143,-0.09827966243028641,-0.033344052731990814,0.044030893594026566,0.014006953686475754,-0.05674716830253601,0.12590976059436798,0.0044083972461521626,0.012215342372655869,-0.09385500848293304,-0.02461451292037964,0.0032085496932268143,0.06239120662212372,0.010744151659309864,0.24608193337917328,0.06761733442544937,0.0076299128122627735,-0.016098331660032272,0.019623659551143646,0.4557373523712158,-0.10300513356924057,-0.018523741513490677,0.020802650600671768,0.14320236444473267,0.1596582531929016,-0.10091107338666916,0.07724103331565857,0.15103639662265778,0.04124520346522331,-0.18660327792167664,-0.012674625031650066,0.10468708723783493,-0.21754994988441467,0.021752454340457916,-0.03249393776059151,-0.01748771406710148,0.02858986333012581,-0.06770195811986923,0.03787598758935928,0.03717409074306488,-0.050640106201171875,-0.14858922362327576,-0.12612028419971466,-0.036879800260066986,-0.13399584591388702,0.08080591261386871,0.05626075342297554,0.0399523600935936,-0.15420696139335632,-0.17885848879814148,0.0006332942866720259,0.08833137899637222,-0.0628368929028511,0.07050460577011108,-0.006916087120771408,-0.056526247411966324,0.04360856115818024,0.1508389562368393,-0.05862237885594368,0.12722653150558472,-0.012935824692249298,-0.04006292298436165,-0.01734098792076111,-0.06318232417106628,0.004057144746184349,0.2028340995311737,0.261357843875885,0.004185845144093037,0.018250932916998863,-0.13891851902008057,-0.04683857411146164,-0.015377258881926537,0.005076354835182428,0.0387008860707283,-0.027120420709252357,-0.05281384661793709,0.05166323482990265,0.22496861219406128,-0.018644100055098534,-0.10885436087846756,0.010202041827142239,0.11914585530757904,0.07337094098329544,-0.2944340109825134,0.030543005093932152,0.03365413844585419,-0.024888651445508003,-0.14141564071178436,-0.1830177754163742,0.04236578196287155,-0.007421799469739199,0.013224919326603413,-0.0373685285449028,0.042705364525318146,0.039588525891304016,0.0062978677451610565,0.03130389377474785,-0.0669785887002945,-3.895595364156179e-05,-0.025911223143339157,0.08733069151639938,-0.01422110665589571,0.029553808271884918,0.030815238133072853,0.016660640016198158,0.014950775541365147,-0.07364498823881149,-0.1545294225215912,-0.051517706364393234,-0.04197792336344719,0.07412084192037582,0.05609710514545441,0.03550233319401741,0.09411114454269409,-0.03712726756930351,0.10113951563835144,0.051059238612651825,0.08745796978473663,0.09176163375377655,0.09951182454824448,-0.19303655624389648,0.17748500406742096,0.17264758050441742,0.18741661310195923,-0.062424324452877045,-0.6058489084243774,0.022704120725393295,0.09057837724685669,-0.0070397150702774525,0.13063979148864746,0.0006955665303394198,-0.06114336848258972,0.4694717526435852,0.06296078115701675,0.06923969835042953,-0.11463713645935059,0.017586296424269676,-0.15017087757587433,-0.014567729085683823,0.002838265150785446,-0.0672396719455719,-0.061157938092947006,-0.07516495138406754,-0.1512482464313507,0.0023452325258404016,-0.10875802487134933,0.05789121985435486,0.09008199721574783,0.14795948565006256,0.1443040817975998,-0.03769422695040703,-0.04266858473420143,0.07339607179164886,-0.1995289921760559,0.03405321016907692,-0.025608623400330544,0.006340193096548319,0.03501780331134796,0.053490474820137024,0.00027298147324472666,-0.004285683389753103,0.0037764222361147404,0.0716002881526947,0.01996685564517975,0.03606812283396721,0.06355304270982742,0.01580827496945858,0.33080941438674927,0.010772136971354485,-0.03039872832596302,0.0776834487915039,-0.026015490293502808,0.03386038541793823,-0.27481555938720703,0.1422441005706787,-0.1978394240140915,-0.025240493938326836,0.14786168932914734,-0.017232172191143036,0.038199715316295624,-0.03462710976600647,-0.052744876593351364,-0.014155571348965168,-0.0077186827547848225,-0.009992272593080997,-0.1249968484044075,-0.059613026678562164,0.019728902727365494,0.05632312223315239,0.048582207411527634,-0.08803166449069977,0.03814394772052765,-0.03366473689675331,-0.12867245078086853,0.018457263708114624,0.18778617680072784,0.004423816688358784,0.052677638828754425,0.14564678072929382,-0.05763166397809982,-0.007509625516831875,0.024723434820771217,-0.06478151679039001,0.07587195932865143,0.03582852706313133,-0.027029382064938545,0.08050692081451416,-0.05195750668644905,-0.06718436628580093,0.12442513555288315,-0.003493242897093296,0.08392634242773056,-0.04120372235774994,-0.030679456889629364,0.010325328446924686,-0.14546726644039154,0.12261926382780075,0.03487814962863922,0.021295592188835144,0.121226467192173,0.05444415286183357,0.014437451027333736,0.09657097607851028,0.007755017373710871,0.049337856471538544,-0.0323202908039093,-0.07643371820449829,-0.02980019897222519,0.02666870504617691},{-0.1685589849948883,0.00443335622549057,-0.04499512165784836,0.11862467229366302,-0.0025852012913674116,-0.06772579997777939,0.09036001563072205,0.0007320449803955853,-0.22894835472106934,-0.10359647870063782,0.11309557408094406,0.011896749958395958,0.3466598391532898,-0.004198502749204636,0.06487880647182465,0.014537731185555458,0.024286620318889618,-0.021047668531537056,-0.08641070127487183,0.04705626145005226,-0.15184277296066284,0.054045744240283966,-0.1199626624584198,0.014819587580859661,-0.035030897706747055,-0.003530991030856967,0.10649904608726501,0.018284067511558533,-0.14958295226097107,-0.03388209268450737,-0.05080800503492355,-0.10356646031141281,-0.057363055646419525,0.22589823603630066,-0.05185967683792114,-0.05069218948483467,-0.04038907214999199,-0.14389164745807648,0.010121723636984825,-0.0005213868571445346,-0.05710725486278534,0.3401716649532318,-0.042687587440013885,0.008188106119632721,0.0347246453166008,0.0008741505444049835,-0.8958797454833984,-0.017466481775045395,-0.05860789120197296,0.04501951485872269,0.25309619307518005,0.6318224668502808,-0.12741824984550476,0.10559146851301193,0.04714410752058029,0.0035243374295532703,-0.24082712829113007,-0.027537362650036812,0.1295415312051773,-0.054648257791996,0.018818847835063934,-0.05803102254867554,0.06685620546340942,0.04273058474063873,-0.13011790812015533,0.04530927911400795,0.040157344192266464,-0.037665802985429764,0.02093573845922947,-0.21570169925689697,-0.4164906144142151,-0.2909025549888611,-0.015556692145764828,0.03327131271362305,0.00964693259447813,-0.06063392385840416,-0.032537657767534256,-0.03000626713037491,0.08744684606790543,-0.06776083260774612,-0.010833908803761005,0.09299127757549286,-0.00603523151949048,-0.17140094935894012,0.17643515765666962,0.0022525410167872906,-0.30107834935188293,0.059266142547130585,0.09366408735513687,0.18472228944301605,-0.31170934438705444,0.14466582238674164,-0.12572617828845978,0.07009603083133698,-0.09184087812900543,0.03585599362850189,-0.05400247126817703,-0.033183664083480835,-0.08688192069530487,0.035870201885700226,0.0418197438120842,0.05148465558886528,-0.12158795446157455,-0.05533342808485031,-0.06659993529319763,0.45175591111183167,-0.08092334866523743,-0.008570031262934208,0.5283134579658508,0.4061778485774994,-0.10160939395427704,-0.021512992680072784,-0.006940190214663744,0.06591816991567612,-0.08923260867595673,-0.05765404924750328,0.4539060890674591,-0.1149362176656723,-0.06864982843399048,0.15408502519130707,-0.02649611420929432,0.04273687303066254,-0.10554655641317368,0.11038389801979065,0.09897363930940628,0.027153102681040764,-0.11134795099496841,-0.026513833552598953,0.11664368212223053,-0.09686663746833801,-0.013760422356426716,0.03287847340106964,0.047702863812446594,0.08979836106300354,-0.05199213698506355,-0.030507072806358337,-0.0826084315776825,0.07908288389444351,-0.10561492294073105,0.11915264278650284,-0.13389825820922852,0.007755595725029707,-0.12118912488222122,0.3035770058631897,0.08833302557468414,0.2881443202495575,0.22622014582157135,-0.032739996910095215,0.16090986132621765,-0.37134453654289246,0.28624579310417175,0.0023950368631631136,-0.24633686244487762,-0.07420062273740768,0.23321931064128876,-0.04505986347794533,-0.1645384579896927,0.2037964165210724,-0.045341309159994125,0.6290673017501831,-0.10832849144935608,-0.08953353017568588,0.001227308064699173,-0.04721582680940628,-0.05926777794957161,-0.03526173532009125,-0.014643889851868153,-0.07320551574230194,-0.10539867728948593,0.039949931204319,-0.3633193075656891,-0.05528595671057701,-0.11316443234682083,-0.09857366979122162,0.11588936299085617,-0.2283405363559723,0.11948821693658829,-0.031915850937366486,0.020966237410902977,0.1045917272567749,-0.025835782289505005,0.17298774421215057,-0.11682886630296707,0.056226473301649094,-0.15234626829624176,0.1289183348417282,-0.11653728038072586,-0.15167276561260223,-0.06899148225784302,-0.061426062136888504,-0.010429104790091515,-0.008768890053033829,0.055946819484233856,-0.13459554314613342,0.2955535650253296,-0.11461610347032547,-0.08468524366617203,-0.018129246309399605,0.051625557243824005,-0.0065384977497160435,-0.6935305595397949,0.16677889227867126,0.01483257208019495,0.05734073743224144,0.17906653881072998,0.07083208113908768,-0.036728739738464355,0.1518600434064865,0.00205026613548398,0.08046592026948929,-0.03396357595920563,-0.005904396530240774,0.059283751994371414,-0.35577115416526794,-0.049769021570682526,-0.015118459239602089,0.004801993723958731,0.030730420723557472,-0.24625062942504883,0.025552647188305855,-0.0437823086977005,-0.11198341101408005,0.5237811803817749,0.005408470518887043,0.029830077663064003,0.1287926286458969,0.033320050686597824,0.11480110883712769,0.006302704103291035,0.03661753609776497,-0.2907252907752991,-0.03863902390003204,-0.11284956336021423,0.02980893850326538,-0.0032126307487487793,0.36711564660072327,0.08709327131509781,0.04708848148584366,0.09389372915029526,0.018137676641345024,0.0139384176582098,0.27765581011772156,-0.1060517355799675,0.05270089581608772,0.05160374194383621,-0.017603809013962746,0.25253620743751526,0.0771057978272438,-0.04599898308515549,-0.006388809997588396,-0.06708560883998871,0.04486576467752457,-0.3799946904182434,0.08184220641851425,-0.05112212523818016,-0.031621888279914856},{-0.16429635882377625,-0.21362966299057007,-0.06086531654000282,0.05557174235582352,-0.01664661429822445,0.04124118760228157,0.21807557344436646,0.0007531290175393224,-0.3603046238422394,-0.17784063518047333,-0.029203210026025772,-0.05379970744252205,0.14633060991764069,0.013527619652450085,-0.017315039411187172,0.044275179505348206,0.0008961912826634943,-0.26624536514282227,-0.10867432504892349,-0.03745132312178612,-0.06545852869749069,-0.07211820036172867,-0.061728350818157196,0.027180086821317673,-0.020146258175373077,0.0396900400519371,0.09792472422122955,-0.14643844962120056,-0.042143065482378006,0.040358174592256546,0.13762910664081573,-0.05558927729725838,0.01400268729776144,0.4422053396701813,-0.008660506457090378,0.07616639137268066,-0.04306827113032341,-0.22874855995178223,0.011701914481818676,0.13591009378433228,0.07550489902496338,0.1037634089589119,-0.01034691371023655,0.16583190858364105,-0.11335180699825287,-0.13148273527622223,-1.4133925437927246,0.045178867876529694,0.1291511505842209,0.11416894942522049,0.238834947347641,0.5002329349517822,-0.12155098468065262,0.019625021144747734,0.2215024083852768,-0.010238789953291416,-0.47560983896255493,0.08292262256145477,0.2811362147331238,-0.20682062208652496,0.05643727257847786,-0.05565841123461723,-0.01957947202026844,-0.06363633275032043,-0.3308210074901581,-0.05131078511476517,-0.06731121242046356,0.03888893127441406,-0.03161972761154175,-0.3782268762588501,-0.5094217658042908,-0.37145668268203735,0.04845493659377098,-0.018718453124165535,-0.06420915573835373,-0.20741361379623413,-0.03787503018975258,-0.21588224172592163,0.014647165313363075,-0.10259095579385757,-0.059623949229717255,0.03908853232860565,-0.09221461415290833,-0.07807557284832001,0.45682433247566223,0.013492523692548275,-0.23006504774093628,-0.010768700391054153,-0.036695417016744614,-0.03608756512403488,-0.3905302584171295,-0.05061468482017517,-0.16839373111724854,0.16928942501544952,-0.025389129295945168,0.12219143658876419,-0.22045917809009552,0.02935938537120819,-0.11577875912189484,-0.017336908727884293,0.0009158891043625772,0.0008633153047412634,-0.13476847112178802,0.002739764517173171,-0.2694805860519409,0.488707035779953,-0.21675889194011688,0.030588705092668533,0.552178680896759,0.34874600172042847,0.023051733151078224,0.04014675319194794,0.05008666217327118,-0.030174871906638145,-0.2285270094871521,-0.17187082767486572,0.49012622237205505,-0.1416328102350235,0.1344955712556839,0.03503035753965378,-0.04285981133580208,0.03264559432864189,0.017281007021665573,0.02319972589612007,0.023237528279423714,0.09983737766742706,-0.03976834565401077,-0.09536135196685791,0.04043813794851303,0.08385613560676575,-0.037509895861148834,-0.11010430008172989,-0.027016567066311836,0.0666087344288826,-0.22409836947917938,-0.04216299206018448,0.01611516997218132,0.2367216795682907,-0.1096966415643692,0.21630631387233734,-0.19842085242271423,0.03099908120930195,-0.004147669766098261,0.20906583964824677,0.22129689157009125,0.10563430190086365,0.5333125591278076,-0.01773851551115513,0.21418718993663788,-0.7621498107910156,0.40972936153411865,0.00317858112975955,-0.10901536047458649,-0.0608782134950161,0.004166081082075834,0.03412041813135147,-0.4166545867919922,0.193184956908226,-0.12072388827800751,0.21176256239414215,-0.10648179054260254,-0.0632653683423996,-0.030645878985524178,-0.0035627016332000494,-0.03514566645026207,0.02524479292333126,0.048251278698444366,-0.16607406735420227,0.02926294505596161,0.07852431386709213,-0.43107518553733826,0.0010022642090916634,0.012556160800158978,-0.05552173778414726,0.24705445766448975,-0.1968543529510498,0.3455495238304138,-0.09323784708976746,0.03212566673755646,0.18826442956924438,-0.24954479932785034,0.15116563439369202,0.06062956899404526,-0.0036426314618438482,-0.06320294737815857,0.15189725160598755,-0.04892953485250473,-0.16532182693481445,-0.08705185353755951,-0.010919895023107529,0.12714409828186035,-0.2751474976539612,0.004756180569529533,-0.1427118182182312,0.29633212089538574,-0.07028337568044662,-0.24997271597385406,0.024218227714300156,-0.023878086358308792,-0.06692758202552795,-0.6623528003692627,-0.04841672629117966,0.10726373642683029,-0.11029426753520966,0.16988299787044525,0.22485706210136414,-0.059691421687603,0.2922922670841217,0.030439818277955055,0.09424415230751038,0.08515664935112,0.013730215840041637,0.03798573091626167,0.06512288749217987,-0.006715752650052309,-0.025582488626241684,0.13389058411121368,-0.02810034342110157,-0.297708123922348,-0.07167646288871765,-0.008424372412264347,-0.055617451667785645,0.38826629519462585,0.10295219719409943,0.07907423377037048,0.17467795312404633,0.035927947610616684,0.059624988585710526,-0.07467152178287506,0.0767631009221077,-0.15595489740371704,0.08433716744184494,-0.15184198319911957,0.09382421523332596,0.05777069926261902,0.39780718088150024,0.08201111853122711,0.15554244816303253,0.12531858682632446,-0.022292129695415497,-0.12776190042495728,0.1928766965866089,-0.238246887922287,0.2890261113643646,0.1084345132112503,0.03950908035039902,0.4132838547229767,0.09293965995311737,0.0026730718091130257,0.16297082602977753,-0.015349054709076881,0.17785204946994781,-0.31864914298057556,0.04535083845257759,-0.011609289795160294,0.08391018956899643},{0.00652630440890789,-0.33313027024269104,-0.050659846514463425,0.15535004436969757,0.020010165870189667,0.005741082597523928,0.01579086296260357,0.06342300027608871,-0.23025256395339966,-0.08693920820951462,-0.10286235809326172,-0.08410608023405075,0.00525878369808197,0.01919163018465042,-0.004858388099819422,0.059920765459537506,0.05209717899560928,-0.01072913222014904,-0.119532510638237,-0.06380142271518707,0.06509804725646973,-0.1022997573018074,-0.08476117998361588,-0.04635119065642357,-0.07886824011802673,-0.03283500671386719,0.05003770440816879,-0.04586979001760483,-0.047810718417167664,0.09075914323329926,0.11395319551229477,-0.028155513107776642,0.0960722267627716,0.25182995200157166,-0.05436145141720772,0.1054225042462349,-0.12273404002189636,-0.21184299886226654,0.07153735309839249,0.0030608822125941515,0.19020220637321472,0.09664592146873474,-0.1285955309867859,0.15799513459205627,-0.1013367772102356,-0.026005331426858902,-1.724159598350525,0.0950649306178093,0.12765686213970184,0.08288068324327469,0.032039228826761246,0.5705655217170715,-0.05290376394987106,0.021357862278819084,0.07351168990135193,0.016614681109786034,-0.4505460858345032,0.019685132429003716,0.24480555951595306,-0.020429428666830063,0.16694550216197968,-0.03242844343185425,0.03337966650724411,-0.07253170013427734,-0.11374744027853012,-0.0740470439195633,0.024585455656051636,0.048696812242269516,0.10651470720767975,-0.1185900941491127,-0.4989057183265686,-0.188288152217865,0.008502088487148285,-0.041155025362968445,-0.11542156338691711,-0.2534220516681671,0.12426593154668808,-0.2215864360332489,0.021249836310744286,-0.048980530351400375,-0.13286152482032776,0.06623515486717224,0.021514080464839935,-0.06946348398923874,0.4095045328140259,0.019838105887174606,-0.1694922298192978,0.007698773872107267,-0.14914309978485107,-0.005457700230181217,-0.42822718620300293,-0.06053280830383301,-0.39031800627708435,0.0024049803614616394,0.04164637252688408,0.06512012332677841,-0.20603860914707184,0.004494790453463793,0.008077545091509819,-0.04899841547012329,0.046877171844244,0.003473614575341344,0.047186534851789474,0.01753290556371212,-0.37180066108703613,0.46339261531829834,-0.3024819791316986,0.07149946689605713,0.3311443030834198,0.24118441343307495,0.03478378802537918,0.04080416262149811,0.10281319916248322,-0.0967421680688858,-0.03689001500606537,-0.18126420676708221,0.34287768602371216,0.032174769788980484,0.14831893146038055,0.06910382956266403,-0.06535432487726212,0.0016188158188015223,0.08632731437683105,-0.02352239191532135,0.01135651208460331,0.05380355939269066,-0.12107758224010468,-0.20964615046977997,0.06822268664836884,0.13133855164051056,-0.00032181848655454814,-0.08421513438224792,0.015398620627820492,0.23368775844573975,0.0007773810066282749,-0.04795815050601959,0.07380715012550354,0.17770729959011078,-0.07522379606962204,0.1159546822309494,-0.21149207651615143,0.032606299966573715,-0.08520516008138657,0.13518372178077698,0.2461611032485962,0.08498190343379974,0.43701228499412537,0.049170639365911484,0.13862966001033783,-0.8299230933189392,0.2350105345249176,0.0053716981783509254,0.011865884996950626,0.006105892825871706,0.0600428506731987,0.06294897198677063,-0.5089316964149475,0.28509196639060974,0.03249632939696312,0.002224154071882367,-0.17447932064533234,-0.13666114211082458,0.011758298613131046,-0.0026617730036377907,-0.004859017673879862,0.07810188829898834,0.14840206503868103,-0.04428567364811897,-0.0015168996760621667,0.17032794654369354,-0.22994697093963623,0.01917271874845028,-0.016312597319483757,-0.11789046227931976,0.15229617059230804,-0.21219676733016968,0.30510494112968445,0.012309795245528221,0.06317112594842911,0.07593294978141785,-0.21773964166641235,0.12862756848335266,0.13808871805667877,0.041414957493543625,-0.013307308778166771,0.1369672268629074,0.0374884195625782,-0.17091265320777893,-0.010968374088406563,0.03608187288045883,0.10397764295339584,-0.2489839494228363,-0.024686986580491066,-0.08518365025520325,0.09363456815481186,-0.027312157675623894,-0.17560574412345886,0.022742995992302895,-0.05884310230612755,-0.03628139942884445,-0.652459979057312,-0.12849166989326477,0.15613864362239838,-0.10730843991041183,0.06460776925086975,0.15027819573879242,0.006677182856947184,0.4286101460456848,-0.025604352355003357,0.06598450243473053,0.06511278450489044,0.022832874208688736,0.128687784075737,0.20233914256095886,-0.02456504851579666,-0.17198531329631805,0.1113668829202652,0.045700669288635254,-0.31807994842529297,-0.04322599619626999,0.05462956428527832,-0.05770169571042061,0.309329628944397,0.0753767192363739,0.05783763900399208,-0.020410070195794106,0.003257178235799074,0.10900828242301941,-0.03316972777247429,0.17253977060317993,-0.12088215351104736,0.06595271825790405,-0.05547543615102768,0.010548915714025497,0.14029227197170258,0.41467177867889404,0.18652303516864777,0.021454066038131714,0.0401582345366478,-0.0302626583725214,-0.1254437267780304,0.10465532541275024,-0.04469434916973114,0.27985385060310364,-0.04017980024218559,0.02660129964351654,0.3004073202610016,0.06365001946687698,-0.11568062752485275,0.035235725343227386,-0.06770442426204681,-0.024694912135601044,-0.3267064392566681,0.07227866351604462,-0.09519119560718536,0.07899774610996246},{0.01771594025194645,-0.09430721402168274,0.02926499955356121,0.03814723715186119,0.03850482031702995,-0.08974530547857285,0.014880172908306122,-0.04584527015686035,-0.18325647711753845,-0.12411004304885864,-0.024702824652194977,-0.09165820479393005,-0.13964229822158813,0.02104196324944496,-0.025985371321439743,-0.004362788517028093,-0.0355101078748703,0.046284519135951996,-0.010570347309112549,-0.09492557495832443,-0.034342896193265915,-0.1244288831949234,0.05763975530862808,-0.007929189130663872,-0.15087196230888367,-0.11518224328756332,-0.006031482480466366,0.03212602064013481,0.07490578293800354,0.03706151992082596,0.1474105268716812,0.025429606437683105,0.003604988567531109,0.01791040599346161,0.04333074018359184,0.09687007963657379,0.0011473629856482148,-0.12364913523197174,5.691472324542701e-07,-0.09129065275192261,0.07620611786842346,0.042183782905340195,-0.04541866481304169,0.07289627194404602,-0.11238701641559601,-0.15471792221069336,-0.40660718083381653,-0.02873787097632885,0.17259548604488373,0.1273232102394104,0.054557908326387405,-0.16590097546577454,-0.1396227329969406,0.06112631782889366,-0.04812033474445343,0.06684166938066483,-0.053602419793605804,0.12383780628442764,0.04438682645559311,0.066175177693367,0.043746575713157654,-0.060225702822208405,-0.054779067635536194,-0.08316689729690552,0.047936927527189255,-0.05781276151537895,0.08881524205207825,-0.07322023063898087,0.1732153445482254,-0.05750877782702446,0.09392601251602173,-0.1741052120923996,0.08315176516771317,-0.04340215027332306,-0.04674084484577179,-0.021064549684524536,0.145452618598938,-0.10033868998289108,0.027260594069957733,-0.08747201412916183,-0.007690501864999533,-0.05233233422040939,0.08326677978038788,-0.012958233244717121,0.22244860231876373,0.13020536303520203,-0.07128287851810455,-0.06393517553806305,-0.055172476917505264,-0.0490470789372921,-0.14208050072193146,-0.06833082437515259,-0.22734248638153076,-0.13111062347888947,-0.020723674446344376,0.09725943952798843,-0.08526153117418289,0.048527076840400696,-0.08097897469997406,0.02445422112941742,0.05684201791882515,-0.07993043214082718,0.03653796389698982,0.05549292266368866,-0.15185195207595825,0.08815384656190872,-0.10248637199401855,0.08454380184412003,-0.021538469940423965,-0.0029103816486895084,0.015647221356630325,0.026381921023130417,0.036801520735025406,0.02065068483352661,0.10599039494991302,-0.11709602922201157,0.04334508255124092,0.01515990775078535,0.13815127313137054,0.010146165266633034,0.04544798657298088,0.07685365527868271,0.0509844571352005,-0.016657710075378418,-0.006482806522399187,0.024816390126943588,-0.07104318588972092,-0.01743103750050068,-0.013486459851264954,0.08499909937381744,0.07487425953149796,-0.10433335602283478,0.12270831316709518,0.1258002519607544,-0.09154505282640457,-0.06310977041721344,-0.011038717813789845,0.19646942615509033,-0.022350795567035675,0.05424268916249275,-0.08165737241506577,-0.07018563896417618,-0.004368887282907963,0.011366646736860275,0.09701278060674667,-0.043685100972652435,0.20369958877563477,0.09508603066205978,0.02606889046728611,-0.24679836630821228,0.0029051005840301514,-0.05832400545477867,0.036592960357666016,0.06744089722633362,0.1471899151802063,0.022465268149971962,-0.2522623836994171,0.031439993530511856,0.08746636658906937,-0.15233080089092255,-0.020757872611284256,0.020932883024215698,-0.015769023448228836,0.02257523126900196,0.1398136466741562,0.008150356821715832,0.06016438454389572,-0.19145166873931885,-0.130099818110466,-0.030057866126298904,-0.06400059163570404,0.0739901140332222,-0.09493231028318405,-0.08718281984329224,0.18250343203544617,-0.06410999596118927,0.12320872396230698,-0.06138358637690544,0.04750402271747589,0.07689511775970459,-0.05123554915189743,-0.042225584387779236,0.05057196319103241,-0.059885431081056595,0.00814835075289011,-0.0013978620991110802,0.016912341117858887,-0.02048696205019951,0.07057982683181763,0.015615363605320454,0.2056983858346939,-0.1588442474603653,0.09017370641231537,0.13689614832401276,0.03301432728767395,0.03212251514196396,-0.1668025553226471,0.039734747260808945,-0.06967565417289734,-0.0033400424290448427,-0.14086975157260895,0.13777713477611542,0.06003718450665474,-0.16877174377441406,-0.022273104637861252,-0.042748164385557175,0.008836144581437111,0.15614071488380432,-0.042177509516477585,-0.013437680900096893,0.14378628134727478,-0.03766043484210968,0.03591164946556091,0.1733735352754593,0.07173637300729752,0.07081019878387451,0.03994934260845184,-0.021218979731202126,-0.0015091209206730127,-0.06705919653177261,-0.046271201223134995,-0.006703377701342106,-0.041301172226667404,0.12656095623970032,0.07485346496105194,-0.08254780620336533,-0.003091785591095686,0.009255638346076012,-0.052533041685819626,0.028133591637015343,0.10980646312236786,0.1530018299818039,-0.024952055886387825,0.04888716712594032,-0.02958044409751892,0.2143983393907547,0.05039636418223381,-0.05043523386120796,0.05806727334856987,-0.045172806829214096,-0.058730628341436386,-0.03258775919675827,0.0659986361861229,0.14135128259658813,-0.029284249991178513,0.06825099140405655,0.13887324929237366,0.09372363984584808,-0.14733919501304626,-0.06870552897453308,0.04301001876592636,0.023676758632063866,-0.09558214247226715,-0.046645909547805786,-0.05589180439710617,0.07566598802804947}};
static const float mlp_2_weight[256][256] = {{3.637317058746703e-05,0.023402821272611618,-0.0008105449378490448,9.417283763468731e-06,-0.22682799398899078,-0.03758253902196884,-0.0021893566008657217,0.008233768865466118,4.692403308581561e-05,-0.0452868677675724,0.037339095026254654,0.00019987078849226236,-0.08841366320848465,0.0006117401062510908,-0.0017672684043645859,0.023656172677874565,-0.05643048137426376,-0.05191534385085106,0.07241649925708771,-0.08641038835048676,1.5325740605476312e-05,1.4047218144241924e-07,0.03386399894952774,-0.00520809693261981,0.050570279359817505,-0.06150020286440849,-0.00014689147064927965,0.013891725800931454,0.0558023527264595,3.215420747437747e-06,0.01783694326877594,-0.0007135486230254173,-0.0019274204969406128,-0.03946902975440025,0.016448475420475006,-0.029974617063999176,4.06148637921433e-06,0.09333332628011703,-0.011448198929429054,0.004404625855386257,0.00042003695853054523,-1.4727771002753798e-08,-0.005229800473898649,-0.027313120663166046,0.20296697318553925,0.025004727765917778,4.292087396606803e-06,-0.09741466492414474,0.056453805416822433,0.0028111909050494432,0.04787006229162216,-0.06411176919937134,0.00619643134996295,0.05215684697031975,-7.613010529894382e-05,-0.16218674182891846,-0.05712353438138962,0.04798420891165733,-0.033733516931533813,-0.1420118659734726,0.111282117664814,0.004360422026365995,-8.404954314755742e-06,1.2428334230207838e-05,-1.1895540410478134e-05,0.012700161896646023,-0.0001547407009638846,0.12400911748409271,-0.023493308573961258,0.0001486948021920398,-0.004929481074213982,-0.09855955094099045,0.10402947664260864,-0.0008609425858594477,0.15628118813037872,-9.70986184256617e-06,-0.11874689161777496,-0.037525881081819534,-0.045121513307094574,0.00021732102322857827,3.9131400626502e-06,0.04295540228486061,3.794659164668701e-07,-0.0002711316046770662,-0.020684435963630676,-0.04274844378232956,0.2035960555076599,-0.0001225206651724875,0.04986373335123062,-0.019653333351016045,-0.04469633847475052,0.10091697424650192,0.07570052146911621,-0.044536199420690536,0.014812885783612728,-0.0011554132215678692,-0.0015610667178407311,-0.04459691420197487,-0.015554242767393589,-0.022791331633925438,0.02327534556388855,-1.3761130503553431e-05,5.241116741672158e-05,0.00028510711854323745,1.0436661796120461e-05,-0.023326052352786064,-4.975509455107385e-06,-0.018534738570451736,-0.00011731408449122682,-0.01650226302444935,0.0070503829047083855,-0.012189674191176891,0.007473655976355076,-0.0008798770140856504,-0.026346463710069656,0.01169198751449585,-0.028603358194231987,0.10177074372768402,1.742241147439927e-05,7.66006633057259e-06,-0.03557276353240013,-6.431497604353353e-05,-3.652546729426831e-05,-0.06160733848810196,-0.009798672050237656,0.007220162078738213,-0.08280444890260696,-0.1281367987394333,-0.09575548768043518,-2.833790313161444e-05,0.02520028129220009,-0.018468031659722328,0.06237831711769104,-0.20508037507534027,7.907514714133868e-07,-0.03325766697525978,-0.0016993620665743947,0.010295959189534187,-2.675785708561307e-07,0.0452481284737587,0.014847622253000736,-0.005381858441978693,-0.039370257407426834,0.0021715599577873945,0.0010965962428599596,0.006273050792515278,0.27304115891456604,-0.00014569752966053784,-0.003468588460236788,-0.02672441117465496,-0.15167666971683502,-0.020725145936012268,-6.327150003926363e-06,-1.011200492939679e-05,0.002467838115990162,-0.010068361647427082,0.03722553700208664,5.9306315961293876e-05,0.00012073169637005776,3.535159748935257e-06,-0.1469057947397232,-1.2446156461010105e-06,0.00032507756259292364,-0.08882281929254532,-0.0001131650569732301,0.010358234867453575,0.14677441120147705,7.905883103376254e-05,-0.003261929377913475,0.015798315405845642,-0.04912496358156204,-0.030666008591651917,0.02514735236763954,-0.12766896188259125,-9.705519187264144e-05,-0.001481016050092876,-0.001498383586294949,0.08344945311546326,0.13118687272071838,0.0011577464174479246,-0.0003171076241414994,0.025422008708119392,0.004190381616353989,1.906978286569938e-05,1.3704112689083559e-07,-0.12420155107975006,0.03124220296740532,5.201219755690545e-05,-0.029086783528327942,-0.029277000576257706,0.017095167189836502,-0.1121894046664238,0.006922519765794277,-0.0022289303597062826,-0.043886616826057434,0.07087740302085876,-0.00016425989451818168,0.19280588626861572,4.221613835397875e-06,-0.043833352625370026,-0.09558717906475067,8.111984470815514e-07,-2.7310341010888806e-07,-0.04721873626112938,-7.231916242744774e-05,-3.072282765970158e-07,-0.29187673330307007,0.058799464255571365,-0.06527139246463776,-0.010504304431378841,7.276634278241545e-05,5.9592907746264245e-06,0.004207865800708532,-1.2251114640093874e-05,8.664720371598378e-05,-8.375156176043674e-05,0.016283657401800156,-6.899790605530143e-07,-2.4545252017560415e-05,-0.0008263152558356524,1.908885138846017e-08,-0.04069778323173523,-0.014251070097088814,-0.13201743364334106,0.013711978681385517,-6.850648333056597e-06,-0.1534724086523056,-0.0012401463463902473,-0.04640161991119385,-0.0006520472234115005,-0.020570755004882812,-0.031640078872442245,0.04153323918581009,-0.0854039117693901,-0.009579021483659744,0.05539647489786148,-0.0008920973050408065,0.05358612537384033,-3.842833757516928e-05,-0.0608387216925621,0.16661791503429413,0.023450711742043495,-5.4437141443486325e-06,0.07023309916257858,0.0414590947329998,0.00915234349668026,-0.06673989444971085,-0.00020329587277956307,0.028432495892047882,0.029486365616321564,-0.00044559978414326906,-0.001746983965858817,0.005730960518121719,9.916877388604917e-06,0.045118264853954315,-4.092264134669676e-06},{1.524715480627492e-05,-0.007817805744707584,0.000684732454828918,2.672891923793941e-06,0.1557975709438324,0.0179208442568779,0.01340450532734394,-0.007542781997472048,2.4231871066149324e-05,0.23570482432842255,0.010590989142656326,-0.0015571627300232649,0.18750829994678497,0.0003359663242008537,0.0026855876203626394,-0.03049159236252308,-0.0035279367584735155,0.029008964076638222,-0.23224538564682007,-0.05086704343557358,-5.967127799522132e-05,-2.3192257003756822e-07,-0.05042615160346031,0.002304523717612028,-0.029617920517921448,0.032025959342718124,0.0002539947163313627,-0.04118838533759117,0.047703031450510025,7.5055359047837555e-06,-0.03194503113627434,0.00014115445083007216,0.0002115411771228537,-0.15308305621147156,-0.03344704210758209,0.008498795330524445,-7.330078233280801e-07,-0.20505426824092865,0.021348679438233376,-0.005917374975979328,-0.0009576831362210214,-5.089021328785748e-07,0.01576652191579342,-0.21448320150375366,-0.07184392213821411,-0.2376958578824997,-1.8496017219149508e-05,0.1960543990135193,0.2957460582256317,-0.005666895303875208,-0.061430737376213074,0.04143262282013893,0.0044646961614489555,-0.05051100254058838,-9.678547212388366e-05,0.19769106805324554,0.05961626395583153,-0.04985591024160385,-0.06237107515335083,0.17907124757766724,0.03771267831325531,-0.0039934441447257996,1.3241229908089736e-06,7.316696428461e-05,8.406486813328229e-07,-0.020119182765483856,4.1159149986924604e-05,-0.18811912834644318,-0.008476556278765202,-0.0012963255867362022,0.00482944818213582,0.04194805026054382,-0.13925200700759888,-8.890492608770728e-06,-0.08898620307445526,0.00034954960574395955,0.18748974800109863,0.3000028133392334,0.20729094743728638,-0.000545358459930867,-5.812172730657039e-06,-0.03281015902757645,-1.234880869560584e-06,8.403920219279826e-05,0.023943183943629265,0.04715767875313759,-0.16594575345516205,0.00014084392751101404,-0.04047410562634468,0.012827038764953613,0.2046339064836502,0.002383601386100054,-0.05281895026564598,0.01347837783396244,-0.015426132827997208,-3.540296165738255e-05,0.00026833568699657917,0.03363734856247902,0.01353314146399498,0.02021624520421028,-0.0241892971098423,2.216947359556798e-05,-0.0002258798631373793,-4.3002964957850054e-05,1.754994627845008e-05,0.030515750870108604,0.000153505738126114,0.02318744733929634,0.00014752110291738063,0.01135318074375391,0.0004965527914464474,0.018523026257753372,-0.0013875497970730066,0.0006334440549835563,-0.08965029567480087,-0.008011432364583015,0.03295367956161499,0.07787125557661057,8.821220944810193e-06,1.6156462152139284e-05,0.0020846682600677013,7.5654556894733105e-06,3.7283658457454294e-05,0.04436212778091431,0.023305272683501244,-0.001171297742985189,0.08675610274076462,0.13004660606384277,-0.02606118470430374,8.88263457454741e-06,0.06690776348114014,0.04114355891942978,-0.037449173629283905,0.4244663715362549,-1.0909092452493496e-05,0.2633001506328583,0.023876730352640152,-0.008813346736133099,8.25065671961056e-06,-0.04635978117585182,-0.041066013276576996,-0.0007562992977909744,0.02154313400387764,-0.0012201654026284814,0.05303693190217018,-0.000556370650883764,-0.0844983160495758,-9.733145270729437e-05,-0.17605873942375183,0.10613861680030823,-0.02398703433573246,-0.09581151604652405,-4.157258899795124e-06,1.536103263788391e-05,-0.0012727355351671576,0.014869900420308113,0.05957862362265587,3.0263385269790888e-05,-4.670502676162869e-06,1.4353109918374685e-06,0.19455452263355255,4.284037640900351e-05,6.416109681595117e-05,0.25209781527519226,-6.1745404309476726e-06,-0.11133287847042084,0.36897769570350647,-0.000560638087335974,0.02551635354757309,-0.03851058706641197,0.01668630912899971,0.11876576393842697,-0.0038592414930462837,0.08500634878873825,-0.0003050081431865692,-0.0008897266816347837,0.0006779939285479486,-0.1387587934732437,-0.03697390481829643,-0.0018172803102061152,-0.0012841568095609546,-0.02269427664577961,0.019949574023485184,-4.518531568464823e-06,-5.88188868277939e-06,0.10747984796762466,-0.037696994841098785,9.66648367466405e-05,0.03148803114891052,0.0569961741566658,-0.040888071060180664,0.2536034882068634,-0.004936552606523037,0.01857772096991539,0.04161340743303299,-0.11252448707818985,0.00015275433543138206,-0.2918506860733032,1.8919570266007213e-06,0.2554391324520111,-0.08476006239652634,4.735343281936366e-06,-4.191411662191058e-08,0.127115860581398,-6.451940134866163e-05,8.664000233693514e-06,0.22925208508968353,0.11110539734363556,0.12374061346054077,0.019616322591900826,-0.0002261914050905034,-3.0217497624107637e-06,-0.0020188672933727503,1.3952848348708358e-05,-0.00012129201058996841,-4.1515806515235454e-05,-0.06659141182899475,9.747473086463287e-07,-3.382438444532454e-05,0.003645582590252161,6.509087597805774e-06,0.03665740042924881,-0.20499280095100403,0.1631738394498825,-0.005478146951645613,-2.4717714950384106e-06,0.050156302750110626,0.0017788686091080308,-0.14030776917934418,0.0003207285772077739,0.047073666006326675,-0.18792536854743958,-0.046672459691762924,0.2619425654411316,0.00795571506023407,-0.053958386182785034,0.0017259486485272646,-0.15801475942134857,-0.00020302175835240632,0.1782807856798172,-0.1250874400138855,-0.03319557011127472,-3.279696329627768e-06,-0.0735856294631958,0.06000511720776558,-0.04414105415344238,-0.02622733823955059,0.00032676811679266393,-0.05464886128902435,-0.07738059014081955,-0.00010330293298466131,0.0023673276882618666,-0.011309284716844559,-2.9893271857872605e-07,0.002975631272420287,-2.7348141884431243e-06},{0.00020175837562419474,-0.03232607617974281,-0.0002495231165084988,4.772053671331378e-06,-0.022501077502965927,-0.01394931972026825,0.04604550823569298,-0.01428115926682949,8.796228939900175e-05,0.0302923284471035,-0.04875072464346886,0.0005441441317088902,-0.023972615599632263,-0.0008722550119273365,2.9844715754734352e-05,0.07281829416751862,-0.02186685800552368,-0.0001524685212643817,0.017452392727136612,-0.02754051424562931,1.9495180822559632e-05,-8.645292268738558e-07,0.09604793041944504,0.010814857669174671,0.0009982817573472857,0.03136531263589859,0.00016540152137167752,0.0800984650850296,0.15575356781482697,-3.6891174204356503e-06,0.0017439796356484294,-0.0015996000729501247,-1.901999166875612e-05,0.05121797323226929,0.09229160845279694,0.036184828728437424,2.1323714463505894e-05,0.07226614654064178,-0.07759521156549454,0.024694662541151047,0.00021809384634252638,-5.737168180530716e-07,0.10256993770599365,0.04078694432973862,0.11112049221992493,-0.17571084201335907,-7.538473437307402e-05,-0.04271017760038376,-0.00022912747226655483,0.022435281425714493,-0.039765071123838425,-0.041368041187524796,-0.015475425869226456,0.013910843059420586,0.0005320581258274615,0.0003254454059060663,-0.028074823319911957,-0.010888079181313515,-0.07459305226802826,0.006396464072167873,0.009384025819599628,0.04389961063861847,3.2007328627514653e-06,0.00012347850133664906,5.530825546884444e-06,-0.007878335192799568,7.465226372005418e-05,0.0391518734395504,0.02105371467769146,0.0006781211122870445,0.011422931216657162,-0.2011723518371582,0.04367978870868683,-0.0005950460908934474,0.2689889371395111,-8.273978892248124e-05,0.033396165817976,-0.055948611348867416,-0.07571849972009659,-5.261219121166505e-05,-1.8066639313474298e-05,0.003678429638966918,-3.362797087902436e-06,0.0005138249834999442,-0.042184434831142426,-0.09684325754642487,0.12253781408071518,-0.0001777452416718006,0.00014948094030842185,-0.05997409299015999,-0.0859563797712326,0.05060505121946335,0.11537884920835495,0.027081718668341637,0.06100504845380783,0.0005809991853311658,5.269018220133148e-05,0.008819103240966797,0.007494283374398947,0.050153087824583054,0.008756764233112335,-1.1461750546004623e-05,6.304928683675826e-05,-0.00014133799413684756,1.732564669509884e-08,-0.039385441690683365,-0.0009705540724098682,0.022028028964996338,4.280971552361734e-05,0.018620455637574196,-0.010113662108778954,-0.040143679827451706,-0.020281191915273666,-0.007971853949129581,-0.103866808116436,0.050533752888441086,-0.05539555475115776,0.008133252151310444,-2.1126174033270217e-05,-2.66023853328079e-05,0.007888889871537685,0.0008727075182832778,0.00012392702046781778,0.029863636940717697,-0.0017228347714990377,0.014423907734453678,-0.04194382578134537,0.13839486241340637,0.01632094383239746,3.860765718854964e-05,0.08996091783046722,-0.09633863717317581,-0.021415187045931816,-0.011615881696343422,-1.4046230717212893e-05,-0.06964382529258728,-0.01710483618080616,-0.01505256537348032,-2.0418945041456027e-06,-0.014907167293131351,0.07214710116386414,0.04018013924360275,-0.008631582371890545,-6.028119969414547e-05,-0.04910791665315628,0.015197807922959328,0.0842612013220787,-1.9958188204327598e-05,-0.025814114138484,-0.0014249722007662058,-0.32130780816078186,-0.09143222123384476,-7.740473847661633e-06,0.00014434089825954288,0.00022106243704911321,-0.08229322731494904,0.045885518193244934,6.458654297603061e-06,-1.8498543795431033e-05,2.805307076414465e-06,-0.013912892900407314,0.00013501083594746888,0.0011505986331030726,-0.06263498216867447,-0.000133426277898252,-0.010358084924519062,0.08160232752561569,-0.00018125724454876035,0.022385209798812866,0.012466411106288433,-0.0062152617610991,-0.1658448725938797,-0.006582746747881174,-0.008142140693962574,0.0023856330662965775,0.0003947310906369239,0.00237511214800179,-0.008718997240066528,0.17888042330741882,0.00034940207842737436,0.0003683729737531394,0.07291986048221588,-0.016682738438248634,0.00010603609553072602,-9.480655535298865e-06,-0.013509353622794151,0.08235958218574524,4.848849130212329e-05,-0.04669646546244621,-0.03578152507543564,0.06376127153635025,-0.05668013170361519,0.001703139627352357,0.10182835906744003,-0.020028546452522278,-0.012082403525710106,0.0002126383042195812,0.02836795151233673,-2.3759009764035e-06,-0.06842944025993347,0.05057185888290405,2.0598839910235256e-05,7.110693900358456e-07,-0.01421266607940197,-0.00010723799641709775,1.0405407010694034e-05,-0.06860682368278503,-0.11468580365180969,-0.017975952476263046,0.066093310713768,0.00021637973259203136,-2.1002840639994247e-06,-0.005597601179033518,7.58848614168528e-07,-0.00013884030340705067,3.9700873458059505e-05,-0.032508961856365204,2.8160543479316402e-06,-7.307239684450906e-06,0.00048655905993655324,1.1273608834017068e-05,-0.008509709499776363,0.0433463491499424,-0.022449258714914322,-0.03620300069451332,-2.4591088276793016e-06,-0.1275138109922409,0.012733180075883865,-0.07783715426921844,-0.000553122372366488,-0.040463536977767944,-0.09415476024150848,0.09152929484844208,0.027570335194468498,-0.006943779997527599,-0.00915991235524416,0.0004401428741402924,-0.0026606423780322075,0.0002555368409957737,-0.05408526211977005,0.26307106018066406,0.0729890838265419,4.961960712535074e-06,0.015899663791060448,-0.07054805755615234,0.004947153385728598,0.03021271713078022,2.4392797968175728e-06,0.08785304427146912,0.14145977795124054,0.00018150803225580603,-6.56529882689938e-05,0.05064321681857109,-4.6616919462394435e-06,-0.026039881631731987,2.7454107112134807e-06},{6.519547605421394e-05,0.004496420733630657,5.444753332994878e-05,1.18091356853256e-05,0.03522217646241188,-0.0022660254035145044,-0.00586281344294548,0.006340874824672937,6.948429654585198e-05,0.01597624085843563,0.010023707523941994,-0.002128715394064784,0.01803731732070446,0.0007976109627634287,0.0002821661764755845,-0.0024988199584186077,-0.07458251714706421,-0.006088546942919493,-0.07130962610244751,-0.025455405935645103,-0.0001451309071853757,-3.7977639522068785e-07,-0.016074324026703835,0.005765678361058235,0.024448711425065994,0.006143317557871342,2.9001408620388247e-05,-0.0028064060024917126,0.006031266879290342,3.225651653337991e-06,0.037444550544023514,-0.0007480738568119705,-0.00357042346149683,-0.15888260304927826,-0.006842424627393484,-0.015114471316337585,-7.2583520704938564e-06,-0.16569949686527252,0.009168107062578201,-0.015800008550286293,-0.00034365386818535626,-4.968025564267009e-07,-0.04273706302046776,-0.1328703910112381,0.07437889277935028,0.06958147138357162,-2.353577656322159e-05,-0.06071709841489792,0.10452530533075333,-0.01215631328523159,-1.872048233053647e-05,-0.02460990659892559,0.00260170572437346,0.008882533758878708,-6.107291847001761e-05,0.03610517829656601,-0.011055171489715576,-0.07515690475702286,-0.03632885217666626,0.05768216773867607,-0.04048866033554077,-0.0068820263259112835,-2.60594629253319e-06,9.396296081831679e-05,-5.079739821667317e-06,-0.009481463581323624,2.235949068563059e-06,-0.07735412567853928,0.016081439331173897,-0.0026454597245901823,-0.0002552980440668762,0.027545752003788948,-0.00485264603048563,2.4818751626298763e-05,0.015516960993409157,0.00010955515608657151,0.03632583096623421,0.03893028944730759,-0.00460209371522069,2.5568178898538463e-05,-4.669384452427039e-06,0.010033093392848969,-1.2554860404634383e-06,0.00020876045164186507,0.016964364796876907,0.008713219314813614,0.007349452935159206,-0.00011299306061118841,0.000878872349858284,0.0014100511325523257,-0.009021319448947906,-0.0008506890735588968,-0.041024524718523026,-0.013666992075741291,-0.011702488176524639,-0.0006662873202003539,-0.004084602929651737,-0.004760309588164091,0.0026231026276946068,-0.04364720359444618,0.006132006179541349,1.0947299415420275e-05,1.8310969608137384e-05,0.00010606808064039797,9.99724397843238e-06,0.01611228659749031,0.00010434535943204537,-0.029581870883703232,-6.515013956231996e-05,-0.009376907721161842,-0.003000602824613452,-0.004575069062411785,0.012482861056923866,-0.0014950750628486276,-0.008529065176844597,-0.023641761392354965,0.015022644773125648,0.15174877643585205,2.245526047772728e-05,-1.2502150639193133e-06,-0.012711962684988976,-4.376469587441534e-05,2.740828858804889e-05,0.027387645095586777,-0.027326470240950584,-0.00421897554770112,-0.0032817027531564236,0.008842365816235542,-0.01838633231818676,1.095448351406958e-05,0.07868058234453201,0.04175255820155144,0.03397639840841293,0.044943686574697495,-1.3097999726596754e-05,0.04795043170452118,0.008265698328614235,-0.002997376024723053,9.79636206466239e-06,-0.007575205061584711,-0.04681531712412834,-0.011617484502494335,-0.02324892394244671,0.0043313461355865,0.032880354672670364,-0.0025351382791996002,0.0027694229502230883,-9.851135837379843e-05,-0.02225463278591633,0.0002828806173056364,-0.030803769826889038,0.03827519342303276,-5.7638872021925636e-06,-3.239496493279148e-08,0.004473231267184019,0.019565915688872337,0.003253775183111429,0.00012472618254832923,0.00017109629698097706,4.840526798943756e-06,0.14641006290912628,4.358798105386086e-05,0.0004310741205699742,-0.0005987376789562404,-3.589888729038648e-05,-0.03725547343492508,0.0959697887301445,-0.00027078355196863413,0.0015543323243036866,0.0062691085040569305,-0.03421793133020401,0.03357931226491928,0.014772750437259674,0.00876486673951149,0.0002057539386441931,-0.0007568842847831547,-0.00043037207797169685,-0.05138908326625824,0.026979446411132812,-0.001193106872960925,-0.001551916589960456,-0.006920341402292252,-0.018452012911438942,1.0363255569245666e-05,-7.469073807442328e-06,0.01808306574821472,-0.015149084851145744,0.00016459226026199758,-0.019877156242728233,-0.0322260782122612,-0.03505335748195648,0.06314965337514877,-0.0028000823222100735,0.02272677794098854,-0.012806394137442112,-0.16266268491744995,8.472137415083125e-05,-0.04610660299658775,2.3972720555320848e-06,-0.0021403080318123102,-0.04494224116206169,7.094539341778727e-06,-1.9148319552186877e-07,0.03274068608880043,-0.00013288570335134864,1.0754452887340449e-05,-0.02332412637770176,0.08154816180467606,0.0177476704120636,0.005338782910257578,-1.9177630747435614e-05,2.195048864450655e-06,-0.0015292743919417262,-3.6494377582130255e-06,-8.527234058419708e-06,-3.967373049817979e-05,0.0032491341698914766,2.639872604959237e-07,-5.5405183957191184e-05,-0.0016362335300073028,8.149547284119762e-06,0.0010300009744241834,-0.04934794083237648,0.04648914933204651,0.0028022502083331347,-7.4994918577431235e-06,0.1269948035478592,-0.002778050024062395,-0.05676506087183952,0.00030771762249059975,-0.004750348161906004,-0.08877934515476227,-0.021725032478570938,-0.012357907369732857,-0.00026134162908419967,0.008834701031446457,0.0011844317195937037,-0.04400407150387764,-5.691967089660466e-05,-0.00823317002505064,-0.01097482442855835,-0.010607521049678326,-2.1431874301924836e-06,0.024042554199695587,0.1112997978925705,-0.009730587713420391,-0.15633726119995117,-2.737220029302989e-06,-0.028771691024303436,-0.0021144580096006393,-0.0002317341131856665,0.0004779910668730736,0.002239653840661049,5.300441443978343e-06,0.06317415833473206,-2.6104921744263265e-06},{2.1098479919601232e-05,-0.028015313670039177,-0.00048035819781944156,-9.343852070742287e-06,0.033848460763692856,0.01390179991722107,0.04343314841389656,-0.004000246524810791,9.641087672207505e-06,-0.04034530371427536,-0.004338895436376333,0.0003584179503377527,0.034790001809597015,-0.0004373128176666796,0.0011675386922433972,0.02477923594415188,-0.05881671980023384,0.008968131616711617,0.0046578869223594666,-0.016378140076994896,8.401328523177654e-05,-6.644135908118187e-08,0.02127997577190399,-0.0035904289688915014,-0.0054555609822273254,0.02785346657037735,0.0001675999810686335,0.024340283125638962,-0.050391409546136856,-7.532477184213349e-07,-0.03387376293540001,0.0005221239989623427,0.0009199035703204572,-0.13198168575763702,0.022296499460935593,0.024104325100779533,-1.005986450763885e-05,-0.10430572926998138,-0.018756575882434845,-6.897794082760811e-05,-0.0001307627244386822,1.247153278427504e-07,0.08167409151792526,-0.01321112085133791,0.002722043078392744,0.005064235534518957,-2.979671444336418e-05,0.09352570027112961,0.004728011321276426,0.011240128427743912,-0.04545710235834122,0.007926310412585735,0.008932756260037422,-0.013256064616143703,-4.3861869926331565e-05,0.08640847355127335,0.00768137164413929,0.0665285736322403,0.005257088225334883,0.04895858094096184,-0.058255426585674286,0.00028032620321027935,1.3712466397919343e-06,4.2432264308445156e-05,2.8801832741010003e-06,-0.027820229530334473,4.4998425437370315e-05,-0.09020921587944031,0.0021782824769616127,0.0001739852159516886,0.001638330752030015,0.027291765436530113,0.0010060656350106,0.0007002681377343833,0.04596984386444092,-6.393795774783939e-05,0.059455372393131256,-0.015389997512102127,-0.004465385340154171,-6.458297866629437e-05,-9.373164289172564e-07,-0.010714690200984478,-5.57551686597435e-07,-3.2888769055716693e-05,-0.017485370859503746,-0.038506872951984406,-0.039659179747104645,-7.509644638048485e-05,0.0009793031495064497,-0.03616704046726227,-0.04459988325834274,-0.015392892062664032,-0.018877975642681122,0.03597395122051239,0.03369102254509926,0.0003406083269510418,0.0005920190014876425,0.0068435887806117535,0.0072275614365935326,0.09923181682825089,-0.040315836668014526,-5.982646598567953e-06,-5.7135643146466464e-05,-9.600112389307469e-05,-2.4878511339920806e-06,-0.01341924350708723,0.00013878536992706358,0.018012454733252525,-9.014303213916719e-05,-0.0022869647946208715,0.007314771413803101,-0.014857796020805836,-0.011886977590620518,-0.0025912094861268997,-0.019211070612072945,0.04671413078904152,-0.02130434848368168,0.0776110365986824,3.953047325921943e-06,3.6910827816427627e-07,0.024172291159629822,-1.8456839825375937e-05,5.382902600103989e-05,0.04531607776880264,0.015959015116095543,0.0031277236994355917,0.015666767954826355,0.06615626066923141,0.022820014506578445,8.146286745613907e-06,-0.024946609511971474,-0.01691984385251999,-0.013255295343697071,0.03600313887000084,-1.0788135114125907e-05,-0.011850286275148392,0.036307934671640396,0.0025844646152108908,-4.149031610722886e-06,-0.025741497054696083,0.0441264733672142,0.019371453672647476,0.00943639874458313,-0.000524219824001193,0.02864665351808071,0.013392000459134579,-0.06400207430124283,-0.00015104982594493777,-0.010768841952085495,-0.018601294606924057,-0.030384961515665054,0.018409671261906624,6.522306193801342e-06,-1.3027199202042539e-05,-0.0008705159416422248,-0.0041582174599170685,-0.021805085241794586,7.671499042771757e-05,0.00017257107538171113,4.756768987590476e-07,0.04336215555667877,2.1035004920122446e-06,1.8302762327948585e-05,0.012998576276004314,-0.00025777131668291986,0.042410507798194885,-0.12470529973506927,-0.00013735373795498163,0.003944003488868475,-0.030878547579050064,0.05043584480881691,0.015293598175048828,-0.0264279805123806,0.04107867181301117,-5.5989192333072424e-05,0.00034668270382098854,6.580605986528099e-05,-0.04063747450709343,-0.06648895144462585,0.00030885491287335753,0.00037864656769670546,0.017932262271642685,0.004860060755163431,-9.712249266158324e-06,-7.2250513767357916e-06,0.053944073617458344,0.033402688801288605,0.00024371036852244288,-0.03561433404684067,0.02115100994706154,0.050506364554166794,0.07090194523334503,-0.0008398961508646607,0.04699224606156349,0.013698870316147804,-0.07284802943468094,0.00010191743058385327,-0.023660870268940926,-1.4373895282915328e-06,-0.03571435809135437,0.034089718014001846,3.8069781567173777e-06,3.286551830683493e-08,-2.711256456677802e-05,-2.2717647880199365e-05,8.552725375921e-06,-0.0030714403837919235,-0.06838153302669525,-0.020251546055078506,0.027851000428199768,-5.475669968291186e-05,-2.153397190340911e-06,0.004211816005408764,7.47385092836339e-06,-9.594375296728685e-05,2.5559667847119272e-05,0.0205453522503376,4.851672770200821e-07,-1.8386019291938283e-05,-0.0005788796115666628,8.435621566604823e-06,0.005030754022300243,0.03313059359788895,0.0859595388174057,-0.011208007112145424,-2.475133214829839e-06,0.16322287917137146,0.0003365112061146647,0.02654799073934555,0.0003457417478784919,0.05810689553618431,-0.03296136483550072,0.05402924120426178,0.0015282048843801022,0.0005728699034079909,0.01161063089966774,-0.0004717147967312485,-0.04722639173269272,-0.00011632558016572148,-0.023029472678899765,-0.0019714266527444124,0.03933439403772354,6.566649972228333e-06,-0.06738541275262833,-0.003092567902058363,-0.00026075533241964877,-0.03524834290146828,2.4680095521034673e-05,0.046572018414735794,0.07621234655380249,0.00015622250793967396,0.001250794972293079,0.019194835796952248,-3.7759286897198763e-06,0.001674779923632741,1.5412319953611586e-06},{2.370578158661374e-06,0.004646997433155775,0.00044707959750667214,2.850432792911306e-06,0.03868178278207779,-0.008612521924078465,-0.0405694842338562,0.0023729009553790092,-2.4894825401133858e-06,-0.03666369616985321,0.018558764830231667,-2.0709048840217292e-06,0.024519825354218483,-0.0014212969690561295,-0.0019114299211651087,-0.05631311610341072,0.2151867002248764,-0.011068378575146198,-0.010743980295956135,-0.046547554433345795,-0.00010604919953038916,-5.300494194671046e-07,-0.08742789179086685,0.004121595062315464,-0.012599830515682697,0.016045227646827698,-9.745582065079361e-05,-0.028492718935012817,0.008095668628811836,-5.001846261620813e-07,0.06626688688993454,0.00034348556073382497,-0.0007891054265201092,0.2955377697944641,-0.04360988736152649,0.005150603596121073,8.994707968668081e-06,-0.02197030559182167,0.04101557284593582,-0.02558252029120922,-0.0003569815307855606,-6.200915549925412e-07,-0.18938672542572021,-0.09555188566446304,-0.17444567382335663,0.08700977265834808,1.3661030607181601e-05,-0.019159242510795593,0.18522979319095612,-0.030681075528264046,0.057843130081892014,0.022447992116212845,-0.03755445405840874,-0.02083798125386238,8.005738345673308e-05,-0.054921362549066544,0.026679664850234985,-0.05973399430513382,0.09851887822151184,0.014607860706746578,-0.019723355770111084,-0.03568599000573158,3.90931836591335e-06,-0.00010381604079157114,7.057719813019503e-06,0.012248379178345203,3.222544910386205e-05,0.015423845499753952,-0.09700595587491989,0.000714547059033066,0.004881665576249361,-0.004920383915305138,-0.11318452656269073,-0.002575482241809368,-0.16736868023872375,0.0002818952198140323,-0.025361713021993637,0.04653937742114067,-0.028721172362565994,0.0001736022240947932,2.319149416507571e-06,-0.011268828064203262,-2.092481054205564e-06,-1.9380627236387227e-06,0.04823486879467964,0.09122949838638306,-0.21666653454303741,-0.00017884271801449358,-0.022400278598070145,0.034181974828243256,0.3295682370662689,-0.173798069357872,-0.12770672142505646,-0.02856067381799221,-0.03549263998866081,0.0010057450272142887,-0.0005061046686023474,-0.0020969067700207233,0.007999398745596409,0.1728411763906479,0.0077272336930036545,-5.2792351198149845e-05,0.00013771586236543953,-0.0001523634127806872,2.200257767981384e-06,0.06562662124633789,-0.00022305289166979492,-0.015510757453739643,-9.290764864999801e-05,0.016106223687529564,-0.018069202080368996,0.04116925597190857,0.03610200062394142,-0.0023100832477211952,0.1225685328245163,-0.06251463294029236,0.05480947345495224,-0.22019609808921814,-6.108667548687663e-06,4.670839643949876e-06,-0.007909242063760757,-0.00023861517547629774,9.95778973447159e-05,0.004039643332362175,-0.06699129194021225,-0.01781691238284111,0.043651435524225235,-0.04325350373983383,-0.04445661976933479,3.5457255762594286e-06,0.13415485620498657,0.047601260244846344,0.012026951648294926,-0.0363888218998909,3.881127099703008e-07,0.19794578850269318,-0.052080005407333374,-0.008728396147489548,-2.8044443752150983e-05,-0.017131555825471878,-0.05753161385655403,-0.03202805295586586,0.0024207953829318285,0.0016032648272812366,-0.03699524328112602,-0.0300899688154459,-0.00757562555372715,-9.42113547353074e-05,0.018832474946975708,0.03742295876145363,0.03193351626396179,-0.02766060270369053,-3.1053614293341525e-06,4.047865513712168e-05,0.0018357179360464215,0.04018629714846611,0.013850061222910881,8.401963714277372e-05,-4.86232565890532e-05,-2.7922712320105347e-07,-0.013874968513846397,-6.94647096679546e-05,0.00016188596782740206,0.03530116751790047,8.375909237656742e-05,-0.1361883282661438,0.19704359769821167,-0.0004331172676756978,-0.029101725667715073,0.057810548692941666,-0.012377012521028519,-0.0420248806476593,0.0018612516578286886,0.037746597081422806,0.00040091623668558896,0.000605630804784596,0.0024597598239779472,0.01379687711596489,-0.0375128909945488,-0.0005700397305190563,-0.0010956748155876994,-0.059196144342422485,-0.048818640410900116,9.789887371880468e-06,3.2538848699914524e-06,-0.16054095327854156,-0.052935972809791565,-8.07671676739119e-05,0.06376700103282928,-0.008161496371030807,-0.06847631931304932,-0.007625908125191927,-0.003393651219084859,-0.0847010463476181,0.021979447454214096,0.19905994832515717,-0.0001315624249400571,0.039505936205387115,-2.0711277102236636e-06,-0.0036007727030664682,-0.06173684448003769,-3.771871206481592e-07,6.716020379826659e-07,0.0172294769436121,5.35540675627999e-06,-1.0258617066938314e-06,0.139954075217247,0.02096254751086235,-0.029197314754128456,-0.04278340935707092,0.00012111260002711788,-5.396400410973001e-06,-0.008206604048609734,5.441510893433588e-06,0.0002460468967910856,-7.294403076230083e-06,0.019296959042549133,7.637201520083181e-07,9.257162309950218e-05,-0.0015746266581118107,-4.503557647694834e-06,0.01347888819873333,-0.06616882234811783,-0.01943797431886196,0.015029925853013992,-3.3090379929490155e-06,0.11695476621389389,-0.0001838540774770081,0.092276431620121,-0.002022362779825926,-0.06135163828730583,0.0643804669380188,-0.0927090048789978,0.039818912744522095,0.0070411390624940395,-0.01993248425424099,0.0008947864407673478,0.041086334735155106,2.9216524126240984e-05,0.03259695693850517,-0.09295068681240082,-0.06637182086706161,2.5143926905002445e-06,0.048181649297475815,-0.12173082679510117,0.010952590964734554,-0.07879894971847534,-9.279570076614618e-05,-0.08103152364492416,-0.2243884652853012,0.0002483614953234792,-0.0020993449725210667,-0.041539065539836884,-9.968058293452486e-06,-0.13187843561172485,1.9350804905116092e-06},{-3.126487717963755e-05,0.0025504883378744125,0.000648248940706253,-1.2054307262587827e-05,0.09760995954275131,0.005873061716556549,-0.0043400609865784645,-0.002776383189484477,-3.257404750911519e-05,0.07654477655887604,-0.004236643668264151,1.4027549696038477e-05,0.13049085438251495,-0.0009631134453229606,-0.00041522958781570196,-0.012431768700480461,0.13727234303951263,0.0010398721788078547,-0.007514650467783213,0.02739073894917965,6.361740088323131e-05,-3.9606763380106713e-07,-0.04264319688081741,0.004190762061625719,-0.017657123506069183,-0.0238362904638052,0.00010838780144695193,-0.007685682736337185,0.11046648770570755,-2.1110417947056703e-06,0.053707320243120193,0.00041757512371987104,0.00013759383000433445,0.2312072515487671,-0.010358585976064205,0.0009839459089562297,-1.5704601537436247e-05,0.03596975654363632,-0.0003041679738089442,0.02172425389289856,-0.00011342759535182267,-3.130520269678527e-07,-0.04734926298260689,0.1067287027835846,-0.06307414174079895,-0.12391163408756256,2.4324729110958287e-06,0.052724096924066544,0.0740574523806572,-0.0018116076244041324,-0.009100990369915962,0.02926156483590603,-0.024602584540843964,-0.023085685446858406,-5.0068803830072284e-05,0.02368529886007309,0.01688363216817379,-0.2018318772315979,-0.025247490033507347,0.07337493449449539,0.04588739946484566,0.024632206186652184,6.100788141338853e-06,1.63639742822852e-05,1.0506570106372237e-05,-0.018893763422966003,0.0001867066021077335,-0.009062645025551319,-0.012838096357882023,0.0009261913946829736,0.0038099472876638174,-0.14183370769023895,-0.03280742093920708,-0.0011013040784746408,0.008932052180171013,-7.684972661081702e-05,0.2179885357618332,0.019231317564845085,-0.08039934933185577,-2.6442157832207158e-05,-1.6908886664168676e-06,-0.009849300608038902,-7.172653226916736e-07,0.00032231066143140197,0.02465982548892498,0.021388109773397446,-0.048811398446559906,-1.2036939551762771e-05,-0.00768762081861496,0.017477700486779213,0.1358705312013626,-0.22889460623264313,0.03565913811326027,-0.00017141310672741383,-2.740083436947316e-05,0.0009873558301478624,2.988676442328142e-06,0.008424375206232071,0.00927728321403265,0.2023533582687378,0.0026948186568915844,5.331308057066053e-05,2.8581729566212744e-05,-0.00023546046577394009,-9.661106560088228e-06,0.030946020036935806,-4.5001052058069035e-05,0.011869614943861961,3.707122232299298e-05,0.033708103001117706,-0.014754898846149445,0.02700575441122055,-0.0009977022418752313,-0.001318974420428276,-0.015704728662967682,-0.044700369238853455,0.022005004808306694,-0.1296388953924179,2.6417958451929735e-06,-5.5090613386710174e-06,0.03194707632064819,2.3803751901141368e-05,-2.7360105377738364e-05,0.08899407088756561,-0.023358043283224106,-0.01237213984131813,0.000432805361924693,0.18834936618804932,0.0216458011418581,3.2191866921493784e-05,0.1895538866519928,-0.06024278700351715,-0.013607494533061981,0.08112791180610657,-1.0806247701111715e-06,0.07689716666936874,-0.04161205515265465,-0.006302604917436838,1.6511450667167082e-05,-0.00390387000516057,-0.03955643251538277,0.006579085718840361,0.007377885282039642,-5.9663663705578074e-05,-0.04801497608423233,-0.016473008319735527,-0.06800448149442673,9.5331524789799e-06,-0.09704534709453583,0.05100186914205551,-0.1315184235572815,-0.10808247327804565,1.2053730642946903e-05,3.3192398404935375e-05,-0.0006244920659810305,-0.03618410602211952,0.05793463811278343,2.0364857846288942e-05,1.7857470083981752e-05,-2.1376608856371604e-06,0.06215281039476395,-9.39770234253956e-06,-0.00019187855650670826,0.01456029899418354,0.00022339030692819506,