#include "network_evaluate.h"

static const int structure [4][2] = {{10, 64},{64, 64},{64, 64},{64, 2}};
static float output_0[64];
static float output_1[64];
static float output_2[64];
static float output_3[2];
static const float pi_1_weight[10][64] = {{0.20396745204925537,-0.4352124333381653,0.06170852482318878,-0.1323310136795044,0.20917096734046936,0.2048395425081253,0.34617239236831665,-0.42515885829925537,-0.6901735663414001,0.09003110229969025,0.417255163192749,-0.29523348808288574,0.12250549346208572,0.03019242361187935,0.3961711525917053,-0.31715768575668335,-0.18396353721618652,0.448471337556839,0.14282549917697906,0.33713194727897644,0.2486228048801422,0.01663503237068653,-0.11671018600463867,0.02113526128232479,0.19689369201660156,-0.5390323400497437,-0.5943393111228943,-0.40773749351501465,0.06971850991249084,-0.4477570950984955,0.13848356902599335,-0.17367862164974213,0.022809790447354317,-0.31422415375709534,-0.219827339053154,-0.3573860824108124,-0.15866483747959137,-0.23701806366443634,0.6173370480537415,0.2779666781425476,0.35147643089294434,-0.3282214403152466,0.12846286594867706,-0.3664889633655548,-0.4019422233104706,0.5976219177246094,-0.40238210558891296,0.21913500130176544,-0.2548598051071167,-0.19086338579654694,-0.41439226269721985,0.01470782607793808,0.5637631416320801,0.1661987155675888,-0.153385192155838,-0.2642606794834137,-0.3914034068584442,0.42824408411979675,-0.07059384137392044,-0.14885543286800385,-0.5608208179473877,-0.09792979806661606,-0.13253748416900635,0.3237805664539337},{0.4628647267818451,-0.38024482131004333,0.6407564282417297,0.659458339214325,-0.7535141110420227,0.2817302942276001,0.03646932169795036,-0.46174538135528564,0.7215701937675476,0.24258169531822205,0.4138186275959015,0.6764088869094849,-1.244725227355957,0.3810734450817108,0.26163867115974426,-1.017516016960144,-0.5568132996559143,-0.46418043971061707,-0.265401691198349,0.3033643364906311,0.6350886225700378,-0.15704292058944702,1.3611012697219849,0.34067514538764954,0.27547577023506165,0.5593175888061523,0.21997016668319702,0.1450398862361908,-0.8562602996826172,-0.10300585627555847,-0.17503607273101807,-0.2498115599155426,1.188603162765503,-0.2686644494533539,0.1520957052707672,0.8490625023841858,-0.8014445900917053,0.2151859700679779,-0.034296076744794846,0.1706255078315735,0.3434326648712158,-0.40078166127204895,-0.9942143559455872,-0.252150297164917,-0.46673309803009033,-0.12190745770931244,-0.32786667346954346,0.6537519693374634,-0.2755107283592224,-0.03354909271001816,0.43453529477119446,0.37927940487861633,-0.29649561643600464,1.1289196014404297,0.5330180525779724,-0.5309443473815918,-0.33472079038619995,0.3565603494644165,-0.4680074453353882,-0.7706806659698486,-0.09642437845468521,-0.646776020526886,0.7864263653755188,0.32618239521980286},{-0.46460825204849243,-0.34424886107444763,0.009087509475648403,-0.30102401971817017,0.11255349963903427,0.2144884318113327,-0.4573497772216797,0.24010306596755981,0.2301481068134308,0.3945735991001129,-0.021297479048371315,0.06460121273994446,0.4919445812702179,-0.3703140616416931,0.3685726821422577,-0.013775062747299671,-0.19318945705890656,0.40831899642944336,0.3024235665798187,-0.26457780599594116,-0.5631749629974365,0.10924528539180756,0.2035476714372635,-0.013725893571972847,-0.1299673318862915,0.14810308814048767,0.11070572584867477,-0.6787945628166199,-0.5070104002952576,0.20138989388942719,-0.40460947155952454,0.2041616290807724,-0.3379000127315521,0.23820224404335022,0.4374200403690338,0.024518869817256927,-0.3441268503665924,-0.32274648547172546,0.26324525475502014,-0.3079664409160614,-0.15291902422904968,0.41371047496795654,0.09136471152305603,0.3961097300052643,-0.041032128036022186,0.43217384815216064,0.22815732657909393,0.2053082138299942,-0.2984558343887329,0.22501662373542786,0.22172911465168,-0.2752849757671356,0.20945285260677338,-0.29587212204933167,-0.2244582623243332,0.3973460793495178,-0.22388821840286255,-0.203676238656044,-0.371280312538147,-0.5653519630432129,-0.2547440826892853,0.2623596787452698,0.10081701725721359,0.17365236580371857},{-0.24614353477954865,-0.11023208498954773,0.3383066952228546,-0.1864728182554245,-0.3145701587200165,0.09322118759155273,0.017654450610280037,0.3033049702644348,-0.335344135761261,0.18230043351650238,-0.13895650207996368,0.4582308828830719,0.4334031343460083,-0.02938857115805149,0.009821227751672268,0.20881329476833344,-0.16249202191829681,0.13308680057525635,0.03223179280757904,0.021270912140607834,-0.22261647880077362,-0.03632436320185661,-0.011045107617974281,0.28607529401779175,0.0776948556303978,-0.16905224323272705,0.14047718048095703,0.04035855457186699,0.20983003079891205,-0.02082221396267414,0.11434214562177658,-0.21726614236831665,0.056081824004650116,0.0163506418466568,0.04044100642204285,0.10495445877313614,0.3123012185096741,-0.23161929845809937,0.32677561044692993,-0.16056957840919495,0.27578362822532654,-0.011353532783687115,0.2336304932832718,0.010626967996358871,0.23967763781547546,0.1371787041425705,-0.23437076807022095,-0.034565575420856476,0.1546310931444168,-0.26319369673728943,0.1479928195476532,-0.12947747111320496,-0.2460908740758896,-0.37045225501060486,-0.17088858783245087,-0.1683402806520462,0.10634268820285797,-0.20117425918579102,0.045933645218610764,0.19088098406791687,0.36385178565979004,-0.1776343435049057,-0.2937512993812561,0.14082778990268707},{-0.12292995303869247,0.07708389312028885,-0.011109374463558197,-0.29700538516044617,-0.25220099091529846,0.24592448770999908,0.06857635080814362,0.31490519642829895,0.01454162783920765,-0.29395225644111633,-0.06670474261045456,0.2004280537366867,-0.26882848143577576,0.18287035822868347,-0.3102019131183624,0.1250120848417282,0.06221241503953934,-0.27728205919265747,0.057689912617206573,-0.23039595782756805,-0.17356352508068085,0.024445628747344017,-0.246318519115448,0.15450811386108398,0.19939552247524261,-0.2593293786048889,0.0242376197129488,0.006875263061374426,0.02889983355998993,-0.010346891358494759,-0.031755946576595306,0.07324448972940445,0.33669957518577576,-0.3746193051338196,-0.2724756896495819,0.11990392208099365,0.33458492159843445,-0.33636972308158875,0.11737758666276932,-0.22701475024223328,0.1277867555618286,-0.3244786262512207,0.07180465012788773,-0.18194301426410675,-0.2929631471633911,-0.22131134569644928,0.2483345866203308,0.045268021523952484,-0.008884158916771412,0.23401989042758942,0.2914665937423706,0.06738988310098648,-0.13763315975666046,-0.4318612813949585,0.037001557648181915,0.07105562835931778,-0.22166217863559723,-0.05472028627991676,-0.042976122349500656,0.022407609969377518,-0.12284840643405914,0.05894848331809044,-0.07819689810276031,0.16709420084953308},{0.09658298641443253,0.11743656545877457,0.07395274937152863,-0.30332091450691223,-0.17767052352428436,-0.1485239714384079,-0.1575068086385727,0.28615814447402954,-0.057123057544231415,-0.18175877630710602,-0.10465720295906067,-0.4049738049507141,-0.2305268496274948,-0.0684191882610321,-0.13269762694835663,-0.3555355966091156,0.06367038935422897,0.21848803758621216,0.08257453143596649,-0.14842037856578827,0.27834248542785645,0.07803338766098022,0.1430155485868454,-0.2305760532617569,-0.25630858540534973,-0.2302117943763733,-0.26487424969673157,-0.45794275403022766,0.210368350148201,-0.17445506155490875,-0.2735142707824707,0.2094447761774063,0.3703603744506836,-0.02032262273132801,0.17948931455612183,0.1490892469882965,0.3898496925830841,-0.21178077161312103,0.30129942297935486,0.247372105717659,-0.27138426899909973,-0.21021081507205963,-0.3748238980770111,-0.09259819984436035,0.28329798579216003,0.2664391100406647,0.2756877839565277,-0.33517974615097046,0.2198285013437271,-0.06824792921543121,-0.21303386986255646,0.09854305535554886,-0.06742516160011292,-0.26167187094688416,0.2540642023086548,-0.037546802312135696,0.2724473476409912,0.25629112124443054,-0.1814102977514267,-0.005948761012405157,-0.12612317502498627,0.23281772434711456,-0.17466850578784943,0.022167697548866272},{0.02161940559744835,0.3029167652130127,0.2861892879009247,-0.13525180518627167,0.1894354671239853,0.047499969601631165,-0.0552295558154583,0.10731655359268188,-0.05704197287559509,0.1366582065820694,-0.4998549222946167,-0.27157923579216003,-0.2539418935775757,-0.048863545060157776,0.16120749711990356,0.11495349556207657,-0.10585687309503555,-0.0238167904317379,-0.12403171509504318,-0.19229574501514435,-0.07534631341695786,-0.25445684790611267,-0.21151377260684967,0.10678722709417343,0.21571004390716553,-0.36940255761146545,-0.23367083072662354,-0.04608231782913208,-0.06596487015485764,0.3084827661514282,-0.08883071690797806,-0.2575806975364685,0.26658689975738525,0.15078777074813843,0.14249329268932343,-0.024373218417167664,0.2596278190612793,0.3048097491264343,0.12521040439605713,0.2664404511451721,0.30642029643058777,-0.1983528435230255,-0.16153359413146973,0.08462288230657578,-0.135655015707016,0.014009328559041023,0.10980793088674545,-0.38686904311180115,0.2390272468328476,-0.27112284302711487,0.054676659405231476,-0.2022199183702469,0.36066776514053345,-0.18589866161346436,-0.23112043738365173,-0.0514899380505085,-0.03268326073884964,-0.128121018409729,0.08421014249324799,-0.33116650581359863,0.15777157247066498,0.15723635256290436,0.28054556250572205,-0.15914013981819153},{0.2595595419406891,0.40258193016052246,-0.3163532614707947,0.3582943379878998,0.2768072485923767,-0.2340751737356186,-0.04895489290356636,-0.2663784325122833,-0.1276768296957016,0.10269541293382645,-0.6331552863121033,-0.24039556086063385,-0.3524705767631531,-0.1311681568622589,-0.01570812053978443,-0.29021745920181274,0.13054443895816803,-0.09088567644357681,-0.14584267139434814,0.15800908207893372,0.30988356471061707,-0.15299881994724274,-0.10059096664190292,-0.2757538855075836,-0.3145469129085541,0.13426128029823303,0.005625931546092033,-0.592830240726471,0.11051170527935028,-0.12626399099826813,0.06630391627550125,-0.12016145139932632,0.11704723536968231,0.20885761082172394,0.16495709121227264,0.21128450334072113,-0.3493497967720032,0.3050781786441803,0.23913249373435974,-0.03404080122709274,0.21567413210868835,-0.16370519995689392,-0.3528847396373749,-0.2013944834470749,0.10477329045534134,0.208976149559021,-0.13558439910411835,0.06994592398405075,0.1816815435886383,-0.230218306183815,0.10306660085916519,-0.06286555528640747,0.06932227313518524,-0.40506789088249207,-0.031663279980421066,-0.06432807445526123,-0.07557468861341476,-0.35538753867149353,0.12528757750988007,0.22694529592990875,-0.16602842509746552,0.06139404699206352,-0.03059069626033306,-0.4383535087108612},{-0.0023521026596426964,-0.2450147271156311,-0.20703117549419403,0.31591761112213135,-0.1271745264530182,-0.1861524134874344,0.14078542590141296,0.031245417892932892,0.14057639241218567,-0.229503333568573,-0.46777841448783875,-0.005558837205171585,-0.4831087291240692,0.0062023913487792015,-0.1587086170911789,-0.13868923485279083,-0.3581249415874481,0.28563007712364197,-0.31780409812927246,-0.11147762089967728,0.17388340830802917,0.2778558135032654,-0.06668545305728912,-0.1862669289112091,-0.01762188784778118,-0.21418017148971558,0.2077636420726776,-0.3078629672527313,-0.08928895741701126,0.20527160167694092,0.05108839273452759,0.08228133618831635,0.22794459760189056,0.1553579419851303,-0.21959973871707916,-0.1960187703371048,-0.38366013765335083,0.2571732699871063,0.004757665563374758,-0.17681884765625,-0.14090974628925323,-0.0335797518491745,-0.15843836963176727,0.1707983762025833,0.02599467895925045,-0.23430922627449036,-0.30672088265419006,-0.2066202610731125,-0.01847464218735695,0.2730447053909302,-0.11379974335432053,0.1436975598335266,0.11510409414768219,-0.4342207908630371,-0.09866934269666672,0.17606455087661743,0.2571576237678528,0.12232359498739243,0.25161293148994446,0.24951724708080292,-0.1694641262292862,0.23080280423164368,-0.28733330965042114,-0.2570345401763916},{0.16309605538845062,-0.302383154630661,-0.13674341142177582,0.39008691906929016,-0.10854071378707886,-0.20824912190437317,0.4006974995136261,-0.17721860110759735,-0.2807888984680176,-0.28699442744255066,-0.22200354933738708,0.2569271922111511,-0.8622540235519409,0.21645312011241913,-0.361467182636261,-0.2087508589029312,-0.11420346796512604,-0.31980520486831665,0.2530743181705475,0.06322267651557922,0.014302919618785381,-0.31087103486061096,0.04057380184531212,0.09919632971286774,-0.021617945283651352,-0.41546621918678284,0.08568868786096573,-0.16443070769309998,0.026582689955830574,0.002559815999120474,-0.18389448523521423,0.05899866297841072,-0.12624436616897583,0.13101769983768463,0.12349219620227814,0.12033671140670776,-0.30436500906944275,0.3453786075115204,0.4073072671890259,0.33232131600379944,0.23451770842075348,0.3786124885082245,0.3536483645439148,-0.3531367778778076,-0.3395649492740631,-0.1971176713705063,-0.20716480910778046,0.1216348335146904,-0.0803208276629448,0.417697936296463,0.08822894841432571,-0.03261715918779373,-0.16922222077846527,-0.4478134512901306,0.47635555267333984,0.034745652228593826,0.2867732048034668,0.39426174759864807,0.3290954530239105,0.39045366644859314,-0.07881613075733185,-0.0059906733222305775,-0.10100241005420685,0.3106205463409424}};
static const float pi_2_weight[64][64] = {{0.06366527825593948,0.034195441752672195,-0.011719134636223316,-0.3112109303474426,-0.5983949899673462,0.37971231341362,0.14290751516819,-0.6731613278388977,-0.851012647151947,-0.09722749888896942,-0.6500575542449951,0.09521692246198654,0.44316357374191284,0.0718563050031662,0.2926200330257416,-0.18933017551898956,0.012628273107111454,0.26856765151023865,0.1764441281557083,0.23966935276985168,0.061280619353055954,0.02340954728424549,0.21710236370563507,0.1291213035583496,0.25327709317207336,-0.1260940432548523,0.04996052756905556,0.0014097600942477584,0.14749769866466522,-0.41683679819107056,-0.26213347911834717,-0.029043978080153465,-0.14765137434005737,-0.5178409814834595,0.37559717893600464,-0.1764206439256668,0.02763785794377327,0.3903009593486786,0.5420104265213013,-0.07902892678976059,0.06144065037369728,0.09468216449022293,-0.16531813144683838,-0.44958218932151794,0.5347782373428345,0.027538493275642395,-0.05485280603170395,0.2111702412366867,-0.13637852668762207,-0.17661578953266144,0.2089962214231491,-0.24757914245128632,0.1974349319934845,0.2022475153207779,-0.28112170100212097,0.1468678116798401,-0.11777477711439133,0.35982751846313477,0.11736754328012466,-0.007333680521696806,0.2852027714252472,-0.10425393283367157,0.22902873158454895,0.22962632775306702},{-0.22732500731945038,-0.0337548702955246,-0.07686414569616318,-0.1911391317844391,-0.24359896779060364,-0.17236937582492828,-0.011587717570364475,-0.00865877140313387,0.10158530622720718,-0.028395026922225952,-0.062031034380197525,-0.10268396139144897,0.20761477947235107,-0.014700399711728096,0.39937546849250793,0.3134576380252838,-0.13625510036945343,0.06444047391414642,0.036575935781002045,-0.15452994406223297,-0.20024310052394867,-0.06637730449438095,0.12111733108758926,-0.034487899392843246,-0.15865887701511383,-0.1245063841342926,0.006235952023416758,0.09151922911405563,0.26910293102264404,-0.07405149191617966,-0.19536462426185608,-0.07531043887138367,0.10539016872644424,-0.0825190320611,-0.045440781861543655,-0.06906980276107788,-0.3086329698562622,-0.020493775606155396,0.0962069109082222,-0.013194139115512371,0.061120856553316116,-0.12646448612213135,0.013020871207118034,-0.15454412996768951,0.2394857555627823,0.037428222596645355,0.08713861554861069,-0.13423927128314972,-0.020989391952753067,-0.17966538667678833,0.0824928805232048,0.07268716394901276,-0.5277323126792908,-0.01435029786080122,0.0380416177213192,0.0814790353178978,0.019440945237874985,0.0024913609959185123,0.13587331771850586,-0.21423740684986115,0.4251032769680023,0.039371222257614136,-0.1984410285949707,0.06342199444770813},{-0.03659270703792572,0.05432808771729469,-0.10957582294940948,-0.36991629004478455,0.6252344846725464,-0.23671266436576843,-0.4897860586643219,0.10914129763841629,0.10780210047960281,0.0756482258439064,0.08693253248929977,0.0799340307712555,-0.020551573485136032,0.06097812578082085,0.05462179332971573,-0.045505061745643616,0.09035010635852814,-0.1876230388879776,0.0474771223962307,0.10702408850193024,0.133041650056839,0.04746342822909355,0.19507873058319092,-0.0779864713549614,0.021323584020137787,0.08896280825138092,-0.12874135375022888,0.08456867188215256,-0.14851950109004974,0.21580612659454346,0.07287487387657166,0.20754162967205048,-0.07981617003679276,-0.07754860818386078,-0.10343721508979797,0.009208560921251774,0.24630339443683624,0.013792884536087513,0.08381691575050354,-0.12601488828659058,-0.3125346899032593,0.11793223768472672,0.11036119610071182,-0.1774895042181015,-0.19449755549430847,0.30518731474876404,0.0744168758392334,0.003666600910946727,0.11726295202970505,-0.0036119932774454355,0.14779607951641083,-0.01990087330341339,0.08803024142980576,-0.25050196051597595,-0.1952204406261444,0.17848947644233704,-0.03294958174228668,0.15496215224266052,0.24262166023254395,-0.03269024193286896,-0.1413741558790207,0.08398273587226868,-0.13800719380378723,0.06732461601495743},{0.3218518793582916,-0.09474731236696243,0.043156322091817856,0.3803604245185852,-0.6186723709106445,0.4877094626426697,0.1734386384487152,-0.22802157700061798,-0.5220817923545837,0.050146300345659256,-0.3440023958683014,-0.04824299365282059,0.023824483156204224,0.06525300443172455,0.12840712070465088,0.03914154693484306,0.03120245784521103,0.03397013247013092,0.16515330970287323,0.0869000181555748,-0.07520293444395065,0.10217606276273727,0.009731369093060493,0.0008351421565748751,0.13449627161026,-0.09231127053499222,-0.06027083471417427,0.17383241653442383,0.11398903280496597,-0.30642402172088623,-0.1871008574962616,0.05856579542160034,0.053352586925029755,-0.14157266914844513,0.4704459011554718,0.018885724246501923,-0.4071107804775238,-0.193117156624794,0.2811315655708313,-0.11424005031585693,-0.12376958876848221,0.14958056807518005,-0.26255637407302856,-0.00873219221830368,0.009263278916478157,-0.1701449304819107,-0.12901560962200165,0.100277379155159,-0.11902885884046555,0.008688580244779587,0.1776062399148941,-0.025312427431344986,-0.026274893432855606,0.07755057513713837,-0.08117442578077316,0.0937218889594078,0.09243696928024292,0.26110467314720154,-0.2941026985645294,-0.09981311857700348,-0.6343989372253418,0.07662276923656464,0.2422904670238495,0.058028001338243484},{-0.28324222564697266,0.11125704646110535,0.18424248695373535,0.7354280948638916,-0.3274797797203064,-0.2198861688375473,0.11111864447593689,-0.0011847657151520252,-0.05311304330825806,0.08397302031517029,-0.030169283971190453,0.26787877082824707,-0.1632094532251358,0.219373419880867,-0.046850431710481644,0.07790709286928177,0.04441673308610916,0.3476865291595459,-0.145352303981781,0.16591715812683105,-0.06809581816196442,-0.09719981253147125,-0.2267688363790512,0.07152777165174484,-0.26226702332496643,0.07154300808906555,0.14352361857891083,0.13127927482128143,0.2980630397796631,-0.5046653747558594,-0.06710539013147354,-0.14328940212726593,0.10015752166509628,0.10153575241565704,0.17066405713558197,-0.09826941043138504,-0.42507192492485046,-0.021215908229351044,-0.37477973103523254,-0.12318601459264755,-0.07659228891134262,-0.011744624935090542,0.19883330166339874,-0.29585400223731995,0.13388043642044067,-0.23855923116207123,0.120037741959095,-0.04956613481044769,-0.16564127802848816,0.18012863397598267,-0.361295223236084,-0.13490410149097443,-0.060012321919202805,0.12932711839675903,0.21686378121376038,-0.029748542234301567,-0.0640159323811531,-0.19382163882255554,-0.35066336393356323,-0.05690053850412369,0.5642112493515015,-0.017420237883925438,0.12185046076774597,-0.14102116227149963},{-0.0035956217907369137,0.08115004003047943,-0.04737984761595726,0.15539850294589996,0.174698144197464,0.08006511628627777,0.006749591790139675,0.12094433605670929,0.099774070084095,-0.060234904289245605,0.1400415599346161,0.09880612045526505,-0.09250258654356003,-0.11339177936315536,-0.06939516216516495,0.11892241984605789,0.09388796240091324,0.0431814044713974,0.09930024296045303,0.06911573559045792,0.1127747967839241,-0.05713767185807228,-0.05693862587213516,0.010418073274195194,0.1279095709323883,0.029701948165893555,-0.027908384799957275,-0.03746914863586426,0.14090460538864136,0.07129546254873276,0.025286594405770302,0.07139638811349869,0.14788803458213806,0.102442666888237,0.060493405908346176,0.028132157400250435,0.10782317817211151,-0.03176535665988922,0.18423444032669067,-0.00025496387388557196,-0.01738271489739418,-0.16315706074237823,0.01754629611968994,0.09970270842313766,-0.004742167890071869,0.04704957455396652,0.006451375316828489,0.10471583157777786,0.09556064754724503,0.07461194694042206,0.022030029445886612,-0.0697965994477272,-0.01813925988972187,-0.07869203388690948,-0.0003244458930566907,0.04617736488580704,0.027957141399383545,-0.01685899682343006,-0.06785427778959274,0.03623448312282562,-0.03432059288024902,-0.10332708805799484,0.003167211776599288,-0.10374715924263},{0.2945813834667206,0.11413222551345825,-0.008914991281926632,-0.40530019998550415,-0.14216934144496918,0.4218181371688843,-0.01561426930129528,-0.23011046648025513,-0.6060219407081604,-0.025849003344774246,-0.197725310921669,0.17367073893547058,0.2234601378440857,0.16802354156970978,0.11835958808660507,-0.1158641129732132,0.056859102100133896,0.0508372001349926,0.28741955757141113,0.0729551613330841,-0.024103891104459763,0.06688406318426132,0.392122358083725,0.07594787329435349,0.16255877912044525,0.08633819222450256,-0.06267332285642624,-0.11223026365041733,-0.17230847477912903,-0.16413649916648865,-0.04659198224544525,-0.0461980439722538,-0.31524285674095154,-0.3083168566226959,0.2881534695625305,-0.13598905503749847,-0.07350627332925797,0.293701171875,0.4411686658859253,-0.04613650217652321,-0.02644430659711361,-0.014076093211770058,-0.010098245926201344,-0.26888519525527954,0.057812195271253586,-0.05426914617419243,-0.07507521659135818,-0.08069160580635071,-0.03875502571463585,0.06988944113254547,-0.057112667709589005,0.03955848142504692,0.44540494680404663,0.19026455283164978,-0.10972533375024796,-0.14131981134414673,-0.11901599168777466,0.04398956522345543,0.0035241644363850355,-1.8659591660252772e-05,-0.061510831117630005,-0.048091258853673935,-0.04710184037685394,0.30084437131881714},{-0.05809018015861511,-0.16738910973072052,-0.07590799033641815,-0.012578856199979782,-0.053867459297180176,-0.06635776907205582,-0.05054115131497383,0.07511643320322037,0.20760101079940796,0.12409840524196625,0.1744704246520996,-0.07966937124729156,0.026091422885656357,0.10962730646133423,0.08480118960142136,0.05528809130191803,-0.06636731326580048,-0.12706942856311798,0.1656627058982849,-0.02406749501824379,-0.12460583448410034,0.011820460669696331,-0.07926187664270401,-0.1762615591287613,-0.04535719379782677,0.1398146003484726,0.1285376250743866,-0.07112369686365128,-0.09081859141588211,0.29284408688545227,0.012887888588011265,-0.04659269377589226,0.005505236331373453,0.01102722343057394,-0.004284683149307966,0.012505225837230682,0.20572541654109955,-0.10490364581346512,0.0030541729647666216,-0.10377388447523117,0.008190818130970001,-0.04464086890220642,0.06971743702888489,-0.10905355215072632,0.04046047106385231,0.008116940967738628,-0.11262005567550659,-0.12320177257061005,0.10504520684480667,0.030280686914920807,0.07946634292602539,0.04120231792330742,-0.07748061418533325,-0.08526189625263214,-0.06019532307982445,-0.04697415605187416,0.05579956993460655,-0.22735695540905,-0.0759662389755249,-0.11765144020318985,0.13597357273101807,0.06603887677192688,-0.025802060961723328,0.0907944068312645},{-0.03386048972606659,0.2700352966785431,0.09736599773168564,0.3701644539833069,-0.27868250012397766,-0.18990212678909302,-0.05630037561058998,-0.0057825022377073765,0.07923366874456406,-0.08392499387264252,0.20491820573806763,0.1376429945230484,0.10621315240859985,-0.14134734869003296,-0.028748326003551483,-0.04378379136323929,0.12165016680955887,0.11903301626443863,-0.22077088057994843,-0.04313354939222336,0.008017636835575104,0.17687241733074188,-0.06221530959010124,0.057583559304475784,-0.0512530580163002,-0.3775664269924164,-0.050312526524066925,0.36430758237838745,0.23361258208751678,-0.027996914461255074,-0.3828011751174927,0.2628108561038971,0.05655337870121002,0.3384050130844116,-0.0781383141875267,0.21534372866153717,0.12562665343284607,-0.10027889907360077,-0.37293410301208496,0.07739494740962982,-0.13731925189495087,0.010280641727149487,0.03571274131536484,-0.05990755185484886,0.17534729838371277,-0.010399320162832737,0.2411893606185913,0.21391810476779938,-0.2168368697166443,-0.03829080983996391,0.08402068167924881,0.025747038424015045,-0.33338627219200134,0.07773452997207642,-0.13401474058628082,0.34136083722114563,-0.13900147378444672,0.05508178099989891,0.028072284534573555,0.13100780546665192,-0.1577903926372528,-0.31738489866256714,0.007031859830021858,-0.18667365610599518},{-0.6619988083839417,-0.11207360029220581,0.06539484858512878,1.0548490285873413,0.9769732356071472,-0.5301526784896851,-0.2757363021373749,0.3473271131515503,0.5879912376403809,-0.006229977123439312,0.279941588640213,-0.07016658037900925,-0.022682972252368927,-0.04106387123465538,0.019512783735990524,-0.2898997366428375,0.06233060359954834,0.1299903243780136,-0.07747504860162735,0.19905881583690643,0.09704004973173141,0.11242187768220901,-0.2923476994037628,0.06168587505817413,-0.43188461661338806,0.03965574875473976,-0.10284657031297684,0.10793614387512207,0.09376627951860428,-0.358778178691864,0.06876504421234131,0.10714901983737946,0.2730368971824646,0.17261220514774323,-0.23741525411605835,-0.0696072056889534,-0.015640223398804665,-0.11819147318601608,-0.7035664319992065,-0.07357306778430939,-0.42371636629104614,-0.0768672302365303,0.011908240616321564,-0.11795385926961899,-0.25960493087768555,-0.24430376291275024,0.11862066388130188,0.022123295813798904,-0.011181001551449299,0.30599501729011536,-0.12001114338636398,-0.016143798828125,-0.028187474235892296,-0.38583117723464966,-0.07149612903594971,0.29084131121635437,0.18099769949913025,-0.12633632123470306,-0.2369195520877838,-0.11613260954618454,-0.12144817411899567,0.0817403644323349,-0.010817959904670715,-0.07691704481840134},{0.09752149134874344,0.15726549923419952,0.03222481906414032,-0.08625762909650803,0.06452351063489914,0.05478043109178543,0.06753987073898315,-0.05869606137275696,-0.09546840190887451,0.06361131370067596,-0.007925867103040218,-0.09302036464214325,-0.004459753632545471,-0.021072767674922943,-0.05571896210312843,0.18319937586784363,0.08801628649234772,-0.11954440921545029,-0.02046729251742363,-0.18458528816699982,-0.09572821110486984,-0.12587207555770874,-0.05840403214097023,0.042017970234155655,0.033832766115665436,0.020222647115588188,0.08763616532087326,0.010402636602520943,0.06993904709815979,0.11784965544939041,-0.029682783409953117,0.09627552330493927,0.08549243211746216,-0.028912270441651344,0.0011562228901311755,0.12094905972480774,-0.005261648911982775,0.046760279685258865,0.023988282307982445,0.13355860114097595,-0.13444828987121582,-0.009641183540225029,-0.1467009037733078,0.05452369153499603,-0.04042970761656761,0.10986809432506561,0.06917327642440796,0.09685894846916199,-0.0022222266998142004,0.012529337778687477,0.025929490104317665,-0.0022470697294920683,-0.20564714074134827,0.06445126980543137,-0.04618323594331741,-0.10024964809417725,0.08665984869003296,0.11348874866962433,-0.06285934895277023,0.08198483288288116,-0.050606515258550644,0.0665232315659523,-0.009718087501823902,-0.08808550238609314},{0.24767690896987915,-0.1622217297554016,-0.003358798334375024,-0.43895137310028076,0.1297731101512909,-0.0791824609041214,-0.38412392139434814,0.19560648500919342,-0.0025142920203506947,0.10418776422739029,0.1767416000366211,0.009641422890126705,-0.107359878718853,-0.21288201212882996,0.18352465331554413,-0.16134993731975555,0.12549276649951935,-0.0603511780500412,0.16268356144428253,-0.1898440271615982,0.2806037962436676,0.3413412868976593,0.09627486765384674,-0.010097593069076538,0.23190845549106598,-0.10793856531381607,0.04130640625953674,-0.008209959603846073,-0.04736469313502312,0.06208743527531624,0.11366040259599686,0.15293538570404053,-0.12427733838558197,-0.17172670364379883,0.1448354423046112,0.122559554874897,0.14273078739643097,0.08463113754987717,0.02553999237716198,0.16817426681518555,0.04086257889866829,0.007579930126667023,-0.260079562664032,-0.17826174199581146,-0.3660466969013214,-0.2064896672964096,0.1916179656982422,-0.08985372632741928,-0.12555716931819916,0.03981463238596916,0.222711980342865,-0.08923856168985367,-0.055791039019823074,0.022700119763612747,-0.21186630427837372,-0.07389909029006958,-0.060823485255241394,0.18773019313812256,0.12852606177330017,0.0039694225415587425,-1.146232008934021,0.20756179094314575,-0.24012447893619537,0.24849921464920044},{-0.010619365610182285,-0.15223221480846405,0.0329141840338707,0.05451129749417305,0.195956289768219,-0.2062085121870041,-0.0535152442753315,0.015792889520525932,0.07128214091062546,0.030666988343000412,-0.11948899179697037,-0.01306858565658331,0.1448737382888794,0.038397613912820816,-0.1195129007101059,0.1557009220123291,-0.1769835650920868,-0.19666622579097748,0.12803728878498077,0.04963154345750809,-0.010079959407448769,0.12200581282377243,-0.028626225888729095,0.053205206990242004,0.05004577338695526,0.07683850824832916,0.17625397443771362,-0.14193680882453918,0.13403460383415222,-0.07724887132644653,-0.08522999286651611,0.0718717873096466,0.214291512966156,-0.0770655944943428,0.037577297538518906,-0.09258083254098892,-0.03109518624842167,0.03358883038163185,-0.04413836449384689,-0.0890825167298317,-0.038122788071632385,0.14427289366722107,-0.06671935319900513,-0.13059988617897034,-0.15574203431606293,-0.10364831238985062,-0.09728122502565384,-0.12691844999790192,0.14442245662212372,0.08871158957481384,-0.09793844819068909,-0.06048697233200073,-0.1636544018983841,-0.23624855279922485,0.21005766093730927,-0.18125194311141968,0.04553903639316559,0.1000586748123169,-0.2463051974773407,0.09069474786520004,-0.18081670999526978,0.18287552893161774,-0.17487691342830658,0.061221327632665634},{0.26193007826805115,0.10838975012302399,-0.045192651450634,-0.6435993313789368,-0.11110930144786835,-0.06380745768547058,-0.17448267340660095,-0.2308543175458908,-0.3595072627067566,0.01842176727950573,-0.1547575742006302,-0.04269237816333771,0.18591855466365814,0.1424945592880249,0.31203794479370117,-0.20503930747509003,0.11707259714603424,0.015475297346711159,0.1353350728750229,0.1819487363100052,0.06648274511098862,0.20854973793029785,0.2595081627368927,-0.06409233063459396,0.2830895483493805,-0.013999639078974724,0.03275834769010544,0.12368686497211456,-0.10357857495546341,-0.0084454994648695,-0.0002973562222905457,-0.06068592518568039,-0.17969828844070435,-0.25147661566734314,0.2014506608247757,-0.1184081956744194,0.19476516544818878,0.23610059916973114,-0.043717045336961746,-0.04105302318930626,0.021918386220932007,0.0685989037156105,0.08034372329711914,-0.36471349000930786,0.1517886072397232,-0.05691609904170036,-0.02410992793738842,-0.08652172982692719,0.07294178009033203,0.11119528859853745,-0.09068764746189117,0.026067018508911133,0.045630257576704025,0.014254698529839516,-0.07072171568870544,0.04315582290291786,-0.3145381808280945,0.152823343873024,0.09693911671638489,0.09870180487632751,-0.08389880508184433,-0.01597926951944828,-0.09427661448717117,0.26966187357902527},{-0.8186972141265869,0.15436261892318726,0.13616563379764557,1.4980723857879639,1.4629311561584473,-0.9901415109634399,-0.0013114998582750559,0.5289992690086365,0.7130342721939087,-0.05862247571349144,0.4116802513599396,0.13673481345176697,-0.2979772090911865,-0.1675318479537964,-0.2494206726551056,-0.7161465883255005,0.2701149880886078,0.4352394938468933,-0.0904259979724884,0.6545360684394836,0.16568006575107574,-0.180581197142601,-0.3370950222015381,-0.006977344863116741,-0.5053030252456665,-0.22273454070091248,-0.1417369842529297,0.10402963310480118,0.14639587700366974,-0.6120303869247437,-0.02056059055030346,0.2505630850791931,0.5105299353599548,0.5090803503990173,-0.19699528813362122,0.17765070497989655,0.6632919907569885,0.17316338419914246,-0.8079434633255005,-0.3300323486328125,-0.510612964630127,-0.013046657666563988,0.3727162480354309,-0.4853968322277069,0.006118509918451309,-0.5890914797782898,0.006328892428427935,-0.027710599824786186,0.18735654652118683,0.7823807597160339,-0.46227988600730896,-0.27290794253349304,0.548288106918335,-0.5779151916503906,-0.12975333631038666,0.5144084692001343,-0.14147302508354187,0.019374800845980644,0.01553296111524105,0.20070724189281464,0.40538308024406433,-0.22841089963912964,0.4799552261829376,-0.5085256099700928},{0.16722825169563293,0.043353207409381866,0.2382451444864273,0.050346001982688904,0.03282199800014496,-0.2787165343761444,-0.0744749903678894,0.15509970486164093,0.2949656546115875,-0.12556718289852142,0.16751067340373993,0.06927597522735596,-0.11128054559230804,0.09769631177186966,0.017238520085811615,0.27830761671066284,0.004580892622470856,-0.0882391706109047,-0.03131964057683945,-0.012989550828933716,0.08402737230062485,0.10654031485319138,0.11370784789323807,0.07054655253887177,-0.30977675318717957,-0.08167121559381485,-0.05802886560559273,0.03909504413604736,0.05469018220901489,0.06856539845466614,-0.09029854834079742,-0.042795613408088684,0.21526570618152618,0.09050534665584564,0.020811863243579865,-0.09583024680614471,-0.30951565504074097,-0.04218524694442749,-0.20564141869544983,0.046162281185388565,0.0010767870116978884,-0.11642751842737198,0.22292406857013702,-0.13849617540836334,-0.15088246762752533,-0.40279415249824524,0.1522391140460968,0.044311605393886566,-0.08143261075019836,0.13265801966190338,-0.1664365828037262,0.048531800508499146,-0.4552106261253357,-0.09936263412237167,0.12423110008239746,-0.10340390354394913,-0.191523477435112,-0.0076363580301404,0.11238234490156174,0.04855264350771904,-0.08723654597997665,0.07781732082366943,-0.336100310087204,0.0021117832511663437},{0.025632578879594803,-0.06035033240914345,0.021834488958120346,0.016214581206440926,0.04820218309760094,-0.10860443115234375,-0.14514301717281342,-0.050613753497600555,-0.05185893550515175,0.01814071647822857,0.07038458436727524,-0.11546207219362259,0.08921796083450317,0.11993585526943207,0.11706201732158661,0.08558821678161621,-0.06973995268344879,-0.06087373197078705,-0.06246034428477287,0.041208650916814804,0.03331712260842323,0.01614782027900219,0.11595582962036133,-0.03783780708909035,0.05862083286046982,-0.06849607080221176,0.049655307084321976,-0.07034207880496979,0.1121167242527008,-0.10098271816968918,-0.04656561091542244,-0.08739738166332245,0.1069376990199089,0.07835055887699127,-0.030705220997333527,0.07874446362257004,-0.09303406625986099,-0.0772409662604332,-0.0905759409070015,0.06951925903558731,0.05289066210389137,-0.15776169300079346,-0.06226886808872223,-0.03970520943403244,-0.07783133536577225,-0.07637263089418411,-0.07839947938919067,0.06000508368015289,0.07732781022787094,0.05914951488375664,-0.10375600308179855,-0.09974823892116547,-0.272765576839447,-0.07397346943616867,-0.004706963896751404,-0.05072064697742462,0.001138497842475772,-0.03481680154800415,0.07625744491815567,-0.11560796201229095,0.008591080084443092,-0.03235677629709244,-0.0008832003804855049,0.059267558157444},{-0.26575905084609985,-0.07081387937068939,0.03591643646359444,0.5268502235412598,0.6317277550697327,0.2360362708568573,0.22466441988945007,0.09649264067411423,0.21460287272930145,-0.13357746601104736,0.3586622476577759,-0.06097365543246269,-0.1620102971792221,-0.11583593487739563,-0.3365146517753601,0.12592650949954987,-0.030605198815464973,0.1306188702583313,-0.11864479631185532,-0.017912346869707108,0.019128521904349327,-0.2332511842250824,-0.306625634431839,-0.04128262400627136,-0.19901657104492188,0.1176677867770195,-0.03957042470574379,-0.14675799012184143,-0.03646748512983322,0.18872609734535217,0.14349085092544556,0.07235822826623917,0.03422556817531586,0.38124582171440125,-0.17774567008018494,0.10548309236764908,0.054458484053611755,0.08109001070261002,-0.1301913857460022,0.011133763939142227,0.11296206712722778,-0.15640093386173248,0.03572541102766991,0.5514940023422241,-0.08585282415151596,0.0567023865878582,0.027482297271490097,-0.009554620832204819,0.15439851582050323,-0.016627401113510132,-0.11130090057849884,0.06523721665143967,0.06670045852661133,0.01306173950433731,0.20533058047294617,0.07974263280630112,0.16363023221492767,-0.18369823694229126,0.03749300166964531,0.14741641283035278,0.13287653028964996,-0.058071378618478775,0.2853209376335144,-0.5233106017112732},{0.1744859516620636,-0.07728126645088196,-0.004982158076018095,0.1352050006389618,-0.07311274111270905,-0.11644236743450165,-0.23908333480358124,-0.017828237265348434,0.13624678552150726,0.14239583909511566,-0.03641645982861519,0.134378120303154,-0.01444617286324501,-0.008161060512065887,-0.2365628480911255,-0.29140031337738037,0.025249289348721504,-0.12890343368053436,0.04784037545323372,-0.11524558812379837,0.09535153955221176,-0.09515184164047241,-0.05934125557541847,-0.010551223531365395,-0.06695642322301865,0.14590005576610565,0.03804239630699158,-0.02506084367632866,-0.11716156452894211,0.14441511034965515,0.09168399125337601,-0.06161210685968399,-0.13476327061653137,0.08628890663385391,0.0664178803563118,0.013308295980095863,0.26598188281059265,0.05186176300048828,-0.17170798778533936,0.055503249168395996,0.03788142651319504,0.046306952834129333,0.20171670615673065,-0.04692702740430832,-0.2256578952074051,-0.17624273896217346,0.06620091944932938,0.08163998275995255,-0.046735670417547226,0.13089969754219055,0.0007147884462028742,-0.07646305859088898,0.1826036125421524,0.1525532454252243,0.018808167427778244,-0.01706877164542675,0.010429785586893559,-0.165385901927948,0.06818997859954834,0.11861291527748108,0.08051635324954987,0.019226964563131332,-0.02681088075041771,-0.0024580906610935926},{-0.11264247447252274,-0.07088734954595566,0.13406626880168915,0.06700390577316284,0.083575040102005,-0.01694061979651451,-0.09733372926712036,0.10348525643348694,-0.16400021314620972,-0.12811002135276794,0.051375992596149445,0.07296518236398697,0.060429997742176056,0.018496772274374962,-0.0261156614869833,-0.0026241401210427284,-0.04650520533323288,0.10194496065378189,-0.10246776044368744,-0.11339402943849564,0.07308604568243027,-0.06989803165197372,0.07780952006578445,0.07430923730134964,0.13616043329238892,-0.04366623982787132,-0.15928150713443756,0.08539631217718124,0.05462720990180969,-0.122247613966465,-0.0375208854675293,0.13266022503376007,0.07029352337121964,0.03906029090285301,0.05318053439259529,-0.12510226666927338,-0.13266262412071228,0.13510821759700775,0.042059678584337234,0.0814632698893547,0.10287925601005554,0.04306185990571976,0.04196813702583313,-0.013508450239896774,-0.08016964048147202,0.14701537787914276,0.11082930117845535,0.14219842851161957,0.02279416099190712,0.06846140325069427,-0.06973673403263092,-0.1378171145915985,-0.15411697328090668,0.08597730100154877,0.007609780412167311,0.14720481634140015,-0.054669830948114395,0.13119161128997803,0.01101037859916687,-0.010993151925504208,-0.11838262528181076,0.00646905368193984,0.09549015015363693,-0.020474674180150032},{-0.1720864474773407,0.13746920228004456,-0.03504576161503792,-0.3000093698501587,-0.3004743754863739,0.4115216135978699,0.20327895879745483,-0.5201416611671448,-0.5575224161148071,-0.06811951845884323,-0.33574748039245605,-0.008982069790363312,0.34248390793800354,0.03605549409985542,0.162327378988266,-0.14746378362178802,-0.1148451566696167,0.19069507718086243,0.01476224884390831,0.15100152790546417,0.06801667809486389,-0.10788195580244064,0.08362022787332535,0.08600860089063644,0.29663917422294617,-0.1477208286523819,-0.15730877220630646,-0.017747171223163605,0.198149174451828,-0.4174731969833374,-0.28212395310401917,0.1261274814605713,-0.055050332099199295,-0.2231530398130417,0.33721089363098145,-0.015483814291656017,-0.07238180190324783,0.3863815367221832,0.7483912706375122,-0.09823291748762131,-0.19002294540405273,0.007189572788774967,-0.07174309343099594,-0.2178582400083542,0.31754210591316223,0.4828215539455414,-0.13091108202934265,0.1225273609161377,0.06558484584093094,0.05765319615602493,0.33855369687080383,-0.30264320969581604,0.23264220356941223,-0.06454034149646759,-0.1446714848279953,0.08345308154821396,0.0822274386882782,0.5597858428955078,0.019579360261559486,0.0836741030216217,0.18187274038791656,-0.31849101185798645,0.20169390738010406,0.06888699531555176},{-0.1861482560634613,0.12283993512392044,0.005787880625575781,-0.03767505660653114,0.015421380288898945,-0.30699068307876587,0.1060558557510376,0.05108410120010376,0.14764222502708435,-0.10455040633678436,0.19529128074645996,-0.05305376276373863,-0.2544124126434326,-0.17751772701740265,-0.08020544797182083,-0.1029951423406601,0.024341028183698654,0.3206842541694641,-0.21301624178886414,0.18535453081130981,0.03217332065105438,-0.12880152463912964,-0.10081809759140015,0.0013959876960143447,-0.18595251441001892,-0.12333936244249344,-0.052018530666828156,0.07786603271961212,-0.10743800550699234,-0.1443779319524765,0.014334755949676037,0.17905622720718384,0.28907275199890137,0.17744243144989014,-0.12451600283384323,0.18412628769874573,0.09535542875528336,0.11667611449956894,-0.12438921630382538,0.10707326978445053,-0.08588512241840363,-0.043616004288196564,0.16360776126384735,-0.13556182384490967,0.19124624133110046,-0.19300948083400726,-0.03016878105700016,0.016414375975728035,0.08525586873292923,0.19564202427864075,-0.22262942790985107,-0.12660737335681915,-0.0783066675066948,-0.05616278201341629,0.06349702924489975,0.155305415391922,-0.20331113040447235,-0.11054524779319763,0.018036846071481705,0.10754022002220154,-0.1665884256362915,-0.06749992817640305,-0.017183920368552208,-0.03255860134959221},{0.17160305380821228,0.01880042254924774,0.055138636380434036,0.18179403245449066,0.05059698969125748,0.12336636334657669,-0.16034859418869019,-0.02122681587934494,0.107133649289608,0.08018048107624054,0.07100389152765274,-0.1392681896686554,-0.13051791489124298,-0.176044300198555,-0.1570347249507904,0.04122794046998024,-0.03507808968424797,-0.001297073089517653,-0.05373939499258995,-0.19851285219192505,-0.011635840870440006,0.034572988748550415,-0.09307313710451126,-0.012360340915620327,0.21853621304035187,-0.003059014678001404,-0.024421658366918564,0.12093520909547806,-0.0023334173019975424,0.0731833353638649,0.014507154934108257,0.08201856166124344,-0.024425573647022247,0.015635959804058075,0.07876256853342056,0.08861692994832993,0.03582800179719925,-0.1810522973537445,-0.10319215059280396,0.08490093052387238,0.016229748725891113,-0.045600611716508865,-0.1838553249835968,0.15402385592460632,-0.10375544428825378,0.2178494781255722,0.07773492485284805,0.01470889337360859,-0.11672777682542801,-0.10372298955917358,0.10051625967025757,0.00862704124301672,-0.043892182409763336,-0.03815994784235954,-0.16119468212127686,-0.0012019281275570393,0.12196945399045944,-0.03686712682247162,0.07160227745771408,0.10926104336977005,-0.1998123824596405,0.07473094016313553,-0.008813454769551754,0.09072603285312653},{0.03784314915537834,0.02831096202135086,-0.13184189796447754,-0.1534077227115631,-0.00031054700957611203,-0.05931669473648071,-0.35562071204185486,0.03208259120583534,-0.10463675856590271,0.1432582587003708,-0.01677487976849079,0.05772288143634796,0.06524508446455002,-0.10367778688669205,0.18660438060760498,-0.1299687623977661,0.12936101853847504,-0.00966810155659914,-0.009407473728060722,0.005376056302338839,0.13069576025009155,0.167564257979393,0.11419849842786789,-0.10541416704654694,0.05572960898280144,0.09793544560670853,-0.05817307159304619,-0.07133568823337555,-0.1770370751619339,0.05700031667947769,0.05358925834298134,-0.13189169764518738,-0.005983145907521248,-0.08308632671833038,0.05642227455973625,-0.0046713887713849545,0.14437945187091827,0.09813747555017471,-0.2288796305656433,-0.012334626168012619,-0.07770247757434845,0.13012748956680298,0.12518736720085144,-0.05994375795125961,-0.1002655103802681,-0.038625504821538925,0.02891271747648716,-0.0008783467928878963,0.11248782277107239,0.067655548453331,-0.03877444565296173,-0.07364638149738312,0.027336036786437035,-0.062268562614917755,-0.040551453828811646,0.028656363487243652,-0.010022561997175217,-0.023837585002183914,0.14389117062091827,0.07710205018520355,-0.04730598255991936,0.10477729141712189,-0.14424295723438263,0.11232607066631317},{0.05189572274684906,0.16650034487247467,0.026866106316447258,-0.06533461064100266,0.1237565353512764,-0.13036663830280304,-0.22721822559833527,0.013928348198533058,-0.13414138555526733,0.06787014752626419,-0.10291573405265808,0.11918912827968597,-0.020792612805962563,0.036287229508161545,0.09498915076255798,-0.01941533014178276,0.08916126936674118,0.07362212240695953,0.10115709155797958,0.035662949085235596,-0.061447929590940475,-0.07431398332118988,0.20213530957698822,0.08226467669010162,0.2040797472000122,-0.01864403858780861,-0.12960514426231384,-0.0682983472943306,-0.04345105588436127,-0.06304774433374405,0.04124126955866814,-0.11130154132843018,0.09665148705244064,0.03891391679644585,-0.017406780272722244,0.07647359371185303,0.08840321004390717,0.048163190484046936,0.17668619751930237,-0.10060469806194305,-0.005966669879853725,-0.08016589283943176,0.07765734195709229,0.041918762028217316,-0.05149703472852707,-0.05048711970448494,-0.0019429526291787624,0.02687939628958702,-0.0377783365547657,0.10035844892263412,-0.012748675420880318,0.009015957824885845,-0.15316466987133026,0.07549325376749039,-0.19932743906974792,0.04118306189775467,-0.1966174691915512,-0.005167214199900627,0.1038280501961708,0.07740779966115952,-0.07706909626722336,0.058826059103012085,0.0029801074415445328,0.05470309033989906},{-0.1670127660036087,-0.013203352689743042,-0.10970839112997055,-0.05511731281876564,-0.08740120381116867,0.04408087953925133,0.0450570285320282,-0.0007575526251457632,0.11206367611885071,0.07949090003967285,0.08734950423240662,-0.11863924562931061,-0.14186641573905945,0.028679192066192627,0.07108675688505173,0.21338631212711334,-0.1709119826555252,-0.06041368097066879,-0.085878387093544,-0.0025929731782525778,0.06292036175727844,0.10842890292406082,-0.1925983726978302,-0.12816935777664185,-0.08668118715286255,0.06585946679115295,0.1217893734574318,-0.04358213022351265,-0.1475229263305664,0.19461561739444733,0.03454751521348953,0.09193413704633713,0.2204979956150055,-0.12351737916469574,0.005659577436745167,0.005966232158243656,-0.13469286262989044,-0.03712912276387215,0.0012027912307530642,-0.06158795952796936,-0.06916137039661407,0.013473549857735634,-0.20221790671348572,-0.04955371469259262,0.029687944799661636,0.023067142814397812,-0.02350405417382717,0.011250466108322144,0.0484134778380394,0.10677459090948105,0.12395931035280228,0.12266957759857178,-0.21146221458911896,0.08945729583501816,-0.025714876130223274,0.08096453547477722,0.03539741784334183,0.06560128182172775,0.023657171055674553,-0.18883073329925537,-0.1987716257572174,0.08914680033922195,-0.15387746691703796,0.11992555111646652},{0.07102259248495102,-0.080799400806427,0.049345310777425766,-0.037635765969753265,-0.2895592451095581,0.0006658087950199842,-0.0007083873497322202,0.0534064844250679,0.07915666699409485,-0.042821645736694336,-0.04615602642297745,-0.12420179694890976,0.13348910212516785,-0.14747370779514313,0.15521401166915894,0.11323513090610504,0.004712947644293308,0.03118239715695381,-0.02753068134188652,-0.08776724338531494,-0.05816931277513504,0.19178570806980133,0.013037762604653835,0.07670576125383377,0.01946701854467392,-0.003329172730445862,-0.004456964787095785,0.20786802470684052,-0.1339339166879654,0.16933295130729675,0.07794950157403946,-0.06618577241897583,-0.016246551647782326,-0.06631026417016983,0.02490941435098648,0.1340305358171463,-0.12776000797748566,-0.2569478154182434,-0.19049496948719025,0.05249255523085594,0.12470898777246475,0.04604528099298477,-0.1894371211528778,0.0934152826666832,-0.1081218346953392,-0.12796472012996674,-0.036872439086437225,0.05356460437178612,-0.11473958194255829,-0.034006837755441666,0.1476399153470993,0.14580880105495453,-0.24262623488903046,-0.1458171010017395,0.06441467255353928,0.0622490830719471,0.11249399930238724,0.0693388357758522,-0.014320846647024155,0.11247174441814423,-0.40896034240722656,0.02319023199379444,-0.07508166879415512,0.15734103322029114},{0.038135673850774765,-0.056246038526296616,-0.1291370987892151,0.06988798081874847,-0.022032249718904495,0.011964385397732258,-0.10988888889551163,-0.06328976899385452,-0.12968026101589203,-0.12158450484275818,0.11048869788646698,-0.1441749632358551,-0.029139311984181404,-0.17347000539302826,0.06930109113454819,0.24184127151966095,-0.09737371653318405,-0.17097656428813934,-0.15284903347492218,-0.003519897349178791,-0.03577180206775665,-0.1020926684141159,0.06438170373439789,0.010465644299983978,0.11920300871133804,-0.0775364562869072,-0.11938105523586273,0.031523361802101135,-0.2684784531593323,0.28144121170043945,0.08278526365756989,-0.14244556427001953,0.06265000998973846,0.04478928819298744,-0.19117087125778198,0.08367325365543365,-0.07864732295274734,0.02535322867333889,0.10241519659757614,0.10502313822507858,0.1396721601486206,-0.026622340083122253,-0.0398358479142189,-0.00413187500089407,0.05293770134449005,0.011401957832276821,-0.06569995731115341,-0.007457979489117861,-0.13404038548469543,0.0004538673674687743,-0.03907935693860054,0.1634434461593628,-0.09870846569538116,0.19296632707118988,-0.14204874634742737,-0.07975392043590546,0.113650381565094,-0.03673148900270462,0.051025811582803726,-0.029145589098334312,0.004852471873164177,-0.1615201085805893,-0.07177846133708954,-0.13654585182666779},{-0.016226503998041153,-0.032451555132865906,0.15018028020858765,-0.47983771562576294,-0.17938527464866638,0.09880294650793076,0.02049100399017334,-0.08742211759090424,-0.3497280776500702,-0.15778635442256927,-0.16623957455158234,0.12565039098262787,0.28914645314216614,0.1467905342578888,0.37374845147132874,0.13933876156806946,0.004502734635025263,0.029277147725224495,0.0554676279425621,0.27914565801620483,-0.05005843937397003,0.024841364473104477,0.2719457149505615,-0.05557280778884888,-0.17205078899860382,-0.06856230646371841,0.044899970293045044,-0.05816604942083359,0.1465328335762024,-0.2025507092475891,0.15845231711864471,-0.2837924361228943,-0.19749298691749573,-0.17976021766662598,0.07491760700941086,-0.1946856677532196,-0.09177029877901077,0.33000048995018005,0.20809662342071533,0.11657828092575073,0.17303940653800964,0.029753925278782845,0.07501689344644547,-0.3503921329975128,0.15811914205551147,-0.023817960172891617,0.0922321155667305,0.11364803463220596,0.004259168170392513,0.20341737568378448,-0.16425003111362457,-0.0015726512065157294,0.04496873542666435,0.0649549812078476,0.17425793409347534,-0.18673796951770782,-0.2343752235174179,0.11430558562278748,0.23277446627616882,0.09164899587631226,0.4578878879547119,0.022338438779115677,-0.024402527138590813,0.03547678887844086},{0.14154598116874695,-0.13909567892551422,0.11515144258737564,0.132748544216156,-0.1257086992263794,0.3053901791572571,0.09847480803728104,0.06375337392091751,-0.015309920534491539,0.04094727709889412,0.03205479681491852,-0.26522600650787354,-0.04862578585743904,-0.08970656991004944,-0.16134169697761536,0.28512680530548096,-0.11052829772233963,-0.2430509328842163,-0.06928498297929764,-0.42991548776626587,-0.17258749902248383,-0.06039784103631973,-0.027917157858610153,0.08065057545900345,-0.04419310763478279,-0.11914639919996262,0.15018227696418762,0.06291511654853821,-0.18516236543655396,0.4685872197151184,-0.13242129981517792,-0.03624934330582619,0.06701908260583878,0.030323343351483345,-0.12615424394607544,-0.029644925147294998,-0.3225143551826477,-0.6776980757713318,0.18515431880950928,0.08806276321411133,-0.029154345393180847,-0.03261986002326012,-0.21103113889694214,0.4625925123691559,0.005792302079498768,0.16729265451431274,0.05846486985683441,-0.0475848950445652,0.014645407907664776,-0.5325536727905273,0.12858889997005463,0.08367109298706055,-0.29144781827926636,-0.027151647955179214,0.05622462183237076,-0.12703590095043182,0.2582160234451294,-0.17417362332344055,-0.09301383793354034,-0.034022774547338486,-0.3407139480113983,0.1538069248199463,-0.06048349663615227,-0.1476200968027115},{-0.16692720353603363,0.0927882045507431,0.10800991952419281,-0.27850255370140076,-0.14268508553504944,-0.4474231004714966,-0.13942934572696686,0.12109743803739548,-0.3606947064399719,0.07390479743480682,-0.08282732218503952,0.08819594234228134,0.146258145570755,0.09119139611721039,0.44019824266433716,-0.014528870582580566,0.00749115739017725,0.2846372723579407,0.07045575231313705,0.325173556804657,0.17160063982009888,0.12192326039075851,0.08243942260742188,-0.09941330552101135,-0.054010141640901566,-0.12197424471378326,-0.156854048371315,0.21175025403499603,0.10831207036972046,-0.4419112205505371,-0.12180282175540924,-0.15309786796569824,0.0688321590423584,-0.2229248285293579,0.18154595792293549,-0.090362049639225,-0.1743582785129547,0.3290545642375946,-0.16379423439502716,0.04171749949455261,0.13754288852214813,0.05927567556500435,0.18933559954166412,-0.9314711689949036,0.3947634994983673,-0.5125684142112732,0.16500984132289886,0.11801034957170486,-0.13448019325733185,0.4642878472805023,-0.2101047784090042,-0.14883582293987274,0.049914661794900894,-0.12701711058616638,0.057773157954216,0.05483105778694153,-0.5317816138267517,0.21948976814746857,-0.09527746587991714,0.0729193314909935,0.20873109996318817,-0.14015540480613708,-0.06876727938652039,0.3336161673069},{0.2785318195819855,-0.036335792392492294,0.005477280355989933,0.1098540723323822,-0.2681106925010681,-0.17756372690200806,0.05057783052325249,-0.09840565919876099,0.08165926486253738,-0.024974249303340912,0.07229983806610107,0.10302819311618805,-0.20030465722084045,-0.15913410484790802,-0.20231375098228455,0.15283524990081787,0.04315820336341858,-0.031278353184461594,-0.2207106053829193,-0.05483175814151764,0.021661562845110893,-0.10920190811157227,-0.29763561487197876,0.014843201264739037,0.08150333166122437,-0.0027704620733857155,-0.08963023871183395,-0.003357947338372469,-0.13688278198242188,0.06014019250869751,-0.005558357574045658,-0.01081020850688219,0.08057248592376709,0.2914482057094574,-0.1801510751247406,0.0016672757919877768,0.08391981571912766,-0.09892427176237106,-0.3645576536655426,0.03820520639419556,0.23041856288909912,-0.04168950393795967,-0.16583307087421417,0.05438631772994995,-0.06406394392251968,-0.06857220828533173,-0.04091479256749153,0.05693366751074791,0.0394282191991806,-0.015181166119873524,-0.14916497468948364,0.09385711699724197,-0.09971517324447632,0.1024370789527893,0.08989711850881577,-0.0019503836520016193,0.1691601425409317,-0.18138830363750458,-0.07236988842487335,0.17400872707366943,-0.16138982772827148,-0.06842294335365295,-0.0010910826968029141,-0.01725611835718155},{-0.049584321677684784,0.047558221966028214,0.08438462018966675,-0.03939075395464897,0.012982487678527832,0.15210962295532227,0.10327048599720001,-0.11287185549736023,0.15953995287418365,-0.02612955868244171,0.029078014194965363,-0.10435154289007187,-0.03349294885993004,-0.1360856294631958,0.15741902589797974,-0.014058545231819153,-0.03980296477675438,-0.10189350694417953,-0.0865883156657219,0.1001066192984581,-0.039853837341070175,-0.08291696012020111,-0.11122749000787735,-0.111328125,0.06063464656472206,-0.005908328574150801,0.11966250091791153,0.0822744220495224,-0.20998375117778778,-0.050994712859392166,0.00173542695119977,-0.12087588012218475,-0.10604381561279297,-0.002806561766192317,0.035875480622053146,0.14024370908737183,0.08656980097293854,0.11374369263648987,-0.1211518794298172,0.07824672758579254,-0.16092915832996368,-0.08204548805952072,0.16624672710895538,-0.15112628042697906,0.08540650457143784,-0.043422065675258636,0.007980583235621452,-0.044981591403484344,0.016478246077895164,0.04180990904569626,0.07329372316598892,0.09002374857664108,0.1141246035695076,-0.03257879242300987,-0.11532972753047943,0.14525899291038513,0.023628026247024536,0.05034056305885315,0.024728670716285706,-0.010825739242136478,0.16319617629051208,0.09064462780952454,-0.06039831414818764,-0.050976481288671494},{-0.026875052601099014,-0.109954833984375,-0.07344236224889755,0.2545214891433716,-0.13932783901691437,0.17455649375915527,0.09548354893922806,-0.06486247479915619,-0.011654751375317574,-0.07509849965572357,0.06020646169781685,-0.09060022979974747,-0.024032440036535263,0.05562776327133179,-0.09190523624420166,0.08748422563076019,0.0017115568043664098,-0.06190312281250954,-0.048006415367126465,-0.14454615116119385,0.04317629709839821,-0.11446156352758408,-0.12395923584699631,-0.14577290415763855,-0.028495827689766884,0.14084865152835846,0.04581020772457123,0.015525292605161667,-0.027519995346665382,0.06900423020124435,-0.008657202124595642,0.10889361053705215,-0.11731753498315811,-0.05136893689632416,-0.04252269119024277,-0.005431024823337793,-0.10089050978422165,-0.31975558400154114,0.023800000548362732,-0.07233477383852005,-0.01071194838732481,-0.09718195348978043,-0.04294588416814804,0.21264433860778809,-0.051544465124607086,0.08457522839307785,-0.05651543661952019,-0.10596567392349243,0.034364715218544006,-0.05010196939110756,0.12764820456504822,0.02791755460202694,0.19408749043941498,-0.11202052980661392,0.1439911425113678,-0.033338677138090134,0.2148224115371704,-0.21284836530685425,-0.14057280123233795,-0.11492934823036194,-0.17701643705368042,0.1084672287106514,0.1438799798488617,-0.009384225122630596},{0.10802842676639557,-0.06794692575931549,-0.1079135462641716,0.6480743288993835,0.20860379934310913,0.33296966552734375,-0.015564529225230217,0.0498671680688858,0.37532827258110046,0.1355569064617157,0.036163900047540665,-0.22133107483386993,-0.10287512093782425,-0.19097980856895447,-0.4109746217727661,-0.0753486379981041,-0.11399950832128525,-0.1576114296913147,0.05463436245918274,-0.34945303201675415,-0.1505109816789627,-0.12195698171854019,-0.24416784942150116,-0.06341519206762314,-0.08066350966691971,0.0857139378786087,0.03263619542121887,-0.11014343798160553,0.08314354717731476,0.27426019310951233,0.25467151403427124,0.07626412063837051,-0.07950551062822342,-0.00597253767773509,0.027023185044527054,0.0054403385147452354,-0.013622753322124481,-0.5446754693984985,-0.0904005840420723,-0.0040054903365671635,-0.1599937379360199,-0.09337735921144485,-0.16695716977119446,0.4829263389110565,-0.416837602853775,0.3550969958305359,0.013679441064596176,-0.06962969899177551,0.04501316323876381,-0.4076217710971832,0.10623425990343094,0.24774178862571716,0.017574414610862732,-0.15477541089057922,0.007004690356552601,-0.02706584520637989,0.45545122027397156,-0.27590426802635193,-0.05007723718881607,0.09461299329996109,-0.056647125631570816,0.29583561420440674,0.033038124442100525,-0.15008874237537384},{-0.10678665339946747,-0.1993045210838318,-0.291747123003006,-0.34702083468437195,-0.05799361690878868,0.46713870763778687,-0.12522824108600616,0.09299814701080322,0.4134109914302826,0.20333601534366608,-0.09246310591697693,-0.4774639904499054,0.2578657865524292,-0.5047781467437744,0.07880552113056183,0.24077598750591278,-0.15124821662902832,-0.3167635500431061,0.154179185628891,-0.6888471841812134,-0.21823447942733765,0.24564792215824127,-0.09965740889310837,-0.13982908427715302,0.3880840539932251,-0.08143843710422516,0.14466804265975952,0.056061629205942154,-0.11330512911081314,0.8259683847427368,0.07371128350496292,0.3537919521331787,0.038708172738552094,-0.1316395252943039,-0.06322300434112549,0.13769303262233734,-0.19236662983894348,-0.31824013590812683,0.1819741576910019,0.010855813510715961,-0.1016550362110138,-0.17363308370113373,-0.38751065731048584,0.818751871585846,-0.17047961056232452,1.2129831314086914,-0.01428698655217886,-0.11369223892688751,-0.014619643799960613,-0.45972201228141785,0.6928005814552307,0.08818431943655014,-0.5096102952957153,-0.014470077119767666,-0.4657452702522278,0.12799115478992462,0.5151197910308838,0.02217867784202099,0.2517159879207611,-0.20458252727985382,-0.3448772728443146,0.14246922731399536,-0.15290701389312744,-0.11297046393156052},{-0.1627841591835022,0.06511783599853516,0.008106129243969917,-1.1169401407241821,0.08728999644517899,-0.655113935470581,-0.35095342993736267,-0.005584992468357086,0.31265538930892944,-0.10145170986652374,0.037937868386507034,0.08522171527147293,0.16709057986736298,0.16720448434352875,0.3991570770740509,0.2843503952026367,0.18004901707172394,-0.2503959834575653,0.1441122442483902,0.20500099658966064,-0.2418748140335083,0.15137211978435516,0.15062646567821503,0.08955595642328262,-0.22381891310214996,-0.014370119199156761,-0.06457538157701492,-0.10373227298259735,0.060310449451208115,0.2966497838497162,-0.18813009560108185,-0.12093684822320938,-0.0040067872032523155,-0.22388970851898193,-0.5074903964996338,-0.0777549222111702,-0.017821714282035828,0.285954087972641,0.09170721471309662,0.02751999907195568,-0.007131083402782679,0.018938617780804634,0.2047126740217209,-0.3699021637439728,0.32155531644821167,0.19636984169483185,0.10977128893136978,0.056016407907009125,0.01619168370962143,0.13131362199783325,-0.3033520579338074,0.03360532969236374,-0.38937821984291077,0.025008663535118103,-0.14201997220516205,-0.11156640201807022,-0.2598109841346741,-0.0821298211812973,0.40108442306518555,-0.12837348878383636,0.6493008732795715,-0.017906423658132553,-0.6168562769889832,0.27505171298980713},{0.2256792038679123,0.032043855637311935,-0.06738314777612686,0.2981671392917633,-0.6180420517921448,0.4788825809955597,0.1382550150156021,-0.30038341879844666,-0.46825775504112244,-0.02185908704996109,-0.2800084352493286,-0.04327894374728203,0.28383100032806396,0.0467911995947361,0.3175809383392334,-0.04649748653173447,-0.1715853065252304,-0.006958870682865381,0.09298315644264221,-0.11665021628141403,-0.17223411798477173,0.038413021713495255,0.005451779812574387,-0.20409350097179413,0.057537201792001724,0.014717246405780315,0.102035753428936,0.05998987331986427,-0.04331197589635849,0.14503583312034607,0.04461502656340599,-0.11302292346954346,-0.19293653964996338,-0.15922601521015167,0.4135820269584656,-0.030783675611019135,-0.40902474522590637,-0.18026435375213623,0.08745992928743362,0.07097084075212479,-0.040347207337617874,0.07488405704498291,-0.11723659187555313,0.02847442775964737,0.0358537882566452,0.1183943822979927,-0.054417744278907776,-0.12503284215927124,-0.17359982430934906,-0.4364164173603058,0.3006109297275543,0.1723119616508484,-0.04661460220813751,0.057826872915029526,0.013454931788146496,-0.19749313592910767,0.24519307911396027,-0.16949544847011566,-0.20207686722278595,-0.07970737665891647,-0.0009116134606301785,0.025232607498764992,0.16094964742660522,0.18925422430038452},{0.15325665473937988,0.17305703461170197,0.018057065084576607,0.127855584025383,0.01771431416273117,0.07583639025688171,-0.052428003400564194,0.005302035715430975,0.02907569706439972,0.09562931954860687,-0.01779392547905445,-0.016719557344913483,0.08172257989645004,-0.08043600618839264,0.07111266255378723,-0.1378953456878662,0.09708031266927719,-0.018497025594115257,-0.143352672457695,-0.04058247432112694,0.04426491633057594,-0.09599748253822327,0.1891225427389145,0.17282667756080627,0.006103128660470247,-0.05761198699474335,-0.09476253390312195,0.09401293843984604,0.39373064041137695,-0.08822035789489746,0.11045238375663757,-0.0810549333691597,-0.03434513136744499,0.021969754248857498,-0.14267876744270325,-0.007386990822851658,0.2121451497077942,0.004991732072085142,0.1032806858420372,0.0483473502099514,-0.10072343051433563,-0.0007091527804732323,0.047287434339523315,0.016067275777459145,-0.06632332503795624,0.008173990063369274,0.1631852090358734,0.12236572802066803,0.12601596117019653,-0.039883311837911606,-0.057569604367017746,-0.13466642796993256,0.14757999777793884,0.12292186170816422,0.01503788772970438,0.09266369044780731,0.16328555345535278,-0.007381927687674761,0.07492408156394958,0.13852356374263763,-0.09808965027332306,-0.026364928111433983,-0.05720711499452591,-0.05088043585419655},{0.3371945917606354,-0.04300704598426819,0.07089871913194656,-0.3217974901199341,-0.31147876381874084,0.36448991298675537,-0.11986885219812393,-0.7188151478767395,-0.7929686903953552,0.11260472238063812,-0.8252863883972168,0.22120462357997894,0.2600325047969818,0.3771098554134369,0.0269528329372406,-0.24208489060401917,0.13195888698101044,-0.16685158014297485,0.12925025820732117,0.4995853006839752,-0.003040024545043707,0.21736006438732147,0.5715692639350891,0.04995591938495636,0.38151034712791443,0.3048740029335022,-0.13543842732906342,-0.3421221375465393,-0.11737603694200516,-0.19886860251426697,-0.06521962583065033,-0.26032698154449463,-0.23260077834129333,-0.35496121644973755,0.38243213295936584,-0.5665944814682007,0.13073080778121948,0.17492614686489105,0.621099054813385,-0.18932731449604034,-0.04452209174633026,0.2682848572731018,0.30564528703689575,-0.6655651926994324,0.10367259383201599,0.1338668316602707,0.042713623493909836,0.15547312796115875,0.11034868657588959,-0.12525711953639984,-0.0695483461022377,-0.3716381788253784,0.5201332569122314,0.2777135372161865,-0.08700015395879745,-0.06261927634477615,-0.35776644945144653,0.295696496963501,0.1925717294216156,0.08835815638303757,0.4067910313606262,-0.05794455483555794,0.21850432455539703,0.3400425910949707},{0.019539175555109978,-0.07320942729711533,-0.2559441030025482,-0.08547015488147736,0.1915043443441391,0.3194209039211273,0.0657232478260994,-0.05453304946422577,0.002061364706605673,0.07529236376285553,-0.018977588042616844,-0.12373517453670502,0.14019975066184998,0.07890059798955917,0.11426904052495956,-0.12590816617012024,-0.015448478050529957,-0.2522777020931244,0.07730477303266525,0.050234321504831314,0.045544952154159546,-0.0478784516453743,0.17181187868118286,0.050543103367090225,0.1836802065372467,0.13818000257015228,-0.010751443915069103,-0.2801677882671356,-0.09110669791698456,0.2766682207584381,0.1034240573644638,-0.20304402709007263,-0.20806369185447693,-0.1409466713666916,0.0791030153632164,-0.19910430908203125,-0.035222094506025314,-0.05370470508933067,0.42253556847572327,-0.02741256356239319,-0.05160332843661308,0.03974062576889992,-0.1122697964310646,0.09444257616996765,-0.053359974175691605,0.3707445561885834,0.020227067172527313,-0.09264109283685684,0.00958944670855999,-0.26057955622673035,0.27248698472976685,0.18041099607944489,0.327228844165802,-0.09712088108062744,0.09016256779432297,-0.20217713713645935,0.15891656279563904,-0.07755503803491592,0.04043214023113251,-0.09861703962087631,0.01520289946347475,0.2707546353340149,0.20357470214366913,0.08375668525695801},{0.43468788266181946,-0.05199815705418587,0.03887492045760155,0.4834620952606201,-0.49970313906669617,-0.1529390811920166,-0.10058000683784485,0.23457279801368713,-0.1981188952922821,0.09051702171564102,0.15689091384410858,-0.07986690104007721,-0.31143465638160706,-0.09032043069601059,-0.27478519082069397,-0.20265337824821472,-0.04731117561459541,0.026525042951107025,-0.009990757331252098,-0.054643575102090836,0.13125556707382202,0.0424659438431263,-0.11852756887674332,-0.09053698182106018,-0.029139753431081772,0.12850618362426758,0.0059134564362466335,-0.0047846585512161255,-0.1199677363038063,-0.22216254472732544,0.22004222869873047,0.09445726126432419,-0.16928730905056,0.04996848478913307,0.17625826597213745,0.017162878066301346,-0.07236594706773758,-0.20742282271385193,-0.49669235944747925,-0.09160512685775757,0.23401391506195068,-0.009732063859701157,0.11207520961761475,-0.029360925778746605,-0.4158930778503418,-0.4895463287830353,0.05871380865573883,0.02475847117602825,-0.15663394331932068,0.05016900226473808,-0.16098038852214813,0.16528941690921783,-0.051564909517765045,0.05115620419383049,0.06058485805988312,0.01368713192641735,-0.1113412082195282,-0.03017525002360344,-0.1483684778213501,0.0533783994615078,-0.5268176198005676,0.26700085401535034,-0.05755144730210304,0.16297507286071777},{0.5504798889160156,-0.05439408868551254,0.17263305187225342,0.12230071425437927,0.04228720813989639,-0.3480765223503113,-0.38539695739746094,0.11256270110607147,-0.21892757713794708,0.008626777678728104,0.06927020847797394,0.3584350049495697,-0.2798246741294861,0.15133202075958252,-0.26540884375572205,-0.18497329950332642,-0.008043034933507442,0.08089524507522583,0.08368705958127975,-0.030827095732092857,0.32843801379203796,-0.022889824584126472,0.3001689910888672,-0.06824637949466705,-0.015436457470059395,0.042960025370121,-0.11222804337739944,0.05120275542140007,-0.0073361145332455635,-0.22700758278369904,0.22162334620952606,-0.19487276673316956,-0.1164855882525444,0.07358280569314957,0.34701964259147644,-0.1019953116774559,-0.05871736630797386,0.23263850808143616,-0.15394103527069092,0.07957421988248825,0.22285109758377075,0.0901678130030632,0.2095494270324707,-0.2513258159160614,-0.3446691334247589,-0.5804169178009033,0.10030978173017502,-0.021923048421740532,0.0053176614455878735,0.42296507954597473,-0.6185528635978699,0.024471983313560486,-0.024833962321281433,0.2213173508644104,-0.02439134009182453,-0.2363719344139099,-0.19627998769283295,-0.008132570423185825,-0.21243315935134888,0.23578156530857086,-0.45911890268325806,0.16701045632362366,-0.09159428626298904,0.2577468752861023},{-0.14783525466918945,-0.006468119565397501,0.10920208692550659,0.38504257798194885,-0.0327797494828701,-0.37049931287765503,0.0847494900226593,0.21343989670276642,0.38824576139450073,-0.10118269175291061,0.17956414818763733,0.11930932849645615,-0.24538739025592804,-0.07639029622077942,-0.2656087577342987,0.05553708225488663,0.005983296781778336,-0.04982006922364235,-0.042924266308546066,0.025861047208309174,-0.09480849653482437,-0.15286320447921753,-0.3367847800254822,-0.05573514476418495,-0.2559177279472351,-0.17104794085025787,0.10097306221723557,0.1003408133983612,-0.10078684985637665,-0.13410799205303192,-0.07612892985343933,0.026615366339683533,0.2727329432964325,0.35445505380630493,-0.20135095715522766,0.007162947207689285,0.043388731777668,-0.3824135363101959,-0.5601796507835388,0.1027403399348259,-0.07202573120594025,-0.21068519353866577,0.03685169294476509,0.1737741231918335,0.05081300809979439,-0.22969387471675873,-0.07456907629966736,0.004154714290052652,-0.16888423264026642,-0.04372254014015198,-0.10944867879152298,-0.031130308285355568,-0.38820382952690125,-0.1535397469997406,0.07088649272918701,0.1496199369430542,0.13006377220153809,-0.15406809747219086,-0.011694785207509995,0.1400487869977951,-0.09705096483230591,-0.060275524854660034,-0.052274029701948166,-0.14263829588890076},{-0.2083864063024521,0.08732973039150238,0.17114697396755219,0.04262114688754082,-0.0701155886054039,-0.14625327289104462,0.06507214158773422,0.2627561092376709,0.008585215546190739,-0.18877176940441132,0.024632254615426064,0.09634177386760712,0.03298099339008331,-0.08385152369737625,0.21571704745292664,0.25105318427085876,-0.0024446872994303703,0.1228102371096611,-0.030560767278075218,-0.09990177303552628,-0.06942642480134964,0.03387690708041191,0.042795952409505844,0.13958801329135895,-0.2722902297973633,-0.008499553427100182,-0.07421599328517914,0.22106771171092987,-0.031326089054346085,-0.00017846559057943523,-0.06352979689836502,0.1855970174074173,0.10591625422239304,0.11410140246152878,-0.13323259353637695,0.08482194691896439,-0.24404028058052063,-0.05659416690468788,0.01191093772649765,0.1097705215215683,0.1411752998828888,-0.13498739898204803,0.08488397300243378,0.1372193694114685,0.12677212059497833,-0.11022966355085373,0.0881332978606224,0.07269430160522461,-0.024483127519488335,-0.15608195960521698,-0.08765091747045517,0.06502146273851395,-0.31323128938674927,-0.07094689458608627,0.030224649235606194,0.08988399803638458,-0.10879450291395187,-0.10518287122249603,0.1179138720035553,0.0702502578496933,-0.053605709224939346,-0.131550133228302,-0.20032836496829987,-0.04431099072098732},{-0.3529060482978821,-0.18388809263706207,0.009870005771517754,0.17361348867416382,0.8697993159294128,0.13963499665260315,0.18814784288406372,0.06481433659791946,0.3129796087741852,0.0558619350194931,0.2957588732242584,-0.1808687150478363,-0.17256857454776764,-0.19003020226955414,-0.10273625701665878,0.00498597975820303,0.011161250993609428,0.11918991804122925,-0.03496643900871277,-0.1102183610200882,0.08221881091594696,-0.36107754707336426,-0.32593438029289246,-0.1419217586517334,-0.12084025889635086,0.03234374523162842,-0.008677848614752293,-0.2780874967575073,-0.22600789368152618,0.23736070096492767,0.25923073291778564,0.042307473719120026,0.12869273126125336,0.20274601876735687,-0.16668564081192017,0.2343689501285553,0.3307116627693176,-0.06994719058275223,0.010156182572245598,-0.20820552110671997,0.10586328059434891,-0.19968700408935547,-0.12240955978631973,0.471794068813324,-0.07173827290534973,0.17433860898017883,-0.10840388387441635,-0.07269863039255142,0.18725408613681793,0.14672765135765076,0.007284408900886774,0.1754520684480667,0.30214008688926697,-0.11658573895692825,-0.0068936534225940704,-0.0062196385115385056,0.26152661442756653,-0.2661750912666321,0.19506767392158508,0.025613650679588318,0.20360015332698822,-0.12616489827632904,0.3632444143295288,-0.40697452425956726},{-0.12342507392168045,0.030287060886621475,-0.0360771082341671,-0.03153277561068535,-0.25148436427116394,-0.37380436062812805,-0.23028826713562012,0.12189854681491852,0.37364229559898376,-0.02215501107275486,0.07222823798656464,0.09041667729616165,-0.12321104854345322,-0.15257854759693146,-0.10408606380224228,0.3331109583377838,-0.03280946612358093,-0.0735207349061966,-0.1966107040643692,-0.18573831021785736,-0.17521177232265472,-0.03218535706400871,-0.14789989590644836,-0.013713221065700054,-0.15691277384757996,-0.04528259485960007,0.050807543098926544,-0.05156536027789116,0.0029143020510673523,0.18681581318378448,-0.008859475143253803,-0.04205264896154404,0.18289968371391296,0.1469552367925644,-0.2879123389720917,0.12463805824518204,0.07353825867176056,0.020058175548911095,-0.2768157720565796,-0.03471523895859718,0.03588925302028656,-0.07076878100633621,-0.05345701053738594,0.026701979339122772,0.04680868983268738,0.138657346367836,-0.11291752755641937,0.020635101944208145,-0.10968191176652908,0.020612558349967003,0.058502741158008575,0.01790149137377739,-0.549674928188324,0.09447035193443298,0.01998407021164894,-0.006135551258921623,0.06215864047408104,-0.17945758998394012,0.08272922039031982,-0.09507603198289871,0.3025955557823181,-0.09399265050888062,-0.17573505640029907,0.02057332545518875},{0.032040275633335114,0.09296106547117233,-0.0995582640171051,0.3110602796077728,0.11078157275915146,-0.2040804773569107,-0.3247253894805908,0.0011236637365072966,-0.20609638094902039,0.009940515272319317,0.1976085752248764,-0.09085087478160858,-0.4212319254875183,-0.10504551231861115,0.28525254130363464,-0.5645859837532043,0.19280116260051727,0.3640240430831909,0.014487072825431824,0.11324083060026169,0.34821248054504395,0.1560915857553482,-0.11518899351358414,-0.036079030483961105,0.4639319181442261,-0.017029384151101112,-0.1474553942680359,0.11633030325174332,-0.06341972947120667,-0.47321557998657227,0.07395877689123154,0.00931436289101839,0.07144110649824142,0.0018595991423353553,0.2995642125606537,0.06818588823080063,0.257779061794281,0.15625643730163574,-0.3526235818862915,0.006005742121487856,0.09931056201457977,0.08465135842561722,-0.15947240591049194,-0.4103389084339142,-0.25419023633003235,-0.3291392922401428,0.14450474083423615,0.02885192260146141,0.07233113050460815,0.5222927927970886,0.00827828049659729,0.045090001076459885,0.33630669116973877,-0.1316918134689331,-0.3846328854560852,0.2526676654815674,0.06372535973787308,0.23681677877902985,-0.05946331098675728,0.06131739914417267,-0.8491565585136414,-0.1364571750164032,0.07721953839063644,0.09117279201745987},{0.01670423150062561,-0.08536668121814728,-0.0787619948387146,-0.340792715549469,-0.14325018227100372,0.1891917884349823,0.12470091879367828,0.004394194111227989,0.0870581716299057,-0.032268181443214417,0.018617669120430946,-0.09953854978084564,0.3182125389575958,0.0629437193274498,0.10666027665138245,0.2126227617263794,-0.11114111542701721,-0.19819772243499756,0.06441708654165268,-0.21592259407043457,-0.1850644052028656,0.0480990968644619,0.17790324985980988,0.006169728469103575,-0.218181312084198,0.08170565217733383,-0.0349050834774971,-0.11812415719032288,-0.049023959785699844,0.2372838854789734,-0.003998662810772657,-0.1606711745262146,-0.10398631542921066,-0.058781228959560394,0.03971317037940025,-0.031094277277588844,-0.0852971002459526,0.04182439297437668,0.24122588336467743,-0.0012717719655483961,0.03941895067691803,0.010082452557981014,0.029433174058794975,-0.03007601574063301,0.021199984475970268,0.33199697732925415,-0.013081441633403301,-0.05418078228831291,-0.024503063410520554,-0.17956283688545227,0.00941657368093729,0.10179401189088821,-0.17375223338603973,-0.08162960410118103,0.08120321482419968,-0.09238183498382568,-0.035265929996967316,-0.12396262586116791,0.09268759936094284,-0.16894924640655518,0.28755271434783936,-0.03652315214276314,-0.036597322672605515,-0.09169386327266693},{0.9821394085884094,-0.015247984789311886,-0.2020752876996994,0.26620933413505554,-0.47016069293022156,0.31914880871772766,0.0013862872729077935,0.02423027530312538,-0.01023006159812212,-0.02679067850112915,0.12061965465545654,-0.19391900300979614,-0.2884370684623718,-0.06248459964990616,-0.5858944058418274,-0.12925173342227936,-0.15721020102500916,-0.16901808977127075,-0.044208116829395294,-0.5578294396400452,0.030568668618798256,0.06007257476449013,-0.2130880057811737,-0.14925512671470642,0.38043034076690674,-0.038674525916576385,0.15532824397087097,-0.05988146364688873,-0.42425012588500977,0.36168786883354187,0.16155435144901276,-0.0727706328034401,-0.468871533870697,-0.031454846262931824,0.20313791930675507,0.006506531499326229,0.1971072256565094,-0.3974805474281311,-0.09040902554988861,0.16196705400943756,0.4383353590965271,0.05978509783744812,-0.09238559007644653,0.5614784359931946,-0.41312548518180847,-0.06971009075641632,-0.1652962565422058,0.03677567094564438,-0.196546733379364,-0.060603704303503036,0.23215989768505096,0.22116005420684814,0.045820195227861404,0.43789398670196533,0.10640940070152283,-0.08115249872207642,0.39401257038116455,-0.2525385022163391,-0.12387677282094955,0.12186351418495178,-0.850536048412323,0.05056630074977875,-0.017294472083449364,0.04656333848834038},{0.014241966418921947,-0.10311851650476456,-0.19698061048984528,-0.15602482855319977,-0.009150354191660881,0.16090726852416992,0.11328527331352234,0.1281716525554657,0.1853107213973999,-0.008505990728735924,0.1517741084098816,-0.16417300701141357,-0.05676775425672531,-0.1738033890724182,0.08948788791894913,0.05320193991065025,-0.01374577172100544,-0.1381635218858719,0.031974151730537415,-0.3083108961582184,-0.09120145440101624,-0.08421656489372253,-0.14233918488025665,0.010112403891980648,0.06785103678703308,0.04487701877951622,-0.022345710545778275,-0.0704231932759285,-0.10182853043079376,0.167026087641716,-0.02010546624660492,0.09067273139953613,-0.00791717879474163,0.05507570505142212,-0.07316558063030243,0.10221545398235321,-0.06898962706327438,-0.21364499628543854,-0.0954856276512146,0.10331553965806961,0.0175305288285017,-0.07188448309898376,-0.10839646309614182,0.08008857071399689,-0.1500476598739624,0.061407670378685,-0.12441988289356232,-0.022080184891819954,-0.17773276567459106,-0.11727406084537506,0.22181448340415955,0.19502058625221252,-0.08888522535562515,-0.054155852645635605,-0.11624905467033386,-0.1496257334947586,0.10823213309049606,0.010719972662627697,0.1095547080039978,-0.21296709775924683,-0.03738142177462578,0.04296409711241722,0.05138245224952698,0.07273905724287033},{0.06170807033777237,0.18496188521385193,0.11378756165504456,-0.48768723011016846,-0.24661023914813995,-0.20263133943080902,-0.15772145986557007,-0.21213768422603607,-0.09440287947654724,-0.15964914858341217,-0.15108034014701843,0.0811828076839447,-0.009699515998363495,0.018467934802174568,0.35081708431243896,-0.09607236832380295,0.13656529784202576,0.20583896338939667,-0.07397611439228058,0.1674472689628601,0.10412046313285828,0.17391656339168549,0.04945160076022148,-0.055079374462366104,0.17431452870368958,-0.13938096165657043,-0.036409422755241394,0.1118733361363411,-0.055610448122024536,-0.20512337982654572,-0.2002270519733429,0.12732365727424622,-0.03177786245942116,-0.1788753718137741,-0.041712790727615356,-0.03167601302266121,0.16528117656707764,0.07079240679740906,0.04623208940029144,-0.0048402161337435246,-0.12402059882879257,-0.00017647954518906772,-0.10408585518598557,-0.3702658712863922,0.3451799750328064,-0.18910746276378632,-0.16754482686519623,0.1356494277715683,0.01316386554390192,0.09961492568254471,-0.09821755439043045,-0.2521440386772156,0.17634767293930054,0.03209777548909187,-0.2217804342508316,0.04577336832880974,-0.2618793249130249,0.2849152088165283,0.028620503842830658,-0.08350196480751038,-0.00251038558781147,-0.20736655592918396,-0.05784681439399719,0.15250477194786072},{-0.17576028406620026,0.12579379975795746,0.10029281675815582,0.48737555742263794,0.33553504943847656,0.05870490148663521,0.11190798133611679,-0.09491752833127975,0.17036423087120056,0.07637924700975418,0.06104006618261337,-0.08287253975868225,0.04578104987740517,0.1152729019522667,-0.33273226022720337,0.14725008606910706,0.0715181902050972,-0.07713089138269424,-0.16756905615329742,0.05046980455517769,-0.023030661046504974,-0.29881203174591064,-0.16991370916366577,0.142862007021904,0.032449688762426376,0.1067543476819992,0.03653876855969429,-0.18460682034492493,-0.08471951633691788,-0.08158590644598007,0.11835893988609314,0.0225275419652462,0.0338134765625,0.04742926359176636,0.05282096564769745,0.12195698916912079,0.08490462601184845,0.054623525589704514,0.04226604104042053,-0.08944240212440491,-0.14009414613246918,-0.035558681935071945,0.02950735203921795,0.3105294406414032,0.0025457560550421476,0.07568245381116867,-0.007979650050401688,0.08076970279216766,-0.06688933819532394,-0.039665669202804565,0.03730975091457367,-0.038363534957170486,0.23084771633148193,0.1703711450099945,0.06940613687038422,-0.09390387684106827,0.12710845470428467,0.024242492392659187,0.03892514854669571,-0.1332770437002182,0.18672384321689606,-0.13943924009799957,0.2988286316394806,-0.21246960759162903},{0.08251748234033585,-0.02145000919699669,0.0793493464589119,-0.046964555978775024,-0.09936501830816269,0.058716461062431335,0.1598588228225708,-0.06593577563762665,0.13976481556892395,0.042262449860572815,-0.04642535001039505,-0.058565348386764526,0.08905484527349472,-0.06930192559957504,-0.1719445288181305,0.24147489666938782,-0.018105795606970787,-0.15224704146385193,0.06003875657916069,-0.23808258771896362,-0.13429880142211914,-0.02726111374795437,-0.02122463658452034,-0.050182048231363297,0.09033099561929703,0.0321211963891983,-0.10661157220602036,-0.09908957779407501,0.015232572332024574,0.1672082245349884,0.01262052170932293,-0.06550722569227219,0.08474839478731155,-0.042174749076366425,-0.07102197408676147,-0.05617787688970566,-0.14477936923503876,-0.12649700045585632,0.05077474191784859,-0.0853339359164238,0.014150108210742474,0.04801115393638611,0.002364103915169835,0.14734935760498047,0.12818044424057007,0.12267802655696869,-0.06579003483057022,-0.042205896228551865,0.03952202945947647,-0.04449538514018059,0.10833925753831863,0.03750719875097275,-0.048580437898635864,-0.06669756025075912,-0.10624629259109497,-0.09709075838327408,0.13565394282341003,0.1030803993344307,0.16713984310626984,0.05093767121434212,-0.06434077024459839,0.05770396813750267,0.08372887969017029,-0.015703370794653893},{0.6895274519920349,0.05655629187822342,-0.00582602946087718,-0.5289464592933655,-0.7351764440536499,0.374612033367157,-0.2700056731700897,-0.5067676901817322,-0.6414769291877747,0.05950210988521576,-0.3707738518714905,-0.08097634464502335,-0.18949350714683533,0.07378987222909927,0.21300768852233887,-0.07417810708284378,-0.008161679841578007,-0.11038238555192947,0.08968541771173477,-0.11292147636413574,0.13548852503299713,0.40540072321891785,0.2606414556503296,-0.11073458194732666,0.815049409866333,0.16531749069690704,-0.16021278500556946,0.009714128449559212,-0.2346058338880539,-0.0415315106511116,-0.04654233902692795,-0.01279200054705143,-0.2639991044998169,-0.45183438062667847,0.34336918592453003,-0.2210700809955597,0.10599981248378754,0.052540745586156845,0.2590489387512207,0.08378556370735168,0.2099716067314148,0.27853262424468994,-0.23559288680553436,-0.2519458532333374,-0.23170754313468933,0.15862157940864563,-0.11701206862926483,0.04739181697368622,0.0347997322678566,-0.14126364886760712,0.20445363223552704,-0.028956212103366852,0.22882860898971558,0.18602906167507172,-0.2790805399417877,-0.014251457527279854,0.06631022691726685,0.18192361295223236,0.09158050268888474,0.04404696822166443,-0.7239345908164978,-0.13603346049785614,-0.13472935557365417,0.43818143010139465},{-0.03681639954447746,-0.07085426896810532,-0.12383691966533661,0.008895360864698887,0.008784916251897812,-0.035647958517074585,-0.017756691202521324,0.145920529961586,0.1645248383283615,-0.02369583584368229,0.020364459604024887,-0.12946817278862,-0.06876569241285324,0.042956721037626266,0.0718330591917038,-0.20148597657680511,-0.059127695858478546,0.030509265139698982,-0.09879787266254425,-0.058517951518297195,-0.008429422043263912,-0.01745058223605156,-0.09813494980335236,-0.04451961815357208,-0.07486520707607269,0.09349539130926132,0.06596178561449051,-0.024238068610429764,-0.028995102271437645,-0.06694617122411728,0.10901489108800888,-0.1434824913740158,-0.0616217739880085,-0.07146880775690079,-0.10377830266952515,-0.0837775468826294,0.007731748279184103,-0.10332076996564865,-0.28664910793304443,0.05440135672688484,-0.0943695530295372,0.033804409205913544,0.00731999147683382,-0.015732815489172935,-0.1280742585659027,-0.21071910858154297,-0.09701284021139145,-0.040177736431360245,0.04749349504709244,-0.05863800644874573,-0.12512201070785522,0.01747758500277996,0.14151883125305176,0.10508254170417786,0.027157844975590706,-0.04744698107242584,-0.05917828157544136,-0.07176034897565842,-0.15270636975765228,0.013927996158599854,-0.10255999863147736,-0.02398076467216015,-0.1347505897283554,0.06111573427915573},{0.8234841823577881,-0.07515978068113327,0.041426047682762146,-0.3647063672542572,-0.9156280755996704,0.6365495324134827,0.3533634841442108,-0.09164123982191086,-0.696807861328125,0.07706097513437271,-0.07384973764419556,-0.12923941016197205,0.13279758393764496,0.02335086464881897,-0.05969497561454773,0.42876824736595154,0.04072151333093643,-0.17510616779327393,0.18316948413848877,-0.2197851687669754,-0.14485274255275726,0.08781121671199799,0.10348256677389145,0.02930290810763836,0.08253445476293564,0.05793142318725586,0.056969352066516876,-0.1424138993024826,-0.24865800142288208,0.24577756226062775,-0.045822545886039734,0.012685813009738922,-0.30924680829048157,-0.28580862283706665,0.4171927571296692,-0.2355298101902008,-0.36614367365837097,-0.2625748813152313,0.605196475982666,0.01995600387454033,0.2564067542552948,-0.022406550124287605,-0.3263435959815979,0.2745916545391083,0.011517834849655628,0.16970175504684448,0.08274345099925995,0.08806836605072021,-0.0290757454931736,-0.6875993013381958,-0.036351531744003296,0.03546646609902382,-0.09029893577098846,0.005409726873040199,0.19333679974079132,-0.2697424292564392,0.06229229271411896,-0.16427962481975555,0.003450945718213916,0.11548297852277756,-0.48209160566329956,0.03724071756005287,-0.08182463049888611,-0.009756597690284252},{0.5662934184074402,0.03599201887845993,0.1679542511701584,-0.3481414020061493,-0.03302040323615074,-0.02167452685534954,-0.21700485050678253,-0.3215523362159729,-0.5110408067703247,0.009187820367515087,-0.24704307317733765,0.06829198449850082,-0.12487847357988358,0.15722085535526276,-0.16716068983078003,-0.49349525570869446,0.02104666642844677,0.019103476777672768,-0.01827155239880085,0.425163596868515,0.20982439815998077,0.23380105197429657,0.24037860333919525,-0.002266095718368888,0.4140186607837677,0.05653943493962288,-0.0867614671587944,-0.0794258713722229,-0.17915980517864227,-0.3330046832561493,-0.10332058370113373,-0.05731132999062538,-0.31279993057250977,-0.13860538601875305,0.3434048295021057,-0.11178664863109589,0.5643318295478821,0.2837851941585541,0.16833899915218353,-0.22584204375743866,-0.07808326184749603,0.2106664925813675,0.17431633174419403,-0.4279461205005646,-0.12803031504154205,-0.1782563179731369,-0.09175275266170502,-0.035790473222732544,0.18914131820201874,0.214302197098732,-0.10210596770048141,-0.15253306925296783,0.5937151312828064,0.13694360852241516,-0.06732866913080215,0.023605871945619583,-0.2928618788719177,0.06200312823057175,0.01435872819274664,0.15382228791713715,-0.33885449171066284,-0.006940188817679882,0.12398619949817657,0.1518220156431198},{0.2505570352077484,-0.08184625208377838,-0.06803179532289505,-0.11192599684000015,-0.5713601112365723,0.46775564551353455,0.28056037425994873,-0.2565855085849762,-0.5469251275062561,0.08807390928268433,-0.3760858178138733,0.059836097061634064,0.3963921368122101,0.432594895362854,0.059607844799757004,0.07338414341211319,-0.1372339278459549,-0.08023706078529358,0.1927383691072464,-0.07679295539855957,0.04838351532816887,0.06933317333459854,0.12006251513957977,-0.17122872173786163,0.10037823021411896,0.2057773768901825,-0.022966431453824043,-0.19852052628993988,-0.014595870859920979,0.11151539534330368,-0.02800428681075573,-0.26815253496170044,-0.2636592984199524,-0.22461815178394318,0.3841297924518585,-0.21746104955673218,-0.2659267783164978,-0.23810769617557526,0.3016864061355591,-0.055621568113565445,0.16228048503398895,0.2048574984073639,-0.11039527505636215,-0.09354602545499802,0.130425825715065,-0.1827392578125,0.04164678975939751,-0.11508707702159882,-0.15850211679935455,-0.27165907621383667,0.061274752020835876,-0.08951781690120697,0.13083457946777344,0.2308410406112671,0.3432925045490265,-0.35389548540115356,-0.0168860275298357,0.01815127767622471,-0.08477719128131866,-0.11615325510501862,-0.10965544730424881,0.19145376980304718,-0.10635174810886383,0.2203221321105957},{0.491716206073761,-0.06502439826726913,0.11088088899850845,-0.4160158634185791,-0.5492644309997559,0.5190099477767944,0.18950124084949493,-0.22517207264900208,-0.7719396352767944,-0.03215319290757179,-0.0852818489074707,0.04591173678636551,0.16860970854759216,0.07064199447631836,0.346516877412796,0.18076762557029724,-0.1471417397260666,0.006113619543612003,0.2543608546257019,-0.14036335051059723,0.1530575156211853,-0.050594035536050797,0.2906795144081116,0.12549617886543274,-0.07414770126342773,-0.0483744852244854,-0.09455925971269608,-0.04885360598564148,0.07594162970781326,0.11450938880443573,0.22373102605342865,-0.23615866899490356,-0.10600386559963226,-0.36499524116516113,0.45856213569641113,0.039391640573740005,-0.5929767489433289,0.09800282120704651,0.5935359597206116,0.06224935129284859,0.36434128880500793,0.061343565583229065,-0.2757745683193207,-0.08507382869720459,0.08199730515480042,-0.11835435032844543,0.09348851442337036,-0.005820153281092644,-0.08142245560884476,-0.05843142420053482,0.007312067784368992,0.02547251060605049,0.050777506083250046,0.20513546466827393,0.2060495764017105,-0.24033600091934204,-0.18337871134281158,-0.023978840559720993,-0.09775209426879883,-0.13416200876235962,-0.34913772344589233,0.027428852394223213,-0.13467538356781006,0.1674225777387619},{0.21013404428958893,0.08560894429683685,0.14228002727031708,-0.12405139952898026,-0.1737179160118103,-0.2410869598388672,-0.07572532445192337,0.12030661106109619,0.08145196735858917,-0.017454372718930244,-0.04077170416712761,0.24244871735572815,0.2554290294647217,-0.031427670270204544,-0.008531974628567696,0.12234771251678467,-0.04760820046067238,-0.018026942387223244,0.07336173206567764,-0.09888502955436707,0.0634799674153328,0.32153528928756714,0.25122949481010437,0.17676250636577606,-0.2703111171722412,-0.17027506232261658,-0.011146686039865017,0.1854359209537506,0.03247144818305969,-0.1495228409767151,-0.2100147008895874,0.10260306298732758,0.009155459702014923,-0.05349420756101608,-0.07520346343517303,-0.0811842530965805,-0.1783066838979721,0.005052931606769562,-0.175991952419281,0.06788098812103271,-0.028972886502742767,0.17970508337020874,-0.003119388595223427,-0.40129008889198303,-0.08789775520563126,-0.0033183377236127853,0.006164648570120335,-0.08923982083797455,0.08585420995950699,0.13205914199352264,-0.12069246917963028,-0.10864704847335815,-0.2637594938278198,-0.10216498374938965,0.022272244095802307,0.11559976637363434,-0.1949264407157898,-0.029839076101779938,0.0003017566632479429,0.006687716580927372,-0.001251046545803547,0.061147015541791916,-0.7141719460487366,0.09001776576042175},{-0.05609055608510971,-0.033490411937236786,0.0687713772058487,-0.038210541009902954,-0.07898683845996857,0.08818214386701584,-0.07199621200561523,-0.1128234937787056,0.13500645756721497,0.04313287138938904,0.005317876115441322,-0.05496876686811447,0.010704951360821724,0.021037545055150986,-0.15606528520584106,-0.057590920478105545,0.06054536625742912,-0.01908125914633274,0.05341629683971405,-0.07833746075630188,0.017319099977612495,0.06595810502767563,-0.028094155713915825,0.054518748074769974,-0.18653270602226257,0.028581885620951653,0.04078444838523865,0.0924554392695427,0.019520284608006477,0.07477734237909317,0.021932760253548622,0.051244452595710754,0.06124500185251236,-0.029757441952824593,0.04375246539711952,-0.10655947774648666,0.11177283525466919,-0.17582564055919647,-0.02792954631149769,-0.066007100045681,-0.01097875740379095,0.1267116218805313,0.04778309911489487,0.08108872920274734,0.08126287907361984,-0.09936077147722244,0.08689291030168533,-0.13327184319496155,0.012128994800150394,-0.05010990425944328,0.08330529928207397,-0.06680549681186676,0.17546433210372925,0.0006302380934357643,0.17482613027095795,-0.06016544997692108,-0.002677538897842169,-0.17494527995586395,-0.04450846463441849,-0.06436893343925476,0.2345268726348877,0.017989199608564377,-0.11654793471097946,-0.0034623127430677414},{-0.07880724221467972,0.12254685908555984,-0.038692913949489594,0.2377202957868576,-0.09595935791730881,-0.18387846648693085,-0.2180822193622589,-0.15414626896381378,0.09137147665023804,0.04965326935052872,0.032018233090639114,0.04916204884648323,-0.03689761459827423,0.0714881420135498,0.16106413304805756,0.08851608633995056,0.004140438511967659,0.1011369600892067,0.03448311984539032,0.14105406403541565,0.026405978947877884,0.1722562313079834,-0.06389931589365005,0.1147393062710762,0.045715007930994034,-0.11420498043298721,0.030377455055713654,-0.011638016439974308,0.03400716558098793,-0.0621139295399189,-0.27251625061035156,0.09957414865493774,0.09446312487125397,0.08058489114046097,-0.004114311188459396,-0.02736704982817173,0.0263335183262825,-0.07766243815422058,-0.18243756890296936,-0.10889054089784622,-0.09452040493488312,-0.02830454520881176,0.027587413787841797,-0.22229842841625214,0.08884816616773605,0.059707898646593094,-0.018905047327280045,0.0868978276848793,-0.1035262867808342,0.1579115390777588,0.06730333715677261,-0.05013113096356392,-0.15532681345939636,0.04742846637964249,-0.27734342217445374,0.20099155604839325,-0.05143209919333458,0.05482543259859085,-0.04074365645647049,-0.03750311955809593,-0.05407936871051788,-0.12253499776124954,-0.08825170993804932,0.14903222024440765},{0.36833834648132324,-0.015749845653772354,0.09944947063922882,-0.0832260400056839,0.508281946182251,-0.2894139587879181,-0.6050865054130554,-0.157860666513443,0.0839599221944809,0.13476340472698212,-0.007432481274008751,0.15734052658081055,-0.27550265192985535,0.034396469593048096,-0.29600733518600464,-0.3021509051322937,0.1609024703502655,-0.04652686417102814,0.07629114389419556,0.1431209295988083,0.17368701100349426,0.03576852008700371,0.19326385855674744,0.03421149402856827,0.28127697110176086,0.03899199143052101,-0.015124211087822914,-0.08399158716201782,-0.14431239664554596,0.02681145630776882,0.15067848563194275,-0.00613905256614089,-0.08619750291109085,-0.08931431174278259,0.06515190005302429,0.0162219125777483,0.45896926522254944,0.42853227257728577,-0.17908282577991486,-0.09137048572301865,0.012689103372395039,-0.012739952653646469,0.15926136076450348,-0.04315099120140076,-0.39835500717163086,-0.13484416902065277,0.16715644299983978,0.06302108615636826,-0.02509472332894802,0.4177669882774353,-0.20502574741840363,-0.06321918964385986,0.07668817043304443,0.057087454944849014,-0.1887364685535431,0.018649660050868988,-0.11001121252775192,0.08812646567821503,0.1328682154417038,0.23375500738620758,-0.19016198813915253,0.08555884659290314,0.08040890097618103,0.016350984573364258}};
