#include "network_evaluate.h"

static const int structure [4][2] = {{10, 64},{64, 64},{64, 64},{64, 2}};
static float output_0[64];
static float output_1[64];
static float output_2[64];
static float output_3[2];
static const float pi_1_weight[10][64] = {{-0.16592426598072052,-0.3972617983818054,0.24823684990406036,-0.12551358342170715,0.1922171413898468,0.23805460333824158,0.29905134439468384,-0.3929354250431061,-0.49557361006736755,0.1787489652633667,0.0943145602941513,-0.16972364485263824,-0.0633312314748764,0.02560541033744812,0.5069860816001892,-0.4574262499809265,-0.13868534564971924,0.3052665889263153,0.07764483243227005,0.3559432923793793,0.027286862954497337,-0.011977240443229675,-0.15362699329853058,0.2689182460308075,0.2486514002084732,-0.3470105230808258,-0.2700817883014679,-0.3536197543144226,0.13413730263710022,-0.2985052168369293,-0.1570139229297638,-0.10871011763811111,0.1745908409357071,-0.3601532578468323,-0.21499907970428467,-0.4828902781009674,-0.2269648164510727,-0.2324998825788498,0.3750389814376831,0.3801910877227783,0.2724239230155945,-0.2880791425704956,0.11552505195140839,-0.28779473900794983,-0.4585516154766083,0.3608652651309967,-0.3824552595615387,0.4095628559589386,-0.4281177818775177,-0.30640819668769836,-0.40157192945480347,0.07506316900253296,0.007190098520368338,0.06504503637552261,-0.17619451880455017,-0.4290867745876312,-0.5989221930503845,0.6574068665504456,-0.047068268060684204,-0.1372665911912918,-0.41156160831451416,0.01475780550390482,-0.26511892676353455,0.20017407834529877},{0.5013522505760193,0.44588515162467957,0.5932880640029907,1.508430004119873,-1.3417975902557373,1.022387981414795,0.37738877534866333,-0.4784824848175049,0.2810403108596802,0.8300673365592957,-1.16925048828125,1.12091064453125,-0.2546612024307251,0.2766619324684143,0.32128775119781494,-0.41586777567863464,-0.09793991595506668,-0.1564904898405075,-0.3393704891204834,0.6532673239707947,0.7650192975997925,-0.33881819248199463,0.3631588816642761,-0.10634647309780121,1.1528418064117432,0.25817549228668213,1.9784986972808838,0.5117445588111877,-0.8358410000801086,0.11470750719308853,-0.17943207919597626,-0.7032725214958191,1.0197681188583374,-0.8771985173225403,0.018752407282590866,0.7743809223175049,-0.9672698974609375,1.9422193765640259,0.15084414184093475,-0.34068718552589417,-0.1483934223651886,-0.5453615188598633,-1.4396202564239502,0.0053446306847035885,-0.39577940106391907,0.38221246004104614,-0.3033660054206848,0.6725336909294128,-0.5642431974411011,0.5135251879692078,1.660220980644226,0.2708021104335785,-0.7451663613319397,-0.7250755429267883,0.3037000298500061,-1.2226636409759521,-0.05382170528173447,0.5090301632881165,-0.7486573457717896,0.0337526872754097,0.0939282700419426,-0.636918306350708,0.9398558139801025,0.25943776965141296},{-0.5718054175376892,-0.6569027900695801,0.04059365391731262,-0.2414519488811493,-0.21148158609867096,0.23414354026317596,-0.2464689165353775,0.2583347260951996,0.22820241749286652,0.3881475627422333,0.0014267443912103772,-0.12645331025123596,-0.11232317984104156,-0.2683931589126587,0.3105013966560364,0.042988020926713943,-0.30694887042045593,0.42403271794319153,0.2688528597354889,-0.25986552238464355,-0.425189346075058,0.08287225663661957,0.10960894078016281,-0.08211076259613037,-0.24490965902805328,0.08671081066131592,0.34476765990257263,-0.43414220213890076,-0.2905436158180237,0.021773265674710274,-0.17585842311382294,0.10979761183261871,-0.47730255126953125,0.28783518075942993,0.46264326572418213,-0.0036384989507496357,-0.18422983586788177,-0.3546013832092285,0.2548542320728302,-0.35557207465171814,-0.14052549004554749,0.3778437376022339,0.13018018007278442,0.3575223684310913,-0.06410308927297592,0.33969834446907043,-0.008839488960802555,0.269778847694397,-0.33332759141921997,0.30275142192840576,0.29057323932647705,-0.3485178053379059,0.3203125596046448,-0.2528754472732544,-0.14977625012397766,0.40219271183013916,-0.14153318107128143,-0.1903519630432129,-0.4237078130245209,-0.3897782266139984,-0.24652650952339172,0.32300806045532227,0.005560541059821844,0.09747152775526047},{-0.40600624680519104,-0.41189366579055786,0.34857824444770813,-0.10737073421478271,-0.21328550577163696,0.16109974682331085,0.07444442063570023,0.36861616373062134,-0.315714955329895,0.21161924302577972,-0.011345818638801575,0.40974998474121094,0.049047477543354034,-0.030980264768004417,0.05862748995423317,0.27428138256073,-0.2531754970550537,0.2203638106584549,0.07973125576972961,-0.03699950873851776,-0.2565164864063263,0.09472889453172684,0.03660744056105614,0.1682327687740326,-0.01234406791627407,-0.2502346932888031,0.3227981925010681,0.05603830888867378,0.20246359705924988,-0.041674062609672546,0.06534560769796371,-0.23017719388008118,-0.06334219127893448,0.14534009993076324,0.21824811398983002,0.037189073860645294,0.30187585949897766,-0.3225293755531311,0.4149932861328125,-0.26286497712135315,0.30055171251296997,0.017869604751467705,0.2470293641090393,0.0807645320892334,0.27798619866371155,0.13262102007865906,-0.3095414936542511,-0.019102461636066437,0.05429829657077789,-0.2351960837841034,0.27176156640052795,-0.21585354208946228,-0.11039522290229797,-0.2833213806152344,-0.25300875306129456,-0.2326386421918869,0.11181981861591339,-0.2325657606124878,0.033592164516448975,0.22950293123722076,0.3227755129337311,-0.15311314165592194,-0.341477632522583,0.07547906041145325},{-0.12103221565485,0.09422243386507034,0.036102544516325,-0.2542274296283722,-0.36024364829063416,0.32198306918144226,0.11603479087352753,0.4798479378223419,0.017679056152701378,-0.34348779916763306,-0.4034537076950073,0.32104799151420593,-0.23360079526901245,0.19918879866600037,-0.3422529399394989,0.22621579468250275,0.01774987392127514,-0.19579562544822693,0.1280905157327652,-0.35069966316223145,-0.2727730870246887,0.07980331033468246,-0.292377769947052,0.25996094942092896,0.1753264218568802,-0.1726367324590683,0.30419301986694336,-0.1669503152370453,0.07717251032590866,-0.0942557230591774,0.04260697215795517,0.20163051784038544,0.3226292133331299,-0.2499663531780243,-0.2985708713531494,0.13061285018920898,0.37059256434440613,-0.2434484362602234,0.21805588901042938,-0.31767213344573975,0.17805378139019012,-0.3354091942310333,0.16921448707580566,-0.31329283118247986,-0.2643950283527374,-0.16321022808551788,0.11653662472963333,0.12734359502792358,0.28526878356933594,0.26861098408699036,0.5332732200622559,0.06959697604179382,-0.43700700998306274,-0.41483479738235474,0.0803917869925499,0.0029983536805957556,-0.25370538234710693,-0.049134720116853714,-0.13793641328811646,0.16576527059078217,-0.1421889066696167,0.11250828951597214,-0.10467983782291412,0.10541672259569168},{0.09406827390193939,0.005782666616141796,0.1161339059472084,-0.3120609223842621,-0.31112217903137207,-0.1291506141424179,-0.005889798980206251,0.4657860994338989,-0.08780598640441895,-0.1862364560365677,-0.10474053025245667,-0.30779215693473816,-0.2429090440273285,0.008241530507802963,-0.15609751641750336,-0.373452752828598,0.014243396930396557,0.32556700706481934,0.07205548882484436,-0.30689701437950134,0.23006801307201385,-0.09344207495450974,0.09250232577323914,-0.2571712136268616,-0.25229009985923767,-0.4051550328731537,-0.03647815063595772,-0.3148866593837738,0.3007145822048187,-0.2606402337551117,-0.26687002182006836,0.31388023495674133,0.36931613087654114,0.15492206811904907,0.2046971470117569,0.18405090272426605,0.4896128475666046,-0.12447366863489151,0.31637042760849,0.23796306550502777,-0.2167128324508667,-0.21689476072788239,-0.36678630113601685,-0.17072387039661407,0.317496657371521,0.3250570297241211,0.12640339136123657,-0.3560631275177002,0.5646532773971558,-0.12346505373716354,-0.02988588437438011,0.2382468283176422,-0.15152956545352936,-0.04624316096305847,0.342825710773468,-0.06849295645952225,0.30984246730804443,0.3595864772796631,-0.23894003033638,0.13019540905952454,-0.14236149191856384,0.3576090335845947,-0.15768744051456451,-0.13167349994182587},{0.07401389628648758,0.07208456844091415,0.2519993185997009,-0.10523620247840881,0.2739194929599762,0.03761651739478111,0.05750695616006851,0.20038551092147827,-0.07809960097074509,0.2382981777191162,-0.2728026807308197,-0.21051464974880219,0.014324523508548737,0.03150341287255287,0.15713869035243988,0.08382239937782288,-0.1535336822271347,0.06022011861205101,-0.08972326666116714,-0.27102431654930115,-0.05527668818831444,-0.32022178173065186,-0.19722391664981842,0.022342272102832794,0.38518744707107544,-0.42861297726631165,-0.0048453775234520435,0.2092936486005783,-0.10705685615539551,0.2084575891494751,0.00953805074095726,-0.20517629384994507,0.18674063682556152,0.3465401232242584,0.2022024542093277,0.04191557690501213,0.2507367730140686,0.4914224147796631,0.07633775472640991,0.21564938127994537,0.3037991225719452,-0.2076285034418106,-0.2251410037279129,0.15495020151138306,-0.05765021964907646,0.02441461570560932,0.008985580876469612,-0.37513256072998047,0.4096633493900299,-0.3550012707710266,0.1794847846031189,-0.12964989244937897,0.515626072883606,0.009295188821852207,-0.2024778425693512,-0.15911461412906647,0.0019446515943855047,-0.1136987954378128,0.08795555680990219,-0.29875317215919495,0.17792780697345734,0.27519193291664124,0.30765655636787415,-0.2516714036464691},{0.19166752696037292,0.07929074764251709,-0.4432116448879242,0.39616653323173523,0.7188708186149597,-0.307077556848526,0.16861923038959503,-0.17857863008975983,-0.15495702624320984,-0.028227999806404114,-0.31708621978759766,-0.197676882147789,-0.07207284867763519,0.016301089897751808,-0.09455592185258865,-0.3087676763534546,0.10004737228155136,0.009288009256124496,-0.026804622262716293,0.08328469842672348,0.14191478490829468,-0.22038991749286652,-0.11662214994430542,-0.21670140326023102,-0.21296249330043793,0.08120128512382507,0.16339464485645294,-0.2698078751564026,0.13898514211177826,-0.2747473120689392,0.1378505527973175,0.011789346113801003,-0.010494982823729515,0.4421856999397278,0.23085200786590576,0.08561962097883224,-0.37056058645248413,0.6191874146461487,0.1392635852098465,-0.03123520314693451,0.24632024765014648,-0.13596200942993164,-0.33968427777290344,-0.35140684247016907,0.24459028244018555,0.0827496275305748,-0.2587031126022339,0.04627510532736778,0.4257531762123108,-0.25385892391204834,0.177164688706398,-0.012472158297896385,-0.03589241951704025,-0.19013728201389313,-0.010385237634181976,-0.09009738266468048,0.016318384557962418,-0.4333347678184509,0.33088651299476624,0.28505364060401917,-0.13449542224407196,0.14509549736976624,-0.08266202360391617,-0.4393722414970398},{-0.17217247188091278,-0.37185612320899963,-0.2437015175819397,0.27377206087112427,0.037081822752952576,-0.18179191648960114,0.26645559072494507,0.053254395723342896,0.10088033229112625,-0.3372441530227661,-0.06795164197683334,-0.09874996542930603,-0.06342149525880814,0.09283740818500519,-0.18398387730121613,-0.10547878593206406,-0.3113636076450348,0.3476787507534027,-0.24784846603870392,-0.11821480840444565,0.025702862069010735,0.19819240272045135,-0.12956339120864868,-0.16306674480438232,0.09773708134889603,-0.1967628300189972,0.33566659688949585,-0.12370815128087997,-0.1499185562133789,0.0645972490310669,0.11876256763935089,0.07250700145959854,0.0134287029504776,0.24765974283218384,-0.2491040974855423,-0.3961332142353058,-0.30941304564476013,0.47468772530555725,-0.1642775535583496,-0.1373548060655594,-0.1372883915901184,-0.01263354066759348,-0.10776502639055252,0.05891220271587372,0.06684482842683792,-0.30814316868782043,-0.4139463007450104,-0.21094833314418793,-0.17212095856666565,0.2994125187397003,-0.058497071266174316,0.13299115002155304,0.13774536550045013,0.005863097961992025,-0.14652028679847717,0.16166579723358154,0.26606813073158264,0.202824667096138,0.39030182361602783,0.23363971710205078,-0.15599122643470764,0.2605660557746887,-0.37530088424682617,-0.26470088958740234},{0.13312096893787384,-0.2385757714509964,-0.04986879974603653,0.3305949568748474,-0.10914311558008194,-0.15850050747394562,0.3668818473815918,-0.1875317096710205,-0.25892481207847595,-0.19739952683448792,0.07880671322345734,0.03328578174114227,-0.5627919435501099,0.22508372366428375,-0.36584052443504333,-0.1485811322927475,-0.10211066156625748,-0.2968336343765259,0.14162231981754303,0.056043706834316254,0.028106175363063812,-0.30017611384391785,-0.030112342908978462,0.07690412551164627,-0.02127716690301895,-0.6331009268760681,0.11103247851133347,0.03155592456459999,-0.13839583098888397,-0.1483532190322876,-0.11224105954170227,-0.03529416397213936,-0.3789386451244354,0.13656523823738098,0.03344554826617241,0.10269932448863983,-0.12344733625650406,0.42494985461235046,0.13941413164138794,0.25918468832969666,0.20762886106967926,0.3330989181995392,0.16554687917232513,-0.2881043553352356,-0.3068181872367859,-0.09274902939796448,-0.19898353517055511,0.20788997411727905,-0.28083598613739014,0.4643782377243042,0.05669308826327324,-0.15155594050884247,-0.03838928043842316,0.20405611395835876,0.42605310678482056,0.02488832175731659,0.1707315593957901,0.3797120749950409,0.3190770745277405,0.27624452114105225,-0.05467712879180908,0.0015160186449065804,-0.05142439901828766,0.16022802889347076}};
static const float pi_2_weight[64][64] = {{-0.30716294050216675,-0.06414200365543365,0.007410736288875341,-0.16911599040031433,-0.12186384946107864,0.07676400989294052,0.029679227620363235,-0.25007364153862,0.16682501137256622,-0.20244139432907104,-0.2511556148529053,0.042850565165281296,0.14635474979877472,-0.12019266188144684,0.13294214010238647,0.053590916097164154,0.006581652909517288,0.20806975662708282,0.09823760390281677,0.05457513779401779,0.0698966458439827,-0.17338113486766815,0.0854724869132042,0.08508825302124023,0.016209738329052925,-0.34349045157432556,0.11415579915046692,-0.015407396480441093,0.05681633949279785,-0.10256665199995041,-0.0012998441234230995,0.015398483723402023,-0.028098616749048233,0.07435829192399979,-0.10666751861572266,0.2333781123161316,0.03225564584136009,0.1823883205652237,-0.024450212717056274,-0.09233744442462921,0.239613339304924,-0.0933888629078865,-0.1188344731926918,-0.10025075078010559,0.10761018097400665,-0.19889898598194122,-0.04372822493314743,0.051378387957811356,0.03743455186486244,-0.037498194724321365,0.021552985534071922,-0.0027995267882943153,0.1225598081946373,0.09674160182476044,-0.35085827112197876,0.09278716892004013,-0.0962497666478157,-0.14706063270568848,0.3988955318927765,-0.052079636603593826,-0.13056617975234985,0.10188504308462143,-0.04784073680639267,0.17394888401031494},{-0.030615685507655144,-0.04337334260344505,-0.020031599327921867,0.017300356179475784,-0.041050463914871216,-0.14388443529605865,-0.010750235989689827,-0.05299060791730881,0.17001768946647644,-0.032453447580337524,-0.11589691787958145,-0.07155866175889969,0.22158457338809967,0.018744466826319695,0.15925951302051544,0.12728677690029144,-0.14062900841236115,0.0364687442779541,0.11043976247310638,-0.1989591270685196,-0.11426693201065063,0.016836628317832947,0.09051946550607681,-0.03793468326330185,-0.12785115838050842,-0.3317123055458069,0.004510859493166208,0.031960729509592056,0.11295381188392639,-0.038952164351940155,-0.13633663952350616,-0.021295273676514626,0.020643962547183037,-0.10903584957122803,0.00047887253458611667,0.31305670738220215,-0.047474876046180725,0.15732058882713318,-0.03314557299017906,0.0013577877543866634,0.1638576090335846,-0.09706656634807587,0.022768763825297356,-0.053463101387023926,0.08055178821086884,-0.027110086753964424,0.016804497689008713,-0.12917418777942657,0.02408236637711525,-0.09061097353696823,0.03062441572546959,0.11499612778425217,-0.010884306393563747,-0.007820703089237213,-0.039741430431604385,0.06198279559612274,0.05350568890571594,-0.05878068506717682,0.2591160237789154,-0.16906051337718964,0.08915133029222488,0.16323532164096832,-0.2625214457511902,-0.001091192476451397},{0.27255555987358093,-0.08460185676813126,-0.08847235143184662,-0.07710418105125427,0.14077188074588776,-0.16281495988368988,0.01686648465692997,-0.0567023791372776,0.044595904648303986,0.07972449064254761,0.14231516420841217,-0.04605704918503761,-0.1282760053873062,0.006515056360512972,0.08643834292888641,0.008429285138845444,-0.07395263016223907,0.105267733335495,-0.005005008541047573,0.213601753115654,-0.2522829473018646,0.24772599339485168,0.036886438727378845,-0.12095609307289124,-0.15205059945583344,-0.09868409484624863,-0.13288794457912445,0.03905864804983139,-0.12143029272556305,0.13742870092391968,0.14854474365711212,0.16625887155532837,-0.17861433327198029,0.06337018311023712,0.052507489919662476,0.20025768876075745,0.25479066371917725,-0.08576016873121262,-0.033959921449422836,-0.1695231795310974,-0.2694706618785858,-0.18342718482017517,0.003950297832489014,-0.41165322065353394,-0.19594307243824005,0.00046662974637001753,-0.10794804990291595,-0.01907208003103733,-0.1879255771636963,-0.036901701241731644,0.1935502141714096,0.08191360533237457,0.3134182095527649,-0.007519873324781656,-0.05987217277288437,0.1697629988193512,0.17802073061466217,0.38531622290611267,-0.08788283169269562,-0.11737854033708572,-0.10978546738624573,-0.04078984633088112,-0.3273044228553772,-0.2575380206108093},{-0.14305122196674347,-0.17332518100738525,0.008401278406381607,0.01274009607732296,-0.06441880762577057,0.01950185000896454,0.012250696308910847,-0.22844748198986053,-0.04149323329329491,0.010347487404942513,-0.4382420480251312,0.0014320975169539452,-0.24006660282611847,-0.04114397242665291,0.010631133802235126,-0.0061809346079826355,0.06654923409223557,0.7943329811096191,0.3411408066749573,0.41486677527427673,-0.036978937685489655,-0.04510504752397537,-0.07918735593557358,-0.05742666870355606,-0.24249497056007385,-0.14599551260471344,0.034636497497558594,0.10757153481245041,-0.02936398983001709,0.006707844324409962,-0.09449128061532974,0.0056182327680289745,0.30670610070228577,0.21299441158771515,0.14379414916038513,0.2634678781032562,0.1144157126545906,-0.0337073877453804,0.21920356154441833,-0.18888913094997406,0.14143294095993042,0.21079963445663452,-0.06783287227153778,-0.07741428166627884,-0.010654754005372524,-0.29220348596572876,-0.1199452131986618,0.031430769711732864,-0.021837690845131874,0.23005564510822296,-0.028114939108490944,-0.16347594559192657,-0.28178223967552185,0.1720539778470993,-0.3266224265098572,0.3451037108898163,0.02640378475189209,-0.06814298778772354,0.21882615983486176,0.06359647214412689,-0.03960826247930527,-0.11702758073806763,0.0825730562210083,0.19007724523544312},{-0.49256861209869385,0.1639070212841034,-0.175703227519989,0.1922268569469452,-0.21120402216911316,0.10656321048736572,-0.29039400815963745,0.0058772931806743145,0.049205850809812546,0.035820458084344864,-0.4175807237625122,0.06446681171655655,-0.06645317375659943,0.1677228957414627,-0.02606036514043808,0.08926205337047577,0.08470979332923889,-0.2074757069349289,-0.3186136782169342,0.14609995484352112,0.18223127722740173,-0.1937100887298584,-0.02293834090232849,0.022478636354207993,0.021295908838510513,0.3841536343097687,0.24308514595031738,0.23327064514160156,-0.01369983609765768,0.03702157735824585,0.051505040377378464,-0.23982711136341095,0.17928637564182281,0.20841024816036224,-0.15737088024616241,-0.549879252910614,-0.38088372349739075,0.0019923849031329155,-0.10118462890386581,0.01906183548271656,-0.14847487211227417,0.5323178768157959,0.03744126856327057,0.09018784761428833,-0.0022476830054074526,0.08890804648399353,0.9249083995819092,-0.10488395392894745,0.3239337205886841,-0.13537050783634186,0.12283830344676971,-0.04235245659947395,0.37662601470947266,-0.02323142997920513,0.4706761837005615,-0.2719525396823883,-0.038180962204933167,-0.6036700010299683,-0.2688286304473877,-0.02515837550163269,0.06054310500621796,0.26102346181869507,0.5801283717155457,0.7874922752380371},{0.1773022562265396,0.018327441066503525,-0.05870936065912247,0.1347064971923828,0.0291893407702446,0.0407545305788517,0.11316874623298645,0.06341023743152618,0.032111749053001404,0.004752571694552898,0.07890782505273819,0.11026661843061447,-0.06589039415121078,-0.080045685172081,-0.043110668659210205,0.01732192374765873,0.06387224048376083,0.09310777485370636,0.15718723833560944,0.07961765676736832,0.11368343234062195,0.047534700483083725,-0.1033906415104866,-0.05914340540766716,0.0062560876831412315,-0.0759190022945404,-0.0058020600117743015,-0.08344322443008423,0.07596953213214874,0.10750613361597061,0.025103271007537842,0.04327579215168953,0.10180358588695526,0.04966912791132927,0.1630868911743164,0.14186617732048035,0.16189417243003845,-0.047307971864938736,0.1491018682718277,-0.06122303009033203,-0.005464798770844936,-0.17271669209003448,0.026111053302884102,-0.11913004517555237,0.024230608716607094,-0.02324780449271202,-0.08680517971515656,0.07862834632396698,0.029535485431551933,-0.008726232685148716,0.02304140478372574,-0.07770787179470062,0.09008440375328064,-0.05621204897761345,-0.019489770755171776,0.0745575875043869,0.05143934115767479,0.07113107293844223,-0.06464208662509918,0.06401506066322327,0.03728879615664482,-0.08300135284662247,-0.08660177141427994,-0.1591901183128357},{-0.0565430112183094,0.10686179995536804,-0.03205444663763046,0.08113877475261688,0.13013826310634613,0.12974116206169128,-0.36463579535484314,-0.0237937830388546,-0.18780402839183807,-0.03982863575220108,-0.06571733951568604,0.12911707162857056,0.08380710333585739,0.0684242770075798,0.05625682324171066,0.04742126539349556,0.14566729962825775,0.11322879791259766,0.10828084498643875,0.1703697144985199,-0.03050282783806324,-0.05293267220258713,0.13346193730831146,0.10759684443473816,-0.0013297568075358868,0.07828817516565323,-0.15175659954547882,-0.027297204360365868,-0.05169139429926872,-0.11198381334543228,-0.055168554186820984,0.06740668416023254,-0.2371000051498413,0.07619339972734451,-0.03510517627000809,-0.2317884862422943,-0.0844089612364769,0.029085364192724228,0.11505348980426788,-0.0655188038945198,-0.07491998374462128,-0.09952585399150848,0.021173717454075813,-0.06029508635401726,0.0035618890542536974,-0.07187271863222122,0.015437056310474873,-0.08644668757915497,0.0024267148692160845,-0.028914043679833412,-0.06450994312763214,0.06444600969552994,0.01975751295685768,-0.004169019870460033,0.07064426690340042,-0.030043046921491623,-0.026897117495536804,-0.1339493840932846,-0.12129927426576614,-0.009657477028667927,0.08682402223348618,-0.07128142565488815,0.06995270401239395,0.13132524490356445},{0.023498544469475746,-0.11850813031196594,0.08132290840148926,0.08621373772621155,-0.07130204141139984,-0.07821360975503922,0.1637137234210968,0.020838653668761253,0.11039906740188599,0.1379358023405075,0.4136946201324463,-0.04848793148994446,0.06989580392837524,0.09781256318092346,0.0595022551715374,0.10054222494363785,-0.0438012033700943,-0.0672755092382431,0.1650732457637787,-0.13538824021816254,-0.1560298353433609,0.10693808645009995,-0.02579200267791748,-0.12238556146621704,0.01541836466640234,0.2667076289653778,0.07910504937171936,-0.06353531777858734,0.06542029976844788,0.0652187243103981,-0.03165959194302559,0.01662619039416313,-0.013147943653166294,-0.042050059884786606,0.08685532212257385,-0.08251175284385681,0.13142149150371552,-0.11643721908330917,0.03749251365661621,-0.09265965223312378,0.02051360346376896,-0.10007091611623764,0.04046095535159111,-0.12103307247161865,0.10185988992452621,0.12348654121160507,-0.20191599428653717,-0.08587106317281723,-0.017588989809155464,0.07580476999282837,0.03443034738302231,-0.04728450998663902,-0.25162479281425476,-0.02589179202914238,0.3178543150424957,-0.1494949758052826,0.06696043163537979,-0.30451253056526184,-0.21227072179317474,-0.10194144397974014,0.014494648203253746,0.059876419603824615,-0.02652093954384327,-0.06908106803894043},{-0.41080406308174133,0.22401243448257446,0.06948817521333694,0.17149268090724945,0.131023570895195,0.10795726627111435,-0.01997523382306099,-0.03379497304558754,0.05033518373966217,-0.09198342263698578,0.19678278267383575,0.13965998589992523,0.1395215541124344,0.025202203541994095,-0.10430891066789627,-0.12440543621778488,0.055616989731788635,-0.011223450303077698,-0.13221238553524017,0.11549100279808044,0.22655466198921204,-0.15882572531700134,0.1378643959760666,0.020486127585172653,-0.0025666889268904924,-0.24728365242481232,0.008177351206541061,0.019098276272416115,0.00014491898764390498,0.027477094903588295,-0.12496888637542725,0.15879599750041962,-0.012037141248583794,0.3178336024284363,0.10795903205871582,0.016353782266378403,0.08318062871694565,0.0465657077729702,-0.09393051266670227,0.05396019294857979,-0.130217045545578,0.030356520786881447,0.07633891701698303,-0.18907755613327026,0.023063277825713158,-0.03527985140681267,0.1474730372428894,0.20927008986473083,0.014295687898993492,0.13596637547016144,0.008272561244666576,-0.020630676299333572,-0.11188097298145294,0.12132733315229416,-0.01861642859876156,0.1838313341140747,-0.21799124777317047,0.11139896512031555,0.16481393575668335,0.1623651087284088,-0.06404833495616913,-0.08394251018762589,0.062098920345306396,-0.05224280431866646},{-0.12069415301084518,-0.11443814635276794,0.034630149602890015,0.11371269822120667,0.1892535388469696,-0.039184171706438065,-0.3782993257045746,-0.07575090229511261,0.3160243630409241,-0.13632428646087646,-0.012742101214826107,-0.22138752043247223,0.2048434168100357,0.14008425176143646,-0.3643166422843933,-0.24958088994026184,-0.20267991721630096,0.8601444363594055,-0.23548217117786407,0.9225393533706665,-0.34850379824638367,0.11491502076387405,-0.04041598364710808,0.022765133529901505,-0.2816990315914154,-0.044735025614500046,-0.13753734529018402,-0.023954100906848907,-0.13210545480251312,0.22919946908950806,-0.1063569113612175,0.05162902548909187,-0.3780302405357361,0.4552547335624695,-0.12687639892101288,-0.297941654920578,-0.06493047624826431,0.12951049208641052,-0.24758698046207428,0.24972578883171082,-0.5834154486656189,-0.43161624670028687,-0.2532743215560913,-0.6271905899047852,-0.1549205482006073,-0.2565430998802185,-0.3051280975341797,0.27188464999198914,-0.5031429529190063,-0.12265215814113617,0.2343370020389557,-0.07012476772069931,-0.039813052862882614,0.30805644392967224,-0.17040400207042694,0.07381705194711685,0.16969256103038788,0.6828004121780396,-0.06928467750549316,0.17087692022323608,-0.05690573528409004,-0.41834208369255066,-0.3260299265384674,0.310684472322464},{0.1475294977426529,0.13722185790538788,0.006042673718184233,-0.0480574406683445,0.07702323794364929,0.02276160940527916,0.05342501029372215,-0.06205686554312706,-0.17401030659675598,0.0922970175743103,-0.11227244883775711,-0.044618770480155945,-0.03325643017888069,0.03383791819214821,-0.0552641898393631,-0.004141508601605892,0.11116109788417816,-0.13500335812568665,0.01731255277991295,-0.09765195101499557,-0.03950406610965729,-0.06708506494760513,-0.06626088917255402,0.01757996715605259,-0.0254624355584383,-0.043862130492925644,0.11444966495037079,0.020710688084363937,0.061743494123220444,0.009153245948255062,-0.0036229658871889114,0.07430511713027954,0.12385246902704239,-0.00937177799642086,0.07326004654169083,0.1358252465724945,0.08962135016918182,0.06792016327381134,-0.01714339479804039,0.0031878636218607426,-0.09199109673500061,0.0699942335486412,-0.0819777399301529,-0.06756587326526642,-0.05798214301466942,0.016288962215185165,0.16065239906311035,0.062860868871212,0.10450800508260727,0.08709965646266937,-0.003023581113666296,-0.024000342935323715,-0.0013830105308443308,0.022318517789244652,-0.20884941518306732,-0.0625692680478096,0.046620290726423264,0.17319431900978088,-0.07596069574356079,0.13382026553153992,0.028228363022208214,0.05062593147158623,-0.012346862815320492,-0.08504346758127213},{0.04073917865753174,-0.07631848752498627,0.12198583036661148,-0.05892433971166611,-0.00904205534607172,0.19496119022369385,0.01949898712337017,0.11431068181991577,0.18553723394870758,0.34924614429473877,0.15279442071914673,0.08307529985904694,-0.1608385592699051,-0.08353148400783539,0.044281698763370514,-0.061335232108831406,0.03488181158900261,0.15314938127994537,0.1456185132265091,-0.050115637481212616,0.1032172217965126,1.1757019819924608e-05,0.1137860044836998,0.04709482192993164,0.050059229135513306,-0.22917822003364563,0.011148832738399506,-0.1628515124320984,0.16387690603733063,0.12267693132162094,0.07646547257900238,0.12919452786445618,-0.2978813946247101,-0.13513915240764618,0.11049269139766693,0.38375794887542725,0.14291606843471527,0.10713684558868408,0.13925455510616302,0.3513816297054291,-0.24563395977020264,-0.16707643866539001,-0.1401110142469406,-0.252872109413147,-0.07153155654668808,-0.03731593117117882,-0.008846604265272617,0.05713668838143349,-0.19735196232795715,0.017549069598317146,0.17360277473926544,-0.2131940871477127,-0.06411182135343552,0.13010534644126892,-0.1259675770998001,0.07869850099086761,-0.00769983371719718,0.2893112897872925,0.32793110609054565,0.07704003900289536,-0.08628726750612259,0.21206988394260406,-0.4029224216938019,-0.1563926786184311},{0.03648523986339569,-0.13193383812904358,0.02098996378481388,0.0012148547684773803,0.12764964997768402,-0.100864477455616,0.016729306429624557,0.052720244973897934,0.08297345042228699,-0.0230687465518713,-0.09330222010612488,-0.018425386399030685,0.12253251671791077,-0.09076884388923645,-0.05436107888817787,0.142967090010643,-0.13966238498687744,-0.14159180223941803,0.06871478259563446,-0.08958235383033752,-0.03269685432314873,0.10665035992860794,-0.048965469002723694,0.010768852196633816,0.07732171565294266,0.04806210473179817,0.15059390664100647,-0.0869273915886879,-0.0977766290307045,0.08898505568504333,-0.012660694308578968,0.0467340350151062,0.08421164751052856,-0.008928637951612473,-0.03247195854783058,0.14732655882835388,0.01416934933513403,0.004009381867945194,-0.11098814755678177,-0.11887464672327042,-0.031091224402189255,0.08081486076116562,-0.010256968438625336,-0.04124700278043747,-0.055610280483961105,-0.01558363251388073,-0.037968821823596954,-0.1380007416009903,0.13164560496807098,0.007311469409614801,-0.03211267292499542,-0.009502951055765152,0.08448190987110138,-0.12219952791929245,-0.12194228917360306,-0.13716956973075867,0.05171889811754227,0.08782680332660675,0.016000114381313324,0.06701796501874924,-0.0945446640253067,0.13143330812454224,-0.12813293933868408,-0.02043425850570202},{-0.00045862732804380357,0.08624069392681122,-0.013811585493385792,-0.11498764157295227,0.07866080105304718,-0.015524669550359249,-0.1769491732120514,-0.12231054902076721,-0.11298865079879761,-0.008520695380866528,0.01955859549343586,-0.09846548736095428,0.09216238558292389,0.03574641793966293,0.1074729785323143,-0.011564915999770164,0.14553731679916382,0.06969056278467178,0.06878877431154251,0.15404479205608368,0.03463999181985855,0.037090130150318146,0.09141720831394196,-0.01578918844461441,0.11404389888048172,-0.04819527268409729,-0.02037687972187996,0.09806564450263977,0.07297538965940475,0.07275155186653137,0.09009579569101334,-0.007500078063458204,-0.159234881401062,-0.002331467578187585,0.06322751194238663,-0.10317758470773697,0.05588296055793762,0.06379775702953339,-0.12689706683158875,-0.03909865394234657,-0.015547078102827072,-0.03880558907985687,0.062162429094314575,0.033885106444358826,0.07295408099889755,-0.03300949186086655,0.02432403340935707,-0.09928678721189499,0.10010668635368347,0.09888271242380142,-0.1030600443482399,0.10101626068353653,-0.004519470501691103,-0.07596882432699203,0.1668747365474701,0.07128680497407913,-0.1092333197593689,-0.07063750922679901,-0.012511631473898888,0.06298349052667618,-0.07380586862564087,0.030265536159276962,-0.007044814061373472,-0.00630171038210392},{0.1593678742647171,-0.022492751479148865,-0.2653701901435852,0.10698141157627106,-0.19468286633491516,-0.13954301178455353,-0.4024653434753418,0.13210153579711914,0.26404404640197754,0.13626979291439056,-0.14146539568901062,-0.07135100662708282,-0.09199349582195282,0.07661323994398117,-0.25742098689079285,-0.1970868855714798,-0.01184871792793274,0.0159580260515213,-0.28416839241981506,0.8614278435707092,-0.2234942764043808,0.10779058188199997,0.0904012992978096,-0.19597962498664856,-0.227822408080101,-0.1864180862903595,-0.12527085840702057,-0.20750710368156433,-0.010122468695044518,0.3336387574672699,0.011901544407010078,-0.08953605592250824,-0.1625136137008667,0.49647507071495056,-0.3141059875488281,-0.6967814564704895,0.057353194802999496,0.0987643226981163,-0.3905883729457855,0.048569295555353165,-0.700337827205658,-0.2232370227575302,-0.0829022079706192,-1.0692464113235474,-0.12302225083112717,-0.47890740633010864,0.12062591314315796,-0.057676635682582855,0.20533187687397003,0.06025770679116249,0.1604032814502716,0.003994010388851166,0.7976969480514526,-0.1930345892906189,0.26349952816963196,0.20605289936065674,-0.017746588215231895,0.7966426610946655,-0.30613383650779724,0.06500614434480667,0.05415830761194229,-0.19210904836654663,0.20463402569293976,0.5665216445922852},{0.09445374459028244,0.08259829878807068,0.21480493247509003,0.10656724125146866,-0.01915145292878151,0.17943164706230164,0.2564888596534729,0.07407169789075851,0.32438403367996216,-0.024130690842866898,0.09913269430398941,-0.018143992871046066,-0.022455181926488876,0.0652313083410263,-0.04174187779426575,-0.05847780033946037,-0.03023625537753105,-0.2503020763397217,-0.08928601443767548,-0.11649931222200394,0.037253376096487045,-0.0073393769562244415,0.12955166399478912,0.10548048466444016,0.05657590925693512,-0.043115053325891495,-0.015180370770394802,0.013581126928329468,0.07451693713665009,0.04834926873445511,-0.07680444419384003,-0.032436273992061615,0.14199770987033844,-0.15828192234039307,0.12001768499612808,-0.015365581959486008,-0.0903252363204956,-0.044205088168382645,0.06343331933021545,0.21796195209026337,-0.1022631973028183,-0.02779345214366913,0.15893535315990448,-0.0036151865497231483,-0.08926235139369965,0.09350109100341797,0.2037038803100586,0.16007976233959198,-0.05186930671334267,0.04506245627999306,0.0840095728635788,0.03527865931391716,-0.006108089350163937,-0.032176800072193146,0.2292509227991104,-0.1611308455467224,-0.08167590945959091,0.14706489443778992,0.13940732181072235,0.08660855889320374,-0.06352830678224564,0.22287458181381226,-0.009244919754564762,-0.08058716356754303},{0.1077917218208313,-0.07412490993738174,-0.004890381824225187,0.056534361094236374,0.004487296100705862,-0.08609012514352798,0.036140650510787964,-0.07942883670330048,0.04828442260622978,0.058314017951488495,0.02518201433122158,-0.12175343185663223,0.12716343998908997,0.10967806726694107,0.11188515275716782,-0.07337295264005661,-0.0707106813788414,-0.11001889407634735,-0.00817057304084301,-0.047883808612823486,0.029375532642006874,0.0754031389951706,0.09060141444206238,-0.058605995029211044,0.041333213448524475,-0.23390023410320282,0.08653837442398071,-0.10397448390722275,0.09865988045930862,-0.07006000727415085,-0.030022645369172096,-0.10203627496957779,0.074451744556427,0.026837224140763283,-0.026327989995479584,0.2756199538707733,0.008268820121884346,-0.04827018454670906,-0.15578749775886536,0.07480665296316147,0.053250592201948166,-0.10766025632619858,-0.03125818073749542,-0.06583654135465622,-0.10047074407339096,-0.07356921583414078,-0.07972055673599243,0.02775157429277897,0.15148364007472992,0.07127714157104492,-0.08642756193876266,-0.05913661792874336,0.009782064706087112,-0.10965776443481445,-0.0031942687928676605,-0.06718000024557114,0.05377305671572685,-0.1117536723613739,0.15573550760746002,-0.10726948082447052,-0.045872922986745834,0.06927816569805145,-0.022796347737312317,0.05728917196393013},{0.05004424229264259,-0.11685477942228317,-0.042049847543239594,0.06809205561876297,0.2384433150291443,-0.04861075058579445,-0.06796860694885254,-0.014726771973073483,-0.13567376136779785,-0.015655532479286194,0.16262462735176086,-0.006634026765823364,0.0025226932484656572,0.09766320884227753,-0.12689776718616486,0.055627886205911636,-0.00701422244310379,0.13506855070590973,0.05412702634930611,0.029036646708846092,-0.011231456883251667,0.3924468159675598,-0.3049676716327667,-0.07531681656837463,-0.10857073217630386,0.24332575500011444,0.001669783960096538,-0.03495392948389053,0.021365169435739517,0.1408722996711731,-0.039138346910476685,-0.008158144541084766,0.06190865859389305,0.11553174257278442,-0.055007267743349075,-0.20582562685012817,0.027432184666395187,0.12427160888910294,-0.06680108606815338,-0.12567239999771118,0.1292080283164978,-0.07801532745361328,0.027935443446040154,-0.1444181203842163,0.07483457028865814,-0.014935428276658058,-0.028017064556479454,-0.07070943713188171,-0.04345042631030083,-0.0804482027888298,-0.10961594432592392,0.006384686566889286,-0.1932939738035202,0.059000663459300995,0.07008890062570572,0.0485880970954895,-0.05529038980603218,-0.0161549374461174,-0.2806057333946228,0.11503913998603821,0.16840390861034393,-0.12537258863449097,-0.020570507273077965,-0.1725975126028061},{0.04725462198257446,-0.03395923599600792,0.015770258381962776,0.12067940831184387,-0.1294582486152649,-0.05654165521264076,-0.09550771862268448,-0.022686311975121498,0.07822564989328384,0.11369045078754425,0.08323612064123154,0.07416950911283493,0.08550017327070236,0.005982120055705309,-0.1038217768073082,-0.05092080309987068,0.03589644283056259,-0.14900334179401398,0.010965409688651562,-0.06481990963220596,-0.0308433398604393,-0.07786183804273605,-0.05809395760297775,0.024377459660172462,-0.061757005751132965,0.08247457444667816,-0.05279436707496643,0.005160700064152479,-0.09846718609333038,0.07218731194734573,-0.0030909860506653786,-0.015219670720398426,-0.17350129783153534,0.021230677142739296,0.10607592016458511,-0.2889447510242462,0.12214767187833786,-0.06783090531826019,-0.014632108621299267,0.09589143097400665,-0.14830492436885834,-0.007183218840509653,0.10653822124004364,-0.04991813376545906,-0.11862880736589432,-0.08777903765439987,0.052404772490262985,0.11354635655879974,-0.11387317627668381,0.10943630337715149,0.06602753698825836,-0.09026239067316055,-0.018662935122847557,0.04644181206822395,0.3196980655193329,0.012019434943795204,0.011214091442525387,-0.08149246126413345,-0.11208700388669968,0.07807306945323944,0.10098221898078918,-0.06755658239126205,0.08187404274940491,-0.03862840682268143},{-0.09521310776472092,-0.1121145561337471,0.05785984545946121,0.054376717656850815,0.0479138121008873,-0.0370863676071167,-0.13524489104747772,0.11372733116149902,-0.12908779084682465,-0.12228260189294815,-0.060411013662815094,0.06838890165090561,0.039896752685308456,0.03208627551794052,-0.04521322622895241,-0.10922565311193466,-0.06850047409534454,0.10256452858448029,-0.09583103656768799,-0.09790219366550446,0.11004278808832169,-0.09180361032485962,0.03740226477384567,0.033240027725696564,0.11105943471193314,-0.10034412890672684,-0.12097267061471939,0.08626696467399597,-0.023374566808342934,-0.06393091380596161,-0.017456596717238426,0.09933770447969437,0.06789997220039368,0.03191652148962021,0.0383632555603981,0.013788088224828243,-0.05665156990289688,0.14118169248104095,-0.05159253254532814,0.04464825242757797,0.11628181487321854,0.08011752367019653,0.09111784398555756,-0.06731545925140381,-0.12237504869699478,0.060169707983732224,0.12618201971054077,0.11527040600776672,0.057880789041519165,0.04697060212492943,-0.06055057793855667,-0.1089455857872963,0.0008846870041452348,0.0560617558658123,-0.20481182634830475,0.18214192986488342,-0.055567432194948196,0.14202775061130524,0.08734624832868576,0.004575996659696102,-0.0439472459256649,0.022951902821660042,0.06719712167978287,0.05021532252430916},{-0.2818533182144165,0.02247275412082672,-0.07806164771318436,-0.16441000998020172,0.004029250703752041,0.09797753393650055,-0.02656196616590023,-0.22030413150787354,0.018023157492280006,-0.09426839649677277,-0.2695241868495941,-0.021867837756872177,0.030181195586919785,-0.10086311399936676,0.16528941690921783,0.01091665681451559,-0.1092749759554863,0.27940061688423157,0.03655165806412697,0.06576833128929138,0.16909275949001312,-0.1310918629169464,-0.0529375895857811,0.006889051757752895,-0.03606417402625084,-0.1908365786075592,-0.0320776142179966,-0.056096889078617096,0.026876408606767654,-0.15080620348453522,0.037474919110536575,0.07295449823141098,-0.02563195861876011,0.25915980339050293,0.05955469608306885,0.3001992702484131,-0.03149446099996567,0.17057593166828156,0.046554531902074814,-0.21145488321781158,0.04194725677371025,-0.0921701192855835,0.02899622730910778,-0.06954586505889893,-0.06171974539756775,-0.09676002711057663,-0.17490586638450623,-0.05527503788471222,0.24659700691699982,0.18873120844364166,0.09176770597696304,-0.15039733052253723,0.15148167312145233,-0.06982873380184174,-0.4392271935939789,0.059327222406864166,0.06917612254619598,0.05963898450136185,0.1762959063053131,0.051195722073316574,-0.08523635566234589,-0.15985791385173798,-0.1501682996749878,0.09776626527309418},{0.08501292765140533,0.04969888553023338,-0.08496323227882385,-0.03856779634952545,-0.15461313724517822,0.08228692412376404,0.10757637768983841,0.03698012977838516,0.19523462653160095,0.1190909594297409,0.04089968651533127,-0.06458108872175217,-0.17757175862789154,-0.05353951081633568,-0.13745716214179993,-0.12773728370666504,-0.08299466967582703,-0.15364979207515717,-0.15845471620559692,-0.053665708750486374,0.02141502872109413,-0.13731075823307037,0.0790967345237732,-0.09234544634819031,-0.10140595585107803,-0.10714312642812729,0.15349344909191132,-0.053278468549251556,-0.08870437741279602,0.12814533710479736,0.1309114396572113,0.044587671756744385,0.10097787529230118,-0.004857113119214773,0.0014456079807132483,0.04596928879618645,-0.014142932370305061,-0.005648761987686157,0.026773160323500633,0.13712598383426666,-0.23846374452114105,0.04415062442421913,0.14279742538928986,-0.25094932317733765,0.09727053344249725,0.014129722490906715,0.13771705329418182,-0.05226380005478859,0.2100442349910736,0.1177775040268898,-0.024080967530608177,-0.06440144032239914,0.05337388440966606,0.06147909536957741,-0.17826759815216064,0.11610378324985504,-0.1376538723707199,0.11653207242488861,0.054876312613487244,0.04716033861041069,-0.03877217322587967,0.1316022127866745,0.12043798714876175,0.09932040423154831},{0.1118755042552948,-0.006157816853374243,0.04088718816637993,0.07095295935869217,0.011675511486828327,0.08955316245555878,0.15359865128993988,-0.03261613845825195,0.12281515449285507,0.019976409152150154,0.033763788640499115,-0.10274415463209152,-0.06558211892843246,-0.11353406310081482,-0.11624050885438919,-0.07363342493772507,-0.057634808123111725,0.05250203609466553,-0.027237989008426666,-0.15032798051834106,-0.0636398121714592,0.009100442752242088,-0.08668192476034164,-0.026554960757493973,0.1111515462398529,-0.06435053050518036,0.03118240088224411,0.11863931268453598,0.020350197330117226,-0.03668069466948509,0.017563488334417343,-0.04212934151291847,0.03855922445654869,-0.046509742736816406,0.06297001242637634,0.3431892693042755,0.06222762539982796,-0.09068739414215088,-0.12413141131401062,0.07492952048778534,0.11896246671676636,-0.01850711554288864,-0.0806921198964119,0.046646423637866974,-0.05588165670633316,0.11751943081617355,-0.025328461080789566,-0.00032682722667232156,-0.1360180377960205,-0.044484082609415054,0.053423698991537094,0.035435304045677185,0.10170627385377884,-0.006622525863349438,-0.3419281542301178,-0.03879856690764427,0.02756679803133011,0.013588402420282364,0.16743484139442444,0.1066252812743187,0.043330006301403046,0.011322053149342537,-0.0855783075094223,0.09044810384511948},{-0.03360914811491966,0.0321488119661808,-0.06544618308544159,-0.032108090817928314,-0.11783190071582794,0.07526050508022308,-0.1871749609708786,0.009087990038096905,-0.052324824035167694,0.19765369594097137,0.049851369112730026,0.012558162212371826,0.019049745053052902,-0.08690747618675232,0.1158098578453064,0.08936185389757156,0.09902393072843552,-0.0016002025222405791,-0.07806125283241272,0.04772694781422615,0.030174314975738525,0.08878671377897263,0.11906757205724716,-0.06586258858442307,0.04638490453362465,-0.10659104585647583,-0.1252812147140503,-0.09673650562763214,-0.06389119476079941,0.012808064930140972,0.055497344583272934,-0.08682367205619812,-0.062062542885541916,-0.05449766293168068,0.08179552853107452,-0.13790512084960938,0.07538072019815445,0.017269151285290718,-0.11116966605186462,0.09211298823356628,-0.21747063100337982,0.05777212604880333,0.043395623564720154,-0.005335330497473478,-0.06492368876934052,0.03880477324128151,0.204970583319664,0.05088197439908981,0.12485739588737488,0.023421643301844597,0.035994675010442734,-0.07969101518392563,-0.030447736382484436,-0.04806283861398697,0.2084059864282608,0.06880489736795425,0.07227773219347,0.002674882998690009,-0.08003596216440201,0.04104188457131386,0.02682061493396759,0.20668627321720123,-0.008239484392106533,-0.020163292065262794},{0.06929911673069,0.06500466167926788,0.06897051632404327,0.00338693056255579,0.07596772909164429,-0.1486108899116516,-0.20105671882629395,-0.07697606086730957,-0.195083886384964,0.130789652466774,-0.23453544080257416,0.08003389835357666,-0.010945973917841911,-0.017820701003074646,0.14034096896648407,-0.031024223193526268,0.08299772441387177,0.39293670654296875,0.1881277859210968,0.13077321648597717,-0.0665515586733818,-0.006118836812674999,0.11449725180864334,0.02589261345565319,0.05647588521242142,-0.2076319307088852,-0.13196688890457153,-0.1298583596944809,-0.005930801387876272,-0.02904493734240532,0.06393007934093475,-0.0660972073674202,0.03453601524233818,0.2211158573627472,0.05165969207882881,0.20876526832580566,0.1705331653356552,0.03918323293328285,0.17027142643928528,-0.21098549664020538,0.0975598618388176,-0.1926012635231018,0.05571712180972099,-0.051753345876932144,-0.06831388920545578,-0.21241231262683868,-0.10381511598825455,-0.01605628803372383,-0.09718866646289825,-0.012745139189064503,-0.05076330527663231,0.01563183218240738,-0.0180393997579813,0.07731632143259048,-0.39424288272857666,0.1323014497756958,-0.0471641905605793,-0.0015305076958611608,0.11005418002605438,0.06709009408950806,-0.05620012804865837,0.14561747014522552,-0.247439444065094,-0.06458153575658798},{-0.0338115394115448,-0.008638397790491581,-0.09524083882570267,-0.11932707577943802,-0.1398378163576126,0.003136387327685952,0.11944899708032608,-0.0018139842431992292,0.1496337205171585,0.04769503325223923,0.14117974042892456,-0.10213088244199753,-0.050201911479234695,-0.04004666954278946,0.0907091274857521,0.1323290914297104,-0.14652857184410095,-0.03769172355532646,-0.09000091254711151,-0.19630588591098785,-0.022118767723441124,0.18182814121246338,-0.20125404000282288,-0.12973405420780182,-0.10842730849981308,0.07348654419183731,0.13001739978790283,-0.02453150786459446,-0.010411838069558144,0.10843715071678162,0.04238154739141464,0.015681838616728783,0.20701545476913452,-0.21958962082862854,-0.06512665748596191,0.39727455377578735,-0.07440570741891861,0.05442996695637703,-0.028980543836951256,-0.03708115220069885,0.024137411266565323,-0.018359923735260963,-0.11819033324718475,0.02154773287475109,0.07128344476222992,0.13211743533611298,-0.042688898742198944,0.004597518593072891,-0.004967553075402975,0.033750373870134354,0.1395997703075409,0.1652662605047226,-0.0195964016020298,0.10339082032442093,-0.3963157832622528,0.04439469799399376,0.05940346047282219,0.026839859783649445,0.2560822665691376,-0.17568087577819824,-0.12650363147258759,0.021960511803627014,-0.15710395574569702,0.062216464430093765},{-0.062240954488515854,-0.07116720080375671,0.08496909588575363,-0.19790036976337433,-0.19249945878982544,-0.07203234732151031,-0.1400393396615982,-0.030044639483094215,0.14402058720588684,-0.11141528934240341,0.016869498416781425,-0.09982134401798248,0.15807044506072998,-0.10004005581140518,0.1443740278482437,0.11313991993665695,-0.020004162564873695,0.14721396565437317,-0.06639155745506287,0.00020509265596047044,-0.1422552764415741,-0.001589104998856783,0.06556478887796402,0.10083401948213577,0.07573016732931137,0.127671018242836,-0.02030378207564354,0.1054999828338623,-0.1608022302389145,0.10243382304906845,0.03543303161859512,-0.1387813538312912,-0.050181519240140915,-0.30026376247406006,-0.0006020006840117276,0.1778564602136612,-0.07216459512710571,-0.09449300169944763,-0.10147649794816971,0.176433727145195,0.11694879829883575,0.02931724674999714,-0.14614668488502502,0.1493285447359085,-0.0158233642578125,-0.01881943829357624,-0.24002288281917572,0.09924179315567017,-0.26595357060432434,-0.026419728994369507,0.1490158885717392,0.14165955781936646,-0.2104158103466034,-0.04750411957502365,0.16608601808547974,0.05529011785984039,0.0711018368601799,0.028766507282853127,0.07577864825725555,0.07291726768016815,-0.0824459120631218,-0.08208311349153519,-0.07752642035484314,0.16035214066505432},{0.08606836944818497,-0.08351993560791016,-0.1218099445104599,0.038404159247875214,-0.0701274573802948,-0.05953797698020935,0.12750372290611267,-0.11688195168972015,-0.006821715272963047,-0.11949819326400757,0.036319948732852936,-0.10041496157646179,0.027735084295272827,-0.19569648802280426,0.06451285630464554,0.049857888370752335,-0.11187032610177994,-0.07744026929140091,-0.0797944888472557,-0.046217091381549835,-0.05228714272379875,-0.05304408818483353,0.026771416887640953,0.022612599655985832,0.09886888414621353,-0.21782638132572174,-0.06276622414588928,0.03950377181172371,-0.12264560163021088,0.08832418918609619,0.07897177338600159,-0.12513360381126404,0.1914263218641281,-0.08746303617954254,-0.10621240735054016,0.7829453349113464,0.024612998589873314,0.09571042656898499,0.043037883937358856,0.08943147957324982,0.24862147867679596,0.05220719799399376,0.0029156042728573084,-0.03080928698182106,0.010225358419120312,0.033181436359882355,-0.13321803510189056,-0.03542286530137062,-0.1289442926645279,0.0077791218645870686,-0.003999034408479929,0.1689515858888626,0.10232003033161163,0.16988007724285126,-0.3291422724723816,-0.12259411811828613,0.09665533155202866,-0.017134403809905052,0.2377786487340927,-0.014082369394600391,-0.04724695160984993,-0.07029680907726288,-0.22660204768180847,-0.11401037871837616},{0.01747894659638405,-0.016341080889105797,0.09987728297710419,0.11090026050806046,-0.040069106966257095,0.12857268750667572,0.06221838295459747,0.041677191853523254,0.05550796538591385,-0.0006859712884761393,-0.10620208829641342,0.04353788495063782,0.014755353331565857,0.1777886152267456,0.1559947282075882,0.11855043470859528,-0.025789853185415268,-0.30167123675346375,-0.043287232518196106,0.1763249635696411,-0.05740563943982124,0.13876093924045563,0.06993018835783005,-0.03600617125630379,-0.01211246382445097,0.04200093448162079,0.08424782752990723,0.01089587900787592,0.12708190083503723,0.01637106202542782,0.14657337963581085,-0.034532468765974045,-0.301254540681839,0.002644649473950267,-0.06485098600387573,-0.5033509135246277,-0.11022809892892838,-0.047115933150053024,-0.13236723840236664,0.042467329651117325,-0.060388095676898956,0.026625365018844604,0.04009437561035156,-0.05950731039047241,0.041137196123600006,0.05811699852347374,0.45506802201271057,0.06729530543088913,0.1950642317533493,0.18189218640327454,-0.00914064235985279,0.051334381103515625,0.11478795856237411,-0.10723487287759781,0.5199046730995178,-0.187781423330307,-0.087315633893013,-0.13742543756961823,-0.26647037267684937,0.012861154042184353,0.16606979072093964,0.23733006417751312,0.25286203622817993,-0.07262934744358063},{0.007189274299889803,-0.11580616980791092,0.138571098446846,-0.1125699132680893,0.05977495014667511,0.08024005591869354,0.16613447666168213,-0.05412399768829346,-0.020525993779301643,-0.036891017109155655,-0.04977825656533241,-0.14206689596176147,-0.0689154863357544,-0.12030202895402908,0.047743748873472214,-0.05426821485161781,-0.09740610420703888,0.027683285996317863,-0.07193242758512497,-0.2703574299812317,-0.044755369424819946,-0.08011598885059357,0.09041907638311386,0.07462586462497711,-0.04637273773550987,-0.19499550759792328,0.16735614836215973,0.004332594573497772,-0.16961322724819183,0.07297058403491974,-0.09589795023202896,-0.09548410028219223,0.3032853901386261,-0.14958873391151428,-0.04026571288704872,0.464358389377594,-0.11550667136907578,-0.0489683598279953,0.08661548048257828,0.11199253052473068,0.12988683581352234,0.02782151661813259,-0.08641292154788971,-0.02196137234568596,0.02763727493584156,0.07180201262235641,-0.050828803330659866,0.012830408290028572,0.030721191316843033,-0.07394453138113022,0.07933837920427322,-0.008406420238316059,0.016594914719462395,0.08257171511650085,-0.2949904501438141,-0.1619480550289154,0.08722053468227386,0.05020351707935333,0.22769959270954132,0.004570721182972193,-0.0711878165602684,0.10759150236845016,-0.224720299243927,-0.17768587172031403},{-0.1832326352596283,0.03974202275276184,0.0721932202577591,0.07249486446380615,0.03341495618224144,-0.03352626413106918,-0.19832465052604675,0.12772780656814575,-0.07353883981704712,0.15576326847076416,-0.009774158708751202,-0.07154116034507751,0.05390220135450363,0.024546775966882706,-0.033859290182590485,0.0663306936621666,-0.007979793474078178,-0.006603349465876818,0.028132418170571327,0.0736851915717125,0.14061743021011353,-0.05115119367837906,-0.05643521249294281,-0.06933868676424026,0.11150424182415009,0.013725495897233486,-0.09534332901239395,0.0899304673075676,0.11413981765508652,0.07342587411403656,0.013650389388203621,-0.030506251379847527,-0.09777417033910751,-0.02748551219701767,0.015268836170434952,-0.12314605712890625,0.015450317412614822,0.03804698958992958,0.029206259176135063,0.13013991713523865,0.06275518983602524,0.019141830503940582,0.06160624697804451,-0.12550349533557892,0.12491399794816971,-0.06584293395280838,0.21571174263954163,0.10177305340766907,0.012126109562814236,0.12068770825862885,-0.01445563044399023,-0.06720380485057831,0.06584776192903519,-0.12077242136001587,0.18395988643169403,-0.0309602040797472,-0.15305350720882416,0.09491760283708572,-0.134812131524086,0.12216068804264069,0.10341355204582214,0.04190388321876526,0.1353091299533844,0.1346619874238968},{0.11043591797351837,0.013634194619953632,0.04880758374929428,-0.05999019742012024,0.1223355233669281,-0.04823099076747894,-0.0045094662345945835,-0.07246914505958557,-0.025231793522834778,-0.05435565486550331,0.19116635620594025,0.1467021107673645,-0.0021665433887392282,-0.07289863377809525,0.019499730318784714,0.15478147566318512,0.11614630371332169,-0.20892484486103058,-0.09890221059322357,-0.10349167138338089,0.04547284543514252,-0.04940319061279297,-0.08013826608657837,0.04383154213428497,0.09388869255781174,0.07656639814376831,-0.10400620102882385,-0.08918023854494095,-0.08847100287675858,-0.032467953860759735,-0.013685586862266064,-0.07263264805078506,0.03780432417988777,0.005023110657930374,-0.09524835646152496,-0.2043629139661789,-0.0697321891784668,0.004822779446840286,-0.08767233788967133,-0.0032245221082121134,0.10247652977705002,0.038307882845401764,-0.05256161838769913,-0.06967628747224808,0.04496561363339424,0.0344068817794323,-0.06426236778497696,0.0565129853785038,0.10317537933588028,0.155577152967453,-0.1941397786140442,0.11828085780143738,-0.017051201313734055,-0.025360843166708946,0.15038204193115234,-0.023465467616915703,0.06696519255638123,-0.1676095426082611,-0.05681676045060158,0.08842381089925766,0.03894456475973129,0.023764455690979958,0.17104558646678925,-0.026793774217367172},{-0.16120408475399017,0.07991267740726471,0.21506603062152863,0.04379701614379883,0.14812850952148438,0.042436446994543076,-0.3144725263118744,-0.10221808403730392,0.33658045530319214,0.03931453078985214,0.011610829271376133,-0.029074430465698242,0.007558388635516167,-0.0714738741517067,0.4660879075527191,0.31837624311447144,-0.05245291441679001,0.17166155576705933,-0.11699194461107254,0.1928713321685791,0.015915989875793457,0.2527114748954773,0.1591472625732422,-0.02805098332464695,0.02802458591759205,-0.1517503410577774,-0.022095385938882828,-0.0933409035205841,0.0722261518239975,0.0515938326716423,-0.024227304384112358,0.006432732101529837,-0.4789736568927765,0.48071449995040894,-0.1260451227426529,0.1008424386382103,-0.021132364869117737,0.31725242733955383,-0.4022379517555237,-0.15941575169563293,-0.026455581188201904,-0.43849390745162964,0.17756015062332153,-0.6610755920410156,0.0815848782658577,-0.17928697168827057,-0.12444333732128143,-0.08549027144908905,0.16334933042526245,0.09041164070367813,-0.1956702172756195,0.033541541546583176,0.23085638880729675,-0.16667985916137695,-0.041082944720983505,0.13012240827083588,-0.04337763786315918,-0.2757791578769684,-0.006235076580196619,-0.13585108518600464,0.052330780774354935,0.3371843099594116,-0.39536920189857483,-0.1682201772928238},{-0.09788874536752701,-0.0558127723634243,-0.06315962970256805,0.006245519500225782,-0.00439347792416811,0.05772216618061066,-0.0688386932015419,-0.09784375876188278,-0.08396312594413757,-0.1169658899307251,0.14497558772563934,-0.059366077184677124,-0.05199498310685158,0.020983312278985977,0.02525109238922596,0.11635098606348038,0.01770525611937046,-0.004853049758821726,-0.06352592259645462,-0.06251964718103409,0.07780031859874725,-0.11211647838354111,-0.02301560901105404,-0.1055346429347992,0.05815302953124046,0.3491782248020172,0.008627236820757389,0.048257242888212204,-0.013842240907251835,-0.0695100650191307,-0.03917299583554268,0.10241086781024933,-0.034591272473335266,-0.09580154716968536,-0.12454928457736969,-0.1531699299812317,-0.08600372076034546,-0.11632391065359116,0.11322738975286484,-0.060421377420425415,0.051457129418849945,-0.109388068318367,-0.041707247495651245,0.15753132104873657,0.0025917994789779186,0.1484147608280182,-0.07483770698308945,-0.06776045262813568,-0.00850170198827982,0.025809887796640396,0.09636396169662476,-0.035013653337955475,-0.06266273558139801,-0.04156067594885826,0.20874127745628357,-0.07572870701551437,0.09766070544719696,-0.21951930224895477,-0.07769887894392014,-0.10930167138576508,-0.1366019994020462,0.06105535104870796,0.12137506157159805,0.05957213044166565},{0.07996642589569092,0.07719767838716507,0.026900077238678932,0.19377322494983673,0.22835484147071838,0.018515970557928085,0.09273871034383774,-0.06561853736639023,-0.004852352663874626,-0.06498377025127411,0.1546703577041626,-0.07836117595434189,0.03528575599193573,-0.09789863228797913,-0.1858537495136261,-0.19408074021339417,-0.06405206024646759,0.1654360443353653,0.058668386191129684,-0.08335418999195099,-0.22566431760787964,0.021095555275678635,-0.08660050481557846,0.04132203385233879,-0.0470132902264595,0.3268040716648102,-0.09481272101402283,0.05153742805123329,0.04305505007505417,-0.08842769265174866,0.03430679067969322,0.04880821332335472,0.013515055179595947,-0.0765916034579277,0.1340637505054474,-0.13854706287384033,-0.028325287625193596,-0.14260970056056976,-0.019638091325759888,-0.02489146962761879,-0.041110605001449585,-0.14342957735061646,-0.04953966662287712,0.10403231531381607,-0.07752488553524017,0.18005801737308502,-0.26593783497810364,0.06698247045278549,-0.2039388120174408,-0.1688585728406906,-0.1522449553012848,0.05587181821465492,-0.2854560911655426,0.0008809642749838531,0.12259820103645325,-0.11969495564699173,0.03803180903196335,-0.12330108880996704,-0.05645477771759033,0.18944327533245087,0.15009348094463348,-0.09832075238227844,-0.2154751867055893,-0.1340184211730957},{-0.09492915868759155,-0.09742849320173264,0.06296716630458832,-0.053991734981536865,0.13852515816688538,-0.04573351517319679,0.5242955088615417,0.031236423179507256,0.21595659852027893,-0.06333912163972855,0.1079704686999321,-0.14504817128181458,0.1930716186761856,-0.14903473854064941,-0.11162499338388443,0.021423261612653732,-0.14664308726787567,0.3309831917285919,0.22982338070869446,-0.34317266941070557,-0.19638271629810333,0.12516804039478302,-0.056296639144420624,-0.027175812050700188,0.04514234885573387,-0.2592970132827759,0.06682363897562027,0.00688254926353693,-0.05018751695752144,0.1336662918329239,0.08718083053827286,0.22937063872814178,0.06207694113254547,-0.080317921936512,0.16316431760787964,0.8955848813056946,-0.10331588983535767,0.08843538910150528,0.017574388533830643,-0.11593509465456009,0.3590969145298004,-0.20334769785404205,0.0921989381313324,0.17775508761405945,-0.025521108880639076,0.2452164888381958,-0.5155112743377686,-0.03471474349498749,-0.25171253085136414,0.008671480230987072,-0.19109486043453217,-0.10770070552825928,-0.33238062262535095,0.0887860357761383,-0.3062955141067505,0.0035857190378010273,0.029576363041996956,-0.18960338830947876,0.46756088733673096,0.004752930719405413,-0.043975453823804855,0.026444653049111366,-0.655735433101654,-0.47199568152427673},{-0.021201837807893753,0.00911741703748703,0.09915003180503845,-0.0868963971734047,-0.04954501613974571,-0.12415274977684021,0.15342368185520172,0.01654025726020336,0.29709115624427795,-0.06805164366960526,0.35520291328430176,-0.03684075176715851,0.0640365481376648,0.12080749124288559,0.18897217512130737,0.15395651757717133,0.07503383606672287,-0.41666340827941895,0.15029612183570862,-0.067442886531353,-0.38401952385902405,0.22630685567855835,-0.1020771712064743,0.12269220501184464,-0.01959942653775215,-0.03425067290663719,-0.0194784514605999,-0.131450816988945,0.04026372730731964,0.16002027690410614,-0.10868778079748154,0.05201711505651474,-0.09437160938978195,-0.25905531644821167,-0.1259567141532898,0.05350485071539879,-0.021699044853448868,0.023440051823854446,-0.05837712436914444,0.07647816836833954,-0.024037200957536697,-0.051180630922317505,0.034796085208654404,0.034576743841171265,0.15426687896251678,0.1832512617111206,0.07766330242156982,0.04657382890582085,-0.05766748636960983,0.10271059721708298,-0.1557183712720871,0.18508192896842957,-0.006378374993801117,-0.04728306457400322,0.3185693025588989,-0.28974923491477966,0.05820217356085777,-0.12143778055906296,-0.21122753620147705,-0.17345097661018372,0.15717913210391998,0.14878535270690918,-0.10996194928884506,-0.1701292246580124},{-0.054394662380218506,0.010370607487857342,-0.028579428791999817,0.010260259732604027,-0.2561972737312317,-0.04092303290963173,0.006409935187548399,-0.2501922845840454,0.11934949457645416,-0.16762059926986694,-0.03329478204250336,-0.06476345658302307,0.2053055316209793,-0.16018086671829224,0.3581796884536743,-0.023187680169939995,-0.1434762179851532,0.23718339204788208,0.10490629076957703,-0.13127167522907257,-0.20030270516872406,0.018823878839612007,-0.10582426190376282,-0.17421787977218628,-0.1048794612288475,0.09849116951227188,0.08929821103811264,-0.01030357088893652,-0.10044722259044647,0.1220240592956543,0.056170348078012466,-0.11297682672739029,0.0552736259996891,-0.14820721745491028,0.03676007315516472,0.17850784957408905,-0.07926785945892334,0.021778738126158714,-0.15935473144054413,0.32480746507644653,0.07158030569553375,0.0047718496061861515,-0.07791554927825928,0.1435403823852539,-0.07273990660905838,0.12330495566129684,-0.07168002426624298,-0.1430784910917282,-0.27623695135116577,-0.20323918759822845,0.15164165198802948,0.17472198605537415,-0.39654162526130676,0.019220206886529922,0.218797504901886,-0.24736683070659637,0.24001991748809814,-0.5082210302352905,0.006455511320382357,-0.032896459102630615,-0.0734807625412941,-0.001769243273884058,0.07770681381225586,0.21775086224079132},{0.09175867587327957,0.12491089105606079,0.02010173909366131,0.0653676837682724,0.06973117589950562,0.05177357792854309,-0.15917333960533142,0.01063097920268774,-0.04301649332046509,0.039499908685684204,0.017583485692739487,-0.06899505853652954,-0.014175742864608765,-0.041047751903533936,0.07267022132873535,0.04371704161167145,0.01610834151506424,-0.009584265761077404,-0.18207880854606628,0.014188450761139393,0.06175987422466278,-0.10442284494638443,0.17492130398750305,0.13343127071857452,0.11518614739179611,0.18166571855545044,-0.09190240502357483,0.0921408012509346,0.10575798898935318,-0.024516478180885315,0.10624081641435623,-0.03214371204376221,0.01940588839352131,0.007702192757278681,-0.09422116726636887,-0.14931093156337738,0.0917581096291542,-0.10024642199277878,0.04686160385608673,0.005096537061035633,-0.0839935764670372,-0.07044807821512222,-0.04360964521765709,-0.054775215685367584,-0.11113042384386063,-0.05760316178202629,0.06490136682987213,0.09723223000764847,0.012490051798522472,-0.05108116567134857,-0.1007077693939209,-0.12923189997673035,-0.17849059402942657,0.08874247223138809,-0.05685656890273094,0.04012855887413025,0.09336695075035095,-0.039601460099220276,-0.052190687507390976,0.10245106369256973,-0.15218359231948853,-0.04692475497722626,-0.061141811311244965,-0.013826005160808563},{-0.3047667145729065,-0.06318633258342743,-0.14263203740119934,-0.026709917932748795,-0.09389963746070862,0.18624010682106018,-0.24992825090885162,-0.32322368025779724,-0.12448766827583313,-0.11888205260038376,-0.7622445821762085,-0.08228448778390884,-0.07807423174381256,-0.15334153175354004,0.3552095592021942,0.16734252870082855,0.19802957773208618,-0.06818795949220657,-0.17262853682041168,0.44011738896369934,-0.14000660181045532,0.060538455843925476,0.264595627784729,0.03435808792710304,0.24676842987537384,0.20803259313106537,-0.21510852873325348,-0.012928735464811325,-0.12944301962852478,-0.1635734587907791,0.1552729308605194,-0.23981446027755737,-0.047172386199235916,0.3375464677810669,-0.18991991877555847,-0.4451073408126831,-0.01138125080615282,-0.051664113998413086,-0.1998205929994583,-0.255174458026886,0.000419243035139516,0.045700207352638245,0.06190352886915207,0.07952433824539185,-0.2645156681537628,-0.33204567432403564,0.49953192472457886,-0.1146441400051117,0.2477571964263916,0.007131828926503658,-0.00024686995311640203,0.041913025081157684,0.8765078186988831,-0.0953599140048027,0.08622226119041443,-0.04670774191617966,-0.037281304597854614,0.027206391096115112,-0.008586176671087742,-0.16506022214889526,-0.14148543775081635,-0.0464235320687294,0.23583722114562988,0.41905224323272705},{0.2087615430355072,-0.061273861676454544,-0.18563805520534515,0.009148946031928062,-0.00020488361769821495,-0.14053212106227875,-0.04494859278202057,-0.04338369891047478,-0.016018616035580635,0.04158251732587814,0.02247036062180996,-0.07543879747390747,-0.05301883444190025,0.017047597095370293,0.08541685342788696,-0.00156998704187572,0.0073859430849552155,0.07241938263177872,0.02951204590499401,0.022689305245876312,-0.02883584052324295,0.16913868486881256,-0.05341019853949547,0.059962086379528046,0.05610278993844986,0.16672979295253754,-0.08108338713645935,-0.08584940433502197,-0.11578547209501266,0.16487127542495728,0.022052712738513947,-0.12265250086784363,-0.07756412774324417,-0.08540049940347672,0.1142486184835434,-0.05519215390086174,-0.04096163436770439,-0.0666879415512085,0.12358147650957108,-0.02257794514298439,0.11689941585063934,-0.0339597649872303,-0.0791652724146843,0.00031534521258436143,0.02238709107041359,0.1958853304386139,-0.034701038151979446,-0.08586254715919495,-0.21109658479690552,-0.3274649977684021,0.12947878241539001,0.14972716569900513,-0.053127869963645935,-0.09824183583259583,0.1160295382142067,-0.11831263452768326,0.071212038397789,-0.25544407963752747,-0.08922562748193741,-0.08536619693040848,-0.031195947900414467,0.17036843299865723,-0.040821727365255356,-0.06512086093425751},{0.08780008554458618,0.041455887258052826,-0.03921308368444443,-0.13357248902320862,-0.17526240646839142,-0.003481135470792651,-0.026000194251537323,0.1913500279188156,-0.11460185050964355,-0.018309902399778366,0.2699257731437683,-0.144036665558815,-0.1395125836133957,-0.10995904356241226,-0.20213362574577332,-0.16979297995567322,-0.041957221925258636,-0.06254446506500244,-0.08467726409435272,0.0018739167135208845,-0.04828507825732231,-0.24923768639564514,-0.01508057489991188,-0.014980316162109375,0.03503667190670967,0.17085914313793182,-0.028716905042529106,0.031405579298734665,0.011390230618417263,-0.1255844384431839,0.09149538725614548,0.05470580235123634,-0.11428821086883545,-0.22061924636363983,-0.05081437528133392,-0.03004329465329647,-0.19087201356887817,-0.0915098562836647,0.006436804309487343,0.09968871623277664,0.043737199157476425,0.03497388958930969,0.07563228905200958,0.29296815395355225,-0.1512608677148819,-0.05750709027051926,0.009826838038861752,0.10866303741931915,-0.19415904581546783,0.025211680680513382,0.08445701003074646,0.1320265382528305,-0.057397812604904175,0.0764368548989296,0.08845380693674088,-0.012179285287857056,-0.1052343100309372,0.2588140070438385,0.08127342164516449,0.006287555210292339,-0.1170511245727539,0.05509238317608833,0.11576780676841736,0.25928664207458496},{0.4344438314437866,-0.08751669526100159,-0.12069738656282425,0.038011956959962845,-0.030747301876544952,0.20505717396736145,0.05946425721049309,0.17086687684059143,-0.051329512149095535,0.3458096385002136,0.094272181391716,0.0478983148932457,-0.3008919656276703,-0.02930457703769207,-0.322906494140625,0.03893274441361427,-0.18205083906650543,-0.8202440142631531,-0.09330571442842484,-0.00975975301116705,0.24938568472862244,-0.26242709159851074,0.16026277840137482,-0.21656304597854614,0.006102992687374353,0.16425569355487823,-0.04037376865744591,0.08325131237506866,-0.06600355356931686,-0.13364890217781067,0.21249227225780487,-0.1714133620262146,-0.03337717801332474,-0.08487346768379211,0.1426931917667389,-0.08402989059686661,-0.025450989603996277,-0.23988084495067596,0.24059799313545227,0.036538973450660706,-0.5979349613189697,0.2614050805568695,-0.10913419723510742,0.06041232869029045,-0.25068292021751404,-0.008891922421753407,0.7079318761825562,-0.08149201422929764,0.18837225437164307,-0.03683390095829964,0.0814756527543068,0.0797773078083992,0.21809284389019012,0.046095434576272964,-0.1473940908908844,-0.05739951878786087,0.13266053795814514,0.7487013339996338,-0.17020446062088013,0.08209871500730515,-0.15785306692123413,0.34602224826812744,0.3816942274570465,0.2780493199825287},{-0.1185152530670166,-0.026342147961258888,0.08074935525655746,-0.06672050803899765,-0.04533708095550537,-0.07659149169921875,0.3472599983215332,0.005452396348118782,0.24908417463302612,-0.1489701271057129,-0.01915106177330017,0.10332085192203522,-0.05545017495751381,0.031013859435915947,-0.23014403879642487,-0.11819364875555038,-0.10380739718675613,-0.13497066497802734,0.017685530707240105,-0.004591110162436962,-0.16428105533123016,-0.15755343437194824,-0.13249756395816803,-0.057822346687316895,0.0007580851670354605,-0.1314656287431717,0.23444922268390656,-0.001218684483319521,-0.09712333977222443,-0.13349507749080658,-0.04410561919212341,-0.08063628524541855,0.299806147813797,0.072087362408638,-0.06124139577150345,0.11956176906824112,0.010151109658181667,-0.06337568908929825,-0.08006326854228973,0.13154198229312897,0.018956219777464867,-0.11992073059082031,0.07289104163646698,0.02371968887746334,0.11945807188749313,0.03306609019637108,-0.18203683197498322,0.06361280381679535,-0.14493927359580994,0.006551897618919611,0.05886168032884598,-0.060794804245233536,-0.10373906791210175,0.04408620297908783,-0.2617201507091522,-0.0021285456605255604,0.07696593552827835,0.2100105732679367,0.25689446926116943,0.1360401064157486,0.09466338157653809,-0.07999922335147858,-0.17584575712680817,-0.022797558456659317},{-0.08682671189308167,0.08887393027544022,0.13877682387828827,0.23646819591522217,0.2597824037075043,0.10417169332504272,0.5343248248100281,0.18536394834518433,0.12602967023849487,-0.1336423009634018,0.013344302773475647,0.10756298899650574,0.010365854948759079,0.06376847624778748,-0.03588734567165375,-0.13325822353363037,-0.13088731467723846,-0.14548075199127197,0.11120475828647614,-0.4243758022785187,-0.15171051025390625,0.2281966507434845,0.02279108576476574,0.19717812538146973,-0.059313103556632996,0.390713632106781,0.2439577579498291,0.21990293264389038,-0.07661781460046768,0.17112229764461517,0.009443948976695538,0.20813940465450287,0.20587491989135742,-0.009395095519721508,0.03626839444041252,0.2786392569541931,-0.17299889028072357,-0.059221621602773666,0.05536821857094765,-0.06734570115804672,0.23858194053173065,0.05503912270069122,0.1460583657026291,0.2282049059867859,0.09956104308366776,0.23735778033733368,0.031099781394004822,0.05391258746385574,0.16337381303310394,-0.07941826432943344,-0.07428186386823654,-0.07311802357435226,-0.09178584069013596,0.1463390737771988,0.09282240271568298,-0.32745328545570374,-0.16660408675670624,-0.21957677602767944,0.14828713238239288,0.19824689626693726,0.021922437474131584,-0.005055346991866827,-0.28260576725006104,-0.1601373702287674},{0.23443177342414856,-0.16730979084968567,0.0032678963616490364,-0.09083385020494461,0.10994695127010345,-0.03649260476231575,0.07236741483211517,-0.04747477546334267,0.005355261266231537,0.09340527653694153,0.1688697189092636,-0.10684369504451752,-0.019455991685390472,0.00851492490619421,-0.02056908793747425,0.0856442004442215,0.02218819409608841,0.18212606012821198,0.013410608284175396,-0.05486846715211868,-0.05173347145318985,0.26100775599479675,-0.25895580649375916,-0.13864360749721527,-0.15458400547504425,-0.0527975969016552,-0.068492092192173,-0.10681763291358948,-0.1288476437330246,0.14425142109394073,0.057251546531915665,-0.03273254632949829,0.053256966173648834,0.04548358917236328,-0.13076940178871155,0.05906959995627403,0.10629241168498993,-0.038770727813243866,-0.008504550904035568,-0.28176701068878174,0.11358674615621567,-0.23922397196292877,-0.14869928359985352,-0.215095654129982,0.014770226553082466,-0.01068534143269062,-0.18019774556159973,-0.06920885294675827,-0.06650062650442123,-0.009299347177147865,-0.0010710259666666389,0.14184421300888062,0.03356221318244934,-0.022647812962532043,0.0786375179886818,-0.03222091123461723,0.077447310090065,-0.11975102126598358,-0.0224367193877697,0.04301336407661438,0.06680028885602951,-0.21999341249465942,0.042530570179224014,-0.09774034470319748},{-0.0715949758887291,0.00608659815043211,-0.006138085387647152,0.0023160346318036318,-0.16865360736846924,-0.015529296360909939,0.4506041705608368,0.04882926121354103,0.41812387108802795,-0.014335938729345798,0.08076485246419907,0.0703757032752037,0.026217447593808174,-0.1285240203142166,-0.032261911779642105,0.1537991464138031,-0.1035645455121994,-0.11983563005924225,-0.026352785527706146,-0.28385671973228455,-0.1531829833984375,0.004482570569962263,-0.08274862170219421,-0.03349689021706581,-0.181065171957016,-0.27588820457458496,0.1175524890422821,-0.16702646017074585,-0.10316041111946106,0.08230330795049667,0.02540590614080429,-0.05284726247191429,0.22777019441127777,-0.14832204580307007,-0.06934476643800735,0.29000818729400635,0.09380067884922028,0.1314336061477661,-0.10125460475683212,0.001771755749359727,-0.014760767109692097,0.009466723538935184,-0.09166914224624634,-0.008902974426746368,0.03215227648615837,0.12353397160768509,-0.1964394897222519,0.025872714817523956,-0.0707029402256012,0.1534818708896637,0.09715966135263443,0.03849115967750549,0.0002902834676206112,0.07816099375486374,0.2054169476032257,-0.0784049928188324,0.1197786033153534,-0.1212460994720459,0.1142476350069046,-0.09845627099275589,0.11413442343473434,0.0063398308120667934,-0.18210001289844513,-0.022544002160429955},{0.1171608567237854,0.040906719863414764,-0.15131305158138275,-0.06397005915641785,-0.43256133794784546,-0.0055357906967401505,-0.6116456985473633,0.055103614926338196,-0.15955300629138947,0.15910489857196808,0.23382724821567535,-0.10955318808555603,-0.14430354535579681,0.042354218661785126,0.06470226496458054,-0.06418072432279587,0.14619266986846924,0.33362647891044617,-0.0710233598947525,0.4893394708633423,0.3290412425994873,-0.3215291500091553,0.010664339177310467,-0.1351214498281479,-0.019313419237732887,-0.21181975305080414,-0.3101039528846741,-0.12178638577461243,-0.10017329454421997,-0.04900559410452843,-0.07054639607667923,-0.1988144963979721,-0.49420246481895447,-0.049534671008586884,0.06582581996917725,-0.19058895111083984,0.09313255548477173,-0.02897013910114765,-0.0951695367693901,0.43145689368247986,-0.32027244567871094,-0.04605573043227196,-0.2135142683982849,-0.5264570116996765,-0.18196745216846466,-0.446532666683197,0.17761105298995972,0.058739569038152695,-0.1117805615067482,-0.07582491636276245,0.23628701269626617,0.1877867430448532,-0.007418707013130188,-0.07625479251146317,-0.19390904903411865,0.40794000029563904,0.13953465223312378,0.29471856355667114,0.06317808479070663,0.10735097527503967,-0.12258089333772659,-0.21036094427108765,0.40676966309547424,0.3649037778377533},{-0.09845692664384842,0.028540901839733124,0.2394435554742813,0.09827770292758942,0.30725863575935364,0.023420291021466255,0.31846266984939575,-0.059887755662202835,0.13041181862354279,-0.23014487326145172,0.12926536798477173,-0.02664639987051487,0.33342409133911133,0.08896567672491074,0.06978191435337067,0.1656641960144043,-0.089680977165699,-0.18775607645511627,0.11249066144227982,-0.6162713766098022,-0.15925732254981995,0.43760809302330017,0.21422846615314484,0.20493535697460175,-0.02178245037794113,0.3230196535587311,-0.01768290065228939,-0.04924226179718971,0.001129099284298718,-0.002912524389103055,0.0288504920899868,0.11444385349750519,-0.04641791433095932,0.10962436348199844,0.1267063319683075,0.2137671411037445,-0.0989050418138504,0.20668990910053253,-0.019320201128721237,-0.3261401951313019,0.5575758218765259,-0.07408216595649719,0.2168344259262085,0.13668641448020935,0.10334925353527069,0.5357025861740112,-0.19174334406852722,-0.015231418423354626,0.0757097601890564,0.05591299384832382,-0.4021669626235962,-0.004338097292929888,-0.2357485294342041,-0.0700395256280899,0.2554505467414856,-0.4792698919773102,-0.18853120505809784,-1.0112061500549316,-0.02947589010000229,-0.16560177505016327,0.11456207931041718,0.2338869422674179,-0.4973582923412323,-0.6587206721305847},{0.23715509474277496,0.018579619005322456,-0.07565391063690186,-0.13921219110488892,-0.1782701164484024,-0.14343902468681335,0.016214266419410706,0.18118754029273987,-0.1917513906955719,-0.2547188699245453,0.780509889125824,-0.07238645106554031,0.09920357167720795,-0.20923835039138794,-0.13726076483726501,-0.18635517358779907,0.0012571585830301046,0.20685584843158722,0.17396041750907898,-0.35339319705963135,0.07426969707012177,-0.4579458236694336,-0.2329138219356537,-0.14141567051410675,0.10911829769611359,-0.31220853328704834,-0.011925891041755676,-0.02243131771683693,-0.19257037341594696,-0.36011984944343567,0.011127379722893238,-0.15374480187892914,-0.09265651553869247,-0.6598562002182007,0.2968996465206146,0.306476891040802,0.22905081510543823,-0.40878060460090637,0.41393792629241943,0.16729851067066193,0.3329848349094391,0.16819040477275848,-0.036557476967573166,0.9712711572647095,-0.10388390719890594,-0.006683314219117165,-0.7056082487106323,0.06028039753437042,-0.550006091594696,0.07821810990571976,0.10472338646650314,0.06323326379060745,-1.0142515897750854,0.1523522585630417,-0.41721874475479126,0.4748954176902771,0.21749044954776764,0.08262721449136734,0.6144580841064453,0.06656748056411743,-0.33213406801223755,-0.27894124388694763,0.15514680743217468,-0.11501079797744751},{0.007678174413740635,-0.06298426538705826,-0.08805577456951141,-0.22221972048282623,-0.1240280419588089,0.02613189071416855,0.21137462556362152,0.1161784753203392,0.23227761685848236,-0.09205162525177002,0.27347806096076965,-0.11289265006780624,0.020432742312550545,-0.20546402037143707,0.1359998732805252,0.1432783156633377,-0.009047719649970531,0.09218990057706833,-0.008510567247867584,-0.29682686924934387,-0.14234913885593414,-0.1943391114473343,-0.11598894745111465,0.07877319306135178,0.10857722163200378,0.10917527973651886,-0.0702086091041565,-0.08005575835704803,-0.08501392602920532,-0.07914551347494125,-0.12012951076030731,0.08510982245206833,-0.0008787604747340083,-0.21587881445884705,-0.04832440987229347,0.2627999484539032,-0.09064671397209167,-0.10893525928258896,-0.12981529533863068,0.3240547180175781,0.05335647985339165,-0.12657636404037476,-0.11040423810482025,0.09300807863473892,-0.08979206532239914,0.04244896024465561,-0.37692880630493164,0.0406683124601841,-0.4142766296863556,-0.15570589900016785,0.16143016517162323,0.15356874465942383,-0.2384413480758667,0.015957310795783997,0.08184178918600082,-0.1846664994955063,0.02568894810974598,-0.04666280746459961,0.21744826436042786,-0.21320003271102905,-0.043380264192819595,-0.0005017251241952181,-0.007245364598929882,0.06218711659312248},{-0.2760651707649231,0.11093214899301529,0.09265349060297012,-0.18318837881088257,-0.13697384297847748,-0.0846724659204483,-0.3281158208847046,-0.10442281514406204,0.237753227353096,-0.03499574214220047,-0.05347634479403496,0.1333734393119812,-0.09048087894916534,0.06741827726364136,0.25978443026542664,0.12746381759643555,0.15118823945522308,0.008080998435616493,0.003118244931101799,0.04640538990497589,0.2320937067270279,0.024099038913846016,0.2339470237493515,-0.07782472670078278,0.0010067201219499111,-0.09912563115358353,0.030697161331772804,-0.160769522190094,0.12635082006454468,0.04081980511546135,0.020313719287514687,0.05327900871634483,-0.17646165192127228,0.18459786474704742,-0.26387524604797363,-0.15733006596565247,0.03770098090171814,-0.029237935319542885,-0.24619556963443756,-0.1403988003730774,-0.1021377444267273,-0.022145329043269157,-0.042570460587739944,-0.07932509481906891,0.07769110798835754,-0.20911966264247894,-0.050924208015203476,0.015573945827782154,0.3543887734413147,0.1959163248538971,-0.13457173109054565,-0.13899603486061096,0.3317699730396271,-0.007770956959575415,-0.1324308216571808,0.04884111508727074,-0.1495487093925476,-0.07301031053066254,-0.06636977940797806,-0.22440657019615173,0.0908205583691597,0.06412865966558456,0.0031228733714669943,0.2122763842344284},{-0.05404689535498619,0.08724547177553177,0.06550809741020203,0.0854557454586029,0.1522618532180786,-0.19887013733386993,0.04951172322034836,-0.1390646994113922,-0.013915776275098324,-0.08263680338859558,-0.09387809038162231,-0.11068741977214813,0.15496957302093506,0.07510082423686981,-0.21810410916805267,0.0443689227104187,0.0975787341594696,-0.0945083424448967,-0.14534993469715118,0.018131403252482414,-0.10596557706594467,-0.08311525732278824,-0.30974820256233215,0.10829996317625046,0.10741856694221497,0.14619003236293793,0.09850679337978363,0.01128678023815155,-0.11259347200393677,-0.16459320485591888,0.0811646580696106,0.009106190875172615,0.28402242064476013,-0.025997182354331017,0.15557236969470978,-0.05338263139128685,0.0933607742190361,0.08615220338106155,0.052378229796886444,-0.09312734007835388,0.0339730866253376,0.09806567430496216,0.026007914915680885,0.202040895819664,-0.030372677370905876,-0.007844265550374985,-0.019004808738827705,0.049013204872608185,-0.1517210602760315,-0.08124629408121109,0.08985836803913116,-0.014591590501368046,0.06743784248828888,0.1437949240207672,0.0044606574811041355,-0.21892224252223969,0.04403499513864517,0.07001212239265442,-0.005818847566843033,-0.11977339535951614,-0.03702801465988159,-0.21036753058433533,0.06611932069063187,0.07858444005250931},{0.09460840374231339,-0.03824809566140175,0.048631452023983,-0.03692851960659027,-0.07092246413230896,-0.01903250813484192,0.08702907711267471,-0.06301819533109665,0.04131612181663513,0.01404960174113512,-0.17799785733222961,-0.00716328714042902,0.08703306317329407,-0.018354250118136406,-0.10614293813705444,0.04322716221213341,0.01116446778178215,-0.08368434011936188,0.08820244669914246,-0.09319194406270981,-0.05884525179862976,0.03252871707081795,-0.031076855957508087,-0.05341099202632904,0.019711630418896675,-0.029423030093312263,-0.08449086546897888,-0.07418899238109589,0.023527786135673523,-0.00353665417060256,0.03404787555336952,-0.1056329607963562,0.1325807124376297,-0.04035155475139618,-0.002477355068549514,0.0013257286045700312,-0.04157891497015953,-0.06587949395179749,0.009283896535634995,-0.2014419585466385,0.10934445261955261,0.13725361227989197,0.08192761987447739,0.030798332765698433,0.10013365745544434,-0.03629479557275772,-0.004646494518965483,-0.07936277985572815,0.14164213836193085,0.015150554478168488,0.04598556458950043,0.00750595610588789,0.20038168132305145,-0.14197620749473572,-0.21503010392189026,-0.07700976729393005,0.06312958151102066,0.11665325611829758,0.14840957522392273,0.08059754222631454,-0.037396758794784546,0.04595912620425224,0.06743476539850235,0.013087509199976921},{-0.424060195684433,0.10660335421562195,0.19003871083259583,-0.16823188960552216,-0.15494388341903687,0.09617391973733902,0.2156916856765747,-0.26145339012145996,-0.02247876673936844,-0.4981974959373474,0.3863637447357178,-0.0591670386493206,-0.028231125324964523,-0.10823497176170349,0.3459501564502716,0.25787031650543213,0.0690322145819664,0.18943354487419128,0.19596144556999207,-0.13433757424354553,0.034970756620168686,-0.1486973911523819,0.1492588371038437,0.010086695663630962,0.13735763728618622,-0.15191999077796936,-0.30681318044662476,-0.028765752911567688,0.03178141266107559,-0.42154166102409363,-0.038749147206544876,0.044253911823034286,-0.04782795533537865,-0.20242314040660858,-0.025969387963414192,0.24789801239967346,-0.0011953844223171473,0.05013563483953476,-0.04623150825500488,-0.08685462176799774,0.4393461346626282,0.09133283793926239,0.0004002520872745663,0.3315774202346802,-0.09831341356039047,-0.16356725990772247,-0.5106672644615173,-0.02820778638124466,-0.0738295391201973,0.2044498175382614,-0.21697568893432617,0.12220796197652817,0.07370088994503021,-0.07371872663497925,-0.10936758667230606,0.11208728700876236,0.14233022928237915,-0.27444204688072205,0.26853010058403015,-0.12141703814268112,-0.2078358381986618,-0.31695789098739624,-0.12165723741054535,-0.1521102488040924},{-0.12361268699169159,0.0034235825296491385,-0.11407839506864548,-0.061816323548555374,0.018176401033997536,0.04483940079808235,-0.10235322266817093,0.21807432174682617,0.14023326337337494,-0.06826595216989517,0.09064815938472748,-0.12201061844825745,-0.01685038022696972,0.04019150882959366,0.07762933522462845,-0.08723939955234528,-0.02113896608352661,-0.07231777906417847,-0.18677428364753723,-0.05665002018213272,-0.014022906310856342,-0.12549355626106262,-0.0035762074403464794,0.011441030539572239,0.0671570748090744,0.15204104781150818,0.007824517786502838,0.011490638367831707,0.05167872831225395,-0.12617892026901245,0.08232396095991135,-0.15685038268566132,-0.07759014517068863,-0.15984947979450226,-0.16265277564525604,-0.2644403278827667,-0.11978809535503387,-0.08842559158802032,-0.19344168901443481,0.19001023471355438,-0.16597799956798553,0.04685476794838905,-0.020104723051190376,0.054578155279159546,-0.10728611052036285,-0.0773358941078186,-0.02855229564011097,0.01981208100914955,0.04043463617563248,-0.04715580865740776,-0.05548419803380966,0.010183574631810188,0.09975021332502365,0.0972134917974472,0.2818129360675812,-0.06427811831235886,-0.11909529566764832,0.012278733775019646,-0.12098206579685211,-0.017268899828195572,-0.16525594890117645,-0.067221999168396,0.02666790783405304,0.16310232877731323},{-0.25361502170562744,0.02559572085738182,0.13973213732242584,-0.10347452014684677,0.3577435314655304,0.10696703940629959,0.36330902576446533,-0.06819306313991547,-0.22361133992671967,-0.236385777592659,0.15034185349941254,-0.05559200420975685,0.08795151859521866,-0.12396806478500366,0.006498341914266348,0.07814301550388336,0.08469731360673904,0.23520061373710632,0.30947741866111755,-0.2554914951324463,-0.07651124149560928,0.09093595296144485,-0.11516085267066956,0.16293063759803772,0.08941700309515,0.1640707552433014,0.10009461641311646,0.1533488631248474,-0.06556491553783417,-0.17386910319328308,-0.13001783192157745,0.15683488547801971,0.15780863165855408,-0.17403793334960938,0.2631450593471527,0.332128643989563,-0.17941953241825104,0.05132515728473663,0.3034120202064514,-0.25666502118110657,0.5064435601234436,-0.0032539861276745796,-0.06470970064401627,0.6168944835662842,0.17716579139232635,0.25213873386383057,-0.16294176876544952,0.10846424102783203,-0.20251454412937164,-0.03527509793639183,-0.1766793429851532,-0.05344736948609352,-0.38858479261398315,0.10133925825357437,-0.29320403933525085,-0.3086985945701599,-0.10179933905601501,-0.09769721329212189,0.3138238489627838,0.04791278392076492,0.036362141370773315,-0.15287639200687408,-0.2301846742630005,-0.35236498713493347},{0.06273195147514343,-0.05429022014141083,-0.007055396679788828,-0.24647332727909088,-0.0706019252538681,-0.13163737952709198,-0.6810553073883057,-0.2335706353187561,-0.35855838656425476,0.02546979859471321,-0.23169703781604767,-0.10184450447559357,-0.2715604901313782,-0.010502263903617859,0.24254342913627625,0.00125877873506397,0.07970548421144485,0.04193050414323807,-0.09066823124885559,0.7937520146369934,0.025067748501896858,0.09197951853275299,0.1422806978225708,-0.07688982784748077,0.05244264751672745,-0.21532273292541504,-0.25836241245269775,-0.08977469801902771,0.05540188029408455,-0.24296525120735168,0.0002233103587059304,-0.14339852333068848,-0.33750277757644653,0.38889509439468384,0.006507578305900097,-0.553831160068512,0.24414272606372833,0.022452684119343758,0.01867423951625824,-0.2866348624229431,-0.29135388135910034,-0.0036779711954295635,0.05005403980612755,-0.3421637713909149,-0.2216944396495819,-0.5732154250144958,0.02669297344982624,-0.2234632819890976,0.20358450710773468,0.2996957302093506,0.05295565351843834,0.12267640978097916,0.36478903889656067,-0.12880736589431763,-0.277157187461853,0.3247917592525482,-0.03946079686284065,0.18461190164089203,-0.26963141560554504,-0.16020898520946503,-0.15628524124622345,-0.2188776135444641,0.346905916929245,0.2747761309146881},{-0.29682791233062744,0.024074360728263855,-0.1435217708349228,-0.07213231176137924,-0.09508588910102844,0.16830702126026154,-0.12084376811981201,-0.08383212983608246,-0.5526163578033447,-0.024607796221971512,-0.3472254276275635,0.052309099584817886,0.042043961584568024,0.057546019554138184,0.05852436274290085,-0.08799059689044952,0.06725592166185379,0.013947633095085621,0.16044975817203522,-0.19231897592544556,0.2866109013557434,-0.13824214041233063,-0.16006147861480713,-0.08170777559280396,0.3023868799209595,0.6568794250488281,-0.052085861563682556,0.241881862282753,0.07434028387069702,-0.11841559410095215,-0.0186961330473423,-0.11549162119626999,0.28913307189941406,-0.17003323137760162,0.15837913751602173,-0.037728436291217804,-0.01564060151576996,-0.14766712486743927,0.3838587999343872,-0.11231237649917603,0.5370856523513794,0.5490500330924988,-0.038334354758262634,0.6458166837692261,0.16628549993038177,0.09326715767383575,0.6195898056030273,-0.11493116617202759,0.11352571099996567,-0.28901082277297974,0.10979163646697998,-0.180079385638237,0.032939814031124115,0.02818393148481846,0.09039676189422607,-0.19854311645030975,0.02684551477432251,-0.4557109773159027,0.13781337440013885,-0.12656307220458984,-0.09033572673797607,0.2799839973449707,0.10681264847517014,0.3724142909049988},{0.10507577657699585,-0.038627758622169495,0.11310908943414688,0.019831744953989983,0.08434587717056274,0.021422170102596283,-0.1341768354177475,-0.0760100707411766,-0.20120571553707123,0.07938561588525772,0.10277552157640457,0.08295372873544693,-0.09077466279268265,-0.0012437526602298021,0.08367215096950531,-0.009140954352915287,-0.057087577879428864,-0.015037489123642445,0.19910848140716553,-0.0660569965839386,0.26682209968566895,-0.05941861867904663,-0.025681134313344955,0.11239121854305267,-0.1097164899110794,0.06281709671020508,-0.12205249071121216,0.05305932089686394,0.1132224053144455,0.09987235069274902,0.11043423414230347,-0.03585093840956688,-0.03729589283466339,-0.11454237252473831,0.04663221910595894,0.23527666926383972,-0.07867556810379028,-0.002918028272688389,0.14913088083267212,-0.07423565536737442,0.20467913150787354,0.03580485284328461,-0.10672927647829056,0.04202009364962578,0.05595281720161438,0.04983976110816002,0.134023517370224,-0.029136354103684425,-0.0667719915509224,-0.06948558241128922,0.007110904902219772,-0.025757623836398125,-0.18364264070987701,0.0637112408876419,0.14636801183223724,-0.014924596063792706,-0.1315118372440338,-0.22011211514472961,-0.07906343787908554,-0.07851675152778625,-0.009442359209060669,0.06383015960454941,0.005898197181522846,-0.04946925491094589},{-0.21268996596336365,0.11297652125358582,0.17610938847064972,0.042371634393930435,0.12929727137088776,0.22198186814785004,0.25020942091941833,0.040785640478134155,0.28704649209976196,-0.11020711809396744,0.031547315418720245,0.15260528028011322,0.1288026124238968,-0.09671343863010406,-0.15981285274028778,-0.06018479913473129,-0.1568145751953125,0.050989169627428055,-0.0015298170037567616,-0.029866885393857956,-0.025933314114809036,-0.06729871779680252,0.26063108444213867,0.22093364596366882,-0.02714347280561924,-0.16853217780590057,0.04130254685878754,0.1286369413137436,-0.09106860309839249,-0.07288046926259995,-0.13212914764881134,0.17662785947322845,-0.04510829597711563,0.08321134746074677,-0.03614767640829086,0.21463333070278168,-0.026115434244275093,0.040989167988300323,0.009362742304801941,0.15871331095695496,-0.018671168014407158,0.12805700302124023,-0.014274278655648232,-0.040726546198129654,-0.10779782384634018,0.19067546725273132,-0.020925577729940414,0.003581893164664507,0.16003917157649994,0.16990196704864502,-0.013548195362091064,-0.10746043920516968,0.13285084068775177,0.03622584044933319,-0.06368673592805862,0.02352546900510788,-0.07739382982254028,0.05041186884045601,0.20211246609687805,0.0558398962020874,0.10067299008369446,0.08126209676265717,-0.29274168610572815,-0.1197647675871849},{-0.04994187876582146,-0.010918410494923592,0.11480914801359177,-0.05046899616718292,0.0006250663427636027,0.02307387813925743,-0.20367087423801422,-0.11888374388217926,-0.06231933459639549,0.021419698372483253,0.08843051642179489,-0.050008244812488556,0.004594204481691122,0.025904124602675438,-0.08435991406440735,0.0019218233646824956,0.11246860027313232,0.020237725228071213,0.0568014457821846,-0.09314846247434616,0.05315092206001282,0.12153971940279007,-0.0030479407869279385,0.06902236491441727,-0.12103787064552307,0.31801536679267883,0.02332114614546299,0.10959014296531677,-0.026852408424019814,-0.007182887755334377,0.008789506740868092,0.06759201735258102,0.14562812447547913,-0.02008691057562828,0.07819106429815292,-0.6139271855354309,0.0463927760720253,-0.16212767362594604,0.07059650868177414,-0.0947275161743164,-0.007361243478953838,0.10441543906927109,0.026685083284974098,0.09604829549789429,0.14102280139923096,-0.07147630304098129,0.03967861831188202,-0.11453350633382797,-0.030991369858384132,-0.0013322759186848998,0.0006595822051167488,-0.12704090774059296,-0.09233637154102325,0.010580521076917648,0.45514610409736633,-0.10046302527189255,-0.03231402859091759,-0.23321467638015747,-0.2516055405139923,-0.0697125643491745,0.1387971043586731,-0.0307705570012331,-0.07885345816612244,-0.07019423693418503},{-0.3254513740539551,0.14830321073532104,0.02508379891514778,0.05615681782364845,-0.04029092192649841,0.152739018201828,0.14206020534038544,-0.1684672087430954,0.28434833884239197,-0.1605163812637329,0.09497563540935516,0.006416341755539179,0.09669170528650284,0.004096927586942911,0.07301344722509384,0.1949714720249176,-0.03193702921271324,0.1864663064479828,-0.03850330039858818,0.1525726169347763,0.021363288164138794,-0.09595608711242676,0.08989454060792923,0.17099973559379578,-0.022168373689055443,-0.37300726771354675,-0.018186673521995544,-0.11524883657693863,0.020898763090372086,0.06936407089233398,-0.13090446591377258,0.06286180764436722,-0.10107570141553879,0.2776382565498352,-0.060221005231142044,0.062181588262319565,-0.01604364812374115,0.07638579607009888,-0.07792854309082031,-0.06346624344587326,0.05183396115899086,-0.17895938456058502,0.052055664360523224,-0.01027221605181694,-0.05101193115115166,0.004527359735220671,-0.11532299965620041,0.12337017059326172,-0.042049627751111984,0.14296245574951172,0.03873911499977112,0.04605394974350929,0.21056100726127625,0.09729114174842834,-0.0756952241063118,0.13954642415046692,0.0313495397567749,0.03318316861987114,0.27296313643455505,0.010729998350143433,-0.14221075177192688,-0.08984185755252838,-0.1506684124469757,0.19438254833221436},{0.17323553562164307,-0.03971711918711662,0.024571120738983154,-0.0002283029753016308,0.0019950612913817167,-0.0005564899183809757,-0.020187105983495712,-0.11930279433727264,0.10416164249181747,0.1314416080713272,-0.09719976782798767,0.029377644881606102,-0.1221977025270462,-0.05221112444996834,0.035573650151491165,-0.0810261219739914,0.07752028107643127,0.041422370821237564,0.08921891450881958,0.04029105603694916,-0.08334879577159882,-0.03659483417868614,0.06789141893386841,0.004845574032515287,0.06039372459053993,-0.1574159860610962,0.01963891088962555,-0.011073094792664051,-0.02767116390168667,0.013850335031747818,0.019526096060872078,-0.021561114117503166,0.0015781736001372337,-0.1777375340461731,0.043657686561346054,0.13887977600097656,0.1110277846455574,0.12259847670793533,-0.08668332546949387,-0.0824064165353775,-0.06212172284722328,-0.03272612765431404,0.03589155152440071,-0.012277210131287575,-0.0945337638258934,-0.08363865315914154,0.11950387805700302,0.000551707751583308,-0.027651682496070862,0.1567232310771942,-0.058064524084329605,0.0035804782528430223,-0.029259106144309044,-0.041580840945243835,-0.16386783123016357,0.10971765965223312,0.04169602319598198,0.20828600227832794,0.10997918993234634,0.09721888601779938,0.0869377851486206,-0.03225354105234146,0.1286790817975998,-0.05316236987709999}};
