#include "network_evaluate.h"

static const int structure [4][2] = {{10, 64},{64, 64},{64, 64},{64, 2}};
static float output_0[64];
static float output_1[64];
static float output_2[64];
static float output_3[2];
static const float pi_1_weight[10][64] = {{0.05132191255688667,-0.3939574360847473,0.3668433725833893,-0.16950054466724396,0.3647071421146393,0.2007763832807541,0.17263619601726532,-0.5428570508956909,-1.0568662881851196,-0.009064041078090668,0.01083420217037201,-0.09351672232151031,-0.38809216022491455,0.09310708194971085,0.56487637758255,-0.6930146217346191,-0.11628201603889465,0.3372855484485626,0.1197599545121193,0.3510986566543579,0.18348504602909088,-0.009869862347841263,-0.17791637778282166,0.1213599368929863,0.3088785409927368,-0.5364056825637817,-0.11062704026699066,-0.3810731768608093,0.2136417031288147,-0.36773601174354553,-0.0896560549736023,-0.1423385888338089,0.04633752256631851,-0.3839554786682129,0.028133710846304893,-0.3616494834423065,-0.2507610023021698,-0.22760632634162903,0.5783554315567017,0.4225914776325226,0.6799381971359253,-0.24673227965831757,0.16929860413074493,-0.2346011847257614,-0.3856291174888611,0.6852927803993225,-0.34011271595954895,0.3715461492538452,-0.3392036557197571,-0.2432696521282196,-0.35826024413108826,0.12155655026435852,0.022050997242331505,0.03754398226737976,-0.3252860903739929,-0.16964533925056458,-0.6295433044433594,0.45631808042526245,-0.1389494091272354,-0.14781343936920166,-0.6561347246170044,-0.13931533694267273,-0.5203070640563965,0.24179700016975403},{1.5308411121368408,0.5452632308006287,-0.004089400637894869,1.819528341293335,-1.2288490533828735,0.5744128823280334,-0.029581032693386078,-0.6901547312736511,0.23890703916549683,0.3058009147644043,-1.10378897190094,0.1623244434595108,-0.16399933397769928,0.3056248426437378,0.13775856792926788,-1.4231349229812622,0.30233168601989746,-0.5834348201751709,-0.2922934889793396,0.687201976776123,0.6287168264389038,-0.019295502454042435,0.38097408413887024,0.06479527056217194,1.3469150066375732,0.9442791938781738,1.7317664623260498,0.6509724259376526,-0.14148949086666107,0.06899375468492508,-0.16642914712429047,-0.7652252316474915,1.0908995866775513,-1.6211745738983154,-0.2150842696428299,0.5050212144851685,-1.0368082523345947,1.3142918348312378,1.2797200679779053,1.4484957456588745,-0.07924812287092209,-0.9250416159629822,-1.1680593490600586,0.3888869285583496,-0.06489356607198715,-0.49238988757133484,-0.13296420872211456,-0.27090609073638916,-0.9222821593284607,-0.35727906227111816,1.5859367847442627,1.2915836572647095,-0.14235246181488037,0.5522200465202332,0.1745903491973877,-0.9423827528953552,-0.31669244170188904,0.636717677116394,0.5561389923095703,-0.5321243405342102,-0.42711615562438965,-1.363684058189392,0.9522396922111511,0.5260794758796692},{-0.4357919692993164,-0.3710213005542755,0.07396867126226425,-0.2500035762786865,-0.23842135071754456,0.20911505818367004,-0.2634427547454834,0.23585908114910126,0.17833471298217773,0.28079548478126526,-0.003764661028981209,-0.10098639130592346,-0.7135891318321228,-0.22586597502231598,0.2735927104949951,0.020017603412270546,-0.2989485561847687,0.34282103180885315,0.2272471785545349,-0.2414930909872055,-0.3026053011417389,0.08040819317102432,0.1324075162410736,0.022098738700151443,-0.08882386237382889,0.07194481790065765,0.17407438158988953,-0.36291834712028503,-0.36768585443496704,0.07812386751174927,-0.21114662289619446,0.08792302012443542,-0.4014381170272827,0.21282945573329926,0.34286603331565857,0.056378625333309174,-0.2517533600330353,-0.23898936808109283,0.24964658915996552,-0.48351365327835083,-0.08109505474567413,0.3143004775047302,0.15980888903141022,0.3123929798603058,-0.04815579950809479,0.37423378229141235,0.08112465590238571,0.2384871244430542,-0.4174862205982208,0.19771617650985718,0.280795693397522,-0.2103385478258133,0.24857789278030396,-0.2571765184402466,-0.06942220032215118,0.297208696603775,-0.09192424267530441,-0.11972114443778992,-0.3515942692756653,-0.35071828961372375,-0.2306220978498459,0.34630095958709717,0.02518009953200817,0.16262328624725342},{-0.2635639011859894,-0.30551645159721375,0.38816675543785095,-0.16884903609752655,-0.41501110792160034,0.13515311479568481,0.03496541827917099,0.32483822107315063,-0.3507100045681,0.1314496099948883,-0.10452758520841599,0.3965003788471222,-0.860618531703949,0.02483447827398777,0.012249122373759747,0.17397180199623108,-0.29549333453178406,0.13560718297958374,0.09531179070472717,0.012638724409043789,-0.21547852456569672,-0.05718650296330452,-0.022659188136458397,0.28949567675590515,0.1405760794878006,-0.29773542284965515,0.2739856541156769,-0.008578257635235786,0.2579922378063202,-0.06328167766332626,0.05432241037487984,-0.17394539713859558,0.005150182638317347,0.06954780220985413,0.1550069898366928,0.18197573721408844,0.2024613916873932,-0.1922900527715683,0.4132467210292816,-0.28784751892089844,0.341170996427536,0.007979325018823147,0.20201748609542847,0.025036342442035675,0.22580280900001526,0.16947175562381744,-0.25731661915779114,0.004144295118749142,-0.024280866608023643,-0.26354315876960754,0.2609696686267853,-0.13016219437122345,-0.2652706503868103,-0.2949551045894623,-0.1810007095336914,-0.2420085072517395,0.13607287406921387,-0.07236650586128235,0.0259358212351799,0.21059805154800415,0.28708118200302124,-0.11733639985322952,-0.3119318187236786,0.11579649150371552},{-0.13932807743549347,-0.09279581159353256,-0.02383924275636673,-0.24597154557704926,-0.3011492192745209,0.24769505858421326,0.1605866402387619,0.3694044053554535,0.01716024801135063,-0.32338303327560425,-0.46001407504081726,0.14244773983955383,-1.2214206457138062,0.25026965141296387,-0.3391342759132385,0.13267947733402252,-0.04833073168992996,-0.3401048183441162,0.14782467484474182,-0.2710728645324707,-0.2367805689573288,-0.007144314236938953,-0.3101543188095093,0.2303834706544876,0.25362110137939453,-0.3772362172603607,0.223556250333786,-0.2292577624320984,0.11188188195228577,-0.0824861153960228,0.019237423315644264,0.0808248221874237,0.24863485991954803,-0.3493236303329468,-0.2604905664920807,0.14777208864688873,0.18616798520088196,-0.28696486353874207,0.2033035308122635,-0.22773228585720062,0.16320626437664032,-0.3415147066116333,0.11115583032369614,-0.19463355839252472,-0.26770859956741333,-0.21036545932292938,0.12079785764217377,0.043059732764959335,-0.0004846452211495489,0.20175236463546753,0.3531150817871094,0.08372501283884048,-0.40683209896087646,-0.22141461074352264,0.06627578288316727,-0.012335827574133873,-0.19224481284618378,0.001685728901065886,-0.023826222866773605,0.007796830032020807,-0.1722896546125412,0.10711465030908585,-0.07689696550369263,0.16450956463813782},{0.022404184564948082,-0.05578101426362991,0.10512953996658325,-0.33329206705093384,-0.1476435661315918,-0.15593063831329346,-0.04335971921682358,0.35516706109046936,-0.0634484812617302,-0.19717857241630554,-0.18930429220199585,-0.38232719898223877,-1.915724754333496,0.012988056056201458,-0.09148996323347092,-0.31219732761383057,-0.014159995131194592,0.2942003309726715,0.09874136745929718,-0.21100151538848877,0.16424092650413513,0.062191177159547806,0.10362207889556885,-0.2377365529537201,-0.27532753348350525,-0.20618776977062225,-0.06167612597346306,-0.27237468957901,0.34285980463027954,-0.2347291111946106,-0.23446878790855408,0.21534739434719086,0.36462077498435974,0.07084720581769943,0.20020505785942078,0.09184732288122177,0.3549211025238037,-0.11164237558841705,0.49034690856933594,0.20390288531780243,-0.2038487195968628,-0.19798654317855835,-0.3669360280036926,-0.13119050860404968,0.31721585988998413,0.2506375312805176,0.18665096163749695,-0.3681189715862274,0.279773473739624,-0.17764070630073547,-0.1257641762495041,0.12753906846046448,-0.2997957170009613,0.011035560630261898,0.2182508260011673,-0.07049356400966644,0.24550506472587585,0.35739365220069885,-0.20157870650291443,-0.020211268216371536,-0.14590494334697723,0.30153897404670715,-0.24852067232131958,-0.05005129426717758},{-0.04348231852054596,0.14839006960391998,0.16164448857307434,-0.16501875221729279,0.19175587594509125,-0.03149403631687164,-0.007729894947260618,0.0982746109366417,-0.06989095360040665,0.17776519060134888,-0.2987598776817322,-0.3615432381629944,-1.8240668773651123,0.04074753075838089,0.18776935338974,0.16541625559329987,-0.1470012664794922,-0.019954901188611984,-0.08914267271757126,-0.20372362434864044,-0.1737799495458603,-0.2939324378967285,-0.24807730317115784,0.11641062051057816,0.21916992962360382,-0.3477023243904114,-0.025751836597919464,0.21069636940956116,0.02594107948243618,0.2010316401720047,0.040998443961143494,-0.20273269712924957,0.1210823655128479,0.40316182374954224,0.13809889554977417,-0.08619453012943268,0.25623592734336853,0.4795079827308655,0.4072435796260834,0.21350379288196564,0.34201356768608093,-0.17538005113601685,-0.26029297709465027,0.058327674865722656,-0.11256571114063263,0.0335412472486496,0.0667233094573021,-0.500688910484314,0.4810430109500885,-0.3482273519039154,0.12342622876167297,-0.19340947270393372,0.5928433537483215,-0.0791066586971283,-0.26809147000312805,-0.12001419812440872,-0.0003771869232878089,-0.16360965371131897,0.12226174771785736,-0.16596423089504242,0.16611850261688232,0.3321719765663147,0.11209728568792343,-0.1796119213104248},{0.2627997100353241,0.1708211451768875,-0.39795371890068054,0.3276829421520233,0.2370254099369049,-0.30663245916366577,0.05321720987558365,-0.2928031384944916,-0.1169973835349083,0.08510487526655197,-0.28360241651535034,-0.011375371366739273,-0.20856599509716034,-0.04566652327775955,-0.002189930295571685,-0.23581184446811676,0.13146713376045227,-0.14731384813785553,-0.07912237197160721,0.10610809177160263,0.3194911777973175,-0.15128491818904877,-0.05260799080133438,-0.2656898498535156,-0.21911434829235077,0.2052120566368103,0.09878183901309967,-0.285592257976532,0.10886022448539734,-0.2529684603214264,0.13843287527561188,-0.031144320964813232,-0.023061668500304222,0.42164087295532227,0.06823957711458206,0.1583424210548401,-0.3878335654735565,0.39725732803344727,0.22690537571907043,-0.10750453174114227,0.2000780552625656,-0.11939574778079987,-0.2739691734313965,-0.22180981934070587,0.11602783203125,0.1358184516429901,-0.25226885080337524,0.10698025673627853,0.006825365591794252,-0.23087097704410553,0.13564521074295044,0.08298847079277039,0.024193299934267998,-0.18473362922668457,-0.002833453705534339,-0.10627936571836472,-0.027636777609586716,-0.238003209233284,0.12331179529428482,0.3898191750049591,-0.13784225285053253,0.1526644229888916,-0.03178747743368149,-0.2981773912906647},{-0.03614050894975662,-0.30339065194129944,-0.23324358463287354,0.21214993298053741,-0.053974833339452744,-0.2739989161491394,0.17137384414672852,-0.0009600489283911884,0.12048657238483429,-0.23181991279125214,-0.08380365371704102,-0.002270423574373126,0.0940382182598114,0.049429234117269516,-0.1237940788269043,-0.11907020211219788,-0.2861080765724182,0.33674314618110657,-0.2809174358844757,-0.1509392261505127,0.17199251055717468,0.28693869709968567,-0.05451470986008644,-0.20303994417190552,0.05716007947921753,-0.1043771505355835,0.2244846075773239,-0.08518882840871811,-0.060870543122291565,0.10817734897136688,0.11997316777706146,0.10283049941062927,0.06371922791004181,0.32638126611709595,-0.27468183636665344,-0.2890626788139343,-0.31353163719177246,0.3628383278846741,-0.09562309831380844,-0.25732824206352234,-0.14273446798324585,0.0023957642260938883,-0.09762801975011826,0.16684158146381378,-0.002587847178801894,-0.24099989235401154,-0.3035140931606293,-0.18467853963375092,-0.11107413470745087,0.2363639771938324,-0.12050873041152954,0.22320406138896942,0.21656548976898193,-0.08933854103088379,-0.15699253976345062,0.16636158525943756,0.25392240285873413,0.2121577113866806,0.26033276319503784,0.38332316279411316,-0.16074445843696594,0.25436726212501526,-0.3256193697452545,-0.21371404826641083},{7.363523764070123e-05,-0.33508771657943726,-0.1115805134177208,0.20320533215999603,-0.16617035865783691,-0.20205728709697723,0.268775999546051,-0.2017993927001953,-0.23128721117973328,-0.1797039806842804,0.12088912725448608,0.15736964344978333,-0.9622862339019775,0.15650993585586548,-0.31510069966316223,-0.1486625075340271,-0.04364043101668358,-0.301008403301239,0.18554061651229858,0.04682402312755585,0.02869449183344841,-0.26788151264190674,0.004128271248191595,0.06131851300597191,-0.07395534217357635,-0.38387155532836914,-0.00712216179817915,0.004556372761726379,-0.04925568401813507,-0.11967965215444565,-0.0894085243344307,-0.03487173467874527,-0.4620385468006134,0.2386922836303711,0.07947105169296265,0.15873892605304718,-0.14223605394363403,0.3679656386375427,0.20689912140369415,0.0909867212176323,0.19309291243553162,0.32059377431869507,0.27997198700904846,-0.29141828417778015,-0.2968357801437378,-0.06777317076921463,-0.11342566460371017,0.12370956689119339,-0.10958818346261978,0.40276312828063965,0.0736139789223671,-0.10382325947284698,0.15220265090465546,0.017086951062083244,0.351151704788208,-0.021846242249011993,0.2335490733385086,0.2782202661037445,0.2799948751926422,0.4087351858615875,-0.010432286188006401,-0.02971513755619526,-0.13025803864002228,0.154171884059906}};
static const float pi_2_weight[64][64] = {{-0.3093329966068268,-0.09552113711833954,-0.10384637117385864,-0.10354440659284592,-0.031105611473321915,-0.03678293153643608,0.9934753179550171,-0.2323077768087387,-0.011309720575809479,-0.1563422530889511,-0.4148001968860626,0.0014099798863753676,0.15139536559581757,-0.1196475699543953,0.0814957544207573,-0.013661094009876251,-0.0050065843388438225,0.15360435843467712,0.03140678629279137,0.059651244431734085,0.1474878191947937,0.11337386071681976,0.05269037187099457,0.058738332241773605,0.02571163699030876,-0.11151634156703949,0.08186317980289459,-0.03658942133188248,0.07100632786750793,-0.07150980085134506,4.652313873521052e-05,-0.0021054588723927736,0.009576880373060703,0.011964542791247368,-0.10037021338939667,-0.054345887154340744,0.05900454893708229,0.14964509010314941,0.06674978882074356,-0.09932556003332138,0.18367472290992737,-0.1604466587305069,-0.03934909775853157,-0.21062904596328735,0.032482001930475235,-0.3879063129425049,0.06405197083950043,0.1449282467365265,-0.02826014533638954,-0.11247501522302628,-0.08628241717815399,-0.2317458987236023,0.031898729503154755,0.047717370092868805,-0.13769717514514923,0.0017462479881942272,-0.1080411821603775,-0.02406013198196888,0.14116032421588898,0.03068280592560768,-0.1773025095462799,0.17881304025650024,0.024876343086361885,0.21673990786075592},{-0.06852296739816666,-0.05155837535858154,-0.04454474896192551,0.01217656023800373,-0.02236022613942623,-0.17262400686740875,0.7344200611114502,-0.016354642808437347,0.15684105455875397,-0.014833199791610241,-0.12009701132774353,-0.10337480902671814,0.20493298768997192,0.007137709762901068,0.1344156712293625,0.09231678396463394,-0.15049543976783752,-0.007712286897003651,0.07178190350532532,-0.12219567596912384,-0.04766295850276947,-0.00015453537344001234,0.14362694323062897,-0.03181128203868866,-0.10448485612869263,-0.08604974299669266,-0.0037160792853683233,0.042595911771059036,0.0888434574007988,-0.06471703201532364,-0.17024452984333038,-0.03827640041708946,0.04876786470413208,-0.1378503143787384,0.003533892799168825,-0.017395488917827606,-0.02947993203997612,0.08454872667789459,0.015120758675038815,0.004857106599956751,0.062142062932252884,-0.10401073098182678,-0.04585694149136543,-0.0920749232172966,0.10457248985767365,0.025737006217241287,0.052099090069532394,-0.14343631267547607,-0.03967639058828354,-0.1376110166311264,0.057378046214580536,0.12458091974258423,-0.22205136716365814,-0.007156370673328638,0.06890040636062622,0.10643893480300903,0.04556983336806297,-0.05413927882909775,0.10235200822353363,-0.11888304352760315,0.040956977754831314,0.11066203564405441,-0.12169049680233002,0.05881546810269356},{0.2322772890329361,0.0526580885052681,-0.03591489419341087,0.15700048208236694,0.18780261278152466,-0.05754819139838219,-0.07932943850755692,0.17036429047584534,-0.14100822806358337,0.0515420101583004,0.01932128332555294,0.05622217804193497,-0.22758424282073975,0.06924044340848923,0.06281710416078568,-0.05633357912302017,0.06342402845621109,0.05666130408644676,0.06263000518083572,0.061896562576293945,0.03332526609301567,-0.16402705013751984,0.07317987084388733,-0.05012507736682892,-0.10960476845502853,0.12345173209905624,-0.06494830548763275,0.13090741634368896,-0.09486730396747589,0.12222130596637726,0.35099756717681885,0.007990055717527866,-0.1116521954536438,0.26541805267333984,0.10678975284099579,0.06636859476566315,0.2895434498786926,-0.2178947776556015,-0.021996408700942993,-0.1050572469830513,-0.18986549973487854,0.08010821044445038,0.14707104861736298,0.04252802953124046,-0.15052112936973572,-0.021038832142949104,-0.1175905093550682,-0.01793339103460312,0.11834843456745148,-0.0387844443321228,0.09821617603302002,0.06248372420668602,0.15154589712619781,-0.09969267249107361,0.0804128497838974,0.18261146545410156,0.06121278554201126,0.048834796994924545,-0.1733139604330063,-0.03578605502843857,-0.0992790013551712,0.017428038641810417,-0.061314743012189865,-0.2716065049171448},{-0.06564425677061081,-0.05019194260239601,0.08118217438459396,0.0925237163901329,-0.13125373423099518,0.08284245431423187,0.716704785823822,-0.228300541639328,-0.06879677623510361,0.07632296532392502,-0.2776636481285095,-0.006571527104824781,-0.10410014539957047,0.059713613241910934,-0.01647302135825157,0.015211067162454128,0.10555584728717804,0.08524991571903229,0.17137494683265686,0.1126779317855835,-0.10935383290052414,0.02094963751733303,-0.06707613915205002,-0.050631966441869736,-0.1431565135717392,-0.17518126964569092,-0.07814677059650421,0.10702718794345856,0.14607922732830048,-0.09038395434617996,-0.11757677048444748,0.08363658934831619,0.19106297194957733,-0.11144857853651047,0.094230517745018,-0.04213923588395119,0.012490538880228996,0.011231577955186367,0.02046094462275505,-0.10887108743190765,-0.11304806917905807,0.09323794394731522,0.005863916594535112,0.007890474051237106,-0.012279657647013664,-0.27200573682785034,-0.07007984817028046,0.21819819509983063,-0.1313754767179489,0.18553687632083893,-0.07117883116006851,-0.2739580571651459,-0.14375773072242737,0.04628951847553253,-0.25723713636398315,0.1453406661748886,-0.03879864886403084,0.07570517808198929,-0.02238384447991848,-0.013515787199139595,0.018536437302827835,0.1313411146402359,0.06372922658920288,0.11897658556699753},{-0.22494061291217804,0.09209665656089783,-0.17052289843559265,0.07673896849155426,-0.003306044265627861,0.014365646988153458,-0.1920156627893448,-0.08183909207582474,0.050046563148498535,-0.029169419780373573,-0.00125028844922781,0.13983073830604553,-0.18915095925331116,0.14843343198299408,-0.008989201858639717,-0.01530575193464756,0.16969212889671326,0.33703917264938354,-0.15806083381175995,0.1476551741361618,0.0991179347038269,-0.12949229776859283,-0.12567389011383057,0.021277522668242455,-0.07175591588020325,0.12031833827495575,0.05074410140514374,0.023138219490647316,0.11475949734449387,-0.10311361402273178,-0.32113295793533325,-0.0652250200510025,-0.023525310680270195,0.42706987261772156,-0.0017676822608336806,-0.34743279218673706,-0.04880475625395775,0.09043817967176437,0.1635173261165619,-0.1715669184923172,-0.06252192705869675,0.022554414346814156,0.2955204248428345,-0.2612698972225189,-0.18793994188308716,0.030337151139974594,0.38478559255599976,-0.03856433182954788,0.010021965950727463,0.16809296607971191,-0.5008178949356079,-0.17237628996372223,0.4570394456386566,-0.03934847190976143,0.797880232334137,-0.1329822838306427,-0.03922983258962631,0.11128149926662445,-0.1989765167236328,0.04666619002819061,0.014939452521502972,0.05671925097703934,0.22158358991146088,-0.01269884966313839},{0.07369846105575562,0.08945262432098389,0.024181662127375603,0.15559212863445282,0.010968968272209167,0.11075860261917114,0.218418687582016,0.1308174729347229,0.01423395425081253,-0.03423145413398743,0.01576615683734417,0.11287455260753632,-0.1087321937084198,-0.07851332426071167,-0.022235197946429253,0.02351733297109604,0.10409711301326752,0.05507133528590202,0.13699652254581451,0.07283336669206619,0.08689370006322861,-0.0997609868645668,-0.0682036280632019,-0.01271368283778429,0.06736234575510025,0.027620267122983932,-0.029379671439528465,-0.023576408624649048,0.09069573879241943,0.05503197759389877,0.026446813717484474,0.015360075980424881,0.06778009235858917,0.077323779463768,0.1632070690393448,0.01296087633818388,0.14265203475952148,-0.09736932069063187,0.08884385973215103,-0.02555270306766033,-0.0011466912692412734,-0.13062511384487152,0.04666341468691826,0.09988212585449219,0.04181624948978424,-0.019006220623850822,-0.06502554565668106,0.0853448361158371,0.08698559552431107,0.022899741306900978,0.02284553460776806,-0.052916985005140305,0.04599052295088768,-0.07486111670732498,-0.04080581292510033,0.09924236685037613,0.009163553826510906,-0.05012323707342148,-0.09786646068096161,0.05863776430487633,0.022571556270122528,-0.13859404623508453,-0.0007212926284410059,-0.06777437031269073},{0.005518273450434208,0.058820344507694244,-0.12407758831977844,0.05940476059913635,0.12211672961711884,0.12392199039459229,-0.42705392837524414,-0.03698228672146797,-0.08717107027769089,-0.06215142086148262,-0.08000396192073822,0.1166350319981575,0.11671727895736694,0.04600880667567253,0.035717155784368515,0.004979033023118973,0.08465810865163803,0.11393368989229202,0.09697923064231873,0.047257766127586365,-0.05261829495429993,0.06308718025684357,0.07504907995462418,0.06841301172971725,-0.03276261314749718,0.005950240883976221,-0.055876486003398895,-0.03204196318984032,-0.08440028131008148,-0.12617631256580353,0.01334383524954319,0.053424980491399765,-0.10082942247390747,-0.021359087899327278,-0.04412000998854637,-0.04590858891606331,-0.1497730016708374,0.026383986696600914,0.17341376841068268,-0.054974157363176346,-0.036248620599508286,-0.0991567000746727,0.0201620664447546,-0.05456588417291641,-0.06074165552854538,-0.044807057827711105,0.0007639857940375805,-0.08596667647361755,-0.02459261752665043,0.018917175009846687,-0.07957272231578827,0.021355127915740013,0.07235490530729294,0.03755190595984459,-0.07153588533401489,-0.13145719468593597,0.008720893412828445,-0.04120143875479698,-0.005395083222538233,-0.02143144980072975,0.08936222642660141,-0.03637582063674927,0.010214016772806644,0.09751086682081223},{0.05640626698732376,-0.14256776869297028,0.17022165656089783,0.1847718209028244,-0.1189870685338974,-0.09511248022317886,-0.23729515075683594,0.04330146312713623,0.09837263822555542,0.20608928799629211,0.2719005048274994,-0.029162883758544922,0.1333862990140915,0.11719159781932831,0.02059183083474636,0.17248959839344025,-0.022684579715132713,-0.1503414362668991,0.2056940197944641,-0.0726078599691391,-0.20873335003852844,0.1477373093366623,0.02078304998576641,-0.15250758826732635,-0.04018543288111687,0.16889216005802155,0.1306443065404892,-0.0725744441151619,0.027073360979557037,0.14474432170391083,-0.060162484645843506,-0.010323351249098778,0.073423370718956,-0.04825211316347122,0.07192160189151764,0.11247237771749496,0.14934439957141876,-0.0569528229534626,-0.11376442015171051,-0.00896443985402584,-0.06029090657830238,-0.05808747559785843,-0.02547898329794407,-0.12361688911914825,0.25335589051246643,0.2058459371328354,-0.12679564952850342,-0.10793037712574005,0.12112893164157867,-0.03192618861794472,0.2553218603134155,0.13444603979587555,-0.2858912944793701,-0.029891375452280045,0.16946156322956085,-0.08278852701187134,0.09697403013706207,-0.22105218470096588,-0.11276822537183762,-0.08154267072677612,0.04908129945397377,0.07958786934614182,-0.04923591762781143,-0.023783909156918526},{-0.5132662653923035,0.17246267199516296,0.043527308851480484,0.194773331284523,0.1507411003112793,0.01911252550780773,0.000105553976027295,-0.16406139731407166,-0.13543599843978882,-0.06104181706905365,0.13673166930675507,0.1130296066403389,-0.062123727053403854,0.0803108885884285,-0.06814170628786087,-0.13449476659297943,0.06939087808132172,0.06741608679294586,-0.10166124254465103,0.12249733507633209,0.15236207842826843,-0.01714777946472168,-0.00429700780659914,0.003429850796237588,-0.08307511359453201,-0.19283346831798553,-0.07404839992523193,0.03069753758609295,0.01169515959918499,0.077399842441082,-0.47960060834884644,0.2516161799430847,0.01716415025293827,0.5008651614189148,0.16019681096076965,-0.0869772806763649,0.06978444010019302,0.22784185409545898,-0.15312203764915466,-0.09403404593467712,-0.062320392578840256,0.02593701146543026,0.15534459054470062,-0.027566343545913696,-0.14208118617534637,-0.21949520707130432,0.2731391489505768,0.219351127743721,0.1101858988404274,0.06385999172925949,0.4084266126155853,-0.12632891535758972,0.1600605696439743,0.06638575345277786,0.08412954956293106,0.23623397946357727,-0.20107492804527283,0.10758616775274277,0.2621902525424957,0.14114470779895782,-0.011446033604443073,-0.06403151154518127,-0.18200832605361938,0.12033773213624954},{-0.18332630395889282,0.02360566332936287,0.2732187509536743,0.004492105916142464,0.1660713255405426,-0.13279816508293152,0.23711510002613068,-0.060128383338451385,0.12457840144634247,-0.053856078535318375,0.38876622915267944,-0.12633031606674194,-0.07635270059108734,0.07848662883043289,0.020898502320051193,0.05646185204386711,-0.07211380451917648,-0.021040985360741615,-0.065584197640419,0.020812666043639183,-0.11434339731931686,-0.12876521050930023,0.1191466748714447,0.13490700721740723,-0.057384610176086426,-0.04140295833349228,-0.17240436375141144,0.05268425494432449,-0.07842335104942322,-0.11797836422920227,0.09872910380363464,-0.0594177208840847,-0.05052029341459274,-0.08633936196565628,-0.11051572114229202,-0.08561675995588303,0.04428838565945625,0.06664156168699265,-0.13998866081237793,0.08565688878297806,-0.10992266982793808,-0.14711298048496246,-0.20483066141605377,0.12478489428758621,-0.014085127040743828,-0.02299194410443306,-0.24458470940589905,0.1473952978849411,-0.1683611273765564,0.016518089920282364,0.07024168968200684,-0.033130355179309845,-0.07506793737411499,0.0548897311091423,0.11221300810575485,0.1870301067829132,0.07646850496530533,-0.1118086650967598,-0.15691103041172028,-0.0832827240228653,-0.0655670091509819,-0.03344647213816643,-0.04996754974126816,0.06102997437119484},{0.11985813081264496,0.14628595113754272,-0.01653141900897026,-0.08068878203630447,0.026193678379058838,0.018216418102383614,0.12484480440616608,-0.052787501364946365,-0.09295769035816193,0.08934210985898972,-0.12335124611854553,-0.06471230089664459,0.002537406049668789,0.02594628371298313,-0.015688007697463036,-0.0033513184171169996,0.10111923515796661,-0.04600357636809349,0.029260799288749695,-0.14946328103542328,-0.07520268112421036,-0.2173304706811905,-0.10847373306751251,0.0038295669946819544,-0.033222746104002,0.05248170718550682,0.1092931479215622,-0.019594144076108932,0.04810306057333946,0.021422719582915306,-0.046050045639276505,0.060014694929122925,0.07070664316415787,-0.03073403425514698,0.06257381290197372,0.03765716031193733,0.09286870062351227,0.026095610111951828,-0.009968496859073639,0.09638924151659012,-0.13220806419849396,0.06911274045705795,-0.04631008952856064,-0.04643940553069115,-0.05909266695380211,0.09982812404632568,0.0756702646613121,0.05279720574617386,0.009465369395911694,0.053395695984363556,-0.028247980400919914,-0.0370100662112236,-0.0480768084526062,0.05163148418068886,-0.050830405205488205,-0.06480516493320465,0.05651066452264786,0.08217500150203705,-0.10242481529712677,0.08573261648416519,0.018375884741544724,0.06636718660593033,-0.015597822144627571,-0.07117853313684464},{-0.04118824377655983,-0.11328780651092529,0.09578030556440353,-0.12465378642082214,0.02991085685789585,0.04560130089521408,-0.0327845998108387,0.08276322484016418,0.0192126352339983,0.17385631799697876,0.040765516459941864,0.033717602491378784,-0.24433724582195282,-0.04436732083559036,0.016913428902626038,-0.10082702338695526,0.08068982511758804,0.14107011258602142,0.10717922449111938,-0.14508867263793945,0.03826314955949783,0.06167932227253914,-0.048410575836896896,-0.04099566861987114,0.11138883978128433,-0.17701323330402374,0.08857643604278564,-0.1273617148399353,0.12445667386054993,-0.054416026920080185,0.19026821851730347,0.07922255247831345,-0.038656290620565414,-0.03774963319301605,0.12209384888410568,0.06422460824251175,0.07631519436836243,0.1750791072845459,0.09893488883972168,0.11029667407274246,-0.09982731938362122,-0.03734027221798897,-0.22126883268356323,-0.0028120887000113726,-0.07075870782136917,-0.14600026607513428,0.07308194786310196,-0.03164270147681236,-0.16890637576580048,0.08572367578744888,0.5183328986167908,-0.23077918589115143,0.0439424067735672,0.12571604549884796,-0.1720532476902008,-0.032811664044857025,0.05203383043408394,0.05418776348233223,0.4327288866043091,-0.036129195243120193,-0.0818808376789093,0.17438973486423492,-0.19316864013671875,-0.006937774363905191},{-0.02049894444644451,-0.11531835049390793,0.05915706232190132,-0.032187797129154205,0.049322448670864105,-0.15459755063056946,0.4942435324192047,0.03633969649672508,0.218081533908844,-0.04191796854138374,-0.10789770632982254,-0.03917089104652405,0.35956862568855286,-0.10667850077152252,-0.024640634655952454,0.12557543814182281,-0.14901503920555115,-0.1702732890844345,0.07856204360723495,-0.09806695580482483,-0.03561347350478172,-0.02616078592836857,-0.018154580146074295,0.02565460465848446,0.10586165636777878,0.044034164398908615,0.12929745018482208,-0.11453764885663986,-0.1306367814540863,0.08713866770267487,-0.006405467167496681,0.032919514924287796,0.07307819277048111,-0.20859766006469727,-0.03880714997649193,0.13143545389175415,0.07855157554149628,-0.05180581286549568,-0.08604896068572998,-0.0025527519173920155,-0.039511408656835556,0.14050725102424622,-0.13347192108631134,-0.07806647568941116,0.07305236160755157,0.14504966139793396,-0.17121493816375732,-0.17177824676036835,-0.0009017177508212626,0.07957189530134201,-0.04879410192370415,0.1340635120868683,-0.2010277509689331,-0.10001907497644424,-0.03666263818740845,-0.10429320484399796,0.06858664005994797,0.0007459023036062717,-0.09127227216959,0.06953530758619308,-0.12640073895454407,0.11274433135986328,-0.06230263411998749,-0.02846529334783554},{0.039385244250297546,0.06070714443922043,-0.06935875117778778,-0.08428413420915604,0.11479610949754715,-0.028950437903404236,-0.23176532983779907,-0.1113983690738678,-0.12208133935928345,-0.03442294895648956,-0.04099629074335098,-0.0914803147315979,0.11350418627262115,0.046288102865219116,0.04851442947983742,-0.06392345577478409,0.1291874349117279,0.09015152603387833,0.03904129937291145,0.11562569439411163,0.04054667428135872,0.1367945820093155,0.06985126435756683,-0.027788514271378517,0.10525059700012207,-0.03835086524486542,0.05253070592880249,0.11844971030950546,0.05613908916711807,0.0539393424987793,0.1119227483868599,-0.006206125020980835,-0.04354976490139961,-0.053048212081193924,0.058690331876277924,-0.05734504386782646,0.012012976221740246,0.0904291570186615,-0.08770129829645157,-0.06079084053635597,0.026992294937372208,-0.026043731719255447,0.07825292646884918,0.0035253509413450956,0.044999949634075165,-0.056326109915971756,0.044236939400434494,-0.1011619120836258,0.11408139765262604,0.10275093466043472,-0.09913773834705353,0.055520206689834595,0.015157303772866726,-0.07048317044973373,0.1398158222436905,0.01664273627102375,-0.10485241562128067,0.03671027719974518,0.05841312184929848,0.10030991584062576,-0.057190701365470886,0.04448126628994942,-0.04934270307421684,-0.02677968330681324},{0.2001292109489441,0.09755261242389679,-0.03787717595696449,-0.09533916413784027,0.2786053717136383,-0.04260683432221413,-0.1403319239616394,0.046235404908657074,-0.1422967165708542,-0.21370959281921387,0.3626827597618103,0.018085315823554993,-0.5153307914733887,-0.05131351947784424,-0.023926494643092155,-0.2168237268924713,0.12418630719184875,0.1906272917985916,-0.07689341902732849,0.4664015471935272,0.11051210761070251,-0.47649917006492615,0.20612479746341705,0.038058411329984665,-0.012388408184051514,-0.22123119235038757,-0.2099725753068924,-0.0631154477596283,0.09638076275587082,-0.2559220492839813,0.3116685748100281,-0.17954353988170624,-0.04953337833285332,0.5699358582496643,-0.022517941892147064,-0.2646968960762024,0.32982999086380005,-0.16462182998657227,0.06292227655649185,-0.28027570247650146,0.021329091861844063,-0.039154622703790665,0.15966187417507172,-0.1516694575548172,-0.2868470549583435,-0.4785856604576111,-0.12557414174079895,0.013941323384642601,0.34777918457984924,0.2357652485370636,-0.6718467473983765,-0.15311449766159058,0.7708603143692017,-0.34943804144859314,0.5989428758621216,0.07648428529500961,-0.18293897807598114,0.31372538208961487,-0.24183940887451172,0.1338616907596588,-0.2038068026304245,-0.042408429086208344,0.2634112536907196,0.1493394374847412},{0.11049655824899673,-0.011149324476718903,0.09229185432195663,0.049405381083488464,-0.004164452664554119,0.0345325767993927,-0.07922609150409698,0.07496455311775208,0.16990667581558228,-0.09474385529756546,0.4712865948677063,-0.05601765587925911,-0.16211359202861786,0.031280986964702606,0.02667180821299553,-0.10759313404560089,0.019664326682686806,-0.037279821932315826,-0.03579099476337433,0.0039687445387244225,0.14014890789985657,-0.036755334585905075,0.0788397341966629,0.02433798834681511,-0.03801191598176956,-0.040280330926179886,-0.04997206851840019,-0.08260966837406158,0.03674221783876419,-0.043837159872055054,-0.4767996668815613,-0.06087375059723854,0.1302255392074585,0.14925119280815125,0.10296314209699631,-0.05878552421927452,-0.11634737998247147,0.014623579569160938,0.09149733185768127,-0.021245069801807404,0.013308771885931492,-0.11563947051763535,0.06530995666980743,0.016367781907320023,-0.2833244800567627,0.11762715876102448,0.2092592567205429,0.035453036427497864,-0.022388380020856857,0.05280226469039917,0.28334084153175354,0.09022914618253708,0.20305845141410828,-0.021455472335219383,0.19727244973182678,-0.05831214413046837,0.01542998943477869,0.09847895801067352,0.36072877049446106,0.07663460820913315,-0.11546961963176727,0.1281142234802246,0.009606771171092987,-0.07527942955493927},{0.0684531182050705,-0.08266961574554443,-0.029087083414196968,0.05240722745656967,0.022447029128670692,-0.09801322966814041,0.5129854679107666,-0.05400695279240608,-0.004986920859664679,0.056051235646009445,0.00017901879618875682,-0.1458653211593628,0.1309521645307541,0.10412151366472244,0.08911886811256409,-0.10948193818330765,-0.0669783502817154,-0.0924713984131813,-0.0263383686542511,0.014430095441639423,0.06332603096961975,0.032325539737939835,0.1108442172408104,-0.045964647084474564,0.04959942400455475,-0.020806675776839256,0.07147332280874252,-0.09816747903823853,0.08705946803092957,-0.09013054519891739,-0.08999258279800415,-0.10499760508537292,0.060129113495349884,0.062167029827833176,-0.002763167256489396,0.06775405257940292,0.028530940413475037,-0.1037788912653923,-0.1060723289847374,0.05266309902071953,-0.0075690108351409435,-0.11561627686023712,-0.040624141693115234,-0.0734400823712349,-0.12983515858650208,-0.0425918884575367,-0.08610223233699799,0.02383503131568432,0.09747388958930969,0.028487553820014,-0.08834926038980484,-0.10204681754112244,-0.09512903541326523,-0.09792320430278778,0.010743762366473675,-0.03982710465788841,0.04648889973759651,-0.08741341531276703,0.06604395806789398,-0.08667917549610138,-0.07750342041254044,0.008064358495175838,0.02063526026904583,0.08768998831510544},{0.22386305034160614,-0.05038386210799217,0.05967326834797859,-0.06645935773849487,0.21758690476417542,0.12751995027065277,-0.06829526275396347,0.011401326395571232,-0.06861208379268646,-0.07022975385189056,0.2138688713312149,0.002204997232183814,-0.13728778064250946,0.003943519201129675,-0.05872894078493118,0.09828448295593262,-0.05481258034706116,0.11864440143108368,0.019530124962329865,0.05427296459674835,-0.0017622108571231365,0.035541802644729614,-0.1329450011253357,-0.052039265632629395,0.017893433570861816,0.1200045719742775,-0.014890871942043304,-0.04653990641236305,0.030788883566856384,0.009483571164309978,0.15732619166374207,-0.11050625890493393,-0.020454617217183113,0.26781779527664185,-0.08652586489915848,-0.050455737859010696,0.0904112234711647,-0.019929686561226845,-0.1316375434398651,-0.008590354584157467,0.1269475817680359,0.0016963103553280234,0.08977242559194565,-0.0977882668375969,0.012787525542080402,0.03217249736189842,0.03927235305309296,-0.039688821882009506,0.06748847663402557,-0.014217817224562168,-0.44368821382522583,0.1353144645690918,0.018658358603715897,0.06193973496556282,0.0421840064227581,0.0024214647710323334,-0.07091367244720459,-0.09245264530181885,-0.40687134861946106,0.11245493590831757,0.04824404790997505,-0.09532542526721954,0.18188875913619995,-0.18871824443340302},{0.046548787504434586,-0.02506735920906067,0.051135990768671036,0.12865135073661804,-0.09922700375318527,-0.020316699519753456,-0.9766110777854919,-0.021079374477267265,0.007081240881234407,0.12009677290916443,0.028032423928380013,0.10130450874567032,0.0341399610042572,0.004991529509425163,-0.1107010692358017,-0.03530750051140785,0.04559038206934929,-0.10159749537706375,0.045238059014081955,-0.09279204905033112,0.006146492902189493,-0.13773466646671295,-0.04451240599155426,0.029175369068980217,-0.05269506946206093,0.1230914518237114,0.025837315246462822,0.033773910254240036,-0.10701310634613037,0.0856352373957634,0.04463120177388191,-0.026309961453080177,-0.08360891044139862,0.14726220071315765,0.09818682074546814,0.005986768752336502,0.11883486062288284,-0.03267691284418106,-0.04038191959261894,0.06159387528896332,-0.080683134496212,0.024307485669851303,0.12282829731702805,0.0134318508207798,-0.10830359905958176,-0.10005973279476166,0.0026747356168925762,0.0901891216635704,0.006068978924304247,0.06550154834985733,0.13400502502918243,-0.09828317910432816,0.07218994945287704,0.05760597437620163,0.1593143343925476,0.0013313890667632222,0.010093041695654392,-0.08167079836130142,0.0955096036195755,0.07670462131500244,0.12915939092636108,-0.03058401495218277,-0.033261850476264954,-0.054671354591846466},{-0.11578527092933655,-0.10294342786073685,0.05717123672366142,0.03429058566689491,0.0691860169172287,-0.049200233072042465,0.11376360803842545,0.1105952337384224,-0.10923063009977341,-0.1335904449224472,-0.01579124666750431,0.04721760377287865,0.006956206168979406,0.014897271990776062,0.0008599876891821623,-0.11489532142877579,-0.08139234036207199,0.09011216461658478,-0.0964651107788086,-0.10420683771371841,0.10586629807949066,-0.1046515479683876,0.016192248091101646,0.04190307483077049,0.11862672865390778,-0.035047005861997604,-0.1315523087978363,0.06957825273275375,-0.014861282892525196,-0.06056758761405945,0.01011690590530634,0.0855112299323082,0.031835947185754776,0.049324799329042435,0.050525374710559845,-0.153930202126503,-0.042407210916280746,0.07304282486438751,-0.019546765834093094,0.030516717582941055,0.13271817564964294,0.07083272188901901,0.08743523806333542,-0.028126992285251617,-0.17552414536476135,0.05287199094891548,0.07335612177848816,0.122240349650383,0.017328081652522087,0.08528250455856323,-0.11439846456050873,-0.16463512182235718,-0.038504067808389664,0.06086206063628197,-0.10168687999248505,0.16215085983276367,-0.0553426556289196,0.06706582754850388,0.014200554229319096,-0.011773292906582355,-0.07471901178359985,0.025334732607007027,0.10298027098178864,0.0548381470143795},{-0.250873327255249,0.004964773543179035,-0.25762614607810974,-0.21514487266540527,-0.0023641695734113455,0.11244575679302216,0.31744620203971863,-0.13791076838970184,-0.029751978814601898,-0.17020268738269806,-0.3168106973171234,-0.06060812994837761,0.047554317861795425,-0.1063835471868515,0.05644608289003372,-0.06586553156375885,-0.14808745682239532,0.1561422049999237,-0.11738787591457367,0.054975949227809906,0.24642157554626465,-0.002066713059321046,-0.14799635112285614,0.03147927671670914,0.04625571519136429,-0.0851384624838829,-0.11553884297609329,-0.005165126174688339,0.03061571717262268,-0.20059967041015625,0.08136878907680511,0.06264933943748474,-0.12033595144748688,0.09398330003023148,0.056622590869665146,0.06537964195013046,-0.03853698447346687,0.10001304745674133,0.1613604575395584,-0.12021113187074661,0.01332954503595829,-0.10382658243179321,0.12133539468050003,-0.13077953457832336,-0.20619410276412964,-0.31718137860298157,0.019073620438575745,0.052348703145980835,0.09382361173629761,0.17544053494930267,-0.27017372846603394,-0.3557816743850708,0.22323735058307648,-0.10980651527643204,-0.375357449054718,-0.03968588262796402,0.019990121945738792,0.24667438864707947,-0.10815776139497757,0.07923378795385361,-0.18425455689430237,-0.14081670343875885,0.004788919351994991,0.19368977844715118},{-0.01122224610298872,0.01795330084860325,-0.009194545447826385,-0.12195880711078644,-0.0861978754401207,0.014002556912600994,0.13460342586040497,-0.07116150856018066,0.03522290289402008,-0.028201716020703316,0.11837967485189438,-0.13611355423927307,-0.36712151765823364,-0.11669575423002243,-0.07867035269737244,-0.07496495544910431,-0.09401129186153412,0.1546507030725479,-0.11256947368383408,0.037896279245615005,-0.11274692416191101,-0.16221725940704346,0.055513639003038406,-0.0997423604130745,-0.08002358675003052,0.004789095837622881,0.03522716090083122,-0.08214446157217026,-0.0849926695227623,0.12206687778234482,0.006545881275087595,0.05742611363530159,0.06436271220445633,0.2642114460468292,0.011515467427670956,0.12834689021110535,0.013548122718930244,-0.0037174911703914404,-0.07345810532569885,0.06028332561254501,-0.06000116467475891,-0.022368697449564934,0.1440100222826004,-0.27856916189193726,0.06857076287269592,-0.0702928826212883,0.049257416278123856,-0.06572918593883514,0.13790263235569,0.056792452931404114,-0.07745377719402313,0.021747788414359093,0.21823377907276154,0.07667040079832077,-0.1758727729320526,0.1343032419681549,-0.12000315636396408,-0.10322887450456619,-0.007424593903124332,0.0054733590222895145,-0.12248577922582626,0.04636897146701813,-0.00783042423427105,0.10069414228200912},{0.09204033017158508,0.01381650660187006,0.06709537655115128,0.06582634896039963,0.0043755401857197285,0.08431483805179596,0.41157829761505127,-0.025760628283023834,0.12035087496042252,0.06736914813518524,0.03798150271177292,-0.11397181451320648,-0.08307626843452454,-0.1171441450715065,-0.09015398472547531,-0.04032156988978386,-0.05730646848678589,-0.011788160540163517,-0.02613634057343006,-0.12067453563213348,-0.03945763781666756,-0.03689620643854141,-0.07750072330236435,-0.0213452335447073,0.1212167739868164,0.025396769866347313,-0.006443662568926811,0.10579459369182587,0.009125693701207638,-0.0012876171385869384,0.028864797204732895,-0.04751678928732872,-0.04795343428850174,-0.021582720801234245,0.07160671055316925,0.11688846349716187,0.08642568439245224,-0.11027228832244873,-0.12107282131910324,0.0881066620349884,0.04749542847275734,-0.02368803881108761,-0.10824715346097946,0.04585396125912666,-0.04764074832201004,0.12950140237808228,0.022194454446434975,-0.012157013639807701,-0.12972480058670044,-0.09631429612636566,0.0667325034737587,0.027700580656528473,0.0538998506963253,-0.018938999623060226,-0.3224150836467743,0.0009152493439614773,0.01826506294310093,-0.09915269911289215,0.05179182067513466,0.0937829464673996,0.03379093483090401,0.07530556619167328,-0.018766604363918304,0.11605408042669296},{-0.05485604703426361,0.05157635360956192,-0.04799925163388252,0.02895301952958107,-0.01997295208275318,0.045741379261016846,-0.31995126605033875,-0.005497720558196306,-0.16348780691623688,0.12833449244499207,0.0004658327379729599,0.02706177532672882,0.02122865989804268,-0.08476641029119492,0.11574357748031616,0.06353460997343063,0.1433563381433487,0.12320173531770706,-0.01994183473289013,0.00434754928573966,0.04148472100496292,0.07369864732027054,0.07308587431907654,-0.07530845701694489,0.017666790634393692,0.05837118625640869,-0.05745813623070717,-0.07162784785032272,-0.05804591625928879,0.000214546118513681,0.1037997379899025,-0.1052507609128952,0.08776818215847015,-0.0030407654121518135,0.09342239052057266,-0.01675366424024105,0.01779698207974434,0.029297910630702972,-0.1012129858136177,-0.002497290261089802,-0.09300451725721359,0.085306316614151,0.046921949833631516,0.1680460423231125,-0.01707189902663231,0.015779368579387665,-0.04938673973083496,0.018094288185238838,0.1431635171175003,0.0236064363270998,0.075022853910923,-0.09568373113870621,-0.0457351878285408,-0.03989037871360779,0.29764896631240845,0.02548547275364399,0.083377406001091,-0.04766462370753288,0.13925392925739288,0.06033621355891228,0.04929254204034805,0.1275707185268402,-0.13719519972801208,-0.04121089726686478},{0.002377958269789815,0.133022740483284,0.1045738011598587,0.10815643519163132,0.0988718569278717,-0.12145891785621643,0.22329038381576538,-0.05113513022661209,-0.16461849212646484,0.11068500578403473,-0.392465740442276,0.08506222069263458,-0.017133234068751335,0.001988978125154972,0.1403190791606903,-0.06650342047214508,0.08343637734651566,0.10424196720123291,0.11716138571500778,0.05199839919805527,-0.09102419018745422,-0.05338561162352562,0.1708775758743286,0.05918370932340622,0.10591995716094971,-0.04855368286371231,-0.1028360053896904,-0.05666713789105415,-0.027286062017083168,-0.05285310372710228,0.3829847276210785,-0.17554013431072235,0.10604657977819443,-0.08187193423509598,0.04679104685783386,0.06771336495876312,0.16708356142044067,-0.10276429355144501,0.05925876647233963,-0.13016685843467712,0.048264775425195694,-0.06965842097997665,0.06446613371372223,0.14724017679691315,-0.022094018757343292,-0.24218395352363586,-0.14916588366031647,0.013780895620584488,-0.06719616800546646,0.03141923248767853,-0.035571176558732986,0.034081824123859406,-0.23542825877666473,0.017486151307821274,-0.12058352679014206,0.037566401064395905,-0.10488508641719818,-0.09737978875637054,-0.026570385321974754,0.11278402805328369,-0.06516275554895401,0.13968127965927124,-0.020741816610097885,0.095504030585289},{-0.08164447546005249,0.016065888106822968,-0.011742258444428444,-0.11939991265535355,-0.14975205063819885,0.019837787374854088,1.0404186248779297,-0.017758585512638092,0.161079540848732,0.08680292218923569,0.06644206494092941,-0.09516595304012299,-0.048816680908203125,-0.011456477455794811,0.09484183043241501,0.08197048306465149,-0.13964791595935822,-0.043380532413721085,-0.07967128604650497,-0.05736605077981949,0.05118975788354874,0.06622296571731567,-0.08915381133556366,-0.11870193481445312,-0.10412202775478363,0.05746065080165863,0.11075934022665024,-0.045287154614925385,0.005777155514806509,0.10867460072040558,0.009546108543872833,0.03119325451552868,0.1470862776041031,-0.21621499955654144,-0.028570113703608513,0.13474340736865997,-0.0021131739486008883,0.009625150822103024,-0.01965835876762867,-0.001646870980039239,-0.06383727490901947,0.03166498988866806,-0.2096666544675827,-0.01428543496876955,0.14517629146575928,0.17030981183052063,-0.0469464547932148,0.019721364602446556,-0.016400543972849846,0.10054190456867218,0.13618022203445435,0.1930077224969864,-0.16032516956329346,0.10763447731733322,-0.25968822836875916,0.10067898035049438,0.04984860494732857,-0.00677062151953578,0.08302338421344757,-0.13733282685279846,-0.12959976494312286,0.08282654732465744,-0.12643803656101227,0.1006416454911232},{-0.04572070762515068,-0.06875642389059067,0.0976908802986145,-0.1740911304950714,-0.07008825987577438,-0.06165539473295212,0.06416000425815582,-0.05639750510454178,0.05543709173798561,-0.0655503123998642,0.04555726423859596,-0.08853544294834137,0.08430103957653046,-0.09711822122335434,0.1124454215168953,0.1054261326789856,-0.019914187490940094,0.014729181304574013,-0.0926474928855896,0.03935209661722183,-0.0648961216211319,0.19797742366790771,0.1256849467754364,0.09606774151325226,0.08202819526195526,-0.011511605232954025,-0.02163069322705269,0.13495424389839172,-0.13303066790103912,0.11948520690202713,0.16503466665744781,-0.13108964264392853,-0.002262352965772152,-0.2426861822605133,0.010273445397615433,0.2181558609008789,-0.08291572332382202,-0.045817699283361435,-0.12000217288732529,0.033196333795785904,0.12457489967346191,0.022445106878876686,-0.20855040848255157,0.09482469409704208,-0.019632641226053238,-0.12552110850811005,-0.14257213473320007,0.1152021586894989,-0.14149631559848785,0.023585237562656403,0.1619332730770111,0.11736345291137695,-0.13104130327701569,-0.06467649340629578,-0.10116782784461975,-0.001282084034755826,0.07305724918842316,0.07320181280374527,0.06818002462387085,0.1290949583053589,-0.07614779472351074,0.004280469845980406,-0.08484609425067902,0.12770330905914307},{0.07340238988399506,-0.06966063380241394,-0.13587287068367004,0.0792265459895134,-0.055991280823946,-0.10145288705825806,0.9989292621612549,-0.09973883628845215,-0.027698280289769173,-0.06418411433696747,0.02455662004649639,-0.10523393750190735,0.07046803086996078,-0.17008885741233826,0.07592641562223434,0.018161555752158165,-0.09507422894239426,-0.14608003199100494,-0.09801943600177765,0.04302595183253288,0.03552747890353203,-0.042746979743242264,0.08649054914712906,0.021998483687639236,0.08948792517185211,-0.037985846400260925,-0.09689982235431671,0.002226727083325386,-0.12189505249261856,0.09036441892385483,0.06664954125881195,-0.13586711883544922,0.11309663206338882,-0.1021626740694046,-0.10332740843296051,0.10701674968004227,0.042765554040670395,0.06850609183311462,0.09283328056335449,0.08432728052139282,0.1385054737329483,0.05972417816519737,-0.03572468087077141,-0.11492747068405151,0.04643829166889191,0.0691453143954277,-0.09035565704107285,-0.055670272558927536,-0.14948280155658722,0.03390348702669144,-0.0291788037866354,0.16134598851203918,-0.06459242850542068,0.14287644624710083,-0.1451886147260666,-0.09038622677326202,0.09063579142093658,-0.10145242512226105,0.015185578726232052,0.018509209156036377,-0.047853562980890274,-0.08825786411762238,-0.06765637546777725,-0.0912754163146019},{0.01564348116517067,-0.09142332524061203,0.04560629278421402,0.11648208647966385,0.028496934100985527,0.09541871398687363,-0.3947219252586365,0.026697959750890732,-0.1704384982585907,-0.15497775375843048,-0.16012774407863617,0.022006137296557426,0.07771740853786469,0.08790412545204163,0.06300913542509079,0.08960429579019547,-0.0032573046628385782,-0.019119080156087875,0.007735964842140675,0.236347958445549,-0.04351135343313217,0.1550755798816681,-0.08711891621351242,-0.0795435905456543,-0.03071213699877262,-0.06904244422912598,0.1052229255437851,0.02178158424794674,0.09903153777122498,-0.028034793213009834,0.11277589201927185,-0.08395174145698547,-0.18512481451034546,0.15020449459552765,-0.004062269814312458,-0.16363297402858734,-0.0521848239004612,-0.08755389600992203,-0.10816571861505508,0.048970434814691544,-0.006611592136323452,-0.04618524760007858,0.07388944923877716,-0.029294859617948532,0.016114262863993645,-0.0943131223320961,0.15963497757911682,0.10772770643234253,0.04669804871082306,0.07935798168182373,-0.038400568068027496,0.01796719804406166,0.07246794551610947,-0.05647782236337662,0.35531026124954224,-0.13600589334964752,-0.04550107941031456,0.10485433787107468,-0.029193434864282608,0.09109586477279663,0.04819261282682419,0.047087814658880234,0.09283625334501266,-0.05005666986107826},{-0.023058775812387466,-0.09605582058429718,0.14640961587429047,-0.10785200446844101,0.012640326283872128,0.04514089599251747,0.5838105082511902,-0.06786338984966278,0.017764434218406677,0.03818947821855545,-0.03787551447749138,-0.15195001661777496,0.0028658683877438307,-0.10285507887601852,0.09065655618906021,-0.0376681350171566,-0.08144250512123108,-0.062178343534469604,-0.06821975111961365,-0.18738718330860138,-0.015933332964777946,-0.08078309148550034,0.1396196484565735,0.0757209062576294,-0.06489000469446182,-0.08377794921398163,0.08385806530714035,-0.028059879317879677,-0.16371028125286102,0.11925546824932098,-0.1310650259256363,-0.08888816088438034,0.15922978520393372,-0.22990454733371735,-0.054138559848070145,0.07569774240255356,-0.115227110683918,-0.04940462112426758,0.0864921286702156,0.1295934021472931,0.038006242364645004,0.030127599835395813,-0.14193318784236908,-0.0852535143494606,0.11489418148994446,0.13727058470249176,-0.012200918979942799,-0.02785073220729828,-0.012123757041990757,-0.09160909801721573,0.12339402735233307,0.07232360541820526,-0.1357625126838684,0.06753874570131302,-0.18917174637317657,-0.11557506769895554,0.09135191887617111,-0.06659732013940811,0.04910903796553612,-0.0032290273811668158,-0.05127524212002754,0.0706704780459404,-0.10417526215314865,-0.14692899584770203},{-0.13113504648208618,-0.039503905922174454,-0.01711113378405571,-0.01146144699305296,0.016427868977189064,-0.14343301951885223,-0.1583808809518814,0.06340163946151733,-0.07667001336812973,0.09918610751628876,0.0858045294880867,-0.11714369803667068,0.02017180621623993,-0.016026552766561508,-0.0017495285719633102,0.06974515318870544,-0.039341747760772705,0.05705171450972557,0.014421332627534866,0.035468365997076035,0.1135365292429924,0.07846132665872574,-0.10397502779960632,-0.13054130971431732,0.09187375009059906,-0.046366557478904724,-0.08150088787078857,0.04367882385849953,0.08530811965465546,0.010208254680037498,-0.04267388954758644,-0.03607949614524841,-0.014516694471240044,-0.09057128429412842,-0.01544992532581091,-0.03190278261899948,-0.021825352683663368,0.061511602252721786,0.06316699087619781,0.061296019703149796,0.14265456795692444,-0.02550271712243557,-0.00448727747425437,-0.15911763906478882,0.08673358708620071,-0.09785676002502441,0.17636322975158691,0.06172880902886391,-0.09191381186246872,0.14162416756153107,-0.016195984557271004,-0.04128282517194748,0.16676056385040283,-0.10058365762233734,0.18956060707569122,-0.07281750440597534,-0.08050814270973206,0.1394595205783844,-0.07105781883001328,0.07478820532560349,0.055998921394348145,0.04309575632214546,0.10066883265972137,0.12841887772083282},{0.13714370131492615,-0.037405598908662796,-0.005286684725433588,-0.09586984664201736,0.06981759518384933,-0.007653367705643177,-0.3110983967781067,-0.09192483872175217,-0.03940051794052124,-0.021426569670438766,0.15469127893447876,0.1265145093202591,-0.0547771081328392,-0.08318150043487549,-0.032475586980581284,0.12374157458543777,0.08667980879545212,-0.05371991917490959,-0.07948478311300278,0.00012777894153259695,-0.011315426789224148,-0.019565900787711143,-0.10971461236476898,-0.0018225745297968388,0.046561963856220245,0.0900268405675888,-0.08704077452421188,-0.07678956538438797,-0.09815230965614319,0.0441969558596611,-0.1621081531047821,-0.05231630057096481,0.030674420297145844,0.16882093250751495,-0.11714563518762589,-0.018099935725331306,-0.10960402339696884,0.056358616799116135,-0.11013001948595047,0.017412947490811348,0.07087614387273788,0.024926157668232918,-0.08009040355682373,-0.20346201956272125,0.020708318799734116,0.054605599492788315,0.0660877451300621,0.027798591181635857,0.11998344957828522,0.052293237298727036,-0.04846049100160599,0.16975128650665283,0.16371332108974457,0.030155714601278305,0.017425231635570526,-0.003393931547179818,0.10410135239362717,-0.04969223961234093,0.03428944945335388,0.1119406446814537,0.04031267389655113,-0.02292792499065399,0.0003843750455416739,0.022374534979462624},{-0.09661421924829483,0.025689678266644478,0.2574632465839386,0.24120262265205383,0.17883920669555664,-0.0016750639770179987,0.20542572438716888,-0.13517622649669647,0.04893897473812103,-0.0455397330224514,-0.13629505038261414,-0.0676746517419815,-0.037405792623758316,-0.08199714869260788,0.18850553035736084,0.17483265697956085,-0.03914012759923935,-0.230841264128685,-0.09297993034124374,0.30306142568588257,-0.09593009948730469,0.3695012927055359,0.021907543763518333,-0.04913746193051338,0.04768890142440796,0.028376173228025436,0.12274077534675598,0.0729779452085495,0.04046987369656563,-0.029738551005721092,-0.012514472007751465,-0.10834562033414841,-0.05962904170155525,0.02039809338748455,0.032603681087493896,0.1985316425561905,0.05536765232682228,0.12525790929794312,-0.41470879316329956,0.05278560519218445,-0.1306278556585312,-0.1790405809879303,0.1662748157978058,-0.41159841418266296,0.17182111740112305,-0.25557753443717957,0.003931187093257904,-0.02255433052778244,0.19907879829406738,-0.10195152461528778,-0.04249919205904007,0.13025932013988495,-0.14184120297431946,-0.19169378280639648,0.1775749921798706,0.11403648555278778,-0.08422540873289108,0.009836298413574696,-0.18069033324718475,0.05846434831619263,-0.10382049530744553,0.13791467249393463,-0.1158590018749237,0.03289993479847908},{-0.025113506242632866,-0.11419421434402466,-0.08378185331821442,-0.005286687053740025,-0.11187165230512619,0.017488298937678337,-0.42708447575569153,-0.12846755981445312,0.044320281594991684,-0.05464005097746849,0.17896513640880585,-0.042104415595531464,0.06440296769142151,0.051938313990831375,0.0011545157758519053,0.14642654359340668,0.010811741463840008,-0.07737541198730469,-0.04316502436995506,-0.1083735004067421,0.045633263885974884,-0.06334222853183746,-0.021291468292474747,-0.15332195162773132,0.020943066105246544,0.15196296572685242,0.04221959784626961,0.002804982475936413,-0.025394562631845474,-0.03794661909341812,-0.040661778301000595,0.12134949862957001,0.005772819742560387,-0.20179492235183716,-0.14840543270111084,0.04275348410010338,-0.07885126024484634,-0.05378015711903572,0.10275619477033615,0.0369250550866127,-0.005103160161525011,-0.09179443120956421,-0.0659189224243164,0.030680036172270775,0.06607898324728012,0.17751643061637878,-0.05238794907927513,-0.08950552344322205,-0.032612528651952744,0.026690833270549774,0.09265653043985367,0.0571446567773819,0.001889356761239469,-0.014164034277200699,0.15479879081249237,-0.11786925792694092,0.14156502485275269,-0.12522007524967194,-0.08273433148860931,-0.1564076840877533,-0.07523420453071594,0.08800186961889267,0.11411198228597641,-0.0013018609024584293},{0.10345356911420822,0.14342020452022552,0.06604090332984924,0.16970346868038177,0.1196458488702774,0.1042146235704422,-0.32567596435546875,0.016242383047938347,0.04859089478850365,0.07762467116117477,0.12432405352592468,-0.007327082101255655,0.01476623211055994,-0.09438293427228928,-0.14573073387145996,-0.06948726624250412,-0.035680919885635376,-0.02884412184357643,0.03788173943758011,-0.07565327733755112,-0.11878561973571777,-0.12277305871248245,0.01261838711798191,0.0541779100894928,0.005899391602724791,0.007718128617852926,-0.07866921275854111,0.05519859492778778,0.03536591678857803,-0.0937885195016861,0.1881415992975235,-0.010977904312312603,-0.07311804592609406,-0.1185866966843605,0.05452345311641693,-0.0072916666977107525,0.05776910111308098,-0.09011126309633255,-0.1267569363117218,0.05430401861667633,-0.1690756380558014,-0.10348335653543472,0.0005473780911415815,0.07921016961336136,-0.04198792576789856,0.1416957527399063,-0.0975457951426506,0.06158408150076866,-0.014540387317538261,-0.18582336604595184,-0.06937962770462036,0.12347066402435303,-0.1997273713350296,-0.07402004301548004,0.014508810825645924,0.014215119183063507,0.009670069441199303,-0.12484990805387497,-0.05585412308573723,0.1309526115655899,0.19540822505950928,0.08043308556079865,-0.023346876725554466,-0.07201370596885681},{-0.1560439020395279,-0.013231511227786541,0.21104788780212402,0.04985121637582779,-0.05000520870089531,-0.061696868389844894,0.46605560183525085,0.07093998789787292,0.08765757083892822,0.2487005740404129,-0.24513347446918488,-0.10266229510307312,0.23771525919437408,-0.04006864130496979,-0.08948331326246262,0.1203506663441658,-0.047354988753795624,-0.12423451989889145,0.25095441937446594,-0.23671624064445496,-0.27104490995407104,0.17775680124759674,-0.04171379283070564,-0.08317027986049652,0.06537583470344543,-0.0620967298746109,0.12331392616033554,0.0466192401945591,-0.07938209176063538,0.3047465682029724,0.12683047354221344,0.15132005512714386,0.10169295221567154,-0.25478339195251465,0.16004197299480438,0.10036066174507141,0.046367283910512924,0.14252381026744843,-0.2930096983909607,0.033065225929021835,-0.012475860305130482,-0.13168250024318695,-0.02843126654624939,0.2586858570575714,0.2534181773662567,0.15520404279232025,-0.21313811838626862,-0.042343951761722565,-0.056060951203107834,-0.20792260766029358,0.38127729296684265,-0.07591987401247025,-0.6698613166809082,-0.00092307262821123,-0.4875738024711609,0.1116805374622345,0.010471527464687824,-0.2842104136943817,0.0593530535697937,-0.024575719609856606,0.03978265821933746,0.017270581796765327,-0.2045009583234787,-0.09624232351779938},{0.08125845342874527,-0.09286025911569595,-0.13325297832489014,0.059303682297468185,-0.001057545654475689,-0.24175091087818146,-0.28526780009269714,0.1755046248435974,0.22358539700508118,-0.10175503045320511,0.20611359179019928,-0.04940396919846535,0.1399938315153122,0.08007488399744034,0.1494852751493454,0.1327260136604309,0.10352057218551636,-0.27708807587623596,0.18342676758766174,0.00998450256884098,-0.10106364637613297,0.1611594557762146,0.0072179073467850685,0.08417213708162308,-0.13764120638370514,0.2587164640426636,0.052543409168720245,-0.24925102293491364,-0.0659400075674057,0.2872949242591858,-0.49597927927970886,-0.04712193086743355,-0.027216056361794472,0.0522662028670311,-0.1952735185623169,0.0919971764087677,-0.018622277304530144,0.006810928229242563,0.016717974096536636,0.004493150394409895,-0.09166790544986725,-0.0037963984068483114,0.05881329998373985,-0.16005228459835052,0.10060105472803116,0.34038034081459045,0.11595170944929123,-0.10677319765090942,0.2163049429655075,-0.06476743519306183,0.15977607667446136,0.2790065407752991,-0.05742522329092026,-0.015315717086195946,0.3333764672279358,-0.17266663908958435,0.09618543088436127,-0.12423885613679886,0.1569804847240448,-0.06783559173345566,0.03306717425584793,0.1269303560256958,-0.05064588040113449,-0.3272589445114136},{0.017868902534246445,-0.018027344718575478,-0.04222176596522331,0.100217804312706,-0.1475776582956314,-0.05716316029429436,0.2648337781429291,-0.26865094900131226,0.015439257025718689,-0.006244674790650606,-0.03081667423248291,-0.033160120248794556,0.3180467486381531,-0.0920076072216034,0.18971730768680573,-0.08953003585338593,-0.12462892383337021,0.02208555117249489,0.08573564141988754,-0.1894659847021103,-0.0816781222820282,0.18689300119876862,0.028951507061719894,-0.2041703164577484,-0.12199230492115021,0.015635855495929718,0.11996440589427948,-0.006600016728043556,-0.10198266804218292,0.09307215362787247,0.21685832738876343,-0.06263791769742966,0.17517505586147308,-0.29264071583747864,0.06927314400672913,0.24386048316955566,-0.046403445303440094,0.022646326571702957,-0.05498433858156204,0.2701115906238556,-0.010427632369101048,0.04330988600850105,-0.15230470895767212,0.04226117208600044,-0.06593374162912369,0.16427378356456757,-0.08580195158720016,-0.05181020498275757,-0.24419747292995453,-0.11621612310409546,0.11755785346031189,0.10861370712518692,-0.3373262584209442,0.039326902478933334,0.19176849722862244,-0.3398113250732422,0.2670304775238037,-0.1656324416399002,0.04477178305387497,0.02255360782146454,0.021312538534402847,0.17880772054195404,0.013865870423614979,0.09740763157606125},{0.15704870223999023,0.0801573097705841,-0.005720891058444977,0.09694008529186249,-0.04393872991204262,0.003584273625165224,-0.18726980686187744,-0.027873413637280464,0.09380059689283371,0.06272472441196442,0.12540221214294434,-0.07951297610998154,0.11605750024318695,-0.09885141998529434,0.12750321626663208,0.11138574779033661,-0.03243304044008255,-0.2541315257549286,-0.15825620293617249,-0.07556170225143433,0.0641796737909317,-0.012798835523426533,0.13186480104923248,0.1159033477306366,0.08042266219854355,-0.027222631499171257,-0.040199343115091324,0.07911857217550278,0.05030002072453499,0.10325266420841217,0.2859381437301636,-0.08068142831325531,0.05258188024163246,-0.1377692073583603,-0.14097262918949127,0.099430613219738,0.06970460712909698,-0.12586629390716553,-0.03590375930070877,0.08150871098041534,-0.060883622616529465,-0.0430850088596344,-0.13893543183803558,-0.04423831030726433,-0.11349792778491974,-0.009934844449162483,-0.025100545957684517,0.08612373471260071,0.06274128705263138,-0.08465395122766495,0.012380537576973438,-0.053532496094703674,-0.22170908749103546,0.1316094994544983,0.049269311130046844,-0.049319908022880554,0.14044339954853058,-0.07877570390701294,0.08123643696308136,0.06343382596969604,-0.15604759752750397,0.02184649184346199,-0.08885672688484192,0.016608046367764473},{-0.18075720965862274,-0.040113665163517,-0.2254224717617035,0.04475860670208931,0.12040680646896362,0.12244310975074768,0.35259559750556946,-0.06357516348361969,-0.0029881554655730724,-0.05682101100683212,-0.7004152536392212,-0.004754990804940462,0.08730346709489822,-0.1380343735218048,0.10727372020483017,-0.016139574348926544,0.1128169447183609,-0.012655522674322128,-0.09437352418899536,0.20188410580158234,0.15658777952194214,0.2711116671562195,0.1739567220211029,0.11139103025197983,0.09966886788606644,0.20413140952587128,-0.16965660452842712,-0.12210436910390854,-0.14865519106388092,-0.028901219367980957,0.23229674994945526,-0.11732605844736099,-0.015201988629996777,0.21792778372764587,-0.10854659974575043,-0.2224646955728531,-0.003379414789378643,-0.1148250624537468,0.03760766610503197,-0.08916537463665009,0.020849213004112244,-0.07093977928161621,0.27847275137901306,-0.22486612200737,-0.21870923042297363,-0.45121487975120544,0.08542375266551971,0.11936334520578384,0.12154178321361542,-0.08242527395486832,-0.2562384009361267,-0.28825023770332336,0.05483851209282875,-0.03413814678788185,-0.06245959922671318,0.011524775065481663,-0.1617937982082367,0.11095418781042099,0.03255551680922508,0.049350935965776443,-0.1288653016090393,-0.011218844912946224,0.05072776600718498,0.11576632410287857},{0.1958180069923401,-5.129520650370978e-05,-0.15004442632198334,0.08313551545143127,-0.06377479434013367,-0.05654053017497063,-0.04114542528986931,0.05600551515817642,0.1151750460267067,0.03434407711029053,0.022863350808620453,0.004923815838992596,0.08165294677019119,0.03002171590924263,0.05680094659328461,-0.0434892363846302,0.051460471004247665,-0.09198663383722305,-0.012931603007018566,0.0559823177754879,0.005857045296579599,0.09734199941158295,0.05868661776185036,0.07845908403396606,0.06764039397239685,0.014212974347174168,-0.027233412489295006,-0.09262090176343918,-0.0846104547381401,0.09770103543996811,0.259094774723053,-0.15492857992649078,-0.09694971144199371,-0.22081032395362854,0.06401156634092331,-0.05066299811005592,-0.05232805386185646,-0.13728928565979004,0.053045157343149185,0.05796307325363159,-0.002946634544059634,0.020343348383903503,-0.10051184147596359,-0.0701020210981369,0.11523036658763885,0.1984037458896637,-0.09431854635477066,-0.04276273027062416,-0.1943833827972412,-0.09208004921674728,0.046396657824516296,0.19581590592861176,-0.14156073331832886,-0.08720335364341736,0.12747599184513092,-0.18664230406284332,0.03192465752363205,-0.15019620954990387,-0.10746017098426819,-0.03056144341826439,-0.007537561468780041,0.09731032699346542,0.1180209070444107,-0.039353929460048676},{0.11104846000671387,0.018837640061974525,-0.09638964384794235,-0.24059851467609406,-0.1315270960330963,-0.06693729758262634,-0.2937065064907074,0.15555039048194885,-0.028614938259124756,-0.004295317456126213,0.5327509641647339,-0.13336175680160522,-0.13983739912509918,-0.1268519014120102,-0.1713983565568924,-0.13211514055728912,-0.07897762954235077,-0.017705511301755905,-0.07105498760938644,-0.05959755927324295,0.059436287730932236,-0.1936865895986557,0.009943514131009579,-0.00015075299597810954,0.055212944746017456,0.13512858748435974,-0.0467534102499485,-0.015456471592187881,-0.011339644901454449,-0.14087837934494019,0.07968412339687347,0.1406010538339615,-0.1467362940311432,-0.12387844920158386,-0.0930010974407196,0.054925013333559036,-0.2515034079551697,0.04167516902089119,0.1488700658082962,-0.052602674812078476,0.17692537605762482,-0.01457912102341652,0.04231855645775795,0.06852786988019943,-0.18604962527751923,-0.013005196116864681,0.03950052708387375,0.023052088916301727,-0.1952008754014969,0.06841826438903809,0.059521738439798355,0.11328493058681488,0.0922987088561058,0.07763177901506424,-0.10116901993751526,0.012006845325231552,-0.07265162467956543,0.1282816380262375,0.2424345314502716,-0.07317104935646057,-0.043502822518348694,0.09810815751552582,-0.0174234788864851,0.006460662465542555},{0.5178564190864563,-0.08767938613891602,-0.0989767462015152,-0.18560898303985596,-0.30266961455345154,0.15420307219028473,-0.7728546261787415,0.4219107925891876,0.14271923899650574,-0.013033743016421795,0.3884543180465698,0.07958332449197769,-0.6380996108055115,-0.048519566655159,-0.2823302447795868,-0.12787185609340668,-0.06484322249889374,0.1682666391134262,0.08591101318597794,-0.3013448715209961,0.25098562240600586,-1.1606671810150146,0.0428544357419014,-0.09037340432405472,0.06486980617046356,0.034381575882434845,-0.06047598645091057,0.10755891352891922,-0.11154639720916748,-0.12839965522289276,-0.02501240000128746,-0.16483934223651886,-0.12100275605916977,0.37999850511550903,0.21901656687259674,-0.029680386185646057,-0.20092874765396118,-0.14921528100967407,0.3119533360004425,0.018411772325634956,0.05269434303045273,0.27585726976394653,-0.10673832148313522,0.3067307770252228,-0.43066680431365967,0.2588401734828949,-0.09790178388357162,-0.1459835022687912,-0.062444526702165604,0.30355504155158997,0.21010155975818634,-0.020908283069729805,0.6207941174507141,0.289023220539093,-0.2938076853752136,0.0842229351401329,0.2558237314224243,0.19619236886501312,0.6801661849021912,-0.02963697910308838,-0.09388939291238785,-0.0019305892055854201,0.0946059450507164,-0.32281288504600525},{-0.15135982632637024,-0.004162023775279522,0.16019655764102936,-0.13363292813301086,-0.052761390805244446,-0.17854493856430054,0.4062424600124359,-0.09997645020484924,0.19255174696445465,-0.06382766366004944,0.13132907450199127,0.07207886874675751,-0.22255170345306396,0.015263368375599384,-0.10467470437288284,-0.03676293417811394,-0.10234729200601578,-0.13407659530639648,0.06122758984565735,0.06589400768280029,-0.1594911366701126,-0.2270461916923523,-0.04653863608837128,-0.07114655524492264,0.017167678102850914,-0.061860229820013046,0.10032978653907776,-0.07315366715192795,-0.10436157882213593,-0.10079246014356613,-0.05211951956152916,-0.09861184656620026,0.17325139045715332,0.05245160311460495,-0.0834682434797287,-0.009762695990502834,0.06454329937696457,-0.04075971618294716,-0.16466709971427917,0.11434242129325867,0.04079599305987358,-0.1623707264661789,-0.0027588175144046545,-0.022256560623645782,0.20364129543304443,0.011581497266888618,-0.20449745655059814,-0.0017220003064721823,-0.18624383211135864,-0.062283825129270554,0.14109684526920319,0.05829715356230736,-0.1534595787525177,-0.010482965037226677,-0.10003136843442917,0.07033313810825348,0.09593696892261505,-0.0742163211107254,0.06024784594774246,0.08933881670236588,0.08337010443210602,-0.014409595169126987,-0.03927193209528923,0.012246781028807163},{-0.0755397230386734,0.038406915962696075,0.20665249228477478,0.09946555644273758,-0.041353870183229446,-0.04185273498296738,0.23897194862365723,0.10831858217716217,-0.02014526166021824,-0.09490977227687836,0.022856425493955612,0.05155566334724426,-0.07673928886651993,-0.012096085585653782,0.10390995442867279,0.1061253473162651,-0.08477647602558136,-0.03186580166220665,0.07870711386203766,-0.09511531889438629,-0.15563848614692688,0.11851683259010315,0.07296699285507202,0.1054571270942688,0.009619605727493763,0.14058063924312592,0.011357138864696026,0.07585038244724274,-0.11036914587020874,0.11243093013763428,-0.15446697175502777,0.14471201598644257,-0.0326632522046566,0.08428000658750534,-0.05495981499552727,0.1190367043018341,0.03885897248983383,0.036862604320049286,-0.18542802333831787,0.10192184895277023,0.09722062945365906,-0.11934566497802734,0.056044191122055054,-0.026807090267539024,0.17061644792556763,-0.053043074905872345,0.035866837948560715,0.03997107595205307,0.03662882000207901,-0.20031042397022247,0.07749421894550323,0.15607529878616333,-0.04868697375059128,0.024128615856170654,-0.12591326236724854,0.05875770375132561,-0.0951475128531456,-0.20749777555465698,-0.021587161347270012,0.0755005031824112,-0.12720580399036407,-0.05714500695466995,-0.08063577115535736,0.058675676584243774},{0.41168469190597534,-0.08403381705284119,0.18529927730560303,-0.10046540945768356,0.09582594782114029,0.11513359844684601,-0.020374193787574768,0.0431893914937973,-0.02679472789168358,0.13395625352859497,0.18924902379512787,-0.033522047102451324,-0.04396534711122513,-0.010384833440184593,-0.046933285892009735,0.07914385944604874,0.060256343334913254,0.05273636430501938,0.057074520736932755,-0.07708442211151123,0.02181669883430004,-0.11146122217178345,-0.14636150002479553,-0.07439342886209488,-0.04431627690792084,-0.07179218530654907,-0.01967748999595642,-0.029849810525774956,-0.10299359261989594,-0.010154768824577332,0.27183622121810913,-0.11309677362442017,0.04079751670360565,0.04101964831352234,-0.06088992580771446,0.1251770257949829,0.20687898993492126,-0.2060161530971527,0.05324302613735199,-0.11580833792686462,0.07501755654811859,-0.07798635214567184,-0.12557223439216614,-0.009436753578484058,0.10003344714641571,0.1257144957780838,-0.17045094072818756,-0.03492528572678566,0.0372190959751606,0.011616500094532967,-0.28586241602897644,0.21965284645557404,-0.03593897446990013,-0.048517681658267975,0.04624916613101959,-0.07232971489429474,0.003938391339033842,-0.21105267107486725,-0.29547303915023804,0.0763755813241005,0.03407856449484825,-0.22179356217384338,0.2609569728374481,-0.22359900176525116},{-0.138998344540596,0.00709148496389389,-0.013408828526735306,0.04782211780548096,-0.15381313860416412,-0.04193556308746338,0.12199527770280838,0.06846504658460617,0.22666649520397186,0.0023323579225689173,0.04397254064679146,0.03198936581611633,0.08806208521127701,-0.12913519144058228,-0.010218353010714054,0.2251090556383133,-0.06324844807386398,-0.1967325657606125,-0.03610934689640999,-0.16041654348373413,-0.12316412478685379,-0.023243112489581108,-0.007640654221177101,-0.0022514553274959326,-0.13584600389003754,0.11282439529895782,0.06312859803438187,-0.15008766949176788,-0.1361284852027893,0.16906288266181946,-0.14271530508995056,-0.0675487294793129,0.12153533101081848,-0.010999825783073902,-0.10812429338693619,0.12071406096220016,0.08237753808498383,0.13385072350502014,-0.14606255292892456,-0.037981778383255005,-0.022018644958734512,-0.024699358269572258,-0.1275852918624878,-0.11965548247098923,0.08113951236009598,0.17844904959201813,-0.16101208329200745,-0.08427882194519043,0.023823712021112442,-0.06631383299827576,0.2746713161468506,0.14055483043193817,-0.14117105305194855,0.05431314930319786,0.1327546089887619,0.013966497033834457,0.10252115875482559,-0.1826513558626175,0.10234086960554123,-0.08731099963188171,0.08400408178567886,-0.02806270681321621,-0.14726059138774872,0.021187102422118187},{0.1440274864435196,0.01596357300877571,-0.010580463334918022,-0.260945200920105,-0.20690080523490906,0.15324117243289948,-0.6687482595443726,0.05997120961546898,-0.22838608920574188,-0.07759048789739609,0.6327970027923584,-0.203130841255188,-1.2356555461883545,0.050936080515384674,0.0050262995064258575,-0.20275841653347015,0.09145720303058624,0.4442751109600067,-0.054886337369680405,-0.1304491013288498,0.21399222314357758,-1.1444343328475952,-0.09308604896068573,-0.10152806341648102,0.10914798080921173,-0.2470342218875885,-0.08619488030672073,0.06085485965013504,-0.05031109228730202,-0.32009807229042053,0.08450054377317429,-0.2750703990459442,0.05939483642578125,0.8282561898231506,0.24313832819461823,0.0052306801080703735,-0.11105779558420181,-0.1738239824771881,0.02023210935294628,0.005145236384123564,0.2626180648803711,-0.005826545413583517,-0.2273876816034317,0.22719280421733856,-0.6905230283737183,-0.6636969447135925,0.012445604428648949,0.08183936774730682,-0.028243903070688248,0.30774882435798645,0.1953440010547638,-0.15596365928649902,1.1784508228302002,0.12490079551935196,-0.3397258222103119,0.14397267997264862,0.27903231978416443,0.16576460003852844,0.8651588559150696,-0.0704365149140358,-0.09949123114347458,-0.07050503045320511,-0.150489941239357,0.22379274666309357},{0.11782103031873703,-0.11175185441970825,-0.17832142114639282,0.10015352070331573,-0.11367268115282059,-0.028322767466306686,-0.11397611349821091,0.12863224744796753,0.21203765273094177,-0.04534275457262993,0.00671776058152318,-0.012853885069489479,0.4596420228481293,0.07727038115262985,-0.05454898625612259,0.008768221363425255,-0.052717290818691254,-0.1924128383398056,0.028477121144533157,-0.1616349220275879,0.03692246973514557,0.43387144804000854,0.08125019073486328,0.059980686753988266,-0.18983595073223114,0.1486719697713852,-0.036270871758461,-0.1330575942993164,-0.07521884143352509,0.11065354943275452,-0.3889869749546051,-0.011494234204292297,-0.07646358758211136,-0.12843027710914612,0.03947601094841957,-0.02918577380478382,-0.07179765403270721,0.14643779397010803,-0.02133306674659252,0.00912536308169365,-0.014975023455917835,-0.0033165314234793186,0.21125976741313934,-0.23151862621307373,0.08293815702199936,0.5732800364494324,0.23510849475860596,-0.06588979065418243,0.09448451548814774,-0.07881269603967667,-0.0876125618815422,0.17204418778419495,-0.3358653783798218,-0.055499084293842316,0.32499960064888,-0.14041337370872498,-0.12992075085639954,-0.2149413675069809,-0.1669197380542755,-0.1057014912366867,-0.005882175173610449,-0.07311657816171646,0.07809929549694061,-0.21586653590202332},{0.20445868372917175,0.0883602648973465,-0.25267961621284485,-0.1837296038866043,-0.41069406270980835,0.10167013853788376,-0.23976244032382965,0.1482352465391159,0.13215969502925873,0.0873459205031395,0.20922046899795532,-0.054143182933330536,0.2116672247648239,-0.017878198996186256,-0.193649023771286,-0.2871839106082916,-0.11016975343227386,-0.03425198793411255,0.07950011640787125,-0.5424262285232544,-0.0011668396182358265,-0.24742154777050018,-0.17223794758319855,-0.1985856592655182,0.0025047152303159237,0.04313429445028305,0.12907478213310242,0.06656085699796677,-0.20036718249320984,-0.09226246923208237,-0.043347977101802826,0.02559577114880085,-0.04960133880376816,-0.6077561974525452,0.10087471455335617,0.09575501084327698,-0.1885097324848175,-0.1215951219201088,0.2984037399291992,0.222408726811409,0.1233406588435173,0.3184816539287567,0.012947926297783852,0.11900971084833145,-0.17756430804729462,0.22572317719459534,0.02916436642408371,-0.06912364810705185,-0.278058260679245,0.21554751694202423,0.40011608600616455,0.00818506721407175,-0.14620818197727203,0.33151376247406006,-0.8477047681808472,0.10370084643363953,0.3075135350227356,-0.014969266019761562,0.7221891283988953,-0.07433383166790009,0.1645774394273758,-0.14757497608661652,-0.22314053773880005,-0.1801495999097824},{0.007798078004270792,-0.055304285138845444,-0.030505146831274033,-0.14966030418872833,-0.0035814798902720213,0.038390208035707474,0.22707229852676392,0.07562371343374252,0.10466915369033813,0.003941936418414116,0.25482484698295593,-0.09263989329338074,0.02541871927678585,-0.16795475780963898,0.09196436405181885,0.1529882252216339,0.0027822540141642094,-0.1838938444852829,-0.010128544643521309,-0.1884421408176422,-0.07860959321260452,0.03290153667330742,-0.024860957637429237,0.08456992357969284,0.09563583135604858,0.00684959813952446,-0.06792139261960983,-0.03952173516154289,-0.05587640032172203,-0.043540388345718384,0.015252156183123589,0.09414093941450119,0.053229913115501404,-0.15977351367473602,-0.026598695665597916,0.2278587818145752,-0.07944975793361664,-0.05804162099957466,-0.13154655694961548,0.15325894951820374,0.01674371212720871,-0.08741910755634308,-0.21580904722213745,0.04418821260333061,0.017336441203951836,-0.006105631124228239,-0.2484857141971588,0.028547104448080063,-0.20317910611629486,-0.17264173924922943,0.26571178436279297,0.18199805915355682,-0.2770816385746002,-0.020389098674058914,-0.22443485260009766,-0.20657406747341156,0.03472311794757843,-0.0052581848576664925,0.1552109718322754,-0.1535496860742569,0.0018889602506533265,0.04612793028354645,0.021813256666064262,0.03676316514611244},{-0.09710942953824997,0.030367814004421234,0.12218543887138367,-0.10115958750247955,0.16677325963974,-0.14801685512065887,0.16470393538475037,-0.22270818054676056,0.006563467439264059,-0.1523522436618805,-0.14197827875614166,0.04023629054427147,-0.16059307754039764,0.058475613594055176,0.10098826885223389,0.00970936007797718,0.09818527102470398,0.06391209363937378,-0.038834098726511,0.14958512783050537,0.05067569389939308,0.3365463316440582,0.03819349780678749,-0.1089138388633728,0.03506264090538025,-0.08317136764526367,0.04827694594860077,-0.012771711684763432,0.10093165189027786,-0.026077765971422195,0.09416427463293076,0.06666131317615509,-0.008986378088593483,-0.04225536063313484,-0.10107158869504929,-0.03485064581036568,0.06025842949748039,-0.0138770816847682,-0.09647968411445618,-0.09315111488103867,-0.08693335950374603,-0.07684270292520523,-0.05052773654460907,-0.06362229585647583,0.027129225432872772,-0.43680453300476074,-0.08578972518444061,0.11600684374570847,0.11143464595079422,0.019068824127316475,-0.15111930668354034,-0.24843233823776245,0.21065929532051086,-0.007368496153503656,-0.017114389687776566,-0.1088092103600502,-0.14820727705955505,0.1252593696117401,-0.08053076267242432,-0.06366515159606934,0.020433202385902405,0.09048175066709518,-0.19010572135448456,0.21677972376346588},{-0.04264029115438461,0.14229729771614075,-0.0954606682062149,-0.12972933053970337,0.08723994344472885,-0.15778467059135437,0.1700841784477234,-0.11933958530426025,0.2064061313867569,0.05222706124186516,0.20459462702274323,-0.07835090905427933,0.316883385181427,0.011367928236722946,-0.11626076698303223,0.03453585132956505,0.0357077419757843,-0.11224833130836487,-0.22081537544727325,0.017176929861307144,0.14483191072940826,-0.2539653778076172,-0.12910699844360352,0.15668745338916779,0.1252189427614212,-0.006057745311409235,-0.033252112567424774,-0.06866822391748428,-0.10610870271921158,-0.26708513498306274,0.19946368038654327,0.036324646323919296,0.006777110975235701,-0.4609721302986145,0.04599223658442497,0.027050716802477837,-0.012886635027825832,0.04144198074936867,0.33914828300476074,-0.05792272835969925,0.05290725454688072,0.10555542260408401,-0.00972835998982191,0.1434636414051056,-0.05893780663609505,0.1519276648759842,0.01784694939851761,0.07350047677755356,-0.34426477551460266,0.059673842042684555,-0.20269469916820526,-0.03070792742073536,-0.05697886645793915,0.16745196282863617,0.09329332411289215,-0.18629328906536102,0.06640259176492691,0.1226210668683052,-0.2032093107700348,-0.1426655799150467,0.011167384684085846,-0.12650342285633087,0.22618217766284943,0.039477765560150146},{0.061797354370355606,-0.02558830939233303,0.04581477493047714,-0.05057893693447113,-0.0912020355463028,-0.024858834221959114,0.34100520610809326,-0.03962833061814308,0.12549984455108643,0.02663983404636383,-0.15191194415092468,-0.02180474065244198,0.1254778653383255,-0.04112523794174194,-0.08198513835668564,0.030020257458090782,-0.006588872987776995,-0.10027530044317245,0.0737432986497879,-0.11103847622871399,-0.03931271657347679,-0.010049311444163322,-0.026219140738248825,-0.0409359484910965,0.025896679610013962,0.043552059680223465,-0.10816280543804169,-0.1044607162475586,0.015277134254574776,0.02785288728773594,0.03137481212615967,-0.11329584568738937,0.050602447241544724,-0.07950186729431152,-0.011210580356419086,-0.07040431350469589,-0.0417095385491848,-0.11143243312835693,-0.003362199990078807,-0.13620100915431976,0.047030672430992126,0.11135365068912506,0.0796598270535469,0.004048613831400871,0.07791169732809067,0.020050661638379097,-0.07483461499214172,-0.06337952613830566,0.06515175104141235,0.007588584907352924,0.022653717547655106,-0.005343112628906965,0.10058090835809708,-0.12550991773605347,-0.15702201426029205,-0.08008946478366852,0.04906642436981201,0.0780802071094513,0.12461820989847183,0.08364633470773697,-0.0678015947341919,0.06403123587369919,0.08494316041469574,0.02337913028895855},{-0.13734811544418335,0.06613443791866302,-0.015228215605020523,0.06451553851366043,-0.2427101880311966,0.1019260510802269,0.09403549879789352,-0.1052606999874115,0.09007343649864197,-0.03571699187159538,-0.009838254190981388,-0.05298101156949997,0.1586974710226059,0.03198995813727379,0.049824927002191544,0.18248172104358673,-0.026519281789660454,-0.08820798993110657,0.08168938010931015,-0.1557818204164505,0.038589801639318466,0.09092127531766891,0.010791663080453873,-0.04628760740160942,0.07056014239788055,0.2368304282426834,-0.10845968127250671,0.07853434234857559,-0.08184229582548141,0.11273469775915146,-0.2209281474351883,0.14884674549102783,0.03240007907152176,-0.2732769250869751,-0.07594600319862366,0.06321194767951965,-0.18550918996334076,0.2402399331331253,-7.913120498415083e-05,0.12831921875476837,0.06445236504077911,0.1213746890425682,-0.08767741918563843,-0.14302541315555573,-0.06790895760059357,-0.01850213296711445,0.014024831354618073,-0.0683320090174675,0.017674241214990616,-0.08049266040325165,0.5357087850570679,-0.05824315547943115,-0.04933199658989906,0.023102199658751488,-0.31853365898132324,0.12758950889110565,0.11475080996751785,-0.06494694948196411,0.5014127492904663,-0.043308503925800323,-0.002017781836912036,-0.11803795397281647,-0.29527145624160767,-0.052213430404663086},{-0.0655059739947319,-0.041872020810842514,-0.1324390321969986,-0.10039587318897247,0.07086662948131561,0.00712869968265295,-0.26030561327934265,0.12840713560581207,0.12327775359153748,-0.044045593589544296,0.21812115609645844,-0.11728198826313019,-0.053164176642894745,0.04789076745510101,0.08785614371299744,-0.12783081829547882,-0.043780818581581116,0.05728448927402496,-0.12413489073514938,-0.05216105654835701,-0.0033100617583841085,-0.05530095100402832,-0.03031933680176735,-0.019349288195371628,-0.0032877239864319563,0.08393943309783936,0.034049589186906815,-0.03392842039465904,0.04590865224599838,-0.11463432759046555,0.003072548657655716,-0.10109768807888031,-0.03744357079267502,-0.02141733281314373,-0.119344562292099,-0.08173641562461853,-0.10349427163600922,-0.020476816222071648,-0.07379516959190369,0.06594327837228775,-0.10680624097585678,0.017456164583563805,-0.03046666830778122,-0.038774918764829636,-0.133933424949646,-0.04709120839834213,-0.0022021173499524593,-0.03723271191120148,0.06850114464759827,-0.03153446316719055,-0.09410542249679565,0.012480488047003746,0.17636822164058685,0.13106311857700348,0.04898524284362793,-0.05810210481286049,-0.07067456841468811,0.021360717713832855,-0.04618684947490692,-0.006297210697084665,-0.11394758522510529,-0.06329374760389328,-0.12322188913822174,-0.00127744663041085},{-0.021892918273806572,-0.013527224771678448,0.004830180201679468,-0.11883137375116348,0.02910550683736801,0.007031844463199377,0.11868192255496979,-0.011436274275183678,0.011845768429338932,0.1017693430185318,0.04223073646426201,-0.01414340827614069,0.27792662382125854,-0.03215554356575012,-0.07820811122655869,0.1200571060180664,0.042515188455581665,0.024502551183104515,0.16918769478797913,-0.09584244340658188,-0.08349262177944183,0.18995925784111023,-0.0718674585223198,0.0418257936835289,0.03707759827375412,0.05373683571815491,0.07712098211050034,-0.062346190214157104,-0.13455696403980255,0.03693343698978424,-0.19311217963695526,0.2069353461265564,0.03945307806134224,-0.511346697807312,0.09283486753702164,0.03614281490445137,-0.20859690010547638,0.2533091902732849,0.10889719426631927,0.09056025743484497,0.07242327183485031,0.009873184375464916,-0.14408716559410095,-0.0226396843791008,0.3429333567619324,0.24967730045318604,0.15689237415790558,0.09854602068662643,-0.22278591990470886,-0.10143007338047028,0.14421896636486053,0.05839007720351219,-0.37293994426727295,0.06891681253910065,-0.258076012134552,-0.15756791830062866,-0.06936798244714737,-0.07074707746505737,0.06557576358318329,-0.0036700062919408083,0.15223731100559235,-0.04220137745141983,-0.01721547544002533,-0.19989770650863647},{0.23840025067329407,-0.016688188537955284,-0.12677332758903503,-0.23815414309501648,0.16195228695869446,-0.01488630659878254,-0.25667184591293335,-0.15277345478534698,-0.2908984422683716,-0.19313567876815796,-0.19916927814483643,-0.06892925500869751,-0.18872354924678802,-0.020638499408960342,0.02660461515188217,-0.17632567882537842,-0.03127187117934227,0.06236311048269272,-0.1405385285615921,0.387412965297699,0.13976305723190308,0.04243883863091469,0.07447328418493271,-0.018131548538804054,0.0882224440574646,0.021972786635160446,-0.07578343152999878,-0.0295365359634161,-0.015870055183768272,-0.24170882999897003,0.281145304441452,-0.10188436508178711,-0.09559617936611176,0.46778807044029236,0.06598827242851257,-0.1969546377658844,0.13957585394382477,-0.014413086697459221,0.2631228268146515,-0.3002534806728363,-0.035862915217876434,0.1310654878616333,0.24317963421344757,-0.2625012695789337,-0.357012003660202,-0.5731269121170044,0.12809523940086365,-0.09038117527961731,0.2696435749530792,0.22071336209774017,-0.3051486611366272,-0.22062568366527557,0.48151344060897827,-0.03674764186143875,-0.06750014424324036,0.00821315124630928,-0.16597136855125427,0.15518902242183685,-0.0662836804986,0.014110743068158627,-0.2369140237569809,0.06880435347557068,0.06357477605342865,0.10923037678003311},{-0.24333912134170532,-0.01492389664053917,-0.20592047274112701,-0.0434584841132164,-0.08316951245069504,0.06660973280668259,0.27563175559043884,-0.1307319551706314,0.013117118738591671,0.008883154019713402,-0.2590837776660919,0.08946546912193298,0.45070788264274597,0.12382449209690094,0.008086716756224632,-0.15079422295093536,-0.055548831820487976,0.12674087285995483,0.03154492750763893,-0.03870106115937233,0.20709581673145294,0.28509020805358887,-0.16407452523708344,-0.13392245769500732,0.12787224352359772,0.0038192097563296556,-0.1287391036748886,-0.04855437949299812,0.10427664965391159,-0.06400877237319946,0.04753027483820915,0.08300887793302536,0.01400619838386774,-0.5123917460441589,0.10273987799882889,-0.022446246817708015,-0.07756748795509338,-0.018173428252339363,0.3091466426849365,-0.03777438402175903,0.11308860033750534,0.17366555333137512,-0.13960815966129303,0.06310342997312546,0.1815759390592575,-0.04626352712512016,0.13660182058811188,0.04049006476998329,-0.3974136412143707,0.040935929864645004,-0.051253266632556915,-0.3080989122390747,-0.22223150730133057,0.0660507082939148,-0.04613591730594635,-0.2282377928495407,0.07409165054559708,0.12556248903274536,0.14758317172527313,-0.045426007360219955,0.025257878005504608,0.1244586706161499,-0.05479126051068306,0.10101310163736343},{0.1317407339811325,-0.06403066962957382,0.06720352172851562,0.01598806120455265,0.05277365818619728,0.0067259096540510654,-0.559946596622467,-0.0601034089922905,-0.06735435128211975,0.025773797184228897,0.06152014061808586,0.07623404264450073,0.01795485056936741,0.004486110061407089,0.006743798032402992,-0.0331420823931694,-0.09210886061191559,0.0015171971172094345,0.11060904711484909,-0.04583103954792023,0.16478288173675537,0.05789540335536003,-0.08721993863582611,0.08537442982196808,-0.09887925535440445,-0.13255536556243896,-0.07307063788175583,0.04928184673190117,0.08733537793159485,0.0737307220697403,0.12361540645360947,-0.02833465114235878,-0.00028714819927699864,-0.14967966079711914,0.00999299343675375,0.0854233130812645,-0.12322699278593063,0.04784884303808212,0.11702866107225418,-0.02590053528547287,0.13179224729537964,0.006326332688331604,-0.10264623165130615,0.019133200868964195,0.02678508684039116,0.034273698925971985,0.17334409058094025,0.0022307559847831726,-0.12745970487594604,-0.04536709934473038,0.01924879662692547,-0.019439872354269028,-0.07890401780605316,0.0733042061328888,-0.06367082893848419,-0.052784353494644165,-0.11097852140665054,0.012656822800636292,-0.11325859278440475,-0.08413190394639969,0.004342883359640837,-0.017050383612513542,-0.009014079347252846,-0.018718469887971878},{-0.21305686235427856,0.037291768938302994,0.043400201946496964,0.018773596733808517,0.06824979931116104,0.005771024618297815,0.1047748252749443,0.07011152058839798,0.19479580223560333,-0.13458217680454254,0.17963215708732605,0.1061796247959137,0.08732828497886658,-0.09940651804208755,-0.10781969130039215,-0.006336649879813194,-0.1339072585105896,0.041398897767066956,-0.03817475587129593,-0.08107831329107285,0.12377897650003433,0.04301925748586655,0.16529430449008942,0.18216386437416077,-0.05660185217857361,-0.09644141048192978,-0.04240701347589493,0.04277583211660385,-0.14095111191272736,-0.04511021077632904,-0.45171406865119934,0.1690639853477478,-0.04725741595029831,0.08465125411748886,-0.11417292803525925,0.05753270164132118,-0.07341446727514267,0.17391201853752136,-0.01404169574379921,0.031633272767066956,0.07145823538303375,0.04322550818324089,-0.07555299997329712,-0.05506207421422005,-0.19423386454582214,0.0987071543931961,-0.008255756460130215,-0.09826229512691498,0.13456694781780243,0.14247548580169678,0.27197328209877014,-0.10091973096132278,0.18654565513134003,-0.03150194138288498,-0.01031185407191515,0.15002980828285217,-0.02833852730691433,-0.05673021823167801,0.3316182494163513,-0.020583514124155045,0.061379287391901016,0.06388841569423676,-0.19604986906051636,-0.06522706896066666},{-0.012667260132730007,-0.03313755244016647,0.07085350900888443,-0.06879518926143646,-0.1069784089922905,0.07553325593471527,-0.8180597424507141,-0.11643683910369873,0.07337576895952225,0.054012566804885864,0.09989629685878754,-0.03716345503926277,0.06482343375682831,0.024063849821686745,-0.09796702116727829,0.04108194634318352,0.0915939211845398,-0.02468143403530121,0.05667206645011902,-0.10294727236032486,-0.002272208919748664,0.09443139284849167,0.010585222393274307,0.04540231451392174,-0.1437705010175705,0.04252488911151886,0.03162090852856636,0.10355090349912643,-0.045036088675260544,0.03636500611901283,0.003989676013588905,0.068067267537117,0.12076883763074875,-0.0893559381365776,0.036825913935899734,-0.1028061956167221,0.025585874915122986,-0.13478267192840576,0.019775504246354103,0.0031907830853015184,-0.0444682352244854,0.10905759036540985,0.05191004276275635,0.008564679883420467,0.16883708536624908,-0.027884995564818382,0.11462486535310745,-0.12235485762357712,-0.012452016584575176,-0.043332502245903015,0.07387932389974594,-0.029825350269675255,-0.0038633255753666162,0.04758954420685768,0.2845502197742462,-0.08863184601068497,-0.013819358311593533,-0.08043316751718521,-0.05486469715833664,-0.09905479103326797,0.16169556975364685,-0.020078590139746666,-0.12358115613460541,-0.046879254281520844},{-0.2407306730747223,0.08300766348838806,-0.044801339507102966,0.05738331004977226,-0.06961701810359955,0.013187839649617672,0.29514414072036743,-0.18158631026744843,0.1293519139289856,-0.024300774559378624,0.09144651889801025,-0.025113986805081367,-0.04552147164940834,0.057608574628829956,0.10581082105636597,0.16103167831897736,-0.02152039296925068,0.05176424980163574,0.013277295045554638,0.051725465804338455,0.07281655073165894,-0.051484666764736176,0.04472661018371582,0.1428997814655304,-0.062453363090753555,-0.05689747631549835,-0.007443596608936787,-0.13226398825645447,-0.01692514307796955,0.09506389498710632,-0.2691284120082855,0.06313228607177734,0.030805543065071106,0.14366589486598969,-0.026454949751496315,-0.027166517451405525,-0.010492200963199139,0.1098875105381012,0.019418617710471153,-0.07317925989627838,0.10703221708536148,-0.12323778122663498,-0.005525330081582069,0.10763317346572876,-0.05920266732573509,-0.0352904386818409,-0.018200401216745377,0.06985887885093689,-0.015312478877604008,0.05995471775531769,0.21221350133419037,-0.05614892765879631,0.09842928498983383,0.0779866874217987,0.01859353668987751,0.14746694266796112,0.057925995439291,-0.03797341138124466,0.14991655945777893,-0.0026224025059491396,-0.10610675811767578,-0.0014456603676080704,-0.07380659133195877,0.1861111968755722},{0.11109122633934021,-3.301817923784256e-05,0.11420612037181854,0.03648391366004944,0.07737646251916885,0.03268548101186752,-0.06618838012218475,-0.09890346229076385,0.0459807924926281,0.124319888651371,-0.11117340624332428,0.028159458190202713,-0.15535764396190643,-0.04899346083402634,0.0711858794093132,-0.07024839520454407,0.10077311098575592,0.06775093078613281,0.10820383578538895,0.03129822760820389,-0.07239352911710739,-0.1583663523197174,0.08312768489122391,0.04225948825478554,0.09171875566244125,0.022010833024978638,0.01945505477488041,0.01191331259906292,-0.040687914937734604,0.0497826524078846,0.10651347041130066,-0.053986333310604095,-0.031934015452861786,-0.04065949469804764,0.07177785038948059,0.0050330087542533875,0.13234961032867432,0.08016681671142578,-0.08572221547365189,-0.12797372043132782,-0.04709027335047722,-0.020935015752911568,0.06804274767637253,0.09123583137989044,-0.1050616204738617,-0.10466932505369186,0.018182964995503426,-0.023803632706403732,0.02389337122440338,0.12651348114013672,-0.05797116085886955,-0.04278985783457756,-0.10804304480552673,-0.03616822510957718,-0.14847661554813385,0.09835376590490341,0.019859440624713898,0.005039415787905455,0.13754482567310333,0.10089446604251862,0.0897199735045433,-0.03931885585188866,0.1096784919500351,-0.08440003544092178}};
